svm_type c_svc
kernel_type rbf
gamma 0.125
nr_class 10
total_sv 427
rho 0.2807793804580813 -0.6328758040540552 -0.02906332864332377 0.01559355086177352 1.7123553413876937 1.6117959505581525 -0.44849865026831043 0.719914932066255 -0.4568116070966557 -0.12569337124167929 -0.02102119561879705 -0.5088295115793667 0.10750087831702984 6.492932878920786 -1.380324783411267 0.6914189302225388 -0.20345845511767116 -0.15000260409631314 0.1039824574128247 1.1549137314920828 2.4144344759855954 -0.35594507083261057 0.011950741656282956 -0.6643653848981592 0.04171744722421663 0.2231938068020126 0.5664340737440755 -0.1825974144834053 0.33167063390820734 0.05116991633995821 0.5671200894242182 2.2426692640794004 -0.36802802874534946 0.49836354000866273 -0.1329634329201566 2.0306268335877005 -1.782342087914905 0.559554008467082 -1.5934889243674497 -3.5811525369722683 -1.614449358343515 -1.5798894077691696 1.1098441110297173 0.2105618826215894 -0.5264563109346826
label 8 13 5 11 9 6 7 10 4 12
nr_sv 45 46 48 12 18 49 131 15 45 18
SV
0.0 0.0 0.0 0.0 11.076793017465421 0.0 0.0 0.0 0.0 0:0.013166644823946774 1:0.0020784944054300153 2:0.030894308943089432 3:0.3110014619883049 4:0.0 5:0.9 6:0.0 7:0.075 8:0.02874143380035297 9:0.46567584857728295 10:0.0 11:0.0 12:0.13953488372093026 13:0.021538461538461538 14:0.021538461538461538 15:0.0 16:0.48265721753667284 17:0.4720318692749229 18:0.025886938018079033 19:0.012975482107322314 20:0.0 21:0.16673390454422773 22:0.0 23:0.0 24:0.0 25:0.0 26:1.0 27:0.041690433030730126 28:0.05118224390011337 29:0.026086956521739132 30:0.375 31:0.9999999999999998 32:0.02631578947368421 33:0.02769791616531408 34:0.4285714285714285 35:0.0 36:0.02097902097902098 37:0.14355677576383985 38:0.0 39:0.5 40:0.030769230769230767 41:2.0824816405630125E-16 42:0.0 43:0.08484248434635493 44:0.1175403804503823 45:0.023378130578514757 46:0.0025684241482053258 47:0.02667799490229397 48:0.05 49:0.3019043378704999 50:0.1511627906976744 51:0.030857740585774056 52:0.95 53:0.14925373134328357 54:0.3336470455015274 55:0.0 
0.0 0.0 0.0 0.0 16.0 0.0 0.0 0.0 0.0 0:0.013166644823946774 1:0.0020784944054300153 2:0.030894308943089432 3:0.3110014619883049 4:0.0 5:0.9 6:0.0 7:0.075 8:0.02874143380035297 9:0.46567584857728295 10:0.0 11:0.0 12:0.13953488372093026 13:0.021538461538461538 14:0.021538461538461538 15:0.0 16:0.48265721753667284 17:0.4720318692749229 18:0.025886938018079033 19:0.012975482107322314 20:0.0 21:0.16673390454422773 22:0.0 23:0.0 24:0.0 25:0.0 26:1.0 27:0.041690433030730126 28:0.05118224390011337 29:0.026086956521739132 30:0.375 31:0.9999999999999998 32:0.02631578947368421 33:0.02769791616531408 34:0.4285714285714285 35:0.0 36:0.02097902097902098 37:0.14355677576383985 38:0.0 39:0.5 40:0.030769230769230767 41:2.0824816405630125E-16 42:0.0 43:0.08484248434635493 44:0.1175403804503823 45:0.023378130578514757 46:0.0025684241482053258 47:0.02667799490229397 48:0.05 49:0.3019043378704999 50:0.1511627906976744 51:0.030857740585774056 52:0.95 53:0.14925373134328357 54:0.3336470455015274 55:0.0 
0.0 0.0 0.0 0.0 16.0 0.0 0.0 0.0 0.0 0:0.013166644823946774 1:0.0020784944054300153 2:0.030894308943089432 3:0.3110014619883049 4:0.0 5:0.9 6:0.0 7:0.075 8:0.02874143380035297 9:0.46567584857728295 10:0.0 11:0.0 12:0.13953488372093026 13:0.021538461538461538 14:0.021538461538461538 15:0.0 16:0.48265721753667284 17:0.4720318692749229 18:0.025886938018079033 19:0.012975482107322314 20:0.0 21:0.16673390454422773 22:0.0 23:0.0 24:0.0 25:0.0 26:1.0 27:0.041690433030730126 28:0.05118224390011337 29:0.026086956521739132 30:0.375 31:0.9999999999999998 32:0.02631578947368421 33:0.02769791616531408 34:0.4285714285714285 35:0.0 36:0.02097902097902098 37:0.14355677576383985 38:0.0 39:0.5 40:0.030769230769230767 41:2.0824816405630125E-16 42:0.0 43:0.08484248434635493 44:0.1175403804503823 45:0.023378130578514757 46:0.0025684241482053258 47:0.02667799490229397 48:0.05 49:0.3019043378704999 50:0.1511627906976744 51:0.030857740585774056 52:0.95 53:0.14925373134328357 54:0.3336470455015274 55:0.0 
0.0 2.0422246079567747 0.0 0.0 0.0 0.0 0.0 0.0 0.0 0:0.011590252039380876 1:0.002026814865400128 2:0.07913279132791327 3:0.3559494020842707 4:0.4 5:0.8333333333333334 6:0.0 7:0.0 8:0.024980098196271838 9:0.16686724088376279 10:0.0 11:0.0 12:0.16279069767441862 13:0.05846153846153846 14:0.05846153846153847 15:0.0 16:0.1232997740481739 17:0.13202698310721753 18:0.28493558142700165 19:0.024103612139395842 20:0.1111111111111111 21:0.1731974984638179 22:1.0 23:0.0 24:0.08697565778043745 25:0.0 26:0.0 27:0.07439230607238093 28:0.24513381170171794 29:0.1391304347826087 30:0.8 31:0.24660690296792215 32:0.0 33:0.2745002775968055 34:0.6428571428571428 35:0.0 36:0.11188811188811189 37:0.05686205157852381 38:0.38095238095238093 39:0.65 40:0.07407407407407407 41:2.0824816405630125E-16 42:0.0 43:0.09816810494636422 44:0.05907679461420036 45:0.04289315849512081 46:0.14579636568680607 47:0.1455781262068433 48:0.10256410256410256 49:0.387547385828775 50:0.1581395348837209 51:0.08106694560669456 52:0.9358974358974359 53:0.17142857142857143 54:0.384426583692808 55:0.0 
0.0 0.0 0.0 0.0 0.0 0.0 0.0 15.534552131043863 0.0 0:0.019367287703253376 1:0.0016690645721539575 2:0.03523035230352303 3:0.48552631578947475 4:0.0 5:0.5825242718446602 6:0.0 7:0.13106796116504854 8:0.04957690239481525 9:0.7394513105315371 10:0.0 11:0.0 12:0.09302325581395349 13:0.052307692307692305 14:0.05230769230769231 15:0.0 16:0.7765846710857746 17:0.5851631713943408 18:0.09830596249414904 19:0.07641538415342576 20:0.0 21:0.17850659489521736 22:0.0 23:0.0 24:0.31019245989614497 25:0.0 26:0.0 27:0.1213966540371417 28:0.37388212710701324 29:0.034782608695652174 30:0.2222222222222222 31:0.9999999999999998 32:0.07894736842105263 33:0.09789571114549298 34:0.4285714285714285 35:0.0 36:0.03496503496503497 37:0.07666191250219125 38:0.047619047619047616 39:0.2222222222222222 40:0.034188034188034185 41:0.06946072684642463 42:0.0 43:0.13679463396854558 44:0.04853482243039428 45:0.0940672524872535 46:0.009118195753607094 47:0.12172897196261682 48:0.04854368932038835 49:0.5261849637450706 50:0.10981912144702842 51:0.05334728033472803 52:0.6310679611650486 53:0.375 54:0.5420466820212992 55:0.0 
0.0 0.0 0.0 0.0 16.0 0.0 0.0 0.0 0.0 0:0.013166644823946774 1:0.0020784944054300153 2:0.030894308943089432 3:0.3110014619883049 4:0.0 5:0.9 6:0.0 7:0.075 8:0.02874143380035297 9:0.46567584857728295 10:0.0 11:0.0 12:0.13953488372093026 13:0.021538461538461538 14:0.021538461538461538 15:0.0 16:0.48265721753667284 17:0.4720318692749229 18:0.025886938018079033 19:0.012975482107322314 20:0.0 21:0.16673390454422773 22:0.0 23:0.0 24:0.0 25:0.0 26:1.0 27:0.041690433030730126 28:0.05118224390011337 29:0.026086956521739132 30:0.375 31:0.9999999999999998 32:0.02631578947368421 33:0.02769791616531408 34:0.4285714285714285 35:0.0 36:0.02097902097902098 37:0.14355677576383985 38:0.0 39:0.5 40:0.030769230769230767 41:2.0824816405630125E-16 42:0.0 43:0.08484248434635493 44:0.1175403804503823 45:0.023378130578514757 46:0.0025684241482053258 47:0.02667799490229397 48:0.05 49:0.3019043378704999 50:0.1511627906976744 51:0.030857740585774056 52:0.95 53:0.14925373134328357 54:0.3336470455015274 55:0.0 
0.0 0.0 0.0 0.0 8.710126792399928 0.0 0.0 0.0 0.0 0:0.011844548761088406 1:0.002156462864460474 2:0.03252032520325203 3:0.3110014619883049 4:0.0 5:0.890625 6:0.0 7:0.0703125 8:0.025822502586883476 9:0.5105519345058734 10:0.0 11:0.0 12:0.18604651162790697 13:0.021538461538461538 14:0.021538461538461538 15:0.0 16:0.5528831889528611 17:0.5175204699642909 18:0.0260960784509001 19:0.015308278359394006 20:0.0 21:0.184087737533954 22:0.0 23:0.0 24:0.0 25:0.0 26:1.0 27:0.041655782460770514 28:0.04553861258072355 29:0.026086956521739132 30:0.375 31:0.9999999999999998 32:0.02631578947368421 33:0.028036562357844186 34:0.4285714285714285 35:0.0 36:0.02097902097902098 37:0.1505968995066066 38:0.0 39:0.5 40:0.032478632478632474 41:2.0824816405630125E-16 42:0.0 43:0.08552792632042767 44:0.11745650690931593 45:0.02737412100928816 46:0.0021430880466022308 47:0.03148057058534186 48:0.046875 49:0.3839473349446636 50:0.16279069767441862 51:0.032949790794979075 52:0.9375 53:0.14084507042253522 54:0.42599108683518094 55:0.0 
0.0 13.437721489801074 0.0 0.0 0.0 2.0214880430229627 0.0 16.0 0.0 0:0.019367287703253376 1:0.0016690645721539575 2:0.03523035230352303 3:0.48552631578947475 4:0.0 5:0.5825242718446602 6:0.0 7:0.13106796116504854 8:0.04957690239481525 9:0.7394513105315371 10:0.0 11:0.0 12:0.09302325581395349 13:0.052307692307692305 14:0.05230769230769231 15:0.0 16:0.7765846710857746 17:0.5851631713943408 18:0.09830596249414904 19:0.07641538415342576 20:0.0 21:0.17850659489521736 22:0.0 23:0.0 24:0.31019245989614497 25:0.0 26:0.0 27:0.1213966540371417 28:0.37388212710701324 29:0.034782608695652174 30:0.2222222222222222 31:0.9999999999999998 32:0.07894736842105263 33:0.09789571114549298 34:0.4285714285714285 35:0.0 36:0.03496503496503497 37:0.07666191250219125 38:0.047619047619047616 39:0.2222222222222222 40:0.034188034188034185 41:0.06946072684642463 42:0.0 43:0.13679463396854558 44:0.04853482243039428 45:0.0940672524872535 46:0.009118195753607094 47:0.12172897196261682 48:0.04854368932038835 49:0.5261849637450706 50:0.10981912144702842 51:0.05334728033472803 52:0.6310679611650486 53:0.375 54:0.5420466820212992 55:0.0 
0.0 5.65673029449696 0.0 0.0 0.0 0.0 0.0 0.0 0.0 0:0.005750068590844205 1:0.0018629681338727783 2:0.06937669376693767 3:0.3421223589888697 4:0.4 5:0.5698924731182796 6:0.0 7:0.048387096774193554 8:0.04120621076677058 9:0.4692361181935341 10:0.0 11:0.0 12:0.11627906976744186 13:0.08 14:0.08 15:0.0 16:0.4800333253909651 17:0.4497552801875506 18:0.08443298045034896 19:0.031126669218032997 20:0.0 21:0.13174114890044675 22:0.0 23:0.0 24:0.07972704283535711 25:0.0 26:0.0 27:0.05151646734680906 28:0.09865995627146937 29:0.1565217391304348 30:0.6666666666666666 31:0.4386947155418885 32:0.05263157894736842 33:0.08150975473431274 34:0.14285714285714285 35:0.0 36:0.15384615384615385 37:0.5529460288873113 38:0.09523809523809523 39:0.2962962962962963 40:0.060398860398860395 41:2.0824816405630125E-16 42:0.0 43:0.09502982035254917 44:0.5399033031264329 45:0.04944569008832977 46:0.013337752732517307 47:0.05473187551038926 48:0.11827956989247312 49:0.7964711868718993 50:0.13695090439276486 51:0.09675732217573221 52:0.6881720430107527 53:0.3773584905660377 54:0.7957724546143286 55:0.0 
2.8266610320174927 15.974746140289582 1.179818995299719 5.0590825700788855 12.485572634688276 14.838752076007259 0.3485063169897941 16.0 0.0 0:0.019367287703253376 1:0.0016690645721539575 2:0.03523035230352303 3:0.48552631578947475 4:0.0 5:0.5825242718446602 6:0.0 7:0.13106796116504854 8:0.04957690239481525 9:0.7394513105315371 10:0.0 11:0.0 12:0.09302325581395349 13:0.052307692307692305 14:0.05230769230769231 15:0.0 16:0.7765846710857746 17:0.5851631713943408 18:0.09830596249414904 19:0.07641538415342576 20:0.0 21:0.17850659489521736 22:0.0 23:0.0 24:0.31019245989614497 25:0.0 26:0.0 27:0.1213966540371417 28:0.37388212710701324 29:0.034782608695652174 30:0.2222222222222222 31:0.9999999999999998 32:0.07894736842105263 33:0.09789571114549298 34:0.4285714285714285 35:0.0 36:0.03496503496503497 37:0.07666191250219125 38:0.047619047619047616 39:0.2222222222222222 40:0.034188034188034185 41:0.06946072684642463 42:0.0 43:0.13679463396854558 44:0.04853482243039428 45:0.0940672524872535 46:0.009118195753607094 47:0.12172897196261682 48:0.04854368932038835 49:0.5261849637450706 50:0.10981912144702842 51:0.05334728033472803 52:0.6310679611650486 53:0.375 54:0.5420466820212992 55:0.0 
0.0 0.0 0.0 0.0 16.0 0.0 0.0 0.0 0.0 0:0.011844548761088406 1:0.002156462864460474 2:0.03252032520325203 3:0.3110014619883049 4:0.0 5:0.890625 6:0.0 7:0.0703125 8:0.025822502586883476 9:0.5105519345058734 10:0.0 11:0.0 12:0.18604651162790697 13:0.021538461538461538 14:0.021538461538461538 15:0.0 16:0.5528831889528611 17:0.5175204699642909 18:0.0260960784509001 19:0.015308278359394006 20:0.0 21:0.184087737533954 22:0.0 23:0.0 24:0.0 25:0.0 26:1.0 27:0.041655782460770514 28:0.04553861258072355 29:0.026086956521739132 30:0.375 31:0.9999999999999998 32:0.02631578947368421 33:0.028036562357844186 34:0.4285714285714285 35:0.0 36:0.02097902097902098 37:0.1505968995066066 38:0.0 39:0.5 40:0.032478632478632474 41:2.0824816405630125E-16 42:0.0 43:0.08552792632042767 44:0.11745650690931593 45:0.02737412100928816 46:0.0021430880466022308 47:0.03148057058534186 48:0.046875 49:0.3839473349446636 50:0.16279069767441862 51:0.032949790794979075 52:0.9375 53:0.14084507042253522 54:0.42599108683518094 55:0.0 
0.0 0.2594020844837489 0.0 0.0 0.0 0.0 0.0 0.0 0.0 0:0.011590252039380876 1:0.0021373904996505873 2:0.014092140921409214 3:0.3513861815031412 4:0.0 5:0.8518518518518519 6:0.0 7:0.0 8:0.02497869418895419 9:0.13245130126000168 10:0.0 11:0.0 12:0.11627906976744186 13:0.00923076923076923 14:0.00923076923076923 15:0.0 16:0.09780100114858542 17:0.10838808969680658 18:0.061855772773899205 19:0.004124088490996605 20:0.0 21:0.15801140507543085 22:0.0 23:0.0 24:0.05313977954944696 25:0.0 26:0.0 27:0.045672493305444824 28:0.23701618228884203 29:0.026086956521739132 30:0.75 31:0.24660690296792215 32:0.0 33:0.05958673709185191 34:0.4285714285714285 35:0.0 36:0.02097902097902098 37:0.05686205157852381 38:0.047619047619047616 39:0.75 40:0.013105413105413105 41:2.0824816405630125E-16 42:0.0 43:0.09719131991100124 44:0.05907679461420036 45:0.007243461896238404 46:0.03904994533892 47:0.02944311423495791 48:0.1111111111111111 49:0.31427299325785524 50:0.13372093023255816 51:0.013598326359832635 52:0.9629629629629629 53:0.16666666666666666 54:0.3110283909134917 55:0.0 
0.0 0.0 0.0 0.0 12.087511213158512 0.0 0.0 0.0 0.0 0:0.011845783211193823 1:0.002230156877849741 2:0.03523035230352303 3:0.3110014619883031 4:0.0 5:0.9117647058823529 6:0.0 7:0.0661764705882353 8:0.025899722989356302 9:0.5458486699982384 10:0.0 11:0.0 12:0.16279069767441862 13:0.021538461538461538 14:0.021538461538461538 15:0.0 16:0.5910837916298748 17:0.5532989714362188 18:0.025886938018078846 19:0.01758137094838948 20:0.0 21:0.1977504263982129 22:0.0 23:0.0 24:0.0 25:0.0 26:1.0 27:0.04183118196664196 28:0.04678935468452803 29:0.026086956521739132 30:0.375 31:0.9999999999999998 32:0.02631578947368421 33:0.02787413537531675 34:0.4285714285714285 35:0.0 36:0.02097902097902098 37:0.15059381529143484 38:0.0 39:0.5 40:0.035327635327635325 41:2.0824816405630125E-16 42:0.0 43:0.0848424843463543 44:0.1174583707657841 45:0.033766656471113043 46:0.0017982544117484006 47:0.030286709963567245 48:0.04411764705882353 49:0.3671403129372854 50:0.17441860465116277 51:0.035041841004184095 52:0.9558823529411765 53:0.13333333333333333 54:0.40828434233783484 55:0.0 
0.0 8.691397947489813 0.0 0.0 0.0 0.0 0.0 2.5936516418987656 0.0 0:0.008433763119932899 1:0.002025277324724148 2:0.13495934959349593 3:0.27854137375960347 4:0.0 5:0.8013937282229965 6:0.0 7:0.21951219512195122 8:0.05731298271526594 9:0.8694234032098058 10:0.0 11:0.0 12:0.11627906976744186 13:0.1076923076923077 14:0.1076923076923077 15:0.0 16:0.8925804808839036 17:0.554427681188459 18:0.12412318703462098 19:0.08048307765734833 20:0.0 21:0.17337673566245992 22:1.0 23:0.0 24:0.6190259251394709 25:0.0 26:0.0 27:0.21013835389402533 28:0.5281584004821424 29:0.1565217391304348 30:0.5 31:0.9999999999999998 32:0.3684210526315789 33:0.1248280257148364 34:0.4285714285714285 35:0.0 36:0.13286713286713286 37:0.0846466024606537 38:0.14285714285714285 39:0.3888888888888889 40:0.13105413105413105 41:2.442360297141505E-6 42:0.0 43:0.07517829651349382 44:0.058823310134533166 45:0.13792559114911052 46:0.00993137435728675 47:0.16013732595842076 48:0.06620209059233449 49:0.2937285332654879 50:0.16214470284237725 51:0.14958158995815898 52:0.867595818815331 53:0.34161490683229817 54:0.30495943962729494 55:0.0 
0.0 0.0 0.0 0.0 0.0 0.0 0.0 0.0 1.886200372775524 0:0.013485132951133983 1:0.002230156877849741 2:0.03143631436314363 3:0.3265716374269007 4:0.0 5:0.8088235294117647 6:0.0 7:0.0661764705882353 8:0.03025916571077171 9:0.6000871524333146 10:0.0 11:0.0 12:0.13953488372093026 13:0.021538461538461538 14:0.021538461538461538 15:0.0 16:0.7911584418701633 17:0.6082777562039565 18:0.027301125706678846 19:0.032830517280158907 20:0.0 21:0.218230461773472 22:0.0 23:0.0 24:0.0 25:0.0 26:1.0 27:0.04197802570658854 28:0.04334886647155188 29:0.026086956521739132 30:0.375 31:1.0 32:0.02631578947368421 33:0.033156390958004406 34:0.4285714285714285 35:0.0 36:0.02097902097902098 37:0.2801690122063092 38:0.0 39:0.5 40:0.031339031339031334 41:2.0824816405630125E-16 42:0.0 43:0.08947737769484763 44:0.19191943666802108 45:0.07397989491424606 46:0.001597969722270659 47:0.05899532710280374 48:0.04411764705882353 49:0.314973921892889 50:0.17441860465116277 51:0.035041841004184095 52:0.8529411764705882 53:0.13333333333333333 54:0.3976308121810044 55:0.0 
0.0 16.0 0.0 0.0 0.0 0.0 0.0 0.0 0.0 0:0.011590252039380876 1:0.0021373904996505873 2:0.014092140921409214 3:0.3513861815031412 4:0.0 5:0.8518518518518519 6:0.0 7:0.0 8:0.02497869418895419 9:0.13245130126000168 10:0.0 11:0.0 12:0.11627906976744186 13:0.00923076923076923 14:0.00923076923076923 15:0.0 16:0.09780100114858542 17:0.10838808969680658 18:0.061855772773899205 19:0.004124088490996605 20:0.0 21:0.15801140507543085 22:0.0 23:0.0 24:0.05313977954944696 25:0.0 26:0.0 27:0.045672493305444824 28:0.23701618228884203 29:0.026086956521739132 30:0.75 31:0.24660690296792215 32:0.0 33:0.05958673709185191 34:0.4285714285714285 35:0.0 36:0.02097902097902098 37:0.05686205157852381 38:0.047619047619047616 39:0.75 40:0.013105413105413105 41:2.0824816405630125E-16 42:0.0 43:0.09719131991100124 44:0.05907679461420036 45:0.007243461896238404 46:0.03904994533892 47:0.02944311423495791 48:0.1111111111111111 49:0.31427299325785524 50:0.13372093023255816 51:0.013598326359832635 52:0.9629629629629629 53:0.16666666666666666 54:0.3110283909134917 55:0.0 
0.0 0.0 0.0 0.0 0.0 5.437021112006284 0.018476522721315718 0.0 0.0 0:0.013166644823946774 1:0.0020168998572829577 2:0.02872628726287263 3:0.3110014619883049 4:0.0 5:0.8771929824561403 6:0.0 7:0.15789473684210525 8:0.05654920273444463 9:0.4422948904568086 10:0.0 11:0.0 12:0.11627906976744186 13:0.021538461538461538 14:0.021538461538461538 15:0.0 16:0.47899543487805907 17:0.4483317839027381 18:0.025886938018079033 19:0.013722094949541337 20:0.0 21:0.1576790441788748 22:0.0 23:0.0 24:0.0 25:0.0 26:1.0 27:0.04183010754728388 28:0.057685714046780426 29:0.026086956521739132 30:0.375 31:0.9999999999999998 32:0.05263157894736842 33:0.02781363188361954 34:0.5 35:0.0 36:0.02097902097902098 37:0.15069005848903003 38:0.0 39:0.5 40:0.028490028490028487 41:2.0824816405630125E-16 42:0.0 43:0.08484248434635493 44:0.1175403804503823 45:0.02440575230450451 46:0.0028454773065213494 47:0.02578339747113799 48:0.05263157894736842 49:0.3019043378704999 50:0.14244186046511625 51:0.02928870292887029 52:0.9298245614035088 53:0.234375 54:0.335113043584503 55:0.0 
0.0 0.0 0.0 0.0 16.0 0.0 0.0 0.0 0.0 0:0.013166644823946774 1:0.0020784944054300153 2:0.030894308943089432 3:0.3110014619883049 4:0.0 5:0.9 6:0.0 7:0.075 8:0.02874143380035297 9:0.46567584857728295 10:0.0 11:0.0 12:0.13953488372093026 13:0.021538461538461538 14:0.021538461538461538 15:0.0 16:0.48265721753667284 17:0.4720318692749229 18:0.025886938018079033 19:0.012975482107322314 20:0.0 21:0.16673390454422773 22:0.0 23:0.0 24:0.0 25:0.0 26:1.0 27:0.041690433030730126 28:0.05118224390011337 29:0.026086956521739132 30:0.375 31:0.9999999999999998 32:0.02631578947368421 33:0.02769791616531408 34:0.4285714285714285 35:0.0 36:0.02097902097902098 37:0.14355677576383985 38:0.0 39:0.5 40:0.030769230769230767 41:2.0824816405630125E-16 42:0.0 43:0.08484248434635493 44:0.1175403804503823 45:0.023378130578514757 46:0.0025684241482053258 47:0.02667799490229397 48:0.05 49:0.3019043378704999 50:0.1511627906976744 51:0.030857740585774056 52:0.95 53:0.14925373134328357 54:0.3336470455015274 55:0.0 
0.0 16.0 0.0 0.0 0.0 0.0 0.0 0.0 0.0 0:0.005750068590844205 1:0.0018629681338727783 2:0.06937669376693767 3:0.3421223589888697 4:0.4 5:0.5698924731182796 6:0.0 7:0.048387096774193554 8:0.04120621076677058 9:0.4692361181935341 10:0.0 11:0.0 12:0.11627906976744186 13:0.08 14:0.08 15:0.0 16:0.4800333253909651 17:0.4497552801875506 18:0.08443298045034896 19:0.031126669218032997 20:0.0 21:0.13174114890044675 22:0.0 23:0.0 24:0.07972704283535711 25:0.0 26:0.0 27:0.05151646734680906 28:0.09865995627146937 29:0.1565217391304348 30:0.6666666666666666 31:0.4386947155418885 32:0.05263157894736842 33:0.08150975473431274 34:0.14285714285714285 35:0.0 36:0.15384615384615385 37:0.5529460288873113 38:0.09523809523809523 39:0.2962962962962963 40:0.060398860398860395 41:2.0824816405630125E-16 42:0.0 43:0.09502982035254917 44:0.5399033031264329 45:0.04944569008832977 46:0.013337752732517307 47:0.05473187551038926 48:0.11827956989247312 49:0.7964711868718993 50:0.13695090439276486 51:0.09675732217573221 52:0.6881720430107527 53:0.3773584905660377 54:0.7957724546143286 55:0.0 
0.0 0.0 0.0 0.0 16.0 0.0 0.0 0.0 0.0 0:0.011844548761088406 1:0.002156462864460474 2:0.03252032520325203 3:0.3110014619883049 4:0.0 5:0.890625 6:0.0 7:0.0703125 8:0.025822502586883476 9:0.5105519345058734 10:0.0 11:0.0 12:0.18604651162790697 13:0.021538461538461538 14:0.021538461538461538 15:0.0 16:0.5528831889528611 17:0.5175204699642909 18:0.0260960784509001 19:0.015308278359394006 20:0.0 21:0.184087737533954 22:0.0 23:0.0 24:0.0 25:0.0 26:1.0 27:0.041655782460770514 28:0.04553861258072355 29:0.026086956521739132 30:0.375 31:0.9999999999999998 32:0.02631578947368421 33:0.028036562357844186 34:0.4285714285714285 35:0.0 36:0.02097902097902098 37:0.1505968995066066 38:0.0 39:0.5 40:0.032478632478632474 41:2.0824816405630125E-16 42:0.0 43:0.08552792632042767 44:0.11745650690931593 45:0.02737412100928816 46:0.0021430880466022308 47:0.03148057058534186 48:0.046875 49:0.3839473349446636 50:0.16279069767441862 51:0.032949790794979075 52:0.9375 53:0.14084507042253522 54:0.42599108683518094 55:0.0 
0.0 0.0 0.0 0.0 16.0 0.0 0.0 0.0 0.0 0:0.013166644823946774 1:0.0020784944054300153 2:0.030894308943089432 3:0.3110014619883049 4:0.0 5:0.9 6:0.0 7:0.075 8:0.02874143380035297 9:0.46567584857728295 10:0.0 11:0.0 12:0.13953488372093026 13:0.021538461538461538 14:0.021538461538461538 15:0.0 16:0.48265721753667284 17:0.4720318692749229 18:0.025886938018079033 19:0.012975482107322314 20:0.0 21:0.16673390454422773 22:0.0 23:0.0 24:0.0 25:0.0 26:1.0 27:0.041690433030730126 28:0.05118224390011337 29:0.026086956521739132 30:0.375 31:0.9999999999999998 32:0.02631578947368421 33:0.02769791616531408 34:0.4285714285714285 35:0.0 36:0.02097902097902098 37:0.14355677576383985 38:0.0 39:0.5 40:0.030769230769230767 41:2.0824816405630125E-16 42:0.0 43:0.08484248434635493 44:0.1175403804503823 45:0.023378130578514757 46:0.0025684241482053258 47:0.02667799490229397 48:0.05 49:0.3019043378704999 50:0.1511627906976744 51:0.030857740585774056 52:0.95 53:0.14925373134328357 54:0.3336470455015274 55:0.0 
0.0 0.0 0.0 0.0 0.0 0.0 1.009474536702585 0.0 0.0 0:0.011844548761088406 1:0.001962108714184997 2:0.034688346883468835 3:0.3110014619883049 4:0.0 5:0.8428571428571429 6:0.0 7:0.2571428571428571 8:0.025910955047897685 9:0.5343575289503695 10:0.0 11:0.0 12:0.11627906976744186 13:0.027692307692307693 14:0.027692307692307693 15:0.0 16:0.5786581261207273 17:0.5416509875317513 18:0.025886938018079033 19:0.014896946051415262 20:0.0 21:0.15155369746113606 22:0.0 23:0.0 24:0.0 25:0.0 26:1.0 27:0.042468159157518996 28:0.06216283595216169 29:0.043478260869565216 30:0.5 31:0.9999999999999998 32:0.10526315789473684 33:0.027786432941804322 34:0.4285714285714285 35:0.0 36:0.03496503496503497 37:0.15059848755152025 38:0.0 39:0.3 40:0.033618233618233614 41:2.0824816405630125E-16 42:0.0 43:0.08484248434635493 44:0.1174583707657841 45:0.027419502955862936 46:0.0018944854187786411 47:0.025355546525802523 48:0.07142857142857142 49:0.329919857524488 50:0.13953488372093026 51:0.03608786610878661 52:0.9142857142857143 53:0.31645569620253167 54:0.36577217674387047 55:0.0 
0.9091960114235046 16.0 0.0 0.0 0.0 15.031538192109938 0.0 0.0 0.0 0:0.011590252039380876 1:0.0021373904996505873 2:0.014092140921409214 3:0.3513861815031412 4:0.0 5:0.8518518518518519 6:0.0 7:0.0 8:0.02497869418895419 9:0.13245130126000168 10:0.0 11:0.0 12:0.11627906976744186 13:0.00923076923076923 14:0.00923076923076923 15:0.0 16:0.09780100114858542 17:0.10838808969680658 18:0.061855772773899205 19:0.004124088490996605 20:0.0 21:0.15801140507543085 22:0.0 23:0.0 24:0.05313977954944696 25:0.0 26:0.0 27:0.045672493305444824 28:0.23701618228884203 29:0.026086956521739132 30:0.75 31:0.24660690296792215 32:0.0 33:0.05958673709185191 34:0.4285714285714285 35:0.0 36:0.02097902097902098 37:0.05686205157852381 38:0.047619047619047616 39:0.75 40:0.013105413105413105 41:2.0824816405630125E-16 42:0.0 43:0.09719131991100124 44:0.05907679461420036 45:0.007243461896238404 46:0.03904994533892 47:0.02944311423495791 48:0.1111111111111111 49:0.31427299325785524 50:0.13372093023255816 51:0.013598326359832635 52:0.9629629629629629 53:0.16666666666666666 54:0.3110283909134917 55:0.0 
16.0 15.993860233359351 1.27882348373843 3.8355038706159617 14.448605644208282 16.0 1.9786902822011625 3.9888816399999545 2.9627506017304492 0:0.011590252039380876 1:0.0021373904996505873 2:0.014092140921409214 3:0.3513861815031412 4:0.0 5:0.8518518518518519 6:0.0 7:0.0 8:0.02497869418895419 9:0.13245130126000168 10:0.0 11:0.0 12:0.11627906976744186 13:0.00923076923076923 14:0.00923076923076923 15:0.0 16:0.09780100114858542 17:0.10838808969680658 18:0.061855772773899205 19:0.004124088490996605 20:0.0 21:0.15801140507543085 22:0.0 23:0.0 24:0.05313977954944696 25:0.0 26:0.0 27:0.045672493305444824 28:0.23701618228884203 29:0.026086956521739132 30:0.75 31:0.24660690296792215 32:0.0 33:0.05958673709185191 34:0.4285714285714285 35:0.0 36:0.02097902097902098 37:0.05686205157852381 38:0.047619047619047616 39:0.75 40:0.013105413105413105 41:2.0824816405630125E-16 42:0.0 43:0.09719131991100124 44:0.05907679461420036 45:0.007243461896238404 46:0.03904994533892 47:0.02944311423495791 48:0.1111111111111111 49:0.31427299325785524 50:0.13372093023255816 51:0.013598326359832635 52:0.9629629629629629 53:0.16666666666666666 54:0.3110283909134917 55:0.0 
0.0 0.0 0.0 0.0 16.0 0.0 0.0 0.0 0.0 0:0.011844548761088406 1:0.002156462864460474 2:0.03252032520325203 3:0.3110014619883049 4:0.0 5:0.890625 6:0.0 7:0.0703125 8:0.025822502586883476 9:0.5105519345058734 10:0.0 11:0.0 12:0.18604651162790697 13:0.021538461538461538 14:0.021538461538461538 15:0.0 16:0.5528831889528611 17:0.5175204699642909 18:0.0260960784509001 19:0.015308278359394006 20:0.0 21:0.184087737533954 22:0.0 23:0.0 24:0.0 25:0.0 26:1.0 27:0.041655782460770514 28:0.04553861258072355 29:0.026086956521739132 30:0.375 31:0.9999999999999998 32:0.02631578947368421 33:0.028036562357844186 34:0.4285714285714285 35:0.0 36:0.02097902097902098 37:0.1505968995066066 38:0.0 39:0.5 40:0.032478632478632474 41:2.0824816405630125E-16 42:0.0 43:0.08552792632042767 44:0.11745650690931593 45:0.02737412100928816 46:0.0021430880466022308 47:0.03148057058534186 48:0.046875 49:0.3839473349446636 50:0.16279069767441862 51:0.032949790794979075 52:0.9375 53:0.14084507042253522 54:0.42599108683518094 55:0.0 
0.0 16.0 0.0 0.0 0.0 0.0 0.0 0.0 0.0 0:0.011590252039380876 1:0.002026814865400128 2:0.07913279132791327 3:0.3559494020842707 4:0.4 5:0.8333333333333334 6:0.0 7:0.0 8:0.024980098196271838 9:0.16686724088376279 10:0.0 11:0.0 12:0.16279069767441862 13:0.05846153846153846 14:0.05846153846153847 15:0.0 16:0.1232997740481739 17:0.13202698310721753 18:0.28493558142700165 19:0.024103612139395842 20:0.1111111111111111 21:0.1731974984638179 22:1.0 23:0.0 24:0.08697565778043745 25:0.0 26:0.0 27:0.07439230607238093 28:0.24513381170171794 29:0.1391304347826087 30:0.8 31:0.24660690296792215 32:0.0 33:0.2745002775968055 34:0.6428571428571428 35:0.0 36:0.11188811188811189 37:0.05686205157852381 38:0.38095238095238093 39:0.65 40:0.07407407407407407 41:2.0824816405630125E-16 42:0.0 43:0.09816810494636422 44:0.05907679461420036 45:0.04289315849512081 46:0.14579636568680607 47:0.1455781262068433 48:0.10256410256410256 49:0.387547385828775 50:0.1581395348837209 51:0.08106694560669456 52:0.9358974358974359 53:0.17142857142857143 54:0.384426583692808 55:0.0 
0.0 0.0 0.0 0.0 16.0 0.0 0.0 0.0 0.0 0:0.011844548761088406 1:0.002156462864460474 2:0.03252032520325203 3:0.3110014619883049 4:0.0 5:0.890625 6:0.0 7:0.0703125 8:0.025822502586883476 9:0.5105519345058734 10:0.0 11:0.0 12:0.18604651162790697 13:0.021538461538461538 14:0.021538461538461538 15:0.0 16:0.5528831889528611 17:0.5175204699642909 18:0.0260960784509001 19:0.015308278359394006 20:0.0 21:0.184087737533954 22:0.0 23:0.0 24:0.0 25:0.0 26:1.0 27:0.041655782460770514 28:0.04553861258072355 29:0.026086956521739132 30:0.375 31:0.9999999999999998 32:0.02631578947368421 33:0.028036562357844186 34:0.4285714285714285 35:0.0 36:0.02097902097902098 37:0.1505968995066066 38:0.0 39:0.5 40:0.032478632478632474 41:2.0824816405630125E-16 42:0.0 43:0.08552792632042767 44:0.11745650690931593 45:0.02737412100928816 46:0.0021430880466022308 47:0.03148057058534186 48:0.046875 49:0.3839473349446636 50:0.16279069767441862 51:0.032949790794979075 52:0.9375 53:0.14084507042253522 54:0.42599108683518094 55:0.0 
0.0 16.0 0.0 0.0 0.0 0.0 0.0 0.0 0.0 0:0.005750068590844205 1:0.0018629681338727783 2:0.06937669376693767 3:0.3421223589888697 4:0.4 5:0.5698924731182796 6:0.0 7:0.048387096774193554 8:0.04120621076677058 9:0.4692361181935341 10:0.0 11:0.0 12:0.11627906976744186 13:0.08 14:0.08 15:0.0 16:0.4800333253909651 17:0.4497552801875506 18:0.08443298045034896 19:0.031126669218032997 20:0.0 21:0.13174114890044675 22:0.0 23:0.0 24:0.07972704283535711 25:0.0 26:0.0 27:0.05151646734680906 28:0.09865995627146937 29:0.1565217391304348 30:0.6666666666666666 31:0.4386947155418885 32:0.05263157894736842 33:0.08150975473431274 34:0.14285714285714285 35:0.0 36:0.15384615384615385 37:0.5529460288873113 38:0.09523809523809523 39:0.2962962962962963 40:0.060398860398860395 41:2.0824816405630125E-16 42:0.0 43:0.09502982035254917 44:0.5399033031264329 45:0.04944569008832977 46:0.013337752732517307 47:0.05473187551038926 48:0.11827956989247312 49:0.7964711868718993 50:0.13695090439276486 51:0.09675732217573221 52:0.6881720430107527 53:0.3773584905660377 54:0.7957724546143286 55:0.0 
0.0 0.0 0.0 0.0 5.146005909834922 0.0 0.0 0.0 0.0 0:0.011845783211193823 1:0.002398448633296708 2:0.03956639566395664 3:0.3110014619883033 4:0.0 5:0.8974358974358975 6:0.0 7:0.17307692307692307 8:0.025975539384511317 9:0.5847186552564971 10:0.0 11:0.0 12:0.18604651162790697 13:0.021538461538461538 14:0.021538461538461538 15:0.0 16:0.6332043188687648 17:0.5926994940448108 18:0.025886938018078846 19:0.013627335940641049 20:0.0 21:0.21282152148070735 22:0.0 23:0.0 24:0.0 25:0.0 26:1.0 27:0.04174998656086517 28:0.042010982229045 29:0.026086956521739132 30:0.375 31:0.9999999999999998 32:0.07894736842105263 33:0.027816341580230986 34:0.4285714285714285 35:0.0 36:0.02097902097902098 37:0.15060282631365768 38:0.0 39:0.5 40:0.039886039886039885 41:2.0824816405630125E-16 42:0.0 43:0.0848424843463543 44:0.1174583707657841 45:0.03241589581682308 46:0.0015007225464862156 47:0.028126390743213176 48:0.038461538461538464 49:0.372601450197176 50:0.20348837209302323 51:0.04027196652719665 52:0.9358974358974359 53:0.23529411764705882 54:0.41346302263845985 55:0.0 
0.0 16.0 0.0 0.0 0.0 0.0 0.0 0.0 0.0 0:0.011590252039380876 1:0.002026814865400128 2:0.07913279132791327 3:0.3559494020842707 4:0.4 5:0.8333333333333334 6:0.0 7:0.0 8:0.024980098196271838 9:0.16686724088376279 10:0.0 11:0.0 12:0.16279069767441862 13:0.05846153846153846 14:0.05846153846153847 15:0.0 16:0.1232997740481739 17:0.13202698310721753 18:0.28493558142700165 19:0.024103612139395842 20:0.1111111111111111 21:0.1731974984638179 22:1.0 23:0.0 24:0.08697565778043745 25:0.0 26:0.0 27:0.07439230607238093 28:0.24513381170171794 29:0.1391304347826087 30:0.8 31:0.24660690296792215 32:0.0 33:0.2745002775968055 34:0.6428571428571428 35:0.0 36:0.11188811188811189 37:0.05686205157852381 38:0.38095238095238093 39:0.65 40:0.07407407407407407 41:2.0824816405630125E-16 42:0.0 43:0.09816810494636422 44:0.05907679461420036 45:0.04289315849512081 46:0.14579636568680607 47:0.1455781262068433 48:0.10256410256410256 49:0.387547385828775 50:0.1581395348837209 51:0.08106694560669456 52:0.9358974358974359 53:0.17142857142857143 54:0.384426583692808 55:0.0 
0.0 0.0 0.31694072652166616 1.8758855179486091 0.08794652048308298 2.5670665811458835 0.0 0.0 1.7281866569439615 0:0.013485132951133983 1:0.0020377464636187675 2:0.02981029810298103 3:0.3265993647912883 4:0.0 5:0.896551724137931 6:0.0 7:0.07758620689655173 8:0.030080856781425636 9:0.5161167100883577 10:0.0 11:0.0 12:0.11627906976744186 13:0.021538461538461538 14:0.021538461538461538 15:0.0 16:0.6858948183083237 17:0.5231611993006321 18:0.027304445396088627 19:0.01906413407629514 20:0.0 21:0.185707189332292 22:1.0 23:0.0 24:0.0 25:0.0 26:1.0 27:0.042631124924038345 28:0.06490377306068064 29:0.026086956521739132 30:0.375 31:1.0 32:0.02631578947368421 33:0.033216846677563645 34:0.4285714285714285 35:0.0 36:0.02097902097902098 37:0.28251148176306634 38:0.0 39:0.5 40:0.029629629629629627 41:2.0824816405630125E-16 42:0.0 43:0.08948825772618187 44:0.19191943666802108 45:0.03720941358567559 46:0.002294010919460352 47:0.04773544212796549 48:0.05172413793103448 49:0.35799771021498544 50:0.1453488372093023 51:0.029811715481171543 52:0.9482758620689655 53:0.15384615384615385 54:0.45186481135053597 55:0.0 
0.0 0.0 0.0 0.0 7.775168687100423 0.0 0.0 0.0 0.0 0:0.011845783211193823 1:0.0020377464636187675 2:0.029268292682926828 3:0.3110014619883028 4:0.0 5:0.8793103448275862 6:0.0 7:0.15517241379310345 8:0.025975539384511317 9:0.4618504130469048 10:0.0 11:0.0 12:0.11627906976744186 13:0.021538461538461538 14:0.021538461538461538 15:0.0 16:0.5001795625713026 17:0.46815422028429576 18:0.025886938018078846 19:0.013769940481904105 20:0.0 21:0.1652436643255443 22:0.0 23:0.0 24:0.0 25:0.0 26:1.0 27:0.041833484293837944 28:0.05533751962323429 29:0.026086956521739132 30:0.375 31:0.9999999999999998 32:0.05263157894736842 33:0.027873919475366236 34:0.4285714285714285 35:0.0 36:0.02097902097902098 37:0.15060465662171907 38:0.0 39:0.375 40:0.029059829059829057 41:2.0824816405630125E-16 42:0.0 43:0.0848424843463543 44:0.11745464305284779 45:0.024475136685411267 46:0.002611839277839799 47:0.028640337654507086 48:0.05172413793103448 49:0.3654458720264598 50:0.1453488372093023 51:0.029811715481171543 52:0.9310344827586207 53:0.23076923076923078 54:0.40640045844553535 55:0.0 
0.0 0.0 0.14593813946469453 0.0 0.0 0.0 0.0 0.0 0.0 0:0.011844548761088406 1:0.0022479661339010475 2:0.03577235772357724 3:0.3110014619883049 4:0.0 5:0.9130434782608695 6:0.0 7:0.06521739130434782 8:0.025974135377193584 9:0.5530693418136978 10:0.0 11:0.0 12:0.18604651162790697 13:0.021538461538461538 14:0.021538461538461538 15:0.0 16:0.5989223771083134 17:0.5606181983724775 18:0.025886938018079033 19:0.01490808932948771 20:0.0 21:0.2005586247293736 22:0.0 23:0.0 24:0.0 25:0.0 26:1.0 27:0.04182258661177715 28:0.045992432175632314 29:0.026086956521739132 30:0.375 31:0.9999999999999998 32:0.02631578947368421 33:0.027870120142236148 34:0.4285714285714285 35:0.0 36:0.02097902097902098 37:0.15059756698871873 38:0.0 39:0.5 40:0.035897435897435895 41:2.0824816405630125E-16 42:0.0 43:0.08484248434635493 44:0.11745650690931593 45:0.02824562408230686 46:0.0017398273378185056 47:0.027628504672897198 48:0.043478260869565216 49:0.34598269940211174 50:0.17732558139534882 51:0.03556485355648535 52:0.9565217391304348 53:0.13157894736842105 54:0.3847443267745987 55:0.0 
0.0 0.0 0.0 0.0 0.0 0.0 0.5175551766285611 0.0 0.0 0:0.013333295588172603 1:0.002014271158157064 2:0.03252032520325203 3:0.3110014619883049 4:0.0 5:0.8615384615384616 6:0.0 7:0.13846153846153847 8:0.029892719800855637 9:0.5142049194767145 10:0.0 11:0.0 12:0.11627906976744186 13:0.024615384615384615 14:0.024615384615384615 15:0.0 16:0.556869885456447 17:0.5212233146136053 18:0.025886938018079033 19:0.01615836512921674 20:0.0 21:0.16316646854224454 22:1.0 23:0.0 24:0.0 25:0.0 26:1.0 27:0.042091191451303626 28:0.05575703933970953 29:0.034782608695652174 30:0.4444444444444444 31:0.9999999999999998 32:0.05263157894736842 33:0.027817460009982618 34:0.4285714285714285 35:0.0 36:0.027972027972027972 37:0.1506927300513253 38:0.0 39:0.4444444444444444 40:0.031908831908831904 41:2.0824816405630125E-16 42:0.0 43:0.08484248434635493 44:0.1175403804503823 45:0.026231928681012217 46:0.002073612672923346 47:0.02714593817397556 48:0.06153846153846154 49:0.29090319297799266 50:0.144702842377261 51:0.03347280334728033 52:0.9230769230769231 53:0.2054794520547945 54:0.32297442706420687 55:0.0 
0.0 0.0 0.16165439898613354 0.0 0.0 0.0 0.0 0.0 2.9507431076566926 0:0.01929322069693085 1:0.002178138441461836 2:0.04227642276422764 3:0.48552631578947525 4:0.0 5:0.6033057851239669 6:0.0 7:0.1487603305785124 8:0.04258494595273841 9:0.8452080068980224 10:0.0 11:0.0 12:0.11627906976744186 13:0.04 14:0.04 15:0.0 16:0.9153065483433968 17:0.6425572634587124 18:0.09830596249414886 19:0.04751614991313922 20:0.0 21:0.26046388187682484 22:1.0 23:0.0 24:0.41249541532343686 25:0.0 26:0.0 27:0.13511064951114632 28:0.3820931783999605 29:0.034782608695652174 30:0.2857142857142857 31:0.9999999999999998 32:0.10526315789473684 33:0.09834707740135645 34:0.4285714285714285 35:0.0 36:0.03496503496503497 37:0.07953991444549639 38:0.047619047619047616 39:0.2857142857142857 40:0.041595441595441596 41:0.06946072684642463 42:0.0 43:0.13679463396854558 44:0.04853482243039428 45:0.0914685568884042 46:0.007643186061024482 47:0.11434854315557999 48:0.04132231404958678 49:0.410550820506297 50:0.1777408637873754 51:0.06276150627615062 52:0.6446280991735537 53:0.5223880597014925 54:0.42451456856314246 55:0.0 
0.0 12.007524050501752 0.286969456627117 0.3535150139121672 0.0 7.852726599416845 0.009544532646261861 0.0 0.0 0:0.011590252039380876 1:0.0035689783836136348 2:0.012466124661246612 3:0.35490810359231434 4:0.0 5:0.7857142857142857 6:0.0 7:0.4821428571428571 8:0.02497869418895419 9:0.169062740480451 10:0.0 11:0.0 12:0.48837209302325585 13:0.003076923076923077 14:0.003076923076923077 15:0.0 16:0.12492641990556143 17:0.10693702570225294 18:0.061859092463308986 19:0.0016266480349467006 20:0.0 21:0.32672152894626516 22:0.0 23:0.0 24:0.1323475474393375 25:0.0 26:0.0 27:0.051955983295101454 28:0.3821691415106494 29:0.008695652173913044 30:0.5 31:0.24660690296792215 32:0.07894736842105263 33:0.059589935257605864 34:0.6428571428571428 35:0.0 36:0.006993006993006993 37:0.05686205157852381 38:0.047619047619047616 39:0.0 40:0.012535612535612535 41:2.0824816405630125E-16 42:0.0 43:0.09719131991100124 44:0.05907679461420036 45:0.007519816133439044 46:0.03007590045922149 47:0.02944311423495791 48:0.03571428571428571 49:0.3509095534919222 50:0.3023255813953489 51:0.01412133891213389 52:0.8214285714285714 53:0.6896551724137931 54:0.34772685017712096 55:0.0 
2.640081931727947 0.0 0.0 0.0 16.0 0.0 0.0 0.0 0.0 0:0.013166644823946774 1:0.0020784944054300153 2:0.030894308943089432 3:0.3110014619883049 4:0.0 5:0.9 6:0.0 7:0.075 8:0.02874143380035297 9:0.46567584857728295 10:0.0 11:0.0 12:0.13953488372093026 13:0.021538461538461538 14:0.021538461538461538 15:0.0 16:0.48265721753667284 17:0.4720318692749229 18:0.025886938018079033 19:0.012975482107322314 20:0.0 21:0.16673390454422773 22:0.0 23:0.0 24:0.0 25:0.0 26:1.0 27:0.041690433030730126 28:0.05118224390011337 29:0.026086956521739132 30:0.375 31:0.9999999999999998 32:0.02631578947368421 33:0.02769791616531408 34:0.4285714285714285 35:0.0 36:0.02097902097902098 37:0.14355677576383985 38:0.0 39:0.5 40:0.030769230769230767 41:2.0824816405630125E-16 42:0.0 43:0.08484248434635493 44:0.1175403804503823 45:0.023378130578514757 46:0.0025684241482053258 47:0.02667799490229397 48:0.05 49:0.3019043378704999 50:0.1511627906976744 51:0.030857740585774056 52:0.95 53:0.14925373134328357 54:0.3336470455015274 55:0.0 
0.0 0.0 0.0 0.0 9.151002494685498 0.0 0.0 0.6059193753755281 0.0 0:0.011844548761088406 1:0.002156462864460474 2:0.03252032520325203 3:0.3110014619883049 4:0.0 5:0.890625 6:0.0 7:0.0703125 8:0.025822502586883476 9:0.5105519345058734 10:0.0 11:0.0 12:0.18604651162790697 13:0.021538461538461538 14:0.021538461538461538 15:0.0 16:0.5528831889528611 17:0.5175204699642909 18:0.0260960784509001 19:0.015308278359394006 20:0.0 21:0.184087737533954 22:0.0 23:0.0 24:0.0 25:0.0 26:1.0 27:0.041655782460770514 28:0.04553861258072355 29:0.026086956521739132 30:0.375 31:0.9999999999999998 32:0.02631578947368421 33:0.028036562357844186 34:0.4285714285714285 35:0.0 36:0.02097902097902098 37:0.1505968995066066 38:0.0 39:0.5 40:0.032478632478632474 41:2.0824816405630125E-16 42:0.0 43:0.08552792632042767 44:0.11745650690931593 45:0.02737412100928816 46:0.0021430880466022308 47:0.03148057058534186 48:0.046875 49:0.3839473349446636 50:0.16279069767441862 51:0.032949790794979075 52:0.9375 53:0.14084507042253522 54:0.42599108683518094 55:0.0 
0.0 0.0 0.3444793498296337 0.0 0.0 0.0 0.0 0.0 0.0 0:0.02228552775236369 1:0.002210088159400614 2:0.04010840108401084 3:0.39473684210526183 4:0.0 5:0.8255813953488372 6:0.0 7:0.2616279069767442 8:0.04947581386794192 9:0.9153657157161798 10:0.0 11:0.0 12:0.11627906976744186 13:0.027692307692307693 14:0.027692307692307693 15:0.0 16:0.994928945563578 17:0.9278595640718057 18:0.03349234645606537 19:0.0397239669917807 20:0.0 21:0.2646471375328054 22:0.0 23:0.0 24:0.0 25:0.0 26:1.0 27:0.04502536350732851 28:0.0551734044404168 29:0.017391304347826087 30:0.2 31:0.9999999999999998 32:0.13157894736842105 33:0.03374627275644768 34:0.4285714285714285 35:0.0 36:0.02097902097902098 37:0.07977508052545593 38:0.0 39:0.4 40:0.040455840455840456 41:2.0824816405630125E-16 42:0.0 43:0.10976863613367141 44:0.048422991042305824 45:0.06918917840820366 46:7.108375838574717E-4 47:0.05899532710280374 48:0.03488372093023256 49:0.3631217402366112 50:0.1767441860465116 51:0.04445606694560669 52:0.8604651162790697 53:0.4736842105263158 54:0.3774146363744581 55:0.0 
0.0 16.0 0.39920569762276786 1.9385172458663833 0.0 0.381565578813572 1.7798313817079934 0.0 1.1432186309235415 0:0.011590252039380876 1:0.002026814865400128 2:0.07913279132791327 3:0.3559494020842707 4:0.4 5:0.8333333333333334 6:0.0 7:0.0 8:0.024980098196271838 9:0.16686724088376279 10:0.0 11:0.0 12:0.16279069767441862 13:0.05846153846153846 14:0.05846153846153847 15:0.0 16:0.1232997740481739 17:0.13202698310721753 18:0.28493558142700165 19:0.024103612139395842 20:0.1111111111111111 21:0.1731974984638179 22:1.0 23:0.0 24:0.08697565778043745 25:0.0 26:0.0 27:0.07439230607238093 28:0.24513381170171794 29:0.1391304347826087 30:0.8 31:0.24660690296792215 32:0.0 33:0.2745002775968055 34:0.6428571428571428 35:0.0 36:0.11188811188811189 37:0.05686205157852381 38:0.38095238095238093 39:0.65 40:0.07407407407407407 41:2.0824816405630125E-16 42:0.0 43:0.09816810494636422 44:0.05907679461420036 45:0.04289315849512081 46:0.14579636568680607 47:0.1455781262068433 48:0.10256410256410256 49:0.387547385828775 50:0.1581395348837209 51:0.08106694560669456 52:0.9358974358974359 53:0.17142857142857143 54:0.384426583692808 55:0.0 
0.0 6.0939540328075 0.0 0.0 0.0 0.0 0.0 0.0 0.0 0:0.013333295588172603 1:0.0021540935613370495 2:0.03739837398373984 3:0.3110014619883049 4:0.0 5:0.8904109589041096 6:0.0 7:0.1232876712328767 8:0.029892719800855595 9:0.5857422327711694 10:0.0 11:0.0 12:0.13953488372093026 13:0.024615384615384615 14:0.024615384615384615 15:0.0 16:0.6342999050499492 17:0.5937370423932482 18:0.025886938018079033 19:0.017700747236362165 20:0.0 21:0.187797705074729 22:0.0 23:0.0 24:0.0 25:0.0 26:1.0 27:0.04207799144204684 28:0.04868932790339784 29:0.034782608695652174 30:0.4444444444444444 31:0.9999999999999998 32:0.05263157894736842 33:0.02781358887649632 34:0.4285714285714285 35:0.0 36:0.027972027972027972 37:0.15068404778727895 38:0.0 39:0.4444444444444444 40:0.037037037037037035 41:2.0824816405630125E-16 42:0.0 43:0.08484248434635493 44:0.1175403804503823 45:0.031881511273956435 46:0.0014934200856290014 47:0.02714593817397556 48:0.0547945205479452 49:0.3162511130899377 50:0.16537467700258396 51:0.03765690376569037 52:0.9452054794520548 53:0.18518518518518517 54:0.35100387277839273 55:0.0 
1.017674854464568 16.0 1.1018815175335874 0.09462728121167432 1.8626795118881627 5.318963333123416 0.23834931075224128 15.4467203407421 8.265491086436885 0:0.008433763119932899 1:0.002025277324724148 2:0.13495934959349593 3:0.27854137375960347 4:0.0 5:0.8013937282229965 6:0.0 7:0.21951219512195122 8:0.05731298271526594 9:0.8694234032098058 10:0.0 11:0.0 12:0.11627906976744186 13:0.1076923076923077 14:0.1076923076923077 15:0.0 16:0.8925804808839036 17:0.554427681188459 18:0.12412318703462098 19:0.08048307765734833 20:0.0 21:0.17337673566245992 22:1.0 23:0.0 24:0.6190259251394709 25:0.0 26:0.0 27:0.21013835389402533 28:0.5281584004821424 29:0.1565217391304348 30:0.5 31:0.9999999999999998 32:0.3684210526315789 33:0.1248280257148364 34:0.4285714285714285 35:0.0 36:0.13286713286713286 37:0.0846466024606537 38:0.14285714285714285 39:0.3888888888888889 40:0.13105413105413105 41:2.442360297141505E-6 42:0.0 43:0.07517829651349382 44:0.058823310134533166 45:0.13792559114911052 46:0.00993137435728675 47:0.16013732595842076 48:0.06620209059233449 49:0.2937285332654879 50:0.16214470284237725 51:0.14958158995815898 52:0.867595818815331 53:0.34161490683229817 54:0.30495943962729494 55:0.0 
0.0 16.0 0.3333518176257617 2.9343485176663306 1.8544880901280634 12.231234386556027 0.2231570739283663 4.140050571908013 0.0 0:0.005750068590844205 1:0.0018629681338727783 2:0.06937669376693767 3:0.3421223589888697 4:0.4 5:0.5698924731182796 6:0.0 7:0.048387096774193554 8:0.04120621076677058 9:0.4692361181935341 10:0.0 11:0.0 12:0.11627906976744186 13:0.08 14:0.08 15:0.0 16:0.4800333253909651 17:0.4497552801875506 18:0.08443298045034896 19:0.031126669218032997 20:0.0 21:0.13174114890044675 22:0.0 23:0.0 24:0.07972704283535711 25:0.0 26:0.0 27:0.05151646734680906 28:0.09865995627146937 29:0.1565217391304348 30:0.6666666666666666 31:0.4386947155418885 32:0.05263157894736842 33:0.08150975473431274 34:0.14285714285714285 35:0.0 36:0.15384615384615385 37:0.5529460288873113 38:0.09523809523809523 39:0.2962962962962963 40:0.060398860398860395 41:2.0824816405630125E-16 42:0.0 43:0.09502982035254917 44:0.5399033031264329 45:0.04944569008832977 46:0.013337752732517307 47:0.05473187551038926 48:0.11827956989247312 49:0.7964711868718993 50:0.13695090439276486 51:0.09675732217573221 52:0.6881720430107527 53:0.3773584905660377 54:0.7957724546143286 55:0.0 
0.0 0.0 0.0 0.0 0.0 0.0 0.0 16.0 0.0 0:0.011844548761088406 1:0.0025409048848695913 2:0.05094850948509485 3:0.3110014619883049 4:0.0 5:0.9 6:0.0 7:0.135 8:0.025974135377193584 9:0.7385593888203825 10:0.0 11:0.0 12:0.18604651162790697 13:0.024615384615384615 14:0.024615384615384615 15:0.0 16:0.799759117501407 17:0.7486400034284205 18:0.025886938018079033 19:0.015439601985859079 20:0.0 21:0.24035459485948477 22:0.0 23:0.0 24:0.0 25:0.0 26:1.0 27:0.04204391699954694 28:0.0380744443246792 29:0.034782608695652174 30:0.4444444444444444 31:0.9999999999999998 32:0.07894736842105263 33:0.027610810068050277 34:0.4285714285714285 35:0.0 36:0.027972027972027972 37:0.15059589829347755 38:0.0 39:0.5555555555555556 40:0.05128205128205128 41:2.0824816405630125E-16 42:0.0 43:0.08484248434635493 44:0.11745650690931593 45:0.04016755438986337 46:6.299168221599641E-4 47:0.03148057058534186 48:0.04 49:0.34598269940211174 50:0.2351421188630491 51:0.051778242677824264 52:0.94 53:0.23148148148148145 54:0.3810384120421185 55:0.0 
0.023760007995289836 0.0 0.0 0.5161642895731575 0.0 2.1730703042280606 0.3906433113249135 0.0 0.0 0:0.01929322069693085 1:0.00207385525473944 2:0.03685636856368564 3:0.48552631578947497 4:0.0 5:0.5675675675675675 6:0.0 7:0.16216216216216217 8:0.04258494595273841 9:0.7769194396283969 10:0.0 11:0.0 12:0.11627906976744186 13:0.04 14:0.04 15:0.0 16:0.844601649462423 17:0.6025515043135321 18:0.09810678112955731 19:0.04620445569323505 20:0.0 21:0.24296371164569608 22:1.0 23:0.0 24:0.3524873076848831 25:0.0 26:0.0 27:0.12489270679504905 28:0.37184560357529123 29:0.034782608695652174 30:0.2857142857142857 31:0.9999999999999998 32:0.10526315789473684 33:0.09818030841776404 34:0.4285714285714285 35:0.0 36:0.03496503496503497 37:0.07990681455048586 38:0.047619047619047616 39:0.2857142857142857 40:0.035897435897435895 41:0.06946072684642463 42:0.0 43:0.13679463396854558 44:0.04853482243039428 45:0.08109845709514722 46:0.008527524783765512 47:0.10778816199376946 48:0.04504504504504504 49:0.40505533647118697 50:0.1611295681063123 51:0.057531380753138066 52:0.6126126126126126 53:0.564516129032258 54:0.41895261648408494 55:0.0 
-0.0 0.0 0.0 0.0 0.0 16.0 0.0 0.0 0.0 0:0.02234478135742177 1:0.002850862195498159 2:0.008672086720867209 3:0.43782894736842126 4:0.0 5:0.875 6:0.0 7:0.0 8:0.02393411274459566 9:0.13428706528088125 10:0.0 11:0.0 12:0.16279069767441862 13:0.003076923076923077 14:0.003076923076923077 15:0.0 16:0.09916111888406999 17:0.13611995261862547 18:0.03740626027028906 19:0.0016266480349467006 20:1.0 21:0.19893414803627102 22:0.0 23:0.0 24:0.0 25:0.0 26:0.0 27:0.04047707725004334 28:0.04842992854600889 29:0.017391304347826087 30:1.0 31:0.5822418659666638 32:0.0 33:0.03603224631343285 34:0.2857142857142857 35:0.0 36:0.013986013986013986 37:0.6224227008813678 38:0.0 39:1.0 40:0.007977207977207976 41:2.0824816405630125E-16 42:0.0 43:0.1225961930770359 44:0.8606897760017297 45:0.004203565287031377 46:0.022809029116530703 47:0.012852398238974282 48:0.125 49:0.017923928253402874 50:0.16279069767441862 51:0.007845188284518828 52:1.0 53:0.0 54:0.014178631536579417 55:0.0 
-0.0 0.0 0.0 0.0 0.0 16.0 0.0 0.0 0.0 0:0.02234478135742177 1:0.002850862195498159 2:0.008672086720867209 3:0.43782894736842126 4:0.0 5:0.875 6:0.0 7:0.0 8:0.02393411274459566 9:0.13428706528088125 10:0.0 11:0.0 12:0.16279069767441862 13:0.003076923076923077 14:0.003076923076923077 15:0.0 16:0.09916111888406999 17:0.13611995261862547 18:0.03740626027028906 19:0.0016266480349467006 20:1.0 21:0.19893414803627102 22:0.0 23:0.0 24:0.0 25:0.0 26:0.0 27:0.04047707725004334 28:0.04842992854600889 29:0.017391304347826087 30:1.0 31:0.5822418659666638 32:0.0 33:0.03603224631343285 34:0.2857142857142857 35:0.0 36:0.013986013986013986 37:0.6224227008813678 38:0.0 39:1.0 40:0.007977207977207976 41:2.0824816405630125E-16 42:0.0 43:0.1225961930770359 44:0.8606897760017297 45:0.004203565287031377 46:0.022809029116530703 47:0.012852398238974282 48:0.125 49:0.017923928253402874 50:0.16279069767441862 51:0.007845188284518828 52:1.0 53:0.0 54:0.014178631536579417 55:0.0 
-0.0 0.0 0.0 0.0 0.0 16.0 0.0 0.0 0.0 0:0.02234478135742177 1:0.002850862195498159 2:0.008672086720867209 3:0.43782894736842126 4:0.0 5:0.875 6:0.0 7:0.0 8:0.02393411274459566 9:0.13428706528088125 10:0.0 11:0.0 12:0.16279069767441862 13:0.003076923076923077 14:0.003076923076923077 15:0.0 16:0.09916111888406999 17:0.13611995261862547 18:0.03740626027028906 19:0.0016266480349467006 20:1.0 21:0.19893414803627102 22:0.0 23:0.0 24:0.0 25:0.0 26:0.0 27:0.04047707725004334 28:0.04842992854600889 29:0.017391304347826087 30:1.0 31:0.5822418659666638 32:0.0 33:0.03603224631343285 34:0.2857142857142857 35:0.0 36:0.013986013986013986 37:0.6224227008813678 38:0.0 39:1.0 40:0.007977207977207976 41:2.0824816405630125E-16 42:0.0 43:0.1225961930770359 44:0.8606897760017297 45:0.004203565287031377 46:0.022809029116530703 47:0.012852398238974282 48:0.125 49:0.017923928253402874 50:0.16279069767441862 51:0.007845188284518828 52:1.0 53:0.0 54:0.014178631536579417 55:0.0 
-0.0 0.0 0.0 0.0 0.0 16.0 0.0 0.0 0.0 0:0.02234478135742177 1:0.002850862195498159 2:0.008672086720867209 3:0.43782894736842126 4:0.0 5:0.875 6:0.0 7:0.0 8:0.02393411274459566 9:0.13428706528088125 10:0.0 11:0.0 12:0.16279069767441862 13:0.003076923076923077 14:0.003076923076923077 15:0.0 16:0.09916111888406999 17:0.13611995261862547 18:0.03740626027028906 19:0.0016266480349467006 20:1.0 21:0.19893414803627102 22:0.0 23:0.0 24:0.0 25:0.0 26:0.0 27:0.04047707725004334 28:0.04842992854600889 29:0.017391304347826087 30:1.0 31:0.5822418659666638 32:0.0 33:0.03603224631343285 34:0.2857142857142857 35:0.0 36:0.013986013986013986 37:0.6224227008813678 38:0.0 39:1.0 40:0.007977207977207976 41:2.0824816405630125E-16 42:0.0 43:0.1225961930770359 44:0.8606897760017297 45:0.004203565287031377 46:0.022809029116530703 47:0.012852398238974282 48:0.125 49:0.017923928253402874 50:0.16279069767441862 51:0.007845188284518828 52:1.0 53:0.0 54:0.014178631536579417 55:0.0 
-0.0 0.0 0.0 0.0 0.0 11.52261456139479 0.0 0.0 0.0 0:0.008417715268562996 1:0.0027693475915340706 2:0.008130081300813007 3:0.6220029239766087 4:0.0 5:0.8666666666666667 6:0.0 7:0.0 8:0.1820211246941019 9:0.20278887786606345 10:0.0 11:0.0 12:0.16279069767441862 13:0.003076923076923077 14:0.003076923076923077 15:0.16666666666666666 16:0.2101927135418756 17:0.20555674806784816 18:0.054134175206567624 19:0.0025907762110031754 20:1.0 21:0.30031068206485845 22:1.0 23:0.0 24:0.0 25:0.0 26:0.0 27:0.04081186497275908 28:0.03255572929924701 29:0.017391304347826087 30:1.0 31:0.9999999999999998 32:0.0 33:0.05767441358470125 34:0.5714285714285714 35:0.0 36:0.013986013986013986 37:0.07749906292263592 38:0.0 39:1.0 40:0.007407407407407407 41:2.0824816405630125E-16 42:0.0 43:0.17742067097153225 44:0.05060929467943533 45:0.005680955763494556 46:0.02136925989953934 47:0.02667799490229397 48:0.13333333333333333 49:0.13051011321714795 50:0.1511627906976744 51:0.007322175732217573 52:1.0 53:0.0 54:0.14452998100149084 55:0.0 
-0.0 0.0 0.0 0.0 0.0 0.30557567209761083 0.0 0.0 0.0 0:0.008417715268562996 1:0.002589804061852038 2:0.007046070460704607 3:0.6220029239766087 4:0.0 5:0.8461538461538461 6:0.0 7:0.0 8:0.08522184017623101 9:0.18102116691545292 10:0.0 11:0.0 12:0.16279069767441862 13:0.003076923076923077 14:0.003076923076923077 15:0.0 16:0.19606961280343688 17:0.1834919291143961 18:0.054134175206567624 19:0.003742248421269967 20:1.0 21:0.2666266589331144 22:0.0 23:0.0 24:0.0 25:0.0 26:0.0 27:0.04091347434633994 28:0.039813957275308585 29:0.017391304347826087 30:1.0 31:0.9999999999999998 32:0.0 33:0.05802685200470699 34:0.5714285714285714 35:0.0 36:0.013986013986013986 37:0.08166904678757127 38:0.0 39:1.0 40:0.0062678062678062675 41:2.0824816405630125E-16 42:0.0 43:0.17742067097153225 44:0.05060929467943533 45:0.006278983767274017 46:0.024243260697525984 47:0.030286709963567245 48:0.15384615384615385 49:0.13051011321714795 50:0.12790697674418605 51:0.006276150627615063 52:1.0 53:0.0 54:0.14565075593001736 55:0.0 
-0.0 0.0 0.0 0.0 0.0 16.0 0.0 0.0 0.0 0:0.02234478135742177 1:0.002850862195498159 2:0.008672086720867209 3:0.43782894736842126 4:0.0 5:0.875 6:0.0 7:0.0 8:0.02393411274459566 9:0.13428706528088125 10:0.0 11:0.0 12:0.16279069767441862 13:0.003076923076923077 14:0.003076923076923077 15:0.0 16:0.09916111888406999 17:0.13611995261862547 18:0.03740626027028906 19:0.0016266480349467006 20:1.0 21:0.19893414803627102 22:0.0 23:0.0 24:0.0 25:0.0 26:0.0 27:0.04047707725004334 28:0.04842992854600889 29:0.017391304347826087 30:1.0 31:0.5822418659666638 32:0.0 33:0.03603224631343285 34:0.2857142857142857 35:0.0 36:0.013986013986013986 37:0.6224227008813678 38:0.0 39:1.0 40:0.007977207977207976 41:2.0824816405630125E-16 42:0.0 43:0.1225961930770359 44:0.8606897760017297 45:0.004203565287031377 46:0.022809029116530703 47:0.012852398238974282 48:0.125 49:0.017923928253402874 50:0.16279069767441862 51:0.007845188284518828 52:1.0 53:0.0 54:0.014178631536579417 55:0.0 
-0.0 0.0 0.0 0.0 0.0 3.2385946541441926 0.0 0.0 0.0 0:0.006361121393005591 1:1.0000000000000002 2:0.004336043360433604 3:0.465972222222223 4:0.0 5:0.875 6:0.0 7:0.0 8:0.04569341815409543 9:0.09113733925475402 10:0.0 11:0.0 12:0.16279069767441862 13:0.0 14:0.0 15:0.0 16:0.09356859632341756 17:0.09238127495895859 18:0.03996242111588038 19:0.0013890373032982278 20:1.0 21:0.2822497745975777 22:0.0 23:0.0 24:0.0 25:0.0 26:0.0 27:0.03974178681866954 28:0.0025510204081629975 29:0.008695652173913044 30:1.0 31:0.9550017873033012 32:0.0 33:0.04025264186990333 34:0.5714285714285714 35:0.0 36:0.006993006993006993 37:0.0846466024606537 38:0.0 39:1.0 40:0.003988603988603988 41:2.0824816405630125E-16 42:0.0 43:0.1309738172045935 44:0.058823310134533166 45:0.003632592785404135 46:0.03713098877588668 47:0.037230593171848174 48:0.125 49:0.06817453250222619 50:0.16279069767441862 51:0.003661087866108786 52:1.0 53:0.0 54:0.0692839286008724 55:0.0 
-0.0 0.0 0.0 0.0 0.0 16.0 0.0 0.0 0.0 0:0.008417715268562996 1:0.0027693475915340706 2:0.008130081300813007 3:0.6220029239766087 4:0.0 5:0.8666666666666667 6:0.0 7:0.0 8:0.1820211246941019 9:0.20278887786606345 10:0.0 11:0.0 12:0.16279069767441862 13:0.003076923076923077 14:0.003076923076923077 15:0.16666666666666666 16:0.2101927135418756 17:0.20555674806784816 18:0.054134175206567624 19:0.0025907762110031754 20:1.0 21:0.30031068206485845 22:1.0 23:0.0 24:0.0 25:0.0 26:0.0 27:0.04081186497275908 28:0.03255572929924701 29:0.017391304347826087 30:1.0 31:0.9999999999999998 32:0.0 33:0.05767441358470125 34:0.5714285714285714 35:0.0 36:0.013986013986013986 37:0.07749906292263592 38:0.0 39:1.0 40:0.007407407407407407 41:2.0824816405630125E-16 42:0.0 43:0.17742067097153225 44:0.05060929467943533 45:0.005680955763494556 46:0.02136925989953934 47:0.02667799490229397 48:0.13333333333333333 49:0.13051011321714795 50:0.1511627906976744 51:0.007322175732217573 52:1.0 53:0.0 54:0.14452998100149084 55:0.0 
-0.0 0.0 0.0 0.0 0.0 16.0 0.0 0.0 0.0 0:0.006361121393005591 1:1.0000000000000002 2:0.004336043360433604 3:0.465972222222223 4:0.0 5:0.875 6:0.0 7:0.0 8:0.04569341815409543 9:0.09113733925475402 10:0.0 11:0.0 12:0.16279069767441862 13:0.0 14:0.0 15:0.0 16:0.09356859632341756 17:0.09238127495895859 18:0.03996242111588038 19:0.0013890373032982278 20:1.0 21:0.2822497745975777 22:0.0 23:0.0 24:0.0 25:0.0 26:0.0 27:0.03974178681866954 28:0.0025510204081629975 29:0.008695652173913044 30:1.0 31:0.9550017873033012 32:0.0 33:0.04025264186990333 34:0.5714285714285714 35:0.0 36:0.006993006993006993 37:0.0846466024606537 38:0.0 39:1.0 40:0.003988603988603988 41:2.0824816405630125E-16 42:0.0 43:0.1309738172045935 44:0.058823310134533166 45:0.003632592785404135 46:0.03713098877588668 47:0.037230593171848174 48:0.125 49:0.06817453250222619 50:0.16279069767441862 51:0.003661087866108786 52:1.0 53:0.0 54:0.0692839286008724 55:0.0 
-0.0 0.0 0.0 0.0 0.0 16.0 0.0 0.0 0.0 0:0.008417715268562996 1:0.0027693475915340706 2:0.008130081300813007 3:0.6220029239766087 4:0.0 5:0.8666666666666667 6:0.0 7:0.0 8:0.1820211246941019 9:0.20278887786606345 10:0.0 11:0.0 12:0.16279069767441862 13:0.003076923076923077 14:0.003076923076923077 15:0.16666666666666666 16:0.2101927135418756 17:0.20555674806784816 18:0.054134175206567624 19:0.0025907762110031754 20:1.0 21:0.30031068206485845 22:1.0 23:0.0 24:0.0 25:0.0 26:0.0 27:0.04081186497275908 28:0.03255572929924701 29:0.017391304347826087 30:1.0 31:0.9999999999999998 32:0.0 33:0.05767441358470125 34:0.5714285714285714 35:0.0 36:0.013986013986013986 37:0.07749906292263592 38:0.0 39:1.0 40:0.007407407407407407 41:2.0824816405630125E-16 42:0.0 43:0.17742067097153225 44:0.05060929467943533 45:0.005680955763494556 46:0.02136925989953934 47:0.02667799490229397 48:0.13333333333333333 49:0.13051011321714795 50:0.1511627906976744 51:0.007322175732217573 52:1.0 53:0.0 54:0.14452998100149084 55:0.0 
-0.0 0.0 0.0 0.0 0.0 0.0 1.1391404186582088 0.0 0.0 0:0.008417715268562996 1:0.0027693475915340706 2:0.008130081300813007 3:0.6220029239766087 4:0.0 5:0.8666666666666667 6:0.0 7:0.0 8:0.08522184017623101 9:0.20278887786606345 10:0.0 11:0.0 12:0.16279069767441862 13:0.003076923076923077 14:0.003076923076923077 15:0.16666666666666666 16:0.21965792226596778 17:0.20555674806784816 18:0.054134175206567624 19:0.002789390804648623 20:1.0 21:0.30031068206485845 22:0.0 23:0.0 24:0.0 25:0.0 26:0.0 27:0.04081186497275908 28:0.03255572929924701 29:0.017391304347826087 30:1.0 31:0.9999999999999998 32:0.0 33:0.05802642020480596 34:0.5714285714285714 35:0.0 36:0.013986013986013986 37:0.08167764989699085 38:0.0 39:1.0 40:0.007407407407407407 41:2.0824816405630125E-16 42:0.0 43:0.17742067097153225 44:0.05060929467943533 45:0.006168080041887564 46:0.02136925989953934 47:0.028640337654507086 48:0.13333333333333333 49:0.13051011321714795 50:0.1511627906976744 51:0.007322175732217573 52:1.0 53:0.0 54:0.14564938278090606 55:0.0 
-0.0 0.0 0.0 0.0 1.1340110987212664 0.0 0.0 0.0 0.0 0:0.018104445245453123 1:0.002850862195498159 2:0.008672086720867209 3:0.486476608187135 4:0.0 5:0.625 6:0.0 7:0.0 8:0.44112786715844365 9:0.2530480172821421 10:0.0 11:0.0 12:0.16279069767441862 13:0.003076923076923077 14:0.003076923076923077 15:0.0 16:0.25302780306173744 17:0.25650187566937843 18:0.04182476687481115 19:0.006775480755981092 20:0.0 21:0.3690569851779961 22:0.0 23:0.0 24:0.0 25:0.0 26:0.0 27:0.0534145560518461 28:0.4162654996353025 29:0.008695652173913044 30:0.5 31:0.7854101418165181 32:0.0 33:0.04224752110315345 34:0.5714285714285714 35:0.0 36:0.04195804195804196 37:0.034759164781124174 38:0.0 39:1.0 40:0.005698005698005697 41:2.0824816405630125E-16 42:0.0 43:0.13707751478324243 44:0.009170173823254218 45:0.012729704644030589 46:0.012408319860501114 47:0.07061266874350985 48:0.375 49:0.15409871517618626 50:0.16279069767441862 51:0.007845188284518828 52:1.0 53:0.0 54:0.15963392125471293 55:0.0 
-0.0 0.0 0.0 0.0 0.0 16.0 0.0 0.0 0.0 0:0.02234478135742177 1:0.002850862195498159 2:0.008672086720867209 3:0.43782894736842126 4:0.0 5:0.875 6:0.0 7:0.0 8:0.02393411274459566 9:0.13428706528088125 10:0.0 11:0.0 12:0.16279069767441862 13:0.003076923076923077 14:0.003076923076923077 15:0.0 16:0.09916111888406999 17:0.13611995261862547 18:0.03740626027028906 19:0.0016266480349467006 20:1.0 21:0.19893414803627102 22:0.0 23:0.0 24:0.0 25:0.0 26:0.0 27:0.04047707725004334 28:0.04842992854600889 29:0.017391304347826087 30:1.0 31:0.5822418659666638 32:0.0 33:0.03603224631343285 34:0.2857142857142857 35:0.0 36:0.013986013986013986 37:0.6224227008813678 38:0.0 39:1.0 40:0.007977207977207976 41:2.0824816405630125E-16 42:0.0 43:0.1225961930770359 44:0.8606897760017297 45:0.004203565287031377 46:0.022809029116530703 47:0.012852398238974282 48:0.125 49:0.017923928253402874 50:0.16279069767441862 51:0.007845188284518828 52:1.0 53:0.0 54:0.014178631536579417 55:0.0 
-0.0 0.0 0.0 0.0 0.0 16.0 0.0 0.0 0.0 0:0.006361121393005591 1:1.0000000000000002 2:0.004336043360433604 3:0.465972222222223 4:0.0 5:0.875 6:0.0 7:0.0 8:0.04569341815409543 9:0.09113733925475402 10:0.0 11:0.0 12:0.16279069767441862 13:0.0 14:0.0 15:0.0 16:0.09356859632341756 17:0.09238127495895859 18:0.03996242111588038 19:0.0013890373032982278 20:1.0 21:0.2822497745975777 22:0.0 23:0.0 24:0.0 25:0.0 26:0.0 27:0.03974178681866954 28:0.0025510204081629975 29:0.008695652173913044 30:1.0 31:0.9550017873033012 32:0.0 33:0.04025264186990333 34:0.5714285714285714 35:0.0 36:0.006993006993006993 37:0.0846466024606537 38:0.0 39:1.0 40:0.003988603988603988 41:2.0824816405630125E-16 42:0.0 43:0.1309738172045935 44:0.058823310134533166 45:0.003632592785404135 46:0.03713098877588668 47:0.037230593171848174 48:0.125 49:0.06817453250222619 50:0.16279069767441862 51:0.003661087866108786 52:1.0 53:0.0 54:0.0692839286008724 55:0.0 
-0.0 0.0 0.0 0.0 0.0 16.0 0.0 0.0 0.0 0:0.008417715268562996 1:0.0027693475915340706 2:0.008130081300813007 3:0.6220029239766087 4:0.0 5:0.8666666666666667 6:0.0 7:0.0 8:0.1820211246941019 9:0.20278887786606345 10:0.0 11:0.0 12:0.16279069767441862 13:0.003076923076923077 14:0.003076923076923077 15:0.16666666666666666 16:0.2101927135418756 17:0.20555674806784816 18:0.054134175206567624 19:0.0025907762110031754 20:1.0 21:0.30031068206485845 22:1.0 23:0.0 24:0.0 25:0.0 26:0.0 27:0.04081186497275908 28:0.03255572929924701 29:0.017391304347826087 30:1.0 31:0.9999999999999998 32:0.0 33:0.05767441358470125 34:0.5714285714285714 35:0.0 36:0.013986013986013986 37:0.07749906292263592 38:0.0 39:1.0 40:0.007407407407407407 41:2.0824816405630125E-16 42:0.0 43:0.17742067097153225 44:0.05060929467943533 45:0.005680955763494556 46:0.02136925989953934 47:0.02667799490229397 48:0.13333333333333333 49:0.13051011321714795 50:0.1511627906976744 51:0.007322175732217573 52:1.0 53:0.0 54:0.14452998100149084 55:0.0 
-0.0 0.0 0.0 0.0 0.0 0.0 0.0 0.0 0.5885996693629392 0:0.00838685401592861 1:0.0027693475915340706 2:0.008130081300813007 3:0.6220029239766087 4:0.0 5:0.8666666666666667 6:0.0 7:0.0 8:0.08522886021281945 9:0.20328397785957336 10:0.0 11:0.0 12:0.16279069767441862 13:0.003076923076923077 14:0.003076923076923077 15:0.16666666666666666 16:0.21869505635863978 17:0.0987635130334493 18:0.054134175206567624 19:0.002856606189428707 20:1.0 21:0.30174923765168005 22:0.0 23:0.0 24:0.09562187518097408 25:0.0 26:0.0 27:0.04089413479789405 28:0.03490744855481913 29:0.017391304347826087 30:1.0 31:0.9999999999999998 32:0.0 33:0.05790653314413472 34:0.5714285714285714 35:0.0 36:0.013986013986013986 37:0.08106904101270601 38:0.047619047619047616 39:1.0 40:0.007407407407407407 41:0.31570926143024625 42:0.0 43:0.17742067097153225 44:0.05065961880407514 45:0.006168080041887564 46:0.021311009254522166 47:0.053618157543391186 48:0.13333333333333333 49:0.1305291947589365 50:0.1511627906976744 51:0.007322175732217573 52:1.0 53:0.0 54:0.14528927103427497 55:0.0 
-0.0 0.0 0.0 0.0 0.0 1.3521124902945236 0.0 0.0 0.0 0:0.018103210795347775 1:1.746231264217451E-5 2:0.008672086720867209 3:0.486476608187135 4:0.0 5:0.5 6:0.0 7:0.0 8:0.12116302350167853 9:0.2602612718692343 10:0.0 11:0.0 12:0.0 13:0.046153846153846156 14:0.046153846153846156 15:0.0 16:0.26040163064207766 17:0.26381358413934425 18:0.04182476687481115 19:0.06072125634327237 20:0.0 21:0.029463829371802065 22:0.0 23:0.0 24:0.0 25:0.0 26:0.0 27:0.05141460061982102 28:0.34569827647350865 29:0.06956521739130435 30:0.5 31:0.7858919331643165 32:0.0 33:0.04224752110315345 34:0.5714285714285714 35:0.0 36:0.055944055944055944 37:0.03479019510886308 38:0.0 39:0.0 40:0.004558404558404558 41:2.0824816405630125E-16 42:0.0 43:0.13707751478324243 44:0.009170173823254218 45:0.013681859541732152 46:0.011991844276063817 47:0.07061266874350985 48:0.5 49:0.15409871517618626 50:0.0 51:0.007845188284518828 52:1.0 53:0.0 54:0.15963392125471293 55:0.0 
-0.0 0.0 0.0 0.0 0.0 16.0 0.0 0.0 0.0 0:0.006361121393005591 1:1.0000000000000002 2:0.004336043360433604 3:0.465972222222223 4:0.0 5:0.875 6:0.0 7:0.0 8:0.04569341815409543 9:0.09113733925475402 10:0.0 11:0.0 12:0.16279069767441862 13:0.0 14:0.0 15:0.0 16:0.09356859632341756 17:0.09238127495895859 18:0.03996242111588038 19:0.0013890373032982278 20:1.0 21:0.2822497745975777 22:0.0 23:0.0 24:0.0 25:0.0 26:0.0 27:0.03974178681866954 28:0.0025510204081629975 29:0.008695652173913044 30:1.0 31:0.9550017873033012 32:0.0 33:0.04025264186990333 34:0.5714285714285714 35:0.0 36:0.006993006993006993 37:0.0846466024606537 38:0.0 39:1.0 40:0.003988603988603988 41:2.0824816405630125E-16 42:0.0 43:0.1309738172045935 44:0.058823310134533166 45:0.003632592785404135 46:0.03713098877588668 47:0.037230593171848174 48:0.125 49:0.06817453250222619 50:0.16279069767441862 51:0.003661087866108786 52:1.0 53:0.0 54:0.0692839286008724 55:0.0 
-0.0 0.0 0.0 0.0 0.0 6.885538402848396 0.0 0.0 0.0 0:0.008417715268562996 1:0.002589804061852038 2:0.007046070460704607 3:0.6220029239766087 4:0.0 5:0.8461538461538461 6:0.0 7:0.0 8:0.08522184017623101 9:0.18102116691545292 10:0.0 11:0.0 12:0.16279069767441862 13:0.003076923076923077 14:0.003076923076923077 15:0.0 16:0.19607436006873646 17:0.1834919291143961 18:0.054134175206567624 19:0.002753739669332859 20:1.0 21:0.2666266589331144 22:1.0 23:0.0 24:0.0 25:1.0 26:0.0 27:0.04091347434633994 28:0.039813957275308585 29:0.017391304347826087 30:1.0 31:0.9999999999999998 32:0.0 33:0.057500201390173644 34:0.5714285714285714 35:0.0 36:0.013986013986013986 37:0.08167139293957457 38:0.0 39:1.0 40:0.0062678062678062675 41:2.0824816405630125E-16 42:0.0 43:0.17742067097153225 44:0.05060929467943533 45:0.0050320328885666435 46:0.024243260697525984 47:0.03148057058534186 48:0.15384615384615385 49:0.13051011321714795 50:0.12790697674418605 51:0.006276150627615063 52:1.0 53:0.0 54:0.14397597596461958 55:0.0 
-0.0 0.0 0.0 0.0 0.0 16.0 0.0 0.0 0.0 0:0.008417715268562996 1:0.002589804061852038 2:0.007046070460704607 3:0.6220029239766087 4:0.0 5:0.8461538461538461 6:0.0 7:0.0 8:0.08522184017623101 9:0.18102116691545292 10:0.0 11:0.0 12:0.16279069767441862 13:0.003076923076923077 14:0.003076923076923077 15:0.0 16:0.19606961280343688 17:0.1834919291143961 18:0.054134175206567624 19:0.003742248421269967 20:1.0 21:0.2666266589331144 22:0.0 23:0.0 24:0.0 25:0.0 26:0.0 27:0.04091347434633994 28:0.039813957275308585 29:0.017391304347826087 30:1.0 31:0.9999999999999998 32:0.0 33:0.05802685200470699 34:0.5714285714285714 35:0.0 36:0.013986013986013986 37:0.08166904678757127 38:0.0 39:1.0 40:0.0062678062678062675 41:2.0824816405630125E-16 42:0.0 43:0.17742067097153225 44:0.05060929467943533 45:0.006278983767274017 46:0.024243260697525984 47:0.030286709963567245 48:0.15384615384615385 49:0.13051011321714795 50:0.12790697674418605 51:0.006276150627615063 52:1.0 53:0.0 54:0.14565075593001736 55:0.0 
-0.0 1.4330001062736928 0.05786600528391905 1.227281326605768 0.0 15.316602419000676 2.306053705651268 0.0 0.0 0:0.008417715268562996 1:0.0027693475915340706 2:0.008130081300813007 3:0.6220029239766087 4:0.0 5:0.8666666666666667 6:0.0 7:0.0 8:0.1820211246941019 9:0.20278887786606345 10:0.0 11:0.0 12:0.16279069767441862 13:0.003076923076923077 14:0.003076923076923077 15:0.16666666666666666 16:0.2101927135418756 17:0.20555674806784816 18:0.054134175206567624 19:0.0025907762110031754 20:1.0 21:0.30031068206485845 22:1.0 23:0.0 24:0.0 25:0.0 26:0.0 27:0.04081186497275908 28:0.03255572929924701 29:0.017391304347826087 30:1.0 31:0.9999999999999998 32:0.0 33:0.05767441358470125 34:0.5714285714285714 35:0.0 36:0.013986013986013986 37:0.07749906292263592 38:0.0 39:1.0 40:0.007407407407407407 41:2.0824816405630125E-16 42:0.0 43:0.17742067097153225 44:0.05060929467943533 45:0.005680955763494556 46:0.02136925989953934 47:0.02667799490229397 48:0.13333333333333333 49:0.13051011321714795 50:0.1511627906976744 51:0.007322175732217573 52:1.0 53:0.0 54:0.14452998100149084 55:0.0 
-0.0 0.0 0.001321665797326009 0.0 0.0 9.596287880224077 0.0 1.6878593359538359 0.0 0:0.022369470359529298 1:1.0000000000000002 2:0.005962059620596206 3:0.43548976608187145 4:0.0 5:0.0 6:0.0 7:0.0 8:0.08224253664810104 9:0.19809191800254042 10:0.0 11:0.0 12:0.23255813953488375 13:0.0 14:0.0 15:0.0 16:0.22203093816477293 17:0.2007956792877907 18:0.03719380014805807 19:8.762433908753678E-4 20:1.0 21:0.6134850947264446 22:1.0 23:0.0 24:0.0 25:0.0 26:0.0 27:0.042786253849098996 28:0.1330783618547778 29:0.008695652173913044 30:1.0 31:0.9586676376794451 32:0.0 33:0.03957814616084232 34:0.5714285714285714 35:0.0 36:0.07692307692307693 37:0.10399904192190033 38:0.0 39:1.0 40:0.0 41:2.0824816405630125E-16 42:0.0 43:0.12189987107162845 44:0.06837371067728817 45:0.004265352719037932 46:0.014552912444935834 47:0.02667799490229397 48:1.0 49:0.07654496883348175 50:0.23255813953488375 51:0.005230125523012552 52:1.0 53:0.0 54:0.08461348632201558 55:0.0 
-0.0 0.0 0.0 0.0 0.0 12.681473594871685 0.0 0.0 0.0 0:0.018104445245453123 1:0.002850862195498159 2:0.008672086720867209 3:0.486476608187135 4:0.0 5:0.75 6:0.0 7:0.0 8:0.12116442750899617 9:0.25306656035306013 10:0.0 11:0.0 12:0.16279069767441862 13:0.003076923076923077 14:0.003076923076923077 15:0.0 16:0.25329286727626465 17:0.256520671835111 18:0.04182476687481115 19:0.006194751147594943 20:0.0 21:0.3690856988623638 22:0.0 23:0.0 24:0.0 25:0.0 26:0.0 27:0.05368585852941974 28:0.42447669754211953 29:0.008695652173913044 30:0.5 31:0.7861716722284017 32:0.0 33:0.04224752110315345 34:0.5714285714285714 35:0.0 36:0.027972027972027972 37:0.03480821202610246 38:0.0 39:1.0 40:0.006837606837606838 41:2.0824816405630125E-16 42:0.0 43:0.13707751478324243 44:0.009170173823254218 45:0.012258630579241267 46:0.01240721893197545 47:0.06795727636849132 48:0.25 49:0.15409871517618626 50:0.16279069767441862 51:0.007845188284518828 52:1.0 53:0.0 54:0.15963392125471293 55:0.0 
-0.0 0.0 0.0 0.0 0.0 15.297921643804917 0.0 0.0 0.0 0:0.01573059769281396 1:1.0000000000000002 2:0.003794037940379404 3:0.4855263157894738 4:0.0 5:0.8571428571428571 6:0.0 7:0.0 8:0.10147182087113041 9:0.05956590670981024 10:0.0 11:0.0 12:0.13953488372093026 13:0.0 14:0.0 15:0.16666666666666666 16:0.06482464861798565 17:0.06037892318270213 18:0.04173845495015479 19:0.002491725301349529 20:1.0 21:0.18447393658869946 22:0.0 23:0.0 24:0.0 25:0.0 26:0.0 27:0.03973510491984703 28:0.0028695280542156243 29:0.008695652173913044 30:1.0 31:0.9999999999999998 32:0.0 33:0.04181657769387444 34:0.2857142857142857 35:0.0 36:0.006993006993006993 37:0.07990681455048586 38:0.0 39:1.0 40:0.003418803418803419 41:2.0824816405630125E-16 42:0.0 43:0.13679463396854558 44:0.04853482243039428 45:0.004909968818157034 46:0.06036552895918944 47:0.05202492211838006 48:0.14285714285714285 49:0.14020353644574482 50:0.13953488372093026 51:0.003138075313807531 52:1.0 53:0.0 54:0.1435949670211743 55:0.0 
-0.0 0.0 0.0 0.0 0.0 16.0 2.1016001447240975 0.0 0.0 0:0.008417715268562996 1:0.002589804061852038 2:0.007046070460704607 3:0.6220029239766087 4:0.0 5:0.8461538461538461 6:0.0 7:0.0 8:0.08522184017623101 9:0.18102116691545292 10:0.0 11:0.0 12:0.16279069767441862 13:0.003076923076923077 14:0.003076923076923077 15:0.0 16:0.19606961280343688 17:0.1834919291143961 18:0.054134175206567624 19:0.003742248421269967 20:1.0 21:0.2666266589331144 22:0.0 23:0.0 24:0.0 25:0.0 26:0.0 27:0.04091347434633994 28:0.039813957275308585 29:0.017391304347826087 30:1.0 31:0.9999999999999998 32:0.0 33:0.05802685200470699 34:0.5714285714285714 35:0.0 36:0.013986013986013986 37:0.08166904678757127 38:0.0 39:1.0 40:0.0062678062678062675 41:2.0824816405630125E-16 42:0.0 43:0.17742067097153225 44:0.05060929467943533 45:0.006278983767274017 46:0.024243260697525984 47:0.030286709963567245 48:0.15384615384615385 49:0.13051011321714795 50:0.12790697674418605 51:0.006276150627615063 52:1.0 53:0.0 54:0.14565075593001736 55:0.0 
-0.3819183077384749 0.0 0.0 0.9064864046275761 0.0 0.0 0.7789535623588483 4.3113826695757425 0.0 0:0.02029312528228586 1:1.0000000000000002 2:0.004878048780487805 3:0.38991228070175393 4:0.0 5:0.8888888888888888 6:0.0 7:0.0 8:0.10405379032835525 9:0.0793254030800041 10:0.0 11:0.0 12:0.18604651162790697 13:0.0 14:0.0 15:0.0 16:0.08639459923644904 17:0.08040811738731793 18:0.03305414745396409 19:0.0020669862206186573 20:1.0 21:0.24566854071313302 22:0.0 23:0.0 24:0.0 25:0.0 26:0.0 27:0.039730476779499035 28:0.0021421661215277232 29:0.008695652173913044 30:1.0 31:0.9999999999999998 32:0.0 33:0.03365472315285865 34:0.5714285714285714 35:0.0 36:0.006993006993006993 37:0.08012224752791718 38:0.0 39:1.0 40:0.004558404558404558 41:2.0824816405630125E-16 42:0.0 43:0.10833247199751896 44:0.04864665381848275 45:0.005567220706842756 46:0.03552030599464394 47:0.05202492211838006 48:0.1111111111111111 49:0.16619895687571556 50:0.18604651162790697 51:0.0041841004184100415 52:1.0 53:0.0 54:0.17381502028127926 55:0.0 
-7.1347039645799475 0.0 0.1512617703540176 0.0 0.0 0.0 0.0 0.0 0.0 0:0.018103210795347775 1:0.002850862195498159 2:0.008672086720867209 3:0.486476608187135 4:0.0 5:0.5625 6:0.0 7:0.0 8:0.18123347658887998 9:0.2530480172821421 10:0.0 11:0.0 12:0.16279069767441862 13:0.003076923076923077 14:0.003076923076923077 15:0.0 16:0.07836238934783642 17:0.25650187566937843 18:0.04182476687481115 19:0.006908691090076638 20:0.0 21:0.3690569851779961 22:0.0 23:0.0 24:0.0 25:0.0 26:0.0 27:0.053016005509569794 28:0.40415754923413555 29:0.008695652173913044 30:0.5 31:0.24580937906121275 32:0.0 33:0.04224752110315345 34:0.5714285714285714 35:0.0 36:0.04895104895104895 37:5.5549602529063324E-6 38:0.0 39:1.0 40:0.005128205128205128 41:2.0824816405630125E-16 42:0.0 43:0.13707751478324243 44:0.009170173823254218 45:0.013986178237499435 46:0.012408319860501114 47:0.06548501450209475 48:0.4375 49:0.15409871517618626 50:0.16279069767441862 51:0.007845188284518828 52:1.0 53:0.0 54:0.15963392125471293 55:0.0 
-0.0 0.4176811546839176 0.0 0.0 1.7282434568815264 0.0 0.0 0.0 0.0 0:0.006656154968190568 1:0.0027693475915340706 2:0.008130081300813007 3:0.6065058479532177 4:0.0 5:0.8666666666666667 6:0.0 7:0.0 8:0.15906700905725116 9:0.1970201285034815 10:0.0 11:0.0 12:0.16279069767441862 13:0.003076923076923077 14:0.003076923076923077 15:0.16666666666666666 16:0.26205269710045764 17:0.19970926090844876 18:0.05272662689678756 19:0.006194751147594943 20:1.0 21:0.29169370538611283 22:1.0 23:0.0 24:0.0 25:1.0 26:0.0 27:0.040836559716044 28:0.035131215792674524 29:0.017391304347826087 30:1.0 31:0.9999999999999998 32:0.0 33:0.06329519749428489 34:0.5714285714285714 35:0.0 36:0.013986013986013986 37:0.2120485667170602 38:0.0 39:1.0 40:0.007407407407407407 41:2.0824816405630125E-16 42:0.0 43:0.1728075376857086 44:0.1362106306917517 45:0.012981256615829382 46:0.02145263915518842 47:0.05530511269928532 48:0.13333333333333333 49:0.1436140440147564 50:0.1511627906976744 51:0.007322175732217573 52:1.0 53:0.0 54:0.1839511824552138 55:0.0 
-0.0 0.0 0.0 0.0 0.0 0.0 0.0 0.0 0.652480754535935 0:0.00838685401592861 1:0.0027693475915340706 2:0.008130081300813007 3:0.6220029239766087 4:0.0 5:0.8666666666666667 6:0.0 7:0.0 8:0.08522886021281945 9:0.20328397785957336 10:0.0 11:0.0 12:0.16279069767441862 13:0.003076923076923077 14:0.003076923076923077 15:0.16666666666666666 16:0.22013721633083103 17:0.20605860569290751 18:0.054134175206567624 19:0.0027834003247374094 20:1.0 21:0.30174923765168005 22:0.0 23:0.0 24:0.0 25:0.0 26:0.0 27:0.04089413479789405 28:0.03490744855481913 29:0.017391304347826087 30:1.0 31:1.0 32:0.0 33:0.057906447127921375 34:0.5714285714285714 35:0.0 36:0.013986013986013986 37:0.08170450485622048 38:0.0 39:1.0 40:0.007407407407407407 41:2.0824816405630125E-16 42:0.0 43:0.17742067097153225 44:0.05065961880407514 45:0.006033260632497274 46:0.021311009254522166 47:0.03343717549325025 48:0.13333333333333333 49:0.1305291947589365 50:0.1511627906976744 51:0.007322175732217573 52:1.0 53:0.0 54:0.1452889974674439 55:0.0 
-6.201502045526543 9.791049939097435 1.8577924230344016 6.727172074182445 5.599754822829839 15.971074471068528 2.0755044639379 3.945175430602967 1.854309010196259 0:0.018103210795347775 1:1.746231264217451E-5 2:0.008672086720867209 3:0.486476608187135 4:0.0 5:0.5 6:0.0 7:0.0 8:0.12116302350167853 9:0.2602612718692343 10:0.0 11:0.0 12:0.0 13:0.046153846153846156 14:0.046153846153846156 15:0.0 16:0.26040163064207766 17:0.26381358413934425 18:0.04182476687481115 19:0.06072125634327237 20:0.0 21:0.029463829371802065 22:0.0 23:0.0 24:0.0 25:0.0 26:0.0 27:0.05141460061982102 28:0.34569827647350865 29:0.06956521739130435 30:0.5 31:0.7858919331643165 32:0.0 33:0.04224752110315345 34:0.5714285714285714 35:0.0 36:0.055944055944055944 37:0.03479019510886308 38:0.0 39:0.0 40:0.004558404558404558 41:2.0824816405630125E-16 42:0.0 43:0.13707751478324243 44:0.009170173823254218 45:0.013681859541732152 46:0.011991844276063817 47:0.07061266874350985 48:0.5 49:0.15409871517618626 50:0.0 51:0.007845188284518828 52:1.0 53:0.0 54:0.15963392125471293 55:0.0 
-0.0 0.0 0.0 0.0 0.0 0.0 1.4967315212528987 0.0 0.0 0:0.022369470359529298 1:3.6018512326717463E-4 2:0.005420054200542005 3:0.43548976608187145 4:0.0 5:0.0 6:0.0 7:0.0 8:0.08224253664810104 9:0.17035148390925023 10:0.0 11:0.0 12:0.0 13:0.01846153846153846 14:0.01846153846153846 15:0.0 16:0.19095775271053095 17:0.1726766153518811 18:0.03719380014805807 19:0.012175102715758486 20:1.0 21:0.06161382391620202 22:0.0 23:0.0 24:0.0 25:0.0 26:0.0 27:0.04339922611998897 28:0.18543182383274015 29:0.06086956521739131 30:1.0 31:0.9586855395238628 32:0.0 33:0.0394857117342777 34:0.5714285714285714 35:0.0 36:0.06993006993006994 37:0.10400127949688165 38:0.0 39:0.0 40:0.0 41:2.0824816405630125E-16 42:0.0 43:0.12189987107162845 44:0.06837371067728817 45:0.004113095972659113 46:0.01734094934161134 47:0.023761362181538855 48:1.0 49:0.07654496883348175 50:0.009966777408637877 51:0.004707112970711297 52:1.0 53:0.0 54:0.08432477165036252 55:0.0 
-0.0 0.0 0.09559019995067257 0.5367684115605765 1.786362532919937 4.380707327245052 0.33169540694353433 0.0 0.0 0:0.022369470359529298 1:5.811035843612918E-4 2:0.008130081300813007 3:0.43548976608187145 4:0.0 5:0.0 6:0.0 7:0.0 8:0.08224253664810104 9:0.2448482713222137 10:0.0 11:0.0 12:0.023255813953488372 13:0.021538461538461538 14:0.021538461538461538 15:0.0 16:0.27439409149667643 17:0.11806153639106852 18:0.03719380014805807 19:0.013842299952594422 20:1.0 21:0.08119081391809713 22:1.0 23:0.0 24:0.11976333416983573 25:0.0 26:0.0 27:0.044934880704669514 28:0.1831351090610349 29:0.06956521739130435 30:1.0 31:0.9586016597510371 32:0.0 33:0.03947157730111941 34:0.5714285714285714 35:0.0 36:0.1048951048951049 37:0.10399183252649206 38:0.047619047619047616 39:0.125 40:0.0 41:0.37330011723329437 42:0.0 43:0.12189987107162845 44:0.06837371067728817 45:0.006291850429754052 46:0.01127661896697236 47:0.059991099243435694 48:1.0 49:0.07654496883348175 50:0.020348837209302327 51:0.007322175732217573 52:1.0 53:0.0 54:0.08428062339975974 55:0.0 
-0.0 0.0 0.0 0.0 0.0 2.1433843324398207 0.0 0.0 1.5539605593382955 0:0.022369470359529298 1:0.002726658952958733 2:0.015718157181571817 3:0.43548976608187123 4:0.0 5:0.0 6:0.0 7:0.0 8:0.08224253664810104 9:0.4612774321555393 10:0.0 11:0.0 12:0.16279069767441862 13:0.006153846153846154 14:0.006153846153846153 15:0.0 16:0.5168504043055081 17:0.4675734187631596 18:0.03719380014805807 19:0.006638327873880926 20:1.0 21:0.4517275109638417 22:0.0 23:0.0 24:0.0 25:0.0 26:0.0 27:0.05017351539284353 28:0.1951602878967099 29:0.026086956521739132 30:1.0 31:0.9586359854685478 32:0.0 33:0.039558011769249356 34:0.5714285714285714 35:0.0 36:0.20279720279720279 37:0.1039945670226261 38:0.0 39:1.0 40:0.0 41:2.0824816405630125E-16 42:0.0 43:0.12189987107162845 44:0.06837371067728817 45:0.014800705727618801 46:0.0047418662316260525 47:0.03343717549325025 48:1.0 49:0.07654496883348175 50:0.2015503875968992 51:0.014644351464435145 52:1.0 53:0.0 54:0.08455059747774248 55:0.0 
-0.0 0.0 0.0 0.0 0.0 16.0 0.0 0.0 0.0 0:0.006361121393005591 1:1.0000000000000002 2:0.004336043360433604 3:0.465972222222223 4:0.0 5:0.875 6:0.0 7:0.0 8:0.04569341815409543 9:0.09113733925475402 10:0.0 11:0.0 12:0.16279069767441862 13:0.0 14:0.0 15:0.0 16:0.09356859632341756 17:0.09238127495895859 18:0.03996242111588038 19:0.0013890373032982278 20:1.0 21:0.2822497745975777 22:0.0 23:0.0 24:0.0 25:0.0 26:0.0 27:0.03974178681866954 28:0.0025510204081629975 29:0.008695652173913044 30:1.0 31:0.9550017873033012 32:0.0 33:0.04025264186990333 34:0.5714285714285714 35:0.0 36:0.006993006993006993 37:0.0846466024606537 38:0.0 39:1.0 40:0.003988603988603988 41:2.0824816405630125E-16 42:0.0 43:0.1309738172045935 44:0.058823310134533166 45:0.003632592785404135 46:0.03713098877588668 47:0.037230593171848174 48:0.125 49:0.06817453250222619 50:0.16279069767441862 51:0.003661087866108786 52:1.0 53:0.0 54:0.0692839286008724 55:0.0 
-0.0 0.0 0.0 0.0 0.0 15.89887309048057 0.0 0.0 0.0 0:0.006361121393005591 1:1.0000000000000002 2:0.004336043360433604 3:0.465972222222223 4:0.0 5:0.875 6:0.0 7:0.0 8:0.04569341815409543 9:0.09113733925475402 10:0.0 11:0.0 12:0.16279069767441862 13:0.0 14:0.0 15:0.0 16:0.09356859632341756 17:0.09238127495895859 18:0.03996242111588038 19:0.0013890373032982278 20:1.0 21:0.2822497745975777 22:0.0 23:0.0 24:0.0 25:0.0 26:0.0 27:0.03974178681866954 28:0.0025510204081629975 29:0.008695652173913044 30:1.0 31:0.9550017873033012 32:0.0 33:0.04025264186990333 34:0.5714285714285714 35:0.0 36:0.006993006993006993 37:0.0846466024606537 38:0.0 39:1.0 40:0.003988603988603988 41:2.0824816405630125E-16 42:0.0 43:0.1309738172045935 44:0.058823310134533166 45:0.003632592785404135 46:0.03713098877588668 47:0.037230593171848174 48:0.125 49:0.06817453250222619 50:0.16279069767441862 51:0.003661087866108786 52:1.0 53:0.0 54:0.0692839286008724 55:0.0 
-0.23130434222370405 0.0 0.0 0.0 0.0 15.850215428083557 0.0 0.0 0.0 0:0.01573059769281396 1:1.0000000000000002 2:0.003794037940379404 3:0.4855263157894738 4:0.0 5:0.8571428571428571 6:0.0 7:0.0 8:0.10147182087113041 9:0.05956590670981024 10:0.0 11:0.0 12:0.13953488372093026 13:0.0 14:0.0 15:0.16666666666666666 16:0.06482464861798565 17:0.06037892318270213 18:0.04173845495015479 19:0.002491725301349529 20:1.0 21:0.18447393658869946 22:0.0 23:0.0 24:0.0 25:0.0 26:0.0 27:0.03973510491984703 28:0.0028695280542156243 29:0.008695652173913044 30:1.0 31:0.9999999999999998 32:0.0 33:0.04181657769387444 34:0.2857142857142857 35:0.0 36:0.006993006993006993 37:0.07990681455048586 38:0.0 39:1.0 40:0.003418803418803419 41:2.0824816405630125E-16 42:0.0 43:0.13679463396854558 44:0.04853482243039428 45:0.004909968818157034 46:0.06036552895918944 47:0.05202492211838006 48:0.14285714285714285 49:0.14020353644574482 50:0.13953488372093026 51:0.003138075313807531 52:1.0 53:0.0 54:0.1435949670211743 55:0.0 
-0.0 0.0 0.0 0.0 13.450852251303878 0.0 0.0 0.0 0.0 0:0.008417715268562996 1:0.002589804061852038 2:0.007046070460704607 3:0.6220029239766087 4:0.0 5:0.8461538461538461 6:0.0 7:0.0 8:0.1820211246941019 9:0.1830201099604106 10:0.0 11:0.0 12:0.13953488372093026 13:0.003076923076923077 14:0.003076923076923077 15:0.16666666666666666 16:0.19824075218841153 17:0.18551815578036607 18:0.054134175206567624 19:0.0032562163916668788 20:1.0 21:0.26974783642388295 22:1.0 23:0.0 24:0.0 25:0.0 26:0.0 27:0.04110717680775843 28:0.0457341319776511 29:0.017391304347826087 30:1.0 31:0.9999999999999998 32:0.0 33:0.057905759007065724 34:0.5714285714285714 35:0.0 36:0.013986013986013986 37:0.08167237053623581 38:0.0 39:1.0 40:0.0062678062678062675 41:2.0824816405630125E-16 42:0.0 43:0.17742067097153225 44:0.05060929467943533 45:0.005498267069461685 46:0.023951014318536818 47:0.02714593817397556 48:0.15384615384615385 49:0.13051011321714795 50:0.12790697674418605 51:0.006276150627615063 52:1.0 53:0.0 54:0.14526567306710403 55:0.0 
-0.0 0.0 0.0 0.0 4.865079137674792 0.0 1.0793248705600103 0.0 0.0 0:0.01573059769281396 1:1.0000000000000002 2:0.003794037940379404 3:0.4855263157894738 4:0.0 5:0.8571428571428571 6:0.0 7:0.0 8:0.13451934511482677 9:0.05950286026868911 10:0.0 11:0.0 12:0.13953488372093026 13:0.0 14:0.0 15:0.16666666666666666 16:0.06438348796974304 17:0.06031501621921142 18:0.04173845495015479 19:0.0029920307064203507 20:1.0 21:0.1842786835349991 22:0.0 23:0.0 24:0.0 25:0.0 26:0.0 27:0.039726957782368996 28:0.001833516685001792 29:0.008695652173913044 30:1.0 31:0.9999999999999998 32:0.0 33:0.04193519852540884 34:0.8571428571428571 35:0.0 36:0.006993006993006993 37:0.07936599620428116 38:0.0 39:1.0 40:0.003418803418803419 41:2.0824816405630125E-16 42:0.0 43:0.13679463396854558 44:0.04853482243039428 45:0.0057900725926998044 46:0.060431039574147236 47:0.061018993066023514 48:0.14285714285714285 49:0.17503371072382648 50:0.13953488372093026 51:0.003138075313807531 52:1.0 53:0.0 54:0.18041452505667716 55:0.0 
-0.0 0.0 0.0 0.0 15.52426627910062 16.0 15.991374698108832 0.0 0.0 0:0.008417715268562996 1:0.002589804061852038 2:0.007046070460704607 3:0.6220029239766087 4:0.0 5:0.8461538461538461 6:0.0 7:0.0 8:0.08522184017623101 9:0.18102116691545292 10:0.0 11:0.0 12:0.16279069767441862 13:0.003076923076923077 14:0.003076923076923077 15:0.0 16:0.19606961280343688 17:0.1834919291143961 18:0.054134175206567624 19:0.003742248421269967 20:1.0 21:0.2666266589331144 22:0.0 23:0.0 24:0.0 25:0.0 26:0.0 27:0.04091347434633994 28:0.039813957275308585 29:0.017391304347826087 30:1.0 31:0.9999999999999998 32:0.0 33:0.05802685200470699 34:0.5714285714285714 35:0.0 36:0.013986013986013986 37:0.08166904678757127 38:0.0 39:1.0 40:0.0062678062678062675 41:2.0824816405630125E-16 42:0.0 43:0.17742067097153225 44:0.05060929467943533 45:0.006278983767274017 46:0.024243260697525984 47:0.030286709963567245 48:0.15384615384615385 49:0.13051011321714795 50:0.12790697674418605 51:0.006276150627615063 52:1.0 53:0.0 54:0.14565075593001736 55:0.0 
-0.0 0.22089988716831227 0.44449430797080103 0.0 0.0 2.558870830855604 0.0 1.2569464232141725 0.0 0:0.006656154968190568 1:1.0000000000000002 2:0.004878048780487805 3:0.6065058479532177 4:0.0 5:0.8888888888888888 6:0.0 7:0.0 8:0.060976037807109015 9:0.10556755704312194 10:0.0 11:0.0 12:0.18604651162790697 13:0.0 14:0.0 15:0.0 16:0.14058022100825415 17:0.10700845113203669 18:0.05272662689678756 19:0.001621073391071589 20:1.0 21:0.3269397529474597 22:1.0 23:0.0 24:0.0 25:1.0 26:0.0 27:0.039716172425230435 28:2.0845638050211363E-4 29:0.008695652173913044 30:1.0 31:1.0 32:0.0 33:0.06363582464314971 34:0.5714285714285714 35:0.0 36:0.006993006993006993 37:0.2120485667170602 38:0.0 39:1.0 40:0.004558404558404558 41:2.0824816405630125E-16 42:0.0 43:0.1728075376857086 44:0.1362106306917517 45:0.005589615506384775 46:0.04213357502257598 47:0.04773544212796549 48:0.1111111111111111 49:0.1436140440147564 50:0.18604651162790697 51:0.0041841004184100415 52:1.0 53:0.0 54:0.18514632294784944 55:0.0 
-6.522528135817407 7.646691432493442 1.2543813013284988 1.2078843979940674 0.0 16.0 0.0 6.015892564821042 9.429209155319777 0:0.018104445245453123 1:0.002850862195498159 2:0.008672086720867209 3:0.486476608187135 4:0.0 5:0.75 6:0.0 7:0.0 8:0.12116442750899617 9:0.25306656035306013 10:0.0 11:0.0 12:0.16279069767441862 13:0.003076923076923077 14:0.003076923076923077 15:0.0 16:0.25329286727626465 17:0.256520671835111 18:0.04182476687481115 19:0.006194751147594943 20:0.0 21:0.3690856988623638 22:0.0 23:0.0 24:0.0 25:0.0 26:0.0 27:0.05368585852941974 28:0.42447669754211953 29:0.008695652173913044 30:0.5 31:0.7861716722284017 32:0.0 33:0.04224752110315345 34:0.5714285714285714 35:0.0 36:0.027972027972027972 37:0.03480821202610246 38:0.0 39:1.0 40:0.006837606837606838 41:2.0824816405630125E-16 42:0.0 43:0.13707751478324243 44:0.009170173823254218 45:0.012258630579241267 46:0.01240721893197545 47:0.06795727636849132 48:0.25 49:0.15409871517618626 50:0.16279069767441862 51:0.007845188284518828 52:1.0 53:0.0 54:0.15963392125471293 55:0.0 
-2.5161940945455874 1.2751301037962037 0.3657569974886687 1.9546012021840118 3.9220398984323817 16.0 1.0315218520807279 2.105963644008689 0.0 0:0.02234478135742177 1:0.002850862195498159 2:0.008672086720867209 3:0.43782894736842126 4:0.0 5:0.875 6:0.0 7:0.0 8:0.02393411274459566 9:0.13428706528088125 10:0.0 11:0.0 12:0.16279069767441862 13:0.003076923076923077 14:0.003076923076923077 15:0.0 16:0.09916111888406999 17:0.13611995261862547 18:0.03740626027028906 19:0.0016266480349467006 20:1.0 21:0.19893414803627102 22:0.0 23:0.0 24:0.0 25:0.0 26:0.0 27:0.04047707725004334 28:0.04842992854600889 29:0.017391304347826087 30:1.0 31:0.5822418659666638 32:0.0 33:0.03603224631343285 34:0.2857142857142857 35:0.0 36:0.013986013986013986 37:0.6224227008813678 38:0.0 39:1.0 40:0.007977207977207976 41:2.0824816405630125E-16 42:0.0 43:0.1225961930770359 44:0.8606897760017297 45:0.004203565287031377 46:0.022809029116530703 47:0.012852398238974282 48:0.125 49:0.017923928253402874 50:0.16279069767441862 51:0.007845188284518828 52:1.0 53:0.0 54:0.014178631536579417 55:0.0 
-0.429222947197137 0.0 0.1821361716651213 0.5750766809661573 0.0 0.0 0.7331554021226232 0.0 7.488039903325069 0:0.006656154968190568 1:0.0027693475915340706 2:0.008130081300813007 3:0.6065058479532177 4:0.0 5:0.8666666666666667 6:0.0 7:0.0 8:0.060976037807109015 9:0.1970238371176651 10:0.0 11:0.0 12:0.16279069767441862 13:0.003076923076923077 14:0.003076923076923077 15:0.16666666666666666 16:0.25999055621966904 17:0.19971302014159528 18:0.05272662689678756 19:0.0075545350042123234 20:1.0 21:0.29170519085985996 22:1.0 23:0.0 24:0.0 25:1.0 26:0.0 27:0.04083057314222185 28:0.034943444946532114 29:0.017391304347826087 30:1.0 31:0.9999999999999998 32:0.0 33:0.06353092393755708 34:0.5714285714285714 35:0.0 36:0.013986013986013986 37:0.21025935378486676 38:0.0 39:1.0 40:0.007407407407407407 41:2.0824816405630125E-16 42:0.0 43:0.1728075376857086 44:0.1362106306917517 45:0.016149102805591356 46:0.0214521874791135 47:0.05899532710280374 48:0.13333333333333333 49:0.1436140440147564 50:0.1511627906976744 51:0.007322175732217573 52:1.0 53:0.0 54:0.18477826338073144 55:0.0 
-0.0 0.0 0.0 0.0 1.4067339689282952 0.0 0.0 0.0 0.0 0:0.018103210795347775 1:0.002850862195498159 2:0.008672086720867209 3:0.486476608187135 4:0.0 5:0.5625 6:0.0 7:0.0 8:0.8202421351020082 9:0.26027981494015223 10:0.0 11:0.0 12:0.16279069767441862 13:0.003076923076923077 14:0.003076923076923077 15:0.0 16:0.2603906126779881 17:0.26383238030507683 18:0.04182476687481115 19:0.005957072311950663 20:1.0 21:0.38025532208139745 22:0.0 23:0.0 24:0.0 25:0.0 26:0.0 27:0.0518179529758597 28:0.3575886524822696 29:0.017391304347826087 30:1.0 31:0.785803099399058 32:0.0 33:0.04224752110315345 34:0.5714285714285714 35:0.0 36:0.04895104895104895 37:0.03478447366769803 38:0.0 39:1.0 40:0.005128205128205128 41:2.0824816405630125E-16 42:0.0 43:0.13707751478324243 44:0.009170173823254218 45:0.011322875597684759 46:0.01199080325794815 47:0.06317757009345794 48:0.4375 49:0.15409871517618626 50:0.16279069767441862 51:0.007845188284518828 52:1.0 53:0.0 54:0.15963392125471293 55:0.0 
-0.0 0.0 0.0 0.8679116015456472 0.0 0.0 0.0 0.0 0.0 0:0.008417715268562996 1:0.0027693475915340706 2:0.008130081300813007 3:0.6220029239766087 4:0.0 5:0.8666666666666667 6:0.0 7:0.0 8:0.08522184017623101 9:0.20278887786606345 10:0.0 11:0.0 12:0.16279069767441862 13:0.003076923076923077 14:0.003076923076923077 15:0.16666666666666666 16:0.21964330631628906 17:0.20555674806784816 18:0.054134175206567624 19:0.0029263364355441 20:1.0 21:0.30031068206485845 22:0.0 23:0.0 24:0.0 25:0.0 26:0.0 27:0.04081186497275908 28:0.03255572929924701 29:0.017391304347826087 30:1.0 31:0.9999999999999998 32:0.0 33:0.057905759007065724 34:0.5714285714285714 35:0.0 36:0.013986013986013986 37:0.08167119742259481 38:0.0 39:1.0 40:0.007407407407407407 41:2.0824816405630125E-16 42:0.0 43:0.17742067097153225 44:0.05060929467943533 45:0.00639515265092607 46:0.02136925989953934 47:0.02667799490229397 48:0.13333333333333333 49:0.13051011321714795 50:0.1511627906976744 51:0.007322175732217573 52:1.0 53:0.0 54:0.14526567306710403 55:0.0 
-0.0 -0.0 0.0 0.0 16.0 0.0 0.0 0.0 0.0 0:0.004495867283781559 1:0.0020846551455306196 2:0.05582655826558266 3:0.4864766081871337 4:0.0 5:0.8214285714285714 6:0.0 7:0.12053571428571427 8:0.24533483468515835 9:0.635406139610781 10:0.0 11:0.0 12:0.16279069767441862 13:0.04 14:0.04 15:0.0 16:0.6349921125275698 17:0.5482841544187719 18:0.08166103979311692 19:0.06591973054453912 20:0.0 21:0.22271564182057885 22:0.0 23:1.0 24:0.1967646661390267 25:0.0 26:0.0 27:0.06365241803348431 28:0.152741830028877 29:0.0782608695652174 30:0.6428571428571429 31:0.9999999999999998 32:0.07894736842105263 33:0.08239126477608505 34:0.9285714285714285 35:0.0 36:0.07692307692307693 37:0.03472704960163149 38:0.047619047619047616 39:0.42857142857142855 40:0.05242165242165242 41:2.0824816405630125E-16 42:0.0 43:0.13707751478324243 44:0.009170173823254218 45:0.11720792210494069 46:0.008776692194545866 47:0.15685981308411218 48:0.09821428571428571 49:0.26923546622567107 50:0.16279069767441862 51:0.05805439330543932 52:0.9196428571428571 53:0.32 54:0.280271542880399 55:0.0 
-0.0 -0.0 0.17071081044368236 0.0 0.0 0.0 0.0 0.0 0.0 0:0.0044971017338869415 1:0.0021551997557018934 2:0.06395663956639566 3:0.4864766081871335 4:0.2 5:0.7883211678832117 6:0.0 7:0.06569343065693431 8:0.26459500706917677 9:0.996623306785837 10:0.0 11:0.0 12:0.16279069767441862 13:0.046153846153846156 14:0.046153846153846156 15:0.0 16:0.31108503557962336 17:0.6365227544502742 18:0.08166103979311692 19:0.06136507566833553 20:0.0 21:0.22609513992178398 22:0.0 23:0.0 24:0.7675771673455206 25:0.0 26:0.0 27:0.13417580354649913 28:0.3845131249317376 29:0.06956521739130435 30:0.5 31:0.9999999999999997 32:0.05263157894736842 33:0.08239126477608505 34:0.2857142857142857 35:0.0 36:0.06993006993006994 37:0.0 38:0.047619047619047616 39:0.375 40:0.061538461538461535 41:4.884720594001875E-5 42:0.0 43:0.13707751478324243 44:0.009151535258572804 45:0.12140605137669142 46:0.004626860008899929 47:0.13470834676119886 48:0.072992700729927 49:0.26923546622567107 50:0.1758720930232558 51:0.07112970711297072 52:0.8613138686131386 53:0.2631578947368421 54:0.280271542880399 55:0.0 
-2.2882421763645753 -0.0 0.0 0.0 0.0 0.0 0.0 0.0 0.0 0:0.013213553927951026 1:0.0024497792380206154 2:0.07100271002710028 3:0.2506879090662636 4:0.2 5:0.8013245033112583 6:0.0 7:0.08940397350993377 8:0.045662529993106354 9:0.3807967957573454 10:0.0 11:0.0 12:0.16279069767441862 13:0.04 14:0.04 15:0.0 16:0.4266813070960874 17:0.3202164917307522 18:0.08012070390694244 19:0.026404918528216696 20:0.0 21:0.19537365117467687 22:0.0 23:0.0 24:0.14092813157539139 25:0.0 26:0.0 27:0.07202865430318403 28:0.3500357379937373 29:0.06086956521739131 30:0.5 31:0.6322056086787841 32:0.07894736842105263 33:0.08458978263298042 34:0.14285714285714285 35:0.0 36:0.06993006993006994 37:0.09689120776337647 38:0.09523809523809523 39:0.42857142857142855 40:0.06894586894586895 41:2.77664218741735E-16 42:0.0 43:0.07255530229260382 44:0.061717879229556294 45:0.06791705545215274 46:0.01606739218126018 47:0.1000966806316468 48:0.06622516556291391 49:0.8174049103167537 50:0.22757475083056483 51:0.07845188284518828 52:0.8675496688741722 53:0.3048780487804878 54:0.8952780059305944 55:0.0 
-0.0 -0.0 0.5192086585945989 0.0 0.0 0.0 0.0 0.0 0.0 0:0.013214788378056374 1:0.0021901258537705554 2:0.046612466124661245 3:0.25035188814234277 4:0.0 5:0.8297872340425532 6:0.0 7:0.047872340425531915 8:0.04287838348213466 9:0.3652614109422662 10:0.0 11:0.0 12:0.18604651162790697 13:0.03076923076923077 14:0.030769230769230767 15:0.0 16:0.40932548271722624 17:0.28833412214575527 18:0.050382926173427274 19:0.019664182031066332 20:0.0 21:0.14532308898684027 22:0.0 23:0.0 24:0.16825087350153464 25:0.0 26:0.0 27:0.06109485903130676 28:0.37754400990115183 29:0.06086956521739131 30:0.6363636363636364 31:0.6322777561064679 32:0.02631578947368421 33:0.05339304765257983 34:0.14285714285714285 35:0.0 36:0.055944055944055944 37:0.09690407108249764 38:0.047619047619047616 39:0.2727272727272727 40:0.04444444444444444 41:2.0824816405630125E-16 42:0.0 43:0.07561621777470767 44:0.061717879229556294 45:0.03749065483237014 46:0.009814265021053628 47:0.05709430756159728 48:0.0851063829787234 49:0.8288004070728916 50:0.17547568710359407 51:0.04864016736401673 52:0.9148936170212766 53:0.2403846153846154 54:0.9098665896183804 55:0.0 
