svm_type c_svc
kernel_type rbf
gamma 0.5
nr_class 2
total_sv 628
rho -2.8466047347926753
label 17 23
nr_sv 294 334
SV
8.230457720288662 0:0.2222222222222222 1:1.0 2:0.0 3:1.0 4:0.0 5:0.26202885562902417 6:0.0 7:0.0 8:0.0 9:0.0 10:0.0 11:0.0 12:0.0 13:0.4186092835647774 14:0.0 
32.0 0:1.0 1:0.0 2:0.0 3:0.0 4:0.0 5:0.2454329872358772 6:0.0 7:0.004188009009650641 8:1.0847235205969E-4 9:0.0 10:0.0 11:0.0 12:0.0 13:0.34425406741095066 14:0.0 
32.0 0:0.0 1:0.0 2:0.0 3:0.0 4:1.0 5:0.21376284736587423 6:0.0 7:0.014868397492048257 8:0.0016235928128490327 9:0.0 10:0.0 11:0.0 12:0.0 13:0.11311685004542288 14:0.0 
32.0 0:1.0 1:0.0 2:0.0 3:0.0 4:0.0 5:0.25551086441189796 6:0.0 7:0.0 8:0.0 9:0.0 10:0.0 11:0.0 12:0.0 13:0.07167629777053391 14:0.0 
32.0 0:0.0 1:0.0 2:0.0 3:0.0 4:1.0 5:0.21376284736587423 6:0.0 7:0.026028262178715414 8:0.0014853685145965055 9:0.0 10:0.0 11:0.0 12:0.0 13:0.07506367605116289 14:0.0 
32.0 0:0.0 1:0.0 2:0.0 3:0.0 4:0.0 5:0.2586770348192363 6:0.0 7:0.0 8:0.0 9:0.0 10:0.0 11:0.0 12:0.0 13:0.07825382536527377 14:0.0 
32.0 0:0.0 1:0.0 2:0.0 3:0.0 4:0.0 5:0.26215027709620053 6:0.0 7:0.0 8:0.004699066254604666 9:0.0 10:0.0 11:0.0 12:0.0 13:0.06597125932361264 14:0.0 
1.946218901172858 0:0.14285714285714285 1:0.0 2:0.0 3:0.0 4:0.0 5:0.2639145642822177 6:0.5 7:0.0 8:9.595571987431849E-4 9:0.0 10:0.0 11:0.0 12:0.0 13:0.3253580793509339 14:0.0 
32.0 0:0.0 1:0.0 2:0.0 3:0.0 4:0.0 5:0.2628559953744286 6:0.0 7:0.0 8:0.0032955545168074003 9:0.0 10:0.0 11:0.0 12:0.0 13:0.09473358295795738 14:0.0 
32.0 0:1.0 1:0.0 2:0.0 3:0.0 4:0.0 5:0.28818710718000784 6:0.5 7:0.0 8:0.0 9:0.0 10:0.0 11:0.0 12:0.0 13:0.16605653438914525 14:0.0 
32.0 0:1.0 1:0.0 2:0.0 3:0.0 4:0.0 5:0.25784861481614263 6:0.0 7:0.0 8:0.008931785083300841 9:0.0 10:0.0 11:0.0 12:0.0 13:0.07014081309013254 14:0.0 
32.0 0:0.0 1:0.0 2:0.0 3:0.0 4:0.0 5:0.25784861481614113 6:0.0 7:0.0 8:0.007224425309888128 9:0.0 10:0.0 11:0.0 12:0.0 13:0.08671730154529612 14:0.0 
32.0 0:0.0 1:0.0 2:0.0 3:0.0 4:0.0 5:0.25784861481614113 6:0.0 7:0.0 8:0.0068313697961756795 9:0.0 10:0.0 11:0.0 12:0.0 13:0.09170674210020867 14:0.0 
32.0 0:0.0 1:0.0 2:0.0 3:0.0 4:0.0 5:0.25784861481614113 6:0.0 7:0.0 8:0.008122409209673729 9:0.0 10:0.0 11:0.0 12:0.0 13:0.07713015337160087 14:0.0 
0.3920483943512581 0:0.0 1:0.0 2:0.0 3:0.0 4:0.0 5:0.2578486148161441 6:0.0 7:0.0 8:0.0 9:0.0 10:0.0 11:0.0 12:0.0 13:0.10271649935774269 14:0.0 
32.0 0:0.0 1:0.0 2:0.0 3:0.0 4:0.0 5:0.259959328708344 6:0.0 7:0.0 8:0.0 9:0.0 10:0.0 11:0.0 12:0.0 13:0.08923263934570658 14:0.0 
32.0 0:1.0 1:0.0 2:0.0 3:0.0 4:0.0 5:0.259959328708344 6:0.0 7:0.03249627532238177 8:0.0 9:0.0 10:0.0 11:0.0 12:0.0 13:0.12846778552751797 14:0.0 
32.0 0:0.0 1:0.0 2:0.0 3:0.0 4:0.0 5:0.2599593287083447 6:0.0 7:0.0 8:0.0 9:0.0 10:0.0 11:0.0 12:0.0 13:0.06741930006018035 14:0.0 
32.0 0:0.0 1:0.0 2:0.0 3:0.0 4:0.0 5:0.2599593287083447 6:0.0 7:0.0 8:0.0 9:0.0 10:0.0 11:0.0 12:0.0 13:0.06741930006018035 14:0.0 
32.0 0:1.0 1:0.0 2:0.0 3:0.0 4:0.0 5:0.2599593287083447 6:0.0 7:0.0 8:0.0 9:0.0 10:0.0 11:0.0 12:0.0 13:0.07310973639553497 14:0.0 
32.0 0:0.4444444444444444 1:0.0 2:0.0 3:0.0 4:0.0 5:0.26211719908744974 6:0.5 7:0.0 8:0.0 9:0.0 10:0.0 11:0.0 12:0.0 13:0.39651684993096425 14:0.0 
32.0 0:0.0 1:0.0 2:0.0 3:0.0 4:0.0 5:0.2881050131839906 6:0.0 7:0.0 8:0.0026862239131961556 9:0.0 10:0.0 11:0.0 12:0.0 13:0.09191466836023428 14:0.0 
32.0 0:0.0 1:0.0 2:0.0 3:0.0 4:0.0 5:0.2881050131839889 6:0.0 7:0.0 8:0.003655327923654539 9:0.0 10:0.0 11:0.0 12:0.0 13:0.0675461641963727 14:0.0 
21.84172837556734 0:0.0 1:0.0 2:0.0 3:1.0 4:1.0 5:0.24570906759733913 6:1.0 7:0.0 8:0.0 9:0.0 10:0.0 11:0.0 12:0.0 13:0.016076455164985095 14:0.0 
32.0 0:0.0 1:0.0 2:0.0 3:0.0 4:1.0 5:0.18429837131222024 6:0.0 7:0.0 8:0.0 9:0.0 10:0.0 11:0.0 12:0.0 13:0.012030146221983435 14:0.0 
5.0142175366647415 0:0.0 1:0.0 2:0.0 3:0.0 4:1.0 5:0.18429837131222024 6:0.0 7:0.15191574389599918 8:0.0 9:0.0 10:0.0 11:0.0 12:0.0 13:0.012031794412998922 14:0.0 
32.0 0:0.0 1:0.0 2:0.0 3:0.0 4:1.0 5:0.20517734522459224 6:0.0 7:0.0 8:0.0 9:0.0 10:0.0 11:0.0 12:0.0 13:0.024394875220109226 14:0.0 
32.0 0:0.0 1:0.0 2:0.0 3:0.0 4:1.0 5:0.20517734522459224 6:0.0 7:0.0 8:0.0 9:0.0 10:0.0 11:0.0 12:0.0 13:0.024381689691985325 14:0.0 
32.0 0:0.0 1:0.0 2:0.0 3:0.0 4:0.0 5:0.3079151533648317 6:0.0 7:0.0 8:0.0023333745945048282 9:0.0 10:0.0 11:0.0 12:0.0 13:0.10581386319377119 14:0.0 
32.0 0:0.0 1:0.0 2:0.0 3:0.0 4:0.0 5:0.2656045639093855 6:0.0 7:0.0 8:0.0022821506218249285 9:0.0 10:0.0 11:0.0 12:0.0 13:0.10818890644707693 14:0.0 
32.0 0:0.0 1:0.0 2:0.0 3:0.0 4:0.0 5:0.2718724225948773 6:0.0 7:0.0 8:0.0037206956675577487 9:0.0 10:0.0 11:0.0 12:0.0 13:0.06635946666522771 14:0.0 
7.238249220005093 0:0.0 1:0.0 2:0.0 3:1.0 4:0.1 5:0.268423741031052 6:0.0 7:0.0024889814022128983 8:0.0017921341712672442 9:0.0 10:0.0 11:0.0 12:0.0 13:0.6762727749740565 14:1.0 
7.54576898063441 0:0.0 1:0.0 2:0.0 3:1.0 4:1.0 5:0.22166968953250896 6:0.0 7:0.00661039982349159 8:0.007515353040958178 9:0.0 10:0.0 11:0.0 12:0.0 13:0.3419733961393635 14:0.0 
32.0 0:0.0 1:0.0 2:0.0 3:0.0 4:1.0 5:0.22166968953250896 6:0.0 7:0.0 8:0.0 9:0.0 10:0.0 11:0.0 12:0.0 13:0.03212014418918464 14:0.0 
32.0 0:0.0 1:0.0 2:0.0 3:0.0 4:1.0 5:0.22169981997827945 6:0.0 7:0.0 8:0.0 9:0.0 10:0.0 11:0.0 12:0.0 13:0.02955325645648821 14:0.0 
32.0 0:0.0 1:0.0 2:0.0 3:0.0 4:1.0 5:0.22166968953250896 6:0.0 7:0.0 8:0.0 9:0.0 10:0.0 11:0.0 12:0.0 13:0.028188394582470914 14:0.0 
32.0 0:0.0 1:0.0 2:0.0 3:0.0 4:1.0 5:0.22166968953250982 6:0.0 7:0.0 8:0.0 9:0.0 10:0.0 11:0.0 12:0.0 13:0.030847062614721595 14:0.0 
32.0 0:0.0 1:0.0 2:0.0 3:0.0 4:1.0 5:0.22166968953250896 6:0.0 7:0.0 8:0.0 9:0.0 10:0.0 11:0.0 12:0.0 13:0.03212014418918464 14:0.0 
32.0 0:0.0 1:0.0 2:0.0 3:1.0 4:1.0 5:0.22169981997827945 6:0.0 7:0.0 8:0.0 9:0.0 10:0.0 11:0.0 12:0.0 13:0.19458607767443703 14:0.0 
32.0 0:0.0 1:0.0 2:0.0 3:0.0 4:1.0 5:0.22169981997827945 6:0.0 7:0.0 8:0.0 9:0.0 10:0.0 11:0.0 12:0.0 13:0.029553256456488118 14:0.0 
32.0 0:0.0 1:0.0 2:0.0 3:0.0 4:1.0 5:0.22166968953250896 6:0.0 7:0.0 8:0.0 9:0.0 10:0.0 11:0.0 12:0.0 13:0.030823377376126736 14:0.0 
32.0 0:0.0 1:0.0 2:0.0 3:0.0 4:1.0 5:0.22169981997827945 6:0.0 7:0.0 8:0.0 9:0.0 10:0.0 11:0.0 12:0.0 13:0.06585680591245487 14:0.0 
32.0 0:0.0 1:0.0 2:0.0 3:0.0 4:1.0 5:0.22169981997827862 6:0.0 7:0.0 8:0.0 9:0.0 10:0.0 11:0.0 12:0.0 13:0.0475185099305384 14:0.0 
32.0 0:0.0 1:0.0 2:0.0 3:0.0 4:1.0 5:0.22166968953250982 6:0.0 7:0.0 8:0.0 9:0.0 10:0.0 11:0.0 12:0.0 13:0.03339026510882334 14:0.0 
32.0 0:0.0 1:0.0 2:0.0 3:0.0 4:1.0 5:0.22169981997827862 6:0.0 7:0.0 8:0.0 9:0.0 10:0.0 11:0.0 12:0.0 13:0.042408419703740305 14:0.0 
32.0 0:0.0 1:0.0 2:0.0 3:0.0 4:1.0 5:0.22166968953250896 6:0.0 7:0.0 8:0.0 9:0.0 10:0.0 11:0.0 12:0.0 13:0.032466540803631525 14:0.0 
32.0 0:0.0 1:0.0 2:0.0 3:0.0 4:1.0 5:0.22166968953250896 6:0.0 7:0.0 8:0.0 9:0.0 10:0.0 11:0.0 12:0.0 13:0.03212014418918472 14:0.0 
32.0 0:0.0 1:0.0 2:0.0 3:0.0 4:1.0 5:0.22166968953250896 6:0.0 7:0.0 8:0.20646694070703375 9:0.0 10:0.0 11:0.0 12:0.0 13:0.042408419703740305 14:0.0 
32.0 0:0.0 1:0.0 2:0.0 3:0.0 4:0.8571428571428571 5:0.2576567281805663 6:0.0 7:0.00863225814113656 8:0.001921126092564948 9:0.0 10:0.0 11:0.0 12:0.0 13:0.4369275176653591 14:0.0 
32.0 0:0.0 1:0.0 2:0.0 3:0.0 4:1.0 5:0.2576217109573841 6:0.0 7:0.0 8:0.0 9:0.0 10:0.0 11:0.0 12:0.0 13:0.5696714373691364 14:0.0 
32.0 0:0.0 1:0.0 2:0.0 3:0.0 4:1.0 5:0.2576567281805663 6:0.0 7:0.0 8:0.002230443627505841 9:0.0 10:0.0 11:0.0 12:0.0 13:0.04368150127820341 14:0.0 
32.0 0:0.0 1:0.0 2:0.0 3:0.0 4:1.0 5:0.2576567281805663 6:0.0 7:5.305580371569725E-6 8:0.0021724821328792904 9:0.0 10:0.0 11:0.0 12:0.0 13:0.04495458285266645 14:0.0 
32.0 0:0.0 1:0.0 2:0.0 3:0.0 4:1.0 5:0.2576217109573831 6:0.0 7:0.0 8:1.706921448264813E-5 9:0.0 10:0.0 11:0.0 12:0.0 13:0.06588049115104941 14:0.0 
32.0 0:0.0 1:0.0 2:0.0 3:0.0 4:1.0 5:0.2576567281805663 6:0.0 7:0.0 8:5.4621486344660305E-6 9:0.0 10:0.0 11:0.0 12:0.0 13:0.06588049115104941 14:0.0 
32.0 0:0.0 1:0.0 2:0.0 3:0.0 4:1.0 5:0.2576217109573831 6:0.0 7:0.0015146969403568905 8:0.0011831013942196944 9:0.0 10:0.0 11:0.0 12:0.0 13:0.06588049115104921 14:0.0 
32.0 0:0.0 1:0.0 2:0.0 3:0.0 4:1.0 5:0.2576567281805663 6:0.0 7:6.6837151257023874E-6 8:0.0014854313211359656 9:0.0 10:0.0 11:0.0 12:0.0 13:0.06588049115104938 14:0.0 
32.0 0:0.0 1:0.0 2:0.0 3:0.0 4:1.0 5:0.2576217109573831 6:0.0 7:0.0 8:5.4621486344660305E-6 9:0.0 10:0.0 11:0.0 12:0.0 13:0.06588049115104938 14:0.0 
32.0 0:0.0 1:0.0 2:0.0 3:0.0 4:1.0 5:0.2576217109573831 6:0.0 7:0.0 8:5.462148634466045E-6 9:0.0 10:0.0 11:0.0 12:0.0 13:0.0658804911510492 14:0.0 
32.0 0:0.0 1:0.0 2:0.0 3:0.0 4:1.0 5:0.2576567281805663 6:0.0 7:0.0 8:0.0 9:0.0 10:0.0 11:0.0 12:0.0 13:0.06588049115104937 14:0.0 
32.0 0:0.0 1:0.0 2:0.0 3:0.0 4:1.0 5:0.2576217109573831 6:0.0 7:0.0 8:1.6092238582788092E-5 9:0.0 10:0.0 11:0.0 12:0.0 13:0.04751850993053832 14:0.0 
32.0 0:0.0 1:0.0 2:0.0 3:0.0 4:1.0 5:0.2576567281805663 6:0.0 7:0.0 8:7.572818156590336E-6 9:0.0 10:0.0 11:0.0 12:0.0 13:0.04751850993053832 14:0.0 
32.0 0:0.0 1:0.0 2:0.0 3:0.0 4:1.0 5:0.2576217109573831 6:0.0 7:0.0021015466659387283 8:0.0016417869763525994 9:0.0 10:0.0 11:0.0 12:0.0 13:0.04751850993053849 14:0.0 
32.0 0:0.0 1:0.0 2:0.0 3:0.0 4:1.0 5:0.2576567281805663 6:0.0 7:1.0810822459332769E-5 8:0.0020609424613208353 9:0.0 10:0.0 11:0.0 12:0.0 13:0.04751850993053832 14:0.0 
32.0 0:0.0 1:0.0 2:0.0 3:0.0 4:1.0 5:0.2576217109573831 6:0.0 7:0.0 8:7.572818156590336E-6 9:0.0 10:0.0 11:0.0 12:0.0 13:0.04751850993053832 14:0.0 
32.0 0:0.0 1:0.0 2:0.0 3:0.0 4:1.0 5:0.2576217109573831 6:0.0 7:0.0 8:7.57281815659031E-6 9:0.0 10:0.0 11:0.0 12:0.0 13:0.047518509930538494 14:0.0 
32.0 0:0.0 1:0.0 2:0.0 3:0.0 4:1.0 5:0.2576567281805663 6:0.0 7:0.0 8:0.0 9:0.0 10:0.0 11:0.0 12:0.0 13:0.04751850993053832 14:0.0 
32.0 0:1.0 1:0.0 2:0.0 3:0.0 4:0.0 5:0.2576217109573821 6:0.0 7:8.085045499747404E-6 8:0.0017793623809293328 9:0.0 10:0.0 11:0.0 12:0.0 13:0.06807729703070413 14:0.0 
32.0 0:1.0 1:0.0 2:0.0 3:0.0 4:0.0 5:0.2576217109573821 6:0.0 7:2.051534988328722E-6 8:0.002062068747621505 9:0.0 10:0.0 11:0.0 12:0.0 13:0.07154422382999762 14:0.0 
32.0 0:1.0 1:0.0 2:0.0 3:0.0 4:0.0 5:0.2576217109573821 6:0.0 7:4.725181380130913E-6 8:0.0030666025497286527 9:0.0 10:0.0 11:0.0 12:0.0 13:0.08736300255640682 14:0.0 
6.672716501702787 0:0.0 1:0.0 2:0.0 3:0.0 4:1.0 5:0.2576567281805663 6:0.0 7:1.535710886758387E-5 8:0.002313361142750944 9:0.0 10:0.0 11:0.0 12:0.0 13:0.042411380358564614 14:0.0 
32.0 0:0.0 1:0.0 2:0.0 3:0.0 4:1.0 5:0.2576217109573831 6:0.0 7:1.033634023989658E-5 8:8.754362895229039E-6 9:0.0 10:0.0 11:0.0 12:0.0 13:0.04881231608877178 14:0.0 
32.0 0:0.0 1:0.0 2:0.0 3:0.0 4:1.0 5:0.2576567281805663 6:0.0 7:1.0712207157724599E-5 8:0.0020064999755859507 9:0.0 10:0.0 11:0.0 12:0.0 13:0.04881231608877178 14:0.0 
32.0 0:0.0 1:0.0 2:0.0 3:0.0 4:1.0 5:0.2576567281805663 6:0.0 7:0.0 8:0.0 9:0.0 10:0.0 11:0.0 12:0.0 13:0.048812316088771776 14:0.0 
32.0 0:0.0 1:0.0 2:0.0 3:0.0 4:1.0 5:0.2576217109573831 6:0.0 7:1.3845418580215557E-5 8:1.3756566496378319E-5 9:0.0 10:0.0 11:0.0 12:0.0 13:0.06294352156531123 14:0.0 
32.0 0:0.0 1:0.0 2:0.0 3:0.0 4:1.0 5:0.2576567281805663 6:0.0 7:4.794887066211563E-5 8:0.0014965715094442608 9:0.0 10:0.0 11:0.0 12:0.0 13:0.06294352156531122 14:0.0 
32.0 0:0.0 1:0.0 2:0.0 3:0.0 4:1.0 5:0.2576567281805663 6:0.0 7:0.0 8:0.0 9:0.0 10:0.0 11:0.0 12:0.0 13:0.06294352156531122 14:0.0 
32.0 0:0.0 1:0.0 2:0.0 3:0.0 4:1.0 5:0.2576217109573821 6:0.0 7:5.1630778572391764E-5 8:0.0011861781204112608 9:0.0 10:0.0 11:0.0 12:0.0 13:0.04495162219784194 14:0.0 
32.0 0:0.0 1:0.0 2:0.0 3:0.0 4:1.0 5:0.2576567281805663 6:0.0 7:0.0 8:0.0 9:0.0 10:0.0 11:0.0 12:0.0 13:0.4319151290477623 14:0.0 
32.0 0:0.0 1:0.0 2:0.0 3:0.0 4:1.0 5:0.2576567281805663 6:0.0 7:0.0 8:1.5477259241170276E-5 9:0.0 10:0.0 11:0.0 12:0.0 13:0.05521917312862744 14:0.0 
32.0 0:1.0 1:0.0 2:0.0 3:0.0 4:0.0 5:0.2576217109573821 6:0.0 7:0.0 8:0.0017740764919402865 9:0.0 10:0.0 11:0.0 12:0.0 13:0.06807729703070395 14:0.0 
32.0 0:1.0 1:0.0 2:0.0 3:0.0 4:0.0 5:0.2576217109573821 6:0.0 7:7.051859701069926E-6 8:0.0020569538837565 9:0.0 10:0.0 11:0.0 12:0.0 13:0.07154718448482177 14:0.0 
32.0 0:1.0 1:0.0 2:0.0 3:0.0 4:0.0 5:0.2576217109573821 6:0.0 7:3.937784598158389E-6 8:0.003058468179569818 9:0.0 10:0.0 11:0.0 12:0.0 13:0.08736004190158221 14:0.0 
32.0 0:0.0 1:0.0 2:0.0 3:0.0 4:1.0 5:0.2576217109573821 6:0.0 7:4.9484740004304046E-5 8:0.0012049111018852155 9:0.0 10:0.0 11:0.0 12:0.0 13:0.044954582852666354 14:0.0 
31.221735118591813 0:0.0 1:0.0 2:0.0 3:0.0 4:1.0 5:0.25762171095738606 6:0.0 7:5.417322367449017E-4 8:0.0020667753971927733 9:0.0 10:0.0 11:0.0 12:0.0 13:0.6575140660070822 14:0.0 
32.0 0:0.42857142857142855 1:0.0 2:0.0 3:0.0 4:0.0 5:0.3033264174620358 6:1.0 7:0.0 8:0.0 9:0.0 10:0.0 11:0.0 12:0.0 13:0.4061422371811868 14:0.0 
32.0 0:0.125 1:0.0 2:0.0 3:0.0 4:0.0 5:0.2791414532887608 6:1.0 7:0.0 8:0.0 9:0.0 10:0.0 11:0.0 12:0.0 13:0.34058717446900694 14:0.0 
32.0 0:0.0 1:0.0 2:0.0 3:0.0 4:0.0 5:0.22738752682056654 6:0.0 7:9.345552363664594E-4 8:0.05538133219981589 9:0.0 10:0.0 11:0.0 12:0.0 13:0.05514890766703861 14:0.0 
2.2502157961470437 0:0.0 1:0.0 2:0.0 3:1.0 4:0.0 5:0.39436289089267745 6:0.5 7:0.0 8:0.0017954652412570978 9:0.0 10:0.0 11:0.0 12:0.0 13:0.1349310675599776 14:0.0 
32.0 0:1.0 1:0.0 2:0.0 3:0.0 4:0.0 5:0.23994862637952571 6:0.5 7:0.008236434756941354 8:0.05666354057290394 9:0.0 10:0.0 11:0.0 12:0.0 13:0.08848823834648083 14:0.0 
32.0 0:0.2857142857142857 1:0.0 2:0.0 3:0.0 4:0.0 5:0.2520506782402897 6:0.5 7:0.0 8:0.0 9:0.0 10:0.0 11:0.0 12:0.0 13:0.37925217709721093 14:0.0 
32.0 0:0.2222222222222222 1:0.0 2:0.0 3:0.0 4:0.0 5:0.2572764700400593 6:0.5 7:0.0 8:0.0 9:0.0 10:0.0 11:0.0 12:0.0 13:0.3772446592343674 14:0.0 
32.0 0:0.0 1:0.0 2:0.0 3:0.0 4:0.0 5:0.27919303353864067 6:0.0 7:0.0 8:0.0 9:0.0 10:0.0 11:0.0 12:0.0 13:0.05696964556991584 14:0.0 
32.0 0:0.3333333333333333 1:0.0 2:0.0 3:0.0 4:0.0 5:0.2675599904745309 6:0.5 7:0.0 8:0.0 9:0.0 10:0.0 11:0.0 12:0.0 13:0.388519374402434 14:0.0 
8.335071471182376 0:0.0 1:0.0 2:0.0 3:0.0 4:0.0 5:0.27892842979280325 6:0.0 7:0.0 8:0.0 9:0.0 10:0.0 11:0.0 12:0.0 13:0.11691214205530205 14:0.0 
32.0 0:0.0 1:0.0 2:0.0 3:0.0 4:0.0 5:0.27892842979280325 6:0.0 7:0.0 8:0.006416799582304267 9:0.0 10:0.0 11:0.0 12:0.0 13:0.07880679132352762 14:0.0 
32.0 0:0.0 1:0.0 2:0.0 3:0.0 4:0.0 5:0.2655346498856167 6:0.0 7:0.0 8:0.0 9:0.0 10:0.0 11:0.0 12:0.0 13:0.06837557105581525 14:0.0 
32.0 0:0.0 1:0.0 2:0.0 3:0.0 4:0.0 5:0.2655346498856167 6:0.0 7:0.0 8:0.0 9:0.0 10:0.0 11:0.0 12:0.0 13:0.06837557105581525 14:0.0 
32.0 0:0.0 1:0.0 2:0.0 3:0.0 4:0.0 5:0.26556428214204786 6:0.0 7:0.0 8:0.0 9:0.0 10:0.0 11:0.0 12:0.0 13:0.06837557105581525 14:0.0 
32.0 0:0.2857142857142857 1:0.0 2:0.0 3:0.0 4:0.0 5:0.27892842979280325 6:0.5 7:0.0 8:0.0 9:0.0 10:0.0 11:0.0 12:0.0 13:0.40048950425501434 14:0.0 
32.0 0:0.0 1:0.0 2:0.0 3:0.0 4:0.0 5:0.26556428214204786 6:0.0 7:0.0 8:0.0 9:0.0 10:0.0 11:0.0 12:0.0 13:0.06837744548892705 14:0.0 
32.0 0:0.0 1:0.0 2:0.0 3:0.0 4:0.0 5:0.2655642821420487 6:0.0 7:0.0 8:0.0 9:0.0 10:0.0 11:0.0 12:0.0 13:0.06837744548892705 14:0.0 
32.0 0:0.0 1:0.0 2:0.0 3:0.0 4:0.0 5:0.27889879753637126 6:0.0 7:0.0 8:0.005631159184076984 9:0.0 10:0.0 11:0.0 12:0.0 13:0.08979659265858553 14:0.0 
32.0 0:0.0 1:0.0 2:0.0 3:0.0 4:0.0 5:0.2655642821420496 6:0.0 7:0.0 8:0.0 9:0.0 10:0.0 11:0.0 12:0.0 13:0.06837744548892705 14:0.0 
32.0 0:0.0 1:0.0 2:0.0 3:0.0 4:0.0 5:0.26556428214204786 6:0.0 7:0.0 8:0.0 9:0.0 10:0.0 11:0.0 12:0.0 13:0.06837744548892707 14:0.0 
32.0 0:0.1 1:0.0 2:0.0 3:0.0 4:0.0 5:0.2649480436284712 6:0.0 7:9.17596699733121E-4 8:0.0 9:1.0 10:0.0 11:0.0 12:0.0 13:0.4681821101599022 14:0.0 
32.0 0:1.0 1:0.0 2:0.0 3:0.0 4:0.0 5:0.2847674812452055 6:0.0 7:0.0 8:0.001248605303873199 9:0.0 10:0.0 11:0.0 12:0.0 13:0.03398677615241869 14:0.0 
32.0 0:1.0 1:0.0 2:0.0 3:0.0 4:0.0 5:0.2867444184790075 6:0.0 7:0.0 8:0.0011826076334770748 9:0.0 10:0.0 11:0.0 12:0.0 13:0.038570338958803595 14:0.0 
32.0 0:1.0 1:0.0 2:0.0 3:0.0 4:0.0 5:0.2867444184790083 6:0.0 7:0.009665485443326379 8:0.040841286994482175 9:0.0 10:0.0 11:0.0 12:0.0 13:0.037194292811385664 14:0.0 
32.0 0:0.0 1:0.0 2:0.0 3:0.0 4:0.0 5:0.26313919777688755 6:0.0 7:0.0 8:0.03389426874016986 9:0.0 10:0.0 11:0.0 12:0.0 13:0.08566082728777007 14:0.0 
5.177509842466117 0:1.0 1:0.0 2:0.0 3:0.0 4:0.0 5:0.2780537103422347 6:0.0 7:0.027380749463276517 8:0.19147379173466372 9:0.0 10:0.0 11:0.0 12:0.0 13:0.02333805539796862 14:0.0 
32.0 0:0.0 1:0.0 2:0.0 3:0.0 4:0.0 5:0.27805371034223303 6:0.0 7:0.005751926430943239 8:0.12254697516924147 9:0.0 10:0.0 11:0.0 12:0.0 13:0.03858402123583758 14:0.0 
32.0 0:0.0 1:0.0 2:0.0 3:0.0 4:0.0 5:0.2780537103422338 6:0.0 7:0.014686876477628558 8:0.036495144275803734 9:0.0 10:0.0 11:0.0 12:0.0 13:0.11034756427908865 14:0.0 
32.0 0:0.125 1:0.0 2:0.0 3:0.0 4:0.0 5:0.25516392146861966 6:0.0 7:6.580818623407557E-4 8:2.4809644245498064E-4 9:1.0 10:0.0 11:0.0 12:0.0 13:0.4620055393845604 14:0.0 
32.0 0:0.1 1:0.0 2:0.0 3:0.0 4:0.0 5:0.25516392146861966 6:0.0 7:0.0024442713899955988 8:3.689593884361024E-5 9:1.0 10:0.0 11:0.0 12:0.0 13:0.40903362654198516 14:0.0 
32.0 0:0.08333333333333333 1:0.0 2:0.0 3:0.0 4:0.0 5:0.25516392146861966 6:0.0 7:0.0017867021210561033 8:0.0021188381296325925 9:1.0 10:0.0 11:0.0 12:0.0 13:0.4627404731223858 14:0.0 
32.0 0:0.0 1:0.0 2:0.0 3:0.0 4:0.0 5:0.255192533704711 6:0.0 7:4.086059523951637E-6 8:0.004655930609859889 9:0.0 10:0.0 11:0.0 12:0.0 13:0.08893089149889248 14:0.0 
32.0 0:0.09090909090909091 1:0.0 2:0.0 3:0.0 4:0.0 5:0.23904304281549613 6:0.0 7:0.0011389640536417654 8:0.0 9:1.0 10:0.0 11:0.0 12:0.0 13:0.3709656226114293 14:0.0 
32.0 0:0.08333333333333333 1:0.0 2:0.0 3:0.0 4:0.0 5:0.23904304281549613 6:0.0 7:2.366975545971449E-4 8:0.0011821411434639428 9:1.0 10:0.0 11:0.0 12:0.0 13:0.35051061844562176 14:0.0 
32.0 0:0.08333333333333333 1:0.0 2:0.0 3:1.0 4:0.0 5:0.2290829160315166 6:0.0 7:0.0 8:1.821892177642127E-5 9:1.0 10:0.0 11:0.0 12:0.0 13:0.3863034551665265 14:0.0 
32.0 0:0.09090909090909091 1:0.0 2:0.0 3:0.0 4:0.0 5:0.2290829160315175 6:0.0 7:2.880183117079389E-4 8:0.0011300570283640228 9:1.0 10:0.0 11:0.0 12:0.0 13:0.4397464292612716 14:0.0 
32.0 0:0.06666666666666667 1:0.0 2:0.0 3:1.0 4:0.0 5:0.2389475783415269 6:0.0 7:4.656471151927225E-4 8:1.0054804389742081E-4 9:0.0 10:0.0 11:1.0 12:0.0 13:0.41236037447224827 14:0.0 
32.0 0:0.3333333333333333 1:0.0 2:0.0 3:1.0 4:0.0 5:0.2290829160315175 6:0.0 7:0.0010781109263604688 8:0.0036104484278355344 9:1.0 10:0.0 11:0.0 12:0.0 13:0.1425439167510601 14:0.0 
32.0 0:0.08333333333333333 1:0.0 2:0.0 3:1.0 4:0.0 5:0.2290829160315175 6:0.0 7:0.005182045456152706 8:0.003914013757452713 9:0.0 10:0.0 11:1.0 12:0.0 13:0.4124756965215348 14:0.0 
32.0 0:0.0 1:0.0 2:0.0 3:0.0 4:0.0 5:0.30924125267318714 6:0.0 7:0.0 8:0.007414486282551128 9:0.0 10:0.0 11:0.0 12:0.0 13:0.06485985697410329 14:0.0 
32.0 0:0.1111111111111111 1:0.0 2:0.0 3:0.0 4:0.0 5:0.2290829160315166 6:0.0 7:0.0 8:0.0010321013088088824 9:1.0 10:0.0 11:0.0 12:0.0 13:0.4012640477976864 14:0.0 
32.0 0:0.08333333333333333 1:0.0 2:0.0 3:0.0 4:0.08333333333333333 5:0.2290829160315175 6:0.0 7:0.001697137640763567 8:0.0 9:1.0 10:0.0 11:0.0 12:0.0 13:0.37072716006883694 14:0.0 
4.860252376174956 0:0.07142857142857142 1:0.0 2:0.0 3:0.0 4:0.21428571428571427 5:0.2290829160315166 6:0.0 7:7.547580439698368E-4 8:0.0015381219356891517 9:1.0 10:0.0 11:0.0 12:0.0 13:0.40115068035940477 14:0.0 
32.0 0:0.2 1:0.0 2:0.0 3:0.0 4:0.0 5:0.28502509777667695 6:0.5 7:0.0030718263925277357 8:0.001798620610229274 9:0.0 10:0.0 11:0.0 12:0.0 13:0.24468406942076265 14:0.0 
32.0 0:0.0 1:0.0 2:0.0 3:0.0 4:0.0 5:0.2837840596150953 6:0.0 7:0.0011372955287130722 8:0.029103112402980507 9:0.0 10:0.0 11:0.0 12:0.0 13:0.09443507608856419 14:0.0 
32.0 0:0.0 1:0.0 2:0.0 3:0.0 4:0.0 5:0.3025288595227126 6:0.0 7:0.009383947948070681 8:0.0 9:0.0 10:0.0 11:0.0 12:0.0 13:0.06923232179196387 14:0.0 
32.0 0:0.0 1:0.0 2:0.0 3:0.0 4:0.0 5:0.302562782920282 6:0.0 7:0.018649476569045944 8:0.033300883829746185 9:0.0 10:0.0 11:0.0 12:0.0 13:0.05331983360143933 14:0.0 
32.0 0:0.0 1:0.0 2:0.0 3:0.0 4:0.0 5:0.302562782920281 6:0.0 7:0.0011753177543319681 8:0.0029203076101260066 9:0.0 10:0.0 11:0.0 12:0.0 13:0.11421378484669177 14:0.0 
32.0 0:0.16666666666666666 1:0.0 2:0.0 3:0.0 4:0.0 5:0.3025288595227126 6:0.5 7:0.008682244869372574 8:0.008561119914709156 9:0.0 10:0.0 11:0.0 12:0.0 13:0.24096444467852338 14:0.0 
30.834472256006443 0:0.0 1:0.0 2:0.0 3:0.0 4:0.0 5:0.24421453910114677 6:0.0 7:0.005289977862114187 8:0.14769675360122297 9:0.0 10:0.0 11:0.0 12:0.0 13:0.03993270282918746 14:0.0 
32.0 0:0.23076923076923078 1:0.0 2:0.0 3:0.0 4:0.0 5:0.29031983919648546 6:0.5 7:0.0 8:6.31542984618106E-8 9:0.0 10:0.0 11:0.0 12:0.0 13:0.3934705949523151 14:0.0 
32.0 0:0.16666666666666666 1:0.0 2:0.0 3:0.0 4:0.0 5:0.3491393381835703 6:1.0 7:2.1172096498823885E-4 8:1.5565955713411068E-4 9:0.0 10:0.0 11:0.0 12:0.0 13:0.39347059495231507 14:0.0 
32.0 0:0.2 1:0.0 2:0.0 3:0.0 4:0.0 5:0.3693707833632375 6:1.0 7:0.0 8:6.315403594283274E-8 9:0.0 10:0.0 11:0.0 12:0.0 13:0.39347223053543245 14:0.0 
32.0 0:0.25 1:0.0 2:0.0 3:0.0 4:0.0 5:0.25998666274453297 6:0.5 7:0.0 8:0.0 9:0.0 10:0.0 11:0.0 12:0.0 13:0.393500035448427 14:0.0 
32.0 0:0.0 1:0.0 2:0.0 3:0.0 4:0.0 5:0.25998666274453297 6:0.5 7:0.0 8:0.0 9:0.0 10:0.0 11:0.0 12:0.0 13:0.2120598934939558 14:0.0 
32.0 0:0.18181818181818182 1:0.0 2:0.0 3:0.0 4:0.0 5:0.3743398606400712 6:1.0 7:1.3267672081706888E-4 8:5.498011015150439E-4 9:0.0 10:0.0 11:0.0 12:0.0 13:0.37661754651137447 14:0.0 
32.0 0:0.0 1:0.0 2:0.0 3:0.0 4:1.0 5:0.24050462224412403 6:0.0 7:0.0046443263398523865 8:0.006364362393027916 9:0.0 10:0.0 11:0.0 12:0.0 13:0.3414132554940207 14:0.0 
32.0 0:0.0 1:0.0 2:0.0 3:0.0 4:0.0 5:0.2643064474796995 6:0.0 7:0.004385736792238233 8:8.614703417792631E-4 9:0.0 10:0.0 11:0.0 12:0.0 13:0.08526600525531595 14:0.0 
32.0 0:0.18181818181818182 1:0.0 2:0.0 3:0.0 4:0.0 5:0.32029586701908946 6:1.0 7:0.0 8:0.0 9:0.0 10:0.0 11:0.0 12:0.0 13:0.4174367917146783 14:0.0 
32.0 0:0.0 1:0.0 2:0.0 3:0.0 4:0.0 5:0.31332509411420106 6:0.0 7:0.0 8:0.0 9:0.0 10:0.0 11:0.0 12:0.0 13:0.06691158540786996 14:0.0 
0.12149164253378025 0:1.0 1:0.0 2:0.0 3:0.0 4:0.0 5:0.21612191844536757 6:0.0 7:0.0 8:0.0 9:0.0 10:0.0 11:0.0 12:0.0 13:0.14737534885220027 14:0.0 
32.0 0:0.0 1:0.0 2:0.0 3:0.0 4:1.0 5:0.22645224008598186 6:0.0 7:0.0202707609438469 8:0.002408031803995981 9:0.0 10:0.0 11:0.0 12:0.0 13:0.13977878948089217 14:0.0 
32.0 0:1.0 1:0.0 2:0.0 3:0.0 4:0.0 5:0.21847880658421837 6:0.0 7:0.0 8:0.0 9:0.0 10:0.0 11:0.0 12:0.0 13:0.14732117509086812 14:0.0 
32.0 0:0.0 1:0.0 2:0.0 3:0.0 4:1.0 5:0.2264185969066503 6:0.0 7:0.015208628507796739 8:0.006418904653374366 9:0.0 10:0.0 11:0.0 12:0.0 13:0.22597273884160593 14:0.0 
32.0 0:1.0 1:0.0 2:0.0 3:0.0 4:0.0 5:0.21847880658421837 6:0.0 7:0.0 8:0.0 9:0.0 10:0.0 11:0.0 12:0.0 13:0.1473211750908681 14:0.0 
32.0 0:0.375 1:0.0 2:0.0 3:0.0 4:0.0 5:0.2665499661933627 6:0.5 7:5.451233358549943E-4 8:0.0 9:0.0 10:0.0 11:0.0 12:0.0 13:0.4321651158774195 14:0.0 
32.0 0:0.14285714285714285 1:0.0 2:0.0 3:0.0 4:0.0 5:0.25019991706099637 6:0.5 7:0.0 8:0.003792291199379105 9:0.0 10:0.0 11:0.0 12:0.0 13:0.27088029667707375 14:0.0 
32.0 0:0.0 1:0.0 2:0.0 3:0.0 4:0.8 5:0.24345183343703783 6:0.0 7:0.001071621683037856 8:0.006899126563251951 9:0.0 10:0.0 11:0.0 12:0.0 13:0.23281603475029566 14:0.0 
32.0 0:0.0 1:0.0 2:0.0 3:0.0 4:0.0 5:0.2433838016266597 6:0.0 7:0.0 8:0.10591947357000665 9:0.0 10:0.0 11:0.0 12:0.0 13:0.04931905298483603 14:0.0 
32.0 0:0.3333333333333333 1:0.0 2:0.0 3:0.0 4:0.0 5:0.30423825600962356 6:0.5 7:0.0 8:0.0 9:0.0 10:0.0 11:0.0 12:0.0 13:0.43218687828359015 14:0.0 
32.0 0:0.0 1:0.0 2:0.0 3:0.0 4:0.0 5:0.3042382560096217 6:0.0 7:0.006838994646084122 8:0.00134429697931889 9:0.0 10:0.0 11:0.0 12:0.0 13:0.0941840668400247 14:0.0 
6.583671361542124 0:0.0 1:0.0 2:0.0 3:0.0 4:0.5 5:0.2433838016266597 6:0.0 7:0.0 8:0.0 9:0.0 10:1.0 11:0.0 12:0.0 13:0.04229523639317318 14:0.0 
32.0 0:1.0 1:0.0 2:0.0 3:0.0 4:0.0 5:0.274990989956277 6:1.0 7:0.07386508915588016 8:0.0 9:0.0 10:0.0 11:0.0 12:0.0 13:0.0931739284869247 14:0.0 
32.0 0:0.0 1:0.0 2:0.0 3:0.0 4:0.0 5:0.22445363143248387 6:0.0 7:0.008225080778127952 8:0.05469329433046307 9:0.0 10:0.0 11:0.0 12:0.0 13:0.08356582616246575 14:0.0 
32.0 0:0.0 1:0.0 2:0.0 3:0.0 4:0.0 5:0.26600131586963516 6:0.0 7:0.0 8:0.003967278035819446 9:0.0 10:0.0 11:0.0 12:0.0 13:0.1077036365895525 14:0.0 
32.0 0:0.0 1:0.0 2:0.0 3:0.0 4:0.0 5:0.26600131586963516 6:0.0 7:0.0 8:0.0041932928494901964 9:0.0 10:0.0 11:0.0 12:0.0 13:0.10189850486391877 14:0.0 
32.0 0:1.0 1:0.0 2:0.0 3:0.0 4:0.0 5:0.246540713100237 6:0.0 7:0.002757970653221234 8:0.0019072816838973713 9:0.0 10:0.0 11:0.0 12:0.0 13:0.15717053887138824 14:0.0 
32.0 0:0.0 1:0.0 2:0.0 3:0.0 4:0.0 5:0.26877846564111235 6:0.0 7:0.0 8:0.004137468777443146 9:0.0 10:0.0 11:0.0 12:0.0 13:0.10327335257467872 14:0.0 
32.0 0:0.0 1:0.0 2:0.0 3:0.0 4:0.0 5:0.24286921714017362 6:0.0 7:0.008430170436868037 8:0.10852015254267232 9:0.0 10:0.0 11:0.0 12:0.0 13:0.05164456637463216 14:0.0 
32.0 0:0.0 1:0.0 2:0.0 3:0.0 4:0.0 5:0.2687784656411141 6:0.0 7:0.0 8:0.0 9:0.0 10:0.0 11:0.0 12:0.0 13:0.06204370142646396 14:0.0 
32.0 0:0.0 1:0.0 2:0.0 3:0.0 4:0.0 5:0.3058428312327948 6:0.0 7:0.01199786171596239 8:0.12077178811070241 9:0.0 10:0.0 11:0.0 12:0.0 13:0.03631807180848397 14:0.0 
32.0 0:0.0 1:0.0 2:0.0 3:0.0 4:0.0 5:0.30581179695260957 6:0.0 7:0.0 8:0.0 9:0.0 10:0.0 11:0.0 12:0.0 13:0.046734959556724465 14:0.0 
32.0 0:0.3333333333333333 1:0.0 2:0.0 3:0.0 4:0.0 5:0.27968093303601466 6:0.5 7:0.0 8:9.57054180232584E-4 9:0.0 10:0.0 11:0.0 12:0.0 13:0.44615090353347414 14:0.0 
2.2292784696070758 0:0.0 1:0.0 2:0.0 3:0.0 4:1.0 5:0.19837111894875897 6:0.5 7:0.0 8:0.0 9:0.0 10:0.0 11:0.0 12:0.0 13:0.022711616272153196 14:0.0 
6.724838237803597 0:0.5 1:0.0 2:0.0 3:0.0 4:0.0 5:0.2427811738948902 6:1.0 7:0.004478964107061683 8:0.0045724950605298955 9:0.0 10:0.0 11:0.0 12:0.0 13:0.03303579549470405 14:0.0 
32.0 0:0.3333333333333333 1:0.0 2:0.0 3:0.0 4:0.0 5:0.2797119673162017 6:0.5 7:0.004166648912763206 8:0.0028646199742247387 9:0.0 10:0.0 11:0.0 12:0.0 13:0.47478008527518273 14:0.0 
32.0 0:0.0 1:0.0 2:0.0 3:0.0 4:1.0 5:0.19837111894875897 6:0.0 7:0.0 8:0.0 9:0.0 10:0.0 11:0.0 12:0.0 13:0.0227116162721532 14:0.0 
32.0 0:0.0 1:0.0 2:0.0 3:0.0 4:0.0 5:0.22453301714553736 6:0.0 7:0.005866266289217818 8:0.03980756638476741 9:0.0 10:0.0 11:0.0 12:0.0 13:0.07423191377192462 14:0.0 
32.0 0:0.0 1:0.0 2:0.0 3:0.0 4:1.0 5:0.2481314469247578 6:0.0 7:0.0 8:0.0 9:0.0 10:0.0 11:0.0 12:0.0 13:0.1511385671360883 14:0.0 
32.0 0:1.0 1:0.0 2:0.0 3:0.0 4:0.0 5:0.26795178638337197 6:0.0 7:3.8755136588786664E-4 8:1.8763887819613312E-4 9:0.0 10:0.0 11:0.0 12:0.0 13:0.07514519137605938 14:0.0 
32.0 0:1.0 1:0.0 2:0.0 3:0.0 4:0.0 5:0.2679517863833681 6:0.0 7:0.0 8:3.626160686378352E-4 9:0.0 10:0.0 11:0.0 12:0.0 13:0.07876082387795766 14:0.0 
32.0 0:1.0 1:0.0 2:0.0 3:0.0 4:0.0 5:0.2679517863833681 6:0.0 7:0.0 8:0.0 9:0.0 10:0.0 11:0.0 12:0.0 13:0.07514519137605939 14:0.0 
32.0 0:0.0 1:0.0 2:0.0 3:0.0 4:0.0 5:0.2679517863833681 6:0.0 7:0.0 8:0.0021096557867566765 9:0.0 10:0.0 11:0.0 12:0.0 13:0.05741813775109495 14:0.0 
32.0 0:1.0 1:0.0 2:0.0 3:0.0 4:0.0 5:0.2679517863833681 6:0.0 7:0.0 8:0.0 9:0.0 10:0.0 11:0.0 12:0.0 13:0.05073523381414383 14:0.0 
32.0 0:0.0 1:0.0 2:0.0 3:0.0 4:0.0 5:0.2777590823784614 6:0.0 7:0.0 8:0.0 9:0.0 10:0.0 11:0.0 12:0.0 13:0.054473162669079596 14:0.0 
32.0 0:0.0 1:0.0 2:0.0 3:0.0 4:0.0 5:0.2777590823784614 6:0.0 7:0.0 8:0.0 9:0.0 10:0.0 11:0.0 12:0.0 13:0.05447316266907955 14:0.0 
32.0 0:0.0 1:0.0 2:0.0 3:0.0 4:0.0 5:0.27772479113372417 6:0.0 7:0.0 8:0.0 9:0.0 10:0.0 11:0.0 12:0.0 13:0.05447316266907953 14:0.0 
32.0 0:0.0 1:0.0 2:0.0 3:0.0 4:0.0 5:0.27772479113372417 6:0.0 7:0.0 8:0.0 9:0.0 10:0.0 11:0.0 12:0.0 13:0.05447513519090267 14:0.0 
32.0 0:0.0 1:0.0 2:0.0 3:0.0 4:0.0 5:0.2777590823784614 6:0.0 7:0.0 8:0.0 9:0.0 10:0.0 11:0.0 12:0.0 13:0.05447316266907953 14:0.0 
32.0 0:0.0 1:0.0 2:0.0 3:0.0 4:0.0 5:0.2777590823784614 6:0.0 7:0.0 8:0.0 9:0.0 10:0.0 11:0.0 12:0.0 13:0.05447513519090278 14:0.0 
32.0 0:0.2222222222222222 1:0.0 2:0.0 3:1.0 4:0.1111111111111111 5:0.30735242658742384 6:0.5 7:0.00609458945276562 8:8.058957971413145E-4 9:0.0 10:0.0 11:0.0 12:1.0 13:0.4390537700136541 14:0.0 
32.0 0:0.0 1:0.0 2:0.0 3:0.0 4:0.0 5:0.25730911933849004 6:0.0 7:0.005727229792521834 8:0.0 9:0.0 10:0.0 11:0.0 12:0.0 13:0.08564556142413256 14:0.0 
32.0 0:0.0 1:0.0 2:0.0 3:1.0 4:0.0 5:0.28185165582157945 6:0.0 7:2.778421606075431E-4 8:8.164677884042149E-4 9:1.0 10:0.0 11:0.0 12:0.0 13:0.3978842466464431 14:0.0 
32.0 0:0.14285714285714285 1:0.0 2:0.0 3:0.0 4:0.0 5:0.25730911933849004 6:0.0 7:0.004616146674187208 8:0.0025190675353042604 9:1.0 10:0.0 11:0.0 12:0.0 13:0.24371957100660557 14:0.0 
32.0 0:0.1 1:0.0 2:0.0 3:0.0 4:0.0 5:0.25730911933849004 6:0.0 7:0.0 8:0.0 9:1.0 10:0.0 11:0.0 12:0.0 13:0.4007625291572545 14:0.0 
32.0 0:0.0 1:0.0 2:0.0 3:0.0 4:0.0 5:0.2858703167661784 6:0.0 7:0.010677082345947997 8:0.0020922896942819876 9:0.0 10:0.0 11:0.0 12:0.0 13:0.0861535916126728 14:0.0 
32.0 0:0.0 1:0.0 2:0.0 3:0.0 4:0.0 5:0.29471137084429844 6:0.0 7:9.691770212692664E-7 8:0.01129183845056907 9:0.0 10:0.0 11:0.0 12:0.0 13:0.0798773366932646 14:0.0 
32.0 0:0.0 1:0.0 2:0.0 3:0.0 4:0.0 5:0.29471137084429516 6:0.0 7:0.0023799504191988905 8:0.01245912600604942 9:0.0 10:0.0 11:0.0 12:0.0 13:0.07986734265676872 14:0.0 
32.0 0:0.0 1:0.0 2:0.0 3:0.0 4:0.0 5:0.2803590103278722 6:0.0 7:0.0 8:0.003745235791942509 9:0.0 10:0.0 11:0.0 12:0.0 13:0.04977196742219656 14:0.0 
32.0 0:0.0 1:0.0 2:0.0 3:0.0 4:0.0 5:0.2858703167661801 6:0.0 7:0.0 8:0.0 9:0.0 10:0.0 11:0.0 12:0.0 13:0.06524606726330665 14:0.0 
32.0 0:0.09090909090909091 1:0.0 2:0.0 3:1.0 4:0.0 5:0.2622374689745641 6:0.0 7:0.0017000306493665837 8:8.99425732259477E-4 9:1.0 10:0.0 11:0.0 12:0.0 13:0.4011223144711062 14:0.0 
32.0 0:0.08333333333333333 1:0.0 2:0.0 3:0.0 4:0.0 5:0.26213011559457045 6:0.0 7:3.089589241234316E-7 8:1.7674387277716053E-7 9:1.0 10:0.0 11:0.0 12:0.0 13:0.40090910835919413 14:0.0 
32.0 0:0.125 1:0.0 2:0.0 3:1.0 4:0.0 5:0.24154510498117626 6:0.0 7:0.0027286621313004954 8:0.0013379075829107725 9:0.0 10:0.0 11:1.0 12:0.0 13:0.40106401592488056 14:0.0 
32.0 0:0.0 1:0.0 2:0.0 3:0.0 4:0.0 5:0.29739570092182427 6:0.0 7:7.638965786067509E-5 8:1.1258101965790653E-4 9:0.0 10:0.0 11:0.0 12:0.0 13:0.12025990682758866 14:0.0 
32.0 0:0.16666666666666666 1:0.0 2:0.0 3:0.0 4:0.0 5:0.2977714377517937 6:1.0 7:6.687907417935566E-4 8:0.0016398196508587517 9:0.0 10:0.0 11:0.0 12:0.0 13:0.2750009052386883 14:0.0 
32.0 0:0.08333333333333333 1:0.0 2:0.0 3:0.0 4:0.0 5:0.24149142829118173 6:0.0 7:0.0022956700700810374 8:0.0 9:1.0 10:0.0 11:0.0 12:0.0 13:0.4006209469735635 14:0.0 
32.0 0:0.0 1:0.0 2:0.0 3:0.0 4:0.0 5:0.24151826663617595 6:0.0 7:0.0 8:0.009864592072423534 9:0.0 10:0.0 11:0.0 12:0.0 13:0.09143044288249372 14:0.0 
32.0 0:0.08333333333333333 1:0.0 2:0.0 3:1.0 4:0.0 5:0.24151826663617898 6:0.0 7:9.636766385674105E-4 8:0.0 9:1.0 10:0.0 11:0.0 12:0.0 13:0.4009057770136958 14:0.0 
32.0 0:1.0 1:0.0 2:0.0 3:0.0 4:0.0 5:0.2391346198956036 6:0.0 7:0.0 8:0.0 9:0.0 10:0.0 11:0.0 12:0.0 13:0.1054304223404624 14:0.0 
32.0 0:0.0 1:0.0 2:0.0 3:0.0 4:1.0 5:0.24410713556176541 6:0.0 7:0.0 8:0.0 9:0.0 10:0.0 11:0.0 12:0.0 13:0.13487676474301583 14:0.0 
32.0 0:0.2857142857142857 1:0.0 2:0.0 3:0.0 4:0.0 5:0.31895217493396427 6:1.0 7:0.010417376997467916 8:0.0 9:0.0 10:0.0 11:0.0 12:0.0 13:0.4393067531650174 14:0.0 
0.861998195142432 0:0.0 1:0.0 2:0.0 3:1.0 4:0.5 5:0.18948459143195842 6:0.5 7:0.004521808423086777 8:0.08158160914943813 9:0.0 10:0.0 11:0.0 12:0.0 13:0.057375764682230775 14:0.0 
32.0 0:0.25 1:0.0 2:0.0 3:0.0 4:0.125 5:0.30613553475813904 6:1.0 7:0.0053992971981094585 8:0.0024579669763401544 9:0.0 10:0.0 11:0.0 12:0.0 13:0.4305556676689491 14:0.0 
32.0 0:1.0 1:0.0 2:0.0 3:0.0 4:0.0 5:0.27828593402785273 6:0.0 7:0.0018419416839524586 8:0.013239135707221825 9:0.0 10:0.0 11:0.0 12:0.0 13:0.040960884028430386 14:0.0 
32.0 0:1.0 1:0.0 2:0.0 3:0.0 4:0.0 5:0.27828593402785273 6:0.0 7:4.5947140552347757E-4 8:0.0037500899045188303 9:0.0 10:0.0 11:0.0 12:0.0 13:0.06480778044374927 14:0.0 
32.0 0:1.0 1:0.0 2:0.0 3:0.0 4:0.0 5:0.27828593402785273 6:0.0 7:0.0032395726643635473 8:0.01480839721694836 9:0.0 10:0.0 11:0.0 12:0.0 13:0.03574867419162503 14:0.0 
32.0 0:1.0 1:0.0 2:0.0 3:0.0 4:0.0 5:0.27828593402785273 6:0.0 7:5.367757253562915E-4 8:0.005862186407175034 9:0.0 10:0.0 11:0.0 12:0.0 13:0.05547441987914448 14:0.0 
32.0 0:1.0 1:0.0 2:0.0 3:0.0 4:0.0 5:0.27828593402785273 6:0.0 7:0.03296201718181563 8:0.0027863008848829844 9:0.0 10:0.0 11:0.0 12:0.0 13:0.07128629722572209 14:0.0 
32.0 0:0.25 1:0.0 2:0.0 3:0.0 4:0.125 5:0.27825636374477747 6:1.0 7:0.0016314794200694713 8:0.006345266843940537 9:0.0 10:0.0 11:0.0 12:0.0 13:0.4305726271369647 14:0.0 
32.0 0:0.0 1:0.0 2:0.0 3:0.0 4:0.0 5:0.29853240723191515 6:0.0 7:0.0 8:0.066489943532753 9:0.0 10:0.0 11:0.0 12:0.0 13:0.039380465432744295 14:0.0 
32.0 0:0.0 1:0.0 2:0.0 3:0.0 4:0.0 5:0.281763649365054 6:0.0 7:0.0 8:0.006032030634842152 9:0.0 10:0.0 11:0.0 12:0.0 13:0.057484885918535254 14:0.0 
32.0 0:1.0 1:0.0 2:0.0 3:0.0 4:0.0 5:0.25594162749145205 6:0.0 7:0.024076651707558933 8:0.0 9:0.0 10:0.0 11:0.0 12:0.0 13:0.20763095901706508 14:0.0 
32.0 0:1.0 1:0.0 2:0.0 3:0.0 4:0.0 5:0.2559416274914528 6:0.0 7:0.025257462893655547 8:0.0 9:0.0 10:0.0 11:0.0 12:0.0 13:0.18499001293470638 14:0.0 
32.0 0:1.0 1:0.0 2:0.0 3:0.0 4:0.0 5:0.25852631310324714 6:0.0 7:0.0 8:0.0 9:0.0 10:0.0 11:0.0 12:0.0 13:0.12043959573008801 14:0.0 
27.665776339211998 0:0.1111111111111111 1:0.0 2:0.0 3:0.0 4:0.0 5:0.30096099099655943 6:1.0 7:0.0 8:0.0 9:0.0 10:0.0 11:0.0 12:0.0 13:0.35057404094980416 14:0.0 
32.0 0:0.125 1:0.0 2:0.0 3:0.0 4:0.0 5:0.30693895997519716 6:1.0 7:0.0 8:0.0 9:0.0 10:0.0 11:0.0 12:0.0 13:0.35050659100110904 14:0.0 
32.0 0:0.125 1:0.0 2:0.0 3:0.0 4:0.0 5:0.31488385828949716 6:1.0 7:0.0 8:0.0 9:0.0 10:0.0 11:0.0 12:0.0 13:0.3505417822786892 14:0.0 
32.0 0:0.125 1:0.0 2:0.0 3:0.0 4:0.0 5:0.3114476318304501 6:1.0 7:0.0 8:0.0 9:0.0 10:0.0 11:0.0 12:0.0 13:0.3505975018015245 14:0.0 
32.0 0:0.36363636363636365 1:0.0 2:0.0 3:0.0 4:0.0 5:0.3114476318304501 6:1.0 7:0.0 8:0.0 9:0.0 10:0.0 11:0.0 12:0.0 13:0.35051098991080654 14:0.0 
32.0 0:0.0 1:0.0 2:0.0 3:0.0 4:0.0 5:0.25568811173061073 6:0.0 7:0.002777600704101484 8:0.03259948351420847 9:0.0 10:0.0 11:0.0 12:0.0 13:0.0914390597985941 14:0.0 
24.509375425896078 0:0.0 1:0.0 2:0.0 3:0.0 4:0.0 5:0.2446912017412196 6:0.5 7:8.781142027333754E-4 8:1.7300761251705843E-4 9:0.0 10:0.0 11:0.0 12:0.0 13:0.26103533222649894 14:0.0 
32.0 0:0.0 1:0.0 2:0.0 3:0.0 4:0.0 5:0.2713483947147208 6:0.0 7:0.0 8:0.007022552677274672 9:0.0 10:0.0 11:0.0 12:0.0 13:0.05212652989560052 14:0.0 
32.0 0:0.0 1:0.0 2:0.0 3:0.0 4:1.0 5:0.2178959390464321 6:0.0 7:0.0 8:8.040154435882679E-4 9:0.0 10:0.0 11:0.0 12:0.0 13:0.18309533435778774 14:0.0 
32.0 0:0.0 1:0.0 2:0.0 3:0.0 4:1.0 5:0.24208037142430178 6:0.0 7:0.0 8:0.00385210189448896 9:0.0 10:0.0 11:0.0 12:0.0 13:0.28786135516055894 14:0.0 
32.0 0:1.0 1:0.0 2:0.0 3:0.0 4:0.0 5:0.23353756920142052 6:0.0 7:0.0 8:0.0 9:0.0 10:0.0 11:0.0 12:0.0 13:0.13490707516013678 14:0.0 
32.0 0:0.0 1:0.0 2:0.0 3:0.0 4:0.0 5:0.3075751884663924 6:0.0 7:0.0 8:0.00959915550738646 9:0.0 10:0.0 11:0.0 12:0.0 13:0.037507976507242385 14:0.0 
32.0 0:0.125 1:0.0 2:0.0 3:0.0 4:0.0 5:0.32739247524126325 6:0.5 7:0.0 8:0.0 9:0.0 10:0.0 11:0.0 12:0.0 13:0.23020492757899716 14:0.0 
32.0 0:0.125 1:0.0 2:0.0 3:0.0 4:0.0 5:0.32739247524126325 6:0.5 7:0.0 8:0.0 9:0.0 10:0.0 11:0.0 12:0.0 13:0.23803098107771573 14:0.0 
32.0 0:0.0 1:0.0 2:0.0 3:0.0 4:0.0 5:0.3164052830446792 6:0.0 7:0.0014853555497567827 8:0.0 9:0.0 10:0.0 11:0.0 12:0.0 13:0.09406336117604562 14:0.0 
32.0 0:0.25 1:0.0 2:0.0 3:0.0 4:0.0 5:0.3880676283833384 6:0.5 7:0.0 8:0.0 9:0.0 10:0.0 11:0.0 12:0.0 13:0.24281996183744098 14:0.0 
15.333948767892762 0:0.25 1:0.0 2:0.0 3:0.0 4:0.0 5:0.6801459752939351 6:1.0 7:0.0 8:0.0 9:0.0 10:0.0 11:0.0 12:0.0 13:0.2262959524208052 14:0.0 
32.0 0:0.25 1:0.0 2:0.0 3:0.0 4:0.0 5:0.23900374554686385 6:0.5 7:0.0 8:0.0 9:0.0 10:0.0 11:0.0 12:0.0 13:0.38793823363061875 14:0.0 
32.0 0:0.75 1:0.0 2:0.0 3:0.0 4:0.0 5:0.24493092052279933 6:0.5 7:0.0024322589951002414 8:6.137476218525847E-4 9:0.0 10:0.0 11:0.0 12:0.0 13:0.19831890509250158 14:0.0 
10.309529051236842 0:0.5 1:0.0 2:0.0 3:1.0 4:0.0 5:0.43345752197658355 6:1.0 7:0.0 8:0.0 9:0.0 10:0.0 11:0.0 12:0.0 13:0.18022774021236157 14:0.0 
32.0 0:0.5 1:0.0 2:0.0 3:0.0 4:0.0 5:0.27191504060225924 6:1.0 7:7.181851951508565E-4 8:0.002492053970548357 9:0.0 10:0.0 11:0.0 12:0.0 13:0.3574816125079391 14:0.0 
32.0 0:0.4444444444444444 1:0.0 2:0.0 3:0.0 4:0.0 5:0.27191504060225924 6:0.5 7:0.002649120648228131 8:0.0 9:0.0 10:0.0 11:0.0 12:0.0 13:0.38793823363061825 14:0.0 
32.0 0:0.4 1:0.0 2:0.0 3:0.0 4:0.0 5:0.27191504060225924 6:0.5 7:9.307792451884056E-4 8:0.004160084166365433 9:0.0 10:0.0 11:0.0 12:0.0 13:0.24226408352928996 14:0.0 
32.0 0:0.4 1:0.0 2:0.0 3:0.0 4:0.0 5:0.27191504060225924 6:0.5 7:8.495490340385973E-4 8:0.0044796418873633325 9:0.0 10:0.0 11:0.0 12:0.0 13:0.24226408352928988 14:0.0 
32.0 0:0.5 1:0.0 2:0.0 3:0.0 4:0.0 5:0.6470078683317696 6:1.0 7:0.054575228438707664 8:0.04226152514369341 9:0.0 10:0.0 11:0.0 12:0.0 13:0.046395007807656576 14:0.0 
3.49640365752783 0:0.25 1:0.0 2:0.0 3:0.0 4:0.0 5:0.27580165530614253 6:0.0 7:0.006499300661093529 8:0.0 9:1.0 10:0.0 11:0.0 12:1.0 13:0.19020366021540205 14:0.0 
32.0 0:0.0 1:0.0 2:0.0 3:0.0 4:0.0 5:0.27577341140903044 6:0.0 7:0.0 8:0.0 9:0.0 10:0.0 11:0.0 12:0.0 13:0.057660539314924326 14:1.0 
13.086986505584681 0:0.25 1:0.0 2:0.0 3:0.0 4:0.0 5:0.2758016553061457 6:0.5 7:0.0 8:0.0 9:0.0 10:0.0 11:0.0 12:0.0 13:0.16714106405376944 14:0.0 
32.0 0:0.0 1:0.0 2:0.0 3:0.0 4:0.0 5:0.26305257278603206 6:0.0 7:0.005750865110607112 8:0.010206420690813874 9:0.0 10:0.0 11:0.0 12:0.0 13:0.053255324317758486 14:0.0 
32.0 0:0.0 1:0.0 2:0.0 3:0.0 4:0.875 5:0.24576426437197785 6:0.0 7:0.006801922337231599 8:0.004828113377754076 9:0.0 10:0.0 11:0.0 12:0.0 13:0.46065065997246746 14:0.0 
32.0 0:0.0 1:0.0 2:0.0 3:0.0 4:0.8 5:0.24576426437197785 6:0.0 7:0.011576324084338303 8:0.007627235647817035 9:0.0 10:0.0 11:0.0 12:0.0 13:0.26284314519394286 14:0.0 
32.0 0:1.0 1:0.0 2:0.0 3:0.0 4:0.0 5:0.25020659206448514 6:0.0 7:0.0 8:0.0 9:0.0 10:0.0 11:0.0 12:0.0 13:0.12011094015709783 14:0.0 
32.0 0:0.1111111111111111 1:0.0 2:0.0 3:0.0 4:0.0 5:0.26118179245510553 6:0.5 7:1.8258917640605842E-4 8:9.006149012633246E-4 9:0.0 10:0.0 11:0.0 12:0.0 13:0.2972761687807117 14:0.0 
32.0 0:0.0 1:0.0 2:0.0 3:0.0 4:0.0 5:0.23743345877588332 6:0.0 7:0.0046140823053257484 8:0.11831128650114688 9:0.0 10:0.0 11:0.0 12:0.0 13:0.07303356666972802 14:0.0 
32.0 0:0.0 1:0.0 2:0.0 3:0.0 4:1.0 5:0.2603067721926071 6:0.0 7:0.0 8:0.0 9:0.0 10:0.0 11:0.0 12:0.0 13:0.09545962716973894 14:0.0 
32.0 0:0.0 1:0.0 2:0.0 3:0.0 4:0.0 5:0.2602823164642906 6:0.0 7:0.0512023409693124 8:0.14097646949860992 9:0.0 10:0.0 11:0.0 12:0.0 13:0.05205743116314131 14:0.0 
32.0 0:0.0 1:0.0 2:0.0 3:0.0 4:1.0 5:0.2602823164642906 6:0.0 7:0.0 8:0.005363053779126161 9:0.0 10:0.0 11:0.0 12:0.0 13:0.4874019111610373 14:0.0 
32.0 0:0.0 1:0.0 2:0.0 3:0.0 4:0.0 5:0.2775594427658072 6:0.0 7:0.0 8:0.0031964604931122346 9:0.0 10:0.0 11:0.0 12:0.0 13:0.11710173080083464 14:0.0 
32.0 0:0.125 1:0.0 2:0.0 3:1.0 4:0.0 5:0.27909222904953873 6:0.0 7:0.0 8:5.846839265219412E-4 9:1.0 10:0.0 11:0.0 12:0.0 13:0.3994588657030645 14:0.0 
32.0 0:0.125 1:0.0 2:0.0 3:1.0 4:0.0 5:0.27909222904953873 6:0.0 7:2.3850237025682683E-4 8:3.9764506884841234E-4 9:1.0 10:0.0 11:0.0 12:0.0 13:0.3994065834766154 14:0.0 
32.0 0:1.0 1:0.0 2:0.0 3:0.0 4:0.0 5:0.30926143659176003 6:1.0 7:0.032120181942807136 8:0.0 9:0.0 10:0.0 11:0.0 12:0.0 13:0.10254287347562453 14:0.0 
32.0 0:1.0 1:0.0 2:0.0 3:0.0 4:0.0 5:0.30926143659176003 6:1.0 7:0.03526767696633989 8:0.0 9:0.0 10:0.0 11:0.0 12:0.0 13:0.07083718861597056 14:0.0 
32.0 0:1.0 1:0.0 2:0.0 3:0.0 4:0.0 5:0.3092614365917617 6:1.0 7:0.0 8:0.002804031641926508 9:0.0 10:0.0 11:0.0 12:0.0 13:0.06775079451458829 14:0.0 
32.0 0:0.3 1:0.0 2:0.0 3:0.0 4:0.0 5:0.269529194271552 6:0.5 7:0.0 8:9.561443094960473E-4 9:0.0 10:0.0 11:0.0 12:0.0 13:0.39084275478424235 14:0.0 
32.0 0:0.0 1:0.0 2:0.0 3:0.0 4:0.0 5:0.26938659067098997 6:0.0 7:0.02748026054629196 8:0.0 9:0.0 10:0.0 11:0.0 12:0.0 13:0.0942875099193017 14:0.0 
32.0 0:1.0 1:0.0 2:0.0 3:0.0 4:0.0 5:0.21569597015161227 6:0.0 7:0.0012628760799984356 8:5.723422566535986E-4 9:0.0 10:0.0 11:0.0 12:0.0 13:0.15786269728148355 14:0.0 
2.9532134432671198 0:0.25 1:0.0 2:0.0 3:0.0 4:0.0 5:0.26866389022653736 6:0.0 7:7.620787852132541E-4 8:0.0 9:0.0 10:0.0 11:1.0 12:0.0 13:0.25252489649033755 14:0.0 
32.0 0:0.0 1:0.0 2:0.0 3:0.0 4:0.0 5:0.2631495831775118 6:0.0 7:0.0 8:0.0 9:0.0 10:0.0 11:0.0 12:0.0 13:0.08430104802895086 14:0.0 
32.0 0:0.0 1:0.0 2:0.0 3:0.0 4:0.0 5:0.25783696741762524 6:0.0 7:0.0 8:0.003860976417982174 9:0.0 10:0.0 11:0.0 12:0.0 13:0.0898487900742742 14:0.0 
32.0 0:0.0 1:0.0 2:0.0 3:0.0 4:0.0 5:0.25783696741762524 6:0.0 7:0.0 8:0.0 9:0.0 10:0.0 11:0.0 12:0.0 13:0.07559689985608577 14:0.0 
32.0 0:0.0 1:0.0 2:0.0 3:0.0 4:0.0 5:0.3515695485895431 6:0.0 7:0.0 8:0.0 9:0.0 10:0.0 11:0.0 12:0.0 13:0.11838503930369679 14:0.0 
32.0 0:0.0 1:0.0 2:0.0 3:0.0 4:0.0 5:0.3769330715098437 6:0.0 7:0.0 8:0.0 9:0.0 10:0.0 11:0.0 12:0.0 13:0.054473085086163074 14:0.0 
0.8345468263153084 0:0.0 1:0.0 2:0.0 3:1.0 4:0.0 5:0.3769330715098433 6:0.0 7:0.0 8:0.0 9:0.0 10:0.0 11:0.0 12:0.0 13:0.05447117515716041 14:0.0 
32.0 0:0.0 1:0.0 2:0.0 3:0.0 4:0.0 5:0.3769330715098433 6:0.0 7:0.0 8:0.0 9:0.0 10:0.0 11:0.0 12:0.0 13:0.054473085086163074 14:0.0 
3.5518973602308264 0:0.0 1:0.0 2:0.0 3:1.0 4:0.0 5:0.3769330715098433 6:0.0 7:0.0 8:0.0 9:0.0 10:0.0 11:0.0 12:0.0 13:0.05447117515716041 14:0.0 
32.0 0:0.0 1:0.0 2:0.0 3:0.0 4:0.0 5:0.24114637547484566 6:0.5 7:0.0 8:0.04428831917339812 9:0.0 10:0.0 11:0.0 12:0.0 13:0.19750002838276606 14:0.0 
32.0 0:0.0 1:0.0 2:0.0 3:0.0 4:0.0 5:0.27319902904534077 6:0.0 7:0.0 8:0.0034185675713074345 9:0.0 10:0.0 11:0.0 12:0.0 13:0.10147643784274511 14:0.0 
26.35055745222931 0:0.3333333333333333 1:0.0 2:0.0 3:0.0 4:0.2222222222222222 5:0.27856293579390695 6:1.0 7:0.0 8:0.0 9:0.0 10:0.0 11:0.0 12:0.0 13:0.45121308717316067 14:0.0 
32.0 0:0.5 1:0.0 2:0.0 3:0.0 4:0.0 5:0.3223579661950461 6:0.5 7:0.002407768687240536 8:0.0 9:0.0 10:0.0 11:0.0 12:0.0 13:0.14691555874611148 14:0.0 
32.0 0:1.0 1:0.0 2:0.0 3:0.0 4:0.0 5:0.28074878737673 6:0.0 7:0.0 8:0.0 9:0.0 10:0.0 11:0.0 12:0.0 13:0.07084117663934926 14:0.0 
32.0 0:1.0 1:0.0 2:0.0 3:0.0 4:0.0 5:0.28074878737673 6:0.0 7:0.0 8:0.0 9:0.0 10:0.0 11:0.0 12:0.0 13:0.07822305223480598 14:0.0 
32.0 0:1.0 1:0.0 2:0.0 3:0.0 4:0.0 5:0.28074878737673 6:0.0 7:0.0 8:0.0 9:0.0 10:0.0 11:0.0 12:0.0 13:0.03143361152652686 14:0.0 
32.0 0:1.0 1:0.0 2:0.0 3:0.0 4:0.0 5:0.28074878737673 6:0.0 7:0.0 8:0.0 9:0.0 10:0.0 11:0.0 12:0.0 13:0.07822496216380866 14:0.0 
4.057084128784164 0:1.0 1:0.0 2:0.0 3:0.0 4:0.0 5:0.28074878737673 6:0.0 7:0.0 8:0.0 9:0.0 10:0.0 11:0.0 12:0.0 13:0.03143552145552963 14:0.0 
32.0 0:0.0 1:0.0 2:0.0 3:0.0 4:0.0 5:0.28074878737672954 6:0.0 7:0.0 8:0.0 9:0.0 10:0.0 11:0.0 12:0.0 13:0.0957676600536586 14:0.0 
32.0 0:0.0 1:0.0 2:0.0 3:0.0 4:0.0 5:0.28074878737672954 6:0.0 7:0.0 8:0.0 9:0.0 10:0.0 11:0.0 12:0.0 13:0.1052810164161346 14:0.0 
9.209127683292335 0:0.0 1:0.0 2:0.0 3:0.0 4:0.0 5:0.28074878737672954 6:0.0 7:0.0 8:9.824387414611522E-4 9:0.0 10:0.0 11:0.0 12:0.0 13:0.049148203026620325 14:0.0 
32.0 0:0.0 1:0.0 2:0.0 3:0.0 4:0.0 5:0.2807487873767305 6:0.0 7:0.0 8:0.0 9:0.0 10:0.0 11:0.0 12:0.0 13:0.0957676600536586 14:0.0 
32.0 0:0.0 1:0.0 2:0.0 3:0.0 4:0.0 5:0.2807487873767305 6:0.0 7:0.0 8:0.0 9:0.0 10:0.0 11:0.0 12:0.0 13:0.10528101641613459 14:0.0 
32.0 0:0.0 1:0.0 2:0.0 3:0.0 4:0.0 5:0.28074878737672954 6:0.0 7:0.0 8:0.0 9:0.0 10:0.0 11:0.0 12:0.0 13:0.10528292634513732 14:0.0 
32.0 0:0.0 1:0.0 2:0.0 3:0.0 4:0.0 5:0.28074878737672954 6:0.0 7:0.0 8:0.0 9:0.0 10:0.0 11:0.0 12:0.0 13:0.10528101641613456 14:0.0 
32.0 0:0.0 1:0.0 2:0.0 3:0.0 4:0.0 5:0.2807487873767305 6:0.0 7:0.0 8:0.0 9:0.0 10:0.0 11:0.0 12:0.0 13:0.09576766005365857 14:0.0 
32.0 0:0.0 1:0.0 2:0.0 3:0.0 4:0.0 5:0.2807487873767305 6:0.0 7:0.0 8:0.0 9:0.0 10:0.0 11:0.0 12:0.0 13:0.10528101641613453 14:0.0 
32.0 0:0.0 1:0.0 2:0.0 3:0.0 4:0.0 5:0.2731857641478652 6:0.0 7:0.0 8:0.005656729067586518 9:0.0 10:0.0 11:0.0 12:0.0 13:0.049112291209031794 14:0.0 
32.0 0:0.0 1:0.0 2:0.0 3:0.0 4:0.0 5:0.26010321766595845 6:0.0 7:0.0 8:0.0 9:0.0 10:0.0 11:0.0 12:0.0 13:0.07603847310332298 14:0.0 
19.154242462771933 0:0.0 1:0.0 2:0.0 3:0.0 4:0.0 5:0.2566668816617683 6:0.0 7:0.012827227822511871 8:0.0 9:0.0 10:0.0 11:0.0 12:0.0 13:0.09015009285773849 14:0.0 
-0.02273521787082469 0:0.6 1:0.0 2:1.0 3:0.0 4:0.2 5:0.23732524844197408 6:0.0 7:0.0 8:2.6399719473633066E-4 9:0.0 10:0.0 11:0.0 12:0.0 13:0.25872652370116983 14:0.0 
-0.5078584659901418 0:0.0 1:1.0 2:0.0 3:1.0 4:0.3333333333333333 5:0.26550760994186984 6:0.0 7:0.001903101512904618 8:0.008196291468739037 9:0.0 10:0.0 11:0.0 12:0.0 13:0.16658395098107096 14:0.0 
-32.0 0:0.0 1:0.0 2:0.0 3:0.0 4:1.0 5:0.25500025202874554 6:0.0 7:7.411971243470395E-4 8:0.025854296199916412 9:0.0 10:0.0 11:0.0 12:0.0 13:0.08242670862864494 14:0.0 
-3.8352893135428507 0:0.2222222222222222 1:0.0 2:0.0 3:1.0 4:0.0 5:0.2709789754920959 6:0.0 7:4.771124067582196E-19 8:6.492833259674507E-4 9:1.0 10:0.0 11:0.0 12:0.0 13:0.38027063109138476 14:0.0 
-0.054886383268215315 0:0.5 1:0.0 2:0.0 3:1.0 4:0.0 5:0.28527817378874776 6:0.5 7:0.0 8:0.0024631395935874045 9:0.0 10:0.0 11:0.0 12:1.0 13:0.1408381646595027 14:0.0 
-29.34499412414649 0:0.4 1:0.0 2:0.0 3:0.0 4:0.0 5:0.33695312700663277 6:1.0 7:0.0 8:0.0 9:0.0 10:0.0 11:0.0 12:0.0 13:0.3064632401985427 14:0.0 
-19.41408918171995 0:0.2 1:0.0 2:0.0 3:1.0 4:0.0 5:0.24683618675426425 6:0.0 7:4.963359597051924E-19 8:0.0012149084675965396 9:0.0 10:0.0 11:1.0 12:0.0 13:0.37057506511414134 14:0.0 
-0.2224366694991795 0:0.2 1:0.0 2:0.0 3:0.0 4:0.0 5:0.284057595571165 6:0.0 7:0.0 8:6.493539384829984E-4 9:1.0 10:0.0 11:0.0 12:0.0 13:0.6762194831872186 14:0.0 
-8.987653277138913 0:0.0 1:0.0 2:0.0 3:0.0 4:1.0 5:0.20585325768488513 6:0.0 7:3.282255952372376E-4 8:0.011715393061650772 9:0.0 10:0.0 11:0.0 12:0.0 13:0.16791856917252887 14:0.0 
-0.9672588918735553 0:0.0 1:0.0 2:0.0 3:1.0 4:1.0 5:0.25728041461745704 6:0.5 7:0.007282139505476366 8:0.05123344961066564 9:0.0 10:0.0 11:0.0 12:0.0 13:0.05052485150488569 14:0.0 
-0.1659893661937536 0:0.0 1:1.0 2:0.0 3:0.0 4:0.5 5:0.286649254912677 6:0.5 7:0.0028781215432200444 8:0.01610217416484082 9:0.0 10:0.0 11:0.0 12:0.0 13:0.11015037564501738 14:0.0 
-32.0 0:1.0 1:0.0 2:0.0 3:0.0 4:0.0 5:0.2676348437633368 6:0.0 7:0.002857846008570434 8:0.007010468794031997 9:0.0 10:0.0 11:0.0 12:0.0 13:0.09210964311866761 14:0.0 
-0.22673161638553138 0:0.0 1:0.0 2:0.0 3:1.0 4:0.16666666666666666 5:0.3111296425064151 6:1.0 7:0.0 8:9.085457000782106E-4 9:0.0 10:0.0 11:0.0 12:1.0 13:0.38182345657586714 14:0.0 
-32.0 0:1.0 1:0.0 2:0.0 3:0.0 4:0.0 5:0.2676348437633368 6:0.0 7:0.002857846008570434 8:0.007010468794031997 9:0.0 10:0.0 11:0.0 12:0.0 13:0.09210964311866761 14:0.0 
-32.0 0:0.0 1:0.0 2:0.0 3:0.0 4:1.0 5:0.25500025202874554 6:0.0 7:7.411971243470395E-4 8:0.025854296199916412 9:0.0 10:0.0 11:0.0 12:0.0 13:0.08242670862864494 14:0.0 
-32.0 0:1.0 1:0.0 2:0.0 3:0.0 4:0.0 5:0.2676348437633368 6:0.0 7:0.002857846008570434 8:0.007010468794031997 9:0.0 10:0.0 11:0.0 12:0.0 13:0.09210964311866761 14:0.0 
-32.0 0:1.0 1:0.0 2:0.0 3:0.0 4:0.0 5:0.2676348437633368 6:0.0 7:0.002857846008570434 8:0.007010468794031997 9:0.0 10:0.0 11:0.0 12:0.0 13:0.09210964311866761 14:0.0 
-0.031236117620635332 0:0.6 1:0.0 2:0.0 3:0.0 4:0.0 5:0.2826532926861195 6:0.0 7:0.0010992148193447948 8:0.001308328267162739 9:0.0 10:1.0 11:0.0 12:0.0 13:0.36110818172343884 14:0.0 
-0.10346073004114398 0:0.0 1:1.0 2:0.0 3:1.0 4:0.8 5:0.25786107343965303 6:0.0 7:5.13671710039842E-4 8:3.1243226713792595E-4 9:0.0 10:0.0 11:0.0 12:0.0 13:0.6990935023600126 14:0.0 
-32.0 0:0.0 1:0.0 2:0.0 3:0.0 4:1.0 5:0.25500025202874554 6:0.0 7:7.411971243470395E-4 8:0.025854296199916412 9:0.0 10:0.0 11:0.0 12:0.0 13:0.08242670862864494 14:0.0 
-0.40813246367677525 0:0.3333333333333333 1:0.0 2:0.0 3:0.0 4:0.3333333333333333 5:0.2841657585166082 6:0.5 7:0.0 8:0.0013828928570536099 9:0.0 10:1.0 11:0.0 12:0.0 13:0.20089403444444398 14:0.0 
-0.12631887313037743 0:0.2222222222222222 1:0.0 2:1.0 3:1.0 4:0.0 5:0.27684904414092704 6:0.0 7:0.0 8:0.0 9:0.0 10:0.0 11:0.0 12:0.0 13:0.4512207268891709 14:0.0 
-32.0 0:0.125 1:0.0 2:0.0 3:0.0 4:0.0 5:0.2557445487931258 6:0.5 7:0.0 8:6.078201203858763E-4 9:0.0 10:0.0 11:0.0 12:0.0 13:0.3702893441598141 14:0.0 
-0.7547191557991615 0:0.0 1:0.0 2:0.0 3:1.0 4:0.2 5:0.3021844430397079 6:0.0 7:0.0 8:0.0010749040605482197 9:0.0 10:1.0 11:0.0 12:0.0 13:0.32273025323215937 14:0.0 
-32.0 0:0.0 1:0.0 2:0.0 3:0.0 4:0.0 5:0.2826532926861212 6:0.0 7:0.004061631205261323 8:0.00876760770873841 9:0.0 10:0.0 11:0.0 12:0.0 13:0.06974743776299015 14:0.0 
-0.06984165482203233 0:0.0 1:0.0 2:0.0 3:0.0 4:0.5 5:0.34315965102517754 6:1.0 7:0.0 8:0.0 9:0.0 10:0.0 11:0.0 12:1.0 13:0.09514299592590597 14:0.0 
-32.0 0:0.0 1:0.0 2:0.0 3:0.0 4:1.0 5:0.25500025202874554 6:0.0 7:7.411971243470395E-4 8:0.025854296199916412 9:0.0 10:0.0 11:0.0 12:0.0 13:0.08242670862864494 14:0.0 
-32.0 0:1.0 1:0.0 2:0.0 3:0.0 4:0.0 5:0.2676348437633368 6:0.0 7:0.002857846008570434 8:0.007010468794031997 9:0.0 10:0.0 11:0.0 12:0.0 13:0.09210964311866761 14:0.0 
-32.0 0:1.0 1:0.0 2:0.0 3:0.0 4:0.0 5:0.2676348437633368 6:0.0 7:0.002857846008570434 8:0.007010468794031997 9:0.0 10:0.0 11:0.0 12:0.0 13:0.09210964311866761 14:0.0 
-0.2979879670408772 0:0.2 1:0.0 2:0.0 3:0.0 4:0.0 5:0.2539625910500126 6:0.0 7:0.0 8:0.0011891583965534251 9:0.0 10:0.0 11:0.0 12:0.0 13:0.22726277013080337 14:1.0 
-32.0 0:0.125 1:0.0 2:0.0 3:0.0 4:0.0 5:0.2557445487931258 6:0.5 7:0.0 8:6.078201203858763E-4 9:0.0 10:0.0 11:0.0 12:0.0 13:0.3702893441598141 14:0.0 
-32.0 0:0.125 1:0.0 2:0.0 3:0.0 4:0.0 5:0.2557445487931258 6:0.5 7:0.0 8:6.078201203858763E-4 9:0.0 10:0.0 11:0.0 12:0.0 13:0.3702893441598141 14:0.0 
-32.0 0:1.0 1:0.0 2:0.0 3:0.0 4:0.0 5:0.2676348437633368 6:0.0 7:0.002857846008570434 8:0.007010468794031997 9:0.0 10:0.0 11:0.0 12:0.0 13:0.09210964311866761 14:0.0 
-32.0 0:0.0 1:0.0 2:0.0 3:0.0 4:0.0 5:0.2826532926861195 6:0.0 7:0.004061631205261323 8:0.00876760770873841 9:0.0 10:0.0 11:0.0 12:0.0 13:0.06974743776299018 14:0.0 
-32.0 0:0.0 1:0.0 2:0.0 3:0.0 4:0.0 5:0.2826532926861212 6:0.0 7:0.004061631205261323 8:0.00876760770873841 9:0.0 10:0.0 11:0.0 12:0.0 13:0.06974743776299015 14:0.0 
-10.552575666175871 0:0.0 1:0.0 2:0.0 3:0.0 4:1.0 5:0.20585325768488513 6:0.0 7:3.282255952372376E-4 8:0.011715393061650772 9:0.0 10:0.0 11:0.0 12:0.0 13:0.16791856917252887 14:0.0 
-32.0 0:0.0 1:0.0 2:0.0 3:0.0 4:0.0 5:0.2826532926861195 6:0.0 7:0.004061631205261323 8:0.00876760770873841 9:0.0 10:0.0 11:0.0 12:0.0 13:0.06974743776299018 14:0.0 
-32.0 0:0.0 1:0.0 2:0.0 3:0.0 4:0.0 5:0.26763484376333846 6:0.0 7:0.00567279745271 8:0.012246389233022854 9:0.0 10:0.0 11:0.0 12:0.0 13:0.057998709348347915 14:0.0 
-32.0 0:0.0 1:0.0 2:0.0 3:0.0 4:0.0 5:0.26763484376333846 6:0.0 7:0.00567279745271 8:0.012246389233022854 9:0.0 10:0.0 11:0.0 12:0.0 13:0.057998709348347915 14:0.0 
-32.0 0:0.0 1:0.0 2:0.0 3:0.0 4:0.0 5:0.2826532926861195 6:0.0 7:0.004061631205261323 8:0.00876760770873841 9:0.0 10:0.0 11:0.0 12:0.0 13:0.06974743776299018 14:0.0 
-32.0 0:0.0 1:0.0 2:0.0 3:0.0 4:1.0 5:0.20585325768488513 6:0.0 7:3.282255952372376E-4 8:0.011715393061650772 9:0.0 10:0.0 11:0.0 12:0.0 13:0.16791856917252887 14:0.0 
-32.0 0:1.0 1:0.0 2:0.0 3:0.0 4:0.0 5:0.2676348437633368 6:0.0 7:0.002857846008570434 8:0.007010468794031997 9:0.0 10:0.0 11:0.0 12:0.0 13:0.09210964311866761 14:0.0 
-32.0 0:0.0 1:0.0 2:0.0 3:0.0 4:1.0 5:0.20585325768488513 6:0.0 7:3.282255952372376E-4 8:0.011715393061650772 9:0.0 10:0.0 11:0.0 12:0.0 13:0.16791856917252887 14:0.0 
-32.0 0:1.0 1:0.0 2:0.0 3:0.0 4:0.0 5:0.2676348437633368 6:0.0 7:0.002857846008570434 8:0.007010468794031997 9:0.0 10:0.0 11:0.0 12:0.0 13:0.09210964311866761 14:0.0 
-32.0 0:0.0 1:0.0 2:0.0 3:0.0 4:1.0 5:0.25500025202874554 6:0.0 7:7.411971243470395E-4 8:0.025854296199916412 9:0.0 10:0.0 11:0.0 12:0.0 13:0.08242670862864494 14:0.0 
-32.0 0:0.0 1:0.0 2:0.0 3:0.0 4:1.0 5:0.20585325768488513 6:0.0 7:3.282255952372376E-4 8:0.011715393061650772 9:0.0 10:0.0 11:0.0 12:0.0 13:0.16791856917252887 14:0.0 
-32.0 0:0.0 1:0.0 2:0.0 3:0.0 4:0.0 5:0.26763484376333846 6:0.0 7:0.00567279745271 8:0.012246389233022854 9:0.0 10:0.0 11:0.0 12:0.0 13:0.057998709348347915 14:0.0 
-32.0 0:0.0 1:0.0 2:0.0 3:0.0 4:1.0 5:0.20585325768488513 6:0.0 7:3.282255952372376E-4 8:0.011715393061650772 9:0.0 10:0.0 11:0.0 12:0.0 13:0.16791856917252887 14:0.0 
-32.0 0:0.0 1:0.0 2:0.0 3:0.0 4:1.0 5:0.20585325768488513 6:0.0 7:3.282255952372376E-4 8:0.011715393061650772 9:0.0 10:0.0 11:0.0 12:0.0 13:0.16791856917252887 14:0.0 
-32.0 0:1.0 1:0.0 2:0.0 3:0.0 4:0.0 5:0.2676348437633368 6:0.0 7:0.002857846008570434 8:0.007010468794031997 9:0.0 10:0.0 11:0.0 12:0.0 13:0.09210964311866761 14:0.0 
-32.0 0:0.0 1:0.0 2:0.0 3:0.0 4:0.0 5:0.26763484376333846 6:0.0 7:0.00567279745271 8:0.012246389233022854 9:0.0 10:0.0 11:0.0 12:0.0 13:0.057998709348347915 14:0.0 
-32.0 0:0.0 1:0.0 2:0.0 3:0.0 4:0.0 5:0.2826532926861212 6:0.0 7:0.004061631205261323 8:0.00876760770873841 9:0.0 10:0.0 11:0.0 12:0.0 13:0.06974743776299015 14:0.0 
-32.0 0:0.0 1:0.0 2:0.0 3:0.0 4:1.0 5:0.20585325768488513 6:0.0 7:3.282255952372376E-4 8:0.011715393061650772 9:0.0 10:0.0 11:0.0 12:0.0 13:0.16791856917252887 14:0.0 
-32.0 0:0.0 1:0.0 2:0.0 3:0.0 4:0.0 5:0.2826532926861212 6:0.0 7:0.004061631205261323 8:0.00876760770873841 9:0.0 10:0.0 11:0.0 12:0.0 13:0.06974743776299015 14:0.0 
-32.0 0:0.0 1:0.0 2:0.0 3:0.0 4:0.0 5:0.26763484376333846 6:0.0 7:0.00567279745271 8:0.012246389233022854 9:0.0 10:0.0 11:0.0 12:0.0 13:0.057998709348347915 14:0.0 
-32.0 0:0.0 1:0.0 2:0.0 3:0.0 4:0.0 5:0.2826532926861195 6:0.0 7:0.004061631205261323 8:0.00876760770873841 9:0.0 10:0.0 11:0.0 12:0.0 13:0.06974743776299018 14:0.0 
-32.0 0:0.0 1:0.0 2:0.0 3:0.0 4:0.0 5:0.2826532926861212 6:0.0 7:0.004061631205261323 8:0.00876760770873841 9:0.0 10:0.0 11:0.0 12:0.0 13:0.06974743776299015 14:0.0 
-32.0 0:0.0 1:0.0 2:0.0 3:0.0 4:0.0 5:0.26763484376333846 6:0.0 7:0.00567279745271 8:0.012246389233022854 9:0.0 10:0.0 11:0.0 12:0.0 13:0.057998709348347915 14:0.0 
-32.0 0:0.125 1:0.0 2:0.0 3:0.0 4:0.0 5:0.2557445487931258 6:0.5 7:0.0 8:6.078201203858763E-4 9:0.0 10:0.0 11:0.0 12:0.0 13:0.3702893441598141 14:0.0 
-32.0 0:0.0 1:0.0 2:0.0 3:0.0 4:0.0 5:0.2826532926861195 6:0.0 7:0.004061631205261323 8:0.00876760770873841 9:0.0 10:0.0 11:0.0 12:0.0 13:0.06974743776299018 14:0.0 
-32.0 0:1.0 1:0.0 2:0.0 3:0.0 4:0.0 5:0.2676348437633368 6:0.0 7:0.002857846008570434 8:0.007010468794031997 9:0.0 10:0.0 11:0.0 12:0.0 13:0.09210964311866761 14:0.0 
-32.0 0:0.0 1:0.0 2:0.0 3:0.0 4:0.0 5:0.26763484376333846 6:0.0 7:0.00567279745271 8:0.012246389233022854 9:0.0 10:0.0 11:0.0 12:0.0 13:0.057998709348347915 14:0.0 
-0.008948397867606853 0:0.3333333333333333 1:0.0 2:0.0 3:1.0 4:0.3333333333333333 5:0.28416575851660986 6:0.0 7:0.0 8:0.0019254130391071667 9:0.0 10:1.0 11:0.0 12:0.0 13:0.14428848232311206 14:0.0 
-32.0 0:0.125 1:0.0 2:0.0 3:0.0 4:0.0 5:0.2557445487931258 6:0.5 7:0.0 8:6.078201203858763E-4 9:0.0 10:0.0 11:0.0 12:0.0 13:0.3702893441598141 14:0.0 
-0.057643987634352044 0:0.2 1:0.0 2:0.0 3:0.0 4:0.0 5:0.284057595571165 6:0.0 7:0.0 8:6.493539384829984E-4 9:1.0 10:0.0 11:0.0 12:0.0 13:0.6762194831872186 14:0.0 
-32.0 0:0.0 1:0.0 2:0.0 3:0.0 4:0.0 5:0.2826532926861195 6:0.0 7:0.004061631205261323 8:0.00876760770873841 9:0.0 10:0.0 11:0.0 12:0.0 13:0.06974743776299018 14:0.0 
-32.0 0:0.0 1:0.0 2:0.0 3:0.0 4:0.0 5:0.26763484376333846 6:0.0 7:0.00567279745271 8:0.012246389233022854 9:0.0 10:0.0 11:0.0 12:0.0 13:0.057998709348347915 14:0.0 
-32.0 0:0.0 1:0.0 2:0.0 3:0.0 4:0.0 5:0.2826532926861212 6:0.0 7:0.004061631205261323 8:0.00876760770873841 9:0.0 10:0.0 11:0.0 12:0.0 13:0.06974743776299015 14:0.0 
-31.995219016148628 0:0.0 1:0.0 2:0.0 3:0.0 4:1.0 5:0.20585325768488513 6:0.0 7:3.282255952372376E-4 8:0.011715393061650772 9:0.0 10:0.0 11:0.0 12:0.0 13:0.16791856917252887 14:0.0 
-0.00476873486734372 0:0.5 1:0.0 2:0.0 3:1.0 4:0.0 5:0.28527817378874776 6:0.5 7:0.0 8:0.0024631395935874045 9:0.0 10:0.0 11:0.0 12:1.0 13:0.1408381646595027 14:0.0 
-0.004411272412332349 0:0.125 1:0.0 2:1.0 3:0.0 4:0.0 5:0.26128174109256846 6:0.0 7:0.0 8:0.0 9:0.0 10:0.0 11:0.0 12:0.0 13:0.4512188169601684 14:0.0 
-0.01170535516362636 0:0.0 1:0.0 2:0.0 3:1.0 4:0.16666666666666666 5:0.3111296425064151 6:1.0 7:0.0 8:9.085457000782106E-4 9:0.0 10:0.0 11:0.0 12:1.0 13:0.38182345657586714 14:0.0 
-9.15644344879089E-4 0:0.0 1:1.0 2:0.0 3:0.0 4:0.5 5:0.286649254912677 6:0.5 7:0.0028781215432200444 8:0.01610217416484082 9:0.0 10:0.0 11:0.0 12:0.0 13:0.11015037564501738 14:0.0 
-0.18649813954524427 0:0.2222222222222222 1:0.0 2:0.0 3:1.0 4:0.0 5:0.2709789754920959 6:0.0 7:4.771124067582196E-19 8:6.492833259674507E-4 9:1.0 10:0.0 11:0.0 12:0.0 13:0.38027063109138476 14:0.0 
-32.0 0:0.0 1:0.0 2:0.0 3:0.0 4:0.0 5:0.2826532926861195 6:0.0 7:0.004061631205261323 8:0.00876760770873841 9:0.0 10:0.0 11:0.0 12:0.0 13:0.06974743776299018 14:0.0 
-0.003306215208003984 0:0.2222222222222222 1:0.0 2:1.0 3:1.0 4:0.0 5:0.27684904414092704 6:0.0 7:0.0 8:0.0 9:0.0 10:0.0 11:0.0 12:0.0 13:0.4512207268891709 14:0.0 
-0.009139185680454081 0:0.0 1:0.0 2:0.0 3:1.0 4:1.0 5:0.25728041461745704 6:0.5 7:0.007282139505476366 8:0.05123344961066564 9:0.0 10:0.0 11:0.0 12:0.0 13:0.05052485150488569 14:0.0 
-5.644614366326105E-4 0:0.0 1:0.0 2:0.0 3:0.0 4:0.5 5:0.34315965102517754 6:1.0 7:0.0 8:0.0 9:0.0 10:0.0 11:0.0 12:1.0 13:0.09514299592590597 14:0.0 
-0.018807319598287294 0:1.0 1:0.0 2:0.0 3:0.0 4:0.0 5:0.3090669888243283 6:0.5 7:0.002033801412586567 8:0.0 9:0.0 10:0.0 11:0.0 12:0.0 13:0.21423362269430987 14:0.0 
-32.0 0:1.0 1:0.0 2:0.0 3:0.0 4:0.0 5:0.2676348437633368 6:0.0 7:0.002857846008570434 8:0.007010468794031997 9:0.0 10:0.0 11:0.0 12:0.0 13:0.09210964311866761 14:0.0 
-32.0 0:0.0 1:0.0 2:0.0 3:0.0 4:1.0 5:0.20585325768488513 6:0.0 7:3.282255952372376E-4 8:0.011715393061650772 9:0.0 10:0.0 11:0.0 12:0.0 13:0.16791856917252887 14:0.0 
-0.3255133080930781 0:0.4 1:0.0 2:0.0 3:0.0 4:0.0 5:0.33695312700663277 6:1.0 7:0.0 8:0.0 9:0.0 10:0.0 11:0.0 12:0.0 13:0.3064632401985427 14:0.0 
-32.0 0:0.0 1:0.0 2:0.0 3:0.0 4:0.0 5:0.26763484376333846 6:0.0 7:0.00567279745271 8:0.012246389233022854 9:0.0 10:0.0 11:0.0 12:0.0 13:0.057998709348347915 14:0.0 
-0.008256062822346356 0:0.0 1:0.0 2:0.0 3:1.0 4:0.3333333333333333 5:0.34315965102517754 6:1.0 7:0.0 8:0.0 9:0.0 10:1.0 11:0.0 12:0.0 13:0.2407301980130476 14:0.0 
-32.0 0:0.0 1:0.0 2:0.0 3:0.0 4:0.0 5:0.2826532926861212 6:0.0 7:0.004061631205261323 8:0.00876760770873841 9:0.0 10:0.0 11:0.0 12:0.0 13:0.06974743776299015 14:0.0 
-0.0048272475812529475 0:0.1111111111111111 1:0.0 2:0.0 3:1.0 4:0.0 5:0.30470627521300503 6:0.0 7:7.775805936934579E-4 8:1.90757866652454E-4 9:0.0 10:0.0 11:0.0 12:0.0 13:0.3916063928034048 14:1.0 
-0.01099211786047395 0:0.0 1:0.0 2:0.0 3:0.0 4:0.5 5:0.2542790617641222 6:0.5 7:0.0 8:0.004093746838338322 9:0.0 10:0.0 11:0.0 12:0.0 13:0.09395638085019563 14:1.0 
-0.028984757985677123 0:0.6 1:0.0 2:1.0 3:0.0 4:0.2 5:0.23732524844197408 6:0.0 7:0.0 8:2.6399719473633066E-4 9:0.0 10:0.0 11:0.0 12:0.0 13:0.25872652370116983 14:0.0 
-0.0022183903784062167 0:0.2 1:0.0 2:0.0 3:0.0 4:0.0 5:0.2539625910500126 6:0.0 7:0.0 8:0.0011891583965534251 9:0.0 10:0.0 11:0.0 12:0.0 13:0.22726277013080337 14:1.0 
-32.0 0:1.0 1:0.0 2:0.0 3:0.0 4:0.0 5:0.2676348437633368 6:0.0 7:0.002857846008570434 8:0.007010468794031997 9:0.0 10:0.0 11:0.0 12:0.0 13:0.09210964311866761 14:0.0 
-0.005716733006363848 0:0.2 1:0.0 2:0.0 3:1.0 4:0.0 5:0.24683618675426425 6:0.0 7:4.963359597051924E-19 8:0.0012149084675965396 9:0.0 10:0.0 11:1.0 12:0.0 13:0.37057506511414134 14:0.0 
-32.0 0:0.0 1:0.0 2:0.0 3:0.0 4:0.0 5:0.2826532926861212 6:0.0 7:0.004061631205261323 8:0.00876760770873841 9:0.0 10:0.0 11:0.0 12:0.0 13:0.06974743776299015 14:0.0 
-32.0 0:1.0 1:0.0 2:0.0 3:0.0 4:0.0 5:0.2676348437633368 6:0.0 7:0.002857846008570434 8:0.007010468794031997 9:0.0 10:0.0 11:0.0 12:0.0 13:0.09210964311866761 14:0.0 
-32.0 0:0.0 1:0.0 2:0.0 3:0.0 4:1.0 5:0.25500025202874554 6:0.0 7:7.411971243470395E-4 8:0.025854296199916412 9:0.0 10:0.0 11:0.0 12:0.0 13:0.08242670862864494 14:0.0 
-0.016615920424942837 0:0.0 1:1.0 2:0.0 3:1.0 4:0.3333333333333333 5:0.26550760994186984 6:0.0 7:0.001903101512904618 8:0.008196291468739037 9:0.0 10:0.0 11:0.0 12:0.0 13:0.16658395098107096 14:0.0 
-0.04427724473146785 0:0.14285714285714285 1:0.0 2:0.0 3:1.0 4:0.0 5:0.2614961451587959 6:0.0 7:0.0 8:8.475116355180085E-4 9:0.0 10:1.0 11:0.0 12:0.0 13:0.4093207044278186 14:0.0 
-32.0 0:0.0 1:0.0 2:0.0 3:0.0 4:1.0 5:0.20585325768488513 6:0.0 7:3.282255952372376E-4 8:0.011715393061650772 9:0.0 10:0.0 11:0.0 12:0.0 13:0.16791856917252887 14:0.0 
-32.0 0:0.0 1:0.0 2:0.0 3:0.0 4:0.0 5:0.2826532926861212 6:0.0 7:0.004061631205261323 8:0.00876760770873841 9:0.0 10:0.0 11:0.0 12:0.0 13:0.06974743776299015 14:0.0 
-0.00511393637793498 0:0.0 1:1.0 2:0.0 3:1.0 4:0.8 5:0.25786107343965303 6:0.0 7:5.13671710039842E-4 8:3.1243226713792595E-4 9:0.0 10:0.0 11:0.0 12:0.0 13:0.6990935023600126 14:0.0 
-32.0 0:0.0 1:0.0 2:0.0 3:0.0 4:0.0 5:0.2826532926861212 6:0.0 7:0.004061631205261323 8:0.00876760770873841 9:0.0 10:0.0 11:0.0 12:0.0 13:0.06974743776299015 14:0.0 
-32.0 0:0.0 1:0.0 2:0.0 3:0.0 4:0.0 5:0.26763484376333846 6:0.0 7:0.00567279745271 8:0.012246389233022854 9:0.0 10:0.0 11:0.0 12:0.0 13:0.057998709348347915 14:0.0 
-0.00984032034034805 0:0.3333333333333333 1:0.0 2:1.0 3:1.0 4:0.0 5:0.31890222979759025 6:1.0 7:0.0 8:0.0 9:0.0 10:0.0 11:0.0 12:0.0 13:0.256637762390142 14:0.0 
-32.0 0:0.0 1:0.0 2:0.0 3:0.0 4:1.0 5:0.25500025202874554 6:0.0 7:7.411971243470395E-4 8:0.025854296199916412 9:0.0 10:0.0 11:0.0 12:0.0 13:0.08242670862864494 14:0.0 
-32.0 0:0.0 1:0.0 2:0.0 3:0.0 4:1.0 5:0.20585325768488513 6:0.0 7:3.282255952372376E-4 8:0.011715393061650772 9:0.0 10:0.0 11:0.0 12:0.0 13:0.16791856917252887 14:0.0 
-32.0 0:0.0 1:0.0 2:0.0 3:0.0 4:0.0 5:0.2826532926861195 6:0.0 7:0.004061631205261323 8:0.00876760770873841 9:0.0 10:0.0 11:0.0 12:0.0 13:0.06974743776299018 14:0.0 
-32.0 0:0.0 1:0.0 2:0.0 3:0.0 4:1.0 5:0.20585325768488513 6:0.0 7:3.282255952372376E-4 8:0.011715393061650772 9:0.0 10:0.0 11:0.0 12:0.0 13:0.16791856917252887 14:0.0 
-32.0 0:0.0 1:0.0 2:0.0 3:0.0 4:0.0 5:0.2826532926861195 6:0.0 7:0.004061631205261323 8:0.00876760770873841 9:0.0 10:0.0 11:0.0 12:0.0 13:0.06974743776299018 14:0.0 
-32.0 0:0.0 1:0.0 2:0.0 3:0.0 4:0.0 5:0.26763484376333846 6:0.0 7:0.00567279745271 8:0.012246389233022854 9:0.0 10:0.0 11:0.0 12:0.0 13:0.057998709348347915 14:0.0 
-32.0 0:0.0 1:0.0 2:0.0 3:0.0 4:0.0 5:0.26763484376333846 6:0.0 7:0.00567279745271 8:0.012246389233022854 9:0.0 10:0.0 11:0.0 12:0.0 13:0.057998709348347915 14:0.0 
-32.0 0:0.0 1:0.0 2:0.0 3:0.0 4:0.0 5:0.26763484376333846 6:0.0 7:0.00567279745271 8:0.012246389233022854 9:0.0 10:0.0 11:0.0 12:0.0 13:0.057998709348347915 14:0.0 
-32.0 0:0.0 1:0.0 2:0.0 3:0.0 4:1.0 5:0.25500025202874554 6:0.0 7:7.411971243470395E-4 8:0.025854296199916412 9:0.0 10:0.0 11:0.0 12:0.0 13:0.08242670862864494 14:0.0 
-0.001899093503472627 0:0.0 1:0.0 2:0.0 3:1.0 4:0.0 5:0.246700428209135 6:0.0 7:0.0 8:0.0012144781189609498 9:0.0 10:0.0 11:1.0 12:0.0 13:0.3705182550998306 14:0.0 
-32.0 0:0.0 1:0.0 2:0.0 3:0.0 4:1.0 5:0.25500025202874554 6:0.0 7:7.411971243470395E-4 8:0.025854296199916412 9:0.0 10:0.0 11:0.0 12:0.0 13:0.08242670862864494 14:0.0 
-32.0 0:0.0 1:0.0 2:0.0 3:0.0 4:0.0 5:0.2826532926861195 6:0.0 7:0.004061631205261323 8:0.00876760770873841 9:0.0 10:0.0 11:0.0 12:0.0 13:0.06974743776299018 14:0.0 
-32.0 0:0.125 1:0.0 2:0.0 3:0.0 4:0.0 5:0.2557445487931258 6:0.5 7:0.0 8:6.078201203858763E-4 9:0.0 10:0.0 11:0.0 12:0.0 13:0.3702893441598141 14:0.0 
-32.0 0:1.0 1:0.0 2:0.0 3:0.0 4:0.0 5:0.2676348437633368 6:0.0 7:0.002857846008570434 8:0.007010468794031997 9:0.0 10:0.0 11:0.0 12:0.0 13:0.09210964311866761 14:0.0 
-14.559083367988396 0:0.4 1:0.0 2:0.0 3:0.0 4:0.0 5:0.33695312700663277 6:1.0 7:0.0 8:0.0 9:0.0 10:0.0 11:0.0 12:0.0 13:0.3064632401985427 14:0.0 
-32.0 0:0.125 1:0.0 2:0.0 3:0.0 4:0.0 5:0.2557445487931258 6:0.5 7:0.0 8:6.078201203858763E-4 9:0.0 10:0.0 11:0.0 12:0.0 13:0.3702893441598141 14:0.0 
-32.0 0:0.0 1:0.0 2:0.0 3:0.0 4:0.0 5:0.2826532926861212 6:0.0 7:0.004061631205261323 8:0.00876760770873841 9:0.0 10:0.0 11:0.0 12:0.0 13:0.06974743776299015 14:0.0 
-32.0 0:0.0 1:0.0 2:0.0 3:0.0 4:1.0 5:0.20585325768488513 6:0.0 7:3.282255952372376E-4 8:0.011715393061650772 9:0.0 10:0.0 11:0.0 12:0.0 13:0.16791856917252887 14:0.0 
-32.0 0:0.0 1:0.0 2:0.0 3:0.0 4:0.0 5:0.26763484376333846 6:0.0 7:0.00567279745271 8:0.012246389233022854 9:0.0 10:0.0 11:0.0 12:0.0 13:0.057998709348347915 14:0.0 
-32.0 0:0.125 1:0.0 2:0.0 3:0.0 4:0.0 5:0.2557445487931258 6:0.5 7:0.0 8:6.078201203858763E-4 9:0.0 10:0.0 11:0.0 12:0.0 13:0.3702893441598141 14:0.0 
-32.0 0:0.0 1:0.0 2:0.0 3:0.0 4:1.0 5:0.25500025202874554 6:0.0 7:7.411971243470395E-4 8:0.025854296199916412 9:0.0 10:0.0 11:0.0 12:0.0 13:0.08242670862864494 14:0.0 
-32.0 0:0.4 1:0.0 2:0.0 3:0.0 4:0.0 5:0.33695312700663277 6:1.0 7:0.0 8:0.0 9:0.0 10:0.0 11:0.0 12:0.0 13:0.3064632401985427 14:0.0 
-32.0 0:1.0 1:0.0 2:0.0 3:0.0 4:0.0 5:0.2676348437633368 6:0.0 7:0.002857846008570434 8:0.007010468794031997 9:0.0 10:0.0 11:0.0 12:0.0 13:0.09210964311866761 14:0.0 
-32.0 0:0.125 1:0.0 2:0.0 3:0.0 4:0.0 5:0.2557445487931258 6:0.5 7:0.0 8:6.078201203858763E-4 9:0.0 10:0.0 11:0.0 12:0.0 13:0.3702893441598141 14:0.0 
-32.0 0:0.0 1:0.0 2:0.0 3:0.0 4:0.0 5:0.2826532926861195 6:0.0 7:0.004061631205261323 8:0.00876760770873841 9:0.0 10:0.0 11:0.0 12:0.0 13:0.06974743776299018 14:0.0 
-32.0 0:0.0 1:0.0 2:0.0 3:0.0 4:0.0 5:0.2826532926861212 6:0.0 7:0.004061631205261323 8:0.00876760770873841 9:0.0 10:0.0 11:0.0 12:0.0 13:0.06974743776299015 14:0.0 
-32.0 0:0.0 1:0.0 2:0.0 3:0.0 4:0.0 5:0.2826532926861195 6:0.0 7:0.004061631205261323 8:0.00876760770873841 9:0.0 10:0.0 11:0.0 12:0.0 13:0.06974743776299018 14:0.0 
-32.0 0:0.4 1:0.0 2:0.0 3:0.0 4:0.0 5:0.33695312700663277 6:1.0 7:0.0 8:0.0 9:0.0 10:0.0 11:0.0 12:0.0 13:0.3064632401985427 14:0.0 
-32.0 0:0.0 1:0.0 2:0.0 3:0.0 4:0.0 5:0.2826532926861212 6:0.0 7:0.004061631205261323 8:0.00876760770873841 9:0.0 10:0.0 11:0.0 12:0.0 13:0.06974743776299015 14:0.0 
-32.0 0:0.0 1:0.0 2:0.0 3:0.0 4:1.0 5:0.25500025202874554 6:0.0 7:7.411971243470395E-4 8:0.025854296199916412 9:0.0 10:0.0 11:0.0 12:0.0 13:0.08242670862864494 14:0.0 
-32.0 0:1.0 1:0.0 2:0.0 3:0.0 4:0.0 5:0.2676348437633368 6:0.0 7:0.002857846008570434 8:0.007010468794031997 9:0.0 10:0.0 11:0.0 12:0.0 13:0.09210964311866761 14:0.0 
-32.0 0:0.0 1:0.0 2:0.0 3:0.0 4:0.0 5:0.2826532926861195 6:0.0 7:0.004061631205261323 8:0.00876760770873841 9:0.0 10:0.0 11:0.0 12:0.0 13:0.06974743776299018 14:0.0 
-32.0 0:1.0 1:0.0 2:0.0 3:0.0 4:0.0 5:0.2676348437633368 6:0.0 7:0.002857846008570434 8:0.007010468794031997 9:0.0 10:0.0 11:0.0 12:0.0 13:0.09210964311866761 14:0.0 
-32.0 0:0.0 1:0.0 2:0.0 3:0.0 4:0.0 5:0.26763484376333846 6:0.0 7:0.00567279745271 8:0.012246389233022854 9:0.0 10:0.0 11:0.0 12:0.0 13:0.057998709348347915 14:0.0 
-32.0 0:0.4 1:0.0 2:0.0 3:0.0 4:0.0 5:0.33695312700663277 6:1.0 7:0.0 8:0.0 9:0.0 10:0.0 11:0.0 12:0.0 13:0.3064632401985427 14:0.0 
-32.0 0:0.0 1:0.0 2:0.0 3:0.0 4:0.0 5:0.2826532926861195 6:0.0 7:0.004061631205261323 8:0.00876760770873841 9:0.0 10:0.0 11:0.0 12:0.0 13:0.06974743776299018 14:0.0 
-32.0 0:0.0 1:0.0 2:0.0 3:0.0 4:0.0 5:0.2826532926861212 6:0.0 7:0.004061631205261323 8:0.00876760770873841 9:0.0 10:0.0 11:0.0 12:0.0 13:0.06974743776299015 14:0.0 
-32.0 0:0.125 1:0.0 2:0.0 3:0.0 4:0.0 5:0.2557445487931258 6:0.5 7:0.0 8:6.078201203858763E-4 9:0.0 10:0.0 11:0.0 12:0.0 13:0.3702893441598141 14:0.0 
-32.0 0:0.0 1:0.0 2:0.0 3:0.0 4:0.0 5:0.26763484376333846 6:0.0 7:0.00567279745271 8:0.012246389233022854 9:0.0 10:0.0 11:0.0 12:0.0 13:0.057998709348347915 14:0.0 
-32.0 0:0.0 1:0.0 2:0.0 3:0.0 4:0.0 5:0.2826532926861195 6:0.0 7:0.004061631205261323 8:0.00876760770873841 9:0.0 10:0.0 11:0.0 12:0.0 13:0.06974743776299018 14:0.0 
-32.0 0:0.0 1:0.0 2:0.0 3:0.0 4:1.0 5:0.25500025202874554 6:0.0 7:7.411971243470395E-4 8:0.025854296199916412 9:0.0 10:0.0 11:0.0 12:0.0 13:0.08242670862864494 14:0.0 
-32.0 0:0.125 1:0.0 2:0.0 3:0.0 4:0.0 5:0.2557445487931258 6:0.5 7:0.0 8:6.078201203858763E-4 9:0.0 10:0.0 11:0.0 12:0.0 13:0.3702893441598141 14:0.0 
-32.0 0:0.0 1:0.0 2:0.0 3:0.0 4:1.0 5:0.25500025202874554 6:0.0 7:7.411971243470395E-4 8:0.025854296199916412 9:0.0 10:0.0 11:0.0 12:0.0 13:0.08242670862864494 14:0.0 
-32.0 0:0.0 1:0.0 2:0.0 3:0.0 4:0.0 5:0.2826532926861212 6:0.0 7:0.004061631205261323 8:0.00876760770873841 9:0.0 10:0.0 11:0.0 12:0.0 13:0.06974743776299015 14:0.0 
-31.175508008491057 0:0.125 1:0.0 2:0.0 3:0.0 4:0.0 5:0.27095038819644546 6:0.0 7:4.7713929134034255E-19 8:6.49319912127548E-4 9:1.0 10:0.0 11:0.0 12:0.0 13:0.3802492046081834 14:0.0 
-32.0 0:1.0 1:0.0 2:0.0 3:0.0 4:0.0 5:0.2676348437633368 6:0.0 7:0.002857846008570434 8:0.007010468794031997 9:0.0 10:0.0 11:0.0 12:0.0 13:0.09210964311866761 14:0.0 
-32.0 0:0.125 1:0.0 2:0.0 3:0.0 4:0.0 5:0.2557445487931258 6:0.5 7:0.0 8:6.078201203858763E-4 9:0.0 10:0.0 11:0.0 12:0.0 13:0.3702893441598141 14:0.0 
-32.0 0:0.0 1:0.0 2:0.0 3:0.0 4:0.0 5:0.2826532926861195 6:0.0 7:0.004061631205261323 8:0.00876760770873841 9:0.0 10:0.0 11:0.0 12:0.0 13:0.06974743776299018 14:0.0 
-32.0 0:0.0 1:0.0 2:0.0 3:0.0 4:1.0 5:0.25500025202874554 6:0.0 7:7.411971243470395E-4 8:0.025854296199916412 9:0.0 10:0.0 11:0.0 12:0.0 13:0.08242670862864494 14:0.0 
-32.0 0:0.125 1:0.0 2:0.0 3:0.0 4:0.0 5:0.27095038819644546 6:0.0 7:4.7713929134034255E-19 8:6.49319912127548E-4 9:1.0 10:0.0 11:0.0 12:0.0 13:0.3802492046081834 14:0.0 
-32.0 0:0.0 1:0.0 2:0.0 3:0.0 4:0.0 5:0.2826532926861195 6:0.0 7:0.004061631205261323 8:0.00876760770873841 9:0.0 10:0.0 11:0.0 12:0.0 13:0.06974743776299018 14:0.0 
-32.0 0:0.0 1:0.0 2:0.0 3:0.0 4:0.0 5:0.2826532926861195 6:0.0 7:0.004061631205261323 8:0.00876760770873841 9:0.0 10:0.0 11:0.0 12:0.0 13:0.06974743776299018 14:0.0 
-32.0 0:0.0 1:0.0 2:0.0 3:0.0 4:0.0 5:0.2826532926861212 6:0.0 7:0.004061631205261323 8:0.00876760770873841 9:0.0 10:0.0 11:0.0 12:0.0 13:0.06974743776299015 14:0.0 
-32.0 0:0.0 1:0.0 2:0.0 3:0.0 4:0.0 5:0.2826532926861195 6:0.0 7:0.004061631205261323 8:0.00876760770873841 9:0.0 10:0.0 11:0.0 12:0.0 13:0.06974743776299018 14:0.0 
-32.0 0:0.0 1:0.0 2:0.0 3:0.0 4:1.0 5:0.25500025202874554 6:0.0 7:7.411971243470395E-4 8:0.025854296199916412 9:0.0 10:0.0 11:0.0 12:0.0 13:0.08242670862864494 14:0.0 
-32.0 0:1.0 1:0.0 2:0.0 3:0.0 4:0.0 5:0.2676348437633368 6:0.0 7:0.002857846008570434 8:0.007010468794031997 9:0.0 10:0.0 11:0.0 12:0.0 13:0.09210964311866761 14:0.0 
-32.0 0:1.0 1:0.0 2:0.0 3:0.0 4:0.0 5:0.2676348437633368 6:0.0 7:0.002857846008570434 8:0.007010468794031997 9:0.0 10:0.0 11:0.0 12:0.0 13:0.09210964311866761 14:0.0 
-32.0 0:1.0 1:0.0 2:0.0 3:0.0 4:0.0 5:0.2676348437633368 6:0.0 7:0.002857846008570434 8:0.007010468794031997 9:0.0 10:0.0 11:0.0 12:0.0 13:0.09210964311866761 14:0.0 
-32.0 0:0.0 1:0.0 2:0.0 3:0.0 4:1.0 5:0.20585325768488513 6:0.0 7:3.282255952372376E-4 8:0.011715393061650772 9:0.0 10:0.0 11:0.0 12:0.0 13:0.16791856917252887 14:0.0 
-32.0 0:0.0 1:0.0 2:0.0 3:0.0 4:1.0 5:0.25500025202874554 6:0.0 7:7.411971243470395E-4 8:0.025854296199916412 9:0.0 10:0.0 11:0.0 12:0.0 13:0.08242670862864494 14:0.0 
-32.0 0:0.0 1:0.0 2:0.0 3:0.0 4:0.0 5:0.2826532926861212 6:0.0 7:0.004061631205261323 8:0.00876760770873841 9:0.0 10:0.0 11:0.0 12:0.0 13:0.06974743776299015 14:0.0 
-32.0 0:0.0 1:0.0 2:0.0 3:0.0 4:0.0 5:0.2826532926861212 6:0.0 7:0.004061631205261323 8:0.00876760770873841 9:0.0 10:0.0 11:0.0 12:0.0 13:0.06974743776299015 14:0.0 
-32.0 0:0.0 1:0.0 2:0.0 3:0.0 4:0.0 5:0.2826532926861212 6:0.0 7:0.004061631205261323 8:0.00876760770873841 9:0.0 10:0.0 11:0.0 12:0.0 13:0.06974743776299015 14:0.0 
-32.0 0:0.125 1:0.0 2:0.0 3:0.0 4:0.0 5:0.2557445487931258 6:0.5 7:0.0 8:6.078201203858763E-4 9:0.0 10:0.0 11:0.0 12:0.0 13:0.3702893441598141 14:0.0 
-32.0 0:0.4 1:0.0 2:0.0 3:0.0 4:0.0 5:0.33695312700663277 6:1.0 7:0.0 8:0.0 9:0.0 10:0.0 11:0.0 12:0.0 13:0.3064632401985427 14:0.0 
-32.0 0:1.0 1:0.0 2:0.0 3:0.0 4:0.0 5:0.2676348437633368 6:0.0 7:0.002857846008570434 8:0.007010468794031997 9:0.0 10:0.0 11:0.0 12:0.0 13:0.09210964311866761 14:0.0 
-32.0 0:0.0 1:0.0 2:0.0 3:0.0 4:0.0 5:0.2826532926861212 6:0.0 7:0.004061631205261323 8:0.00876760770873841 9:0.0 10:0.0 11:0.0 12:0.0 13:0.06974743776299015 14:0.0 
-32.0 0:0.125 1:0.0 2:0.0 3:0.0 4:0.0 5:0.27095038819644546 6:0.0 7:4.7713929134034255E-19 8:6.49319912127548E-4 9:1.0 10:0.0 11:0.0 12:0.0 13:0.3802492046081834 14:0.0 
-32.0 0:0.0 1:0.0 2:0.0 3:0.0 4:1.0 5:0.20585325768488513 6:0.0 7:3.282255952372376E-4 8:0.011715393061650772 9:0.0 10:0.0 11:0.0 12:0.0 13:0.16791856917252887 14:0.0 
-32.0 0:0.0 1:0.0 2:0.0 3:0.0 4:0.0 5:0.2826532926861195 6:0.0 7:0.004061631205261323 8:0.00876760770873841 9:0.0 10:0.0 11:0.0 12:0.0 13:0.06974743776299018 14:0.0 
-32.0 0:0.0 1:0.0 2:0.0 3:0.0 4:1.0 5:0.25500025202874554 6:0.0 7:7.411971243470395E-4 8:0.025854296199916412 9:0.0 10:0.0 11:0.0 12:0.0 13:0.08242670862864494 14:0.0 
-32.0 0:0.0 1:0.0 2:0.0 3:0.0 4:0.0 5:0.26763484376333846 6:0.0 7:0.00567279745271 8:0.012246389233022854 9:0.0 10:0.0 11:0.0 12:0.0 13:0.057998709348347915 14:0.0 
-32.0 0:0.0 1:0.0 2:0.0 3:0.0 4:1.0 5:0.20585325768488513 6:0.0 7:3.282255952372376E-4 8:0.011715393061650772 9:0.0 10:0.0 11:0.0 12:0.0 13:0.16791856917252887 14:0.0 
-32.0 0:0.125 1:0.0 2:0.0 3:0.0 4:0.0 5:0.2557445487931258 6:0.5 7:0.0 8:6.078201203858763E-4 9:0.0 10:0.0 11:0.0 12:0.0 13:0.3702893441598141 14:0.0 
-32.0 0:0.0 1:0.0 2:0.0 3:0.0 4:0.0 5:0.2826532926861212 6:0.0 7:0.004061631205261323 8:0.00876760770873841 9:0.0 10:0.0 11:0.0 12:0.0 13:0.06974743776299015 14:0.0 
-32.0 0:0.0 1:0.0 2:0.0 3:0.0 4:0.0 5:0.2826532926861212 6:0.0 7:0.004061631205261323 8:0.00876760770873841 9:0.0 10:0.0 11:0.0 12:0.0 13:0.06974743776299015 14:0.0 
-32.0 0:0.125 1:0.0 2:0.0 3:0.0 4:0.0 5:0.2557445487931258 6:0.5 7:0.0 8:6.078201203858763E-4 9:0.0 10:0.0 11:0.0 12:0.0 13:0.3702893441598141 14:0.0 
-32.0 0:0.4 1:0.0 2:0.0 3:0.0 4:0.0 5:0.33695312700663277 6:1.0 7:0.0 8:0.0 9:0.0 10:0.0 11:0.0 12:0.0 13:0.3064632401985427 14:0.0 
-32.0 0:0.125 1:0.0 2:0.0 3:0.0 4:0.0 5:0.27095038819644546 6:0.0 7:4.7713929134034255E-19 8:6.49319912127548E-4 9:1.0 10:0.0 11:0.0 12:0.0 13:0.3802492046081834 14:0.0 
-32.0 0:1.0 1:0.0 2:0.0 3:0.0 4:0.0 5:0.2676348437633368 6:0.0 7:0.002857846008570434 8:0.007010468794031997 9:0.0 10:0.0 11:0.0 12:0.0 13:0.09210964311866761 14:0.0 
-32.0 0:0.0 1:0.0 2:0.0 3:0.0 4:0.0 5:0.2826532926861212 6:0.0 7:0.004061631205261323 8:0.00876760770873841 9:0.0 10:0.0 11:0.0 12:0.0 13:0.06974743776299015 14:0.0 
-32.0 0:0.0 1:0.0 2:0.0 3:0.0 4:0.0 5:0.2826532926861212 6:0.0 7:0.004061631205261323 8:0.00876760770873841 9:0.0 10:0.0 11:0.0 12:0.0 13:0.06974743776299015 14:0.0 
-32.0 0:0.125 1:0.0 2:0.0 3:0.0 4:0.0 5:0.27095038819644546 6:0.0 7:4.7713929134034255E-19 8:6.49319912127548E-4 9:1.0 10:0.0 11:0.0 12:0.0 13:0.3802492046081834 14:0.0 
-32.0 0:0.0 1:0.0 2:0.0 3:0.0 4:0.0 5:0.2826532926861212 6:0.0 7:0.004061631205261323 8:0.00876760770873841 9:0.0 10:0.0 11:0.0 12:0.0 13:0.06974743776299015 14:0.0 
-32.0 0:0.0 1:0.0 2:0.0 3:0.0 4:1.0 5:0.20585325768488513 6:0.0 7:3.282255952372376E-4 8:0.011715393061650772 9:0.0 10:0.0 11:0.0 12:0.0 13:0.16791856917252887 14:0.0 
-32.0 0:0.0 1:0.0 2:0.0 3:0.0 4:1.0 5:0.25500025202874554 6:0.0 7:7.411971243470395E-4 8:0.025854296199916412 9:0.0 10:0.0 11:0.0 12:0.0 13:0.08242670862864494 14:0.0 
-32.0 0:0.4 1:0.0 2:0.0 3:0.0 4:0.0 5:0.33695312700663277 6:1.0 7:0.0 8:0.0 9:0.0 10:0.0 11:0.0 12:0.0 13:0.3064632401985427 14:0.0 
-32.0 0:0.0 1:0.0 2:0.0 3:0.0 4:0.0 5:0.26763484376333846 6:0.0 7:0.00567279745271 8:0.012246389233022854 9:0.0 10:0.0 11:0.0 12:0.0 13:0.057998709348347915 14:0.0 
-32.0 0:0.0 1:0.0 2:0.0 3:0.0 4:0.0 5:0.2826532926861195 6:0.0 7:0.004061631205261323 8:0.00876760770873841 9:0.0 10:0.0 11:0.0 12:0.0 13:0.06974743776299018 14:0.0 
-32.0 0:1.0 1:0.0 2:0.0 3:0.0 4:0.0 5:0.2676348437633368 6:0.0 7:0.002857846008570434 8:0.007010468794031997 9:0.0 10:0.0 11:0.0 12:0.0 13:0.09210964311866761 14:0.0 
-32.0 0:0.0 1:0.0 2:0.0 3:0.0 4:0.0 5:0.2826532926861212 6:0.0 7:0.004061631205261323 8:0.00876760770873841 9:0.0 10:0.0 11:0.0 12:0.0 13:0.06974743776299015 14:0.0 
-32.0 0:0.4 1:0.0 2:0.0 3:0.0 4:0.0 5:0.33695312700663277 6:1.0 7:0.0 8:0.0 9:0.0 10:0.0 11:0.0 12:0.0 13:0.3064632401985427 14:0.0 
-32.0 0:1.0 1:0.0 2:0.0 3:0.0 4:0.0 5:0.2676348437633368 6:0.0 7:0.002857846008570434 8:0.007010468794031997 9:0.0 10:0.0 11:0.0 12:0.0 13:0.09210964311866761 14:0.0 
-32.0 0:0.0 1:0.0 2:0.0 3:0.0 4:0.0 5:0.2826532926861195 6:0.0 7:0.004061631205261323 8:0.00876760770873841 9:0.0 10:0.0 11:0.0 12:0.0 13:0.06974743776299018 14:0.0 
-32.0 0:1.0 1:0.0 2:0.0 3:0.0 4:0.0 5:0.2676348437633368 6:0.0 7:0.002857846008570434 8:0.007010468794031997 9:0.0 10:0.0 11:0.0 12:0.0 13:0.09210964311866761 14:0.0 
-32.0 0:1.0 1:0.0 2:0.0 3:0.0 4:0.0 5:0.2676348437633368 6:0.0 7:0.002857846008570434 8:0.007010468794031997 9:0.0 10:0.0 11:0.0 12:0.0 13:0.09210964311866761 14:0.0 
-32.0 0:0.0 1:0.0 2:0.0 3:0.0 4:1.0 5:0.20585325768488513 6:0.0 7:3.282255952372376E-4 8:0.011715393061650772 9:0.0 10:0.0 11:0.0 12:0.0 13:0.16791856917252887 14:0.0 
-32.0 0:1.0 1:0.0 2:0.0 3:0.0 4:0.0 5:0.2676348437633368 6:0.0 7:0.002857846008570434 8:0.007010468794031997 9:0.0 10:0.0 11:0.0 12:0.0 13:0.09210964311866761 14:0.0 
-32.0 0:0.0 1:0.0 2:0.0 3:0.0 4:1.0 5:0.25500025202874554 6:0.0 7:7.411971243470395E-4 8:0.025854296199916412 9:0.0 10:0.0 11:0.0 12:0.0 13:0.08242670862864494 14:0.0 
-32.0 0:0.125 1:0.0 2:0.0 3:0.0 4:0.0 5:0.27095038819644546 6:0.0 7:4.7713929134034255E-19 8:6.49319912127548E-4 9:1.0 10:0.0 11:0.0 12:0.0 13:0.3802492046081834 14:0.0 
-32.0 0:0.0 1:0.0 2:0.0 3:0.0 4:0.0 5:0.2826532926861212 6:0.0 7:0.004061631205261323 8:0.00876760770873841 9:0.0 10:0.0 11:0.0 12:0.0 13:0.06974743776299015 14:0.0 
-32.0 0:0.125 1:0.0 2:0.0 3:0.0 4:0.0 5:0.27095038819644546 6:0.0 7:4.7713929134034255E-19 8:6.49319912127548E-4 9:1.0 10:0.0 11:0.0 12:0.0 13:0.3802492046081834 14:0.0 
-32.0 0:0.0 1:0.0 2:0.0 3:0.0 4:0.0 5:0.26763484376333846 6:0.0 7:0.00567279745271 8:0.012246389233022854 9:0.0 10:0.0 11:0.0 12:0.0 13:0.057998709348347915 14:0.0 
-32.0 0:0.0 1:0.0 2:0.0 3:0.0 4:1.0 5:0.20585325768488513 6:0.0 7:3.282255952372376E-4 8:0.011715393061650772 9:0.0 10:0.0 11:0.0 12:0.0 13:0.16791856917252887 14:0.0 
-32.0 0:0.0 1:0.0 2:0.0 3:0.0 4:0.0 5:0.2826532926861212 6:0.0 7:0.004061631205261323 8:0.00876760770873841 9:0.0 10:0.0 11:0.0 12:0.0 13:0.06974743776299015 14:0.0 
-32.0 0:0.0 1:0.0 2:0.0 3:0.0 4:1.0 5:0.20585325768488513 6:0.0 7:3.282255952372376E-4 8:0.011715393061650772 9:0.0 10:0.0 11:0.0 12:0.0 13:0.16791856917252887 14:0.0 
-32.0 0:0.0 1:0.0 2:0.0 3:0.0 4:0.0 5:0.2826532926861212 6:0.0 7:0.004061631205261323 8:0.00876760770873841 9:0.0 10:0.0 11:0.0 12:0.0 13:0.06974743776299015 14:0.0 
-32.0 0:0.125 1:0.0 2:0.0 3:0.0 4:0.0 5:0.27095038819644546 6:0.0 7:4.7713929134034255E-19 8:6.49319912127548E-4 9:1.0 10:0.0 11:0.0 12:0.0 13:0.3802492046081834 14:0.0 
-32.0 0:0.0 1:0.0 2:0.0 3:0.0 4:0.0 5:0.2826532926861195 6:0.0 7:0.004061631205261323 8:0.00876760770873841 9:0.0 10:0.0 11:0.0 12:0.0 13:0.06974743776299018 14:0.0 
-32.0 0:0.0 1:0.0 2:0.0 3:0.0 4:0.0 5:0.26763484376333846 6:0.0 7:0.00567279745271 8:0.012246389233022854 9:0.0 10:0.0 11:0.0 12:0.0 13:0.057998709348347915 14:0.0 
-32.0 0:0.0 1:0.0 2:0.0 3:0.0 4:1.0 5:0.25500025202874554 6:0.0 7:7.411971243470395E-4 8:0.025854296199916412 9:0.0 10:0.0 11:0.0 12:0.0 13:0.08242670862864494 14:0.0 
-32.0 0:0.125 1:0.0 2:0.0 3:0.0 4:0.0 5:0.2557445487931258 6:0.5 7:0.0 8:6.078201203858763E-4 9:0.0 10:0.0 11:0.0 12:0.0 13:0.3702893441598141 14:0.0 
-32.0 0:0.4 1:0.0 2:0.0 3:0.0 4:0.0 5:0.33695312700663277 6:1.0 7:0.0 8:0.0 9:0.0 10:0.0 11:0.0 12:0.0 13:0.3064632401985427 14:0.0 
-32.0 0:1.0 1:0.0 2:0.0 3:0.0 4:0.0 5:0.2676348437633368 6:0.0 7:0.002857846008570434 8:0.007010468794031997 9:0.0 10:0.0 11:0.0 12:0.0 13:0.09210964311866761 14:0.0 
-32.0 0:0.0 1:0.0 2:0.0 3:0.0 4:0.0 5:0.26763484376333846 6:0.0 7:0.00567279745271 8:0.012246389233022854 9:0.0 10:0.0 11:0.0 12:0.0 13:0.057998709348347915 14:0.0 
-32.0 0:0.0 1:0.0 2:0.0 3:0.0 4:0.0 5:0.2826532926861195 6:0.0 7:0.004061631205261323 8:0.00876760770873841 9:0.0 10:0.0 11:0.0 12:0.0 13:0.06974743776299018 14:0.0 
-32.0 0:0.125 1:0.0 2:0.0 3:0.0 4:0.0 5:0.2557445487931258 6:0.5 7:0.0 8:6.078201203858763E-4 9:0.0 10:0.0 11:0.0 12:0.0 13:0.3702893441598141 14:0.0 
-32.0 0:1.0 1:0.0 2:0.0 3:0.0 4:0.0 5:0.2676348437633368 6:0.0 7:0.002857846008570434 8:0.007010468794031997 9:0.0 10:0.0 11:0.0 12:0.0 13:0.09210964311866761 14:0.0 
-32.0 0:0.0 1:0.0 2:0.0 3:0.0 4:0.0 5:0.2826532926861195 6:0.0 7:0.004061631205261323 8:0.00876760770873841 9:0.0 10:0.0 11:0.0 12:0.0 13:0.06974743776299018 14:0.0 
-32.0 0:0.4 1:0.0 2:0.0 3:0.0 4:0.0 5:0.33695312700663277 6:1.0 7:0.0 8:0.0 9:0.0 10:0.0 11:0.0 12:0.0 13:0.3064632401985427 14:0.0 
-32.0 0:0.4 1:0.0 2:0.0 3:0.0 4:0.0 5:0.33695312700663277 6:1.0 7:0.0 8:0.0 9:0.0 10:0.0 11:0.0 12:0.0 13:0.3064632401985427 14:0.0 
-32.0 0:0.125 1:0.0 2:0.0 3:0.0 4:0.0 5:0.2557445487931258 6:0.5 7:0.0 8:6.078201203858763E-4 9:0.0 10:0.0 11:0.0 12:0.0 13:0.3702893441598141 14:0.0 
-32.0 0:0.4 1:0.0 2:0.0 3:0.0 4:0.0 5:0.33695312700663277 6:1.0 7:0.0 8:0.0 9:0.0 10:0.0 11:0.0 12:0.0 13:0.3064632401985427 14:0.0 
-32.0 0:0.0 1:0.0 2:0.0 3:0.0 4:1.0 5:0.20585325768488513 6:0.0 7:3.282255952372376E-4 8:0.011715393061650772 9:0.0 10:0.0 11:0.0 12:0.0 13:0.16791856917252887 14:0.0 
-32.0 0:0.0 1:0.0 2:0.0 3:0.0 4:1.0 5:0.25500025202874554 6:0.0 7:7.411971243470395E-4 8:0.025854296199916412 9:0.0 10:0.0 11:0.0 12:0.0 13:0.08242670862864494 14:0.0 
-32.0 0:0.0 1:0.0 2:0.0 3:0.0 4:1.0 5:0.20585325768488513 6:0.0 7:3.282255952372376E-4 8:0.011715393061650772 9:0.0 10:0.0 11:0.0 12:0.0 13:0.16791856917252887 14:0.0 
-32.0 0:0.0 1:0.0 2:0.0 3:0.0 4:0.0 5:0.2826532926861212 6:0.0 7:0.004061631205261323 8:0.00876760770873841 9:0.0 10:0.0 11:0.0 12:0.0 13:0.06974743776299015 14:0.0 
-7.65609404183829 0:0.1111111111111111 1:0.0 2:0.0 3:1.0 4:0.0 5:0.3141457043101143 6:0.0 7:0.0 8:6.492692554652075E-4 9:1.0 10:0.0 11:0.0 12:0.0 13:0.380278872046462 14:0.0 
-32.0 0:0.125 1:0.0 2:0.0 3:0.0 4:0.0 5:0.27095038819644546 6:0.0 7:4.7713929134034255E-19 8:6.49319912127548E-4 9:1.0 10:0.0 11:0.0 12:0.0 13:0.3802492046081834 14:0.0 
-32.0 0:0.0 1:0.0 2:0.0 3:0.0 4:1.0 5:0.20585325768488513 6:0.0 7:3.282255952372376E-4 8:0.011715393061650772 9:0.0 10:0.0 11:0.0 12:0.0 13:0.16791856917252887 14:0.0 
-32.0 0:0.0 1:0.0 2:0.0 3:0.0 4:1.0 5:0.25500025202874554 6:0.0 7:7.411971243470395E-4 8:0.025854296199916412 9:0.0 10:0.0 11:0.0 12:0.0 13:0.08242670862864494 14:0.0 
-32.0 0:0.0 1:0.0 2:0.0 3:0.0 4:0.0 5:0.2826532926861195 6:0.0 7:0.004061631205261323 8:0.00876760770873841 9:0.0 10:0.0 11:0.0 12:0.0 13:0.06974743776299018 14:0.0 
-32.0 0:0.125 1:0.0 2:0.0 3:0.0 4:0.0 5:0.2557445487931258 6:0.5 7:0.0 8:6.078201203858763E-4 9:0.0 10:0.0 11:0.0 12:0.0 13:0.3702893441598141 14:0.0 
-32.0 0:0.1111111111111111 1:0.0 2:0.0 3:1.0 4:0.0 5:0.3141457043101143 6:0.0 7:0.0 8:6.492692554652075E-4 9:1.0 10:0.0 11:0.0 12:0.0 13:0.380278872046462 14:0.0 
-32.0 0:0.125 1:0.0 2:0.0 3:0.0 4:0.0 5:0.2557445487931258 6:0.5 7:0.0 8:6.078201203858763E-4 9:0.0 10:0.0 11:0.0 12:0.0 13:0.3702893441598141 14:0.0 
-32.0 0:0.0 1:0.0 2:0.0 3:0.0 4:1.0 5:0.25500025202874554 6:0.0 7:7.411971243470395E-4 8:0.025854296199916412 9:0.0 10:0.0 11:0.0 12:0.0 13:0.08242670862864494 14:0.0 
-32.0 0:0.0 1:0.0 2:0.0 3:0.0 4:0.0 5:0.2826532926861212 6:0.0 7:0.004061631205261323 8:0.00876760770873841 9:0.0 10:0.0 11:0.0 12:0.0 13:0.06974743776299015 14:0.0 
-32.0 0:0.1111111111111111 1:0.0 2:0.0 3:1.0 4:0.0 5:0.3141457043101143 6:0.0 7:0.0 8:6.492692554652075E-4 9:1.0 10:0.0 11:0.0 12:0.0 13:0.380278872046462 14:0.0 
-32.0 0:0.4 1:0.0 2:0.0 3:0.0 4:0.0 5:0.33695312700663277 6:1.0 7:0.0 8:0.0 9:0.0 10:0.0 11:0.0 12:0.0 13:0.3064632401985427 14:0.0 
-32.0 0:1.0 1:0.0 2:0.0 3:0.0 4:0.0 5:0.2676348437633368 6:0.0 7:0.002857846008570434 8:0.007010468794031997 9:0.0 10:0.0 11:0.0 12:0.0 13:0.09210964311866761 14:0.0 
-32.0 0:0.4 1:0.0 2:0.0 3:0.0 4:0.0 5:0.33695312700663277 6:1.0 7:0.0 8:0.0 9:0.0 10:0.0 11:0.0 12:0.0 13:0.3064632401985427 14:0.0 
-32.0 0:0.125 1:0.0 2:0.0 3:0.0 4:0.0 5:0.27095038819644546 6:0.0 7:4.7713929134034255E-19 8:6.49319912127548E-4 9:1.0 10:0.0 11:0.0 12:0.0 13:0.3802492046081834 14:0.0 
-32.0 0:0.0 1:0.0 2:0.0 3:0.0 4:0.0 5:0.2826532926861212 6:0.0 7:0.004061631205261323 8:0.00876760770873841 9:0.0 10:0.0 11:0.0 12:0.0 13:0.06974743776299015 14:0.0 
-17.83459471193 0:1.0 1:0.0 2:0.0 3:0.0 4:0.0 5:0.3090669888243283 6:0.5 7:0.002033801412586567 8:0.0 9:0.0 10:0.0 11:0.0 12:0.0 13:0.21423362269430987 14:0.0 
-32.0 0:0.0 1:0.0 2:0.0 3:0.0 4:1.0 5:0.25500025202874554 6:0.0 7:7.411971243470395E-4 8:0.025854296199916412 9:0.0 10:0.0 11:0.0 12:0.0 13:0.08242670862864494 14:0.0 
-32.0 0:1.0 1:0.0 2:0.0 3:0.0 4:0.0 5:0.3090669888243283 6:0.5 7:0.002033801412586567 8:0.0 9:0.0 10:0.0 11:0.0 12:0.0 13:0.21423362269430987 14:0.0 
-32.0 0:0.125 1:0.0 2:0.0 3:0.0 4:0.0 5:0.2557445487931258 6:0.5 7:0.0 8:6.078201203858763E-4 9:0.0 10:0.0 11:0.0 12:0.0 13:0.3702893441598141 14:0.0 
-32.0 0:0.4 1:0.0 2:0.0 3:0.0 4:0.0 5:0.33695312700663277 6:1.0 7:0.0 8:0.0 9:0.0 10:0.0 11:0.0 12:0.0 13:0.3064632401985427 14:0.0 
-32.0 0:1.0 1:0.0 2:0.0 3:0.0 4:0.0 5:0.2676348437633368 6:0.0 7:0.002857846008570434 8:0.007010468794031997 9:0.0 10:0.0 11:0.0 12:0.0 13:0.09210964311866761 14:0.0 
-32.0 0:1.0 1:0.0 2:0.0 3:0.0 4:0.0 5:0.3090669888243283 6:0.5 7:0.002033801412586567 8:0.0 9:0.0 10:0.0 11:0.0 12:0.0 13:0.21423362269430987 14:0.0 
-4.7229575646010185 0:0.2 1:0.0 2:0.0 3:0.0 4:0.0 5:0.284057595571165 6:0.0 7:0.0 8:6.493539384829984E-4 9:1.0 10:0.0 11:0.0 12:0.0 13:0.6762194831872186 14:0.0 
-32.0 0:0.1111111111111111 1:0.0 2:0.0 3:1.0 4:0.0 5:0.3141457043101143 6:0.0 7:0.0 8:6.492692554652075E-4 9:1.0 10:0.0 11:0.0 12:0.0 13:0.380278872046462 14:0.0 
-32.0 0:0.0 1:0.0 2:0.0 3:0.0 4:1.0 5:0.25500025202874554 6:0.0 7:7.411971243470395E-4 8:0.025854296199916412 9:0.0 10:0.0 11:0.0 12:0.0 13:0.08242670862864494 14:0.0 
-32.0 0:0.0 1:0.0 2:0.0 3:0.0 4:1.0 5:0.20585325768488513 6:0.0 7:3.282255952372376E-4 8:0.011715393061650772 9:0.0 10:0.0 11:0.0 12:0.0 13:0.16791856917252887 14:0.0 
-32.0 0:0.0 1:0.0 2:0.0 3:0.0 4:0.0 5:0.26763484376333846 6:0.0 7:0.00567279745271 8:0.012246389233022854 9:0.0 10:0.0 11:0.0 12:0.0 13:0.057998709348347915 14:0.0 
-32.0 0:0.0 1:0.0 2:0.0 3:0.0 4:1.0 5:0.25500025202874554 6:0.0 7:7.411971243470395E-4 8:0.025854296199916412 9:0.0 10:0.0 11:0.0 12:0.0 13:0.08242670862864494 14:0.0 
-32.0 0:0.0 1:0.0 2:0.0 3:0.0 4:1.0 5:0.20585325768488513 6:0.0 7:3.282255952372376E-4 8:0.011715393061650772 9:0.0 10:0.0 11:0.0 12:0.0 13:0.16791856917252887 14:0.0 
-32.0 0:0.0 1:0.0 2:0.0 3:0.0 4:1.0 5:0.25500025202874554 6:0.0 7:7.411971243470395E-4 8:0.025854296199916412 9:0.0 10:0.0 11:0.0 12:0.0 13:0.08242670862864494 14:0.0 
-32.0 0:0.4 1:0.0 2:0.0 3:0.0 4:0.0 5:0.33695312700663277 6:1.0 7:0.0 8:0.0 9:0.0 10:0.0 11:0.0 12:0.0 13:0.3064632401985427 14:0.0 
-32.0 0:1.0 1:0.0 2:0.0 3:0.0 4:0.0 5:0.2676348437633368 6:0.0 7:0.002857846008570434 8:0.007010468794031997 9:0.0 10:0.0 11:0.0 12:0.0 13:0.09210964311866761 14:0.0 
-32.0 0:0.0 1:0.0 2:0.0 3:0.0 4:0.0 5:0.2826532926861212 6:0.0 7:0.004061631205261323 8:0.00876760770873841 9:0.0 10:0.0 11:0.0 12:0.0 13:0.06974743776299015 14:0.0 
-32.0 0:0.4 1:0.0 2:0.0 3:0.0 4:0.0 5:0.33695312700663277 6:1.0 7:0.0 8:0.0 9:0.0 10:0.0 11:0.0 12:0.0 13:0.3064632401985427 14:0.0 
-32.0 0:0.0 1:0.0 2:0.0 3:0.0 4:0.0 5:0.2826532926861195 6:0.0 7:0.004061631205261323 8:0.00876760770873841 9:0.0 10:0.0 11:0.0 12:0.0 13:0.06974743776299018 14:0.0 
-32.0 0:0.4 1:0.0 2:0.0 3:0.0 4:0.0 5:0.33695312700663277 6:1.0 7:0.0 8:0.0 9:0.0 10:0.0 11:0.0 12:0.0 13:0.3064632401985427 14:0.0 
-32.0 0:0.0 1:0.0 2:0.0 3:0.0 4:0.0 5:0.2826532926861195 6:0.0 7:0.004061631205261323 8:0.00876760770873841 9:0.0 10:0.0 11:0.0 12:0.0 13:0.06974743776299018 14:0.0 
-32.0 0:0.0 1:0.0 2:0.0 3:0.0 4:1.0 5:0.20585325768488513 6:0.0 7:3.282255952372376E-4 8:0.011715393061650772 9:0.0 10:0.0 11:0.0 12:0.0 13:0.16791856917252887 14:0.0 
-32.0 0:0.125 1:0.0 2:0.0 3:0.0 4:0.0 5:0.27095038819644546 6:0.0 7:4.7713929134034255E-19 8:6.49319912127548E-4 9:1.0 10:0.0 11:0.0 12:0.0 13:0.3802492046081834 14:0.0 
-32.0 0:0.0 1:0.0 2:0.0 3:0.0 4:0.0 5:0.2826532926861195 6:0.0 7:0.004061631205261323 8:0.00876760770873841 9:0.0 10:0.0 11:0.0 12:0.0 13:0.06974743776299018 14:0.0 
-32.0 0:0.0 1:0.0 2:0.0 3:0.0 4:0.0 5:0.26763484376333846 6:0.0 7:0.00567279745271 8:0.012246389233022854 9:0.0 10:0.0 11:0.0 12:0.0 13:0.057998709348347915 14:0.0 
-32.0 0:0.2 1:0.0 2:0.0 3:0.0 4:0.0 5:0.284057595571165 6:0.0 7:0.0 8:6.493539384829984E-4 9:1.0 10:0.0 11:0.0 12:0.0 13:0.6762194831872186 14:0.0 
-23.623783453588988 0:0.0 1:0.0 2:0.0 3:1.0 4:0.0 5:0.246700428209135 6:0.0 7:0.0 8:0.0012144781189609498 9:0.0 10:0.0 11:1.0 12:0.0 13:0.3705182550998306 14:0.0 
-32.0 0:0.0 1:0.0 2:0.0 3:0.0 4:1.0 5:0.25500025202874554 6:0.0 7:7.411971243470395E-4 8:0.025854296199916412 9:0.0 10:0.0 11:0.0 12:0.0 13:0.08242670862864494 14:0.0 
-32.0 0:1.0 1:0.0 2:0.0 3:0.0 4:0.0 5:0.2676348437633368 6:0.0 7:0.002857846008570434 8:0.007010468794031997 9:0.0 10:0.0 11:0.0 12:0.0 13:0.09210964311866761 14:0.0 
-32.0 0:0.4 1:0.0 2:0.0 3:0.0 4:0.0 5:0.33695312700663277 6:1.0 7:0.0 8:0.0 9:0.0 10:0.0 11:0.0 12:0.0 13:0.3064632401985427 14:0.0 
-32.0 0:0.4 1:0.0 2:0.0 3:0.0 4:0.0 5:0.33695312700663277 6:1.0 7:0.0 8:0.0 9:0.0 10:0.0 11:0.0 12:0.0 13:0.3064632401985427 14:0.0 
-32.0 0:0.0 1:0.0 2:0.0 3:0.0 4:1.0 5:0.25500025202874554 6:0.0 7:7.411971243470395E-4 8:0.025854296199916412 9:0.0 10:0.0 11:0.0 12:0.0 13:0.08242670862864494 14:0.0 
-32.0 0:0.0 1:0.0 2:0.0 3:0.0 4:0.0 5:0.26763484376333846 6:0.0 7:0.00567279745271 8:0.012246389233022854 9:0.0 10:0.0 11:0.0 12:0.0 13:0.057998709348347915 14:0.0 
-11.444035709329306 0:0.0 1:0.0 2:0.0 3:1.0 4:0.16666666666666666 5:0.3111296425064151 6:1.0 7:0.0 8:9.085457000782106E-4 9:0.0 10:0.0 11:0.0 12:1.0 13:0.38182345657586714 14:0.0 
-32.0 0:0.0 1:0.0 2:0.0 3:0.0 4:0.0 5:0.26763484376333846 6:0.0 7:0.00567279745271 8:0.012246389233022854 9:0.0 10:0.0 11:0.0 12:0.0 13:0.057998709348347915 14:0.0 
-6.2589857497649435 0:0.0 1:0.0 2:0.0 3:0.0 4:0.5 5:0.34315965102517754 6:1.0 7:0.0 8:0.0 9:0.0 10:0.0 11:0.0 12:1.0 13:0.09514299592590597 14:0.0 
-32.0 0:0.0 1:0.0 2:0.0 3:0.0 4:1.0 5:0.20585325768488513 6:0.0 7:3.282255952372376E-4 8:0.011715393061650772 9:0.0 10:0.0 11:0.0 12:0.0 13:0.16791856917252887 14:0.0 
-32.0 0:0.125 1:0.0 2:0.0 3:0.0 4:0.0 5:0.2557445487931258 6:0.5 7:0.0 8:6.078201203858763E-4 9:0.0 10:0.0 11:0.0 12:0.0 13:0.3702893441598141 14:0.0 
-20.03564514428574 0:0.0 1:0.0 2:0.0 3:1.0 4:1.0 5:0.25728041461745704 6:0.5 7:0.007282139505476366 8:0.05123344961066564 9:0.0 10:0.0 11:0.0 12:0.0 13:0.05052485150488569 14:0.0 
-32.0 0:0.0 1:0.0 2:0.0 3:0.0 4:1.0 5:0.20585325768488513 6:0.0 7:3.282255952372376E-4 8:0.011715393061650772 9:0.0 10:0.0 11:0.0 12:0.0 13:0.16791856917252887 14:0.0 
-32.0 0:0.125 1:0.0 2:0.0 3:0.0 4:0.0 5:0.27095038819644546 6:0.0 7:4.7713929134034255E-19 8:6.49319912127548E-4 9:1.0 10:0.0 11:0.0 12:0.0 13:0.3802492046081834 14:0.0 
-32.0 0:1.0 1:0.0 2:0.0 3:0.0 4:0.0 5:0.2676348437633368 6:0.0 7:0.002857846008570434 8:0.007010468794031997 9:0.0 10:0.0 11:0.0 12:0.0 13:0.09210964311866761 14:0.0 
-1.0703061649665582 0:0.3333333333333333 1:0.0 2:1.0 3:1.0 4:0.0 5:0.31890222979759025 6:1.0 7:0.0 8:0.0 9:0.0 10:0.0 11:0.0 12:0.0 13:0.256637762390142 14:0.0 
-32.0 0:0.125 1:0.0 2:0.0 3:0.0 4:0.0 5:0.2557445487931258 6:0.5 7:0.0 8:6.078201203858763E-4 9:0.0 10:0.0 11:0.0 12:0.0 13:0.3702893441598141 14:0.0 
-32.0 0:0.0 1:0.0 2:0.0 3:0.0 4:1.0 5:0.25500025202874554 6:0.0 7:7.411971243470395E-4 8:0.025854296199916412 9:0.0 10:0.0 11:0.0 12:0.0 13:0.08242670862864494 14:0.0 
-1.710116259007392 0:0.3333333333333333 1:0.0 2:0.0 3:1.0 4:0.3333333333333333 5:0.28416575851660986 6:0.0 7:0.0 8:0.0019254130391071667 9:0.0 10:1.0 11:0.0 12:0.0 13:0.14428848232311206 14:0.0 
-32.0 0:0.0 1:0.0 2:0.0 3:0.0 4:1.0 5:0.20585325768488513 6:0.0 7:3.282255952372376E-4 8:0.011715393061650772 9:0.0 10:0.0 11:0.0 12:0.0 13:0.16791856917252887 14:0.0 
-6.9956534985120005 0:0.125 1:0.0 2:0.0 3:0.0 4:0.0 5:0.27095038819644546 6:0.0 7:4.7713929134034255E-19 8:6.49319912127548E-4 9:1.0 10:0.0 11:0.0 12:0.0 13:0.3802492046081834 14:0.0 
-8.032331100604765 0:0.0 1:1.0 2:0.0 3:1.0 4:0.8 5:0.25786107343965303 6:0.0 7:5.13671710039842E-4 8:3.1243226713792595E-4 9:0.0 10:0.0 11:0.0 12:0.0 13:0.6990935023600126 14:0.0 
-9.647304104413145 0:0.0 1:0.0 2:0.0 3:0.0 4:0.5 5:0.2542790617641222 6:0.5 7:0.0 8:0.004093746838338322 9:0.0 10:0.0 11:0.0 12:0.0 13:0.09395638085019563 14:1.0 
-32.0 0:0.0 1:0.0 2:0.0 3:0.0 4:1.0 5:0.25500025202874554 6:0.0 7:7.411971243470395E-4 8:0.025854296199916412 9:0.0 10:0.0 11:0.0 12:0.0 13:0.08242670862864494 14:0.0 
-32.0 0:1.0 1:0.0 2:0.0 3:0.0 4:0.0 5:0.3090669888243283 6:0.5 7:0.002033801412586567 8:0.0 9:0.0 10:0.0 11:0.0 12:0.0 13:0.21423362269430987 14:0.0 
-32.0 0:0.0 1:0.0 2:0.0 3:0.0 4:0.0 5:0.26763484376333846 6:0.0 7:0.00567279745271 8:0.012246389233022854 9:0.0 10:0.0 11:0.0 12:0.0 13:0.057998709348347915 14:0.0 
-32.0 0:0.4 1:0.0 2:0.0 3:0.0 4:0.0 5:0.33695312700663277 6:1.0 7:0.0 8:0.0 9:0.0 10:0.0 11:0.0 12:0.0 13:0.3064632401985427 14:0.0 
-18.276681883484017 0:0.5 1:0.0 2:0.0 3:1.0 4:0.0 5:0.28527817378874776 6:0.5 7:0.0 8:0.0024631395935874045 9:0.0 10:0.0 11:0.0 12:1.0 13:0.1408381646595027 14:0.0 
-25.697348341269223 0:0.0 1:0.0 2:0.0 3:1.0 4:0.0 5:0.246700428209135 6:0.0 7:0.0 8:0.0012144781189609498 9:0.0 10:0.0 11:1.0 12:0.0 13:0.3705182550998306 14:0.0 
-32.0 0:0.1111111111111111 1:0.0 2:0.0 3:1.0 4:0.0 5:0.3141457043101143 6:0.0 7:0.0 8:6.492692554652075E-4 9:1.0 10:0.0 11:0.0 12:0.0 13:0.380278872046462 14:0.0 
-32.0 0:1.0 1:0.0 2:0.0 3:0.0 4:0.0 5:0.3090669888243283 6:0.5 7:0.002033801412586567 8:0.0 9:0.0 10:0.0 11:0.0 12:0.0 13:0.21423362269430987 14:0.0 
-2.1127487370482196 0:0.375 1:0.0 2:0.0 3:1.0 4:0.125 5:0.26290398882634786 6:0.0 7:6.783263139864272E-7 8:6.497871888259316E-4 9:1.0 10:0.0 11:0.0 12:0.0 13:0.6761839553293265 14:0.0 
-32.0 0:0.0 1:0.0 2:0.0 3:0.0 4:0.0 5:0.2826532926861212 6:0.0 7:0.004061631205261323 8:0.00876760770873841 9:0.0 10:0.0 11:0.0 12:0.0 13:0.06974743776299015 14:0.0 
-32.0 0:0.0 1:0.0 2:0.0 3:0.0 4:0.0 5:0.2826532926861212 6:0.0 7:0.004061631205261323 8:0.00876760770873841 9:0.0 10:0.0 11:0.0 12:0.0 13:0.06974743776299015 14:0.0 
-32.0 0:0.1111111111111111 1:0.0 2:0.0 3:1.0 4:0.0 5:0.3141457043101143 6:0.0 7:0.0 8:6.492692554652075E-4 9:1.0 10:0.0 11:0.0 12:0.0 13:0.380278872046462 14:0.0 
-32.0 0:0.0 1:0.0 2:0.0 3:0.0 4:0.0 5:0.26763484376333846 6:0.0 7:0.00567279745271 8:0.012246389233022854 9:0.0 10:0.0 11:0.0 12:0.0 13:0.057998709348347915 14:0.0 
-31.80031067847493 0:0.1111111111111111 1:0.0 2:0.0 3:1.0 4:0.0 5:0.3141457043101143 6:0.0 7:0.0 8:6.492692554652075E-4 9:1.0 10:0.0 11:0.0 12:0.0 13:0.380278872046462 14:0.0 
-32.0 0:0.125 1:0.0 2:0.0 3:0.0 4:0.0 5:0.2557445487931258 6:0.5 7:0.0 8:6.078201203858763E-4 9:0.0 10:0.0 11:0.0 12:0.0 13:0.3702893441598141 14:0.0 
-6.854335874293122 0:0.0 1:0.0 2:0.0 3:1.0 4:0.5 5:0.3200044325639585 6:0.5 7:0.0 8:0.0 9:0.0 10:0.0 11:0.0 12:1.0 13:0.21896746032054298 14:0.0 
-1.5966209390810109 0:0.6 1:0.0 2:0.0 3:0.0 4:0.0 5:0.2826532926861195 6:0.0 7:0.0010992148193447948 8:0.001308328267162739 9:0.0 10:1.0 11:0.0 12:0.0 13:0.36110818172343884 14:0.0 
-32.0 0:1.0 1:0.0 2:0.0 3:0.0 4:0.0 5:0.3090669888243283 6:0.5 7:0.002033801412586567 8:0.0 9:0.0 10:0.0 11:0.0 12:0.0 13:0.21423362269430987 14:0.0 
-32.0 0:0.0 1:0.0 2:0.0 3:0.0 4:1.0 5:0.20585325768488513 6:0.0 7:3.282255952372376E-4 8:0.011715393061650772 9:0.0 10:0.0 11:0.0 12:0.0 13:0.16791856917252887 14:0.0 
-0.34559032657968664 0:0.125 1:0.0 2:1.0 3:0.0 4:0.0 5:0.26128174109256846 6:0.0 7:0.0 8:0.0 9:0.0 10:0.0 11:0.0 12:0.0 13:0.4512188169601684 14:0.0 
-1.770567197534038 0:0.0 1:0.0 2:0.0 3:1.0 4:0.3333333333333333 5:0.34315965102517754 6:1.0 7:0.0 8:0.0 9:0.0 10:1.0 11:0.0 12:0.0 13:0.2407301980130476 14:0.0 
-3.7109273417330577 0:0.6 1:0.0 2:1.0 3:0.0 4:0.2 5:0.23732524844197408 6:0.0 7:0.0 8:2.6399719473633066E-4 9:0.0 10:0.0 11:0.0 12:0.0 13:0.25872652370116983 14:0.0 
-25.580998098477156 0:0.2 1:0.0 2:0.0 3:0.0 4:0.0 5:0.2539625910500126 6:0.0 7:0.0 8:0.0011891583965534251 9:0.0 10:0.0 11:0.0 12:0.0 13:0.22726277013080337 14:1.0 
-4.25822916279185 0:0.0 1:1.0 2:0.0 3:1.0 4:0.3333333333333333 5:0.26550760994186984 6:0.0 7:0.001903101512904618 8:0.008196291468739037 9:0.0 10:0.0 11:0.0 12:0.0 13:0.16658395098107096 14:0.0 
-11.466644544209625 0:0.1111111111111111 1:0.0 2:0.0 3:1.0 4:0.0 5:0.30470627521300503 6:0.0 7:7.775805936934579E-4 8:1.90757866652454E-4 9:0.0 10:0.0 11:0.0 12:0.0 13:0.3916063928034048 14:1.0 
-32.0 0:0.0 1:0.0 2:0.0 3:0.0 4:0.0 5:0.2826532926861212 6:0.0 7:0.004061631205261323 8:0.00876760770873841 9:0.0 10:0.0 11:0.0 12:0.0 13:0.06974743776299015 14:0.0 
-32.0 0:0.0 1:0.0 2:0.0 3:1.0 4:1.0 5:0.25728041461745704 6:0.5 7:0.007282139505476366 8:0.05123344961066564 9:0.0 10:0.0 11:0.0 12:0.0 13:0.05052485150488569 14:0.0 
-32.0 0:0.0 1:0.0 2:0.0 3:0.0 4:0.0 5:0.26763484376333846 6:0.0 7:0.00567279745271 8:0.012246389233022854 9:0.0 10:0.0 11:0.0 12:0.0 13:0.057998709348347915 14:0.0 
-3.6460436661056077 0:0.2222222222222222 1:0.0 2:1.0 3:1.0 4:0.0 5:0.27684904414092704 6:0.0 7:0.0 8:0.0 9:0.0 10:0.0 11:0.0 12:0.0 13:0.4512207268891709 14:0.0 
-19.89202438245147 0:0.2222222222222222 1:0.0 2:0.0 3:1.0 4:0.0 5:0.2709789754920959 6:0.0 7:4.771124067582196E-19 8:6.492833259674507E-4 9:1.0 10:0.0 11:0.0 12:0.0 13:0.38027063109138476 14:0.0 
-3.6816809516703777 0:0.2 1:0.0 2:0.0 3:1.0 4:0.0 5:0.24683618675426425 6:0.0 7:4.963359597051924E-19 8:0.0012149084675965396 9:0.0 10:0.0 11:1.0 12:0.0 13:0.37057506511414134 14:0.0 
-3.911744958746169 0:0.0 1:1.0 2:0.0 3:0.0 4:0.5 5:0.286649254912677 6:0.5 7:0.0028781215432200444 8:0.01610217416484082 9:0.0 10:0.0 11:0.0 12:0.0 13:0.11015037564501738 14:0.0 
-0.8429832630548546 0:0.14285714285714285 1:0.0 2:0.0 3:1.0 4:0.0 5:0.2614961451587959 6:0.0 7:0.0 8:8.475116355180085E-4 9:0.0 10:1.0 11:0.0 12:0.0 13:0.4093207044278186 14:0.0 
-31.72774164279655 0:1.0 1:0.0 2:0.0 3:0.0 4:0.0 5:0.3090669888243283 6:0.5 7:0.002033801412586567 8:0.0 9:0.0 10:0.0 11:0.0 12:0.0 13:0.21423362269430987 14:0.0 
-32.0 0:0.2 1:0.0 2:0.0 3:1.0 4:0.0 5:0.24683618675426425 6:0.0 7:4.963359597051924E-19 8:0.0012149084675965396 9:0.0 10:0.0 11:1.0 12:0.0 13:0.37057506511414134 14:0.0 
-32.0 0:1.0 1:0.0 2:0.0 3:0.0 4:0.0 5:0.2676348437633368 6:0.0 7:0.002857846008570434 8:0.007010468794031997 9:0.0 10:0.0 11:0.0 12:0.0 13:0.09210964311866761 14:0.0 
-6.354877598038037 0:0.3333333333333333 1:0.0 2:0.0 3:0.0 4:0.3333333333333333 5:0.2841657585166082 6:0.5 7:0.0 8:0.0013828928570536099 9:0.0 10:1.0 11:0.0 12:0.0 13:0.20089403444444398 14:0.0 
-1.4397530357160935 0:0.0 1:0.0 2:0.0 3:1.0 4:0.2 5:0.3021844430397079 6:0.0 7:0.0 8:0.0010749040605482197 9:0.0 10:1.0 11:0.0 12:0.0 13:0.32273025323215937 14:0.0 
