svm_type c_svc
kernel_type polynomial
degree 3
gamma 0.03125
coef0 0.5
nr_class 4
total_sv 887
rho -7.0381623912765505 -0.42613440435898853 -6.018616086562984 3.002484574465382 -1.0228863889329785 -1.7071067030924132
label 1 0 3 2
nr_sv 442 188 183 74
SV
57.344902159801705 0.0 0.0 0:0.0 1:0.0 2:0.09876543209876543 3:0.5 4:0.0 5:0.0 6:0.6134954105680973 7:0.8750951613265591 8:0.1772151898734177 9:0.025469981807155852 10:0.0 11:0.0 12:0.003278688524590164 13:0.0 14:0.04817708333333333 15:0.007479280371942592 16:0.025658392182132766 17:0.006776034236804565 18:0.007681423084697796 19:0.0 20:0.13731245039013706 21:0.40945764873740476 22:0.2893146352418604 23:0.7060109289617487 24:0.7084290669910349 25:0.6729323911566628 26:0.9999999999999998 27:0.0 28:1.0 29:0.0 30:1.0 31:0.0 32:0.0 33:1.0 34:0.0 35:1.0 36:0.0 37:1.0 38:0.0 39:0.0 40:0.0 41:0.0 42:0.0 43:1.0 44:1.0 45:0.23699421965317918 46:0.7495335820895522 47:0.03612222607452398 48:0.9142076147704189 49:0.0020257833260989896 50:0.024434543929237558 51:0.03946365233533341 52:1.0 53:0.9690721649484536 54:1.0 55:0.9500707499494643 56:0.0 57:1.0 58:0.023206671680416745 59:0.017061934823408974 60:0.0 61:0.0 62:0.0 63:0.021175940527145755 64:0.019001414998989285 65:0.12084063047285465 66:0.07540983606557378 67:0.31217228368808797 68:0.8199275707614601 69:0.2643910905409314 70:0.9032297226129599 71:0.06039635445255642 72:0.02622950819672131 73:0.023809523809523808 74:0.2643910905409314 75:0.0015399399902365435 76:0.9999070232325697 77:0.36374024671262756 78:0.29709978090868355 79:0.20245572668439274 80:0.1999183381672451 81:0.007936507936507936 
168.9133549286256 14.275449498717627 0.0 0:0.0 1:0.0 2:1.0 3:0.0 4:0.0 5:0.0 6:0.0013644257008186553 7:0.0020873197985245696 8:0.0 9:0.0 10:0.0 11:0.0 12:0.0 13:0.0 14:0.0 15:0.0 16:0.007309808943214009 17:0.0 18:0.0 19:0.0 20:0.0 21:0.435307017543861 22:0.22456339516715468 23:1.0 24:0.016767468576834744 25:0.01540066956059604 26:0.7667442405081816 27:0.0 28:1.0 29:1.0 30:1.0 31:0.0 32:0.0 33:0.0 34:0.0 35:0.0 36:0.0 37:0.0 38:0.0 39:0.0 40:0.0 41:0.0 42:0.0 43:1.0 44:1.0 45:0.0 46:0.00641420994202541 47:0.038335511365465286 48:0.15098703845825875 49:8.06067150886482E-16 50:0.0 51:0.0 52:0.0025031289111389237 53:1.0 54:0.0 55:0.0 56:0.0 57:1.0 58:0.00333612697114376 59:0.0 60:0.0 61:0.0 62:0.0 63:0.0027033115566569045 64:1.0 65:0.0017513134851138354 66:1.0 67:0.9718948959221497 68:0.13499475841036881 69:0.0 70:8.302075421981801E-4 71:0.2400671137148119 72:0.06547619047619047 73:0.06547619047619047 74:0.0 75:1.0000000000000002 76:0.15549530165978748 77:0.5225549945821641 78:0.5405817374528203 79:0.5378267195103598 80:0.5126216714649152 81:0.0 
256.0 0.0 0.0 0:0.0 1:0.0 2:0.03225806451612903 3:0.0 4:0.0 5:0.0 6:0.13234929297940956 7:0.19662226354834145 8:0.08438818565400844 9:0.056179775280898875 10:0.0 11:0.0 12:0.0 13:0.0 14:0.041666666666666664 15:0.0299625468164794 16:0.007309808943214009 17:0.0010699001426533524 18:0.0056179775280898875 19:0.0 20:0.1529091619752197 21:0.3567192256937648 22:0.2374203608400011 23:0.6555555555555556 24:0.17592467450556387 25:0.16158418709421307 26:0.7247244664968823 27:0.0 28:1.0 29:0.0 30:1.0 31:0.0 32:0.0 33:0.0 34:0.0 35:0.0 36:0.0 37:1.0 38:0.0 39:0.0 40:0.0 41:0.0 42:0.0 43:1.0 44:1.0 45:0.06936416184971098 46:0.10577278894782287 47:0.031414667771281365 48:0.6178926616858315 49:8.06067150886482E-16 50:0.0 51:0.48697086220041763 52:0.20588235294117646 53:0.9241573033707865 54:0.20361702127659576 55:0.8960674157303371 56:0.0 57:1.0 58:0.008026141699643094 59:0.022453889334402566 60:0.0 61:0.0 62:0.0 63:0.006758278891642262 64:0.028089887640449437 65:0.03852889667250438 66:0.12222222222222222 67:0.8275976064902509 68:0.5887242288509799 69:0.05177899913219554 70:0.20111172249174633 71:0.06403402888802268 72:0.029365079365079365 73:0.02976190476190476 74:0.05177899913219554 75:0.0016513588054889918 76:0.6781289335792277 77:0.43815268360312104 78:0.4098086710605192 79:0.5601916420007024 80:0.5339760533469131 81:0.20512820512820512 
256.0 0.0 0.0 0:0.0 1:0.0 2:0.0 3:0.0 4:0.0 5:0.0 6:0.061771272637062766 7:0.09180182510738898 8:0.04641350210970464 9:0.06613226452905813 10:0.0 11:0.0 12:0.0 13:0.0 14:0.026041666666666664 15:0.04008016032064128 16:0.011652245259024007 17:5.349500713266762E-4 18:0.006012024048096192 19:0.0 20:0.12097967586989386 21:0.3567251461988352 22:0.22926376207863883 23:0.5955056179775281 24:0.08131729512997252 25:0.07468872156339423 26:0.7247244664968823 27:0.0 28:1.0 29:0.0 30:1.0 31:0.0 32:0.0 33:0.0 34:0.0 35:0.0 36:0.0 37:0.0 38:0.0 39:0.0 40:0.0 41:0.0 42:0.0 43:1.0 44:1.0 45:0.02890173410404624 46:0.04781361786110769 47:0.03141516296615786 48:0.6388062803786135 49:7.053087570256717E-16 50:0.0 51:0.10762754002718199 52:0.09407592824363788 53:0.9038076152304609 54:0.09085106382978723 55:0.8557114228456913 56:0.0 57:1.0 58:0.0037111182376322084 59:0.027257240204429302 60:0.0 61:0.0 62:0.0 63:0.005406623113313809 64:0.04809619238476954 65:0.03677758318739054 66:0.23595505617977527 67:0.9133718466479122 68:0.5885320372311699 69:0.025455597338733003 70:0.09929262829951796 71:0.06214858084758197 72:0.02742108079186731 73:0.02976190476190476 74:0.025455597338733003 75:0.0015929743077366517 76:0.677907555399432 77:0.43815268360312104 78:0.4098086710605192 79:0.7287563337179552 80:0.6949242882583382 81:0.2777777777777778 
256.0 75.42191867510813 0.0 0:0.0 1:0.0 2:0.0 3:0.0 4:0.0 5:0.0 6:0.11585214586951129 7:0.1721211768828816 8:0.07594936708860758 9:0.057754010695187166 10:0.0 11:0.0 12:0.0 13:0.0 14:0.03645833333333333 15:0.029946524064171122 16:0.011775680060496889 17:8.91583452211127E-4 18:0.0053475935828877 19:0.0 20:0.112923948640586 21:0.3567251461988368 22:0.23266925713928563 23:0.6149068322981367 24:0.15030184259134116 25:0.1380499985129496 26:0.7430037176897631 27:0.0 28:1.0 29:1.0 30:1.0 31:0.0 32:0.0 33:0.0 34:0.0 35:0.0 36:0.0 37:0.0 38:0.0 39:0.0 40:0.0 41:0.0 42:0.0 43:1.0 44:1.0 45:0.057803468208092484 46:0.08921302578018996 47:0.03141516296615786 48:0.6578965983705047 49:7.053087570256717E-16 50:0.0 51:1.5911426393079133E-4 52:0.18064246975385898 53:0.9262032085561497 54:0.1778723404255319 55:0.8941176470588236 56:0.0 57:1.0 58:0.006862363956123788 59:0.021917808219178082 60:0.0 61:0.0 62:0.0 63:0.006758278891642262 64:0.03208556149732621 65:0.03677758318739054 66:0.13043478260869565 67:0.8508281298662842 68:0.5882778995520823 69:0.046282904252241824 70:0.17985279073732502 71:0.06401156345572122 72:0.028615794143744454 73:0.02976190476190476 74:0.046282904252241824 75:0.0016274598346245222 76:0.6776148239220163 77:0.43815268360312104 78:0.4098086710605192 79:0.8131640997341094 80:0.7755181588650265 81:0.2121212121212121 
256.0 0.0 0.0 0:0.0 1:0.0 2:0.0 3:0.0 4:0.0 5:0.0 6:0.0 7:2.9316115979672902E-5 8:0.0 9:0.0 10:0.0 11:0.0 12:0.0 13:0.0 14:0.0 15:0.0 16:0.005542222586124812 17:0.0 18:0.0 19:0.0 20:0.0 21:0.29232456140351076 22:0.22456339516715468 23:0.0 24:0.011259967563184281 25:0.010343516485221945 26:0.06819601925648779 27:0.0 28:0.0 29:0.0 30:1.0 31:0.0 32:0.0 33:0.0 34:0.0 35:0.0 36:0.0 37:0.0 38:0.0 39:0.0 40:0.0 41:0.0 42:1.0 43:1.0 44:1.0 45:0.0 46:0.0038592750533049044 47:0.025743696045423387 48:0.005947812739831082 49:8.06067150886482E-16 50:0.0 51:0.0 52:2.0859407592824363E-4 53:1.0 54:2.127659574468085E-4 55:1.0 56:0.11538461538461539 57:1.0 58:0.05687148775507537 59:0.0 60:0.0 61:0.0 62:0.0 63:0.0 64:0.0 65:0.0 66:0.0 67:0.9767541597953672 68:0.005317830934908917 69:0.0 70:5.849309680607522E-4 71:0.009456932541677605 72:0.0 73:0.0 74:0.0 75:1.0000000000000002 76:0.006244742423027126 77:0.6451163770056638 78:0.7398299079376123 79:0.8316773691867758 80:0.7933063431442734 81:0.0 
0.0 8.60614185044306 0.0 0:0.0 1:0.0 2:1.0 3:0.0 4:0.0 5:0.0 6:9.923096005953857E-4 7:0.0012502815419674878 8:0.0 9:0.0 10:0.0 11:0.0 12:0.0 13:0.0 14:0.0 15:0.0 16:0.0070863919525484195 17:0.0 18:0.0 19:0.0 20:0.08289572393098249 21:0.29188596491228475 22:0.2246018431847789 23:1.0 24:0.011243073388295862 25:0.010327997330705557 26:0.16348802811253216 27:0.0 28:0.0 29:1.0 30:1.0 31:0.0 32:0.0 33:0.0 34:0.0 35:0.0 36:0.0 37:0.0 38:0.0 39:0.0 40:0.0 41:0.0 42:0.0 43:1.0 44:1.0 45:0.0 46:0.0038592750533049044 47:0.02570507084505534 48:0.056834655069497676 49:8.06067150886482E-16 50:0.0 51:0.0 52:0.0018773466833541927 53:1.0 54:8.51063829787234E-4 55:0.4444444444444444 56:0.11538461538461539 57:1.0 58:0.005942737589787371 59:0.0 60:0.0 61:0.0 62:0.0 63:0.0011263798152737104 64:0.5555555555555556 65:0.0035026269702276708 66:1.0 67:0.9767694766239667 68:0.050814828933574696 69:2.892681515765114E-4 70:0.0014585455388928669 71:0.042827362962042266 72:0.020833333333333332 73:0.023809523809523808 74:2.892681515765114E-4 75:0.0021373904996505873 76:0.059671983153371015 77:0.5210047601247285 78:0.5437847856875387 79:0.8989903677319019 80:0.8575865868693759 81:0.0 
15.339063679292968 0.0 0.0 0:0.0 1:0.0 2:0.0 3:0.0 4:0.0 5:0.0 6:0.007814438104688662 7:0.01531144139673414 8:0.0 9:0.0 10:0.0 11:0.0 12:0.0 13:0.0 14:0.006510416666666666 15:0.078125 16:0.023962398009897735 17:0.0 18:0.0 19:0.0 20:0.4607364158145568 21:0.2932051809210527 22:0.2269969215904123 23:0.5384615384615384 24:0.021413366671171833 25:0.01967052834961556 26:0.9999999999999998 27:0.0 28:0.0 29:0.0 30:1.0 31:0.0 32:0.0 33:0.0 34:0.0 35:0.0 36:0.0 37:0.0 38:0.0 39:0.0 40:0.0 41:0.0 42:0.0 43:1.0 44:1.0 45:0.005780346820809248 46:0.015115102453832534 47:0.02623616735011816 48:0.1951213012705722 49:0.1443785905426819 50:0.16585353934368813 51:0.13500513806477277 52:0.011681268251981644 53:0.875 54:0.010212765957446808 55:0.75 56:0.19230769230769232 57:1.0 58:0.001892974080402227 59:0.0 60:1.0 61:0.0 62:0.0 63:0.0018022077044379365 64:0.125 65:0.005253940455341506 66:0.23076923076923078 67:0.9675487458070182 68:0.3038311255122462 69:0.003471217818918137 70:0.01815635595302442 71:0.0437425499822047 72:0.023351648351648352 73:0.023809523809523808 74:0.003471217818918137 75:0.0015232426638184101 76:0.3567956547203808 77:0.453537917752994 78:0.4372181593210376 79:0.9292178798976571 80:0.8864522129923255 81:0.16666666666666666 
0.0 0.0 52.44155270411383 0:0.0 1:0.0 2:0.0 3:0.0 4:0.0 5:0.0 6:0.0027288514016373107 7:0.00482780090586124 8:0.0 9:0.0 10:0.0 11:0.0 12:0.0 13:0.0 14:0.0013020833333333333 15:0.043478260869565216 16:0.02297491959811595 17:0.0 18:0.0 19:0.0 20:0.23241087291124043 21:0.2955568268497334 22:0.22489156640990207 23:0.75 24:0.021413366671171833 25:0.01967052834961556 26:0.9999999999999998 27:0.0 28:0.0 29:0.0 30:1.0 31:0.0 32:0.0 33:0.0 34:0.0 35:0.0 36:0.0 37:0.0 38:0.0 39:0.0 40:0.0 41:0.0 42:0.0 43:1.0 44:1.0 45:0.005780346820809248 46:0.014036958066808812 47:0.02623616735011816 48:0.07063294107614904 49:0.020175282590444116 50:0.023176164916881833 51:0.01885504027579802 52:0.00458906967042136 53:0.9565217391304348 54:0.0031914893617021275 55:0.6521739130434783 56:0.2692307692307693 57:1.0 58:0.007080829127924841 59:0.0 60:1.0 61:1.0 62:0.0 63:0.0015769317413831944 64:0.30434782608695654 65:0.0035026269702276708 66:0.5 67:0.9675487458070182 68:0.08122557895740012 69:8.678044547295342E-4 70:0.004788923928207171 71:0.053796896273155044 72:0.02827380952380952 73:0.02976190476190476 74:8.678044547295342E-4 75:0.0019449800854196135 76:0.09538785240232336 77:0.4949819957509025 78:0.5026913206242329 79:0.929162695028345 80:0.8863995144507957 81:0.0 
0.0 0.0 248.6444149028963 0:0.0 1:0.0 2:1.0 3:0.0 4:0.0 5:0.0 6:0.001736541801041925 7:0.0021315954179557616 8:0.0 9:0.0 10:0.0 11:0.0 12:0.0 13:0.0 14:0.0 15:0.0 16:0.004841112913759684 17:0.0 18:0.0 19:0.0 20:0.004217926186291821 21:0.43530701754386303 22:0.2245711788546129 23:1.0 24:0.016767468576834824 25:0.015398658467840052 26:0.5889117157134923 27:0.0 28:0.0 29:1.0 30:1.0 31:0.0 32:0.0 33:0.0 34:0.0 35:0.0 36:1.0 37:0.0 38:0.0 39:0.0 40:0.0 41:0.0 42:0.0 43:1.0 44:1.0 45:0.0 46:0.005239758653540806 47:0.03833551136546547 48:0.1516265882152298 49:8.06067150886482E-16 50:0.0 51:0.0 52:0.0031289111389236545 53:1.0 54:0.0029787234042553193 55:0.9333333333333333 56:0.3076923076923077 57:1.0 58:0.0033220554338313953 59:0.0 60:0.0 61:0.0 62:0.0 63:2.2527596305474206E-4 64:0.06666666666666667 65:0.0017513134851138354 66:1.0 67:0.9720238125628629 68:0.135566568188316 69:0.0 70:6.076324219623035E-4 71:0.24108398818165894 72:0.08333333333333331 73:0.08333333333333331 74:0.0 75:1.0000000000000002 76:0.1579677956690727 77:0.3680153686730797 78:0.3017262192636244 79:0.876908894797572 80:0.8362699096997481 81:0.0 
0.0 214.53508091333137 0.0 0:0.0 1:0.0 2:0.0 3:0.0 4:0.0 5:0.0 6:9.923096005953857E-4 7:0.003337329709572957 8:0.0 9:0.0 10:0.0 11:0.0 12:0.0 13:0.0 14:0.0 15:0.0 16:0.0025168356020285965 17:0.0 18:0.0 19:0.0 20:0.07723615712257435 21:0.23424707602339173 22:0.2245918773199552 23:0.5 24:0.009022897238365534 25:0.009199332262541956 26:0.9999999999999997 27:0.0 28:0.0 29:0.0 30:1.0 31:0.0 32:0.0 33:0.0 34:0.0 35:0.0 36:1.0 37:0.0 38:1.0 39:0.0 40:0.0 41:0.0 42:0.0 43:1.0 44:1.0 45:0.0 46:0.002709057452463709 47:0.020629075763330496 48:0.05630702651999661 49:8.06067150886482E-16 50:0.0 51:0.0 52:0.0014601585314977055 53:0.7777777777777778 54:0.0014893617021276596 55:0.7777777777777778 56:0.15384615384615385 57:1.0 58:0.004813912083852174 59:0.1 60:0.0 61:0.0 62:0.0 63:0.0 64:0.0 65:0.0 66:0.0 67:0.8810648259242428 68:0.050343085866768326 69:2.892681515765114E-4 70:0.003125270948773932 71:0.04144469615226002 72:0.020833333333333332 73:0.03571428571428571 74:2.892681515765114E-4 75:0.0021373904996505873 76:0.0638929654238163 77:0.3688534771149669 78:0.30772668124522246 79:0.8815080519741134 80:0.9362996109552788 81:0.0 
17.14017886529735 256.0 0.0 0:0.0 1:0.0 2:1.0 3:0.0 4:0.0 5:0.0 6:1.2403870007442322E-4 7:0.0012200444028920678 8:0.0 9:0.0 10:0.0 11:1.0 12:0.0 13:0.0 14:0.0026041666666666665 15:1.0 16:0.006061883100324853 17:0.0 18:0.0 19:0.0 20:0.0 21:0.3110014619883049 22:0.22456336427276313 23:0.0 24:0.011979377843852794 25:0.01214989969086225 26:0.2099825948001212 27:0.0 28:0.0 29:0.0 30:1.0 31:0.0 32:0.0 33:0.0 34:0.0 35:0.0 36:1.0 37:0.0 38:1.0 39:0.0 40:0.0 41:1.0 42:0.0 43:1.0 44:1.0 45:0.0 46:8.567894224529528E-4 47:0.027388485827770277 48:0.015288792245814494 49:8.06067150886482E-16 50:0.0 51:0.0 52:0.0 53:0.0 54:0.0 55:0.0 56:0.038461538461538464 57:1.0 58:0.023538339415828627 59:0.0 60:0.0 61:1.0 62:0.0 63:0.0 64:0.0 65:0.0 66:0.0 67:0.8830483552278889 68:0.013669430413926735 69:0.0 70:0.0019341801385681292 71:0.024308949060238495 72:0.005952380952380952 73:0.005952380952380952 74:0.0 75:1.0000000000000002 76:0.01727671858783 77:0.40868048490813336 78:0.37519949322277174 79:0.8959376410976773 80:0.9464857302201568 81:0.0 
0.0 2.88324283981776 0.0 0:0.0 1:0.0 2:1.0 3:0.0 4:0.0 5:0.0 6:0.0 7:5.483699203116319E-4 8:0.0 9:0.0 10:0.0 11:1.0 12:0.0 13:0.0 14:0.0013020833333333333 15:1.0 16:0.006061883100324853 17:0.0 18:0.0 19:0.0 20:0.0 21:0.3110014619883049 22:0.22456339516715468 23:0.0 24:0.011979377843852794 25:0.01214989969086225 26:0.19671690151306792 27:0.0 28:0.0 29:0.0 30:1.0 31:0.0 32:0.0 33:0.0 34:0.0 35:0.0 36:0.0 37:0.0 38:1.0 39:0.0 40:1.0 41:1.0 42:0.0 43:1.0 44:1.0 45:0.0 46:8.567894224529528E-4 47:0.027388485827770277 48:0.007646172650009953 49:8.06067150886482E-16 50:0.0 51:0.0 52:0.0 53:0.0 54:0.0 55:0.0 56:0.038461538461538464 57:1.0 58:0.04706574094159408 59:0.0 60:0.0 61:1.0 62:0.0 63:0.0 64:0.0 65:0.0 66:0.0 67:0.8830483552278889 68:0.006836303567457673 69:0.0 70:0.0019341801385681292 71:0.01215729918141606 72:0.0 73:0.0 74:0.0 75:1.0000000000000002 76:0.008640366814085568 77:0.44020448189875033 78:0.42879343772898443 79:0.8959376410976773 80:0.9464857302201568 81:0.0 
0.0 256.0 0.0 0:0.0 1:0.0 2:1.0 3:0.0 4:0.0 5:0.0 6:0.0 7:5.483699203116319E-4 8:0.0 9:0.0 10:0.0 11:1.0 12:0.0 13:0.0 14:0.0013020833333333333 15:1.0 16:0.006061883100324853 17:0.0 18:0.0 19:0.0 20:0.0 21:0.3110014619883049 22:0.22456339516715468 23:0.0 24:0.011979377843852794 25:0.01214989969086225 26:0.20535325328681234 27:0.0 28:0.0 29:0.0 30:1.0 31:0.0 32:0.0 33:0.0 34:0.0 35:0.0 36:0.0 37:0.0 38:1.0 39:0.0 40:0.0 41:1.0 42:0.0 43:1.0 44:1.0 45:0.0 46:8.567894224529528E-4 47:0.027388485827770277 48:0.007646172650009953 49:8.06067150886482E-16 50:0.0 51:0.0 52:0.0 53:0.0 54:0.0 55:0.0 56:0.038461538461538464 57:1.0 58:0.04706574094159408 59:0.0 60:0.0 61:1.0 62:0.0 63:0.0 64:0.0 65:0.0 66:0.0 67:0.8830483552278889 68:0.006836303567457673 69:0.0 70:0.0019341801385681292 71:0.01215729918141606 72:0.0 73:0.0 74:0.0 75:1.0000000000000002 76:0.008640366814085568 77:0.4717284788893673 78:0.48238738223519717 79:0.8959376410976773 80:0.9464857302201568 81:0.0 
0.0 62.4106588954022 0.0 0:0.0 1:0.0 2:1.0 3:0.0 4:0.0 5:0.0 6:1.2403870007442322E-4 7:0.0012200444028920678 8:0.0 9:0.0 10:0.0 11:1.0 12:0.0 13:0.0 14:0.0026041666666666665 15:1.0 16:0.006061883100324853 17:0.0 18:0.0 19:0.0 20:0.0 21:0.3110014619883049 22:0.22456336427276313 23:0.0 24:0.011979377843852794 25:0.01214989969086225 26:0.1991038429958625 27:0.0 28:0.0 29:0.0 30:1.0 31:0.0 32:0.0 33:0.0 34:0.0 35:0.0 36:0.0 37:0.0 38:1.0 39:0.0 40:0.0 41:1.0 42:0.0 43:1.0 44:1.0 45:0.0 46:8.567894224529528E-4 47:0.027388485827770277 48:0.015288792245814494 49:8.06067150886482E-16 50:0.0 51:0.0 52:0.0 53:0.0 54:0.0 55:0.0 56:0.038461538461538464 57:1.0 58:0.023538339415828627 59:0.0 60:0.0 61:1.0 62:0.0 63:0.0 64:0.0 65:0.0 66:0.0 67:0.8830483552278889 68:0.013669430413926735 69:0.0 70:0.0019341801385681292 71:0.024308949060238495 72:0.005952380952380952 73:0.005952380952380952 74:0.0 75:1.0000000000000002 76:0.01727671858783 77:0.5347764728706013 78:0.5895752712476225 79:0.8959376410976773 80:0.9464857302201568 81:0.0 
0.0 256.0 0.0 0:0.0 1:0.0 2:1.0 3:0.0 4:0.0 5:0.0 6:0.0 7:5.483699203116319E-4 8:0.0 9:0.0 10:0.0 11:1.0 12:0.0 13:0.0 14:0.0013020833333333333 15:1.0 16:0.006061883100324853 17:0.0 18:0.0 19:0.0 20:0.0 21:0.3110014619883049 22:0.22456339516715468 23:0.0 24:0.011979377843852794 25:0.01214989969086225 26:0.21673790017405198 27:0.0 28:0.0 29:0.0 30:1.0 31:0.0 32:0.0 33:0.0 34:0.0 35:0.0 36:0.0 37:0.0 38:1.0 39:0.0 40:0.0 41:1.0 42:1.0 43:1.0 44:1.0 45:0.0 46:8.567894224529528E-4 47:0.027388485827770277 48:0.007644396122907247 49:8.06067150886482E-16 50:0.0 51:0.0 52:0.0 53:0.0 54:0.0 55:0.0 56:0.038461538461538464 57:1.0 58:0.047076678831657254 59:0.0 60:0.0 61:1.0 62:0.0 63:0.0 64:0.0 65:0.0 66:0.0 67:0.8830483552278889 68:0.006834715206963367 69:0.0 70:0.0019341801385681292 71:0.012154474530119247 72:0.0 73:0.0 74:0.0 75:1.0000000000000002 76:0.008638359293915 77:0.572199168161106 78:0.6531975922137486 79:0.8959376410976773 80:0.9464857302201568 81:0.0 
0.0 256.0 0.0 0:0.0 1:0.0 2:1.0 3:0.0 4:0.0 5:0.0 6:0.0 7:5.483699203116319E-4 8:0.0 9:0.0 10:0.0 11:1.0 12:0.0 13:0.0 14:0.0013020833333333333 15:1.0 16:0.006061883100324853 17:0.0 18:0.0 19:0.0 20:0.0 21:0.3110014619883049 22:0.22456339516715468 23:0.0 24:0.011979377843852794 25:0.01214989969086225 26:0.18736587255860448 27:0.0 28:0.0 29:0.0 30:1.0 31:0.0 32:0.0 33:0.0 34:0.0 35:0.0 36:0.0 37:0.0 38:1.0 39:0.0 40:0.0 41:1.0 42:1.0 43:1.0 44:1.0 45:0.0 46:8.567894224529528E-4 47:0.027388485827770277 48:0.007644396122907247 49:8.06067150886482E-16 50:0.0 51:0.0 52:0.0 53:0.0 54:0.0 55:0.0 56:0.038461538461538464 57:1.0 58:0.047076678831657254 59:0.0 60:0.0 61:1.0 62:0.0 63:0.0 64:0.0 65:0.0 66:0.0 67:0.8830483552278889 68:0.006834715206963367 69:0.0 70:0.0019341801385681292 71:0.012154474530119247 72:0.0 73:0.0 74:0.0 75:1.0000000000000002 76:0.008638359293915 77:0.603723165151723 78:0.7067915367199613 79:0.8959376410976773 80:0.9464857302201568 81:0.0 
0.0 256.0 0.0 0:0.0 1:0.0 2:1.0 3:0.0 4:0.0 5:0.0 6:1.2403870007442322E-4 7:0.001216445343373887 8:0.0 9:0.0 10:0.0 11:1.0 12:0.0 13:0.0 14:0.0026041666666666665 15:1.0 16:0.006061883100324994 17:0.0 18:0.0 19:0.0 20:0.0 21:0.3110014619883049 22:0.22456336427276313 23:0.0 24:0.011979377843852794 25:0.01222815738381528 26:0.2099825948001212 27:0.0 28:0.0 29:0.0 30:1.0 31:0.0 32:0.0 33:0.0 34:0.0 35:0.0 36:1.0 37:0.0 38:1.0 39:0.0 40:0.0 41:1.0 42:0.0 43:1.0 44:1.0 45:0.0 46:8.567894224529528E-4 47:0.027388485827770277 48:0.015288792245814494 49:8.06067150886482E-16 50:0.0 51:0.0 52:0.0 53:0.0 54:0.0 55:0.0 56:0.11538461538461539 57:1.0 58:0.023538339415828627 59:0.0 60:0.0 61:1.0 62:0.0 63:0.0 64:0.0 65:0.0 66:0.0 67:0.8773275197459449 68:0.013669430413926735 69:0.0 70:0.0019591561356618317 71:0.024308949060238495 72:0.005952380952380952 73:0.005952380952380952 74:0.0 75:1.0000000000000002 76:0.01727671858783 77:0.40868048490813336 78:0.37519949322277174 79:0.890316309637285 80:0.9467930724936285 81:0.0 
0.0 175.04066876515012 0.0 0:0.0 1:0.0 2:1.0 3:0.0 4:0.0 5:0.0 6:0.0 7:5.465703905525415E-4 8:0.0 9:0.0 10:0.0 11:1.0 12:0.0 13:0.0 14:0.0013020833333333333 15:1.0 16:0.006061883100324994 17:0.0 18:0.0 19:0.0 20:0.0 21:0.3110014619883049 22:0.22456339516715468 23:0.0 24:0.011979377843852794 25:0.01222815738381528 26:0.21673790017405198 27:0.0 28:0.0 29:0.0 30:1.0 31:0.0 32:0.0 33:0.0 34:0.0 35:0.0 36:0.0 37:0.0 38:1.0 39:0.0 40:1.0 41:1.0 42:1.0 43:1.0 44:1.0 45:0.0 46:8.567894224529528E-4 47:0.027388485827770277 48:0.007646172650009902 49:8.06067150886482E-16 50:0.0 51:0.0 52:0.0 53:0.0 54:0.0 55:0.0 56:0.11538461538461539 57:1.0 58:0.047065740941594394 59:0.0 60:0.0 61:1.0 62:0.0 63:0.0 64:0.0 65:0.0 66:0.0 67:0.8773275197459449 68:0.006836303567457628 69:0.0 70:0.0019591561356618317 71:0.012157299181415978 72:0.0 73:0.0 74:0.0 75:1.0000000000000002 76:0.00864036681408551 77:0.572199168161106 78:0.6531975922137486 79:0.890316309637285 80:0.9467930724936285 81:0.0 
0.0 256.0 0.0 0:0.0 1:0.0 2:1.0 3:0.0 4:0.0 5:0.0 6:0.0 7:5.465703905525415E-4 8:0.0 9:0.0 10:0.0 11:1.0 12:0.0 13:0.0 14:0.0013020833333333333 15:1.0 16:0.006061883100324994 17:0.0 18:0.0 19:0.0 20:0.0 21:0.3110014619883049 22:0.22456339516715468 23:0.0 24:0.011979377843852794 25:0.01222815738381528 26:0.18736386503843397 27:0.0 28:0.0 29:0.0 30:1.0 31:0.0 32:0.0 33:0.0 34:0.0 35:0.0 36:0.0 37:0.0 38:1.0 39:0.0 40:0.0 41:1.0 42:1.0 43:1.0 44:1.0 45:0.0 46:8.567894224529528E-4 47:0.027388485827770277 48:0.007644396122907247 49:8.06067150886482E-16 50:0.0 51:0.0 52:0.0 53:0.0 54:0.0 55:0.0 56:0.11538461538461539 57:1.0 58:0.047076678831657254 59:0.0 60:0.0 61:1.0 62:0.0 63:0.0 64:0.0 65:0.0 66:0.0 67:0.8773275197459449 68:0.006834715206963367 69:0.0 70:0.0019591561356618317 71:0.012154474530119247 72:0.0 73:0.0 74:0.0 75:1.0000000000000002 76:0.008638359293915 77:0.6037237566185134 78:0.7067925422725994 79:0.890316309637285 80:0.9467930724936285 81:0.0 
0.0 0.0 115.1249474920958 0:0.0 1:0.0 2:1.0 3:0.0 4:0.0 5:0.0 6:0.0021086579012651947 7:0.0035498681539362234 8:0.0 9:0.0 10:0.0 11:0.0 12:0.0 13:0.0 14:0.0 15:0.0 16:0.012305215358814793 17:0.0 18:0.0 19:0.0 20:0.021263011260302785 21:0.41465643274853936 22:0.22460866441881092 23:1.0 24:0.015972034509167947 25:0.016246691947254498 26:0.6195924692525256 27:0.0 28:0.0 29:1.0 30:1.0 31:0.0 32:0.0 33:0.0 34:1.0 35:0.0 36:1.0 37:0.0 38:0.0 39:0.0 40:0.0 41:0.0 42:0.0 43:1.0 44:1.0 45:0.0 46:0.007079557569296374 47:0.03651690818146128 48:0.18364315966004377 49:8.06067150886482E-16 50:0.0 51:0.0 52:0.0037546933667083854 53:1.0 54:0.003404255319148936 55:0.8888888888888888 56:0.3076923076923077 57:1.0 58:0.002612764221714429 59:0.0 60:0.0 61:0.0 62:0.0 63:4.505519261094841E-4 64:0.1111111111111111 65:0.0035026269702276708 66:1.0 67:0.8768258936093086 68:0.16419200101655068 69:2.892681515765114E-4 70:0.00187878916776552 71:0.1426152316496528 72:0.047619047619047616 73:0.047619047619047616 74:2.892681515765114E-4 75:0.0030004138681521604 76:0.2075030461427903 77:0.3653283350446439 78:0.3014920012836471 79:0.7893380324085687 80:0.8366074719469552 81:0.0 
0.0 15.497310230518185 0.0 0:0.0 1:0.0 2:0.0 3:0.0 4:0.0 5:0.0 6:0.011907715207144629 7:0.019671015075058286 8:0.004219409282700422 9:0.030927835051546393 10:0.0 11:0.0 12:0.0 13:0.0 14:0.0 15:0.0 16:0.012294106226682231 17:7.132667617689016E-4 18:0.041237113402061855 19:0.0 20:0.21810205242298988 21:0.3455409356725173 22:0.22654385084901627 23:0.5789473684210527 24:0.029312801279452218 25:0.029816868491298856 26:0.6195924692525256 27:0.0 28:0.0 29:0.0 30:1.0 31:0.0 32:0.0 33:0.0 34:1.0 35:0.0 36:0.0 37:0.0 38:1.0 39:0.0 40:0.0 41:0.0 42:0.0 43:1.0 44:1.0 45:0.005780346820809248 46:0.016024786780383795 47:0.030430220356768307 48:0.4266791734174697 49:8.06067150886482E-16 50:0.0 51:1.889481884178618E-4 52:0.019190654985398414 53:0.9484536082474226 54:0.01851063829787234 55:0.8969072164948454 56:0.3076923076923077 57:1.0 58:0.0020633246112975456 59:0.043478260869565216 60:0.0 61:0.0 62:0.0 63:0.0011263798152737104 64:0.05154639175257732 65:0.008756567425569177 66:0.2631578947368421 67:0.8647307046251718 68:0.38157660662663995 69:0.005206826728377205 70:0.02030230771732902 71:0.06134384420769571 72:0.024436090225563912 73:0.011904761904761904 74:0.005206826728377205 75:0.0015349857880222646 76:0.48222999733023403 77:0.3653283350446439 78:0.3014920012836471 79:0.8779385942908745 80:0.9302964902185619 81:0.0 
0.0 0.0 135.39759253914283 0:0.0 1:0.0 2:1.0 3:0.0 4:0.0 5:0.0 6:7.442322004465392E-4 7:0.0023522481717962182 8:0.0 9:0.0 10:0.0 11:0.0 12:0.0 13:0.0 14:0.0 15:0.0 16:0.0066247457950404445 17:0.0 18:0.0 19:0.0 20:0.0 21:0.2679824561403509 22:0.22456339516715468 23:1.0 24:0.010322340856872543 25:0.010524200493770446 26:0.8376643856365649 27:0.0 28:0.0 29:0.0 30:1.0 31:0.0 32:0.0 33:0.0 34:1.0 35:0.0 36:0.0 37:0.0 38:0.0 39:0.0 40:0.0 41:0.0 42:1.0 43:1.0 44:1.0 45:0.0 46:0.00767590618336887 47:0.02359999742498662 48:0.04332771950768883 49:8.06067150886482E-16 50:0.0 51:0.0 52:0.0014601585314977055 53:1.0 54:0.001276595744680851 55:0.8571428571428571 56:0.07692307692307693 57:1.0 58:0.007156935473162869 59:0.0 60:0.0 61:0.0 62:0.0 63:2.2527596305474206E-4 64:0.14285714285714285 65:0.0017513134851138354 66:1.0 67:0.8798854301220751 68:0.03873852409542871 69:0.0 70:0.0018532621865279336 71:0.06889042047759206 72:0.03571428571428571 73:0.03571428571428571 74:0.0 75:1.0000000000000002 76:0.05060525453059058 77:0.5463378742210382 78:0.6212755556430642 79:0.6569871569758693 80:0.6983348421102259 81:0.0 
0.0 0.0 21.603201801180745 0:0.0 1:0.0 2:1.0 3:0.0 4:0.0 5:0.0 6:7.442322004465392E-4 7:0.0023522481717962182 8:0.0 9:0.0 10:0.0 11:0.0 12:0.0 13:0.0 14:0.0 15:0.0 16:0.0066247457950404445 17:0.0 18:0.0 19:0.0 20:0.0 21:0.2679824561403509 22:0.22456339516715468 23:1.0 24:0.010322340856872543 25:0.010524200493770446 26:0.01914529843592442 27:0.0 28:0.0 29:0.0 30:1.0 31:0.0 32:0.0 33:0.0 34:1.0 35:0.0 36:0.0 37:0.0 38:0.0 39:0.0 40:0.0 41:0.0 42:1.0 43:1.0 44:1.0 45:0.0 46:0.00767590618336887 47:0.02359999742498662 48:0.04611686705892376 49:8.06067150886482E-16 50:0.0 51:0.0 52:0.0014601585314977055 53:1.0 54:0.001276595744680851 55:0.8571428571428571 56:0.07692307692307693 57:1.0 58:0.006724084103970478 59:0.0 60:0.0 61:0.0 62:0.0 63:2.2527596305474206E-4 64:0.14285714285714285 65:0.0017513134851138354 66:1.0 67:0.8798854301220751 68:0.041232250071476136 69:0.0 70:0.0018532621865279336 71:0.07332512301356382 72:0.03571428571428571 73:0.03571428571428571 74:0.0 75:1.0000000000000002 76:0.05386288090366959 77:0.6296300020346457 78:0.7676347816300823 79:0.6569871569758693 80:0.6983348421102259 81:0.0 
0.0 14.176170111150672 0.0 0:0.0 1:0.0 2:0.0 3:0.0 4:0.0 5:0.0 6:0.0 7:3.9895303802480896E-4 8:0.0 9:0.0 10:0.0 11:0.0 12:0.0 13:0.0 14:0.0 15:0.0 16:0.0038400566738161154 17:0.0 18:0.0 19:0.0 20:0.0 21:0.0 22:0.22456339516715468 23:0.0 24:0.0 25:0.0 26:0.9999999999999998 27:0.0 28:0.0 29:0.0 30:1.0 31:0.0 32:0.0 33:0.0 34:0.0 35:0.0 36:0.0 37:0.0 38:0.0 39:0.0 40:0.0 41:0.0 42:0.0 43:1.0 44:1.0 45:0.0 46:0.012654120700843608 47:0.0 48:0.0033096699923254023 49:8.06067150886482E-16 50:0.0 51:0.0 52:0.0 53:0.0 54:0.0 55:0.0 56:0.2692307692307693 57:1.0 58:0.0 59:0.0 60:0.0 61:0.0 62:0.0 63:0.0 64:0.0 65:0.0 66:0.0 67:0.8816545238253269 68:0.002959115600876774 69:0.0 70:0.002393055495359392 71:0.005262325365933573 72:0.0 73:0.0 74:0.0 75:1.0000000000000002 76:0.003865682574133748 77:0.4407675582831375 78:0.4357745505353985 79:0.14460567902473287 80:0.15684169312162213 81:0.0 
0.0 54.49876000283308 0.0 0:0.0 1:0.0 2:0.0 3:0.0 4:0.0 5:0.0 6:1.2403870007442322E-4 7:9.212106383184219E-4 8:0.0 9:0.0 10:0.0 11:0.0 12:0.0 13:0.0 14:0.0 15:0.0 16:0.005744655660540046 17:0.0 18:0.0 19:0.0 20:1.0 21:0.0 22:0.2245801894440821 23:0.0 24:0.002624228499346765 25:0.002698578613474947 26:0.9999999999999998 27:0.0 28:0.0 29:0.0 30:1.0 31:0.0 32:0.0 33:0.0 34:0.0 35:0.0 36:0.0 37:0.0 38:0.0 39:0.0 40:0.0 41:0.0 42:0.0 43:1.0 44:1.0 45:0.0 46:0.012654120700843608 47:0.005999781123864594 48:0.008816904010687578 49:8.06067150886482E-16 50:0.0 51:0.0 52:4.1718815185648727E-4 53:1.0 54:2.127659574468085E-4 55:0.5 56:0.2692307692307693 57:1.0 58:0.008941291872218414 59:0.0 60:0.0 61:0.0 62:0.0 63:2.2527596305474206E-4 64:0.5 65:0.0 66:0.0 67:0.8792753097828584 68:0.0078830331331999 69:0.0 70:0.002393055495359392 71:0.01401874438600553 72:0.005952380952380952 73:0.005952380952380952 74:0.0 75:1.0000000000000002 76:0.010298111978221027 77:0.4407675582831375 78:0.4357745505353985 79:0.20692319269553006 80:0.22345961029449174 81:0.0 
0.0 0.0 8.168419194672808 0:0.0 1:0.0 2:0.0 3:0.0 4:0.0 5:0.0 6:0.06387993053832795 7:0.27452471308229254 8:0.004219409282700422 9:0.005813953488372093 10:0.0 11:0.0 12:0.0 13:0.0 14:0.022135416666666664 15:0.03294573643410853 16:0.030322993329786503 17:0.0010699001426533524 18:0.011627906976744186 19:0.0 20:0.43020042000646896 21:0.3399774468470922 22:0.25271740971792134 23:0.7422680412371134 24:0.23186973464882657 25:0.2360936702618709 26:0.3968911401020515 27:0.0 28:0.0 29:0.0 30:1.0 31:0.0 32:0.0 33:0.0 34:0.0 35:0.0 36:0.0 37:0.0 38:1.0 39:0.0 40:0.0 41:0.0 42:1.0 43:1.0 44:1.0 45:0.07514450867052024 46:0.36724273369992144 47:0.029948784823606998 48:0.32251885149045545 49:8.06067150886482E-16 50:0.0 51:0.22571518546756378 52:0.10095953274926991 53:0.937984496124031 54:0.10170212765957447 55:0.9263565891472868 56:0.34615384615384615 57:1.0 58:0.017913354315060935 59:0.0196078431372549 60:1.0 61:1.0 62:0.0 63:0.0013516557783284523 64:0.011627906976744186 65:0.010507880910683012 66:0.061855670103092786 67:0.68019227725502 68:0.34766352171288784 69:0.027769742551345095 70:0.29196433540165284 71:0.06552963871661589 72:0.025711831124202257 73:0.023809523809523808 74:0.027769742551345095 75:0.0015320596080324708 76:0.45419401427228556 77:0.5244086515030354 78:0.5827647255351154 79:0.6841243164601415 80:0.7261064608579427 81:0.0 
0.0 0.0 9.180024021373859 0:0.6000000000000001 1:0.0 2:0.01593625498007968 3:0.0 4:0.0 5:0.0 6:0.5654924336392955 7:0.5801747319314258 8:0.9999999999999999 9:0.15592105263157896 10:0.0 11:0.0 12:0.0 13:0.0 14:0.0 15:0.0 16:0.017457383972285797 17:0.004814550641940086 18:0.0059210526315789476 19:0.0 20:0.34542886035750636 21:0.2512143079280741 22:0.31759175270925477 23:0.3443609022556391 24:0.8932034734423572 25:0.9186215883587925 26:0.3970280942825779 27:0.0 28:0.0 29:0.0 30:1.0 31:0.0 32:0.0 33:0.0 34:0.0 35:0.0 36:0.0 37:1.0 38:1.0 39:0.0 40:0.0 41:0.0 42:1.0 43:1.0 44:1.0 45:0.40462427745664736 46:0.5211671422300264 47:0.0221259836165682 48:0.39113409386708825 49:2.418201452659446E-15 50:0.0 51:0.17900686180263203 52:0.8437630371297455 53:0.8870614035087719 54:0.6997872340425532 55:0.7212719298245615 56:0.46153846153846156 57:1.0 58:0.06459551419289476 59:0.0526416539050536 60:0.0 61:0.0 62:0.0 63:0.170308628069385 64:0.16578947368421051 65:1.0 66:0.8586466165413534 67:0.07173891955091052 68:0.3713983925791797 69:0.19207405264680358 70:0.5503669245063701 71:0.0600331507872345 72:0.03486394557823129 73:0.03571428571428571 74:0.19207405264680358 75:0.0018148951053282578 76:0.48520168578145845 77:0.5155549851186956 78:0.5672061784446634 79:0.08431871770430946 80:0.0924090143784327 81:0.0 
256.0 0.0 0.0 0:0.4 1:0.0 2:0.0 3:0.0 4:0.0 5:0.0 6:0.07814438104688663 7:0.0833415552682816 8:0.14345991561181434 9:0.16164817749603805 10:0.0 11:0.0 12:0.0 13:0.0 14:0.0 15:0.0 16:0.013628436430602207 17:5.349500713266762E-4 18:0.004754358161648178 19:0.0 20:0.3404595089603292 21:0.25121842012585277 22:0.2371248977281192 23:0.3333333333333333 24:0.12325145289904044 25:0.12648798128672548 26:0.6322963657717702 27:0.0 28:0.0 29:0.0 30:1.0 31:0.0 32:0.0 33:0.0 34:1.0 35:0.0 36:0.0 37:0.0 38:0.0 39:0.0 40:0.0 41:0.0 42:0.0 43:1.0 44:1.0 45:0.05202312138728324 46:0.07021099538279824 47:0.022125802277599308 48:0.3825004974275889 49:8.06067150886482E-16 50:0.0 51:0.08530016242914448 52:0.11639549436795994 53:0.884310618066561 54:0.09702127659574468 55:0.722662440570523 56:0.5 57:1.0 58:0.00897772418655773 59:0.05138888888888889 60:0.0 61:0.0 62:0.0 63:0.02297814823158369 64:0.16164817749603805 65:0.1330998248686515 66:0.8444444444444444 67:0.771691182101775 68:0.368737888751231 69:0.025744865490309514 70:0.06684478509540122 71:0.061238126264423785 72:0.03578042328042328 73:0.03571428571428571 74:0.025744865490309514 75:0.0018523797148970247 76:0.4817209566772771 77:0.3688534771149669 78:0.30940702109219487 79:0.08433000551848695 80:0.09216518125527684 81:0.0 
195.2399651859331 0.0 0.0 0:0.0 1:0.0196078431372549 2:0.0 3:0.0 4:0.0 5:0.0 6:0.03349044902009427 7:0.060851592071336336 8:0.008438818565400843 9:0.02214022140221402 10:0.0 11:0.0 12:0.0 13:0.0 14:0.020833333333333332 15:0.05904059040590406 16:0.014648007890766842 17:7.132667617689016E-4 18:0.014760147601476014 19:0.0 20:0.3249160001899789 21:0.32024584061630335 22:0.2333109031964914 23:0.6296296296296297 24:0.09986287561382169 25:0.1006701598619374 26:0.34910616924957866 27:0.0 28:1.0 29:0.0 30:1.0 31:0.0 32:0.0 33:0.0 34:0.0 35:0.0 36:0.0 37:0.0 38:0.0 39:0.0 40:0.0 41:0.0 42:1.0 43:1.0 44:1.0 45:0.034682080924855495 46:0.0675705630264519 47:0.029270544698093492 48:0.3372112382089358 49:8.06067150886482E-16 50:0.0 51:0.22258593827692505 52:0.05131414267834793 53:0.9077490774907749 54:0.05106382978723404 55:0.8856088560885609 56:0.0 57:1.0 58:0.008077057425217886 59:0.021604938271604937 60:0.0 61:0.0 62:0.0 63:0.0013516557783284523 64:0.02214022140221402 65:0.010507880910683012 66:0.1111111111111111 67:0.8088242802366962 68:0.3320801169033323 69:0.015331212033555103 70:0.0720213417179109 71:0.0592329376938417 72:0.02391975308641975 73:0.017857142857142856 74:0.015331212033555103 75:0.0014756780568459032 76:0.46056460584432024 77:0.5312146598592782 78:0.6159340820388912 79:0.2819984447900467 80:0.2971971709854727 81:0.0 
85.73923427589102 0.0 0.0 0:0.0 1:0.0 2:0.07692307692307693 3:0.0 4:0.0 5:0.0 6:0.14425700818655418 7:0.26177625145808686 8:0.02953586497890295 9:0.018041237113402064 10:0.0 11:0.0 12:0.0 13:0.0 14:0.020833333333333332 15:0.013745704467353952 16:0.01465911702289937 17:0.0019614835948644793 18:0.009450171821305841 19:0.0 20:0.2961736010766728 21:0.32041803571069527 22:0.25813895231896705 23:0.6553398058252428 24:0.4205016443663558 25:0.42390094918025334 26:0.729601603718512 27:0.0 28:1.0 29:0.0 30:1.0 31:0.0 32:0.0 33:0.0 34:0.0 35:0.0 36:0.0 37:1.0 38:0.0 39:0.0 40:0.0 41:0.0 42:0.0 43:1.0 44:1.0 45:0.16184971098265896 46:0.285798729126644 47:0.028297065972064203 48:0.3574354152760748 49:5.541711662344564E-16 50:0.0 51:0.2589236583021182 52:0.23383395911556112 53:0.9630584192439863 54:0.23361702127659575 55:0.9432989690721649 56:0.0 57:1.0 58:0.03401079638523365 59:0.013878743608473338 60:0.0 61:0.0 62:0.0 63:0.0051813471502590676 64:0.019759450171821305 65:0.01926444833625219 66:0.05339805825242718 67:0.5181223610380726 68:0.3320801169033324 69:0.05929997107318484 70:0.27556067225020175 71:0.06809480122106108 72:0.027681460933888118 73:0.02976190476190476 74:0.05929997107318484 75:0.001594504224780577 76:0.46056460584432035 77:0.38642358958829176 78:0.34581636609784094 79:0.2690663723473637 80:0.2836448922498865 81:0.034482758620689655 
256.0 0.0 0.0 0:0.0 1:0.0 2:0.0 3:0.16666666666666666 4:0.0 5:0.0 6:0.07702803274621682 7:0.13982645819087658 8:0.025316455696202528 9:0.028938906752411578 10:0.0 11:0.0 12:0.0 13:0.0 14:0.057291666666666664 15:0.0707395498392283 16:0.014659117022899473 17:0.001783166904422254 18:0.01607717041800643 19:0.0 20:0.2946404458703213 21:0.3202265024162801 22:0.24290839182421514 23:0.5862068965517241 24:0.23094900211740324 25:0.23281597711067709 26:0.729601603718512 27:0.0 28:1.0 29:0.0 30:1.0 31:0.0 32:0.0 33:0.0 34:0.0 35:0.0 36:0.0 37:0.0 38:0.0 39:0.0 40:0.0 41:0.0 42:0.0 43:1.0 44:1.0 45:0.08670520231213873 46:0.1568457218856214 47:0.029137885527781158 48:0.35592098718058046 49:7.053087570256717E-16 50:0.0 51:0.19372161633573112 52:0.114726741760534 53:0.8842443729903537 54:0.11148936170212766 55:0.842443729903537 56:0.0 57:1.0 58:0.018679497670512208 59:0.021709633649932156 60:0.0 61:0.0 62:0.0 63:0.005857175039423294 64:0.04180064308681672 65:0.02626970227670753 66:0.12931034482758622 67:0.6899771779253867 68:0.3320801169033324 69:0.03326583743129881 70:0.15504396338239793 71:0.06661808591108734 72:0.02596469622331691 73:0.023809523809523808 74:0.03326583743129881 75:0.00153914778947006 76:0.46056460584432035 77:0.38642358958829176 78:0.34581636609784094 79:0.6585712135654443 80:0.6918299067124656 81:0.041666666666666664 
55.75888574079385 0.0 0.0 0:0.2 1:0.0 2:0.0 3:0.0 4:0.0 5:0.0 6:0.017985611510791366 7:0.09165419541641834 8:0.0 9:0.0 10:0.0 11:0.0 12:0.0 13:0.0 14:0.0 15:0.0 16:0.01465911702289937 17:7.132667617689016E-4 18:0.0273972602739726 19:0.0 20:0.4401624519960819 21:0.32058299287030384 22:0.23296394540791857 23:0.7142857142857143 24:0.07079222417443798 25:0.07124609828289025 26:0.9999999999999998 27:0.0 28:0.0 29:1.0 30:1.0 31:0.0 32:0.0 33:0.0 34:1.0 35:0.0 36:0.0 37:0.0 38:0.0 39:0.0 40:0.0 41:0.0 42:0.0 43:1.0 44:1.0 45:0.023121387283236993 46:0.10249533582089553 47:0.028226652675760758 48:0.27208898268952 49:8.06067150886482E-16 50:0.0 51:0.2484420061656778 52:0.029411764705882353 53:0.9657534246575342 54:0.026382978723404255 55:0.8493150684931506 56:0.07692307692307693 57:1.0 58:0.005725780039891955 59:0.030120481927710843 60:0.0 61:0.0 62:0.0 63:0.003829691371930615 64:0.11643835616438356 65:0.01576182136602452 66:0.42857142857142855 67:0.83667538024027 68:0.3320801169033324 69:0.005785363031530228 70:0.07988712691500802 71:0.08935730574536761 72:0.035430839002267574 73:0.03571428571428571 74:0.005785363031530228 75:0.001886855629197051 76:0.4610358537623407 77:0.38642358958829176 78:0.3459139120508508 79:0.20705864646566 80:0.21825520435651125 81:0.0 
0.0 256.0 0.0 0:0.0 1:0.0 2:0.0 3:0.0 4:0.0 5:0.0 6:0.0037211610022326964 7:0.041160080845760935 8:0.0 9:0.0 10:0.0 11:0.0 12:0.0 13:0.0 14:0.0 15:0.0 16:0.0025020234258518706 17:0.0 18:0.0 19:0.0 20:0.34202825567818484 21:0.3206505847953228 22:0.225713238634172 23:0.3333333333333333 24:0.02688004009550843 25:0.026564580466622818 26:0.2461532142917541 27:0.0 28:0.0 29:1.0 30:1.0 31:0.0 32:0.0 33:0.0 34:0.0 35:1.0 36:0.0 37:0.0 38:0.0 39:0.0 40:0.0 41:0.0 42:1.0 43:1.0 44:1.0 45:0.005780346820809248 46:0.047005824535857305 47:0.028238240235871303 48:0.13127469372672748 49:8.06067150886482E-16 50:0.0 51:0.07656379487519478 52:0.006049228201919065 53:0.9354838709677419 54:0.006170212765957446 55:0.9354838709677419 56:0.11538461538461539 57:1.0 58:0.004686421800041726 59:0.0 60:0.0 61:0.0 62:0.0 63:0.0 64:0.0 65:0.0 66:0.0 67:0.8930298218652833 68:0.1540566727024365 69:0.001446340757882557 70:0.05100817196660152 71:0.06492272695602391 72:0.024801587301587304 73:0.023809523809523808 74:0.001446340757882557 75:0.0016956907724193248 76:0.2343247559293288 77:0.5302209956515361 78:0.6492422661401579 79:0.38283625144233185 80:0.39441286351317884 81:0.0 
0.0 0.0 84.74795406111853 0:0.0 1:0.0 2:0.0 3:0.0 4:0.0 5:0.0 6:0.009178863805507318 7:0.09975585368296443 8:0.004219409282700422 9:0.04 10:0.0 11:0.0 12:0.0 13:0.0 14:0.006510416666666666 15:0.06666666666666667 16:0.002524241690116995 17:0.0 18:0.0 19:0.0 20:0.050443780013689266 21:0.3196637426900581 22:0.22485242816458842 23:0.6 24:0.012313037797900592 25:0.01216853405756468 26:0.9999999999999998 27:0.0 28:0.0 29:0.0 30:1.0 31:0.0 32:0.0 33:0.0 34:0.0 35:1.0 36:0.0 37:0.0 38:0.0 39:0.0 40:0.0 41:0.0 42:1.0 43:1.0 44:1.0 45:0.0 46:0.02257007644703313 47:0.02815133353504265 48:0.6411077712401582 49:8.06067150886482E-16 50:0.0 51:0.0 52:0.01376720901126408 53:0.88 54:0.013191489361702127 55:0.8266666666666667 56:0.11538461538461539 57:1.0 58:5.76964255508162E-4 59:0.023809523809523808 60:0.0 61:0.0 62:0.0 63:9.011038522189682E-4 64:0.05333333333333334 65:0.005253940455341506 66:0.3 67:0.9062367573252733 68:0.573202770100702 69:0.0026034133641886026 70:0.0852060756795168 71:0.09542660708535532 72:0.038690476190476185 73:0.02976190476190476 74:0.0026034133641886026 75:0.0020446241214514336 76:0.8718583677403925 77:0.41382033131603724 78:0.41108890096671646 79:0.3693021622435158 80:0.38050854877821644 81:0.3333333333333333 
97.55914038751799 0.0 0.0 0:0.0 1:0.0 2:1.0 3:0.0 4:0.0 5:0.0 6:0.0014884644008930786 7:0.017189082866904955 8:0.0 9:0.0 10:0.0 11:0.0 12:0.0 13:0.0 14:0.0 15:0.0 16:0.002500789077837155 17:0.0 18:0.0 19:0.0 20:0.30129763750253996 21:0.3206871345029243 22:0.224967272609874 23:1.0 24:0.027219331441185754 25:0.026899889946141786 26:0.1912678145618566 27:0.0 28:0.0 29:0.0 30:1.0 31:0.0 32:0.0 33:0.0 34:0.0 35:1.0 36:0.0 37:0.0 38:0.0 39:0.0 40:0.0 41:0.0 42:0.0 43:1.0 44:1.0 45:0.005780346820809248 46:0.047005824535857305 47:0.028241459002568577 48:0.05171115090531823 49:8.06067150886482E-16 50:0.0 51:0.030109059568402555 52:0.0027117229870671673 53:1.0 54:0.002340425531914894 55:0.8461538461538461 56:0.11538461538461539 57:1.0 58:0.012052005553858675 59:0.0 60:0.0 61:0.0 62:0.0 63:4.505519261094841E-4 64:0.15384615384615385 65:0.0035026269702276708 66:1.0 67:0.8927222088909085 68:0.060661075637726734 69:2.892681515765114E-4 70:0.01681026825368627 71:0.08221994994717903 72:0.03273809523809524 73:0.041666666666666664 74:2.892681515765114E-4 75:0.002589804061852038 76:0.09226729030216203 77:0.4684718627418507 78:0.5229048102249786 79:0.10440224752922292 80:0.1083622865994179 81:0.0 
90.50596523225255 0.0 0.0 0:0.0 1:0.0 2:0.0 3:0.0 4:0.0 5:0.0 6:0.008434631605060779 7:0.09176552102334577 8:0.004219409282700422 9:0.043478260869565216 10:0.0 11:0.0 12:0.0 13:0.0 14:0.006510416666666666 15:0.07246376811594203 16:0.0025230073421022444 17:0.0 18:0.0 19:0.0 20:0.05605761899409772 21:0.3196637426900582 22:0.2248563975256826 23:0.6 24:0.01231303779790061 25:0.0121685340575647 26:1.0 27:0.0 28:0.0 29:0.0 30:1.0 31:0.0 32:0.0 33:0.0 34:0.0 35:1.0 36:0.0 37:0.0 38:0.0 39:0.0 40:0.0 41:0.0 42:1.0 43:1.0 44:1.0 45:0.0 46:0.02257007644703313 47:0.028151333535042698 48:0.584827392626702 49:8.06067150886482E-16 50:0.0 51:0.0 52:0.012515644555694618 53:0.8695652173913043 54:0.011914893617021277 55:0.8115942028985508 56:0.11538461538461539 57:1.0 58:6.324879316488889E-4 59:0.02564102564102564 60:0.0 61:0.0 62:0.0 63:9.011038522189682E-4 64:0.057971014492753624 65:0.005253940455341506 66:0.3 67:0.9062367573252733 68:0.5228835096413481 69:0.0026034133641886026 70:0.0852060756795168 71:0.08641032014597796 72:0.03511904761904762 73:0.041666666666666664 74:0.0026034133641886026 75:0.0019449800854196135 76:0.7953212842188169 77:0.42318916527474815 78:0.43025734255384707 79:0.06438067526212814 80:0.06724592266719186 81:0.3333333333333333 
0.0 0.0 190.20187601153282 0:0.0 1:0.0 2:1.0 3:0.0 4:0.0 5:0.0 6:8.682709005209625E-4 7:0.010530472317222742 8:0.0 9:0.0 10:0.0 11:0.0 12:0.0 13:0.0 14:0.0 15:0.0 16:0.002500789077837155 17:0.0 18:0.0 19:0.0 20:0.0 21:0.3206871345029243 22:0.2245602413686184 23:1.0 24:0.012352457539307115 25:0.01220749117551712 26:0.1912678145618566 27:0.0 28:0.0 29:0.0 30:1.0 31:0.0 32:0.0 33:0.0 34:0.0 35:1.0 36:0.0 37:0.0 38:0.0 39:0.0 40:0.0 41:0.0 42:0.0 43:1.0 44:1.0 45:0.0 46:0.02257007644703313 47:0.028241459002568577 48:0.06358368153264551 49:8.06067150886482E-16 50:0.0 51:0.0 52:0.001668752607425949 53:1.0 54:0.0014893617021276596 55:0.875 56:0.11538461538461539 57:1.0 58:0.005836096124031693 59:0.0 60:0.0 61:0.0 62:0.0 63:2.2527596305474206E-4 64:0.125 65:0.0017513134851138354 66:1.0 67:0.906201018058541 68:0.05684901045141209 69:0.0 70:0.008260792325457454 71:0.10109709456367617 72:0.041666666666666664 73:0.041666666666666664 74:0.0 75:1.0000000000000002 76:0.08646902639901242 77:0.4684718627418507 78:0.5229048102249786 79:0.13119199317714345 80:0.1358848667809393 81:0.0 
0.0 0.0 0.7795559155756415 0:0.0 1:0.0 2:0.0 3:0.0 4:0.0 5:0.0 6:0.001240387000744232 7:0.01452563864703207 8:0.0 9:0.0 10:0.0 11:0.0 12:0.0 13:0.0 14:0.010416666666666666 15:0.7272727272727273 16:0.005464458661197018 17:3.566333808844508E-4 18:0.18181818181818182 19:0.0 20:0.0 21:0.3206505847953228 22:0.22455105216062304 23:0.0 24:0.012351049691399774 25:0.012206099849875997 26:0.4025275598731145 27:0.0 28:0.0 29:0.0 30:1.0 31:0.0 32:0.0 33:0.0 34:0.0 35:1.0 36:0.0 37:0.0 38:0.0 39:0.0 40:0.0 41:0.0 42:1.0 43:1.0 44:1.0 45:0.0 46:0.02257007644703313 47:0.028238240235871303 48:0.08916567181148911 49:8.06067150886482E-16 50:0.0 51:0.0 52:0.0 53:0.0 54:0.0 55:0.0 56:0.11538461538461539 57:1.0 58:0.004161222324837646 59:0.18181818181818182 60:1.0 61:1.0 62:0.0 63:0.0 64:0.0 65:0.0 66:0.0 67:0.9062022944609243 68:0.07972140156930012 69:0.0 70:0.008260792325457454 71:0.14177207323755875 72:0.059523809523809514 73:0.059523809523809514 74:0.0 75:1.0000000000000002 76:0.1212586098179103 77:0.5302209956515361 78:0.6492422661401579 79:0.44273691867756987 80:0.455952115829165 81:0.0 
0.0 110.13488565548043 0.0 0:0.0 1:0.0 2:0.0 3:0.0 4:0.0 5:0.0 6:0.0013644257008186553 7:0.015857360756968513 8:0.0 9:0.0 10:0.0 11:0.0 12:0.0 13:0.0 14:0.01171875 15:0.75 16:0.005464458661197018 17:3.566333808844508E-4 18:0.16666666666666666 19:0.0 20:0.0 21:0.32065058479532077 22:0.22455059029328187 23:0.0 24:0.012351049691399694 25:0.012206099849875918 26:0.23057279599533234 27:0.0 28:0.0 29:0.0 30:1.0 31:0.0 32:0.0 33:0.0 34:0.0 35:1.0 36:0.0 37:0.0 38:0.0 39:0.0 40:0.0 41:0.0 42:1.0 43:1.0 44:1.0 45:0.0 46:0.02257007644703313 47:0.02823824023587112 48:0.09811936840908445 49:8.06067150886482E-16 50:0.0 51:0.0 52:0.0 53:0.0 54:0.0 55:0.0 56:0.11538461538461539 57:1.0 58:0.0037814978853528795 59:0.16666666666666666 60:1.0 61:1.0 62:0.0 63:0.0 64:0.0 65:0.0 66:0.0 67:0.9062022944609244 68:0.08772673846056099 69:0.0 70:0.008260792325457454 71:0.15600831577341773 72:0.06547619047619047 73:0.06547619047619047 74:0.0 75:1.0000000000000002 76:0.13343496401452465 77:0.5302209956515361 78:0.6492422661401579 79:0.47584784026488747 80:0.48996878796362964 81:0.0 
0.0 0.0 22.205111724984125 0:0.0 1:0.0 2:0.0 3:0.0 4:0.0 5:0.0 6:0.0018605805011163482 7:0.021184249196714286 8:0.0 9:0.0 10:0.0 11:0.0 12:0.0 13:0.0 14:0.0 15:0.0 16:0.005464458661197018 17:0.0 18:0.0 19:0.0 20:0.02047844374342781 21:0.32065058479532077 22:0.22458820859189826 23:1.0 24:0.012351049691399694 25:0.012206099849875918 26:0.270704030035007 27:0.0 28:0.0 29:0.0 30:1.0 31:0.0 32:0.0 33:0.0 34:0.0 35:1.0 36:0.0 37:0.0 38:0.0 39:0.0 40:0.0 41:0.0 42:0.0 43:1.0 44:1.0 45:0.0 46:0.02257007644703313 47:0.02823824023587112 48:0.1351581819732242 49:8.06067150886482E-16 50:0.0 51:0.0 52:0.003337505214851898 53:1.0 54:0.0031914893617021275 55:0.9375 56:0.11538461538461539 57:1.0 58:0.0027452143757350795 59:0.0 60:0.0 61:0.0 62:0.0 63:2.2527596305474206E-4 64:0.0625 65:0.0017513134851138354 66:0.5 67:0.9062022944609244 68:0.12084246640617556 69:2.892681515765114E-4 70:0.01681026825368627 71:0.10410393586911697 72:0.041666666666666664 73:0.06547619047619047 74:2.892681515765114E-4 75:0.002850862195498159 76:0.18380496572984442 77:0.47031723912765744 78:0.526680412355777 79:0.4592923794712287 80:0.47296045189639735 81:0.0 
0.0 0.0 1.3769125817225476 0:0.0 1:0.0 2:0.0 3:0.0 4:0.0 5:0.0 6:0.009426941205656163 7:0.10241929790283731 8:0.004219409282700422 9:0.03896103896103896 10:0.0 11:0.0 12:0.0 13:0.0 14:0.006510416666666666 15:0.06493506493506493 16:0.018214039305313526 17:0.0 18:0.0 19:0.0 20:0.055345381343827216 21:0.3196637426900581 22:0.224892534589084 23:0.6363636363636364 24:0.012313037797900592 25:0.01216853405756468 26:0.9999999999999998 27:0.0 28:0.0 29:0.0 30:1.0 31:0.0 32:0.0 33:1.0 34:0.0 35:1.0 36:0.0 37:0.0 38:0.0 39:0.0 40:0.0 41:0.0 42:1.0 43:1.0 44:1.0 45:0.0 46:0.02257007644703313 47:0.02815133353504265 48:0.6654106620050596 49:8.06067150886482E-16 50:0.0 51:0.0 52:0.014184397163120567 53:0.8831168831168831 54:0.013404255319148937 55:0.8181818181818182 56:0.11538461538461539 57:1.0 58:5.558917057617907E-4 59:0.022988505747126436 60:0.0 61:0.0 62:0.0 63:0.0011263798152737104 64:0.06493506493506493 65:0.0070052539404553416 66:0.36363636363636365 67:0.9062367573252733 68:0.5949315416626957 69:0.002892681515765114 70:0.09375555160774561 71:0.08971785842128698 72:0.03571428571428571 73:0.03571428571428571 74:0.002892681515765114 75:0.001950141624098285 76:0.9049084719883455 77:0.40970372245539155 78:0.4026664039057045 79:0.5053579491295842 80:0.5202861470034713 81:0.3333333333333333 
140.7112331103067 0.0 53.73528963478205 0:0.6000000000000001 1:0.0 2:0.0 3:0.0 4:0.0 5:0.0 6:0.12366658397419995 7:0.1766294947919271 8:0.1561181434599156 9:0.11122244488977956 10:0.0 11:0.0 12:0.0 13:0.0 14:0.0390625 15:0.03006012024048096 16:0.013628436430602207 17:0.004101283880171184 18:0.023046092184368736 19:0.0 20:0.5314666566952028 21:0.25124269005847477 22:0.2683274257877444 23:0.5668789808917197 24:0.27473447988466915 25:0.2807280270564593 26:0.3969392625178974 27:0.0 28:0.0 29:0.0 30:1.0 31:0.0 32:0.0 33:0.0 34:1.0 35:0.0 36:0.0 37:0.0 38:0.0 39:0.0 40:0.0 41:0.0 42:1.0 43:1.0 44:1.0 45:0.12138728323699421 46:0.1758846894559461 47:0.022125802277599346 48:0.2772308496838429 49:1.209100726329723E-15 50:0.0 51:0.3285626678158254 52:0.18919482686691697 53:0.908817635270541 54:0.1651063829787234 55:0.7775551102204409 56:0.19230769230769232 57:1.0 58:0.019986803013012804 59:0.05285961871750433 60:1.0 61:1.0 62:0.0 63:0.02951115116017121 64:0.1312625250501002 65:0.20140105078809106 66:0.732484076433121 67:0.6381935332349652 68:0.36920010165507167 69:0.04512583164593578 70:0.1715333331648819 71:0.05565842243908748 72:0.031885047012435545 73:0.03571428571428571 74:0.04512583164593578 75:0.0017320648846335203 76:0.48233280073042695 77:0.5155561680522762 78:0.5672102289083558 79:0.18928033913610598 80:0.20312953495996278 81:0.0 
0.0 256.0 0.0 0:0.0 1:0.0 2:0.0 3:0.0 4:0.016666666666666666 5:0.2 6:0.022202927313321758 7:0.0317559578463036 8:0.0 9:0.0 10:0.0 11:0.0 12:0.0 13:0.0 14:0.015625 15:0.06666666666666667 16:0.02095552624602241 17:8.91583452211127E-4 18:0.027777777777777776 19:0.0 20:0.5836721085081231 21:0.25125507634827654 22:0.23441132970272605 23:0.65 24:0.06011932918862906 25:0.06143087929176752 26:0.6323276130397791 27:0.0 28:0.0 29:0.0 30:1.0 31:0.0 32:0.0 33:0.0 34:1.0 35:0.0 36:0.0 37:0.0 38:0.0 39:0.0 40:0.0 41:0.0 42:0.0 43:1.0 44:1.0 45:0.023121387283236993 46:0.03853213769860376 47:0.0221264460309387 48:0.21450960745857145 49:8.312567493516845E-16 50:0.0 51:0.3218085988000133 52:0.0310805173133083 53:0.8277777777777777 54:0.03 55:0.7833333333333333 56:0.19230769230769232 57:1.0 58:0.004671004938391909 59:0.07035175879396985 60:0.0 61:0.0 62:0.0 63:0.0018022077044379365 64:0.044444444444444446 65:0.008756567425569177 66:0.25 67:0.8327708653497597 68:0.34569713142094727 69:0.005496094879953717 70:0.021599471399477464 71:0.07995740425844432 72:0.047619047619047616 73:0.017857142857142856 74:0.005496094879953717 75:0.0021996186357342703 76:0.45162789732522673 77:0.3719385678932899 78:0.31482946276606444 79:0.671935985551598 80:0.7158226706404388 81:0.0 
0.0 1.0221567249209322 0.0 0:0.0 1:0.0 2:0.0 3:0.0 4:0.0 5:0.0 6:0.008310592904986355 7:0.011919972347636329 8:0.0 9:0.0 10:0.0 11:0.0 12:0.0 13:0.0 14:0.0 15:0.0 16:0.013628436430602277 17:1.783166904422254E-4 18:0.014705882352941176 19:0.0 20:0.46167257963869734 21:0.2512695648434817 22:0.2269635869485898 23:0.8181818181818182 24:0.02228904806955894 25:0.02277530105489693 26:0.9999999999999998 27:0.0 28:0.0 29:1.0 30:1.0 31:0.0 32:0.0 33:0.0 34:1.0 35:0.0 36:0.0 37:0.0 38:0.0 39:0.0 40:0.0 41:0.0 42:1.0 43:1.0 44:1.0 45:0.017341040462427744 46:0.030452575830524797 47:0.022128216352622347 48:0.107510534805719 49:0.10193994919841937 50:0.15617542373571586 51:0.2404680611263964 52:0.013975803087192323 53:0.9852941176470589 54:0.013829787234042552 55:0.9558823529411765 56:0.19230769230769232 57:1.0 58:0.0020836725243742167 59:0.01282051282051282 60:1.0 61:0.0 62:0.0 63:4.505519261094841E-4 64:0.029411764705882353 65:0.0035026269702276708 66:0.18181818181818182 67:0.8670690737913744 68:0.2873121763715492 69:0.002892681515765114 70:0.011749801648465492 71:0.057620318589851865 72:0.03084415584415584 73:0.03571428571428571 74:0.002892681515765114 75:0.0018033145302380135 76:0.37535224419497415 77:0.5155561680522762 78:0.5672102289083558 79:0.7290297496613657 80:0.776469595972459 81:0.0 
71.09301269629516 0.0 0.0 0:0.0 1:0.5098039215686274 2:0.0 3:0.0 4:0.0 5:0.0 6:0.049367402629620444 7:0.07054239377673337 8:0.08860759493670885 9:0.15789473684210525 10:0.0 11:0.0 12:0.0 13:0.0 14:0.045572916666666664 15:0.08771929824561403 16:0.017408010051696687 17:3.566333808844508E-4 18:0.005012531328320802 19:0.0 20:0.4384819229050161 21:0.24347436573890777 22:0.23612927077638815 23:0.5185185185185185 24:0.08755687705545795 25:0.08946699868659362 26:0.3969392625178974 27:0.0 28:0.0 29:0.0 30:1.0 31:0.0 32:0.0 33:0.0 34:1.0 35:0.0 36:0.0 37:0.0 38:0.0 39:0.0 40:0.0 41:0.0 42:1.0 43:1.0 44:1.0 45:0.034682080924855495 46:0.054691261434761676 47:0.02711259153942575 48:0.33975268712413764 49:4.051566653136946E-6 50:4.072423988225704E-6 51:0.23864819173268811 52:0.07071339173967459 53:0.849624060150376 54:0.05978723404255319 55:0.7042606516290727 56:0.19230769230769232 57:1.0 58:0.00633741268805344 59:0.05088495575221239 60:0.0 61:0.0 62:0.0 63:0.01306600585717504 64:0.14536340852130325 65:0.09106830122591944 66:0.9629629629629629 67:0.8078950593016546 68:0.37108230884081456 69:0.015331212033555103 70:0.05880933490330047 71:0.06385799034220337 72:0.03802910052910053 73:0.03571428571428571 74:0.015331212033555103 75:0.0019233404509424856 76:0.48479176609740415 77:0.5155555765854858 78:0.5672091895173514 79:0.08235714644057594 80:0.08955210693822872 81:0.0 
0.0 256.0 0.0 0:0.0 1:0.0 2:1.0 3:0.0 4:0.0 5:0.0 6:0.0 7:2.8843825558309757E-4 8:0.0 9:0.0 10:0.0 11:0.0 12:0.0 13:0.0 14:0.0 15:0.0 16:0.0017527741809125052 17:0.0 18:0.0 19:0.0 20:0.0 21:0.506578947368422 22:0.22456339516715468 23:0.0 24:0.019512771996215726 25:0.018797629816892657 26:0.20058444115833032 27:0.0 28:0.0 29:0.0 30:1.0 31:0.0 32:0.0 33:0.0 34:0.0 35:0.0 36:0.0 37:0.0 38:0.0 39:0.0 40:1.0 41:0.0 42:0.0 43:1.0 44:1.0 45:0.0 46:0.006846203763789747 47:0.044612106425302125 48:0.014798470765469971 49:8.06067150886482E-16 50:0.0 51:0.0 52:2.0859407592824363E-4 53:1.0 54:0.0 55:0.0 56:0.07692307692307693 57:1.0 58:0.03961109680654394 59:0.0 60:0.0 61:0.0 62:0.0 63:2.2527596305474206E-4 64:1.0 65:0.0017513134851138354 66:1.0 67:0.9234350030378377 68:0.013231042917500529 69:0.0 70:0.0019441036374133948 71:0.023529345302322383 72:0.0 73:0.0 74:0.0 75:1.0000000000000002 76:0.015474872374101759 77:0.48637319661775624 78:0.4881233418384615 79:0.14916219334771486 80:0.14976649421771154 81:0.0 
0.0 256.0 0.0 0:0.0 1:0.0 2:1.0 3:0.0 4:0.0 5:0.0 6:0.0 7:2.8843825558309757E-4 8:0.0 9:0.0 10:0.0 11:0.0 12:0.0 13:0.0 14:0.0 15:0.0 16:0.0017527741809125052 17:0.0 18:0.0 19:0.0 20:0.0 21:0.506578947368422 22:0.22456339516715468 23:0.0 24:0.019512771996215726 25:0.018797629816892657 26:0.21325414459066822 27:0.0 28:0.0 29:0.0 30:1.0 31:0.0 32:0.0 33:0.0 34:0.0 35:0.0 36:0.0 37:0.0 38:0.0 39:0.0 40:1.0 41:0.0 42:0.0 43:1.0 44:1.0 45:0.0 46:0.006846203763789747 47:0.044612106425302125 48:0.014798470765469971 49:8.06067150886482E-16 50:0.0 51:0.0 52:2.0859407592824363E-4 53:1.0 54:0.0 55:0.0 56:0.07692307692307693 57:1.0 58:0.03961109680654394 59:0.0 60:0.0 61:0.0 62:0.0 63:2.2527596305474206E-4 64:1.0 65:0.0017513134851138354 66:1.0 67:0.9234350030378377 68:0.013231042917500529 69:0.0 70:0.0019441036374133948 71:0.023529345302322383 72:0.0 73:0.0 74:0.0 75:1.0000000000000002 76:0.015474872374101759 77:0.5516415569298615 78:0.5908065204996538 79:0.14916219334771486 80:0.14976649421771154 81:0.0 
0.0 28.874043348136194 0.0 0:0.0 1:0.0 2:1.0 3:0.0 4:0.0 5:0.0 6:0.0 7:2.8843825558309757E-4 8:0.0 9:0.0 10:0.0 11:0.0 12:0.0 13:0.0 14:0.0 15:0.0 16:0.0017527741809125052 17:0.0 18:0.0 19:0.0 20:0.0 21:0.506578947368422 22:0.22456339516715468 23:0.0 24:0.019512771996215726 25:0.018797629816892657 26:0.18541423613949307 27:0.0 28:0.0 29:0.0 30:1.0 31:0.0 32:0.0 33:0.0 34:0.0 35:0.0 36:0.0 37:0.0 38:0.0 39:0.0 40:1.0 41:0.0 42:1.0 43:1.0 44:1.0 45:0.0 46:0.006846203763789747 47:0.044612106425302125 48:0.014798470765469971 49:8.06067150886482E-16 50:0.0 51:0.0 52:2.0859407592824363E-4 53:1.0 54:0.0 55:0.0 56:0.07692307692307693 57:1.0 58:0.03961109680654394 59:0.0 60:0.0 61:0.0 62:0.0 63:2.2527596305474206E-4 64:1.0 65:0.0017513134851138354 66:1.0 67:0.9234350030378377 68:0.013231042917500529 69:0.0 70:0.0019441036374133948 71:0.023529345302322383 72:0.0 73:0.0 74:0.0 75:1.0000000000000002 76:0.015474872374101759 77:0.62752970346221 78:0.7101972340304584 79:0.14916219334771486 80:0.14976649421771154 81:0.0 
0.0 16.13325490894753 0.0 0:0.0 1:0.0 2:0.0 3:0.0 4:0.0 5:0.0 6:7.442322004465392E-4 7:0.0027588951626945067 8:0.0 9:0.0 10:0.0 11:0.0 12:0.0 13:0.0 14:0.0 15:0.0 16:0.011418953484240659 17:0.0 18:0.0 19:0.0 20:0.0 21:0.486476608187135 22:0.22456339516715468 23:0.0 24:0.018738455647159532 25:0.01805169212574611 26:0.2587313205472122 27:1.0 28:0.0 29:0.0 30:1.0 31:0.0 32:0.0 33:0.0 34:0.0 35:0.0 36:1.0 37:0.0 38:0.0 39:0.0 40:0.0 41:0.0 42:0.0 43:1.0 44:1.0 45:0.0 46:0.006846203763789747 47:0.04284178474175836 48:0.06319106904294934 49:8.06067150886482E-16 50:0.0 51:0.0 52:0.0012515644555694619 53:0.8571428571428571 54:4.25531914893617E-4 55:0.2857142857142857 56:0.07692307692307693 57:1.0 58:0.008908258877915607 59:0.14285714285714285 60:0.0 61:0.0 62:0.0 63:9.011038522189682E-4 64:0.5714285714285714 65:0.0 66:0.0 67:0.924137024348652 68:0.056497982782172246 69:0.0 70:0.0019441036374133948 71:0.1004728466270839 72:0.03571428571428571 73:0.03571428571428571 74:0.0 75:1.0000000000000002 76:0.06607937699241305 77:0.3521794368289809 78:0.2770035627339096 79:0.1708849646315156 80:0.17152088163505894 81:0.0 
0.0 256.0 0.0 0:0.0 1:0.0 2:1.0 3:0.0 4:0.0 5:0.0 6:0.0 7:2.8843825558309757E-4 8:0.0 9:0.0 10:0.0 11:1.0 12:0.0 13:0.0 14:0.0013020833333333333 15:1.0 16:0.03926584469648465 17:0.0 18:0.0 19:0.0 20:0.0 21:0.486476608187135 22:0.22456339516715468 23:0.0 24:0.018738455647159532 25:0.01805169212574611 26:0.7677803125441208 27:0.0 28:0.0 29:0.0 30:1.0 31:0.0 32:0.0 33:0.0 34:0.0 35:0.0 36:0.0 37:0.0 38:0.0 39:0.0 40:0.0 41:1.0 42:0.0 43:1.0 44:1.0 45:0.0 46:0.006846203763789747 47:0.04284178474175836 48:0.009877490690997987 49:8.06067150886482E-16 50:0.0 51:0.0 52:0.0 53:0.0 54:0.0 55:0.0 56:0.07692307692307693 57:1.0 58:0.056990425950981666 59:0.0 60:0.0 61:1.0 62:0.0 63:0.0 64:0.0 65:0.0 66:0.0 67:0.924137024348652 68:0.008831284348295693 69:0.0 70:0.0019441036374133948 71:0.015705061210193605 72:0.0 73:0.0 74:0.0 75:1.0000000000000002 76:0.010328966434574547 77:0.45207048864620347 78:0.43415674800398474 79:0.2557718356494256 80:0.25653130017899134 81:0.0 
0.0 16.352897435481186 0.0 0:0.0 1:0.0 2:1.0 3:0.0 4:0.0 5:0.0 6:9.923096005953857E-4 7:0.002875066437418211 8:0.0 9:0.0 10:0.0 11:0.0 12:0.0 13:0.0 14:0.0 15:0.0 16:0.0017527741809125227 17:0.0 18:0.0 19:0.0 20:0.0 21:0.5065789473684215 22:0.22456339516715468 23:1.0 24:0.019512771996215705 25:0.01879765531121919 26:0.3578733699968086 27:1.0 28:0.0 29:1.0 30:1.0 31:0.0 32:0.0 33:0.0 34:0.0 35:0.0 36:0.0 37:0.0 38:0.0 39:0.0 40:1.0 41:0.0 42:0.0 43:1.0 44:1.0 45:0.0 46:0.005961403917910448 47:0.04461210642530208 48:0.07994371962138655 49:8.06067150886482E-16 50:0.0 51:0.0 52:0.0018773466833541927 53:1.0 54:0.001702127659574468 55:0.8888888888888888 56:0.11538461538461539 57:1.0 58:0.007332454142189113 59:0.0 60:0.0 61:0.0 62:0.0 63:2.2527596305474206E-4 64:0.1111111111111111 65:0.0017513134851138354 66:1.0 67:0.9234337266354544 68:0.07147622224340036 69:0.0 70:0.0013619577893124184 71:0.12710930835588347 72:0.047619047619047616 73:0.047619047619047616 74:0.0 75:1.0000000000000002 76:0.08349475652928996 77:0.44312041317504103 78:0.41986713658505526 79:0.11083379320724429 80:0.11138249762393093 81:0.0 
0.0 85.77013544681864 0.0 0:0.0 1:0.0 2:0.0 3:0.0 4:0.0 5:0.0 6:2.4807740014884643E-4 7:8.761524376268678E-4 8:0.0 9:0.0 10:0.0 11:0.0 12:0.0 13:0.0 14:0.0 15:0.0 16:0.010726484247978733 17:0.0 18:0.0 19:0.0 20:0.0 21:0.486476608187135 22:0.22456339516715468 23:1.0 24:0.018738455647159532 25:0.018051716608393033 26:0.3692138133725201 27:0.0 28:0.0 29:0.0 30:1.0 31:0.0 32:0.0 33:0.0 34:0.0 35:0.0 36:0.0 37:0.0 38:0.0 39:0.0 40:1.0 41:0.0 42:0.0 43:1.0 44:1.0 45:0.0 46:0.005961403917910448 47:0.04284178474175836 48:0.028637616895483317 49:8.06067150886482E-16 50:0.0 51:0.0 52:6.257822277847309E-4 53:1.0 54:2.127659574468085E-4 55:0.3333333333333333 56:0.11538461538461539 57:1.0 58:0.019656747412373363 59:0.0 60:0.0 61:0.0 62:0.0 63:4.505519261094841E-4 64:0.6666666666666666 65:0.0 66:0.0 67:0.9241357479462686 68:0.025604371168080266 69:0.0 70:0.0013619577893124184 71:0.045533378904374186 72:0.011904761904761904 73:0.011904761904761904 74:0.0 75:1.0000000000000002 76:0.0299096772278256 77:0.4835796989670624 78:0.48344112058720856 79:0.33247754979180255 80:0.33334914386148307 81:0.0 
0.0 48.575680035024995 0.0 0:0.0 1:0.0 2:0.0 3:0.0 4:0.0 5:0.0 6:0.005085586703051352 7:0.04105824327264815 8:0.0 9:0.0 10:0.0 11:0.0 12:0.0 13:0.0 14:0.0013020833333333333 15:0.023809523809523808 16:0.010295696790838978 17:0.0 18:0.0 19:0.0 20:0.5637942403658373 21:0.32768205235310405 22:0.22821190996662896 23:0.5333333333333333 24:0.08379088390323008 25:0.08072006141109894 26:0.3351371635466535 27:0.0 28:0.0 29:0.0 30:1.0 31:0.0 32:0.0 33:0.0 34:0.0 35:0.0 36:0.0 37:0.0 38:0.0 39:0.0 40:0.0 41:0.0 42:1.0 43:1.0 44:1.0 45:0.023121387283236993 46:0.12336753731343283 47:0.028860749715139068 48:0.06920603450726241 49:8.06067150886482E-16 50:0.0 51:0.04865415851758538 52:0.0070921985815602835 53:0.8095238095238095 54:0.0014893617021276596 55:0.16666666666666666 56:0.15384615384615385 57:1.0 58:0.023656819319145067 59:0.08928571428571429 60:0.0 61:0.0 62:0.0 63:0.006082451002478036 64:0.6428571428571429 65:0.017513134851138354 66:0.6666666666666666 67:0.8651570230211935 68:0.09513326344547149 69:0.00404975412207116 70:0.06760421347433981 71:0.03268291029472412 72:0.010714285714285711 73:0.011904761904761904 74:0.00404975412207116 75:9.053650636677788E-4 76:0.11126530051142569 77:0.6018718740980131 78:0.6698257066214444 79:0.768935935383535 80:0.7704433601160846 81:0.0 
0.0 256.0 0.0 0:0.0 1:0.0 2:1.0 3:0.0 4:0.0 5:0.0 6:1.2403870007442322E-4 7:8.993164035412869E-4 8:0.0 9:0.0 10:0.0 11:1.0 12:0.0 13:0.0 14:0.0026041666666666665 15:1.0 16:0.010726484247978733 17:0.0 18:0.0 19:0.0 20:0.0 21:0.486476608187135 22:0.22456339516715468 23:0.0 24:0.018738455647159532 25:0.018051716608393033 26:0.24051471406835626 27:0.0 28:0.0 29:0.0 30:1.0 31:0.0 32:0.0 33:0.0 34:0.0 35:0.0 36:0.0 37:0.0 38:0.0 39:0.0 40:1.0 41:1.0 42:0.0 43:1.0 44:1.0 45:0.0 46:0.004062527598692926 47:0.04284178474175836 48:0.019754981381995922 49:8.06067150886482E-16 50:0.0 51:0.0 52:0.0 53:0.0 54:0.0 55:0.0 56:0.19230769230769232 57:1.0 58:0.028495212975490906 59:0.0 60:0.0 61:1.0 62:0.0 63:0.0 64:0.0 65:0.0 66:0.0 67:0.9241357479462686 68:0.01766256869659134 69:0.0 70:0.0021690281505524 71:0.031410122420387133 72:0.005952380952380952 73:0.005952380952380952 74:0.0 75:1.0000000000000002 76:0.020633094593090092 77:0.4705857650504639 78:0.4630299631527738 79:0.16014899914714292 80:0.16076954573966448 81:0.0 
0.0 256.0 0.0 0:0.0 1:0.0 2:1.0 3:0.0 4:0.0 5:0.0 6:1.2403870007442322E-4 7:8.993164035412869E-4 8:0.0 9:0.0 10:0.0 11:1.0 12:0.0 13:0.0 14:0.0026041666666666665 15:1.0 16:0.002431665589012439 17:0.0 18:0.0 19:0.0 20:0.0 21:0.486476608187135 22:0.22456339516715468 23:0.0 24:0.018738455647159532 25:0.018051716608393033 26:0.24051471406835626 27:0.0 28:0.0 29:0.0 30:1.0 31:0.0 32:0.0 33:0.0 34:0.0 35:0.0 36:0.0 37:0.0 38:0.0 39:0.0 40:1.0 41:1.0 42:0.0 43:1.0 44:1.0 45:0.0 46:0.004062527598692926 47:0.04284178474175836 48:0.019754981381995922 49:8.06067150886482E-16 50:0.0 51:0.0 52:0.0 53:0.0 54:0.0 55:0.0 56:0.19230769230769232 57:1.0 58:0.028495212975490906 59:0.0 60:0.0 61:1.0 62:0.0 63:0.0 64:0.0 65:0.0 66:0.0 67:0.9241357479462686 68:0.01766256869659134 69:0.0 70:0.0021690281505524 71:0.031410122420387133 72:0.005952380952380952 73:0.005952380952380952 74:0.0 75:1.0000000000000002 76:0.020633094593090092 77:0.4705857650504639 78:0.4630299631527738 79:0.2043972307229218 80:0.2050822379452362 81:0.0 
0.0 122.96587243242449 0.0 0:0.0 1:0.0 2:1.0 3:0.0 4:0.0 5:0.0 6:1.2403870007442322E-4 7:8.993164035412869E-4 8:0.0 9:0.0 10:0.0 11:1.0 12:0.0 13:0.0 14:0.0026041666666666665 15:1.0 16:0.002431665589012439 17:0.0 18:0.0 19:0.0 20:0.0 21:0.486476608187135 22:0.22456339516715468 23:0.0 24:0.018738455647159532 25:0.018051716608393033 26:0.254616469365792 27:0.0 28:0.0 29:0.0 30:1.0 31:0.0 32:0.0 33:0.0 34:0.0 35:0.0 36:0.0 37:0.0 38:0.0 39:0.0 40:1.0 41:1.0 42:0.0 43:1.0 44:1.0 45:0.0 46:0.004062527598692926 47:0.04284178474175836 48:0.019754981381995922 49:8.06067150886482E-16 50:0.0 51:0.0 52:0.0 53:0.0 54:0.0 55:0.0 56:0.19230769230769232 57:1.0 58:0.028495212975490906 59:0.0 60:0.0 61:1.0 62:0.0 63:0.0 64:0.0 65:0.0 66:0.0 67:0.9241357479462686 68:0.01766256869659134 69:0.0 70:0.0021690281505524 71:0.031410122420387133 72:0.005952380952380952 73:0.005952380952380952 74:0.0 75:1.0000000000000002 76:0.020633094593090092 77:0.4705857650504639 78:0.4630299631527738 79:0.2235614307931571 80:0.22427435633812554 81:0.0 
0.0 0.0 1.7661599376767632 0:0.0 1:0.0 2:1.0 3:0.0 4:0.0 5:0.0 6:2.4807740014884643E-4 7:0.0014106268864463325 8:0.0 9:0.0 10:0.0 11:0.0 12:0.0 13:0.0 14:0.0 15:0.0 16:0.0018021481015016506 17:0.0 18:0.0 19:0.0 20:0.0 21:0.5065789473684199 22:0.22456339516715468 23:1.0 24:0.019512771996215646 25:0.01879765531121913 26:0.40813263071956046 27:0.0 28:0.0 29:1.0 30:1.0 31:0.0 32:0.0 33:0.0 34:0.0 35:0.0 36:0.0 37:0.0 38:0.0 39:0.0 40:1.0 41:0.0 42:0.0 43:1.0 44:1.0 45:0.0 46:0.004062527598692926 47:0.04461210642530194 48:0.030591796708450636 49:8.06067150886482E-16 50:0.0 51:0.0 52:6.257822277847309E-4 53:1.0 54:4.25531914893617E-4 55:0.6666666666666666 56:0.19230769230769232 57:1.0 58:0.01916146552836867 59:0.0 60:0.0 61:0.0 62:0.0 63:2.2527596305474206E-4 64:0.3333333333333333 65:0.0017513134851138354 66:1.0 67:0.9234337266354545 68:0.02735156771180791 69:0.0 70:0.0021690281505524 71:0.04864049533085148 72:0.011904761904761904 73:0.011904761904761904 74:0.0 75:1.0000000000000002 76:0.03195160871340043 77:0.4783044066641746 78:0.4751586835901237 79:0.5841431294837707 80:0.5853813488667441 81:0.0 
0.0 6.336205093663362 0.0 0:0.0 1:0.0 2:1.0 3:0.0 4:0.0 5:0.0 6:0.0 7:3.8800592063624147E-4 8:0.0 9:0.0 10:0.0 11:0.0 12:0.0 13:0.0 14:0.0 15:0.0 16:0.0018021481015016506 17:0.0 18:0.0 19:0.0 20:0.0 21:0.5065789473684199 22:0.22456339516715468 23:0.0 24:0.019512771996215646 25:0.01879765531121913 26:0.2225739414406057 27:0.0 28:0.0 29:0.0 30:1.0 31:0.0 32:0.0 33:0.0 34:0.0 35:0.0 36:0.0 37:0.0 38:0.0 39:0.0 40:1.0 41:0.0 42:1.0 43:1.0 44:1.0 45:0.0 46:0.004062527598692926 47:0.04461210642530194 48:0.014798470765469971 49:8.06067150886482E-16 50:0.0 51:0.0 52:2.0859407592824363E-4 53:1.0 54:0.0 55:0.0 56:0.19230769230769232 57:1.0 58:0.03961109680654378 59:0.0 60:0.0 61:0.0 62:0.0 63:2.2527596305474206E-4 64:1.0 65:0.0017513134851138354 66:1.0 67:0.9234337266354545 68:0.013231042917500529 69:0.0 70:0.0021690281505524 71:0.023529345302322383 72:0.0 73:0.0 74:0.0 75:1.0000000000000002 76:0.015456266003636738 77:0.6171151562182087 78:0.6932795472469232 79:0.5841431294837707 80:0.5853813488667441 81:0.0 
0.0 15.121804621758757 0.0 0:0.0 1:0.0 2:1.0 3:0.0 4:0.0 5:0.0 6:1.2403870007442322E-4 7:8.993164035412869E-4 8:0.0 9:0.0 10:0.0 11:1.0 12:0.0 13:0.0 14:0.0026041666666666665 15:1.0 16:0.004929985970820181 17:0.0 18:0.0 19:0.0 20:0.0 21:0.48647660818713295 22:0.22456339516715468 23:0.0 24:0.018738455647159452 25:0.018051716608392956 26:0.23803020744424241 27:0.0 28:0.0 29:0.0 30:1.0 31:0.0 32:0.0 33:0.0 34:0.0 35:0.0 36:0.0 37:0.0 38:0.0 39:0.0 40:0.0 41:1.0 42:1.0 43:1.0 44:1.0 45:0.0 46:0.004062527598692926 47:0.04284178474175817 48:0.019754981381995974 49:8.06067150886482E-16 50:0.0 51:0.0 52:0.0 53:0.0 54:0.0 55:0.0 56:0.19230769230769232 57:1.0 58:0.02849521297549071 59:0.0 60:0.0 61:1.0 62:0.0 63:0.0 64:0.0 65:0.0 66:0.0 67:0.9241357479462686 68:0.017662568696591385 69:0.0 70:0.0021690281505524 71:0.03141012242038721 72:0.005952380952380952 73:0.005952380952380952 74:0.0 75:1.0000000000000002 76:0.020633094593090148 77:0.6171151562182087 78:0.6932795472469232 79:0.8647356143079318 80:0.8663825995927906 81:0.0 
126.7508587499338 0.0 0.0 0:0.0 1:0.0 2:0.0 3:0.0 4:0.0 5:0.0 6:0.006077896303646738 7:0.014724131669356327 8:0.0 9:0.0 10:0.0 11:0.0 12:0.0 13:0.0 14:0.0013020833333333333 15:0.02 16:0.0135161107612621 17:1.783166904422254E-4 18:0.02 19:0.0 20:0.3221591275780686 21:0.41466812865497044 22:0.22725996674234455 23:0.4 24:0.035062452133171114 25:0.03591923976110565 26:0.6184625003005745 27:0.0 28:1.0 29:1.0 30:1.0 31:0.0 32:0.0 33:0.0 34:0.0 35:0.0 36:1.0 37:0.0 38:0.0 39:0.0 40:0.0 41:0.0 42:0.0 43:1.0 44:1.0 45:0.005780346820809248 46:0.02849389416553596 47:0.036518517564809824 48:0.2485343651402746 49:0.01999448142858995 50:0.022968471293483304 51:0.1312493784599065 52:0.009386733416770963 53:0.9 54:0.007872340425531916 55:0.74 56:0.0 57:1.0 58:0.0032025900230522176 59:0.037037037037037035 60:1.0 61:1.0 62:0.0 63:0.0018022077044379365 64:0.16 65:0.005253940455341506 66:0.6 67:0.8532188315302023 68:0.29405794339083197 69:0.0011570726063060456 70:0.008455098596553563 71:0.15416833791868395 72:0.05357142857142857 73:0.047619047619047616 74:0.0011570726063060456 75:0.0025409048848695913 76:0.3709753047827446 77:0.3653443046479826 78:0.30142986689773654 79:0.5849307680730448 80:0.6250714849704614 81:0.0 
23.92381201363211 8.901618468287982 0.0 0:0.0 1:0.0 2:0.0 3:0.0 4:0.0 5:0.0 6:0.023319275613991566 7:0.06397411983999257 8:0.004219409282700422 9:0.015873015873015872 10:0.0 11:0.0 12:0.0 13:0.0 14:0.03255208333333333 15:0.13227513227513227 16:0.0070073936796059095 17:0.0 18:0.0 19:0.0 20:0.25747074023185945 21:0.30149853801169685 22:0.2288853341986595 23:0.6216216216216216 24:0.027016601342523764 25:0.028009896148821732 26:0.9999999999999998 27:0.0 28:0.0 29:1.0 30:1.0 31:0.0 32:0.0 33:1.0 34:0.0 35:0.0 36:0.0 37:0.0 38:0.0 39:0.0 40:0.0 41:0.0 42:0.0 43:1.0 44:1.0 45:0.005780346820809248 46:0.008305553451019016 47:0.026551606486458632 48:0.8325028069128224 49:8.06067150886482E-16 50:0.0 51:0.04385421155567333 52:0.033583646224447226 53:0.8518518518518519 54:0.03234042553191489 55:0.8042328042328042 56:0.11538461538461539 57:1.0 58:9.481323415751435E-4 59:0.008888888888888889 60:0.0 61:0.0 62:0.0 63:0.0020274836674926784 64:0.047619047619047616 65:0.01576182136602452 66:0.24324324324324326 67:0.8499882570980736 68:0.7653387972934336 69:0.01041365345675441 70:0.06418985523573481 71:0.06354114165687327 72:0.02445302445302445 73:0.023809523809523808 74:0.01041365345675441 75:0.0015054334077671044 76:0.999850595749449 77:0.3688534771149669 78:0.3094075101854026 79:0.08491822605729193 80:0.09402254030991786 81:0.8333333333333333 
0.0 29.101287628100504 0.0 0:0.0 1:0.0 2:0.0 3:0.0 4:0.375 5:1.0 6:3.7211610022326965E-4 7:0.0012332546843399027 8:0.0 9:0.0 10:0.0 11:0.0 12:0.0 13:0.0 14:0.0026041666666666665 15:0.5 16:0.0066247457950404445 17:0.0 18:0.0 19:0.0 20:0.21100544582622166 21:0.25786732456140377 22:0.22459794916257583 23:0.0 24:0.010322340856872543 25:0.010701852973588367 26:0.22368098872412906 27:0.0 28:0.0 29:0.0 30:1.0 31:0.0 32:0.0 33:0.0 34:0.0 35:0.0 36:0.0 37:0.0 38:0.0 39:0.0 40:0.0 41:0.0 42:1.0 43:1.0 44:1.0 45:0.0 46:0.0032199409046139854 47:0.02359999742498662 48:0.02185661294448708 49:8.06067150886482E-16 50:0.0 51:0.0 52:2.0859407592824363E-4 53:0.25 54:2.127659574468085E-4 55:0.25 56:0.11538461538461539 57:1.0 58:0.014187637101111056 59:0.2 60:0.0 61:0.0 62:0.0 63:0.0 64:0.0 65:0.0 66:0.0 67:0.8651238365592275 68:0.019541599161345652 69:2.892681515765114E-4 70:0.0031966428209316737 71:0.013709445069006222 72:0.005952380952380952 73:0.011904761904761904 74:2.892681515765114E-4 75:0.0012053992357174415 76:0.025529451312889848 77:0.5858407582131078 78:0.6907184472625544 79:0.4797233231324939 80:0.5195337848481197 81:0.0 
0.0 0.0 51.863121725944076 0:0.0 1:0.0 2:0.0 3:0.0 4:0.01485148514851485 5:0.0 6:0.07504341354502604 7:0.20539542129895022 8:0.004219409282700422 9:0.0049504950495049506 10:0.0 11:0.0 12:0.0 13:0.0 14:0.07161458333333333 15:0.09075907590759076 16:0.009679757131490253 17:0.001783166904422254 18:0.0165016501650165 19:0.0 20:0.5521098927850464 21:0.23410033437554592 22:0.25215531416829917 23:0.6016260162601627 24:0.08053734738928671 25:0.08349839078110961 26:0.9999999999999998 27:0.0 28:0.0 29:0.0 30:1.0 31:0.0 32:0.0 33:0.0 34:0.0 35:0.0 36:0.0 37:1.0 38:1.0 39:0.0 40:0.0 41:0.0 42:0.0 43:1.0 44:1.0 45:0.034682080924855495 46:0.03373361618304418 47:0.0206286159395166 48:0.5590243516183654 49:2.5322291584121084E-6 50:2.0362119940983843E-6 51:0.7674130672589253 52:0.10763454317897371 53:0.8514851485148515 54:0.10319148936170212 55:0.8003300330033003 56:0.11538461538461539 57:1.0 58:0.002830065923205938 59:0.03296703296703297 60:1.0 61:0.0 62:1.0 63:0.006983554854697004 64:0.05115511551155116 65:0.04553415061295972 66:0.21138211382113822 67:0.8014645440945968 68:0.7643508370659805 69:0.03529071449233439 70:0.21405889145496534 71:0.04428520453621545 72:0.023373983739837397 73:0.023809523809523808 74:0.03529071449233439 75:0.0014431774285131793 76:0.9985599090294119 77:0.3688528856481766 78:0.3094064708030253 79:0.8032922791351027 80:0.8682684647764571 81:0.38095238095238093 
0.0 24.26621666780792 0.0 0:0.0 1:0.0 2:0.0 3:0.0 4:0.09090909090909091 5:0.5 6:0.003969238402381543 7:0.008594093496514838 8:0.0 9:0.0 10:0.0 11:0.0 12:0.0 13:0.0 14:0.0026041666666666665 15:0.06060606060606061 16:0.006997518895488081 17:0.0 18:0.0 19:0.0 20:0.5019501709579491 21:0.26798799397483614 22:0.2261460395812545 23:0.6 24:0.02293384241113663 25:0.023340282404521902 26:0.4049995746543806 27:0.0 28:0.0 29:1.0 30:1.0 31:0.0 32:0.0 33:0.0 34:0.0 35:0.0 36:1.0 37:0.0 38:0.0 39:0.0 40:0.0 41:0.0 42:0.0 43:1.0 44:1.0 45:0.005780346820809248 46:0.015407874420998455 47:0.023601606808335306 48:0.11172756601574714 49:0.07747861553578371 50:0.0890028262622478 51:0.07250306626446114 52:0.005840634125990822 53:0.8484848484848485 54:0.005319148936170213 55:0.7575757575757576 56:0.19230769230769232 57:1.0 58:0.0036373843326649056 59:0.05405405405405406 60:1.0 61:0.0 62:0.0 63:6.758278891642261E-4 64:0.09090909090909091 65:0.005253940455341506 66:0.6 67:0.8700533025635265 68:0.1693478191810413 69:0.0011570726063060456 70:0.006648131124016234 71:0.06659454390355508 72:0.033333333333333326 73:0.041666666666666664 74:0.0011570726063060456 75:0.002032565034568501 76:0.22121706943092903 77:0.37284351208248356 78:0.31641275360386123 79:0.1298198966537902 80:0.13929841491106734 81:0.0 
0.0 41.126663120923034 0.0 0:0.0 1:0.0 2:0.0 3:0.0 4:0.0 5:0.0 6:2.4807740014884643E-4 7:6.691861703478908E-4 8:0.0 9:0.0 10:0.0 11:0.0 12:0.0 13:0.0 14:0.0026041666666666665 15:0.6666666666666666 16:0.005644673471347162 17:0.0 18:0.0 19:0.0 20:0.0 21:0.2679824561403509 22:0.22456339516715468 23:0.0 24:0.010322340856872543 25:0.01050527627930967 26:0.4592259539672296 27:0.0 28:0.0 29:0.0 30:1.0 31:0.0 32:0.0 33:0.0 34:0.0 35:0.0 36:1.0 37:0.0 38:0.0 39:0.0 40:0.0 41:0.0 42:0.0 43:1.0 44:1.0 45:0.0 46:0.006771101389603705 47:0.02359999742498662 48:0.021380503680964166 49:8.06067150886482E-16 50:0.0 51:0.0 52:0.0 53:0.0 54:0.0 55:0.0 56:0.19230769230769232 57:1.0 58:0.014503572850433669 59:0.0 60:0.0 61:1.0 62:0.0 63:0.0 64:0.0 65:0.0 66:0.0 67:0.8814873151131147 68:0.019115918548873855 69:0.0 70:0.0010986793425861567 71:0.03399467835695684 72:0.011904761904761904 73:0.011904761904761904 74:0.0 75:1.0000000000000002 76:0.024970900135073176 77:0.3688528856481766 78:0.3094007245719206 79:0.16828751316911655 80:0.17999632110872177 81:0.0 
0.0 21.289692405102524 0.0 0:0.0 1:0.0 2:0.0 3:0.0 4:0.008595988538681949 5:0.0 6:0.12974448027784669 7:0.21056665517147274 8:0.012658227848101264 9:0.008595988538681949 10:0.0 11:0.0 12:0.0 13:0.0 14:0.014322916666666666 15:0.010506208213944603 16:0.017412947443755617 17:0.0012482168330955777 18:0.0066857688634192934 19:0.0 20:0.3705843661690304 21:0.33952918949714833 22:0.2692336586702264 23:0.7371134020618557 24:0.39961622066044955 25:0.4070955491112277 26:0.632260487428365 27:0.0 28:0.0 29:0.0 30:1.0 31:0.0 32:0.0 33:0.0 34:1.0 35:0.0 36:0.0 37:1.0 38:1.0 39:0.0 40:0.0 41:0.0 42:0.0 43:1.0 44:1.0 45:0.1329479768786127 46:0.218728604683007 47:0.029832066212176822 48:0.38908104990383074 49:0.0011806729466520287 50:0.016275442468866336 51:0.3127225113534657 52:0.2108886107634543 53:0.9656160458452722 54:0.21106382978723404 55:0.9474689589302769 56:0.3076923076923077 57:1.0 58:0.02888770780170472 59:0.017741935483870968 60:0.0 61:0.0 62:0.0 63:0.004280243298040099 64:0.018147086914995225 65:0.028021015761821366 66:0.08247422680412371 67:0.5276711272675288 68:0.3715540519076209 69:0.0558287532542667 70:0.2222526060978452 71:0.06758182068403036 72:0.026172066764850274 73:0.023809523809523808 74:0.0558287532542667 75:0.0015425370780856843 76:0.4853597201415891 77:0.3688534771149669 78:0.3094021306066321 79:0.5342610244318468 80:0.5677690423473213 81:0.0 
56.419698513440885 69.42297074808403 0.0 0:0.0 1:0.0392156862745098 2:0.0 3:0.0 4:0.0 5:0.0 6:0.006946167204167701 7:0.03288597648002959 8:0.0 9:0.0 10:0.0 11:0.0 12:0.0 13:0.0 14:0.016927083333333332 15:0.22807017543859648 16:0.008766339600592027 17:3.566333808844508E-4 18:0.03508771929824561 19:0.0 20:0.5724084336301362 21:0.21917769570124127 22:0.2272376614818098 23:0.2631578947368421 24:0.02091498851196107 25:0.021323993799161733 26:0.9999999999999998 27:0.0 28:0.0 29:0.0 30:1.0 31:0.0 32:0.0 33:0.0 34:0.0 35:0.0 36:1.0 37:0.0 38:1.0 39:0.0 40:0.0 41:0.0 42:0.0 43:1.0 44:1.0 45:0.005780346820809248 46:0.01378847947761194 47:0.02299004113583834 48:0.19836612802364917 49:8.06067150886482E-16 50:0.0 51:0.2041021646169655 52:0.0070921985815602835 53:0.5964912280701754 54:0.005957446808510639 55:0.49122807017543857 56:0.23076923076923078 57:1.0 58:0.002041620027674957 59:0.02666666666666667 60:0.0 61:1.0 62:0.0 63:0.0013516557783284523 64:0.10526315789473684 65:0.0017513134851138354 66:0.05263157894736842 67:0.8702817785901369 68:0.2751532767876997 69:0.005206826728377205 70:0.04391011869595574 71:0.027270521612001736 72:0.011904761904761904 73:0.005952380952380952 74:0.005206826728377205 75:9.602534673665001E-4 76:0.3594638058578795 77:0.3688534771149669 78:0.3094073879113395 79:0.8709125570661718 80:0.9250709963555788 81:0.0 
144.40954648941565 0.0 0.0 0:0.0 1:0.0 2:0.0 3:0.0 4:0.0 5:0.0 6:0.042421235425452744 7:0.1072451753954333 8:0.004219409282700422 9:0.008746355685131196 10:0.0 11:0.0 12:0.0 13:0.0 14:0.0013020833333333333 15:0.0029154518950437317 16:0.012292871878667394 17:3.566333808844508E-4 18:0.0058309037900874635 19:0.0 20:0.26252257803880813 21:0.3453130061548406 22:0.23345352305587097 23:0.746031746031746 24:0.10933206063882507 25:0.11104311233572457 26:0.6190328163763001 27:0.0 28:1.0 29:0.0 30:1.0 31:0.0 32:0.0 33:0.0 34:0.0 35:0.0 36:0.0 37:0.0 38:1.0 39:0.0 40:0.0 41:0.0 42:0.0 43:1.0 44:1.0 45:0.034682080924855495 46:0.10602755453501722 47:0.030432519475837583 48:0.42669414700304953 49:8.06067150886482E-16 50:0.0 51:7.292737096824796E-5 52:0.07050479766374634 53:0.9854227405247813 54:0.06893617021276596 55:0.9446064139941691 56:0.0 57:1.0 58:0.0076968319738356635 59:0.009876543209876543 60:0.0 61:0.0 62:0.0 63:0.0031538634827663887 64:0.04081632653061224 65:0.01576182136602452 66:0.14285714285714285 67:0.793539361696696 68:0.38152895581181095 69:0.01793462539774371 70:0.1114456906294531 71:0.06505319894449504 72:0.026455026455026454 73:0.023809523809523808 74:0.01793462539774371 75:0.0015648251080289037 76:0.48173269183330886 77:0.3653283350446439 78:0.30144576071975715 79:0.8084156925701099 80:0.8554369683197781 81:0.0 
14.85961831948532 0.0 0.0 0:0.2 1:0.0 2:0.0 3:0.0 4:0.0 5:0.0 6:0.009799057305879435 7:0.01365724389880276 8:0.0 9:0.0 10:0.0 11:0.0 12:0.0 13:0.0 14:0.0 15:0.0 16:0.021880052909053056 17:3.566333808844508E-4 18:0.025 19:0.0 20:0.3580401686023133 21:0.3455409356725145 22:0.22781415361093413 23:0.5714285714285714 24:0.02931280127945218 25:0.02982652169553196 26:0.61962605190467 27:0.0 28:0.0 29:0.0 30:1.0 31:0.0 32:0.0 33:0.0 34:1.0 35:0.0 36:0.0 37:0.0 38:0.0 39:0.0 40:0.0 41:0.0 42:0.0 43:1.0 44:1.0 45:0.005780346820809248 46:0.014164179104477611 47:0.030430220356768102 48:0.32149633324806004 49:8.06067150886482E-16 50:0.0 51:0.19635694633208473 52:0.016270337922403004 53:0.975 54:0.015319148936170212 55:0.9 56:0.11538461538461539 57:1.0 58:0.002063573717947422 59:0.021505376344086023 60:0.0 61:0.0 62:0.0 63:0.0013516557783284523 64:0.075 65:0.010507880910683012 66:0.42857142857142855 67:0.8644422376865463 68:0.3815305441723053 69:0.0037604859704946482 70:0.01279920571539574 71:0.06786305444878545 72:0.028061224489795915 73:0.02976190476190476 74:0.0037604859704946482 75:0.0016870439312068985 76:0.4821979186741183 77:0.3653283350446439 78:0.3014947660972307 79:0.06501279285606784 80:0.07071493565393759 81:0.0 
2.866289963734166 0.0 0.0 0:0.0 1:0.0196078431372549 2:0.0 3:0.0 4:0.0 5:0.0 6:0.051352021830811216 7:0.11969516293003535 8:0.004219409282700422 9:0.0072289156626506035 10:0.0 11:0.0 12:0.0 13:0.0 14:0.01953125 15:0.03614457831325301 16:0.017426525271917577 17:0.001783166904422254 18:0.024096385542168676 19:0.0 20:0.3754573952246344 21:0.339925755654199 22:0.2432606838658803 23:0.6538461538461539 24:0.16509973194575855 25:0.1674493850817536 26:0.6322651860335796 27:0.0 28:1.0 29:0.0 30:1.0 31:0.0 32:0.0 33:0.0 34:0.0 35:0.0 36:0.0 37:0.0 38:0.0 39:0.0 40:0.0 41:0.0 42:0.0 43:1.0 44:1.0 45:0.05202312138728324 46:0.13537620118585156 47:0.03065424651890385 48:0.38374228987237435 49:2.8360966573117347E-6 50:2.0362119940983843E-6 51:0.29564590446514405 52:0.0784313725490196 53:0.9060240963855422 54:0.07510638297872341 55:0.8506024096385543 56:0.0 57:1.0 58:0.011935292092985059 59:0.03048780487804878 60:0.0 61:0.0 62:0.0 63:0.0051813471502590676 64:0.05542168674698795 65:0.021015761821366025 66:0.15384615384615385 67:0.7442268320203407 68:0.37153975666317224 69:0.02227364767139138 70:0.12996593629875813 71:0.06914025726344594 72:0.025717338217338216 73:0.023809523809523808 74:0.022273647671391377 75:0.0015351376235116284 76:0.4853430603623567 77:0.3688528856481766 78:0.3094013358198302 79:0.642927557317012 80:0.6797218333760844 81:0.0 
23.819014639010724 0.0 0.0 0:0.0 1:0.0784313725490196 2:0.16666666666666666 3:0.0 4:0.0 5:0.0 6:0.013768295708260976 7:0.06557394476968081 8:0.016877637130801686 9:0.10714285714285714 10:0.0 11:0.0 12:0.1111111111111111 13:0.0 14:0.010416666666666666 15:0.07142857142857142 16:0.018981803770473815 17:1.783166904422254E-4 18:0.008928571428571428 19:0.0 20:0.5102219530105231 21:0.34702674655388627 22:0.2339838751482815 23:0.37037037037037035 24:0.03526940577555513 25:0.04039231430289706 26:0.9999999999999998 27:0.0 28:1.0 29:0.0 30:1.0 31:0.0 32:0.0 33:0.0 34:0.0 35:0.0 36:0.0 37:0.0 38:0.0 39:0.0 40:0.0 41:0.0 42:1.0 43:1.0 44:1.0 45:0.005780346820809248 46:0.05706760316066725 47:0.04688616509698132 48:0.5981158153548791 49:1.7725604111504475E-6 50:2.036211994112852E-6 51:0.2297162462293235 52:0.019816437213183144 53:0.8482142857142857 54:0.02 55:0.8392857142857143 56:0.0 57:1.0 58:0.0014690638833915538 59:0.036231884057971016 60:0.0 61:0.0 62:0.0 63:2.2527596305474206E-4 64:0.008928571428571428 65:0.0017513134851138354 66:0.037037037037037035 67:0.7596700244558697 68:0.6448362400330379 69:0.0075209719409892965 70:0.08517902037594645 71:0.05573989020685027 72:0.018738977072310405 73:0.011904761904761904 74:0.0075209719409892965 75:0.001285696475021976 76:0.9987822009442248 77:0.39249263032379256 78:0.3695956152736502 79:0.7752533487182062 80:0.9286002745871823 81:0.0 
0.0 22.738511252018142 0.0 0:0.0 1:0.0 2:0.0 3:0.0 4:0.0 5:0.0 6:2.4807740014884643E-4 7:0.0016364431876941326 8:0.0 9:0.0 10:0.0 11:0.0 12:0.0 13:0.0 14:0.0026041666666666665 15:0.6666666666666666 16:0.021412235011471593 17:1.783166904422254E-4 18:0.3333333333333333 19:0.0 20:0.0 21:0.373209064327482 22:0.22456335809315867 23:0.0 24:0.014375534982204662 25:0.016463592581306058 26:0.01987595671031883 27:0.0 28:1.0 29:1.0 30:1.0 31:0.0 32:0.0 33:0.0 34:0.0 35:0.0 36:0.0 37:0.0 38:1.0 39:0.0 40:0.0 41:0.0 42:1.0 43:1.0 44:1.0 45:0.0 46:0.027600965759438104 47:0.03286682674666342 48:0.022121315482789006 49:8.06067150886482E-16 50:0.0 51:0.0 52:0.0 53:0.0 54:0.0 55:0.0 56:0.0 57:1.0 58:0.019522157095165516 59:0.3333333333333333 60:1.0 61:1.0 62:0.0 63:0.0 64:0.0 65:0.0 66:0.0 67:0.7786131122264033 68:0.019778264874996024 69:0.0 70:0.0028767869149589264 71:0.035172557947721346 72:0.011904761904761904 73:0.011904761904761904 74:0.0 75:1.0000000000000002 76:0.030634411803056056 77:0.6231836054869191 78:0.8502308068866318 79:0.8284302413083833 80:0.9919100912743264 81:0.0 
31.838562038483975 0.0 0.0 0:0.0 1:0.0392156862745098 2:0.0 3:0.0 4:0.0 5:0.0 6:0.01041925080625155 7:0.0660842350699686 8:0.004219409282700422 9:0.03529411764705882 10:0.0 11:0.0 12:0.0 13:0.0 14:0.006510416666666666 15:0.058823529411764705 16:0.016601980798079865 17:0.0 18:0.0 19:0.0 20:0.6632001518344016 21:0.3642393360853119 22:0.23874783546888798 23:0.45 24:0.04080647159526062 25:0.046410083565370415 26:0.9999999999999998 27:0.0 28:0.0 29:0.0 30:1.0 31:0.0 32:0.0 33:0.0 34:0.0 35:0.0 36:0.0 37:0.0 38:0.0 39:0.0 40:0.0 41:0.0 42:1.0 43:1.0 44:1.0 45:0.005780346820809248 46:0.05706760316066725 47:0.053231963640811376 48:0.4411303331343624 49:8.06067150886482E-16 50:0.0 51:0.5242632678091954 52:0.015853149770546516 53:0.8941176470588236 54:0.015957446808510637 55:0.8823529411764706 56:0.07692307692307693 57:1.0 58:0.001697652465654951 59:0.009615384615384616 60:0.0 61:1.0 62:0.0 63:2.2527596305474206E-4 64:0.011764705882352941 65:0.0017513134851138354 66:0.05 67:0.7601690977877393 68:0.6456129483147495 69:0.005496094879953717 70:0.08557300597686567 71:0.05786693632671045 72:0.019345238095238096 73:0.017857142857142856 74:0.005496094879953717 75:0.0013271024852689827 76:0.9999655578762986 77:0.39249263032379256 78:0.3695932709693156 79:0.09590754025987058 80:0.11878555892247114 81:0.0 
0.0 37.37365149951936 0.0 0:0.0 1:0.0 2:0.0 3:0.0 4:0.0 5:0.0 6:0.008806747705284048 7:0.050766361818284804 8:0.0 9:0.0 10:0.0 11:0.0 12:0.0 13:0.0 14:0.037760416666666664 15:0.4027777777777778 16:0.008773745688680425 17:0.001783166904422254 18:0.1388888888888889 19:0.0 20:0.9624627252115208 21:0.2591947896361279 22:0.30935872444736334 23:0.2222222222222222 24:0.31931679956750914 25:0.3648466052401297 26:0.9999999999999998 27:0.0 28:0.0 29:0.0 30:1.0 31:0.0 32:0.0 33:0.0 34:1.0 35:0.0 36:0.0 37:0.0 38:0.0 39:0.0 40:0.0 41:0.0 42:1.0 43:1.0 44:1.0 45:0.08092485549132948 46:0.37383395522388063 47:0.022740801301240128 48:0.031660910718853935 49:0.20837818403549419 50:0.408960961743649 51:0.3323615208671727 52:0.006675010429703796 53:0.4444444444444444 54:0.006382978723404255 55:0.4166666666666667 56:0.2692307692307693 57:1.0 58:0.025235610184856205 59:0.11235955056179775 60:1.0 61:0.0 62:0.0 63:4.505519261094841E-4 64:0.027777777777777776 65:0.0035026269702276708 66:0.1111111111111111 67:0.5039900338501911 68:0.3398599066044029 69:0.004917558576800694 70:0.06179820020705582 71:0.041067605204137554 72:0.017857142857142856 73:0.017857142857142856 74:0.004917558576800694 75:0.0012672298613253161 76:0.5263806578743441 77:0.4514796133226711 78:0.4924806693886694 79:0.09916721015401597 80:0.12333355377657354 81:0.0 
18.417338520265194 0.0 0.0 0:0.0 1:0.0 2:1.0 3:0.0 4:0.0 5:0.0 6:7.442322004465392E-4 7:0.0022212577726059054 8:0.0 9:0.0 10:0.0 11:0.0 12:0.0 13:0.0 14:0.0013020833333333333 15:0.14285714285714285 16:0.018594218493849436 17:0.0 18:0.0 19:0.0 20:0.0 21:0.2774853801169598 22:0.22455898477400735 23:0.0 24:0.010688381312790035 25:0.010936928267464962 26:0.9999999999999998 27:0.0 28:0.0 29:1.0 30:1.0 31:0.0 32:0.0 33:0.0 34:0.0 35:0.0 36:0.0 37:0.0 38:0.0 39:0.0 40:0.0 41:0.0 42:1.0 43:1.0 44:1.0 45:0.0 46:0.010503040353786621 47:0.024436876766298268 48:0.05718996049003726 49:8.06067150886482E-16 50:0.0 51:0.0 52:0.0010429703796412183 53:0.7142857142857143 54:6.382978723404255E-4 55:0.42857142857142855 56:0.11538461538461539 57:1.0 58:0.005614445616025825 59:0.14285714285714285 60:0.0 61:0.0 62:0.0 63:4.505519261094841E-4 64:0.2857142857142857 65:0.0017513134851138354 66:1.0 67:0.8763395843012719 68:0.05113250103243433 69:0.0 70:0.0016842723806660563 71:0.09093117454650225 72:0.03571428571428571 73:0.03571428571428571 74:0.0 75:1.0000000000000002 76:0.06461921393873701 77:0.5470281159653447 78:0.6103659974304338 79:0.12294185521497017 80:0.1328877424550499 81:0.0 
30.1324216088459 0.0 0.0 0:0.0 1:0.0 2:1.0 3:0.0 4:0.0 5:0.0 6:2.4807740014884643E-4 7:8.815078669632141E-4 8:0.0 9:0.0 10:0.0 11:0.0 12:0.0 13:0.0 14:0.0 15:0.0 16:0.022560776043337522 17:0.0 18:0.0 19:0.0 20:1.160602456036797E-16 21:0.2774853801169598 22:0.22456339516715468 23:1.0 24:0.010688381312790035 25:0.010936928267464962 26:0.9999999999999998 27:0.0 28:0.0 29:0.0 30:1.0 31:0.0 32:0.0 33:0.0 34:0.0 35:0.0 36:0.0 37:0.0 38:0.0 39:0.0 40:0.0 41:0.0 42:1.0 43:1.0 44:1.0 45:0.0 46:0.010503040353786621 47:0.024436876766298268 48:0.014325914556152508 49:8.06067150886482E-16 50:0.0 51:0.0 52:6.257822277847309E-4 53:1.0 54:0.0 55:0.0 56:0.11538461538461539 57:1.0 58:0.022413223371912563 59:0.0 60:0.0 61:0.0 62:0.0 63:6.758278891642261E-4 64:1.0 65:0.0017513134851138354 66:1.0 67:0.8763395843012719 68:0.012808539026017378 69:0.0 70:0.0016842723806660563 71:0.022777988057374375 72:0.011904761904761904 73:0.011904761904761904 74:0.0 75:1.0000000000000002 76:0.016186920390220443 77:0.5771432390614132 78:0.6615592686618549 79:0.19398234084182012 80:0.20845555523574458 81:0.0 
0.0 5.551637590855478 0.0 0:0.0 1:0.0 2:0.4 3:0.0 4:0.16666666666666666 5:1.0 6:0.0021086579012651947 7:0.0043031078995263376 8:0.016877637130801686 9:0.6666666666666666 10:0.0 11:0.0 12:0.0 13:0.0 14:0.014322916666666666 15:0.6111111111111112 16:0.008112135152786684 17:0.0 18:0.0 19:0.0 20:0.0 21:0.2680190058479534 22:0.22456270292800765 23:0.0 24:0.010323748704779924 25:0.010675949341288245 26:0.1452111246910787 27:0.0 28:0.0 29:1.0 30:1.0 31:0.0 32:0.0 33:0.0 34:0.0 35:0.0 36:0.0 37:0.0 38:0.0 39:0.0 40:0.0 41:0.0 42:1.0 43:1.0 44:1.0 45:0.0 46:0.005290511727078891 47:0.023603216191683988 48:0.09539417583354654 49:8.06067150886482E-16 50:0.0 51:0.0 52:0.0 53:0.0 54:0.0 55:0.0 56:0.19230769230769232 57:1.0 58:0.0032510997993232802 59:0.3888888888888889 60:0.0 61:0.0 62:0.0 63:0.0 64:0.0 65:0.0 66:0.0 67:0.8673639227419168 68:0.0852901934623082 69:0.0 70:0.0014095993914608467 71:0.15167530068413054 72:0.10119047619047619 73:0.10119047619047619 74:0.0 75:1.0000000000000002 76:0.11142328897594825 77:0.58285680825593 78:0.6854702500356469 79:0.24479631766417503 80:0.2655844540855346 81:0.0 
0.0 8.885433826890514 0.0 0:0.0 1:0.0 2:0.0 3:0.0 4:0.0 5:0.0 6:0.001240387000744232 7:0.0026106309124292472 8:0.0 9:0.0 10:0.0 11:0.0 12:0.0 13:0.0 14:0.0 15:0.0 16:0.006693869283865213 17:0.0 18:0.0 19:0.0 20:0.0 21:0.2680190058479534 22:0.22456222368552123 23:0.0 24:0.010323748704779924 25:0.010578034098400383 26:0.6626433025200492 27:1.0 28:0.0 29:1.0 30:1.0 31:0.0 32:0.0 33:0.0 34:0.0 35:0.0 36:0.0 37:0.0 38:0.0 39:0.0 40:0.0 41:0.0 42:0.0 43:1.0 44:1.0 45:0.0 46:0.006624715406020745 47:0.023603216191683988 48:0.07515775560671951 49:8.06067150886482E-16 50:0.0 51:0.0 52:0.0020859407592824365 53:0.9090909090909091 54:2.127659574468085E-4 55:0.09090909090909091 56:0.42307692307692313 57:1.0 58:0.004126466835065057 59:0.0 60:0.0 61:0.0 62:0.0 63:0.0020274836674926784 64:0.8181818181818182 65:0.0 66:0.0 67:0.8754792890949286 68:0.06719717907176209 69:0.0 70:0.0012361467075987158 71:0.11949969776231119 72:0.059523809523809514 73:0.059523809523809514 74:0.0 75:1.0000000000000002 76:0.08778362227271308 77:0.43176011053331376 78:0.41994571708602646 79:0.21827246275021325 80:0.23464577559125155 81:0.0 
0.0 27.94809517213082 0.0 0:0.0 1:0.0 2:1.0 3:0.0 4:0.0 5:0.0 6:0.0 7:3.306778728479772E-4 8:0.0 9:0.0 10:0.0 11:1.0 12:0.0 13:0.0 14:0.0013020833333333333 15:1.0 16:0.004901595966481357 17:0.0 18:0.0 19:0.0 20:0.0 21:0.31103801169590845 22:0.22456339516715468 23:0.0 24:0.011980785691760216 25:0.012185430463576227 26:0.691815443642004 27:0.0 28:0.0 29:1.0 30:1.0 31:0.0 32:0.0 33:0.0 34:0.0 35:0.0 36:0.0 37:0.0 38:0.0 39:0.0 40:0.0 41:1.0 42:0.0 43:1.0 44:1.0 45:0.0 46:0.007767652123995408 47:0.02739170459446774 48:0.007646172650009902 49:8.06067150886482E-16 50:0.0 51:0.0 52:0.0 53:0.0 54:0.0 55:0.0 56:0.07692307692307693 57:1.0 58:0.04707127223092841 59:0.0 60:0.0 61:1.0 62:0.0 63:0.0 64:0.0 65:0.0 66:0.0 67:0.8805453301542405 68:0.006836303567457628 69:0.0 70:0.0020539128459470717 71:0.012157299181415978 72:0.0 73:0.0 74:0.0 75:1.0000000000000002 76:0.008636656426021487 77:0.5190783527886476 78:0.5627527441747211 79:0.5644157929062359 80:0.5986968036826904 81:0.0 
0.0 33.38490692509518 0.0 0:0.0 1:0.0 2:0.0 3:0.0 4:0.0 5:0.0 6:2.4807740014884643E-4 7:0.0012386427430815395 8:0.0 9:0.0 10:0.0 11:0.0 12:0.0 13:0.0 14:0.0026041666666666665 15:0.6666666666666666 16:0.004901595966481357 17:1.783166904422254E-4 18:0.3333333333333333 19:0.0 20:0.002688172042999946 21:0.31103801169590845 22:0.22456384318847844 23:0.0 24:0.011980785691760216 25:0.012185430463576227 26:0.0452822464938667 27:0.0 28:0.0 29:1.0 30:1.0 31:0.0 32:0.0 33:0.0 34:0.0 35:0.0 36:0.0 37:0.0 38:0.0 39:0.0 40:0.0 41:0.0 42:1.0 43:1.0 44:1.0 45:0.0 46:0.007767652123995408 47:0.02739170459446774 48:0.019165174383900422 49:8.06067150886482E-16 50:0.0 51:0.0 52:0.0 53:0.0 54:0.0 55:0.0 56:0.07692307692307693 57:1.0 58:0.018779639940852282 59:0.3333333333333333 60:1.0 61:1.0 62:0.0 63:0.0 64:0.0 65:0.0 66:0.0 67:0.8805453301542405 68:0.01713523301248453 69:0.0 70:0.0020539128459470717 71:0.03047233818985049 72:0.011904761904761904 73:0.011904761904761904 74:0.0 75:1.0000000000000002 76:0.021647827491617207 77:0.643210079540454 78:0.7736984576446123 79:0.5644157929062359 80:0.5986968036826904 81:0.0 
9.074539052653037 0.0 0.0 0:0.0 1:0.0784313725490196 2:0.0 3:0.0 4:0.0 5:0.0 6:0.01575291490945175 7:0.08289600995392471 8:0.0 9:0.0 10:0.0 11:0.0 12:0.0 13:0.0 14:0.014322916666666666 15:0.0859375 16:0.012749580644116435 17:8.91583452211127E-4 18:0.0390625 19:0.0 20:0.64925814378633 21:0.30520547788742725 22:0.2389389903030058 23:0.25 24:0.03447397170788841 25:0.03506287462018913 26:0.9999999999999998 27:0.0 28:0.0 29:1.0 30:1.0 31:0.0 32:0.0 33:1.0 34:0.0 35:0.0 36:0.0 37:0.0 38:0.0 39:0.0 40:0.0 41:0.0 42:0.0 43:1.0 44:1.0 45:0.005780346820809248 46:0.01900652985074627 47:0.04521401579770685 48:0.5326099314971149 49:3.5451208214696385E-6 50:4.072423988196769E-6 51:0.6572678754930885 52:0.018564872757613683 53:0.6953125 54:0.015319148936170212 55:0.5625 56:0.15384615384615385 57:1.0 58:0.0011703951168245583 59:0.0440251572327044 60:0.0 61:1.0 62:0.0 63:0.003829691371930615 64:0.1328125 65:0.014010507880910683 66:0.25 67:0.8601509728738966 68:0.791135360081324 69:0.008967312698871854 70:0.09469421810431672 71:0.04549348070480698 72:0.017857142857142856 73:0.011904761904761904 74:0.008967312698871854 75:0.0012396578832017209 76:0.9998634952052691 77:0.365343121714402 78:0.30151918686974133 79:0.6450847840264888 80:0.6839900990018861 81:0.0 
0.0 105.29764502244886 0.0 0:0.0 1:0.0 2:0.0 3:0.0 4:0.0 5:0.0 6:0.02654428181592657 7:0.05616635786728297 8:0.04219409282700422 9:0.13953488372093023 10:0.0 11:0.0 12:0.0 13:0.0 14:0.006510416666666666 15:0.023255813953488372 16:0.0110622269079845 17:8.91583452211127E-4 18:0.023255813953488372 19:0.0 20:0.3838247768792193 21:0.3110014619883049 22:0.23300007439462772 23:0.2765957446808511 24:0.07094145605261971 25:0.07217791375892374 26:0.6193172697210003 27:0.0 28:0.0 29:0.0 30:1.0 31:0.0 32:0.0 33:0.0 34:1.0 35:0.0 36:0.0 37:0.0 38:0.0 39:0.0 40:0.0 41:0.0 42:0.0 43:1.0 44:1.0 45:0.023121387283236993 46:0.034698768929077244 47:0.027388485827770277 48:0.361186080554845 49:8.06067150886482E-16 50:0.0 51:0.3059850167401465 52:0.03546099290780142 53:0.7906976744186046 54:0.023617021276595745 55:0.5162790697674419 56:0.19230769230769232 57:1.0 58:0.004992521591894932 59:0.10344827586206896 60:0.0 61:0.0 62:0.0 63:0.013291281820229782 64:0.2744186046511628 65:0.028021015761821366 66:0.3404255319148936 67:0.8267845381720896 68:0.38165602465135484 69:0.013306334972519526 70:0.0637624991347358 71:0.05259019922926687 72:0.02127659574468085 73:0.017857142857142856 74:0.013306334972519525 75:0.00137540930344252 76:0.4821551834847658 77:0.3653443046479826 78:0.30150061219179525 79:0.6644998244117796 80:0.7047673736013895 81:0.0 
0.0 39.5779553537356 0.0 0:0.0 1:0.0 2:0.0 3:0.0 4:0.0 5:0.0 6:0.0013644257008186553 7:0.003431636093758218 8:0.0 9:0.0 10:0.0 11:0.0 12:0.0 13:0.0 14:0.0 15:0.0 16:0.0012837219353161674 17:0.0 18:0.0 19:0.0 20:0.10009219017516162 21:0.5204678362573107 22:0.22475986447200555 23:0.25 24:0.020047754201018172 25:0.01925497837195373 26:0.47386838453032104 27:0.0 28:0.0 29:0.0 30:1.0 31:0.0 32:0.0 33:0.0 34:1.0 35:0.0 36:0.0 37:0.0 38:0.0 39:0.0 40:0.0 41:0.0 42:1.0 43:1.0 44:1.0 45:0.0 46:0.007585891298225851 47:0.04583523777029596 48:0.1348917029078196 49:8.06067150886482E-16 50:0.0 51:0.0 52:0.0018773466833541927 53:0.75 54:0.001276595744680851 55:0.5 56:0.07692307692307693 57:1.0 58:0.004464730287498783 59:0.0 60:0.0 61:0.0 62:0.0 63:6.758278891642261E-4 64:0.25 65:0.0017513134851138354 66:0.25 67:0.9257861362278735 68:0.12060421233203088 69:8.678044547295342E-4 70:0.005552418199288615 71:0.04825210577754175 72:0.011904761904761904 73:0.017857142857142856 74:8.678044547295342E-4 75:0.0012053992357174415 76:0.1408813946757112 77:0.58294848560843 78:0.6395742765743028 79:0.820497416344755 80:0.8195267161537446 81:0.0 
103.23638726038646 0.0 0.0 0:0.0 1:0.0 2:0.0 3:0.0 4:0.0 5:0.0 6:3.7211610022326965E-4 7:0.0010616756564068703 8:0.0 9:0.0 10:0.0 11:0.0 12:0.0 13:0.0 14:0.0026041666666666665 15:0.5 16:0.0038881962463904224 17:0.0 18:0.0 19:0.0 20:0.11631799163180025 21:0.5204678362573107 22:0.22463526157077118 23:0.0 24:0.020047754201018172 25:0.01925497837195373 26:0.34994916172508733 27:0.0 28:0.0 29:1.0 30:1.0 31:0.0 32:0.0 33:0.0 34:1.0 35:0.0 36:0.0 37:0.0 38:0.0 39:0.0 40:0.0 41:0.0 42:0.0 43:1.0 44:1.0 45:0.0 46:0.007585891298225851 47:0.04583523777029596 48:0.042458997754469804 49:8.06067150886482E-16 50:0.0 51:0.0 52:4.1718815185648727E-4 53:0.5 54:4.25531914893617E-4 55:0.5 56:0.07692307692307693 57:1.0 58:0.014184392080744023 59:0.0 60:0.0 61:1.0 62:0.0 63:0.0 64:0.0 65:0.0 66:0.0 67:0.9257861362278735 68:0.03796181581371713 69:2.892681515765114E-4 70:0.0026318672982586265 71:0.029828317694180657 72:0.005952380952380952 73:0.005952380952380952 74:2.892681515765114E-4 75:0.0012053992357174415 76:0.04434433468654685 77:0.5199336137674542 78:0.5405599980944222 79:0.8396616164149903 80:0.8386611452262679 81:0.0 
