svm_type c_svc
kernel_type rbf
gamma 0.5
nr_class 13
total_sv 609
rho 0.9775141251494043 0.1501868770803061 -0.09801929384177879 0.024489723871638572 0.09123196290392636 0.5259841075846888 -0.08517684868284614 0.044129120966349814 0.3008144713777304 -0.3331539320484538 -0.3784647080268965 0.0024391998928330496 -1.5084952618658583 -0.8266838865481663 -0.9357995229629893 -2.954371337694227 -0.542293814127257 -0.7342809675224838 -0.9318895629663035 -3.014871281749081 -2.266329449886407 -1.9482300346739374 -1.2970269846056572 -0.06285058654874999 0.12484352493764388 0.08138794647839351 0.500447158829898 -0.20688710694105347 -0.17475096802536658 0.3379417648273777 -0.4020633112878171 -2.535327923217804 -0.13201170120449138 0.41059825288897844 -0.0787520326812225 0.2811624154481335 -0.26153015432026616 -0.10392436662055539 0.24340080613431758 -0.3631807224976937 -0.666690914977261 -0.4402379782614136 0.08931403903620201 0.48954824505438377 -0.03254389340366642 0.10173956240964664 0.5679111121482713 -0.7589424692933449 -0.6393264043785861 0.03992738961684546 0.5084049885734135 -0.0827250498615032 -0.10599914131058975 -0.04712870829564626 -0.3764757394038848 -0.9763036754137318 -0.2728777672810048 -0.5408405926507109 -0.461319890165386 -0.16091173402313425 -0.7291076970117912 -0.8388773193812861 -0.5369007255152449 0.09274176136925433 0.3087136367840992 -0.2927073930721406 -0.3636787026062725 0.06458435785519377 0.3684837151204684 -0.4561779832367096 -0.5361603748828789 -0.014883994975994238 -1.6724224403860788 -0.8339465038321283 -0.3015196269688694 -0.2165323103367346 0.3650742131770362 0.4994464408804303
label 14 9 8 5 10 15 4 13 11 16 6 12 7
nr_sv 34 239 54 44 25 30 66 13 22 54 11 13 4
SV
2.5769204206781655 0.0 0.0 0.0 0.0 0.11180125334342864 0.0 0.0 0.0 0.0 0.0 0.0 0:0.0 1:0.0 2:0.0 3:0.0 4:0.0 5:0.03556485355648535 6:0.013731705005902747 7:0.0 8:0.0 9:0.016234253335807615 10:0.0 11:0.0 12:0.0 13:0.48592947775189765 14:0.49670628866853095 15:0.16948531583819026 16:0.7142857142857143 17:0.11713524082686817 18:0.1076634132347875 19:0.9999999999999998 20:1.0 21:1.0 22:1.0 23:1.0 24:0.0 25:1.0 26:0.045454545454545456 27:0.016614755335020874 28:0.17069681160681724 29:0.5643803076415027 30:0.3145438791693466 31:0.21209775495627675 32:0.03739837398373984 33:1.0 34:0.035897435897435895 35:0.9130434782608695 36:1.0 37:0.011079215036744607 38:0.0 39:0.04195804195804196 40:0.08695652173913043 41:0.026086956521739132 42:0.21428571428571427 43:0.946618989086304 44:0.7614990218530092 45:0.039755351681957186 46:0.01656186831963894 47:0.22370503334479144 48:0.09136212624584718 49:0.09302325581395349 50:0.039755351681957186 51:0.0015177879740874696 52:0.7522046500887754 53:0.1314577966979919 54:0.1411907296545527 55:0.06948890204499389 56:0.06544065262273197 57:0.0 
0.0 0.0 0.0 0.6284542366002087 0.0 0.5837819279660368 0.18390894220931056 0.09922639961227434 0.40935330545458476 0.0 0.0 0.1820367505851123 0:0.0 1:0.0 2:0.0 3:0.0 4:0.0 5:0.10251046025104602 6:0.08381407986143735 7:0.0 8:0.0 9:0.01084958197615489 10:0.0 11:0.0 12:0.0 13:0.37710270942295354 14:0.8031432748538048 15:0.5174036456198314 16:0.7647058823529411 17:0.5004464982256258 18:0.5090579634504778 19:0.9999999999999998 20:1.0 21:1.0 22:1.0 23:0.0 24:0.0 25:1.0 26:0.22727272727272724 27:0.16781338742393512 28:0.23134210626526586 29:0.6881577285014329 30:8.136404766200929E-17 31:0.7366832036754629 32:0.10569105691056911 33:0.9898477157360406 34:0.10256410256410256 35:0.9137055837563451 36:1.0 37:0.04825873255130432 38:0.043478260869565216 39:0.1048951048951049 40:0.07614213197969544 41:0.043478260869565216 42:0.14705882352941177 43:0.6639937423175774 44:0.8585645808802398 45:0.10091743119266054 46:0.09211256455557619 47:0.33258418767804593 48:0.11149110807113542 49:0.11627906976744186 50:0.10091743119266056 51:0.0016519794734782432 52:0.9621530962958253 53:0.061717879229556294 54:0.08883384440897622 55:0.1272338899034699 56:0.13627570396308414 57:0.0 
3.9174896339081595 0.21678707232540692 0.0 0.0 0.0 0.0 0.10170267874657919 0.0 0.0 0.0 0.0 0.0 0:0.0 1:0.0 2:0.0 3:1.0 4:0.0 5:0.019874476987447695 6:0.013182017073721934 7:0.0 8:0.0 9:0.008417715268562996 10:0.0 11:0.0 12:0.0 13:0.036945099499400266 14:0.6220029239766094 15:0.043824536852887674 16:0.6 17:0.054134175206567624 18:0.055248293520288136 19:0.9999999999999998 20:1.0 21:1.0 22:1.0 23:0.0 24:0.0 25:1.0 26:0.0 27:0.0153184584178499 28:0.17742067097153225 29:0.6790966642774853 30:1.2204607149301395E-16 31:0.0 32:0.02059620596205962 33:0.9743589743589743 34:0.018803418803418803 35:0.8461538461538461 36:1.0 37:0.004770679786934148 38:0.11627906976744186 39:0.03496503496503497 40:0.1282051282051282 41:0.043478260869565216 42:1.0 43:0.864664208291429 44:0.6711293657342593 45:0.012232415902140673 46:0.008999125211340433 47:0.39631316292718777 48:0.1581395348837209 49:0.13953488372093026 50:0.012232415902140673 51:0.0022346313551058856 52:0.7268037507531084 53:0.05060929467943533 54:0.07355884084323865 55:0.1726680246442835 56:0.1841864123147706 57:0.0 
0.0 0.2671412756586618 0.0 0.0 0.0 0.0 0.0 0.0 0.0 0.0 0.0 0.0 0:0.0 1:0.0 2:0.0 3:0.3333333333333333 4:0.0 5:0.03922594142259414 6:0.022914029573651348 7:0.0 8:0.0 9:0.00838685401592861 10:0.0 11:0.0 12:0.0 13:0.3957251648029722 14:0.6220135041551258 15:0.16910344874867586 16:0.8333333333333334 17:0.12026570794036502 18:0.12248566160278733 19:0.9999999999999998 20:1.0 21:1.0 22:1.0 23:1.0 24:0.0 25:1.0 26:0.045454545454545456 27:0.03984674329501916 28:0.17743155100286678 29:0.6341287681205648 30:1.2204607149301395E-16 31:0.5872787290311371 32:0.04065040650406504 33:0.9868421052631579 34:0.038176638176638175 35:0.881578947368421 36:1.0 37:0.009176161496912676 38:0.05747126436781609 39:0.055944055944055944 40:0.10526315789473684 41:0.06956521739130435 42:0.6666666666666666 43:0.8348076135136142 44:0.9087551109339218 45:0.033639143730886854 46:0.020991722426453155 47:0.3031485512031991 48:0.12403100775193797 49:0.13953488372093026 50:0.03363914373088685 51:0.0018219895412033213 52:0.9838485231261139 53:0.05065961880407514 54:0.07358418118479762 55:0.17265548174757675 56:0.1842088628021477 57:0.0 
0.0 0.0 0.0 0.39825186513312766 0.0 0.0 0.0 0.0 0.0 0.0 0.0 0.0 0:0.0 1:0.0 2:0.0 3:0.0 4:0.0 5:0.028765690376569033 6:0.03276415797624221 7:0.0 8:0.0 9:0.018308129512840287 10:0.0 11:0.0 12:0.0 13:0.5150833205208105 14:0.5921052631578958 15:0.19855391150447024 16:0.7777777777777778 17:0.12033542141797211 18:0.11784021618115711 19:0.9999999999999998 20:1.0 21:1.0 22:1.0 23:0.0 24:0.0 25:1.0 26:0.045454545454545456 27:0.06869168356997972 28:0.16852080533991923 29:0.5087830560757133 30:1.2204607149301395E-16 31:0.736455417639905 32:0.03035230352303523 33:1.0 34:0.027920227920227917 35:0.875 36:1.0 37:0.009895791492002738 38:0.0 39:0.04895104895104895 40:0.125 41:0.06086956521739131 42:0.7777777777777778 43:0.8757179573136663 44:0.8565285516934459 45:0.024464831804281346 46:0.035558380898830344 47:0.32285666703037336 48:0.1214470284237726 49:0.11627906976744186 50:0.024464831804281346 51:0.0018373563276009247 52:0.9312025293990439 53:0.048422991042305824 54:0.07167390872503558 55:0.21307371209536619 56:0.2172749172974934 57:0.0 
5.184467974367995 4.213461738280028 5.301539778730479 2.6801110381060345 2.4451426126949087 2.786998130578246 0.5197568420016897 1.6103273665092708 2.078226635179104 1.9574285975673607 1.2521807609053017 0.69359883869684 0:0.0 1:0.0 2:0.0 3:0.0 4:0.0 5:0.02928870292887029 6:0.0359971586956914 7:0.0 8:0.0 9:0.03346964570707562 10:0.0 11:0.0 12:0.0 13:0.48740671919172557 14:0.33775584795321617 15:0.09908585660623365 16:0.6 17:0.08169755637662535 18:0.10138912083869021 19:0.9999999999999998 20:1.0 21:0.0 22:1.0 23:0.0 24:0.0 25:1.0 26:0.045454545454545456 27:0.06262300782381919 28:0.09280666728320161 29:0.3768467684132709 30:0.18670523099472697 31:0.1259039051792367 32:0.03035230352303523 33:0.9824561403508771 34:0.027920227920227917 35:0.8596491228070176 36:1.0 37:0.012233443972560626 38:0.0 39:0.04895104895104895 40:0.12280701754385964 41:0.06086956521739131 42:0.7 43:0.6699251312995865 44:0.4933643620720028 45:0.027522935779816512 46:0.03711932281147189 47:0.2116709641480937 48:0.10930232558139534 49:0.09302325581395349 50:0.027522935779816515 51:0.0017203626421449466 52:0.7522172593409076 53:0.156675774711941 54:0.2674914334746488 55:0.18881324128519542 56:0.24972154390177376 57:0.0 
0.0 1.6676704506180118 0.8731635562106491 0.0 0.0 0.0 0.0 0.0 0.0 0.0 0.0 0.25042532156230124 0:0.0 1:0.0 2:0.0 3:0.0 4:0.0 5:0.0653765690376569 6:0.09049868016347241 7:0.0 8:0.0 9:0.006656154968190568 10:0.0 11:0.0 12:0.0 13:0.2959817938912156 14:0.5994497238466522 15:0.18103324974188112 16:0.8666666666666667 17:0.23065865957581005 18:0.2635624865632296 19:0.9999999999999998 20:1.0 21:0.0 22:1.0 23:0.0 24:0.0 25:1.0 26:0.13636363636363635 27:0.13520191775769871 28:0.17117553298553478 29:0.5559734538181245 30:1.2204607149301395E-16 31:0.3680809991699323 32:0.06720867208672086 33:0.9841269841269841 34:0.06324786324786325 35:0.8809523809523809 36:1.0 37:0.026411332203143494 38:0.07142857142857142 39:0.09090909090909091 40:0.10317460317460317 41:0.10434782608695653 42:0.8 43:0.6721391589376838 44:0.6980705934709849 45:0.04281345565749236 46:0.058758644759398536 47:0.43091200404288693 48:0.17209302325581394 49:0.18604651162790697 50:0.04281345565749235 51:0.0021373904996505873 52:0.9276487613939102 53:0.1362106306917517 54:0.20420354898666296 55:0.1832667723614763 56:0.22254602665995465 57:0.0 
0.0 0.0 0.0 0.0 0.0 0.049364317582326116 0.015671403702883134 0.0 0.0 0.06093137624546178 0.0 0.0 0:0.0 1:0.0 2:0.0 3:0.4 4:0.0 5:0.07374476987447699 6:0.04308315739131369 7:0.0 8:0.0 9:0.010780452770253785 10:0.0 11:0.0 12:0.0 13:0.3305147724199733 14:0.8031432748538028 15:0.32079877446578 16:0.6111111111111112 17:0.32861605468192395 18:0.3343486587902224 19:0.9999999999999998 20:1.0 21:1.0 22:1.0 23:1.0 24:0.0 25:1.0 26:0.13636363636363635 27:0.06452690609712446 28:0.23134210626526586 29:0.7229078088704928 30:1.2204607149301395E-16 31:0.4808196436499816 32:0.07371273712737128 33:0.9577464788732394 34:0.07692307692307691 35:0.9507042253521126 36:1.0 37:0.03025048809125197 38:0.15723270440251572 39:0.006993006993006993 40:0.007042253521126761 41:0.008695652173913044 42:0.05555555555555555 43:0.7411137184787872 44:0.8756891068729893 45:0.051987767584097865 46:0.03403531821548326 47:0.4546320596581029 48:0.16020671834625322 49:0.13953488372093026 50:0.05198776758409786 51:0.0020474459045954413 52:0.9811314871787724 53:0.061717879229556294 54:0.08880970122198421 55:0.1272338899034699 56:0.13627570396308414 57:0.0 
4.048501920533249 0.2995568079561202 1.72855421910161 1.1307308940558776 0.0 2.627135093954151 0.0 0.0 2.3148388767209345 0.15410562420017343 0.0 0.0 0:0.0 1:0.0 2:0.0 3:0.0 4:0.0 5:0.03190376569037656 6:0.01574757397177011 7:0.0 8:0.0 9:0.01622561218506997 10:0.02631578947368421 11:0.07258064516129031 12:0.0 13:0.134499888537614 14:0.3919354838709681 15:0.05074564107645227 16:0.6666666666666666 17:0.0358825228311639 18:0.03565894640272754 19:0.9999999999999998 20:1.0 21:1.0 22:1.0 23:0.0 24:0.0 25:1.0 26:0.0 27:0.009569017795529162 28:0.117602258694505 29:0.7394897909403744 30:1.2204607149301395E-16 31:0.0 32:0.03252032520325203 33:0.967741935483871 34:0.033048433048433044 35:0.9354838709677419 36:1.0 37:0.0020105039972163046 38:0.14285714285714285 39:0.013986013986013986 40:0.03225806451612903 41:0.017391304347826087 42:0.2222222222222222 43:0.9014534212388724 44:0.7308139480979445 45:0.024464831804281346 46:0.012577852335442457 47:0.2312695851255458 48:0.13695090439276486 49:0.11627906976744186 50:0.024464831804281346 51:0.0019578469699685548 52:0.9130538029719487 53:0.1582395502887114 54:0.21681423522057441 55:0.06501861365871281 56:0.06792127097926272 57:0.0 
0.36300557301572595 0.40075023571096935 1.6543933495452487 0.6416647706758777 0.19411118758303453 0.3574505870177002 0.4686053140228799 0.4493991341290721 0.5854261316040782 0.14947478180632717 0.1255272306598088 0.4238716143307566 0:0.0 1:0.0 2:0.0 3:0.0 4:0.0 5:0.025627615062761504 6:0.013910730351251994 7:0.0 8:0.0 9:0.008417715268562996 10:0.0 11:0.0 12:0.0 13:0.061431332045045486 14:0.6220029239766094 15:0.04820264224868891 16:0.6666666666666666 17:0.054134175206567624 18:0.05525182427220037 19:0.9999999999999998 20:1.0 21:1.0 22:1.0 23:0.0 24:0.0 25:1.0 26:0.22727272727272724 27:0.08732358279064802 28:0.17742067097153225 29:0.13398960768640933 30:0.9999999999999999 31:0.8466169912939405 32:0.026558265582655827 33:0.98 34:0.02279202279202279 35:0.8 36:1.0 37:0.003350141673545401 38:0.08620689655172414 39:0.06293706293706294 40:0.18 41:0.06956521739130435 42:0.8888888888888888 43:0.8646001415428165 44:0.8336501107948487 45:0.024464831804281346 46:0.014882286109320257 47:0.2653259290312577 48:0.10594315245478035 49:0.09302325581395349 50:0.024464831804281346 51:0.0017049958557473432 52:0.8952850534967466 53:0.05060929467943533 54:0.07274780076469223 55:0.1726680246442835 56:0.18419941837798268 57:0.0 
1.3566336569748467 1.0989132750175288 1.6090782080948791 0.5309815611669528 0.10422562712882856 7.73565661396398 0.48658147954185893 0.3843790605862218 2.498697447742149 0.3694786927437726 0.0 0.4986002836675859 0:0.0 1:0.0 2:0.0 3:0.0 4:0.0 5:0.06328451882845189 6:0.042618510714734374 7:0.0 8:0.0 9:0.0027935605884672437 10:0.0 11:0.0 12:0.0 13:0.420932394246556 14:0.5319977710670131 15:0.22879049394668668 16:0.8095238095238095 17:0.16546659894500262 18:0.15865856109079285 19:0.9999999999999998 20:1.0 21:0.0 22:1.0 23:0.0 24:0.0 25:1.0 26:0.0909090909090909 27:0.06724676077327484 28:0.15062678047179423 29:0.6697013022914876 30:1.627280953240186E-16 31:0.732602358936741 32:0.06504065040650406 33:0.9836065573770492 34:0.06495726495726495 35:0.9344262295081968 36:1.0 37:0.013429416575065783 38:0.0 39:0.04195804195804196 40:0.04918032786885246 41:0.034782608695652174 42:0.19047619047619047 43:0.8778545088836743 44:0.9121967048962979 45:0.06116207951070337 46:0.046447028707165425 47:0.26771709527993515 48:0.11184939091915837 49:0.13953488372093026 50:0.06116207951070336 51:0.0016768851627287787 52:0.9364911757100415 53:0.058823310134533166 54:0.07653225316281512 55:0.10376111300648219 56:0.10350734139609896 57:0.0 
4.539042988601168 6.673178516561863 0.9675659494023153 0.4832250047331715 1.7317194072504352 0.6497069095269963 0.35299576613516104 0.668394451995142 1.3770504492185327 0.2190506438256786 1.6600259917816464 0.6102045099671461 0:0.0 1:0.0 2:0.0 3:1.0 4:0.16666666666666666 5:0.023012552301255228 6:0.020427862826133257 7:0.0 8:0.0 9:0.015038071183697682 10:0.0 11:0.0 12:0.0 13:0.0564069131890294 14:0.6505847953216367 15:0.04629670773712377 16:0.6666666666666666 17:0.05673017232507716 18:0.05494062711500542 19:0.9999999999999998 20:1.0 21:1.0 22:1.0 23:0.0 24:0.0 25:1.0 26:0.0 27:0.029357674104124407 28:0.1859288554751034 29:0.6809204477651147 30:1.2204607149301395E-16 31:0.0 32:0.023848238482384824 33:0.9777777777777777 34:0.02165242165242165 35:0.8444444444444444 36:1.0 37:0.005085577511735073 38:0.1 39:0.04195804195804196 40:0.13333333333333333 41:0.052173913043478265 42:1.0 43:0.9172510895072076 44:0.6729317522274864 45:0.015290519877675842 46:0.01608156182408226 47:0.32500253637545246 48:0.1511627906976744 49:0.13953488372093026 50:0.01529051987767584 51:0.0021373904996505873 52:0.7308328559823261 53:0.04869138637371814 54:0.07184967674416246 55:0.22957640129242016 56:0.2309439880620529 57:0.0 
0.0 0.29822397212879237 0.0 0.0 0.0 0.0 0.0 0.0 0.0 0.0 0.0 0.0 0:0.0 1:0.0 2:0.0 3:0.2 4:0.0 5:0.06746861924686193 6:0.04393812338075162 7:0.0 8:0.0 9:0.008417715268562996 10:0.0 11:0.0 12:0.0 13:0.33094942866632604 14:0.6220029239766097 15:0.20685113708542457 16:0.7142857142857143 17:0.1864370769470808 18:0.18973489901500876 19:0.9999999999999998 20:1.0 21:1.0 22:1.0 23:1.0 24:0.0 25:1.0 26:0.0909090909090909 27:0.05648457718402462 28:0.17742067097153225 29:0.7263999539676047 30:1.2204607149301395E-16 31:0.4455282512595795 32:0.06829268292682927 33:0.9692307692307692 34:0.062108262108262105 35:0.8384615384615385 36:1.0 37:0.015433372408500165 38:0.13333333333333333 39:0.11888111888111888 40:0.13076923076923078 41:0.14782608695652175 42:0.8095238095238095 43:0.8052117555034081 44:0.9116756446035028 45:0.06116207951070337 46:0.042902816698297555 47:0.2968327712287789 48:0.12070874861572535 49:0.09302325581395349 50:0.06116207951070336 51:0.0017505791761180454 52:0.9872420377758865 53:0.05060929467943533 54:0.07355511823534328 55:0.1726680246442835 56:0.18420123330466195 57:0.0 
0.9093495458223604 0.6540684528170416 0.8852113296791901 0.5485572183884636 0.7772897365461369 0.41552301949613957 0.4692486831480343 0.5615116125097678 0.5639998686192821 0.20635661424575927 0.05866387630227969 0.427265758479878 0:0.0 1:0.0 2:0.0 3:0.0 4:0.0 5:0.02458158995815899 6:0.021080193046498587 7:0.0 8:0.0 9:0.013929534989069504 10:0.0 11:0.0 12:0.0 13:0.4510115694203248 14:0.5270772417154002 15:0.14612259924451912 16:0.7142857142857143 17:0.12397048132176751 18:0.12432178994594197 19:0.9999999999999998 20:1.0 21:1.0 22:1.0 23:0.0 24:0.0 25:1.0 26:0.045454545454545456 27:0.055983772819472616 28:0.17651762837076956 29:0.4843824466468279 30:0.24253158082572954 31:0.16429357373125106 32:0.023848238482384824 33:0.9166666666666666 34:0.0 35:0.0 36:1.0 37:0.014686244464415507 38:0.18518518518518517 39:0.3076923076923077 40:0.9166666666666666 41:0.052173913043478265 42:0.8571428571428571 43:0.8490408611762953 44:0.636157133982959 45:0.018348623853211007 46:0.017594455400851004 47:0.4054405048357947 48:0.1362126245847176 49:0.13953488372093026 50:0.01834862385321101 51:0.0019957249444689873 52:0.8591380963880124 53:0.20565792269468913 54:0.2973553143948432 55:0.07734200967308194 56:0.08189803352448465 57:0.0 
3.435573903186154 1.3107691249360987 4.314161190756618 1.1800617838792982 0.0 0.0 0.16089757458093992 0.4501368683155462 0.0 0.0 0.0 0.0 0:0.0 1:0.0 2:0.0 3:0.0 4:0.0 5:0.019351464435146442 6:0.012715031639582479 7:0.0 8:0.0 9:0.008417715268562996 10:0.0 11:0.0 12:0.0 13:0.049863150938328535 14:0.6220029239766094 15:0.044785067759034174 16:0.14285714285714285 17:0.054134175206567624 18:0.05524812930983568 19:0.9999999999999998 20:1.0 21:1.0 22:1.0 23:0.0 24:0.0 25:1.0 26:0.0 27:0.0153184584178499 28:0.17742067097153225 29:0.6205967449592651 30:1.2204607149301395E-16 31:0.0 32:0.018970189701897018 33:0.9210526315789473 34:0.016524216524216522 35:0.7631578947368421 36:1.0 37:0.005457200535873989 38:0.11363636363636365 39:0.04195804195804196 40:0.15789473684210525 41:0.052173913043478265 42:0.8571428571428571 43:0.8646671881402018 44:0.6133157792261977 45:0.018348623853211007 46:0.01327198216209012 47:0.2505605321384065 48:0.10299003322259136 49:0.09302325581395349 50:0.01834862385321101 51:0.0017203626421449466 52:0.6641868645966021 53:0.05060929467943533 54:0.07355688154056178 55:0.1726680246442835 56:0.184185807420522 57:0.0 
1.2176409155380419 0.0 0.0 0.0 0.0 0.0 0.23838997719008662 0.1075443118901751 0.0 0.017671012412260326 0.0 0.27668320761863235 0:0.0 1:0.0 2:0.0 3:0.0 4:0.0 5:0.026150627615062757 6:0.023114310835184435 7:0.0 8:0.0 9:0.030581032460494418 10:0.0 11:0.0 12:0.0 13:0.05305404785566806 14:1.0 15:0.053412966871558734 16:0.875 17:0.08846640308332743 18:0.08523913697016455 19:0.9999999999999998 20:1.0 21:1.0 22:1.0 23:1.0 24:0.0 25:1.0 26:0.0 27:0.028507209034592407 28:0.28994195503283016 29:0.9805744542721941 30:1.2204607149301395E-16 31:0.0 32:0.027642276422764227 33:1.0 34:0.02507122507122507 35:0.8627450980392157 36:1.0 37:0.00560266822556925 38:0.0 39:0.04895104895104895 40:0.13725490196078433 41:0.06086956521739131 42:0.875 43:0.9077200432078073 44:0.9690701577088182 45:0.021406727828746176 46:0.02053630734233495 47:0.352632757719674 48:0.12499999999999999 49:0.16279069767441862 50:0.021406727828746176 51:0.001884539385429376 52:0.9478581259188607 53:0.023149097334312488 54:0.038485134039697166 55:0.15750742539485044 56:0.1577934220819256 57:0.0 
0.0 0.0 0.021166077297748026 0.0 0.19754330559372607 0.507431106112472 0.2867289639109533 0.26162708172097776 0.47098603440398185 0.22671943227432842 0.061616016009811495 0.49117870630982974 0:0.0 1:0.0 2:0.0 3:0.0 4:0.0 5:0.1155857740585774 6:0.08359322578178378 7:0.0 8:0.0 9:0.01084958197615489 10:0.0 11:0.0 12:0.0 13:0.2994952420322702 14:0.8031432748538048 15:0.42748314134119153 16:0.5666666666666667 17:0.5004464982256258 18:0.5090579634504778 19:0.9999999999999998 20:1.0 21:1.0 22:1.0 23:1.0 24:0.0 25:1.0 26:0.22727272727272724 27:0.12375929682217714 28:0.23134210626526586 29:0.7717221619714875 30:8.136404766200929E-17 31:0.25392351794297635 32:0.11707317073170731 33:0.972972972972973 34:0.11794871794871795 35:0.9324324324324325 36:1.0 37:0.04716018797458072 38:0.0796812749003984 39:0.06293706293706294 40:0.04054054054054054 41:0.026086956521739132 42:0.1 43:0.6639937423175774 44:0.8775730828782556 45:0.08868501529051988 46:0.07399958755368237 47:0.43436664312144546 48:0.14883720930232558 49:0.16279069767441862 50:0.08868501529051988 51:0.001943195640334041 52:0.9831930490516679 53:0.061717879229556294 54:0.08880407710731518 55:0.1272338899034699 56:0.13627570396308414 57:0.0 
0.802839076698452 0.0 0.0 0.0 0.0 0.09577764494834015 0.0 0.18303769536319242 0.3953071402950472 0.0 0.0 0.0 0:0.0 1:0.0 2:0.0 3:0.5 4:0.0 5:0.048117154811715475 6:0.03575710466213031 7:0.0 8:0.0 9:0.010789093920991463 10:0.0 11:0.0 12:0.0 13:0.3344309877069136 14:0.8031432748538008 15:0.23575653797005527 16:0.7222222222222222 17:0.24260622176189184 18:0.24690030406342092 19:0.9999999999999998 20:1.0 21:1.0 22:1.0 23:1.0 24:0.0 25:1.0 26:0.0909090909090909 27:0.06585963488843813 28:0.23134210626526577 29:0.6858739337808983 30:1.627280953240186E-16 31:0.39711792753315445 32:0.04607046070460705 33:0.9139784946236559 34:0.04615384615384615 35:0.8709677419354839 36:1.0 37:0.023522501587910874 38:0.0 39:0.027972027972027972 40:0.043010752688172046 41:0.017391304347826087 42:0.1111111111111111 43:0.7797057399336983 44:0.815446378074673 45:0.051987767584097865 46:0.040611343690079654 47:0.31038950431885715 48:0.09689922480620156 49:0.06976744186046512 50:0.05198776758409786 51:0.0015520708866979794 52:0.9129656014256669 53:0.061717879229556294 54:0.08872610027522126 55:0.1272338899034699 56:0.13627734213371012 57:0.1111111111111111 
0.0 0.0 0.0 0.0 0.0 0.3955734067454578 0.0 0.0 0.0 0.0 0.0 0.0 0:0.0 1:0.0 2:0.0 3:0.0 4:0.0 5:0.03608786610878661 6:0.020784156161384862 7:0.0 8:0.0 9:0.008417715268562996 10:0.0 11:0.0 12:0.0 13:0.42792918228117766 14:0.6220029239766095 15:0.17594402118001176 16:0.6153846153846154 17:0.12028562607682418 18:0.12298093678288073 19:0.9999999999999998 20:1.0 21:1.0 22:1.0 23:1.0 24:0.0 25:1.0 26:0.045454545454545456 27:0.033852989471650725 28:0.17742611098719951 29:0.5890379729734802 30:1.2204607149301395E-16 31:0.6298071540258285 32:0.034688346883468835 33:0.9142857142857143 34:0.031908831908831904 35:0.8 36:1.0 37:0.00949697469752463 38:0.06097560975609756 39:0.055944055944055944 40:0.11428571428571428 41:0.06086956521739131 42:0.5384615384615384 43:0.8308444146459568 44:0.8846194498270858 45:0.03669724770642202 46:0.021882502874005113 47:0.2577631863177968 48:0.10196779964221826 49:0.06976744186046512 50:0.03669724770642202 51:0.0016254117319061587 52:0.9578856815269123 53:0.05060929467943533 54:0.07354904511566102 55:0.1726680246442835 56:0.18502813441544796 57:0.0 
0.0 0.0 0.0 0.8814461969934795 0.0 0.0 0.0 0.11655842457651357 0.0 0.03777015751187063 0.0 0.0 0:0.0 1:0.0 2:0.0 3:0.0 4:0.0 5:0.04968619246861924 6:0.02920608479261427 7:0.0 8:0.0 9:0.010780452770253822 10:0.02631578947368421 11:0.046875 12:0.0 13:0.3940933276215935 14:0.7947756761695904 15:0.29236301901677175 16:0.5 17:0.24260622176189184 18:0.24689781018910265 19:0.9999999999999998 20:1.0 21:1.0 22:1.0 23:1.0 24:0.0 25:1.0 26:0.0909090909090909 27:0.04575607805045282 28:0.24947186514563802 29:0.6580724935173128 30:1.627280953240186E-16 31:0.6956527614230835 32:0.044986449864498644 33:0.8645833333333334 34:0.04387464387464387 35:0.8020833333333334 36:1.0 37:0.02129216568062521 38:0.2803738317757009 39:0.04195804195804196 40:0.0625 41:0.026086956521739132 42:0.25 43:0.7797161694044026 44:0.8919142939262171 45:0.033639143730886854 46:0.020231977831146955 47:0.46789762231550985 48:0.16279069767441862 49:0.13953488372093026 50:0.03363914373088685 51:0.002100210826477005 52:0.9993435362359886 53:0.061717879229556294 54:0.08881368530877855 55:0.1272338899034699 56:0.13627570396308414 57:0.0 
5.337740143237714 5.4398634356405715 0.0 0.0 0.955038489097049 0.0 0.0 0.0 0.0 0.0 1.5549705663384212 0.0 0:0.0 1:0.0 2:0.0 3:0.5 4:0.0 5:0.024058577405857737 6:0.021934704091063066 7:0.0 8:0.0 9:0.006656154968190568 10:0.0 11:0.0 12:0.0 13:0.21033444967120835 14:0.5994152046783626 15:0.07212081857042471 16:0.8333333333333334 17:0.1115979988912237 18:0.13262531520986184 19:0.9999999999999998 20:1.0 21:1.0 22:1.0 23:0.0 24:0.0 25:1.0 26:0.045454545454545456 27:0.055983772819472616 28:0.17069681160681716 29:0.40217990911103696 30:1.2204607149301395E-16 31:0.1306796903654229 32:0.024932249322493223 33:0.9787234042553191 34:0.02336182336182336 35:0.8723404255319149 36:1.0 37:0.018920784473068324 38:0.09615384615384616 39:0.03496503496503497 40:0.10638297872340426 41:0.043478260869565216 42:0.8333333333333334 43:0.6922307892874436 44:0.46022604003449014 45:0.015290519877675842 46:0.014038509981434135 47:0.3895374991146614 48:0.15891472868217055 49:0.18604651162790697 50:0.01529051987767584 51:0.0021901258537705554 52:0.6116707333809048 53:0.1362106306917517 54:0.20419062894896922 55:0.1832667723614763 56:0.23185200862168048 57:0.0 
0.0 0.0 0.7114108838596886 0.0 0.0 0.0 0.0 0.0 0.0 0.0 0.0 0.0 0:0.0 1:0.0 2:0.0 3:0.0 4:0.0 5:0.03556485355648535 6:0.05117670967305324 7:0.0 8:0.0 9:0.03363012422077461 10:0.0 11:0.0 12:0.0 13:0.2952720856243847 14:0.4470977413340115 15:0.08324191286319604 16:0.8888888888888888 17:0.09182592876610456 18:0.11344897231418716 19:0.9999999999999998 20:1.0 21:1.0 22:1.0 23:0.0 24:0.0 25:1.0 26:0.045454545454545456 27:0.07601594740155278 28:0.1253542810203292 29:0.4637963967141877 30:0.1152540302649183 31:0.07761712642124968 32:0.03739837398373984 33:1.0 34:0.034757834757834755 35:0.8840579710144928 36:1.0 37:0.012785874381162136 38:0.0 39:0.055944055944055944 40:0.11594202898550725 41:0.06956521739130435 42:0.8888888888888888 43:0.6684918240399299 44:0.532961235710246 45:0.024464831804281346 46:0.044052471887721156 47:0.29705135984818754 48:0.15503875968992248 49:0.16279069767441862 50:0.024464831804281346 51:0.0020859990528635177 52:0.8124893002369559 53:0.1366579562441056 54:0.23837643156095362 55:0.20454077946577298 56:0.26877635817308215 57:0.0 
14.638239103537751 4.387960524661963 0.56402057290424 0.0 0.0 0.0 0.0 0.0 0.0 0.0 0.0 0.0 0:0.0 1:0.0 2:0.0 3:0.0 4:0.0 5:0.015690376569037653 6:0.0086413145533842 7:0.0 8:0.0 9:0.008417715268562996 10:0.0 11:0.0 12:0.0 13:0.046846481443926294 14:0.6220029239766093 15:0.04382545778376604 16:0.8 17:0.054134175206567624 18:0.055410002771561634 19:0.9999999999999998 20:1.0 21:1.0 22:1.0 23:0.0 24:0.0 25:1.0 26:0.0 27:0.016461277557942345 28:0.17742067097153225 29:0.535432435576537 30:1.2204607149301395E-16 31:0.0 32:0.016260162601626015 33:0.967741935483871 34:0.014245014245014244 35:0.8064516129032258 36:1.0 37:0.006724207233882814 38:0.14285714285714285 39:0.03496503496503497 40:0.16129032258064516 41:0.034782608695652174 42:0.8 43:0.8617379967966626 44:0.5291506346366022 45:0.012232415902140673 46:0.007576672937981854 47:0.3083677418984339 48:0.12093023255813955 49:0.11627906976744186 50:0.012232415902140673 51:0.0019578469699685548 52:0.5730353496287345 53:0.05060929467943533 54:0.07355433456456635 55:0.1726680246442835 56:0.18478209300724857 57:0.0 
0.0 0.21279864675867433 0.0 0.0 0.0 0.0 0.044446740973066466 0.0 0.22874810988009653 0.03011833439282617 0.0 0.0 0:0.0 1:0.0 2:0.0 3:0.0 4:0.0 5:0.02824267782426778 6:0.015589352307164258 7:0.0 8:0.0 9:0.008417715268562996 10:0.0 11:0.0 12:0.0 13:0.054563411784966875 14:0.6220029239766095 15:0.04778515358382502 16:0.5 17:0.054134175206567624 18:0.055248375625866576 19:0.9999999999999998 20:1.0 21:1.0 22:1.0 23:1.0 24:0.0 25:1.0 26:0.0 27:0.014798219854076474 28:0.17742067097153225 29:0.9031068114185359 30:1.2204607149301395E-16 31:0.0 32:0.028184281842818428 33:0.9454545454545454 34:0.0245014245014245 35:0.7818181818181819 36:1.0 37:0.0029631025178343245 38:0.08064516129032258 39:0.06293706293706294 40:0.16363636363636364 41:0.06086956521739131 42:0.875 43:0.8646627183670427 44:0.892511380809776 45:0.021406727828746176 46:0.01274689888523061 47:0.3243031188803961 48:0.1366279069767442 49:0.16279069767441862 50:0.021406727828746176 51:0.00197421121870762 52:0.9664306157098578 53:0.05060929467943533 54:0.07354904511566102 55:0.1726680246442835 56:0.18418671476319226 57:0.0 
0.0 0.0 1.1620698635210764 0.0 0.0 0.0 0.0 0.0 0.0 0.0 0.0 0.0 0:0.0 1:0.0 2:0.0 3:0.0 4:0.16666666666666666 5:0.04131799163179916 6:0.03730220907254402 7:0.0 8:0.0 9:0.01901053162279959 10:0.0 11:0.0 12:0.0 13:0.34954396295350826 14:0.590501644736842 15:0.14865050138266594 16:0.6666666666666666 17:0.12057443905548196 18:0.11742231672689889 19:0.9999999999999998 20:1.0 21:1.0 22:1.0 23:0.0 24:0.0 25:1.0 26:0.045454545454545456 27:0.06082488167680865 28:0.16861872562192964 29:0.6940565673092439 30:1.2204607149301395E-16 31:0.370700538578847 32:0.04227642276422764 33:0.975 34:0.039316239316239315 35:0.8625 36:1.0 37:0.009813095862776438 38:0.1098901098901099 39:0.06293706293706294 40:0.1125 41:0.0782608695652174 42:0.75 43:0.8815107833277461 44:0.8639587602102786 45:0.033639143730886854 46:0.03428025519672329 47:0.3292110053809444 48:0.13178294573643412 49:0.13953488372093026 50:0.03363914373088685 51:0.001882430241193559 52:0.9401896524669114 53:0.048644789962014615 54:0.07199687404330751 55:0.21195864857813726 56:0.21482247052936002 57:0.0 
0.0 0.0 0.0 0.0 0.0 0.10345035273611378 0.0 0.0 0.0 0.0 0.0 0.0 0:0.0 1:0.0 2:0.0 3:0.5 4:0.0 5:0.06171548117154811 6:0.038502934934446405 7:0.0 8:0.0 9:0.016036741318947344 10:0.0 11:0.0 12:0.0 13:0.2847314811388564 14:0.7841294412501847 15:0.22169627349592924 16:0.7 17:0.2440270488293115 18:0.24747507056349224 19:0.9999999999999998 20:1.0 21:1.0 22:1.0 23:1.0 24:0.0 25:1.0 26:0.0909090909090909 27:0.05453144016227181 28:0.2338009933468607 29:0.7455947122787662 30:1.627280953240186E-16 31:0.326899986487269 32:0.06287262872628727 33:0.9747899159663865 34:0.06438746438746439 35:0.9495798319327731 36:1.0 37:0.021642834426246798 38:0.036231884057971016 39:0.02097902097902098 40:0.025210084033613446 41:0.017391304347826087 42:0.1 43:0.7826975081014637 44:0.8840613033924548 45:0.0581039755351682 46:0.03610968761086877 47:0.31620112213078516 48:0.11511627906976744 49:0.11627906976744186 50:0.0581039755351682 51:0.0017074338966231793 52:0.9903646220038798 53:0.061619094836744825 54:0.08868748971229151 55:0.11967052318930746 56:0.12774911196328198 57:0.0 
0.0 0.4763732747434072 1.1200043999269746 0.10287205542204333 0.0 0.0 0.0 0.0 0.0 0.0 0.0 0.0 0:0.0 1:0.0 2:0.0 3:0.0 4:0.0 5:0.03817991631799163 6:0.022791352660758678 7:0.0 8:0.0 9:0.00838685401592861 10:0.0 11:0.0 12:0.0 13:0.3973827812052642 14:0.6220029239766095 15:0.16817135513244819 16:0.5 17:0.12026238825095516 18:0.1224824651611575 19:0.9999999999999998 20:1.0 21:1.0 22:1.0 23:1.0 24:0.0 25:1.0 26:0.045454545454545456 27:0.030256737177629677 28:0.17742067097153225 29:0.6195356857388388 30:1.2204607149301395E-16 31:0.5958631739474547 32:0.03685636856368564 33:0.918918918918919 34:0.029629629629629627 35:0.7027027027027027 36:1.0 37:0.009309807992852706 38:0.18072289156626506 39:0.11188811188811189 40:0.21621621621621623 41:0.06956521739130435 42:0.8 43:0.8348076135136142 44:0.8984562893460787 45:0.027522935779816512 46:0.017713342054637295 47:0.36007017624459453 48:0.14883720930232558 49:0.18604651162790697 50:0.027522935779816515 51:0.0020285211843786514 52:0.9728185939126985 53:0.05065961880407514 54:0.0735961344729359 55:0.17265548174757675 56:0.18420916533371592 57:0.0 
7.160113213433357 0.20469496590784925 0.0 0.2652767217672556 1.217827653573755 0.33818512017861807 0.25555622759369984 0.46125709522348857 0.22386235895565668 0.8017512599981158 0.03925016632578691 0.2825923242372701 0:0.0 1:0.0 2:0.0 3:0.0 4:0.0 5:0.010983263598326359 6:0.016643636401989872 7:0.0 8:0.0 9:0.018104445245453123 10:0.0 11:0.0 12:0.0 13:0.06554027504911593 14:0.9118421052631585 15:0.04646829909081397 16:1.0 17:0.08045931222674804 18:0.07741508375847582 19:0.9999999999999998 20:1.0 21:1.0 22:1.0 23:0.0 24:0.0 25:1.0 26:0.0 27:0.04320324543610548 28:0.2636993194540399 29:0.428579737990611 30:1.2204607149301395E-16 31:0.0 32:0.011924119241192412 33:1.0 34:0.011965811965811965 35:0.9545454545454546 36:1.0 37:0.01440633917932253 38:0.0 39:0.006993006993006993 40:0.045454545454545456 41:0.008695652173913044 42:0.25 43:0.9129452080306925 44:0.42355155437291975 45:0.009174311926605505 46:0.01815802856971766 47:0.303644340819948 48:0.10465116279069768 49:0.11627906976744186 50:0.009174311926605505 51:0.0018922447312996458 52:0.42437129593074946 53:0.009170173823254218 54:0.026646282732332008 55:0.20111782295450442 56:0.20105042820416633 57:0.0 
0.0 0.0 0.331103561464164 0.0391346763008549 0.0 1.3233460348482777 0.029990114925635435 0.0 0.15582769732680074 0.0 0.0 0.0 0:0.0 1:0.0 2:0.0 3:0.0 4:0.0 5:0.036610878661087864 6:0.017638789538358835 7:0.0 8:0.0 9:0.019767249537395427 10:0.0 11:0.0 12:0.0 13:0.5564862625103583 14:0.4210526315789474 15:0.14855428504842186 16:0.8333333333333334 17:0.08129587395803245 18:0.08219410441061581 19:0.9999999999999998 20:1.0 21:1.0 22:1.0 23:0.0 24:0.0 25:1.0 26:0.045454545454545456 27:0.021247569059618162 28:0.11760225869450491 29:0.4220163690196977 30:0.5860607321369613 31:0.3951894677914406 32:0.03848238482384824 33:1.0 34:0.039886039886039885 35:0.9859154929577465 36:1.0 37:0.006578648799256158 38:0.0 39:0.006993006993006993 40:0.014084507042253521 41:0.008695652173913044 42:0.08333333333333333 43:0.8606429023727048 44:0.7966789359985907 45:0.033639143730886854 46:0.016822412411320663 47:0.19647051391752282 48:0.11434108527131782 49:0.11627906976744186 50:0.03363914373088685 51:0.0017424054173621373 52:0.9953700142906843 53:0.12513745941452542 54:0.17737611991220778 55:0.06501861365871281 56:0.06977421897768256 57:0.0 
0.0 0.0 0.0 0.0 0.18286439513620542 0.0 0.18291807262782353 0.09476229108784076 0.0 0.0 0.022272711312499603 0.0 0:0.0 1:0.0 2:0.0 3:0.0 4:0.0 5:0.04131799163179916 6:0.0251550120798071 7:0.0 8:0.0 9:0.010780452770253822 10:0.0 11:0.0 12:0.0 13:0.4957881425218444 14:0.8031432748538002 15:0.35544836441880945 16:0.8 17:0.24260622176189184 18:0.24646428005256094 19:0.9999999999999998 20:1.0 21:1.0 22:1.0 23:1.0 24:0.0 25:1.0 26:0.0909090909090909 27:0.05751254403757873 28:0.23134210626526577 29:0.562762919404531 30:1.627280953240186E-16 31:0.8541957029515664 32:0.04336043360433604 33:1.0 34:0.04273504273504273 35:0.9375 36:1.0 37:0.021451375709538863 38:0.0 39:0.03496503496503497 40:0.0625 41:0.026086956521739132 42:0.2 43:0.781532387231348 44:0.8859842198466489 45:0.04281345565749236 46:0.02714441077766084 47:0.3064963753759099 48:0.10077519379844961 49:0.09302325581395349 50:0.04281345565749235 51:0.0016017805581880853 52:0.9926257205763709 53:0.061717879229556294 54:0.08880524875168262 55:0.1272338899034699 56:0.13599092764939077 57:0.0 
1.0233712571152032 0.0 0.0 0.0 0.0 0.0 0.0 0.0 0.0 0.0 0.0 0.0 0:0.0 1:0.0 2:0.0 3:0.5 4:0.0 5:0.03608786610878661 6:0.013456516594474126 7:0.0 8:0.0 9:0.0031577233695533244 10:0.0 11:0.0 12:0.0 13:0.3246342708294221 14:0.7538377192982462 15:0.15813638792886903 16:0.9 17:0.12586270428538696 18:0.11592393868328614 19:0.9999999999999998 20:1.0 21:1.0 22:1.0 23:1.0 24:0.0 25:1.0 26:0.045454545454545456 27:0.019886961145355365 28:0.21666494399503844 29:0.6585650276382005 30:1.2204607149301395E-16 31:0.6638708182923769 32:0.037940379403794036 33:1.0 34:0.035897435897435895 35:0.9 36:1.0 37:0.008942270007398383 38:0.0 39:0.04895104895104895 40:0.1 41:0.052173913043478265 42:0.6 43:0.940374715983164 44:0.9696913505845705 45:0.027522935779816512 46:0.010947450889680521 47:0.3766402692195045 48:0.13953488372093026 49:0.13953488372093026 50:0.027522935779816515 51:0.001962108714184997 52:0.9981599814254395 53:0.035310760788933165 54:0.05370656651137158 55:0.11050291998635337 56:0.10486575143571403 57:0.0 
0.0 0.0 0.0 0.0 0.0 0.0 0.0 0.0 0.29643698620538983 0.0 0.0 0.0 0:0.0 1:0.0 2:0.0 3:0.0 4:0.16666666666666666 5:0.06171548117154811 6:0.03895641184737646 7:0.0 8:0.0 9:0.010780452770253785 10:0.0 11:0.0 12:0.0 13:0.34288290466387755 14:0.8031432748538018 15:0.29311914084184115 16:0.6363636363636364 17:0.32861605468192395 18:0.3337629125285228 19:0.9999999999999998 20:1.0 21:1.0 22:1.0 23:0.0 24:0.0 25:1.0 26:0.13636363636363635 27:0.07601594740155278 28:0.23134210626526586 29:0.6379212808513993 30:1.2204607149301395E-16 31:0.4997104414802232 32:0.061788617886178863 33:0.957983193277311 34:0.06267806267806267 35:0.9243697478991597 36:1.0 37:0.035191204085282854 38:0.07142857142857142 39:0.027972027972027972 40:0.03361344537815126 41:0.017391304347826087 42:0.09090909090909091 43:0.7429299363057325 44:0.7608259083786867 45:0.06422018348623852 46:0.04186610596795494 47:0.31617264337656215 48:0.1025369978858351 49:0.09302325581395349 50:0.06422018348623854 51:0.0015922105592499833 52:0.8524684502150695 53:0.061717879229556294 54:0.08881181040939362 55:0.1272338899034699 56:0.13599092764939077 57:0.0 
0.0 0.0 0.0 0.0 0.0 0.6318242128211443 0.012674823211362995 0.0 0.07977779338080596 0.0 0.028098260989554848 0.0 0:0.0 1:0.0 2:0.0 3:0.0 4:0.0 5:0.04864016736401673 6:0.028870553367036485 7:0.0 8:0.0 9:0.010780452770253822 10:0.0 11:0.0 12:0.0 13:0.41196930282582644 14:0.8031432748538001 15:0.30390159649074294 16:0.6666666666666666 17:0.24260622176189184 18:0.24646428005256094 19:0.9999999999999998 20:1.0 21:1.0 22:1.0 23:1.0 24:0.0 25:1.0 26:0.0909090909090909 27:0.047143487079989416 28:0.23134210626526577 29:0.6510769454003255 30:1.627280953240186E-16 31:0.7648804123313322 32:0.05040650406504065 33:0.9893617021276596 34:0.05242165242165242 35:0.9787234042553191 36:1.0 37:0.021285095902762254 38:0.046296296296296294 39:0.006993006993006993 40:0.010638297872340425 41:0.008695652173913044 42:0.06666666666666667 43:0.781532387231348 44:0.8921794598403442 45:0.04281345565749236 46:0.029653767280503975 47:0.3605791741561526 48:0.12248062015503876 49:0.11627906976744186 50:0.04281345565749235 51:0.0017884571506184784 52:0.9903351530198232 53:0.061717879229556294 54:0.08776350228289483 55:0.1272338899034699 56:0.13599092764939077 57:0.0 
0.0 0.0 0.0 0.0 0.0 0.0 0.0 0.0 0.10310225009051734 0.0 0.0 0.0 0:0.0 1:0.0 2:0.0 3:0.0 4:0.0 5:0.03765690376569037 6:0.021771766727648818 7:0.0 8:0.0 9:0.008417715268562996 10:0.0 11:0.0 12:0.0 13:0.4429256821557389 14:0.6220029239766095 15:0.1863590125110081 16:0.7 17:0.12028562607682418 18:0.12249093398872724 19:0.9999999999999998 20:1.0 21:1.0 22:1.0 23:1.0 24:0.0 25:1.0 26:0.045454545454545456 27:0.032218329338004795 28:0.17742067097153225 29:0.5881345246717378 30:1.2204607149301395E-16 31:0.7054456305619365 32:0.03902439024390244 33:0.9863013698630136 34:0.035897435897435895 35:0.863013698630137 36:1.0 37:0.00903449318351144 38:0.06097560975609756 39:0.06293706293706294 40:0.1232876712328767 41:0.0782608695652174 42:0.9 43:0.8349238276157483 44:0.9200552583513356 45:0.027522935779816512 46:0.017171254881241115 47:0.3406269920118529 48:0.14651162790697675 49:0.16279069767441862 50:0.027522935779816515 51:0.0020122230554387006 52:0.9963575829136971 53:0.05060929467943533 54:0.07355923271320466 55:0.1726680246442835 56:0.18419669604635702 57:0.0 
-0.0 0.0 0.0 0.0 0.0 0.5294537642035487 0.0 4.801111733619767 0.0 0.0 0.0 0.0 0:0.0 1:0.0 2:0.0 3:0.0 4:0.0 5:0.04497907949790794 6:0.01666133520625272 7:0.0 8:0.0 9:0.003994680540998658 10:0.0 11:0.0 12:0.0 13:0.0751138839374137 14:0.3356725146198825 15:0.04373358627925019 16:0.5384615384615384 17:0.028127728369733675 18:0.026808979265900586 19:0.9999999999999998 20:1.0 21:0.0 22:1.0 23:0.0 24:0.0 25:1.0 26:0.0 27:0.018119385685308607 28:0.09218650549713565 29:0.6051152248394809 30:1.2204607149301395E-16 31:0.0 32:0.03685636856368564 33:0.7816091954022989 34:0.035327635327635325 35:0.7126436781609196 36:1.0 37:0.0018921353481690904 38:0.15151515151515152 39:0.04195804195804196 40:0.06896551724137931 41:0.043478260869565216 42:0.38461538461538464 43:0.9484679852497485 44:0.5980158914117768 45:0.03669724770642202 46:0.013415557572001047 47:0.12836916433018264 48:0.1323792486583184 49:0.11627906976744186 50:0.03669724770642202 51:0.0018787312590130088 52:0.6254688768266312 53:0.04551537495200571 54:0.0651383723778292 55:0.015193210780870582 56:0.01500173972704984 57:0.6666666666666666 
-0.0 0.0 0.0 0.4407293195052959 0.0 0.0 0.0 0.0 0.0 0.0 0.0 0.0 0:0.0 1:0.0 2:0.0 3:0.0 4:0.0 5:0.0067991631799163175 6:0.0025478223077028913 7:0.0 8:0.0 9:0.003994680540998658 10:0.0 11:0.0 12:0.0 13:0.03486659027664114 14:0.25175438596491245 15:0.03987136978786213 16:0.5 17:0.020505721484697842 18:0.019563509548962594 19:0.953492246124999 20:1.0 21:0.0 22:1.0 23:0.0 24:0.0 25:1.0 26:0.0 27:0.018119385685308607 28:0.06720595355314606 29:0.06758318666761735 30:1.2204607149301395E-16 31:0.0 32:0.007046070460704607 33:0.9285714285714286 34:0.0062678062678062675 35:0.7857142857142857 36:1.0 37:0.026687669269040246 38:0.0 39:0.013986013986013986 40:0.14285714285714285 41:0.008695652173913044 42:0.5 43:0.9518888516407792 44:0.06679028713945319 45:0.0030581039755351682 46:0.0013292998015826758 47:0.09681105821412368 48:0.13953488372093026 49:0.16279069767441862 50:0.0030581039755351682 51:0.0026825704400511912 52:0.06988005096032376 53:0.09156754056683604 54:0.11109361995170722 55:0.0024107447470348604 56:0.002380363556128931 57:0.0 
-0.0 0.0 0.34382794997725286 0.691220144497556 0.0 0.09764011075820297 0.01132824349766087 0.0 0.0 0.24018601539034137 0.0 0.0 0:0.0 1:0.0 2:0.0 3:0.0 4:0.0 5:0.012029288702928869 6:0.0044811802390110865 7:0.0 8:0.0 9:0.02371502097438981 10:0.05263157894736842 11:0.375 12:0.0 13:0.0 14:0.33567251461988223 15:0.039660893194801955 16:0.0 17:0.02812772836973358 18:0.026808979265900496 19:0.4522544929085843 20:1.0 21:0.0 22:1.0 23:0.0 24:0.0 25:1.0 26:0.0 27:0.018119385685308607 28:0.09218650549713533 29:0.16461522296316033 30:1.2204607149301395E-16 31:0.0 32:0.011924119241192412 33:0.9166666666666666 34:0.012535612535612535 35:0.9166666666666666 36:1.0 37:0.013630528336762354 38:0.41666666666666663 39:0.0 40:0.0 41:0.0 42:0.0 43:0.9484679852497485 44:0.1626839240846677 45:0.0 46:2.305490951810057E-4 47:0.5038275341262137 48:0.5348837209302325 49:0.5348837209302325 50:0.0 51:1.0000000000000002 52:0.17017158948927227 53:0.04551537495200571 54:0.0651383723778292 55:0.9264032992835499 56:0.9147283861572105 57:0.0 
-0.0 0.9009208730547563 0.0 0.0 0.0 0.2072614165175687 0.0 0.0 2.8002246071094183 0.0 0.0 0.287582297599398 0:0.0 1:0.0 2:0.0 3:0.0 4:0.0 5:0.018828451882845185 6:0.006994545549711741 7:0.0 8:0.0 9:0.02371502097438981 10:0.0 11:0.0 12:0.0 13:0.06486616831444429 14:0.33567251461988223 15:0.04113861945225713 16:1.0 17:0.02812772836973358 18:0.026808979265900496 19:0.7358530037306927 20:1.0 21:0.0 22:1.0 23:0.0 24:0.0 25:1.0 26:0.0 27:0.018119385685308607 28:0.09218650549713533 29:0.24780376690095665 30:1.2204607149301395E-16 31:0.0 32:0.02005420054200542 33:1.0 34:0.019943019943019943 35:0.9459459459459459 36:1.0 37:0.00823259416044763 38:0.0 39:0.013986013986013986 40:0.05405405405405406 41:0.017391304347826087 42:0.4 43:0.9484679852497485 44:0.24489648330660052 45:0.012232415902140673 46:0.004625551920787686 47:0.1385527154531307 48:0.14883720930232558 49:0.16279069767441862 50:0.012232415902140673 51:0.0021705916723067627 52:0.25615460476984353 53:0.39122347266281715 54:0.4101189179502306 55:0.9264032992835499 56:0.9147283861572105 57:0.0 
-0.0 0.0 0.0 0.0 0.0 0.0 0.06353869518916401 0.0 2.265739636689094 0.0 0.0 0.0 0:0.0 1:0.0 2:0.0 3:0.0 4:1.0 5:0.11924686192468618 6:0.04594175440191743 7:0.0 8:0.0 9:0.011589017589275528 10:0.23684210526315788 11:0.17685589519650655 12:0.0 13:0.10631480074128483 14:0.35610667407237084 15:0.057269955987989105 16:0.3902439024390244 17:0.31680791945105613 18:0.2911958764112003 19:0.31808568250343955 20:1.0 21:0.0 22:1.0 23:0.0 24:0.0 25:1.0 26:0.4090909090909091 27:0.09151191054934371 28:0.0986100759970185 29:0.1673807316899268 30:3.435291513226356E-6 31:0.02086365654498773 32:0.0975609756097561 33:0.7860262008733624 34:0.09116809116809116 35:0.6986899563318777 36:1.0 37:0.15443555102196738 38:0.3159851301115241 39:0.13986013986013987 40:0.08733624454148471 41:0.12173913043478261 42:0.34146341463414637 43:0.8570030170968824 44:0.1753970535060312 45:0.12232415902140671 46:0.05017700318629675 47:0.11359581749470164 48:0.10663641520136131 49:0.09302325581395349 50:0.12232415902140673 51:0.001603924453154059 52:0.1732241730008941 53:0.059000376499006565 54:0.07289647713211204 55:0.6369471091131671 56:0.6072206730782189 57:0.03333333333333333 
-0.0 0.0 0.0 0.0 0.0 0.09500862875749533 0.0 0.0 0.0 0.0 0.0 0.0 0:0.0 1:0.0 2:0.07692307692307693 3:0.0 4:0.0 5:0.02144351464435146 6:0.008296259170325272 7:0.0 8:0.0 9:0.01443936288259005 10:0.0 11:0.0 12:0.0 13:1.0 14:0.0 15:0.10941657821618977 16:0.5714285714285714 17:0.4580175478782204 18:0.42099105474023985 19:0.0037853839173327647 20:1.0 21:0.0 22:1.0 23:0.0 24:0.0 25:1.0 26:0.045454545454545456 27:0.016614755335020874 28:0.9863999608318869 29:0.022745694782703333 30:0.04395455491027233 31:0.028683666969094527 32:0.02059620596205962 33:0.9047619047619048 34:0.018233618233618232 35:0.7619047619047619 36:1.0 37:0.7712078488322288 38:0.0 39:0.04195804195804196 40:0.14285714285714285 41:0.008695652173913044 42:0.14285714285714285 43:0.7936261034752488 44:0.05049092780255346 45:0.018348623853211007 46:0.007846833354209137 47:0.04806752802250515 48:0.11627906976744186 49:0.13953488372093026 50:0.01834862385321101 51:0.0018373563276009247 52:0.04983573181383886 53:0.9928595658705516 54:0.9530991551214001 55:0.4202698227939554 56:0.4003483022990987 57:0.0 
-0.0 0.0 0.0 0.3099798373968552 0.0 0.0 0.0 0.5024125789946932 0.0 0.0 0.0 0.0 0:0.0 1:0.0 2:0.0 3:0.0 4:0.0 5:0.009414225941422594 6:0.0036660645696481604 7:0.0 8:0.0 9:0.025093901742095418 10:0.05263157894736842 11:0.47368421052631576 12:0.0 13:0.2657410881801119 14:0.437828947368423 15:0.046598885606613835 16:0.125 17:0.037406260270289204 18:0.034379194838367017 19:0.5579388776675155 20:1.0 21:1.0 22:1.0 23:0.0 24:0.0 25:1.0 26:0.0909090909090909 27:0.025976899736811228 28:0.12259619307703637 29:0.061301265765782646 30:0.20036337750227615 31:0.17753991081597592 32:0.005962059620596206 33:0.5789473684210527 34:0.004558404558404558 35:0.42105263157894735 36:1.0 37:0.013002222677366573 38:0.38461538461538464 39:0.02097902097902098 40:0.15789473684210525 41:0.026086956521739132 42:0.375 43:0.9824025030729692 44:0.22120029298052052 45:0.021406727828746176 46:0.009091838349270537 47:0.05909850516559182 48:0.03197674418604651 49:0.023255813953488372 50:0.021406727828746176 51:8.057210276359589E-4 52:0.21847087558048806 53:0.4035920241854016 54:0.39768900962346515 55:0.9727104196351524 56:0.9277902779882575 57:0.0 
-0.0 0.0 1.60467653736433 0.0 0.0 0.0 0.0 0.0 0.0 0.0 0.0 0.0 0:0.0 1:0.0 2:0.0 3:0.0 4:0.16666666666666666 5:0.03190376569037656 6:0.014539925713903615 7:0.0 8:0.0 9:0.013450568348183383 10:0.0 11:0.0 12:0.0 13:0.14819801879679512 14:0.39367336351631776 15:0.04772088556367066 16:0.7 17:0.07556277034720613 18:0.06946120432002834 19:0.3897415140583671 20:1.0 21:0.0 22:1.0 23:0.0 24:0.0 25:1.0 26:0.045454545454545456 27:0.01725490196078432 28:0.11061183856209487 29:0.23668093921096975 30:1.2204607149301395E-16 31:0.0032739416636102118 32:0.03252032520325203 33:0.967741935483871 34:0.031908831908831904 35:0.9032258064516129 36:1.0 37:0.026066393180195598 38:0.0 39:0.027972027972027972 40:0.06451612903225806 41:0.026086956521739132 42:0.3 43:0.9651193801914554 44:0.2354766032802693 45:0.027522935779816512 46:0.012574243625311845 47:0.13190836889044583 48:0.12093023255813955 49:0.11627906976744186 50:0.027522935779816515 51:0.0018185507179103787 52:0.23713223754033202 53:0.026054849568144453 54:0.043130502181393 55:0.9727104196351524 56:0.9279212121008642 57:0.0 
-0.0 0.0 0.5555775518749043 1.1508303282237275 0.0 0.0 0.0 0.0 0.0 1.0786015345227566 0.0 0.0 0:0.0 1:0.0 2:0.0 3:0.0 4:0.0 5:0.009414225941422594 6:0.0043455935537199935 7:0.0 8:0.0 9:0.02378168128008011 10:0.05263157894736842 11:0.47368421052631576 12:0.0 13:0.2657410881801118 14:0.437828947368423 15:0.046598885606613835 16:0.125 17:0.037406260270289204 18:0.03438420562032736 19:0.5675014269140232 20:1.0 21:0.0 22:1.0 23:0.0 24:0.0 25:1.0 26:0.0 27:0.0075726842461122405 28:0.12259619307703637 29:0.22382626773591927 30:1.2204607149301395E-16 31:0.0 32:0.005962059620596206 33:0.5789473684210527 34:0.004558404558404558 35:0.42105263157894735 36:1.0 37:0.013002222677366566 38:0.38461538461538464 39:0.02097902097902098 40:0.15789473684210525 41:0.026086956521739132 42:0.375 43:0.9822445710880171 44:0.22120029298052063 45:0.021406727828746176 46:0.009885754578005342 47:0.05909850516559199 48:0.03197674418604651 49:0.023255813953488372 50:0.021406727828746176 51:8.057210276359589E-4 52:0.22275439749417034 53:0.39507233626952853 54:0.39772758992332663 55:0.9727104196351524 56:0.9279212121008642 57:0.0 
-0.16035120466965375 0.0 0.0 0.0 0.0 0.0 0.0 0.0 0.0 0.0 0.0 0.0 0:0.0 1:0.0 2:0.07692307692307693 3:0.0 4:0.0 5:0.02144351464435146 6:0.009798375871957745 7:0.0 8:0.0 9:0.006490738654070121 10:0.0 11:0.0 12:0.0 13:1.0 14:0.0 15:0.10882370398911337 16:0.8333333333333334 17:0.4580175478782206 18:0.4210490646119357 19:0.5855700754678971 20:1.0 21:0.0 22:1.0 23:0.0 24:0.0 25:1.0 26:0.045454545454545456 27:0.01725490196078432 28:1.0 29:0.01898836306050384 30:0.041859027087273695 31:0.03691292010115244 32:0.02059620596205962 33:0.9047619047619048 34:0.018233618233618232 35:0.7619047619047619 36:1.0 37:0.7778453767675922 38:0.0 39:0.04195804195804196 40:0.14285714285714285 41:0.008695652173913044 42:0.16666666666666666 43:0.7934681714902968 44:0.05005145702179739 45:0.015290519877675842 46:0.007197265530698841 47:0.04566911498682044 48:0.13953488372093026 49:0.16279069767441862 50:0.01529051987767584 51:0.0020541941203895357 52:0.05038839144395111 53:7.250401661068953E-4 54:0.01879052651436161 55:0.4259492464227659 56:0.40583009749342275 57:0.0 
-0.0 0.0 0.0 0.0 0.0 0.2075503137366275 0.13208137621691887 0.0 0.0 0.0 0.0 0.0 0:0.0 1:0.0 2:0.07692307692307693 3:0.0 4:0.0 5:0.02144351464435146 6:0.007424624263491105 7:0.0 8:0.0 9:0.014726989757142874 10:0.0 11:0.0 12:0.0 13:1.0 14:0.0 15:0.09350903724581676 16:0.7142857142857143 17:0.4580175478782204 18:0.42093634302207295 19:0.0 20:1.0 21:0.0 22:1.0 23:0.0 24:0.0 25:1.0 26:0.045454545454545456 27:0.014798219854076474 28:0.9863999608318869 29:0.016641086164388242 30:0.04437824086355593 31:0.016408316120687994 32:0.02059620596205962 33:0.9047619047619048 34:0.018233618233618232 35:0.7619047619047619 36:1.0 37:0.9999999999999999 38:0.0 39:0.04195804195804196 40:0.14285714285714285 41:0.008695652173913044 42:0.14285714285714285 43:0.7937750959138823 44:0.03869938900581326 45:0.018348623853211007 46:0.0065238678945613495 47:0.04272924390305917 48:0.11627906976744186 49:0.13953488372093026 50:0.01834862385321101 51:0.0018373563276009247 52:0.038645039694516735 53:0.9930142659574074 54:0.9645980267269163 55:0.4202698227939554 56:0.4002930064837292 57:0.0 
-0.0 0.0 0.0 0.0 148.63529379847273 0.0 0.0 0.0 0.0 0.0 0.0 0.0 0:0.0 1:0.0 2:0.0 3:1.0 4:0.0 5:0.007845188284518828 6:0.0027300747503932027 7:0.0 8:0.0 9:0.022375642610056173 10:0.0 11:0.0 12:0.0 13:0.04841690279659963 14:0.43782894736842126 15:0.040476861168424 16:1.0 17:0.03740626027028906 18:0.03437446894461128 19:0.436526004071812 20:1.0 21:0.0 22:1.0 23:0.0 24:0.0 25:1.0 26:0.0 27:0.006344343192758318 28:0.1225961930770359 29:0.13587937511023385 30:1.2204607149301395E-16 31:0.0 32:0.008672086720867209 33:1.0 34:0.007977207977207976 35:0.875 36:1.0 37:0.022965552511770276 38:0.0 39:0.013986013986013986 40:0.125 41:0.017391304347826087 42:1.0 43:0.9825514955116027 44:0.1342852109737894 45:0.0030581039755351682 46:0.0012438182475741969 47:0.1989312766678345 48:0.16279069767441862 49:0.16279069767441862 50:0.0030581039755351682 51:0.002850862195498159 52:0.13416624844523145 53:0.8600299708120078 54:0.837798616047482 55:0.032030795319994386 56:0.029670200563735562 57:0.0 
-0.0 0.0 0.0 0.0 0.0 0.0 0.044554680776902 0.006892137106471992 0.0 0.0 0.0 0.0 0:0.0 1:0.0 2:0.07692307692307693 3:0.0 4:0.16666666666666666 5:0.025104602510460247 6:0.025078366580807154 7:0.0 8:0.0 9:0.2717121635955738 10:0.0 11:0.0 12:0.0 13:1.0 14:0.0 15:0.11656859262636382 16:0.5714285714285714 17:0.4580175478782204 18:0.4209357959763364 19:0.9999999999999998 20:1.0 21:0.0 22:1.0 23:0.0 24:0.0 25:1.0 26:0.045454545454545456 27:0.02693711967545639 28:0.9913122949794093 29:0.025289047166943864 30:0.05300082256146768 31:0.028388317278922104 32:0.023306233062330622 33:0.8775510204081632 34:0.019943019943019943 35:0.7142857142857143 36:1.0 37:0.6992062271512188 38:0.09090909090909091 39:0.055944055944055944 40:0.16326530612244897 41:0.017391304347826087 42:0.2857142857142857 43:0.7937765858382689 44:0.055792391778002506 45:0.018348623853211007 46:0.034708242494232495 47:0.05111117856548067 48:0.13953488372093026 49:0.13953488372093026 50:0.01834862385321101 51:0.0020203968141946087 52:0.042097011713576604 53:0.9874003302753663 54:0.7238212909721786 55:0.4202698227939554 56:0.4002924535977833 57:0.0 
-0.0 0.0 0.051474616560459624 0.0 0.0 0.0 0.015057316412348986 0.0 0.0 0.0 0.0 0.0 0:0.0 1:0.0 2:0.0 3:0.0 4:0.0 5:0.009414225941422594 6:0.009626991860234255 7:0.0 8:0.0 9:0.023771805679237052 10:0.05263157894736842 11:0.47368421052631576 12:0.0 13:0.2657410881801119 14:0.437828947368423 15:0.046598885606613835 16:0.125 17:0.037406260270289204 18:0.034374421691845146 19:0.4292966121498615 20:1.0 21:1.0 22:1.0 23:0.0 24:0.0 25:1.0 26:0.0 27:0.012413793103448277 28:0.12259619307703637 29:0.22382626773591915 30:1.2204607149301395E-16 31:0.0 32:0.005962059620596206 33:0.5789473684210527 34:0.004558404558404558 35:0.42105263157894735 36:1.0 37:0.013002222677366573 38:0.38461538461538464 39:0.02097902097902098 40:0.15789473684210525 41:0.026086956521739132 42:0.375 43:0.9825529854359892 44:0.22120029298052052 45:0.021406727828746176 46:0.03979059165215438 47:0.05909850516559182 48:0.03197674418604651 49:0.023255813953488372 50:0.021406727828746176 51:8.057210276359589E-4 52:0.16782090684191012 53:0.4035920241854016 54:0.30042953721707527 55:0.9725323105019166 56:0.9274955261340126 57:0.0 
-0.0 0.0 0.0 0.0 18.39333476578596 0.0 0.0 0.0 3.2372836321507634 0.0 0.0 0.0 0:0.0 1:0.0 2:0.0 3:1.0 4:0.0 5:0.007845188284518828 6:0.008081854388176964 7:0.0 8:0.0 9:0.049375535314853086 10:0.0 11:0.0 12:0.0 13:0.04841690279659963 14:0.43782894736842126 15:0.040476861168424 16:1.0 17:0.03740626027028906 18:0.034374421691845014 19:0.5714227393920284 20:1.0 21:0.0 22:1.0 23:0.0 24:0.0 25:1.0 26:0.0 27:0.012413793103448277 28:0.1225961930770359 29:0.13587937511023385 30:1.2204607149301395E-16 31:0.0 32:0.008672086720867209 33:1.0 34:0.007977207977207976 35:0.875 36:1.0 37:0.022965552511770276 38:0.0 39:0.013986013986013986 40:0.125 41:0.017391304347826087 42:1.0 43:0.9825529854359892 44:0.1342852109737894 45:0.0030581039755351682 46:0.009296496704623096 47:0.1989312766678345 48:0.16279069767441862 49:0.16279069767441862 50:0.0030581039755351682 51:0.002850862195498159 52:0.10175814577763743 53:0.8600299708120078 54:0.6314492583939044 55:0.032030795319994386 56:0.02967012686284508 57:0.0 
-0.0 0.0 0.0 0.032302051628041756 0.0 1.9427080736797104 0.0 0.0 0.0 0.5888398335557173 0.0 0.0 0:0.0 1:0.0 2:0.0 3:0.0 4:0.0 5:0.02824267782426778 6:0.028168641524921732 7:0.0 8:0.0 9:0.04912123859314551 10:0.0 11:0.0 12:0.0 13:0.10602279625008368 14:0.4378289473684215 15:0.04582682598083191 16:0.8181818181818182 17:0.03740626027028906 18:0.034374421691845014 19:0.6827575236287975 20:1.0 21:0.0 22:1.0 23:0.0 24:0.0 25:1.0 26:0.0 27:0.012413793103448277 28:0.1225961930770359 29:0.49957219893500054 30:1.2204607149301395E-16 31:0.0 32:0.02981029810298103 33:1.0 34:0.030769230769230767 35:0.9818181818181818 36:1.0 37:0.004451449543756842 38:0.0 39:0.006993006993006993 40:0.01818181818181818 41:0.008695652173913044 42:0.09090909090909091 43:0.9825529854359892 44:0.49371111749816887 45:0.030581039755351678 46:0.05503763912592002 47:0.12262361632670539 48:0.09302325581395349 49:0.09302325581395349 50:0.03058103975535168 51:0.0015581687618870716 52:0.3749520177133596 53:0.026054849568144453 54:0.026630543949043656 55:0.032289178992153174 56:0.029916786139705723 57:0.0 
-0.0 0.0 0.01416601332946307 0.0 0.0 0.0 0.08080550949481542 0.0 0.0 0.0 0.0 0.0 0:0.0 1:0.0 2:0.0 3:0.0 4:0.0 5:0.010983263598326359 6:0.011172129332291544 7:0.0 8:0.0 9:0.023947097594200595 10:0.07894736842105263 11:0.6136363636363635 12:0.0 13:0.014170659598328009 14:0.437828947368423 15:0.0399828985866895 16:0.0 17:0.037406260270289204 18:0.034374421691845146 19:0.33801920710848826 20:1.0 21:0.0 22:1.0 23:0.0 24:0.0 25:1.0 26:0.0 27:0.012413793103448277 28:0.12259619307703637 29:0.16445198308309475 30:1.2204607149301395E-16 31:0.0 32:0.008672086720867209 33:0.7272727272727273 34:0.009116809116809116 35:0.7272727272727273 36:1.0 37:0.018568350944291493 38:0.9090909090909092 39:0.0 40:0.0 41:0.0 42:0.0 43:0.9825529854359892 44:0.16252259936768132 45:0.0 46:0.004214147546701216 47:0.5033279160182159 48:0.48837209302325585 49:0.48837209302325585 50:0.0 51:1.0000000000000002 52:0.12322093220635276 53:0.026054849568144453 54:0.026630543949043656 55:0.9727104196351524 56:0.9276655534025282 57:0.0 
-0.0 0.0 0.0 0.0 0.0 0.0 0.0 0.4214812593327609 0.003713189882837225 0.0 0.0 0.0 0:0.0 1:0.0 2:0.0 3:0.0 4:0.16666666666666666 5:0.03190376569037656 6:0.031773962293055416 7:0.0 8:0.0 9:0.013455506148604872 10:0.0 11:0.0 12:0.0 13:0.14823430583697497 14:0.3936733635163201 15:0.047723187692444526 16:0.7 17:0.07556609003661628 18:0.06944508353933161 19:0.29470326396963786 20:1.0 21:1.0 22:1.0 23:0.0 24:0.0 25:1.0 26:0.045454545454545456 27:0.02693711967545639 28:0.1106118385620955 29:0.23668093921096978 30:0.00477505520322626 31:5.405092369149726E-5 32:0.03252032520325203 33:0.967741935483871 34:0.031908831908831904 35:0.9032258064516129 36:1.0 37:0.02606761128845597 38:0.0 39:0.027972027972027972 40:0.06451612903225806 41:0.026086956521739132 42:0.3 43:0.9654263046150408 44:0.23547660328026923 45:0.027522935779816512 46:0.04995528996799814 47:0.13190836889044583 48:0.12093023255813955 49:0.11627906976744186 50:0.027522935779816515 51:0.0018185507179103787 52:0.17867210153029195 53:0.7589921755305469 54:0.5581742314826315 55:0.9727104196351524 56:0.9276655534025282 57:0.0 
-0.0 0.0 0.0 0.0 0.0 0.20899606179578212 0.10554910838926017 0.0 0.0 0.0 0.0 0.0 0:0.0 1:0.0 2:0.0 3:0.0 4:0.0 5:0.02248953974895397 6:0.011437166175420734 7:0.0 8:0.0 9:0.06678375070087389 10:0.15789473684210525 11:0.6136363636363635 12:0.0 13:0.0 14:0.437828947368423 15:0.021177315258450666 16:0.0 17:0.037406260270289204 18:0.0343841583423803 19:0.33636560335147603 20:1.0 21:0.0 22:1.0 23:0.0 24:0.0 25:1.0 26:0.0 27:0.007490631553615017 28:0.12259619307703637 29:0.16445198308309486 30:1.2204607149301395E-16 31:0.0 32:0.017344173441734417 33:0.7272727272727273 34:0.018233618233618232 35:0.7272727272727273 36:1.0 37:0.018568350944291483 38:0.9090909090909092 39:0.0 40:0.0 41:0.0 42:0.0 43:0.9822460610124036 44:0.16252259936768143 45:0.0 46:7.105706803891114E-4 47:0.5033279160182162 48:1.0 49:1.0 50:0.0 51:1.0000000000000002 52:0.16365940198556636 53:0.8310059978901145 54:0.8166259143391206 55:0.9727104196351524 56:0.927919976705652 57:0.0 
-0.0 0.0 0.31363226126719274 0.480213580461874 0.0 0.2922854117995382 0.12397507332832276 0.0 0.0 0.0 0.0 0.0 0:0.0 1:0.0 2:0.07692307692307693 3:0.0 4:0.0 5:0.02144351464435146 6:0.010910073222168493 7:0.0 8:0.0 9:0.005110623436259092 10:0.0 11:0.0 12:0.0 13:1.0 14:0.0 15:0.10882370398911337 16:0.7142857142857143 17:0.4580175478782206 18:0.42104851727468084 19:0.20720470340706026 20:1.0 21:0.0 22:1.0 23:0.0 24:0.0 25:1.0 26:0.045454545454545456 27:0.017090796575789872 28:1.0 29:0.01898836306050384 30:0.041859027087273695 31:0.03691292010115244 32:0.02059620596205962 33:0.9047619047619048 34:0.018233618233618232 35:0.7619047619047619 36:1.0 37:0.7778453767675922 38:0.0 39:0.04195804195804196 40:0.14285714285714285 41:0.008695652173913044 42:0.14285714285714285 43:0.7934696614146832 44:0.05005145702179739 45:0.018348623853211007 46:0.010183204430047764 47:0.044781862139858644 48:0.11627906976744186 49:0.13953488372093026 50:0.01834862385321101 51:0.0018373563276009247 52:0.05038839144395111 53:7.250401661068953E-4 54:0.01879052651436161 55:0.4259492464227659 56:0.4058295372992671 57:0.0 
-0.0 0.0 0.008033985138019712 0.7799261814900597 0.0 0.0 0.24917665088365196 0.0 0.5332579117236887 0.6951772211049433 0.0 0.0 0:0.0 1:0.0 2:0.0 3:0.0 4:0.0 5:0.06433054393305439 6:0.0325208843055104 7:0.0 8:0.0 9:0.013450568348183383 10:0.0 11:0.0 12:0.0 13:0.0 14:0.3936733635163201 15:0.001693624065783897 16:0.8 17:0.07556609003661628 18:0.0694641634403803 19:0.39033652787984807 20:1.0 21:0.0 22:1.0 23:0.0 24:0.0 25:1.0 26:0.045454545454545456 27:0.017090796575789872 28:0.1106118385620955 29:0.23668093921096975 30:1.2204607149301395E-16 31:0.0032739416636102118 32:0.06504065040650406 33:0.967741935483871 34:0.06381766381766381 35:0.9032258064516129 36:1.0 37:0.026067611288455958 38:0.0 39:0.055944055944055944 40:0.06451612903225806 41:0.026086956521739132 42:0.3 43:0.9651193801914554 44:0.2354766032802693 45:0.027522935779816512 46:0.014919521304877092 47:0.13190836889044583 48:0.2651162790697675 49:0.2558139534883721 50:0.027522935779816515 51:0.002662501721602065 52:0.23713223754033202 53:0.026054849568144453 54:0.043130502181393 55:0.9727104196351524 56:0.927919976705652 57:0.0 
-0.0 0.0 0.0 0.012668496849447514 54.63654139658656 0.0 0.0 0.005332731632730706 0.0 0.0 0.0 0.0 0:0.0 1:0.0 2:0.0 3:1.0 4:0.0 5:0.007845188284518828 6:0.0022336284985897603 7:0.0 8:0.0 9:0.022375642610056173 10:0.0 11:0.0 12:0.0 13:0.04841690279659963 14:0.43782894736842126 15:0.040476861168424 16:1.0 17:0.03740626027028906 18:0.034374421691845014 19:0.436526004071812 20:1.0 21:0.0 22:1.0 23:0.0 24:0.0 25:1.0 26:0.0 27:0.0054932817839007855 28:0.1225961930770359 29:0.13587937511023385 30:1.2204607149301395E-16 31:0.0 32:0.008672086720867209 33:1.0 34:0.007977207977207976 35:0.875 36:1.0 37:0.022965552511770276 38:0.0 39:0.013986013986013986 40:0.125 41:0.017391304347826087 42:1.0 43:0.9825529854359892 44:0.1342852109737894 45:0.0030581039755351682 46:8.682016112206644E-4 47:0.1989312766678345 48:0.16279069767441862 49:0.16279069767441862 50:0.0030581039755351682 51:0.002850862195498159 52:0.13416624844523145 53:0.8600299708120078 54:0.837798616047482 55:0.032030795319994386 56:0.02967012686284508 57:0.0 
-2.918952655167112 0.0 0.0 0.0 0.0 0.13977942617158345 0.04720600847006957 0.0 0.0 0.0 0.0 0.0 0:0.0 1:0.0 2:0.0 3:0.0 4:0.0 5:0.02824267782426778 6:0.008065365029465721 7:0.0 8:0.0 9:0.02212134588834859 10:0.0 11:0.0 12:0.0 13:0.10602279625008368 14:0.4378289473684215 15:0.04582682598083191 16:0.8181818181818182 17:0.03740626027028906 18:0.034374421691845014 19:0.8976587081251153 20:1.0 21:1.0 22:1.0 23:1.0 24:0.0 25:1.0 26:0.0 27:0.0054932817839007855 28:0.1225961930770359 29:0.49957219893500054 30:1.2204607149301395E-16 31:0.0 32:0.02981029810298103 33:1.0 34:0.030769230769230767 35:0.9818181818181818 36:1.0 37:0.004451449543756842 38:0.0 39:0.006993006993006993 40:0.01818181818181818 41:0.008695652173913044 42:0.09090909090909091 43:0.9825529854359892 44:0.49371111749816887 45:0.030581039755351678 46:0.008682016112206644 47:0.12262361632670539 48:0.09302325581395349 49:0.09302325581395349 50:0.03058103975535168 51:0.0015581687618870716 52:0.4933491935794226 53:0.026054849568144453 54:0.04261032874324314 55:0.032289178992153174 56:0.029916786139705723 57:0.0 
-0.0 0.0 0.0 0.0 0.0 0.0 0.004354864154158793 0.0 0.0 0.0 0.0 0.0 0:0.0 1:0.0 2:0.07692307692307693 3:0.0 4:0.16666666666666666 5:0.02144351464435146 6:0.006121452852507068 7:0.0 8:0.0 9:0.014506023188280495 10:0.0 11:0.0 12:0.0 13:1.0 14:0.0 15:0.09350903724581676 16:0.7142857142857143 17:0.4580175478782204 18:0.4209357959763364 19:0.0 20:1.0 21:0.0 22:1.0 23:0.0 24:0.0 25:1.0 26:0.045454545454545456 27:0.013096097036361408 28:0.9863999608318869 29:0.016641086164388242 30:0.04437824086355593 31:0.016408316120687994 32:0.02059620596205962 33:0.9047619047619048 34:0.018233618233618232 35:0.7619047619047619 36:1.0 37:0.9999999999999999 38:0.0 39:0.04195804195804196 40:0.14285714285714285 41:0.017391304347826087 42:0.2857142857142857 43:0.7937765858382689 44:0.03869938900581326 45:0.018348623853211007 46:0.005209209667323987 47:0.04272924390305917 48:0.11627906976744186 49:0.13953488372093026 50:0.01834862385321101 51:0.0018373563276009247 52:0.038645039694516735 53:0.9930142659574074 54:0.9645980267269163 55:0.4202698227939554 56:0.4002924535977833 57:0.0 
-0.0 0.0 0.0 0.0 0.0 0.0 0.0 0.0 11.508296130955683 2.6254858402622805 0.0 0.0 0:0.0 1:0.0 2:0.0 3:0.0 4:0.16666666666666666 5:0.03190376569037656 6:0.01442603054335666 7:0.0 8:0.0 9:0.013430817146497359 10:0.0 11:0.0 12:0.0 13:0.14823430583697478 14:0.3936733635163201 15:0.04772318769244452 16:0.7 17:0.07556609003661628 18:0.0694641634403803 19:0.4233659015194754 20:1.0 21:0.0 22:1.0 23:0.0 24:0.0 25:1.0 26:0.045454545454545456 27:0.015871728001545446 28:0.1106118385620955 29:0.23668093921096975 30:1.2204607149301395E-16 31:0.0032739416636102118 32:0.03252032520325203 33:0.967741935483871 34:0.031908831908831904 35:0.9032258064516129 36:1.0 37:0.026067611288455958 38:0.0 39:0.027972027972027972 40:0.06451612903225806 41:0.026086956521739132 42:0.3 43:0.9651193801914554 44:0.2354766032802693 45:0.027522935779816512 46:0.01325660125153177 47:0.13190836889044583 48:0.12093023255813955 49:0.11627906976744186 50:0.027522935779816515 51:0.0018185507179103787 52:0.23713935067441386 53:0.026054849568144453 54:0.043132509812973466 55:0.9727104196351524 56:0.927919976705652 57:0.0 
-0.0 0.0 0.0 0.0 0.0 0.048802434645174766 0.04010503088229187 0.0 0.0 0.0 0.0 0.0 0:0.0 1:0.0 2:0.0 3:0.0 4:0.0 5:0.010983263598326359 6:0.005016411614656503 7:0.0 8:0.0 9:0.06568879345740478 10:0.07894736842105263 11:0.6136363636363635 12:0.0 13:0.014170659598327784 14:0.437828947368423 15:0.0399828985866895 16:0.0 17:0.037406260270289204 18:0.0343841583423803 19:0.3032982283354413 20:1.0 21:1.0 22:1.0 23:0.0 24:0.0 25:1.0 26:0.0 27:0.006881097266492804 28:0.12259619307703637 29:0.16445198308309486 30:1.2204607149301395E-16 31:0.0 32:0.008672086720867209 33:0.7272727272727273 34:0.009116809116809116 35:0.7272727272727273 36:1.0 37:0.018568350944291483 38:0.9090909090909092 39:0.0 40:0.0 41:0.0 42:0.0 43:0.9822460610124036 44:0.16252259936768143 45:0.0 46:5.442786750545789E-4 47:0.5033279160182162 48:0.48837209302325585 49:0.48837209302325585 50:0.0 51:1.0000000000000002 52:0.16366432233432426 53:0.8310059978901145 54:0.8166510068207018 55:0.9727104196351524 56:0.927919976705652 57:0.0 
-0.0 0.0 0.2865649900128225 0.0 0.0 0.0 0.0 0.12482076988556254 0.0 0.0 0.0 0.0 0:0.0 1:0.0 2:0.07692307692307693 3:0.0 4:0.0 5:0.02144351464435146 6:0.009721221079006581 7:0.0 8:0.0 9:0.06485611216704075 10:0.0 11:0.0 12:0.0 13:1.0 14:0.0 15:0.10882370398911337 16:0.625 17:0.4580175478782206 18:0.42104851727468084 19:0.5855875517155187 20:1.0 21:0.0 22:1.0 23:0.0 24:0.0 25:1.0 26:0.045454545454545456 27:0.015871728001545446 28:1.0 29:0.01898836306050384 30:0.041859027087273695 31:0.03691292010115244 32:0.02059620596205962 33:0.9047619047619048 34:0.018233618233618232 35:0.7619047619047619 36:1.0 37:0.7778453767675922 38:0.0 39:0.04195804195804196 40:0.14285714285714285 41:0.017391304347826087 42:0.25 43:0.7934696614146832 44:0.05005145702179739 45:0.021406727828746176 46:0.010431640678981282 47:0.042320381547437905 48:0.09883720930232558 49:0.11627906976744186 50:0.021406727828746176 51:0.0016578127979188922 52:0.05038993123705647 53:7.250401661068953E-4 54:0.018791807723162482 55:0.4259492464227659 56:0.4058295372992671 57:0.0 
-0.0 0.0 0.0 0.19739911222951265 8.335463633764917 0.0 0.0 0.0 0.0 0.0 0.0 0.0 0:0.0 1:0.0 2:0.0 3:1.0 4:0.0 5:0.007845188284518828 6:0.002345680902682126 7:0.0 8:0.0 9:0.02247069526817017 10:0.0 11:0.0 12:0.0 13:0.04841690279659963 14:0.43782894736842126 15:0.040476861168424 16:1.0 17:0.03740626027028906 18:0.03437078359573694 19:0.9236248310283869 20:1.0 21:0.0 22:1.0 23:0.0 24:0.0 25:1.0 26:0.0 27:0.005152129817444219 28:0.1225961930770359 29:0.13587937511023385 30:1.2204607149301395E-16 31:0.0 32:0.008672086720867209 33:1.0 34:0.007977207977207976 35:0.875 36:1.0 37:0.022965552511770276 38:0.0 39:0.013986013986013986 40:0.125 41:0.017391304347826087 42:1.0 43:0.9826677096137372 44:0.1342852109737894 45:0.0030581039755351682 46:0.0011052637532915552 47:0.19893127666783436 48:0.16279069767441862 49:0.16279069767441862 50:0.0030581039755351682 51:0.002850862195498159 52:0.13460562798569634 53:0.026054849568144453 54:0.042826977973579705 55:0.03193421501535251 56:0.029572263759309308 57:0.0 
-0.0 0.0 0.0 0.0 0.0 0.0 0.0 0.030556617110587804 0.3202200002205606 0.0 0.0 0.0 0:0.0 1:0.0 2:0.0 3:0.0 4:0.0 5:0.005753138075313807 6:0.0017195409779794486 7:0.0 8:0.0 9:0.02232256125552499 10:0.0 11:0.0 12:0.0 13:0.09583360976580502 14:0.43782894736842143 15:0.040961100077289696 16:0.6666666666666666 17:0.03740626027028906 18:0.03437078359573694 19:0.7946122194328493 20:1.0 21:0.0 22:1.0 23:0.0 24:0.0 25:1.0 26:0.0 27:0.005152129817444219 28:0.1225961930770359 29:0.11193564971348585 30:1.2204607149301395E-16 31:0.0 32:0.005962059620596206 33:0.9166666666666666 34:0.005128205128205128 35:0.75 36:1.0 37:0.0283609788560073 38:0.0 39:0.013986013986013986 40:0.16666666666666666 41:0.017391304347826087 42:0.6666666666666666 43:0.9826677096137372 44:0.1106223981753618 45:0.006116207951070337 46:0.0020919964355476644 47:0.10218817417338104 48:0.06976744186046512 49:0.06976744186046512 50:0.0061162079510703364 51:0.0016578127979188922 52:0.11088205912459341 53:0.8831697488639796 54:0.8627314371224433 55:0.03193421501535251 56:0.029572263759309308 57:0.0 
-0.0 0.0 0.0 0.0 0.0 0.038728991314708514 0.06132422552025477 0.12212483803211414 0.0 0.0 0.0 0.0 0:0.0 1:0.0 2:0.15384615384615385 3:0.0 4:0.0 5:0.02144351464435146 6:0.006415590413249529 7:0.0 8:0.0 9:0.32337037735392626 10:0.0 11:0.0 12:0.0 13:1.0 14:0.0 15:0.11059482193329079 16:0.5 17:0.4580175478782206 18:0.42089367770215974 19:0.5829279252514147 20:1.0 21:0.0 22:1.0 23:0.0 24:0.0 25:1.0 26:0.045454545454545456 27:0.012413793103448277 28:0.9864054008475543 29:0.022745694782703354 30:0.043885849080009955 31:0.030548423836457343 32:0.02059620596205962 33:0.9047619047619048 34:0.018233618233618232 35:0.7619047619047619 36:1.0 37:0.7583464136387251 38:0.0 39:0.04195804195804196 40:0.14285714285714285 41:0.008695652173913044 42:0.125 43:0.7938913100160168 44:0.05136430644279001 45:0.021406727828746176 46:0.007025659846828214 47:0.04303750581452114 48:0.09883720930232558 49:0.13953488372093026 50:0.021406727828746176 51:0.0016578127979188922 52:0.051471817756811575 53:0.0 54:0.017903263124001333 55:0.4259492464227659 56:0.4056710605597085 57:0.0 
-0.0 0.0 0.0 7.205907354642484E-4 0.0 0.0 0.0 0.0 0.0 0.0 0.0 0.0 0:0.0 1:0.0 2:0.0 3:0.0 4:0.0 5:0.00993723849372385 6:0.00493872959271714 7:0.0 8:0.0 9:0.09460455272574621 10:0.05263157894736842 11:0.45 12:0.0 13:0.2655206705497942 14:0.437828947368423 15:0.04698199831764416 16:0.125 17:0.037406260270289204 18:0.034379194838367017 19:0.5579388776675155 20:1.0 21:1.0 22:1.0 23:0.0 24:0.0 25:1.0 26:0.0 27:0.009449848905079272 28:0.12259619307703637 29:0.23654209149689095 30:1.2204607149301395E-16 31:0.0 32:0.005962059620596206 33:0.55 34:0.004558404558404558 35:0.4 36:1.0 37:0.01217163957098651 38:0.37037037037037035 39:0.02097902097902098 40:0.15 41:0.026086956521739132 42:0.375 43:0.9824025030729692 44:0.23376693214163202 45:0.021406727828746176 46:0.01167303180382037 47:0.06216728018238938 48:0.03488372093023256 49:0.023255813953488372 50:0.021406727828746176 51:8.564658866853325E-4 52:0.23088482252117504 53:0.3798725867718379 54:0.3753324139295595 55:0.9727104196351524 56:0.9277902779882575 57:0.0 
-0.0 0.0 0.0 0.0 33.23732261764558 0.0 0.0 0.0 9.328734518117978 0.0 0.0 0.0 0:0.0 1:0.0 2:0.0 3:1.0 4:0.0 5:0.007845188284518828 6:0.003919207914947995 7:0.0 8:0.0 9:0.022724991989877753 10:0.0 11:0.0 12:0.0 13:0.04842992854600889 14:0.43782894736842126 15:0.04047707725004334 16:1.0 17:0.03740626027028906 18:0.03437919483836689 19:0.44299603348848104 20:1.0 21:0.0 22:1.0 23:0.0 24:0.0 25:1.0 26:0.0 27:0.009449848905079272 28:0.1225961930770359 29:0.13588125143069443 30:1.2204607149301395E-16 31:0.0 32:0.008672086720867209 33:1.0 34:0.007977207977207976 35:0.875 36:1.0 37:0.022965203566955136 38:0.0 39:0.013986013986013986 40:0.125 41:0.017391304347826087 42:1.0 43:0.9824025030729692 44:0.13428706528088125 45:0.0030581039755351682 46:0.0022671067425395946 47:0.19893414803627102 48:0.16279069767441862 49:0.16279069767441862 50:0.0030581039755351682 51:0.002850862195498159 52:0.13261369584654414 53:0.8606897760017297 54:0.8285234114591156 55:0.031675831343193725 56:0.02933867019806877 57:0.0 
-0.0 0.0 0.1269818577288275 0.0 0.0 0.0 0.0 0.10756892082532024 0.0 0.0 0.0 0.0 0:0.0 1:0.0 2:0.07692307692307693 3:0.0 4:0.0 5:0.02144351464435146 6:0.010546098820447438 7:0.0 8:0.0 9:0.014594903595867473 10:0.0 11:0.0 12:0.0 13:1.0 14:0.0 15:0.10941657821618977 16:0.5714285714285714 17:0.4580175478782204 18:0.42099105474023985 19:0.004015909955797637 20:1.0 21:0.0 22:1.0 23:0.0 24:0.0 25:1.0 26:0.045454545454545456 27:0.021009231278718385 28:0.9863999608318869 29:0.022745694782703333 30:0.04395455491027233 31:0.028683666969094527 32:0.02059620596205962 33:0.9047619047619048 34:0.018233618233618232 35:0.7619047619047619 36:1.0 37:0.7712078488322288 38:0.0 39:0.04195804195804196 40:0.14285714285714285 41:0.017391304347826087 42:0.2857142857142857 43:0.7936261034752488 44:0.05049092780255346 45:0.018348623853211007 46:0.010105377626940241 47:0.04806752802250515 48:0.11627906976744186 49:0.13953488372093026 50:0.01834862385321101 51:0.0018373563276009247 52:0.04983573181383886 53:0.9928595658705516 54:0.9530991551214001 55:0.4202698227939554 56:0.4003483022990987 57:0.0 
-0.0 0.0 0.0 0.0 0.0 0.22250404044802705 0.008689530688621737 0.11028329895203043 0.0 0.0 0.0 0.0 0:0.0 1:0.0 2:0.0 3:0.0 4:0.16666666666666666 5:0.03190376569037656 6:0.01564370720929316 7:0.0 8:0.0 9:0.01067305561108614 10:0.0 11:0.0 12:0.0 13:0.1340689517201013 14:0.3936733635163201 15:0.0468391702432728 16:0.7 17:0.07429132930323046 18:0.06828271945020983 19:0.3521632856181025 20:1.0 21:1.0 22:1.0 23:0.0 24:0.0 25:1.0 26:0.045454545454545456 27:0.021009231278718385 28:0.1106118385620955 29:0.23668093921096978 30:0.00477505520322626 31:5.405092369149726E-5 32:0.03252032520325203 33:0.967741935483871 34:0.031908831908831904 35:0.9032258064516129 36:1.0 37:0.02559985771651921 38:0.0 39:0.027972027972027972 40:0.06451612903225806 41:0.026086956521739132 42:0.3 43:0.9658479532163743 44:0.23547660328026923 45:0.027522935779816512 46:0.014808340157580627 47:0.13190836889044583 48:0.12093023255813955 49:0.11627906976744186 50:0.027522935779816515 51:0.0018185507179103787 52:0.23257372012768426 53:0.7589921755305469 54:0.7326690243110274 55:0.9727104196351524 56:0.9277902779882575 57:0.0 
-0.0 1.0620242419177652 0.9906103791915892 1.937022608480408 0.0 0.0 0.0 0.0 0.34828220951042355 0.0 0.0 0.0 0:0.0 1:0.0 2:0.0 3:0.0 4:0.6666666666666666 5:0.09728033472803348 6:0.0934633812186739 7:0.0 8:0.0 9:0.011919850217516422 10:0.10526315789473684 11:0.0962566844919786 12:0.0 13:0.45339885844330446 14:0.2443433952528372 15:0.09796073269232244 16:0.5185185185185185 17:0.10414529616609056 18:0.1050320430819517 19:0.9999999999999998 20:1.0 21:0.0 22:1.0 23:0.0 24:0.0 25:1.0 26:0.13636363636363635 27:0.09430063441370679 28:0.06502450727058064 29:0.29883030182490933 30:1.431371463925679E-6 31:0.27211551454548966 32:0.07967479674796749 33:0.786096256684492 34:0.07635327635327635 35:0.7165775401069518 36:1.0 37:0.019941701673802638 38:0.28169014084507044 39:0.09090909090909091 40:0.06951871657754011 41:0.10434782608695653 42:0.4444444444444444 43:0.8524021305918724 44:0.410456437690646 45:0.07951070336391437 46:0.08751982947934427 47:0.12036521254188211 48:0.13781223083548666 49:0.11627906976744186 50:0.07951070336391437 51:0.001869295576959752 52:0.4600247085981951 53:0.07196722594786421 54:0.09978785945209317 55:0.3976173513415883 56:0.4173308588012168 57:0.08333333333333333 
-0.0 0.0 0.021649318023263326 0.0 2.0495578049909025 1.1527984795636046 0.09001244962391222 0.0 0.0 0.0 0.0 0.028421556967312037 0:0.0 1:0.0 2:0.0 3:1.0 4:0.0 5:0.0026150627615062756 6:0.0023986732442033746 7:0.0 8:0.0 9:0.03264626748678946 10:0.0 11:0.0 12:0.0 13:1.1270495709442756E-16 14:0.5949926900584801 15:0.039712580480937155 16:1.0 17:0.051680924732681974 18:0.05277373532723228 19:0.5766310201489641 20:1.0 21:1.0 22:1.0 23:0.0 24:0.0 25:1.0 26:0.0 27:0.026210953346855987 28:0.16938032781534398 29:0.11507285752348208 30:1.2204607149301395E-16 31:0.0 32:0.0032520325203252032 33:1.0 34:0.0 35:0.0 36:1.0 37:0.03831569259745416 38:0.0 39:0.04195804195804196 40:1.0 41:0.008695652173913044 42:1.0 43:0.8654061906358251 44:0.11372279963284712 45:0.0 46:0.0018665268054498315 47:0.3521963097172847 48:0.11627906976744186 49:0.11627906976744186 50:0.0 51:1.0000000000000002 52:0.12754316087444983 53:0.80558299566467 54:0.8841215381671041 55:0.035802444359710216 56:0.039713678980893494 57:0.0 
-0.0 0.0 0.0 0.0 0.0 0.0 0.0 0.0 0.0 0.0 0.0 0.633471840644519 0:0.0 1:0.0 2:0.0 3:0.0 4:0.6666666666666666 5:0.14069037656903766 6:0.19462023302796463 7:0.0 8:0.0 9:0.011916146867200274 10:0.10526315789473684 11:0.06666666666666667 12:0.0 13:0.4735110194845484 14:0.2443153021442495 15:0.13190810217187568 16:0.6666666666666666 17:0.16041735135260746 18:0.1620920554604659 19:0.9999999999999998 20:1.0 21:0.0 22:1.0 23:0.0 24:0.0 25:1.0 26:0.22727272727272724 27:0.18669371196754567 28:0.06502269393202524 29:0.2949225517457912 30:3.816990570210825E-6 31:0.3992181919966025 32:0.12574525745257453 33:0.8592592592592593 34:0.12193732193732193 35:0.7925925925925926 36:1.0 37:0.032101977354256815 38:0.20700636942675157 39:0.1258741258741259 40:0.06666666666666667 41:0.06956521739130435 42:0.17777777777777778 43:0.8244660483480464 44:0.4070166980353616 45:0.13455657492354742 46:0.19554964525670143 47:0.1050013495431653 48:0.11627906976744186 49:0.09302325581395349 50:0.1345565749235474 51:0.0016837540367967366 52:0.4561344672390842 53:0.07196722594786421 54:0.09977808758408466 55:0.2851226193582051 56:0.3005493085691778 57:0.05555555555555555 
-0.0 0.0 0.0 0.0 0.0 0.7798408520002579 0.002706479003571725 0.0 1.6221275289045232 0.0 0.0 0.0 0:0.0 1:0.0 2:0.0 3:0.0 4:0.0 5:0.046025104602510455 6:0.02010581375232945 7:0.0 8:0.0 9:0.03503739734090392 10:0.0 11:0.0 12:0.0 13:0.08328368091407243 14:0.27825538800184063 15:0.04384826257500312 16:0.7692307692307693 17:0.02293241444330464 18:0.022841531114481336 19:0.9999999999999998 20:1.0 21:0.0 22:1.0 23:1.0 24:0.0 25:1.0 26:0.0 27:0.007330628803245437 28:0.07515925645865845 29:0.6767606453041327 30:1.2204607149301395E-16 31:0.0 32:0.048238482384823846 33:1.0 34:0.04957264957264957 35:0.9775280898876404 36:1.0 37:7.518531941329261E-4 38:0.0 39:0.013986013986013986 40:0.02247191011235955 41:0.017391304347826087 42:0.15384615384615385 43:0.9075427422058332 44:0.6688207534049714 45:0.03669724770642202 46:0.015937196823859006 47:0.1437155242522404 48:0.13595706618962433 49:0.13953488372093026 50:0.03669724770642202 51:0.0019056237389454764 52:0.7958395387015901 53:0.20297210552409783 54:0.2561330313931589 55:0.019131680346786015 56:0.02075775926039827 57:0.0 
-0.0 0.0 0.0 0.0 0.0 0.0 0.0 0.0 256.0 0.0 0.0 0.0 0:0.0 1:0.0 2:0.0 3:0.0 4:0.6666666666666666 5:0.03974895397489539 6:0.01737349565590814 7:0.0 8:0.0 9:0.04321686373912928 10:0.0 11:0.0 12:0.0 13:0.08510565270029113 14:0.2784722222222235 15:0.04346110187364069 16:0.4166666666666667 17:0.022932414443304735 18:0.02284153111448143 19:0.7999365458467271 20:1.0 21:0.0 22:1.0 23:0.0 24:0.0 25:1.0 26:0.0 27:0.007330628803245437 28:0.07515925645865876 29:0.600139222978171 30:1.2204607149301395E-16 31:0.0 32:0.030894308943089432 33:0.7402597402597403 34:0.02678062678062678 35:0.6103896103896104 36:1.0 37:0.001169549904689916 38:0.3409090909090909 39:0.06993006993006994 40:0.12987012987012986 41:0.06086956521739131 42:0.5833333333333334 43:0.9075427422058332 44:0.5930982690043299 45:0.033639143730886854 46:0.014644473867314413 47:0.13776825759620517 48:0.12596899224806202 49:0.11627906976744186 50:0.03363914373088685 51:0.0018373563276009247 52:0.705758431014133 53:0.24099477747417625 54:0.2992911043663443 55:0.9110821509562705 56:0.9370432095732965 57:0.3333333333333333 
-2.199044926398557 0.0 0.0 0.0 0.0 6.317720345244893 0.20132681879857134 0.0 0.5248637065098327 0.0 0.0 0.0 0:0.0 1:0.0 2:0.0 3:0.0 4:0.0 5:0.046025104602510455 6:0.12936245839774432 7:0.0 8:0.0 9:0.03504974184195769 10:0.0 11:0.0 12:0.0 13:0.08328368091407243 14:0.27825538800184063 15:0.04384826257500312 16:0.7692307692307693 17:0.02293241444330464 18:0.022841531114481336 19:0.9999999999999997 20:1.0 21:0.0 22:1.0 23:0.0 24:0.0 25:1.0 26:0.0 27:0.02552020976599219 28:0.07515925645865845 29:0.6767606453041327 30:1.2204607149301395E-16 31:0.0 32:0.048238482384823846 33:1.0 34:0.04957264957264957 35:0.9775280898876404 36:1.0 37:7.518531941329261E-4 38:0.0 39:0.013986013986013986 40:0.02247191011235955 41:0.017391304347826087 42:0.15384615384615385 43:0.9075427422058332 44:0.6688207534049714 45:0.03669724770642202 46:0.12280229456487841 47:0.1437155242522404 48:0.13595706618962433 49:0.13953488372093026 50:0.03669724770642202 51:0.0019056237389454764 52:0.8727755250309036 53:0.20297210552409783 54:0.28318668471066266 55:0.019131680346786015 56:0.02075775926039827 57:0.0 
-0.0 0.0 0.0 1.1941125898272695 0.0 0.0 0.0 0.0 28.97409961181149 0.0 0.0 0.0 0:0.0 1:0.0 2:0.0 3:0.0 4:0.6666666666666666 5:0.03974895397489539 6:0.11189890731542439 7:0.0 8:0.0 9:0.07654701658429734 10:0.0 11:0.0 12:0.0 13:0.08510565270029113 14:0.2784722222222235 15:0.04346110187364069 16:0.4166666666666667 17:0.022932414443304735 18:0.02284153111448143 19:0.7806251011676251 20:1.0 21:0.0 22:1.0 23:0.0 24:0.0 25:1.0 26:0.0 27:0.02552020976599219 28:0.07515925645865876 29:0.600139222978171 30:1.2204607149301395E-16 31:0.0 32:0.030894308943089432 33:0.7402597402597403 34:0.02678062678062678 35:0.6103896103896104 36:1.0 37:0.001169549904689916 38:0.3409090909090909 39:0.06993006993006994 40:0.12987012987012986 41:0.06086956521739131 42:0.5833333333333334 43:0.9075427422058332 44:0.5930982690043299 45:0.033639143730886854 46:0.11328917947440925 47:0.13776825759620517 48:0.12596899224806202 49:0.11627906976744186 50:0.03363914373088685 51:0.0018373563276009247 52:0.7739991944447865 53:0.24099477747417625 54:0.3305106596583277 55:0.9110821509562705 56:0.9370432095732965 57:0.3333333333333333 
-0.0 0.0 0.0 0.0 0.0 0.0 0.005009770618372069 0.0 0.0 0.0 0.0 0.0 0:0.0 1:0.0 2:0.0 3:1.0 4:0.0 5:0.012552301255230125 6:0.014042358711258673 7:0.0 8:0.0 9:0.08964576665244843 10:0.0 11:0.0 12:0.0 13:0.019075510527148693 14:0.8756578947368423 15:0.04158730461003973 16:1.0 17:0.07717281971098779 18:0.07445490202703553 19:0.9999999999999998 20:1.0 21:1.0 22:1.0 23:0.0 24:0.0 25:1.0 26:0.0 27:0.03834830483917705 28:0.2529280884328945 29:0.4255063250762725 30:1.2204607149301395E-16 31:0.0 32:0.013550135501355014 33:1.0 34:0.013105413105413105 35:0.92 36:1.0 37:0.013851532707510137 38:0.0 39:0.013986013986013986 40:0.08 41:0.017391304347826087 42:1.0 43:0.9115714977464896 44:0.4205141993565555 45:0.0030581039755351682 46:0.00617632032286093 47:0.6349686733703548 48:0.2674418604651163 49:0.27906976744186046 50:0.0030581039755351682 51:0.003422151289753364 52:0.42168810231265996 53:0.009170173823254218 54:0.026689577962516413 55:0.044722952497541595 56:0.04512738783440701 57:0.0 
-0.0 0.0 0.0 0.0 0.0 0.0 0.0 0.0 0.0 1.4378064677022468 0.0 0.0 0:0.0 1:0.0 2:0.0 3:0.0 4:0.0 5:0.01725941422594142 6:0.019154804213918082 7:0.0 8:0.0 9:0.011879113364039046 10:0.0 11:0.0 12:0.0 13:0.04675952454730361 14:0.4843266253869973 15:0.04171995076482216 16:0.5 17:0.041824766874810966 18:0.04039810130308561 19:0.9999999999999998 20:1.0 21:0.0 22:1.0 23:0.0 24:0.0 25:1.0 26:0.0 27:0.03834830483917705 28:0.13707751478324182 29:0.3343058927720384 30:1.2204607149301395E-16 31:0.0 32:0.013550135501355014 33:0.7352941176470589 34:0.013105413105413105 35:0.6764705882352942 36:1.0 37:0.009045892081410108 38:0.13513513513513514 39:0.013986013986013986 40:0.058823529411764705 41:0.017391304347826087 42:0.5 43:0.9274362126122101 44:0.33038374885264754 45:0.009174311926605505 46:0.013220842256942523 47:0.24106573710899143 48:0.17441860465116277 49:0.2558139534883721 50:0.009174311926605505 51:0.0024193763581010427 52:0.33130089215734626 53:0.009170173823254218 54:0.026689577962516413 55:0.8256487186176726 56:0.8266525397284056 57:0.3333333333333333 
-0.0 0.0 0.0 0.0 0.0 0.0 0.0 0.0 1.6306810095377466 3.082495425670059 0.0 0.0 0:0.0 1:0.0 2:0.0 3:0.0 4:0.0 5:0.014644351464435145 6:0.012889655546599772 7:0.0 8:0.0 9:0.0668602866074072 10:0.0 11:0.0 12:0.0 13:0.08035843329961084 14:0.486476608187135 15:0.042382388932812216 16:0.8 17:0.04182476687481115 18:0.04042437160840724 19:0.9999999999999998 20:1.0 21:0.0 22:1.0 23:0.0 24:0.0 25:1.0 26:0.0 27:0.007741070641150013 28:0.13707751478324243 29:0.25845376183489144 30:1.2204607149301395E-16 31:0.0 32:0.015718157181571817 33:1.0 34:0.014814814814814814 35:0.896551724137931 36:1.0 37:0.012426553314308052 38:0.0 39:0.02097902097902098 40:0.10344827586206896 41:0.008695652173913044 42:0.2 43:0.9267582970164264 44:0.255421530359643 45:0.012232415902140673 46:0.011554058049325003 47:0.14251750099062205 48:0.11162790697674417 49:0.06976744186046512 50:0.012232415902140673 51:0.0018787312590130088 52:0.2561772319544906 53:0.7510353722680525 54:0.7367008039605114 55:0.045293654297698126 56:0.04574359516936877 57:0.0 
-0.0 0.0 0.0 0.0 0.0 0.15785644687485686 0.09544820207898325 0.0 0.0 0.0 0.0 0.0 0:0.0 1:0.0 2:0.0 3:1.0 4:0.0 5:0.0 6:1.9817028540311348E-4 7:0.0 8:0.0 9:0.03977027904491778 10:0.0 11:0.0 12:0.0 13:0.0 14:0.6078947368421039 15:0.039712580480937155 16:0.0 17:0.052852775094361946 18:0.05091841345904292 19:0.7100669447371936 20:1.0 21:1.0 22:1.0 23:0.0 24:0.0 25:1.0 26:0.0 27:0.00604024690997709 28:0.17322097887641844 29:0.01132734662018402 30:1.2204607149301395E-16 31:0.0 32:0.0 33:0.0 34:0.0 35:0.0 36:1.0 37:0.38500494332625534 38:0.0 39:0.0 40:0.0 41:0.0 42:0.0 43:0.9246575036316907 44:0.011194451913181407 45:0.0 46:9.475152983794855E-4 47:0.034668902505556286 48:0.0 49:0.0 50:0.0 51:1.0000000000000002 52:0.011189618291560175 53:1.0 54:0.9737485039692295 55:0.9516521503542116 56:0.9508209868018455 57:0.0 
-0.0 1.146323115206229 0.0 0.0 2.221498124425975 0.0 0.0 0.0 0.0 0.0 0.0 0.0 0:0.0 1:0.0 2:0.0 3:1.0 4:0.0 5:0.005753138075313807 6:0.0023119438984498413 7:0.0 8:0.0 9:0.024538399194675972 10:0.0 11:0.0 12:0.0 13:0.015961506553840616 14:0.34554093567251504 15:0.039876634899087576 16:1.0 17:0.02902404451039557 18:0.029771117590057877 19:0.9999999999999998 20:1.0 21:1.0 22:1.0 23:0.0 24:0.0 25:1.0 26:0.0 27:0.007656151640204239 28:0.09512411395744805 29:0.11189437066335438 30:1.2204607149301395E-16 31:0.0 32:0.0065040650406504065 33:1.0 34:0.003988603988603988 35:0.5833333333333334 36:1.0 37:0.021859293134553356 38:0.0 39:0.03496503496503497 40:0.4166666666666667 41:0.017391304347826087 42:1.0 43:0.8744708906023019 44:0.11058160341934231 45:0.0030581039755351682 46:0.0014219927624108005 47:0.16274054889079037 48:0.11627906976744186 49:0.16279069767441862 50:0.0030581039755351682 51:0.002490160025820218 52:0.11989281611371679 53:0.05065961880407514 54:0.07367478550015315 55:0.028186397479379482 56:0.03173287029089539 57:0.0 
-0.0 0.0 0.0 0.0 0.5324690680618375 0.0 0.0 0.0 0.0 0.0 0.0 0.0 0:0.0 1:0.0 2:0.0 3:1.0 4:0.0 5:0.005753138075313807 6:0.0022409614349459418 7:0.0 8:0.0 9:0.024538399194675972 10:0.0 11:0.0 12:0.0 13:0.015961506553840616 14:0.34554093567251504 15:0.039876634899087576 16:1.0 17:0.02902404451039557 18:0.02978196173603788 19:0.9999999999999998 20:1.0 21:1.0 22:1.0 23:0.0 24:0.0 25:1.0 26:0.0 27:0.007330628803245437 28:0.09512411395744805 29:0.11189437066335438 30:1.2204607149301395E-16 31:0.0 32:0.0065040650406504065 33:1.0 34:0.003988603988603988 35:0.5833333333333334 36:1.0 37:0.021859293134553356 38:0.0 39:0.03496503496503497 40:0.4166666666666667 41:0.017391304347826087 42:1.0 43:0.87411777852274 44:0.11058160341934231 45:0.0030581039755351682 46:0.0014267148126657105 47:0.16274054889079037 48:0.11627906976744186 49:0.16279069767441862 50:0.0030581039755351682 51:0.002490160025820218 52:0.1198954894271214 53:0.05065961880407514 54:0.07367694479353097 55:0.028186397479379482 56:0.03175292169170148 57:0.0 
-0.0 0.0 3.677246185916139 0.9919162634693153 0.0 0.0 0.0 0.0 0.0 0.0 0.0 0.0 0:0.0 1:0.0 2:0.0 3:0.2 4:0.0 5:0.05805439330543932 6:0.03335915261670674 7:0.0 8:0.0 9:0.05115931571712228 10:0.07894736842105263 11:0.12053571428571427 12:0.0 13:0.3119223827964192 14:0.2677292188805354 15:0.06336458344506256 16:0.4166666666666667 17:0.054917621907294295 18:0.056064660387485137 19:0.9999999999999998 20:1.0 21:0.0 22:1.0 23:0.0 24:0.0 25:1.0 26:0.045454545454545456 27:0.03565111561866126 28:0.07200404737165629 29:0.39357791795976427 30:1.2204607149301395E-16 31:0.12831882323417565 32:0.048238482384823846 33:0.7946428571428571 34:0.04729344729344729 35:0.7410714285714286 36:1.0 37:0.008483392826792387 38:0.3252032520325204 39:0.04195804195804196 40:0.05357142857142857 41:0.052173913043478265 42:0.5 43:0.8639535143591462 44:0.4505910603855105 45:0.033639143730886854 46:0.020033854080514394 47:0.18511760167994198 48:0.1937984496124031 49:0.11627906976744186 50:0.03363914373088685 51:0.002287585357762741 52:0.5049182733426762 53:0.061717879229556294 54:0.08881321657809693 55:0.015768929739709815 56:0.018556004750623262 57:0.16666666666666666 
-0.0 0.0 0.0 1.6860771840910576 0.0 0.0 0.0 0.0 0.0 0.0 0.0 0.0 0:0.0 1:0.0 2:0.0 3:0.2 4:0.0 5:0.05805439330543932 6:0.026898559470819823 7:0.0 8:0.0 9:0.04592154392000937 10:0.07894736842105263 11:0.12053571428571427 12:0.0 13:0.31192412724254237 14:0.2677292188805354 15:0.06336471572042063 16:0.4166666666666667 17:0.054917621907294295 18:0.05631597788750377 19:0.9999999999999998 20:1.0 21:1.0 22:1.0 23:0.0 24:0.0 25:1.0 26:0.045454545454545456 27:0.016015578093306292 28:0.07200404737165629 29:0.39357791795976427 30:1.2204607149301395E-16 31:0.12831882323417565 32:0.048238482384823846 33:0.7946428571428571 34:0.04729344729344729 35:0.7410714285714286 36:1.0 37:0.008483392826792387 38:0.3252032520325204 39:0.04195804195804196 40:0.05357142857142857 41:0.052173913043478265 42:0.5 43:0.8594777815025886 44:0.4505910603855105 45:0.033639143730886854 46:0.014698713991365235 47:0.18511760167994198 48:0.1937984496124031 49:0.11627906976744186 50:0.03363914373088685 51:0.002287585357762741 52:0.504878370441191 53:0.061717879229556294 54:0.088804311434244 55:0.015768929739709815 56:0.018754034821019564 57:0.16666666666666666 
-0.0 0.0 1.0045113711716374 0.0 0.0 0.0 0.0 0.0 0.0 0.0 0.0 0.0 0:0.0 1:0.0 2:0.0 3:0.2 4:0.0 5:0.05805439330543932 6:0.04134937848419512 7:0.0 8:0.0 9:0.0466794962847106 10:0.07894736842105263 11:0.12053571428571427 12:0.0 13:0.31192412724254237 14:0.2677292188805354 15:0.06336471572042063 16:0.4166666666666667 17:0.054917621907294295 18:0.05725497230961599 19:0.9999999999999998 20:1.0 21:1.0 22:1.0 23:0.0 24:0.0 25:1.0 26:0.045454545454545456 27:0.00939117183719278 28:0.07200404737165629 29:0.39357791795976427 30:1.2204607149301395E-16 31:0.12831882323417565 32:0.048238482384823846 33:0.7946428571428571 34:0.04729344729344729 35:0.7410714285714286 36:1.0 37:0.008483392826792387 38:0.3252032520325204 39:0.04195804195804196 40:0.05357142857142857 41:0.052173913043478265 42:0.5 43:0.8430901031772636 44:0.4505910603855105 45:0.033639143730886854 46:0.022400811606581954 47:0.18511760167994198 48:0.1937984496124031 49:0.11627906976744186 50:0.03363914373088685 51:0.002287585357762741 52:0.5049550315823664 53:0.061717879229556294 54:0.08882141992672668 55:0.015768929739709815 56:0.019493932088415756 57:0.16666666666666666 
-0.0 2.9562201449744316 0.0 0.0 0.0 0.0 0.0 0.0 0.0 0.0 0.0 0.0 0:0.0 1:0.0 2:0.0 3:0.2 4:0.0 5:0.05805439330543932 6:0.0321728303215879 7:0.0 8:0.0 9:0.0466794962847106 10:0.07894736842105263 11:0.12053571428571427 12:0.0 13:0.31192412724254237 14:0.2677292188805354 15:0.06336471572042063 16:0.4166666666666667 17:0.054917621907294295 18:0.05616337306626953 19:0.9999999999999998 20:1.0 21:0.0 22:1.0 23:0.0 24:0.0 25:1.0 26:0.045454545454545456 27:0.017421836748968317 28:0.07200404737165629 29:0.39357791795976427 30:1.2204607149301395E-16 31:0.12831882323417565 32:0.048238482384823846 33:0.7946428571428571 34:0.04729344729344729 35:0.7410714285714286 36:1.0 37:0.008483392826792387 38:0.3252032520325204 39:0.04195804195804196 40:0.05357142857142857 41:0.052173913043478265 42:0.5 43:0.8621909338101091 44:0.4505910603855105 45:0.033639143730886854 46:0.017656643863146467 47:0.18511760167994198 48:0.1937984496124031 49:0.11627906976744186 50:0.03363914373088685 51:0.002287585357762741 52:0.5049056717466452 53:0.061717879229556294 54:0.08881040427570148 55:0.015768929739709815 56:0.01863378715227548 57:0.16666666666666666 
-0.0 0.0 0.0 0.0 0.0 0.0 0.0 0.22884618127129258 0.0 0.0 0.0 0.0 0:0.0 1:0.0 2:0.0 3:0.16666666666666666 4:0.6666666666666666 5:0.09257322175732217 6:0.03522508782176831 7:0.0 8:0.0 9:0.011912443516884128 10:0.10526315789473684 11:0.10112359550561797 12:0.0 13:0.4402979901867985 14:0.24434567809974353 15:0.09308666036340398 16:0.6296296296296297 17:0.10414529616609074 18:0.10525398751691778 19:0.39715177396796925 20:1.0 21:0.0 22:1.0 23:0.0 24:0.0 25:1.0 26:0.13636363636363635 27:0.03908390189931772 28:0.06502450727058094 29:0.28957957287441044 30:1.2204607149301395E-16 31:0.24702237322162807 32:0.07750677506775068 33:0.8033707865168539 34:0.07578347578347577 35:0.7471910112359551 36:1.0 37:0.021284963360700477 38:0.31862745098039214 39:0.06993006993006994 40:0.056179775280898875 41:0.0782608695652174 42:0.3333333333333333 43:0.850228330912206 44:0.3872349499800662 45:0.07951070336391437 46:0.03363458894077943 47:0.11623916244522339 48:0.13006029285099052 49:0.11627906976744186 50:0.07951070336391437 51:0.001811247173746324 52:0.43397106537457353 53:0.534263273453838 54:0.5939777952381691 55:0.3863814244716932 56:0.40647959959055757 57:0.08333333333333333 
-0.0 0.0 0.0 0.0 0.0 0.0 0.0 0.0 0.0 2.4366297300194124 0.0 0.0 0:0.0 1:0.0 2:0.0 3:0.0 4:0.16666666666666666 5:0.03922594142259414 6:0.02398718810247832 7:0.0 8:0.0 9:0.05115931571712228 10:0.07894736842105263 11:0.17763157894736842 12:0.0 13:0.21231925658022302 14:0.2677116997537706 15:0.04907988903222549 16:0.375 17:0.054917621907294295 18:0.056064660387485137 19:0.9999999999999998 20:1.0 21:0.0 22:1.0 23:0.0 24:0.0 25:1.0 26:0.045454545454545456 27:0.03565111561866126 28:0.07199860735598901 29:0.2601086764810736 30:1.2204607149301395E-16 31:0.009624925197382372 32:0.029268292682926828 33:0.7105263157894737 34:0.029059829059829057 35:0.6710526315789473 36:1.0 37:0.016395851689497396 38:0.4216867469879518 39:0.02097902097902098 40:0.039473684210526314 41:0.026086956521739132 42:0.375 43:0.8639535143591462 44:0.26167981679445934 45:0.021406727828746176 46:0.014835988379395091 47:0.18498288664411688 48:0.19767441860465118 49:0.13953488372093026 50:0.021406727828746176 51:0.002366433330928747 52:0.2932958632798882 53:0.061717879229556294 54:0.0888200135537654 55:0.015768929739709815 56:0.018556004750623262 57:0.16666666666666666 
-0.0 0.0 0.0 0.0 0.0 0.0 0.0 0.0 0.0 3.6088754689024105 0.0 0.0 0:0.0 1:0.0 2:0.0 3:0.0 4:0.6666666666666666 5:0.09205020920502092 6:0.07104028249449659 7:0.0 8:0.0 9:0.0119210846676217 10:0.10526315789473684 11:0.1016949152542373 12:0.0 13:0.4541643806995609 14:0.2443393382231487 15:0.09499557640086359 16:0.5806451612903226 17:0.10414197647668078 18:0.10506514643973101 19:0.9999999999999998 20:1.0 21:0.0 22:1.0 23:0.0 24:0.0 25:1.0 26:0.13636363636363635 27:0.06981551241186129 28:0.06502178726274722 29:0.2886465725254148 30:1.2204607149301395E-16 31:0.2496283998996197 32:0.07696476964769648 33:0.8022598870056498 34:0.07692307692307691 35:0.7627118644067796 36:1.0 37:0.02118528393451245 38:0.2898550724637681 39:0.04895104895104895 40:0.03954802259887006 41:0.06086956521739131 42:0.22580645161290322 43:0.8520460386635379 44:0.38885561437829724 45:0.09174311926605504 46:0.07027420752925695 47:0.098539622013059 48:0.10952738184546136 49:0.06976744186046512 50:0.09174311926605505 51:0.0016384660011916057 52:0.43582040571231206 53:0.07196722594786421 54:0.09978760227792678 55:0.6605089405767726 56:0.6924369845750576 57:0.08333333333333333 
-0.0 1.5656462121490407 0.0 0.0 1.7044339481012676 0.0 0.0 0.0 0.0 0.0 0.0 0.0 0:0.0 1:0.0 2:0.0 3:1.0 4:0.0 5:0.006276150627615063 6:0.008188979077779057 7:0.0 8:0.0 9:0.08926308711978169 10:0.0 11:0.0 12:0.0 13:0.047635366689513264 14:0.8960526315789481 15:0.04192549263741917 16:1.0 17:0.079025206401689 18:0.07597798249256246 19:0.9999999999999998 20:1.0 21:1.0 22:1.0 23:0.0 24:0.0 25:1.0 26:0.0 27:0.03695320696649647 28:0.25899914591754003 29:0.19591224824470224 30:1.2204607149301395E-16 31:0.0 32:0.007046070460704607 33:1.0 34:0.0062678062678062675 35:0.8461538461538461 36:1.0 37:0.033754806150754164 38:0.0 39:0.013986013986013986 40:0.15384615384615385 41:0.017391304347826087 42:1.0 43:0.9144202331731665 44:0.19361376637584954 45:0.0030581039755351682 46:0.006915256190072286 47:0.28361654597348007 48:0.12790697674418605 49:0.16279069767441862 50:0.0030581039755351682 51:0.002589804061852038 52:0.1941743081831931 53:0.009170173823254218 54:0.02669817031844516 55:0.044023058861305676 56:0.04418751440938186 57:0.0 
-0.0 0.0 0.0 0.0 0.0 0.0 0.0 1.6933382322706525 0.0 0.0 0.0 0.0 0:0.0 1:0.0 2:0.0 3:0.0 4:0.0 5:0.010983263598326359 6:0.01396826529817665 7:0.0 8:0.0 9:0.011496433831372227 10:0.0 11:0.0 12:0.0 13:0.07950077911643115 14:0.49521531100478516 15:0.04188433874848777 16:0.5 17:0.04285387059186739 18:0.04124425711726744 19:0.9999999999999998 20:1.0 21:0.0 22:1.0 23:0.0 24:0.0 25:1.0 26:0.0 27:0.03695320696649647 28:0.14045032449693443 29:0.20743660851324125 30:1.2204607149301395E-16 31:0.0 32:0.007046070460704607 33:0.5909090909090909 34:0.0062678062678062675 35:0.5 36:1.0 37:0.016516485878470957 38:0.2 39:0.013986013986013986 40:0.09090909090909091 41:0.017391304347826087 42:0.5 43:0.9306544492866987 44:0.20500292053366964 45:0.009174311926605505 46:0.014698713991365235 47:0.14399912710399526 48:0.10465116279069768 49:0.11627906976744186 50:0.009174311926605505 51:0.0018922447312996458 52:0.20559783805458465 53:0.00920745095261704 54:0.02673384514415863 55:0.7958543217804894 56:0.7940852701263107 57:0.3333333333333333 
