svm_type c_svc
kernel_type polynomial
degree 3
gamma 0.03125
coef0 0.5
nr_class 8
total_sv 765
rho 0.30698122478068746 -0.9116678990462522 2.456698453835327 1.5264717165107997 3.6341236186876134 -1.2679714190802014 1.5857365769887424 1.1253515943571142 2.0642012084322423 3.0447223492169857 3.4044671768692156 -1.554769669270674 2.0873415124333388 3.167112441211204 1.4422784901581642 4.488012867746637 0.41605373215808544 2.3061971088260895 -1.449369689889626 -0.5980169957450503 -2.4556037724440842 0.9255907769295958 2.5023380840603213 -2.299926642687013 1.8840048938503327 -2.0692643219704827 0.2980976179704403 2.3689781816680155
label 14 8 5 4 10 9 13 11
nr_sv 89 107 189 85 108 104 56 27
SV
17.60550669367255 0.0 0.0 0.0 0.0 0.0 0.0 0:1.0 1:0.0 2:1.0 3:0.0 4:0.0 5:0.0 6:0.0 7:0.0 8:0.0 9:0.0 10:1.0 11:0.0 12:0.0 13:0.0 14:0.08333333333333331 15:0.0 16:0.0 17:0.0 18:1.0 19:0.0 20:0.0 21:0.03931276138804169 22:1.0 23:0.03864734299516908 24:0.0445859872611465 25:1.0 26:1.0 27:1.0 28:0.0 29:0.03367919194388839 30:0.0 31:0.8333333333333333 32:0.6363636363636364 33:0.0 34:0.6609907051965592 35:0.6363636363636364 36:0.029268292682926828 37:0.0 38:0.0 39:0.19253076938246505 40:0.5010178062525457 41:0.11428571428571428 42:0.8571428571428571 43:0.02580016868492063 44:0.07161202319050758 45:0.04267672540100383 46:0.3548152523917948 47:0.01614191193246628 48:0.10808664004626999 49:0.10930206134862565 50:0.6159430777635538 51:0.05015004142458229 52:0.4906982331792898 
0.0 0.0 0.0 0.0 335.2426412270047 0.0 0.0 0:1.0 1:0.0 2:0.0 3:0.0 4:1.0 5:0.0 6:0.0 7:0.0 8:0.0 9:0.0 10:0.0 11:0.0 12:0.0 13:0.0 14:0.06944444444444445 15:0.0 16:0.0 17:0.0 18:1.0 19:0.0 20:0.0 21:6.425163203437094E-16 22:1.0 23:0.00966183574879227 24:0.012738853503184714 25:1.0 26:1.0 27:1.0 28:0.0 29:0.012988243400370353 30:0.0 31:0.0 32:0.6666666666666666 33:0.0 34:0.6781171198837364 35:0.3333333333333333 36:0.016097560975609757 37:0.0 38:0.0 39:0.0 40:0.19804009799510341 41:0.05714285714285714 42:0.9428571428571428 43:0.026794681168566172 44:0.010804299608619403 45:0.0017495765565994487 46:0.10108158928355725 47:0.011980879562388969 48:0.07866655553787597 49:0.08118399536113144 50:0.3518541923174143 51:0.023572772443556413 52:0.2876024444856437 
0.0 0.0 0.0 0.0 0.0 0.8398752896748384 0.0 0:1.0 1:0.0 2:0.0 3:0.0 4:0.0 5:0.0 6:0.0 7:0.0 8:0.0 9:0.0 10:1.0 11:0.0 12:0.021739130434782608 13:0.0 14:0.08333333333333331 15:0.0 16:0.0 17:0.0 18:0.0 19:0.0 20:0.0 21:6.425163203437094E-16 22:1.0 23:0.014492753623188404 24:0.012738853503184714 25:1.0 26:1.0 27:1.0 28:0.33333333333333337 29:0.007261284428503755 30:0.08679245283018869 31:0.8333333333333333 32:0.5 33:0.0 34:0.9999999999999998 35:0.25 36:0.022926829268292682 37:0.0 38:0.06388888888888888 39:0.0 40:0.39903004849757734 41:0.05660377358490566 42:0.8867924528301887 43:0.019844524961020026 44:0.018702383145144462 45:0.006139972310533198 46:0.10895723047374846 47:0.7966797994468651 48:0.16362704167582218 49:0.1539707180956115 50:0.8370610154842183 51:0.009327730888091228 52:0.7087285974191023 
512.0 512.0 512.0 310.10550613283283 0.0 512.0 23.68511455599918 0:0.0 1:0.0 2:0.0 3:0.0 4:0.0 5:0.0 6:0.0 7:0.0 8:0.0 9:0.0 10:0.0 11:0.0 12:0.021739130434782608 13:0.0 14:0.13888888888888887 15:0.0 16:0.0 17:0.0 18:0.0 19:0.3333333333333333 20:0.034482758620689655 21:6.425163203437094E-16 22:1.0 23:0.01932367149758454 24:0.025477707006369428 25:1.0 26:1.0 27:1.0 28:0.5 29:0.025989988093256693 30:0.09019607843137256 31:0.2777777777777778 32:0.2 33:0.22291021671826625 34:0.9999999999999998 35:0.8 36:0.020975609756097562 37:0.0 38:0.2787878787878788 39:0.0 40:0.20003999800010247 41:0.0784313725490196 42:0.8431372549019608 43:0.02697472222163999 44:0.013641799007259642 45:0.0015510704960323097 46:0.06889314842312497 47:0.025980367606550748 48:0.5717727820335052 49:0.6287778136695441 50:0.4589635603101737 51:0.015639764262641367 52:0.24575746464998965 
0.0 0.0 0.0 29.209168307006706 0.0 0.0 0.0 0:0.0 1:0.0 2:0.0 3:0.0 4:0.0 5:0.0 6:0.0 7:0.0 8:0.0 9:0.0 10:0.0 11:0.0 12:0.0 13:0.0 14:0.06944444444444445 15:0.2 16:0.0 17:0.0 18:0.0 19:0.0 20:0.0 21:0.07169096868995199 22:1.0 23:0.033816425120772944 24:0.0445859872611465 25:1.0 26:1.0 27:1.0 28:1.0 29:0.025989988093256693 30:0.0 31:0.5555555555555556 32:0.6 33:0.0 34:0.9999999999999997 35:0.7 36:0.023414634146341463 37:0.0 38:0.05897435897435898 39:0.045808418003457786 40:0.6000199990000512 41:0.125 42:0.8571428571428571 43:0.0684567657495545 44:0.06467385342638916 45:0.018896339765037178 46:0.19899719710352776 47:0.17156363555421997 48:0.12432154610455702 49:0.10887378145301005 50:0.4951035950457026 51:0.07340357389538274 52:0.4775508638165467 
0.0 0.0 0.0 0.0 38.855443216557426 0.0 0.0 0:0.0 1:0.0 2:0.0 3:0.0 4:0.0 5:0.09090909090909091 6:0.0 7:0.0 8:0.0 9:0.0 10:0.0 11:0.0 12:0.0 13:0.0 14:0.05555555555555556 15:0.0 16:0.016129032258064516 17:0.0 18:0.0 19:0.5 20:0.017241379310344827 21:0.21065615462868822 22:1.0 23:0.04830917874396135 24:0.050955414012738856 25:1.0 26:1.0 27:1.0 28:0.5555555555555556 29:0.05159218906258225 30:0.0 31:1.0 32:0.5 33:0.11368421052631579 34:0.9999999999999998 35:0.8 36:0.018048780487804877 37:0.04 38:0.06497175141242938 39:0.16333792746817893 40:0.4788260586970667 41:0.2 42:0.74 43:0.015743589863228585 44:0.05409869661538544 45:0.03372811256390101 46:0.4039463135494685 47:0.029906289822651765 48:0.11567749414679608 49:0.10141505151971937 50:0.3991925620306424 51:0.06068695499317249 52:0.2913403898759372 
0.0 62.460789097884366 0.0 0.0 0.0 0.0 0.0 0:0.0 1:0.0 2:0.0 3:0.0 4:0.0 5:0.0 6:0.0 7:0.0 8:0.0 9:0.0 10:0.0 11:0.0 12:0.0 13:0.0 14:0.08333333333333331 15:0.0 16:0.0 17:0.0 18:0.0 19:0.0 20:0.05172413793103448 21:6.425163203437094E-16 22:1.0 23:0.03864734299516908 24:0.025477707006369428 25:1.0 26:1.0 27:1.0 28:0.5 29:0.011605873993368073 30:0.0 31:0.2777777777777778 32:0.5 33:0.3045112781954887 34:0.9999999999999998 35:0.5 36:0.02146341463414634 37:0.0 38:0.24338624338624337 39:0.0 40:0.20003999800010247 41:0.14285714285714285 42:0.7857142857142857 43:0.021227697495745445 44:0.00787872757162241 45:0.0028036504270632983 46:0.10523963014738237 47:0.049106024941152834 48:0.41184329830250765 49:0.35737727428875754 50:0.5469439257670763 51:0.011200205633023212 52:0.36603777248143743 
0.0 0.0 21.998333579893238 0.0 122.45180283315722 0.0 1.292827572445136 0:1.0 1:0.0 2:1.0 3:0.0 4:0.0 5:0.0 6:0.0 7:0.0 8:0.0 9:0.0 10:1.0 11:0.0 12:0.0 13:0.0 14:0.027777777777777776 15:0.0 16:0.0 17:0.0 18:0.0 19:1.0 20:0.0 21:0.011094156211145458 22:1.0 23:0.024154589371980676 24:0.012738853503184714 25:1.0 26:1.0 27:1.0 28:0.5555555555555556 29:0.06362661746740132 30:0.0 31:0.8333333333333333 32:0.5 33:0.0 34:0.11442249938169095 35:1.0 36:0.0 37:0.0 38:0.0 39:0.02913587172065316 40:0.34803259837008255 41:1.0 42:0.0 43:0.004966846829241431 44:0.06414880473456716 45:0.0037836492453216844 46:0.448803242617628 47:0.04880831149173912 48:0.1903585671457833 49:0.2162903355997756 50:0.030390530083740475 51:0.5711679038244395 52:0.015611343690859735 
0.0 0.0 0.0 0.0 44.84945383606837 0.0 0.0 0:1.0 1:0.0 2:0.0 3:0.0 4:1.0 5:0.0 6:0.0 7:0.0 8:0.0 9:0.0 10:0.0 11:0.0 12:0.0 13:0.0 14:0.05555555555555556 15:0.0 16:0.0 17:0.0 18:1.0 19:0.0 20:0.0 21:6.425163203437094E-16 22:1.0 23:0.024154589371980676 24:0.03184713375796178 25:1.0 26:1.0 27:1.0 28:0.0 29:0.03694931312174325 30:0.0 31:0.0 32:0.875 33:0.0 34:0.9999999999999998 35:0.625 36:0.01951219512195122 37:0.0 38:0.0 39:0.0 40:0.34803259837008477 41:0.1111111111111111 42:0.8888888888888888 43:0.02858937611031745 44:0.02891035489752363 45:0.004008531331479075 46:0.09919538400672265 47:0.012854543329827484 48:0.0933759663784895 49:0.1319531019198647 50:0.6439139439502287 51:0.01365941159687047 52:0.3525807714281301 
23.2991513481761 0.0 0.0 0.0 32.15840832840586 0.0 0.0 0:1.0 1:0.0 2:0.0 3:0.0 4:0.0 5:0.0 6:0.0 7:0.0 8:0.0 9:0.0 10:1.0 11:0.0 12:0.0 13:0.0 14:0.08333333333333331 15:0.0 16:0.0 17:0.0 18:0.0 19:0.0 20:0.0 21:6.425163203437094E-16 22:1.0 23:0.024154589371980676 24:0.03184713375796178 25:1.0 26:1.0 27:1.0 28:0.0 29:0.03694931312174325 30:0.0 31:0.8333333333333333 32:0.8333333333333334 33:0.0 34:0.9999999999999997 35:0.8333333333333334 36:0.016097560975609757 37:0.0 38:0.0 39:0.0 40:0.34803259837008277 41:0.13157894736842105 42:0.868421052631579 43:0.027366240067213114 44:0.028910354897523582 45:0.002883320563540268 46:0.08635866214268739 47:0.026950023093660038 48:0.12307766134511298 49:0.17084745522037711 50:0.529256121525428 51:0.01916219778558552 52:0.2893318624816771 
0.0 0.0 169.5080624315127 0.0 0.0 0.0 0.0 0:0.0 1:0.0 2:1.0 3:0.0 4:1.0 5:0.0 6:0.0 7:0.0 8:0.0 9:0.0 10:0.0 11:0.0 12:0.021739130434782608 13:0.0 14:0.027777777777777776 15:0.0 16:0.0 17:0.0 18:0.0 19:0.0 20:0.0 21:6.425163203437094E-16 22:1.0 23:0.2077294685990338 24:0.05732484076433121 25:1.0 26:1.0 27:1.0 28:0.0 29:0.02126051747084433 30:0.10222222222222224 31:0.5555555555555556 32:0.5 33:0.0 34:0.9999999999999998 35:0.9 36:0.0 37:0.0 38:0.1419753086419753 39:0.0 40:0.24903754812259632 41:0.9555555555555556 42:0.0 43:0.032050165241624406 44:0.016461666248595706 45:0.003705674104832828 46:0.1017316716433145 47:0.031225132579867847 48:0.13174823267337987 49:0.150155923689524 50:0.6853376929411862 51:0.008375891202211671 52:0.36372115903392305 
0.0 0.0 117.19245578013265 0.0 0.0 0.0 0.0 0:0.0 1:0.0 2:1.0 3:0.0 4:1.0 5:0.0 6:0.0 7:0.0 8:0.0 9:0.0 10:0.0 11:0.0 12:0.06521739130434782 13:0.0 14:0.05555555555555556 15:0.0 16:0.0 17:0.0 18:0.0 19:0.0 20:0.0 21:0.02034870577596978 22:1.0 23:0.37681159420289856 24:0.07006369426751592 25:1.0 26:1.0 27:1.0 28:0.0 29:0.05796582361844462 30:0.16235294117647062 31:0.5555555555555556 32:0.38461538461538464 33:0.0 34:0.9999999999999998 35:0.8461538461538461 36:0.0 37:0.0 38:0.11855670103092784 39:0.015734729249154845 40:0.24903754812259665 41:0.9176470588235294 42:0.0 43:0.017303945656534654 44:0.051423338335852956 45:0.014185886969651146 46:0.19314227173313162 47:0.025752213374289755 48:0.13349093416376848 49:0.1517056308979745 50:0.6265604487895565 51:0.03543854099513238 52:0.3629323675108831 
0.0 6.930540754383764 392.4637166459779 0.0 0.0 512.0 0.0 0:0.0 1:1.0 2:0.0 3:0.0 4:0.0 5:0.0 6:0.0 7:0.0 8:1.0 9:0.0 10:0.0 11:0.0 12:0.0 13:0.0 14:0.05555555555555556 15:0.0 16:0.0 17:0.0 18:0.0 19:0.0 20:0.06896551724137931 21:6.425163203437094E-16 22:1.0 23:0.02898550724637681 24:0.03184713375796178 25:1.0 26:1.0 27:1.0 28:0.5 29:0.006677983051739564 30:0.0 31:0.2777777777777778 32:0.4 33:0.28421052631578947 34:0.9999999999999998 35:0.5 36:0.033658536585365856 37:0.0 38:0.2153558052434457 39:0.0 40:0.10004499775011527 41:0.075 42:0.8625 43:0.01929868621281216 44:0.005283624164817655 45:0.003534265401393613 46:0.12224812357690676 47:0.03854137103999371 48:0.36234678749397 49:0.3464020988774511 50:0.7439640903123752 51:0.001609888290926861 52:0.4968790527096469 
62.74846636950496 348.20261656918524 0.0 0.0 0.0 0.0 0.0 0:0.0 1:0.0 2:0.0 3:0.0 4:0.0 5:0.0 6:0.0 7:0.0 8:0.0 9:0.0 10:0.0 11:0.0 12:0.0 13:0.0 14:0.09722222222222221 15:0.0 16:0.0 17:0.0 18:0.0 19:0.25 20:0.034482758620689655 21:6.425163203437094E-16 22:1.0 23:0.05314009661835749 24:0.07006369426751592 25:1.0 26:1.0 27:1.0 28:0.5555555555555556 29:0.024442161344103555 30:0.0 31:0.5555555555555556 32:0.75 33:0.09094736842105264 34:0.9999999999999998 35:0.6875 36:0.054634146341463415 37:0.0 38:0.05476190476190476 39:0.00447873368406518 40:0.30003499825008967 41:0.088 42:0.896 43:0.029901103782712067 44:0.04875980707065197 45:0.018410538277167234 46:0.19490974911644404 47:0.04532617708107261 48:0.1533350002651937 49:0.1469930970885098 50:0.7391247625182443 51:0.03394110284193098 52:0.5893207041743156 
189.01961202213832 0.0 0.0 0.0 0.0 0.0 0.0 0:1.0 1:0.0 2:0.0 3:0.0 4:0.0 5:0.2272727272727273 6:0.0 7:0.0 8:0.0 9:0.0 10:0.0 11:0.0 12:0.08695652173913043 13:0.0 14:0.06944444444444445 15:0.0 16:0.04838709677419355 17:0.0 18:0.0 19:0.0 20:0.06896551724137931 21:0.05180663878527616 22:1.0 23:0.1111111111111111 24:0.12101910828025478 25:1.0 26:1.0 27:1.0 28:0.5555555555555556 29:0.05855355631314504 30:0.10054644808743171 31:0.5555555555555556 32:0.5294117647058824 33:0.12424503882657463 34:0.9999999999999998 35:0.5588235294117647 36:0.06975609756097562 37:0.03278688524590164 38:0.1419753086419753 39:0.4338017305791895 40:0.2795442195103382 41:0.12568306010928962 42:0.7814207650273224 43:0.04127798366027836 44:0.08361372023800911 45:0.09803771818649014 46:0.5091608824478706 47:0.11630579344807816 48:0.16098520724256635 49:0.14529093044372818 50:0.7664810299981246 51:0.048906210200381946 52:0.6952899077465154 
0.0 0.0 0.0 0.0 0.0 0.0 0.6830014211281074 0:1.0 1:0.0 2:1.0 3:0.0 4:1.0 5:0.0 6:0.0 7:0.0 8:0.0 9:0.0 10:0.0 11:0.0 12:0.0 13:0.0 14:0.08333333333333331 15:0.0 16:0.0 17:0.0 18:0.0 19:0.0 20:0.0 21:6.425163203437094E-16 22:1.0 23:0.014492753623188404 24:0.019108280254777073 25:1.0 26:1.0 27:1.0 28:0.5 29:0.006677983051739564 30:0.0 31:0.33333333333333337 32:0.5 33:0.0 34:0.21418486978549245 35:0.75 36:0.007317073170731707 37:0.0 38:0.17424242424242425 39:0.0 40:0.45002749862507047 41:0.15789473684210525 42:0.7894736842105263 43:0.02661749790998552 44:0.019489411123075694 45:0.005914546912494957 46:0.2520324366779609 47:0.2004654902811861 48:0.11827386680204173 49:0.10623772518706144 50:0.3151821169103318 51:0.047846177802872904 52:0.2881185412583969 
0.0 0.0 0.0 0.0 216.54137617531566 0.0 0.0 0:1.0 1:0.0 2:0.0 3:0.0 4:1.0 5:0.0 6:0.0 7:0.0 8:0.0 9:0.0 10:0.0 11:0.0 12:0.0 13:0.0 14:0.05555555555555556 15:0.0 16:0.0 17:0.0 18:1.0 19:0.0 20:0.0 21:6.425163203437094E-16 22:1.0 23:0.033816425120772944 24:0.019108280254777073 25:1.0 26:1.0 27:1.0 28:0.0 29:0.03875955877377005 30:0.0 31:0.0 32:0.8333333333333334 33:0.0 34:0.9999999999999998 35:0.5 36:0.01121951219512195 37:0.0 38:0.0 39:0.0 40:0.35003249837508327 41:0.23333333333333334 42:0.7666666666666667 43:0.07229648508984511 44:0.031679423106531 45:0.002493487830448807 46:0.09186450673189421 47:0.03413131667250958 48:0.07299646155827821 49:0.1126024012190843 50:0.42593830774374 51:0.026687812368478427 52:0.18400745224723186 
51.1862742185676 0.0 199.81974190899714 18.451012859056785 512.0 0.0 4.957442405285768 0:0.0 1:0.0 2:0.0 3:0.0 4:0.0 5:0.0 6:0.0 7:0.0 8:0.0 9:0.0 10:0.0 11:0.0 12:0.0 13:0.0 14:0.05555555555555556 15:0.0 16:0.0 17:0.0 18:1.0 19:0.0 20:0.0 21:6.425163203437094E-16 22:1.0 23:0.033816425120772944 24:0.025477707006369428 25:1.0 26:1.0 27:1.0 28:0.0 29:0.011605873993368073 30:0.0 31:0.0 32:0.625 33:0.0 34:0.9999999999999998 35:0.5 36:0.014146341463414635 37:0.0 38:0.0 39:0.0 40:0.2023371804382778 41:0.1891891891891892 42:0.7837837837837838 43:0.11539488384231386 44:0.018427141740957755 45:0.010608475671826297 46:0.42809873546628446 47:0.05511176775012098 48:0.04280352682371184 49:0.044356453913078166 50:0.37693756574065773 51:0.03276009788970557 52:0.26464382651336277 
0.0 240.84179488570925 86.25888707675638 0.0 271.46313831155226 0.0 0.0 0:0.0 1:0.0 2:1.0 3:0.0 4:0.0 5:0.045454545454545456 6:0.0 7:0.0 8:0.0 9:0.0 10:0.0 11:0.0 12:0.0 13:0.0 14:0.05555555555555556 15:0.4 16:0.03225806451612903 17:0.0 18:0.0 19:0.0 20:0.06896551724137931 21:6.425163203437094E-16 22:1.0 23:0.10628019323671498 24:0.14012738853503184 25:1.0 26:1.0 27:1.0 28:0.0 29:0.1644344917675093 30:0.0 31:0.5555555555555556 32:0.6551724137931034 33:0.13374613003095975 34:0.9999999999999998 35:0.7586206896551724 36:0.06731707317073171 37:0.023529411764705882 38:0.07744107744107745 39:0.6587485401387881 40:0.19979706897008176 41:0.12941176470588237 42:0.8117647058823529 43:0.046630632746106536 44:0.11661625685081115 45:0.1867634021265131 46:0.8155745536310016 47:0.08601136319371401 48:0.08053301409062553 49:0.0756769169164174 50:0.5097923002910936 51:0.07582346547634392 52:0.23536639690265088 
0.0 0.0 17.865322923589122 0.0 0.0 0.0 0.0 0:0.0 1:0.0 2:1.0 3:0.25 4:1.0 5:0.0 6:0.0 7:0.0 8:0.0 9:0.0 10:0.0 11:0.0 12:0.0 13:0.0 14:0.16666666666666666 15:0.0 16:0.0 17:0.0 18:0.0 19:1.0 20:0.0 21:6.425163203437094E-16 22:1.0 23:0.15458937198067632 24:0.019108280254777073 25:1.0 26:1.0 27:1.0 28:0.0 29:0.02211412924171876 30:0.0 31:0.5555555555555556 32:1.0 33:0.0 34:0.9999999999999998 35:1.0 36:0.0 37:0.0 38:0.0 39:0.0 40:0.22173891305434917 41:1.0 42:0.0 43:0.023256731585941968 44:0.009665466209592676 45:9.452319456665291E-4 46:0.03855303769231074 47:0.02295454166040626 48:0.08871613413245036 49:0.08166010318652243 50:0.4813459609755303 51:0.01544705048994938 52:0.2619265391792696 
0.0 0.0 0.0 25.661340850479025 0.0 0.0 0.0 0:0.0 1:0.0 2:0.0 3:0.0 4:0.0 5:0.0 6:0.0 7:0.0 8:0.0 9:0.0 10:0.0 11:0.0 12:0.0 13:0.0 14:0.09722222222222221 15:0.0 16:0.0 17:0.0 18:0.0 19:0.0 20:0.0 21:6.425163203437094E-16 22:1.0 23:0.00966183574879227 24:0.012738853503184714 25:1.0 26:1.0 27:1.0 28:1.0 29:0.008876580548773822 30:0.0 31:0.5555555555555556 32:0.75 33:0.0 34:0.9999999999999998 35:0.5 36:0.011707317073170732 37:0.0 38:0.0 39:0.0 40:0.6000199990000514 41:0.07692307692307693 42:0.9230769230769231 43:0.009967987192401719 44:0.025260111725359607 45:0.0028997195666861653 46:0.07328133434513594 47:0.11318814933529205 48:0.13786157898857646 49:0.12033993477150082 50:0.4492950970719418 51:0.03903615218499904 52:0.35614672177836204 
0.0 239.8530050072628 0.0 0.0 0.0 0.0 0.0 0:0.0 1:0.0 2:0.0 3:0.0 4:0.0 5:0.18181818181818182 6:0.0 7:0.0 8:0.0 9:0.0 10:0.0 11:0.0 12:0.0 13:0.0 14:0.05555555555555556 15:0.0 16:0.03225806451612903 17:0.0 18:0.0 19:0.0 20:0.05172413793103448 21:0.2700614144154332 22:1.0 23:0.0966183574879227 24:0.10828025477707007 25:1.0 26:1.0 27:1.0 28:1.0 29:0.06792462761197957 30:0.0 31:0.5555555555555556 32:0.6190476190476191 33:0.1482837528604119 34:0.9999999999999998 35:0.8095238095238095 36:0.04292682926829268 37:0.034782608695652174 38:0.0851851851851852 39:0.22208953523277794 40:0.46437460735659036 41:0.17391304347826086 42:0.7652173913043478 43:0.06724104663131336 44:0.08914557063988993 45:0.06745399670552045 46:0.36846840901016825 47:0.14033850297435205 48:0.12493654293486083 49:0.10941702920137711 50:0.6101528037116463 51:0.06406786711159153 52:0.377077855856289 
19.72121537822412 0.0 512.0 0.0 96.882232717614 0.0 0.0 0:0.0 1:0.0 2:0.0 3:0.25 4:0.0 5:0.0 6:0.0 7:0.0 8:0.0 9:0.0 10:0.0 11:0.0 12:0.0 13:0.0 14:0.08333333333333331 15:0.0 16:0.0 17:0.0 18:1.0 19:1.0 20:0.0 21:6.425163203437094E-16 22:1.0 23:0.06280193236714976 24:0.012738853503184714 25:1.0 26:1.0 27:1.0 28:0.0 29:0.007878897650959957 30:0.0 31:0.0 32:1.0 33:0.0 34:0.9999999999999998 35:1.0 36:0.0 37:0.0 38:0.0 39:0.0 40:0.22503874806259933 41:1.0 42:0.0 43:0.0255658295364754 44:0.013433757438125941 45:8.573769910090125E-4 46:0.08703139570653112 47:0.011382670294875368 48:0.04297905979991766 49:0.048994876407162824 50:0.1826672972333886 51:0.05793966192013143 52:0.1417130071982026 
0.0 0.0 1.1503705030366693 0.0 86.95796002412952 0.0 0.0 0:1.0 1:0.0 2:1.0 3:0.0 4:0.0 5:0.0 6:0.0 7:0.0 8:0.0 9:0.0 10:0.0 11:0.0 12:0.0 13:0.0 14:0.08333333333333331 15:0.0 16:0.0 17:0.0 18:0.0 19:1.0 20:0.0 21:6.425163203437094E-16 22:1.0 23:0.033816425120772944 24:0.006369426751592357 25:1.0 26:1.0 27:1.0 28:0.33333333333333337 29:0.027093531238486235 30:0.0 31:0.5555555555555556 32:1.0 33:0.0 34:0.0 35:1.0 36:0.0 37:0.0 38:0.0 39:0.0 40:0.34803259837008255 41:1.0 42:0.0 43:0.04554752863317075 44:0.022984883741571004 45:1.7765586741404266E-5 46:0.0025943020943357585 47:0.11749664724573325 48:0.1903585671457833 49:0.221199308768579 50:0.09594874471017038 51:0.14188064238717188 52:0.04764266395024289 
0.0 0.0 67.46940789091721 0.0 0.0 0.0 0.0 0:1.0 1:0.0 2:0.0 3:0.0 4:1.0 5:0.0 6:0.0 7:0.0 8:0.0 9:0.0 10:0.0 11:0.0 12:0.021739130434782608 13:0.0 14:0.06944444444444445 15:0.0 16:0.0 17:0.0 18:0.0 19:1.0 20:0.0 21:6.425163203437094E-16 22:1.0 23:0.20289855072463767 24:0.0445859872611465 25:1.0 26:1.0 27:1.0 28:0.0 29:0.06362661746740132 30:0.10697674418604652 31:0.5555555555555556 32:0.7142857142857143 33:0.0 34:0.8872412922766276 35:1.0 36:0.0 37:0.0 38:0.0782312925170068 39:0.07938358250489173 40:0.3492883495360127 41:0.9767441860465116 42:0.0 43:0.024859954296646555 44:0.066863048499592 45:0.025489501010767246 46:0.4035401408111788 47:0.031488066420705264 48:0.1903585671457833 49:0.21566083474333544 50:0.40793148294616005 51:0.07136052119891319 52:0.2331778169319361 
0.0 0.0 0.0 0.0 208.7366994833634 0.0 0.0 0:1.0 1:0.0 2:1.0 3:0.0 4:0.0 5:0.0 6:0.0 7:0.0 8:0.0 9:0.0 10:1.0 11:0.0 12:0.0 13:0.0 14:0.027777777777777776 15:0.0 16:0.0 17:0.0 18:0.0 19:1.0 20:0.0 21:6.425163203437094E-16 22:1.0 23:0.014492753623188404 24:0.006369426751592357 25:1.0 26:1.0 27:1.0 28:0.5555555555555556 29:0.024944526166197113 30:0.0 31:0.8333333333333333 32:1.0 33:0.0 34:0.15691822311963663 35:1.0 36:0.0 37:0.0 38:0.0 39:0.0 40:0.34803259837008255 41:1.0 42:0.0 43:0.024859954296646555 44:0.02211558749538165 45:0.0 46:0.0 47:0.0538165751267369 48:0.1903585671457833 49:0.21566083474333544 50:0.04136871030079671 51:0.2891305739155556 52:0.02165222752393548 
0.0 0.0 0.0 0.0 0.0 0.0 2.5942638150321624 0:1.0 1:0.0 2:1.0 3:0.0 4:1.0 5:0.0 6:0.0 7:0.0 8:0.0 9:0.0 10:0.0 11:0.0 12:0.0 13:0.0 14:0.041666666666666664 15:0.0 16:0.06451612903225806 17:0.25 18:0.0 19:0.0 20:0.0 21:6.425163203437094E-16 22:1.0 23:0.23671497584541062 24:0.050955414012738856 25:1.0 26:1.0 27:1.0 28:0.0 29:0.07272828600886114 30:0.0 31:0.5555555555555556 32:0.5454545454545454 33:0.0 34:0.9999999999999998 35:0.7272727272727273 36:0.0 37:0.13333333333333333 38:0.0 39:0.6296477269988322 40:0.34803259837008343 41:0.8166666666666667 42:0.0 43:0.02485995429664647 44:0.06460817096297693 45:0.06046228313778514 46:0.5695484984001795 47:0.028982543418863266 48:0.19024491270075797 49:0.21852086657543054 50:0.49810014595445257 51:0.033452803099317086 52:0.2506554504863627 
0.0 0.0 0.0 0.0 67.69558225602479 0.0 0.0 0:1.0 1:0.0 2:0.0 3:0.0 4:1.0 5:0.0 6:0.0 7:0.0 8:0.0 9:0.0 10:0.0 11:0.0 12:0.0 13:0.0 14:0.041666666666666664 15:0.0 16:0.0 17:0.0 18:1.0 19:1.0 20:0.0 21:6.425163203437094E-16 22:1.0 23:0.024154589371980676 24:0.03184713375796178 25:1.0 26:1.0 27:1.0 28:0.0 29:0.03875955877377005 30:0.0 31:0.0 32:0.8 33:0.0 34:0.9999999999999998 35:1.0 36:0.00975609756097561 37:0.0 38:0.0 39:0.0 40:0.3480325983700842 41:0.2 42:0.8 43:0.04211245965230282 44:0.028920960667691516 45:0.0022891983453997592 46:0.0955313120639443 47:0.01943762764116339 48:0.09352750563852329 49:0.1321877864363698 50:0.3753781361861042 51:0.03161627573123499 52:0.22022368035348036 
0.0 0.0 104.04509660986625 0.0 0.0 0.0 0.0 0:0.0 1:0.0 2:1.0 3:0.0 4:1.0 5:0.0 6:0.0 7:0.0 8:0.0 9:0.0 10:0.0 11:0.0 12:0.0 13:0.0 14:0.08333333333333331 15:0.0 16:0.0 17:0.0 18:0.0 19:1.0 20:0.0 21:6.425163203437094E-16 22:1.0 23:0.23188405797101447 24:0.050955414012738856 25:1.0 26:1.0 27:1.0 28:0.0 29:0.018927311963787573 30:0.0 31:0.5555555555555556 32:0.625 33:0.0 34:0.9999999999999998 35:1.0 36:0.0 37:0.0 38:0.0 39:0.0 40:0.24903754812259687 41:1.0 42:0.0 43:0.01660378600569216 44:0.01616008310734924 45:0.002883356151654698 46:0.07222397987559757 47:0.01780298603807387 48:0.12918721917880874 49:0.14592174556447868 50:0.7534837452401725 51:0.006505791978207699 52:0.3997446443345675 
0.0 0.0 0.0 0.0 34.659057458438575 0.0 0.0 0:1.0 1:0.0 2:1.0 3:0.0 4:0.0 5:0.0 6:0.0 7:0.0 8:0.0 9:0.0 10:0.0 11:0.0 12:0.021739130434782608 13:0.0 14:0.041666666666666664 15:0.0 16:0.016129032258064516 17:0.0 18:0.0 19:1.0 20:0.0 21:6.425163203437094E-16 22:1.0 23:0.178743961352657 24:0.050955414012738856 25:1.0 26:1.0 27:1.0 28:0.5555555555555556 29:0.02211412924171876 30:0.11500000000000002 31:1.0 32:0.625 33:0.0 34:0.9999999999999998 35:1.0 36:0.0 37:0.05 38:0.08156028368794327 39:0.0 40:0.24903754812259687 41:0.925 42:0.0 43:0.01976164892071624 44:0.015464031837401573 45:0.0028588976268527485 46:0.08810358357138892 47:0.03373761150342503 48:0.12918721917880874 49:0.14222043009849888 50:0.6094699162596521 51:0.010883372078115267 52:0.319536186716429 
0.0 324.2545558535999 512.0 57.411232149716696 109.79583651830272 0.0 38.73615441067759 0:0.0 1:0.0 2:1.0 3:0.0 4:0.0 5:0.0 6:0.0 7:0.0 8:0.0 9:0.0 10:0.0 11:0.0 12:0.0 13:0.0 14:0.08333333333333331 15:0.0 16:0.0 17:0.0 18:0.0 19:0.0 20:0.034482758620689655 21:6.425163203437094E-16 22:1.0 23:0.01932367149758454 24:0.025477707006369428 25:1.0 26:1.0 27:1.0 28:0.5 29:0.027093531238486235 30:0.0 31:0.33333333333333337 32:0.625 33:0.2066985645933014 34:0.9999999999999998 35:0.5 36:0.023414634146341463 37:0.0 38:0.18548387096774194 39:0.0 40:0.15004249787510887 41:0.07272727272727272 42:0.8727272727272727 43:0.0377428918721474 44:0.011106229826704209 45:0.0019465757768578425 46:0.09438086938455137 47:0.06444800587636258 48:0.24469549448523378 49:0.27507564290124925 50:0.4676433655955187 51:0.012360692048688685 52:0.24364422517244855 
0.0 0.0 0.0 23.752227364291354 0.0 0.0 0.0 0:0.0 1:0.0 2:1.0 3:0.0 4:0.0 5:0.0 6:0.0 7:0.0 8:0.0 9:0.0 10:0.0 11:0.0 12:0.043478260869565216 13:0.0 14:0.06944444444444445 15:0.0 16:0.0 17:0.0 18:0.0 19:0.0 20:0.0 21:0.04001356391997356 22:1.0 23:0.2995169082125604 24:0.06369426751592357 25:1.0 26:1.0 27:1.0 28:0.5555555555555556 29:0.06571754132152048 30:0.1373134328358209 31:1.0 32:0.6666666666666666 33:0.0 34:0.9999999999999998 35:0.8333333333333334 36:0.0 37:0.0 38:0.14743589743589744 39:0.03123719540119049 40:0.24902486218972936 41:0.9253731343283582 42:0.0 43:0.01973021318129067 44:0.05586982671968005 45:0.019025442464727284 46:0.2955814827430014 47:0.03480743226323428 48:0.12917332807997234 49:0.14923996699615955 50:0.5019080079255714 51:0.04818161914111993 52:0.2588211125661649 
27.512218197734082 9.927390967962841 0.0 0.0 0.0 0.0 0.0 0:0.0 1:0.0 2:1.0 3:0.0 4:0.0 5:0.0 6:0.0 7:0.0 8:0.0 9:0.0 10:0.0 11:0.0 12:0.0 13:0.0 14:0.1111111111111111 15:0.0 16:0.0 17:0.0 18:0.0 19:1.0 20:0.0 21:0.14259070871481921 22:1.0 23:0.37681159420289856 24:0.06369426751592357 25:1.0 26:1.0 27:1.0 28:1.0 29:0.05796582361844462 30:0.0 31:1.0 32:0.7 33:0.0 34:0.9999999999999998 35:1.0 36:0.0 37:0.0 38:0.043560606060606064 39:0.11042138222836721 40:0.24903754812259687 41:0.9873417721518988 42:0.0 43:0.014046059934247339 44:0.04986709289893017 45:0.025704951060320617 46:0.3212215967121442 47:0.041640929756320104 48:0.13782495700073497 49:0.15246466898684494 50:0.5976060208250097 51:0.03145510694607171 52:0.30993832880565964 
117.45006235499962 0.0 0.0 0.0 0.0 0.0 0.0 0:0.0 1:0.0 2:1.0 3:0.0 4:0.0 5:0.0 6:0.0 7:0.0 8:0.0 9:0.0 10:0.0 11:0.0 12:0.043478260869565216 13:0.0 14:0.041666666666666664 15:0.0 16:0.0 17:0.0 18:0.0 19:0.0 20:0.0 21:0.35537187747258997 22:1.0 23:0.24154589371980675 24:0.050955414012738856 25:1.0 26:1.0 27:1.0 28:0.5555555555555556 29:0.03367919194388839 30:0.1703703703703704 31:1.0 32:0.5555555555555556 33:0.0 34:0.9999999999999998 35:0.8888888888888888 36:0.0 37:0.0 38:0.12365591397849462 39:0.27546184202165297 40:0.24902088228922142 41:0.9259259259259259 42:0.0 43:0.01061670654236603 44:0.04873395545883105 45:0.04665415941627753 46:0.6258518879916758 47:0.014523964541493425 48:0.12917332807997234 49:0.14035104189934308 50:0.39475175512267524 51:0.03472893457316223 52:0.3884891310442165 
0.0 512.0 0.0 77.7378141283322 0.0 0.0 0.0 0:0.0 1:0.0 2:0.0 3:0.0 4:0.0 5:0.0 6:0.0 7:0.0 8:0.0 9:0.0 10:0.0 11:0.0 12:0.0 13:0.0 14:0.09722222222222221 15:0.2 16:0.0 17:0.0 18:0.0 19:0.0 20:0.0 21:6.425163203437094E-16 22:1.0 23:0.04830917874396135 24:0.06369426751592357 25:1.0 26:1.0 27:1.0 28:0.5555555555555556 29:0.025989988093256693 30:0.0 31:0.5555555555555556 32:0.7692307692307693 33:0.0 34:0.9999999999999998 35:0.7692307692307693 36:0.03609756097560975 37:0.0 38:0.0 39:0.6025342971521477 40:0.30003499825008967 41:0.11904761904761904 42:0.8809523809523809 43:0.03432782745273217 44:0.04881774601083251 45:0.062033911213584786 46:0.619499618254492 47:0.04748112162846467 48:0.1533350002651937 49:0.14714218859245484 50:0.5064497190988332 51:0.03130726112267205 52:0.3996361981438479 
4.332973849950142 0.0 383.3031141133186 2.0360360980521377 7.848819541857567 512.0 0.0 0:0.0 1:1.0 2:0.0 3:0.0 4:0.0 5:0.0 6:0.0 7:0.0 8:1.0 9:0.0 10:0.0 11:0.0 12:0.0 13:0.0 14:0.08333333333333331 15:0.0 16:0.0 17:0.0 18:0.0 19:0.0 20:0.017241379310344827 21:6.425163203437094E-16 22:1.0 23:0.01932367149758454 24:0.025477707006369428 25:1.0 26:1.0 27:1.0 28:0.2777777777777778 29:0.003158060950576346 30:0.0 31:0.5555555555555556 32:0.7142857142857143 33:0.11368421052631579 34:0.9999999999999998 35:0.5714285714285714 36:0.02146341463414634 37:0.0 38:0.1369047619047619 39:0.0 40:0.15922203889805753 41:0.08 42:0.88 43:0.003556646469536982 44:0.01324369869309345 45:0.004315473282819016 46:0.18830603171906626 47:0.011094695135863017 48:0.28133516190707103 49:0.3079502671549044 50:0.46809386746683423 51:0.015073054891010827 52:0.4357078355160413 
512.0 512.0 447.01260545286954 0.0 183.67790283072011 217.30254359334052 0.4848146815563982 0:0.0 1:0.0 2:0.0 3:0.0 4:0.0 5:0.0 6:0.0 7:0.0 8:0.0 9:0.0 10:0.0 11:0.0 12:0.0 13:0.0 14:0.05555555555555556 15:0.0 16:0.0 17:0.0 18:0.0 19:0.5 20:0.017241379310344827 21:6.425163203437094E-16 22:1.0 23:0.02898550724637681 24:0.025477707006369428 25:1.0 26:1.0 27:1.0 28:0.5 29:0.0046364282330649004 30:0.0 31:0.2777777777777778 32:0.5 33:0.29916897506925205 34:0.9999999999999998 35:1.0 36:0.005365853658536585 37:0.0 38:0.3484848484848485 39:0.0 40:0.17504124793760567 41:0.3157894736842105 42:0.5789473684210527 43:0.01790408250011391 44:0.008690593028864475 45:0.0012780077179015436 46:0.14161473652973125 47:0.03750493870441786 48:0.34482632337972957 49:0.3272413926658978 50:0.18424303454798974 51:0.051015232939276664 52:0.15259178425643596 
512.0 108.51050255991738 153.61186217669328 0.0 259.46753513223223 0.0 0.9256621977082333 0:1.0 1:0.0 2:1.0 3:0.0 4:0.0 5:0.09090909090909091 6:0.0 7:0.0 8:0.0 9:0.0 10:1.0 11:0.0 12:0.0 13:0.0 14:0.027777777777777776 15:0.0 16:0.016129032258064516 17:0.0 18:0.0 19:0.5 20:0.0 21:6.425163203437094E-16 22:1.0 23:0.024154589371980676 24:0.03184713375796178 25:1.0 26:1.0 27:1.0 28:0.5555555555555556 29:0.01753731719362609 30:0.0 31:0.8333333333333333 32:0.16666666666666666 33:0.0 34:0.9999999999999998 35:0.8333333333333334 36:0.006341463414634147 37:0.1 38:0.0 39:0.0 40:0.2799360031998424 41:0.25 42:0.65 43:0.04789377791211619 44:0.01795104025580104 45:0.0073674099372754535 46:0.3707075892061403 47:0.04971397249906787 48:0.14096813381926923 49:0.12516922265695465 50:0.2756663758449459 51:0.05339946668817758 52:0.12493278211925161 
0.0 0.0 0.0 0.0 370.6721013901532 0.0 0.0 0:1.0 1:0.0 2:0.0 3:0.0 4:0.0 5:0.0 6:0.0 7:0.0 8:0.0 9:0.0 10:0.0 11:0.0 12:0.0 13:0.0 14:0.041666666666666664 15:0.0 16:0.0 17:0.0 18:0.0 19:0.0 20:0.0 21:6.425163203437094E-16 22:1.0 23:0.01932367149758454 24:0.025477707006369428 25:1.0 26:1.0 27:1.0 28:0.0 29:0.005107556268143668 30:0.0 31:1.0 32:0.8 33:0.0 34:0.9999999999999998 35:0.8 36:0.00975609756097561 37:0.0 38:0.0 39:0.0 40:0.35003249837508327 41:0.16666666666666666 42:0.8333333333333334 43:0.04324700406611696 44:0.015634352263249322 45:0.0021874564076078684 46:0.1076729448464828 47:0.053056988475428855 48:0.11738609930367709 49:0.10798466098809159 50:0.3148131538392545 51:0.039858089047285016 52:0.26403015405190433 
0.0 0.0 0.0 45.5334287280069 0.0 0.0 0.0 0:1.0 1:0.0 2:0.0 3:0.0 4:0.0 5:0.0 6:0.0 7:0.0 8:0.0 9:0.0 10:0.0 11:0.0 12:0.0 13:0.0 14:0.041666666666666664 15:0.0 16:0.0 17:0.0 18:0.0 19:0.0 20:0.0 21:6.425163203437094E-16 22:1.0 23:0.024154589371980676 24:0.03184713375796178 25:1.0 26:1.0 27:1.0 28:1.0 29:0.01348316578065512 30:0.0 31:0.2777777777777778 32:0.6666666666666666 33:0.0 34:0.9999999999999998 35:0.8333333333333334 36:0.00878048780487805 37:0.0 38:0.0 39:0.0 40:0.40002999850007687 41:0.21739130434782608 42:0.782608695652174 43:0.02226221910229634 44:0.01795668825649522 45:0.0030872030260060564 46:0.1282324102012154 47:0.03520531098534797 48:0.0911129800953182 49:0.08442172532850524 50:0.3480116763561942 51:0.038741069967545 52:0.22237149120023156 
98.7213426326296 512.0 0.0 0.0 4.956546615025374 145.89468175250244 0.0 0:0.0 1:0.0 2:0.0 3:0.0 4:0.0 5:0.0 6:0.0 7:0.0 8:0.0 9:0.0 10:0.0 11:0.0 12:0.0 13:0.0 14:0.06944444444444445 15:0.0 16:0.0 17:0.0 18:0.0 19:0.0 20:0.06896551724137931 21:6.425163203437094E-16 22:1.0 23:0.02898550724637681 24:0.038216560509554146 25:1.0 26:1.0 27:1.0 28:0.2777777777777778 29:0.024944526166197113 30:0.0 31:0.2777777777777778 32:0.4444444444444444 33:0.39201451905626133 34:0.9999999999999998 35:0.6666666666666666 36:0.022926829268292682 37:0.0 38:0.29040404040404044 39:0.0 40:0.15004249787510887 41:0.10344827586206896 42:0.8103448275862069 43:0.03579101823326837 44:0.0114934256077212 45:0.0024171447345277784 46:0.11432979115228836 47:0.03467526975064406 48:0.4014199228665166 49:0.45601440943393484 50:0.48119919113510173 51:0.011612957952998177 52:0.2717305120423714 
0.0 0.0 33.976713456157285 0.0 0.0 0.0 0.0 0:1.0 1:0.0 2:0.0 3:0.0 4:1.0 5:0.0 6:0.0 7:0.0 8:0.0 9:0.0 10:0.0 11:0.0 12:0.021739130434782608 13:0.0 14:0.06944444444444445 15:0.0 16:0.04838709677419355 17:0.0 18:0.0 19:0.0 20:0.0 21:6.425163203437094E-16 22:1.0 23:0.024154589371980676 24:0.019108280254777073 25:1.0 26:1.0 27:1.0 28:0.5555555555555556 29:0.04279779907444522 30:0.03216783216783217 31:0.5555555555555556 32:0.6190476190476191 33:0.0 34:0.9999999999999998 35:0.14285714285714285 36:0.06292682926829268 37:0.04195804195804196 38:0.07055214723926381 39:0.5155736788940771 40:0.40202989850507503 41:0.03496503496503497 42:0.9020979020979021 43:0.04171522621774325 44:0.09774906094551676 45:0.08486040146510726 46:0.4113001837216128 47:0.09428751885054779 48:0.18489305116723115 49:0.17947526399029387 50:0.7667473900789025 51:0.052952228737619914 52:0.6164831347147426 
0.0 0.0 43.59777346454722 0.0 0.0 0.0 0.0 0:0.0 1:0.0 2:0.0 3:0.0 4:0.0 5:0.0 6:0.0 7:0.0 8:0.0 9:0.0 10:0.0 11:0.0 12:0.021739130434782608 13:0.0 14:0.08333333333333331 15:0.0 16:0.0 17:0.0 18:0.0 19:1.0 20:0.0 21:0.3957301910252067 22:1.0 23:0.32367149758454106 24:0.07643312101910829 25:1.0 26:1.0 27:1.0 28:0.0 29:0.06164292047759599 30:0.06666666666666668 31:0.5555555555555556 32:0.5833333333333334 33:0.0 34:0.9999999999999998 35:1.0 36:0.0 37:0.0 38:0.09583333333333334 39:0.3467425100629082 40:0.21063946802660077 41:0.9710144927536232 42:0.0 43:0.029300966939132814 44:0.04247974903097523 45:0.06771151926124949 46:0.684801272748729 47:0.03338425068028909 48:0.07514453056925723 49:0.07002322191631942 50:0.5260648967311096 51:0.026435355146801814 52:0.28175415428325973 
56.49190440652004 0.0 0.0 0.0 87.08454357398419 0.0 0.0 0:1.0 1:0.0 2:1.0 3:0.0 4:0.0 5:0.18181818181818182 6:0.0 7:0.0 8:0.0 9:0.0 10:0.0 11:0.0 12:0.15217391304347827 13:0.0 14:0.05555555555555556 15:0.0 16:0.03225806451612903 17:0.0 18:0.0 19:0.25 20:0.05172413793103448 21:0.3024716476395016 22:1.0 23:0.4106280193236715 24:0.14012738853503184 25:1.0 26:1.0 27:1.0 28:0.0 29:0.11989147754188019 30:0.22054794520547946 31:0.5555555555555556 32:0.5454545454545454 33:0.11679884643114635 34:0.9999999999999998 35:1.0 36:0.0224390243902439 37:0.0273972602739726 38:0.22954091816367267 39:0.3203280606688738 40:0.175116929085055 41:0.5821917808219178 42:0.3150684931506849 43:0.027857780720049408 44:0.06958247215017843 45:0.09245279101315448 46:0.6220973021477663 47:0.03669805178544592 48:0.06968280307220592 49:0.06456643263720495 50:0.6194251242787213 51:0.04497585835933403 52:0.4174224630267997 
0.0 0.0 0.0 0.0 29.970336308649117 0.0 30.338942803257744 0:0.0 1:0.0 2:0.0 3:0.0 4:0.0 5:0.0 6:0.0 7:0.0 8:0.0 9:0.0 10:0.0 11:0.0 12:0.0 13:0.0 14:0.041666666666666664 15:0.2 16:0.0967741935483871 17:0.16666666666666666 18:0.0 19:0.0 20:0.034482758620689655 21:0.11293470479635348 22:1.0 23:0.00966183574879227 24:0.012738853503184714 25:1.0 26:1.0 27:1.0 28:1.0 29:0.062292752250118426 30:0.0 31:0.5555555555555556 32:0.48 33:0.09553295002211411 34:0.9999999999999998 35:0.08 36:0.04878048780487805 37:0.10084033613445378 38:0.13403263403263405 39:0.12526430883103737 40:0.6000199990000512 41:0.01680672268907563 42:0.8403361344537815 43:0.0099679871924018 44:0.10401925102163015 45:0.05176291249073382 46:0.25251478445578746 47:0.10046159496502557 48:0.10898451016197021 49:0.09562000468312132 50:0.705909252751255 51:0.07703504035130224 52:0.48770116699184035 
71.12142832560117 13.114975980707628 0.0 0.0 160.15619533390412 0.0 11.159683817622998 0:1.0 1:0.0 2:1.0 3:0.0 4:0.0 5:0.0 6:0.0 7:0.0 8:0.0 9:0.0 10:0.0 11:0.0 12:0.0 13:0.0 14:0.08333333333333331 15:0.0 16:0.0 17:0.0 18:0.0 19:1.0 20:0.017241379310344827 21:0.020673674691986697 22:1.0 23:0.08212560386473429 24:0.019108280254777073 25:1.0 26:1.0 27:1.0 28:0.8333333333333333 29:0.06362661746740132 30:0.0 31:0.5 32:0.3333333333333333 33:0.3157894736842105 34:0.0 35:1.0 36:0.0 37:0.0 38:0.19166666666666668 39:2.4102774229316782E-4 40:0.34803259837008255 41:0.9444444444444444 42:0.0 43:0.017243931972176607 44:0.06395374628226734 45:0.0058691839292556915 46:0.246173995917489 47:0.11098451333589307 48:0.1903585671457833 49:0.21571429256802613 50:0.15700295985844878 51:0.19388692717859923 52:0.08148507756797836 
0.0 0.0 143.71347441575185 0.0 0.0 0.0 0.0 0:1.0 1:0.0 2:0.0 3:0.0 4:0.0 5:0.0 6:0.0 7:0.0 8:0.0 9:0.0 10:1.0 11:0.0 12:0.0 13:0.0 14:0.1111111111111111 15:0.0 16:0.0 17:0.0 18:0.0 19:0.0 20:0.0 21:6.425163203437094E-16 22:1.0 23:0.00966183574879227 24:0.012738853503184714 25:1.0 26:1.0 27:1.0 28:0.0 29:0.035259750513184904 30:0.0 31:0.8333333333333333 32:0.5 33:0.0 34:0.9999999999999998 35:0.3333333333333333 36:0.01902439024390244 37:0.0 38:0.08156028368794327 39:0.0 40:0.348032598370083 41:0.047619047619047616 42:0.9285714285714286 43:0.027366240067213114 44:0.028910354897523582 45:0.0028776834062087912 46:0.08005819158051342 47:0.026950023093660038 48:0.12307766134511298 49:0.17084745522037711 50:0.5710060257173377 51:0.016909561813578885 52:0.32769113673563743 
0.0 0.0 0.0 51.4082480286689 0.0 0.0 0.0 0:0.0 1:0.0 2:1.0 3:0.0 4:0.0 5:0.0 6:0.0 7:0.0 8:0.0 9:0.0 10:0.0 11:0.0 12:0.0 13:0.0 14:0.06944444444444445 15:0.0 16:0.0 17:0.0 18:0.0 19:0.0 20:0.0 21:0.13987792472024468 22:1.0 23:0.24154589371980675 24:0.038216560509554146 25:1.0 26:1.0 27:1.0 28:0.0 29:0.06792462761197957 30:0.0 31:0.5555555555555556 32:0.7142857142857143 33:0.0 34:0.9999999999999998 35:0.8571428571428571 36:0.0 37:0.0 38:0.06725146198830409 39:0.10855013048365507 40:0.24903754812259687 41:0.9803921568627451 42:0.0 43:0.020561831378821886 44:0.05127551749987164 45:0.022359430255577278 46:0.3918433887810413 47:0.0371682720933985 48:0.12918721917880874 49:0.1467149605992805 50:0.3939445210003181 51:0.04914237420116522 52:0.22498664405945878 
0.0 0.0 110.62947309524473 0.0 0.0 0.0 0.0 0:0.0 1:0.0 2:1.0 3:0.0 4:0.0 5:0.0 6:0.0 7:0.0 8:0.0 9:0.0 10:0.0 11:0.0 12:0.0 13:0.0 14:0.05555555555555556 15:0.0 16:0.0 17:0.0 18:0.0 19:1.0 20:0.0 21:6.425163203437094E-16 22:1.0 23:0.16908212560386474 24:0.03184713375796178 25:1.0 26:1.0 27:1.0 28:0.0 29:0.023010421601136907 30:0.0 31:0.5555555555555556 32:1.0 33:0.0 34:1.0 35:1.0 36:0.0 37:0.0 38:0.0 39:0.0 40:0.24903754812259687 41:1.0 42:0.0 43:0.01730394565653457 44:0.01611685175936252 45:0.001667231986501143 46:0.0556982340326064 47:0.021011057133158515 48:0.12918721917880874 49:0.14569185896872489 50:0.5609849071680759 51:0.012848992477238894 52:0.2971054994756333 
37.27226329055269 0.0 512.0 0.0 211.28871997014622 107.41972535008655 0.0 0:0.0 1:0.0 2:0.0 3:0.0 4:0.0 5:0.0 6:0.0 7:0.0 8:0.0 9:0.0 10:0.0 11:0.0 12:0.0 13:0.0 14:0.05555555555555556 15:0.0 16:0.0 17:0.0 18:0.0 19:0.3333333333333333 20:0.0 21:6.425163203437094E-16 22:1.0 23:0.043478260869565216 24:0.05732484076433121 25:1.0 26:1.0 27:1.0 28:0.5555555555555556 29:0.025460287383546505 30:0.0 31:0.5555555555555556 32:0.8125 33:0.0 34:0.9999999999999998 35:0.5625 36:0.04292682926829268 37:0.0 38:0.0 39:0.4452395925316458 40:0.30003499825008967 41:0.09278350515463918 42:0.9072164948453608 43:0.030929909800276427 44:0.04949409183672873 45:0.05329328049746875 46:0.5321386111816374 47:0.04582700344457236 48:0.1533350002651937 49:0.14888259696125847 50:0.5797266004028017 51:0.031301253275863854 52:0.4666231642163921 
176.93788723009823 0.0 0.0 0.0 0.0 0.0 0.0 0:0.0 1:0.0 2:0.0 3:0.0 4:0.0 5:0.0 6:0.0 7:0.0 8:0.0 9:0.0 10:0.0 11:0.0 12:0.0 13:0.0 14:0.125 15:0.0 16:0.0 17:0.0 18:0.0 19:0.0 20:0.017241379310344827 21:6.425163203437094E-16 22:1.0 23:0.033816425120772944 24:0.0445859872611465 25:1.0 26:1.0 27:1.0 28:0.5555555555555556 29:0.024944526166197113 30:0.0 31:0.5555555555555556 32:0.6 33:0.07894736842105263 34:0.9999999999999998 35:0.7 36:0.03121951219512195 37:0.0 38:0.047325102880658436 39:0.7054487607887304 40:0.30003499825008967 41:0.09722222222222222 42:0.8888888888888888 43:0.02704330928947762 44:0.04878207862904162 45:0.06663980407246775 46:0.6870293574422388 47:0.04393499273801768 48:0.1533350002651937 49:0.14705040742461822 50:0.43342356960559686 51:0.03272478217105315 52:0.36913328786475547 
0.0 0.0 41.23030350885062 0.0 0.0 0.0 0.0 0:1.0 1:0.0 2:0.0 3:0.0 4:0.0 5:0.0 6:0.0 7:0.0 8:0.0 9:0.0 10:0.0 11:0.0 12:0.0 13:0.0 14:0.05555555555555556 15:0.2 16:0.0 17:0.0 18:0.0 19:0.0 20:0.0 21:6.425163203437094E-16 22:1.0 23:0.03864734299516908 24:0.050955414012738856 25:1.0 26:1.0 27:1.0 28:0.0 29:0.012988243400370353 30:0.0 31:0.0 32:0.8181818181818182 33:0.0 34:0.9999999999999998 35:0.7272727272727273 36:0.026341463414634145 37:0.0 38:0.0 39:0.0 40:0.33183340832958436 41:0.12903225806451613 42:0.8709677419354839 43:0.057384513424147784 44:0.013532463253647787 45:0.005795523017256415 46:0.10248353511804704 47:0.06559573295938292 48:0.12017315886113196 49:0.10498055377682948 50:0.931105829208829 51:0.005269507701468376 52:0.8486309352624167 
147.97789124297026 0.0 17.556385715553652 0.0 0.0 0.0 0.0 0:0.0 1:0.0 2:0.0 3:0.0 4:0.0 5:0.0 6:0.0 7:0.0 8:0.0 9:0.0 10:1.0 11:0.0 12:0.0 13:0.0 14:0.041666666666666664 15:0.0 16:0.0 17:0.0 18:0.0 19:1.0 20:0.0 21:6.425163203437094E-16 22:1.0 23:0.18840579710144928 24:0.05732484076433121 25:1.0 26:1.0 27:1.0 28:0.5555555555555556 29:0.018217205939900727 30:0.0 31:0.8333333333333333 32:0.6666666666666666 33:0.0 34:0.9999999999999998 35:1.0 36:0.0 37:0.0 38:0.0 39:0.0 40:0.30003499825008967 41:1.0 42:0.0 43:0.015386365551574278 44:0.013087555015661745 45:0.0037892642589374024 46:0.09383024488693538 47:0.025841249172245243 48:0.10743375840095772 49:0.0979070097007572 50:0.6962333151230014 51:0.009941725197418837 52:0.2912733222799372 
0.0 11.574395024013272 0.0 0.0 0.0 0.0 0.0 0:0.0 1:0.0 2:0.0 3:0.0 4:1.0 5:0.0 6:0.0 7:0.0 8:0.0 9:0.0 10:0.0 11:0.0 12:0.0 13:0.0 14:0.041666666666666664 15:0.0 16:0.0 17:0.0 18:0.0 19:0.0 20:0.0 21:6.425163203437094E-16 22:1.0 23:0.04830917874396135 24:0.06369426751592357 25:1.0 26:1.0 27:1.0 28:0.5555555555555556 29:0.028260133992014616 30:0.0 31:0.5555555555555556 32:0.7333333333333333 33:0.0 34:0.9999999999999998 35:0.6666666666666666 36:0.02975609756097561 37:0.0 38:0.0 39:0.0 40:0.30003499825008967 41:0.14084507042253522 42:0.8591549295774648 43:0.015646424850458557 44:0.01637364012583304 45:0.0069300339876062775 46:0.13112305664803556 47:0.03266639955927272 48:0.14751336702556217 49:0.15166967647764998 50:0.9160639590349067 51:0.0046474268147269765 52:0.428972893898455 
184.9952023306413 24.076776184283723 119.17329733797042 0.0 17.11574549441206 0.0 0.0 0:0.0 1:0.0 2:0.0 3:0.0 4:1.0 5:0.0 6:0.0 7:0.0 8:0.0 9:0.0 10:1.0 11:0.0 12:0.0 13:0.0 14:0.041666666666666664 15:0.0 16:0.0 17:0.0 18:0.0 19:1.0 20:0.0 21:6.425163203437094E-16 22:1.0 23:0.004830917874396135 24:0.006369426751592357 25:1.0 26:1.0 27:1.0 28:0.5555555555555556 29:0.028260133992014616 30:0.0 31:0.8333333333333333 32:1.0 33:0.0 34:1.0 35:1.0 36:0.0014634146341463415 37:0.0 38:0.0 39:0.0 40:0.30003499825008967 41:0.25 42:0.75 43:0.015646424850458557 44:0.01637364012583304 45:0.0 46:0.0 47:0.0368649939066125 48:0.17028340367280653 49:0.17446775694457703 50:0.03013266362798746 51:0.33502518197658987 52:0.010360842920586607 
0.0 0.0 32.14609707789959 40.15591586962637 85.00482007402019 47.142125698032935 7.405793342484283 0:0.0 1:0.0 2:0.0 3:0.0 4:1.0 5:0.0 6:0.0 7:0.0 8:0.0 9:0.0 10:0.0 11:0.0 12:0.0 13:0.0 14:0.041666666666666664 15:0.0 16:0.0 17:0.0 18:0.0 19:0.0 20:0.0 21:6.425163203437094E-16 22:1.0 23:0.0 24:0.0 25:1.0 26:1.0 27:1.0 28:0.2777777777777778 29:0.028260133992014616 30:0.0 31:0.7777777777777778 32:1.0 33:0.0 34:0.9999999999999998 35:0.0 36:0.001951219512195122 37:0.0 38:0.0 39:0.0 40:0.30003499825008967 41:0.0 42:1.0 43:0.015557833221168351 44:0.01637364012583304 45:0.0 46:0.0 47:0.06083649132179203 48:0.5817112318373883 49:0.5864023040048825 50:0.017926305232344893 51:0.46059806668605163 52:0.004593207496189621 
0.0 0.0 0.0 0.0 241.2532929377199 0.0 0.0 0:0.0 1:0.0 2:0.0 3:0.0 4:0.0 5:0.0 6:0.0 7:0.0 8:0.0 9:0.0 10:0.0 11:0.0 12:0.0 13:0.0 14:0.09722222222222221 15:0.0 16:0.0 17:0.0 18:0.0 19:0.5 20:0.0 21:6.425163203437094E-16 22:1.0 23:0.02898550724637681 24:0.03184713375796178 25:1.0 26:1.0 27:1.0 28:0.5555555555555556 29:0.020446608573033834 30:0.0 31:1.0 32:0.8333333333333334 33:0.0 34:0.9999999999999998 35:0.8333333333333334 36:0.01902439024390244 37:0.0 38:0.07516339869281045 39:0.0 40:0.30003499825008967 41:0.13043478260869565 42:0.8478260869565217 43:0.03598534825880819 44:0.01276798858485209 45:0.0023450194892100946 46:0.07023763811850536 47:0.03849128840364373 48:0.17375491555474737 49:0.15510571445895255 50:0.5728508410727245 51:0.014645574493404746 52:0.2612957974634444 
0.0 0.0 0.0 0.0 142.190117037528 0.0 0.0 0:1.0 1:0.0 2:0.0 3:0.25 4:1.0 5:0.0 6:0.0 7:0.0 8:0.0 9:0.0 10:0.0 11:0.0 12:0.0 13:0.0 14:0.05555555555555556 15:0.0 16:0.0 17:0.0 18:1.0 19:0.0 20:0.0 21:6.425163203437094E-16 22:1.0 23:0.004830917874396135 24:0.006369426751592357 25:1.0 26:1.0 27:1.0 28:0.0 29:0.04750907942523291 30:0.0 31:0.0 32:0.75 33:0.0 34:0.9999999999999998 35:0.25 36:0.009268292682926829 37:0.0 38:0.0 39:0.0 40:0.4000299985000771 41:0.05 42:0.95 43:0.08113850125191248 44:0.017915221034583338 45:0.0019372060589965118 46:0.10705830579207354 47:0.03843564102992152 48:0.04919469511563708 49:0.046494346308536466 50:0.25762795476227374 51:0.05567650183150831 52:0.3120661890210795 
0.0 0.0 0.0 0.0 0.0 4.655752144919643 0.0 0:0.0 1:0.0 2:0.0 3:0.0 4:0.0 5:0.0 6:0.0 7:0.0 8:0.0 9:0.0 10:0.0 11:0.0 12:0.0 13:0.0 14:0.06944444444444445 15:0.0 16:0.0 17:0.0 18:0.0 19:1.0 20:0.0 21:0.3485927433028149 22:1.0 23:0.3429951690821256 24:0.07643312101910829 25:1.0 26:1.0 27:1.0 28:1.0 29:0.020446608573033834 30:0.0 31:1.0 32:0.75 33:0.0 34:0.9999999999999998 35:1.0 36:0.0 37:0.0 38:0.0 39:0.2703169953043412 40:0.500024998750064 41:1.0 42:0.0 43:0.017143909164913408 44:0.07015092534456621 45:0.07437875853804202 46:0.4974870481841729 47:0.15465796341741644 48:0.2434389814541202 49:0.23306896028762078 50:0.6313987573486844 51:0.03966125244791077 52:0.5316485507073073 
150.30938769361572 0.0 0.0 0.0 0.0 0.0 0.0 0:1.0 1:0.0 2:1.0 3:0.0 4:0.0 5:0.0 6:0.0 7:0.0 8:0.0 9:0.0 10:1.0 11:0.0 12:0.021739130434782608 13:0.0 14:0.05555555555555556 15:0.0 16:0.0 17:0.0 18:0.0 19:0.0 20:0.0 21:6.425163203437094E-16 22:1.0 23:0.13526570048309178 24:0.050955414012738856 25:1.0 26:1.0 27:1.0 28:0.5555555555555556 29:0.04279779907444522 30:0.09583333333333334 31:0.8333333333333333 32:0.5555555555555556 33:0.0 34:0.9999999999999998 35:0.8888888888888888 36:0.00878048780487805 37:0.0 38:0.1369047619047619 39:0.0 40:0.25503724813759626 41:0.5833333333333334 42:0.375 43:0.045564675400130074 44:0.011361240777746863 45:0.003998854527732276 46:0.100160772981924 47:0.044072719987980104 48:0.12579652823555262 49:0.11587973819036504 50:0.7452034800759941 51:0.006922594951279094 52:0.4285523596558778 
30.456288408709604 0.0 0.0 0.0 401.5365854539777 0.0 0.0 0:1.0 1:0.0 2:1.0 3:0.0 4:0.0 5:0.0 6:0.0 7:0.0 8:0.0 9:0.0 10:1.0 11:0.0 12:0.0 13:0.0 14:0.09722222222222221 15:0.0 16:0.0 17:0.0 18:0.0 19:1.0 20:0.0 21:6.425163203437094E-16 22:1.0 23:0.09178743961352656 24:0.019108280254777073 25:1.0 26:1.0 27:1.0 28:0.8333333333333333 29:0.04279779907444522 30:0.0 31:0.8333333333333333 32:0.3333333333333333 33:0.0 34:0.9999999999999998 35:1.0 36:0.0 37:0.0 38:0.17424242424242425 39:0.0 40:0.25503724813759515 41:0.95 42:0.0 43:0.03734565843758778 44:0.011361240777746832 45:9.855218827310296E-4 46:0.05967091346102401 47:0.040071673817354124 48:0.1606505580433251 49:0.14738385575017496 50:0.2989803573030227 51:0.03445373981443181 52:0.17061818213158952 
0.0 0.0 28.455596427377024 0.0 83.25048848963105 0.0 0.0 0:1.0 1:0.0 2:0.0 3:0.0 4:1.0 5:0.0 6:0.0 7:0.0 8:0.0 9:0.0 10:0.0 11:0.0 12:0.0 13:0.0 14:0.1111111111111111 15:0.0 16:0.0 17:0.0 18:0.0 19:1.0 20:0.0 21:6.425163203437094E-16 22:1.0 23:0.004830917874396135 24:0.006369426751592357 25:1.0 26:1.0 27:1.0 28:0.0 29:0.0781324017053529 30:0.0 31:0.5555555555555556 32:1.0 33:0.0 34:1.0 35:1.0 36:0.003902439024390244 37:0.0 38:0.0 39:0.0 40:0.31038448077596376 41:0.1111111111111111 42:0.8888888888888888 43:0.03858308345315832 44:0.013684625749995788 45:6.43591278942762E-6 46:0.001037632298359391 47:0.0329112480036504 48:0.07046070460704605 49:0.06526433844346 50:0.0916577653476408 51:0.1387143272423913 52:0.08864857225050826 
12.309485223385254 0.0 5.900686318419005 0.0 0.0 0.0 0.0 0:0.0 1:0.0 2:0.0 3:0.0 4:0.0 5:0.09090909090909091 6:0.0 7:0.0 8:0.0 9:0.0 10:0.0 11:0.0 12:0.10869565217391304 13:0.0 14:0.08333333333333331 15:0.0 16:0.016129032258064516 17:0.0 18:0.0 19:0.5 20:0.017241379310344827 21:6.425163203437094E-16 22:1.0 23:0.6618357487922705 24:0.14012738853503184 25:1.0 26:1.0 27:1.0 28:0.0 29:0.18900994789199432 30:0.1345029239766082 31:0.5555555555555556 32:0.6818181818181818 33:0.03324099722991689 34:0.9999999999999998 35:1.0 36:0.011707317073170732 37:0.011695906432748537 38:0.13975694444444445 39:0.6526943614846432 40:0.24965155251009513 41:0.8011695906432749 42:0.14035087719298245 43:0.026831832496978236 44:0.10278052864082382 45:0.15589118889082085 46:0.6538771394500292 47:0.029294168711707577 48:0.07386276099480472 49:0.0632215470913756 50:0.629641086586052 51:0.06689726353153909 52:0.3499771215678175 
512.0 0.0 0.0 0.0 157.98951900897785 0.0 0.0 0:0.0 1:0.0 2:0.0 3:0.0 4:0.0 5:0.2272727272727273 6:0.0 7:0.0 8:0.0 9:0.0 10:0.0 11:0.0 12:0.0 13:0.0 14:0.05555555555555556 15:0.0 16:0.04032258064516129 17:0.0 18:0.0 19:0.0 20:0.06896551724137931 21:0.12904939527523518 22:1.0 23:0.0966183574879227 24:0.09554140127388536 25:1.0 26:1.0 27:1.0 28:0.5555555555555556 29:0.027668617102901638 30:0.0 31:1.0 32:0.6111111111111112 33:0.23200859291084852 34:0.9999999999999998 35:0.8333333333333334 36:0.033658536585365856 37:0.05102040816326531 38:0.13333333333333333 39:0.10423792505790144 40:0.33574749833937073 41:0.20408163265306123 42:0.7040816326530612 43:0.03696557176998761 44:0.04861913319313452 45:0.03414888280938307 46:0.3404754713769949 47:0.053367222583930084 48:0.07202534746689497 49:0.06354529724210356 50:0.6284378796650387 51:0.039207566979078734 52:0.4386318540726902 
239.28576968688827 0.0 0.0 0.0 0.0 0.0 0.0 0:0.0 1:0.0 2:0.0 3:0.0 4:0.0 5:0.18181818181818182 6:0.0 7:0.0 8:0.0 9:0.0 10:0.0 11:0.0 12:0.0 13:0.0 14:0.05555555555555556 15:0.0 16:0.03225806451612903 17:0.0 18:0.0 19:0.0 20:0.05172413793103448 21:0.18303756452281433 22:1.0 23:0.10144927536231883 24:0.09554140127388536 25:1.0 26:1.0 27:1.0 28:0.5555555555555556 29:0.05307695620343655 30:0.0 31:1.0 32:0.7058823529411765 33:0.14451382694023193 34:0.9999999999999998 35:0.8823529411764706 36:0.04341463414634146 37:0.03389830508474576 38:0.11442786069651742 39:0.1281895091579586 40:0.3771497865784696 41:0.17796610169491525 42:0.7542372881355932 43:0.03806582264988289 44:0.08789610174840015 45:0.06323279260776012 46:0.41234592197094816 47:0.0432366181978041 48:0.07325534112750261 49:0.06460626627305312 50:0.5509196217686854 51:0.07703307525572166 52:0.4555824412203813 
0.0 0.0 0.0 0.0 0.0 66.16780804831023 0.0 0:0.0 1:0.0 2:0.0 3:0.0 4:0.0 5:0.0 6:0.0 7:0.0 8:0.0 9:0.0 10:0.0 11:0.0 12:0.0 13:0.0 14:0.09722222222222221 15:0.0 16:0.0 17:0.0 18:0.0 19:1.0 20:0.0 21:6.425163203437094E-16 22:1.0 23:0.01932367149758454 24:0.025477707006369428 25:1.0 26:1.0 27:1.0 28:0.0 29:0.008876580548773822 30:0.0 31:0.0 32:0.75 33:0.0 34:0.9999999999999998 35:1.0 36:0.01073170731707317 37:0.0 38:0.0 39:0.0 40:0.6000199990000514 41:0.15384615384615385 42:0.8461538461538461 43:0.014091784646139065 44:0.025260111725359607 45:0.003138871695897378 46:0.07930013399931445 47:0.005797065157509815 48:0.13695865756420844 49:0.11956101426766205 50:0.4494418669123704 51:0.03901989531803254 52:0.4122356744472508 
0.0 512.0 512.0 512.0 0.0 511.31161843636824 0.0 0:0.0 1:0.0 2:0.0 3:0.0 4:0.0 5:0.0 6:0.0 7:0.0 8:0.0 9:0.0 10:0.0 11:0.0 12:0.021739130434782608 13:0.0 14:0.08333333333333331 15:0.0 16:0.0 17:0.0 18:0.0 19:0.0 20:0.034482758620689655 21:6.425163203437094E-16 22:1.0 23:0.01932367149758454 24:0.025477707006369428 25:1.0 26:1.0 27:1.0 28:0.5 29:0.01626079138429412 30:0.07796610169491526 31:0.2777777777777778 32:0.375 33:0.1926851025869759 34:0.9999999999999998 35:0.5 36:0.024390243902439025 37:0.0 38:0.23232323232323235 39:0.0 40:0.20003999800010247 41:0.06779661016949153 42:0.847457627118644 43:0.021267706618650756 44:0.00784601386396746 45:0.002265265681121794 46:0.08089257413397558 47:0.033713961369593065 48:0.5155896013759764 49:0.4469957690752793 50:0.5765608564835577 51:0.009983767265055513 52:0.37011689395368114 
0.0 0.0 25.047229920698637 0.0 0.0 0.0 0.0 0:1.0 1:0.0 2:1.0 3:0.0 4:1.0 5:0.0 6:0.0 7:0.0 8:0.0 9:0.0 10:0.0 11:0.0 12:0.0 13:0.0 14:0.041666666666666664 15:0.0 16:0.0 17:0.0 18:0.0 19:0.3333333333333333 20:0.0 21:6.425163203437094E-16 22:1.0 23:0.033816425120772944 24:0.0445859872611465 25:1.0 26:1.0 27:1.0 28:0.0 29:0.015084385246282311 30:0.0 31:0.0 32:0.75 33:0.0 34:0.9999999999999998 35:0.5833333333333334 36:0.025853658536585365 37:0.0 38:0.0 39:0.0 40:0.40002999850007687 41:0.11666666666666667 42:0.8833333333333333 43:0.025562971741982174 44:0.022485192320274197 45:0.007964356401818374 46:0.1465255099632954 47:0.015156953417583394 48:0.12485572199617616 49:0.13322037882300428 50:0.8056543081025106 51:0.010194723120745458 52:0.4187492635691945 
0.0 0.0 0.0 0.0 96.88621045946137 0.0 0.0 0:1.0 1:0.0 2:0.0 3:0.0 4:1.0 5:0.0 6:0.0 7:0.0 8:0.0 9:0.0 10:0.0 11:0.0 12:0.0 13:0.0 14:0.09722222222222221 15:0.0 16:0.0 17:0.0 18:1.0 19:0.5 20:0.017241379310344827 21:6.425163203437094E-16 22:1.0 23:0.01932367149758454 24:0.025477707006369428 25:1.0 26:1.0 27:1.0 28:0.0 29:0.035259750513184904 30:0.0 31:0.0 32:0.75 33:0.21862348178137653 34:0.9999999999999998 35:1.0 36:0.01024390243902439 37:0.0 38:0.13218390804597702 39:0.0 40:0.3480325983700843 41:0.15384615384615385 42:0.8076923076923077 43:0.04211245965230282 44:0.028920960667691516 45:0.0017224077991691553 46:0.07774823899211089 47:0.01943762764116339 48:0.09352750563852329 49:0.1321877864363698 50:0.3458407057998549 51:0.035219152436042934 52:0.1893841948351535 
0.0 0.0 0.0 0.0 86.51988871851535 0.0 0.0 0:1.0 1:0.0 2:0.0 3:0.0 4:1.0 5:0.0 6:0.0 7:0.0 8:0.0 9:0.0 10:0.0 11:0.2 12:0.0 13:0.0 14:0.05555555555555556 15:0.0 16:0.0 17:0.0 18:1.0 19:0.0 20:0.0 21:6.425163203437094E-16 22:1.0 23:0.024154589371980676 24:0.019108280254777073 25:1.0 26:1.0 27:1.0 28:0.0 29:0.03367919194388839 30:0.0 31:0.0 32:0.875 33:0.0 34:0.9999999999999997 35:0.375 36:0.02 37:0.0 38:0.0 39:0.0 40:0.34803259837008477 41:0.10869565217391304 42:0.8913043478260869 43:0.02858937611031745 44:0.02891035489752363 45:0.004003919111844255 46:0.09756647174922596 47:0.012854543329827484 48:0.0933759663784895 49:0.1319531019198647 50:0.6541572557301392 51:0.013259446891074621 52:0.3501423356039162 
0.0 0.0 0.0 0.0 0.439339964667549 0.0 4.500914246675449 0:0.0 1:0.0 2:1.0 3:0.0 4:0.0 5:0.0 6:0.0 7:0.0 8:0.0 9:0.0 10:0.0 11:0.0 12:0.08695652173913043 13:0.0 14:0.06944444444444445 15:0.0 16:0.0 17:0.0 18:0.0 19:0.0 20:0.0 21:0.40895218718209597 22:1.0 23:0.2801932367149758 24:0.05732484076433121 25:1.0 26:1.0 27:1.0 28:0.5555555555555556 29:0.07272828600886114 30:0.2746268656716418 31:1.0 32:0.5 33:0.0 34:0.9999999999999998 35:0.75 36:0.0 37:0.0 38:0.24572649572649571 39:0.3170522745349807 40:0.24903754812259687 41:0.8656716417910447 42:0.0 43:0.020561831378821886 44:0.05303209844111911 45:0.05512330643844416 46:0.6166190746284446 47:0.03372091729130837 48:0.12917206525280536 49:0.15095244153441983 50:0.48891072316761947 51:0.02688595482933634 52:0.24376226588564676 
0.0 0.0 0.0 33.2896658825882 0.0 0.0 0.0 0:0.0 1:0.0 2:0.0 3:0.0 4:0.0 5:0.0 6:0.0 7:0.0 8:0.0 9:0.0 10:0.0 11:0.0 12:0.0 13:0.0 14:0.06944444444444445 15:0.0 16:0.0 17:0.0 18:0.0 19:0.0 20:0.0 21:6.425163203437094E-16 22:1.0 23:0.033816425120772944 24:0.0445859872611465 25:1.0 26:1.0 27:1.0 28:0.5555555555555556 29:0.005352298104548224 30:0.0 31:0.5555555555555556 32:0.8888888888888888 33:0.0 34:0.9999999999999998 35:0.7777777777777778 36:0.023414634146341463 37:0.0 38:0.0 39:0.0 40:0.30003499825008967 41:0.12727272727272726 42:0.8727272727272727 43:0.03778861658403913 44:0.014487616800294268 45:0.0035891799709399574 46:0.0936953462752253 47:0.049165845867904207 48:0.1533350002651937 49:0.146821409721042 50:0.6596040475860439 51:0.011158828669702855 52:0.5344364134296502 
0.0 0.0 135.26351424234338 0.0 30.115321863222825 0.0 0.0 0:1.0 1:0.0 2:0.0 3:0.0 4:0.0 5:0.2272727272727273 6:0.0 7:0.0 8:0.0 9:0.0 10:0.0 11:0.0 12:0.08695652173913043 13:0.0 14:0.06944444444444445 15:0.0 16:0.04032258064516129 17:0.0 18:0.0 19:0.0 20:0.06896551724137931 21:0.008484985494141783 22:1.0 23:0.08212560386473429 24:0.10828025477707007 25:1.0 26:1.0 27:1.0 28:0.5555555555555556 29:0.052079724541668725 30:0.11084337349397592 31:0.5555555555555556 32:0.5862068965517241 33:0.13696892834495877 34:0.9999999999999998 35:0.5862068965517241 36:0.06536585365853659 37:0.030120481927710843 38:0.17783505154639176 39:0.6998810199417589 40:0.2732291096288581 41:0.10240963855421686 42:0.8072289156626506 43:0.034227804645469054 44:0.08384622266091074 45:0.11505309015540402 46:0.5879659130031512 47:0.08647045402692217 48:0.14021675165493502 49:0.1281032913232717 50:0.7112670314168997 51:0.04710349669365058 52:0.5867806676427775 
0.0 0.0 512.0 0.0 276.3346619170417 512.0 0.0 0:0.0 1:0.0 2:0.0 3:0.0 4:0.0 5:0.0 6:0.0 7:0.0 8:0.0 9:0.0 10:0.0 11:0.0 12:0.021739130434782608 13:0.0 14:0.08333333333333331 15:0.0 16:0.0 17:0.0 18:0.0 19:0.0 20:0.05172413793103448 21:6.425163203437094E-16 22:1.0 23:0.014492753623188404 24:0.019108280254777073 25:1.0 26:1.0 27:1.0 28:0.2777777777777778 29:0.007878897650959957 30:0.060526315789473685 31:0.2777777777777778 32:0.5454545454545454 33:0.22437673130193905 34:0.9999999999999998 35:0.2727272727272727 36:0.033170731707317075 37:0.0 38:0.22286821705426357 39:0.0 40:0.15004249787510887 41:0.039473684210526314 42:0.8947368421052632 43:0.020701863308990393 44:0.007394922502318992 45:0.0021800198097628627 46:0.079860041792014 47:0.04438017172779525 48:0.5229114732899425 49:0.49243127234671985 50:0.6230930113094316 51:0.0063409884305901144 52:0.45085325713244845 
0.0 0.0 420.3047891489781 0.0 0.0 405.1626668569425 0.0 0:0.0 1:0.0 2:0.0 3:0.0 4:0.0 5:0.0 6:0.0 7:0.0 8:0.0 9:0.0 10:0.0 11:0.0 12:0.021739130434782608 13:0.0 14:0.05555555555555556 15:0.0 16:0.0 17:0.0 18:0.0 19:0.0 20:0.034482758620689655 21:6.425163203437094E-16 22:1.0 23:0.00966183574879227 24:0.012738853503184714 25:1.0 26:1.0 27:1.0 28:0.2777777777777778 29:0.023010421601136907 30:0.07796610169491526 31:0.2777777777777778 32:0.5454545454545454 33:0.1926851025869759 34:0.9999999999999998 35:0.18181818181818182 36:0.025853658536585365 37:0.0 38:0.22222222222222224 39:0.0 40:0.2490375481225971 41:0.03389830508474576 42:0.8983050847457628 43:0.030029704534907664 44:0.011410189894362535 45:0.004615722454267809 46:0.1363201213626444 47:0.0388738640979838 48:0.4339326711067669 49:0.3983132305588571 50:0.6345125202827767 51:0.010056625989683248 52:0.29343546686067673 
0.0 0.0 0.0 0.0 512.0 0.0 0.0 0:1.0 1:0.0 2:0.0 3:0.25 4:1.0 5:0.0 6:0.0 7:0.0 8:0.0 9:0.0 10:0.0 11:0.0 12:0.0 13:0.0 14:0.08333333333333331 15:0.0 16:0.0 17:0.0 18:1.0 19:1.0 20:0.0 21:6.425163203437094E-16 22:1.0 23:0.00966183574879227 24:0.012738853503184714 25:1.0 26:1.0 27:1.0 28:0.0 29:0.012988243400370353 30:0.0 31:0.0 32:1.0 33:0.0 34:1.0 35:1.0 36:0.005365853658536585 37:0.0 38:0.0 39:0.0 40:0.40002999850007687 41:0.15384615384615385 42:0.8461538461538461 43:0.07340992315219456 44:0.01795668825649522 45:5.037695314403187E-4 46:0.04270057027290026 47:0.07643445017612387 48:0.0665509916981742 49:0.062244652918622606 50:0.16245382865436528 51:0.09206751256366234 52:0.09665125356636528 
0.0 0.0 0.0 0.0 161.50084350501018 0.0 0.0 0:1.0 1:0.0 2:0.0 3:0.0 4:0.0 5:0.0 6:0.0 7:0.0 8:0.0 9:0.0 10:0.0 11:0.0 12:0.0 13:0.0 14:0.05555555555555556 15:0.0 16:0.0 17:0.0 18:1.0 19:0.5 20:0.0 21:6.425163203437094E-16 22:1.0 23:0.01932367149758454 24:0.025477707006369428 25:1.0 26:1.0 27:1.0 28:0.0 29:0.008876580548773822 30:0.0 31:0.0 32:0.8333333333333334 33:0.0 34:0.9999999999999998 35:0.6666666666666666 36:0.015121951219512195 37:0.0 38:0.0 39:0.0 40:0.600019999000051 41:0.11428571428571428 42:0.8857142857142857 43:0.006641514402276937 44:0.036128204944375145 45:0.006383084210613966 46:0.10607913441166565 47:0.0021702475751656535 48:0.14310231173141183 49:0.16343567513236157 50:0.6914897954191502 51:0.02138944424704941 52:0.598724513463097 
0.0 0.0 69.87322550524775 0.0 0.0 0.0 0.0 0:1.0 1:0.0 2:1.0 3:0.0 4:1.0 5:0.0 6:0.0 7:0.0 8:0.0 9:0.0 10:0.0 11:0.0 12:0.0 13:0.0 14:0.09722222222222221 15:0.0 16:0.0 17:0.0 18:1.0 19:1.0 20:0.0 21:6.425163203437094E-16 22:1.0 23:0.00966183574879227 24:0.012738853503184714 25:1.0 26:1.0 27:1.0 28:0.0 29:0.03694931312174325 30:0.0 31:0.0 32:0.5 33:0.0 34:0.9999999999999998 35:1.0 36:0.004390243902439025 37:0.0 38:0.0 39:0.0 40:0.40002999850007687 41:0.16666666666666666 42:0.75 43:0.04167521709483794 44:0.028381752201505246 45:6.613589746088302E-4 46:0.060860388731903914 47:0.019224776436675976 48:0.2311983977248906 49:0.2844143626223426 50:0.14838430867328226 51:0.10102543760092403 52:0.08197943807353734 
0.0 0.0 0.3803283834474131 0.0 0.0 0.0 0.0 0:0.0 1:0.0 2:0.0 3:0.0 4:0.0 5:0.0 6:0.0 7:0.0 8:0.0 9:0.0 10:0.0 11:0.0 12:0.0 13:0.0 14:0.05555555555555556 15:0.0 16:0.0 17:0.0 18:0.0 19:1.0 20:0.0 21:6.425163203437094E-16 22:1.0 23:0.5507246376811594 24:0.10828025477707007 25:1.0 26:1.0 27:1.0 28:0.0 29:0.07534846331625109 30:0.0 31:0.5555555555555556 32:0.8235294117647058 33:0.0 34:0.9999999999999998 35:1.0 36:0.0 37:0.0 38:0.0 39:0.05076263368822824 40:0.21063946802660066 41:1.0 42:0.0 43:0.03712846605610198 44:0.03992228327325959 45:0.026806664024378528 46:0.2605479644633824 47:0.04740738885828278 48:0.08908614249236621 49:0.08602329318046521 50:0.9148541270863741 51:0.019333902260755584 52:0.46267573076856316 
431.73157075238834 78.09593186825394 174.83020606286044 0.0 0.0 5.519753550433112 0.0 0:1.0 1:0.0 2:0.0 3:0.0 4:0.0 5:0.0 6:0.0 7:0.0 8:0.0 9:0.0 10:0.0 11:0.0 12:0.0 13:0.0 14:0.08333333333333331 15:0.0 16:0.0 17:0.0 18:0.0 19:0.5 20:0.0 21:6.425163203437094E-16 22:1.0 23:0.01932367149758454 24:0.025477707006369428 25:1.0 26:1.0 27:1.0 28:1.0 29:0.02126051747084433 30:0.0 31:1.0 32:1.0 33:0.0 34:0.9999999999999998 35:0.8 36:0.013658536585365854 37:0.0 38:0.0 39:0.0 40:0.252037398130094 41:0.125 42:0.875 43:0.037219915479885436 44:0.009495896916984435 45:0.0016977333731394274 46:0.08182342053522551 47:0.0698096303344963 48:0.4694181144980136 49:0.3962796780359731 50:0.38181766293490765 51:0.024471635629630638 52:0.18334073856611557 
0.0 0.0 0.0 44.792293091871265 130.71950631768667 0.0 0.0 0:0.0 1:0.0 2:0.0 3:0.0 4:0.0 5:0.0 6:0.0 7:0.0 8:0.0 9:0.0 10:0.0 11:0.0 12:0.0 13:0.0 14:0.06944444444444445 15:0.0 16:0.0 17:0.0 18:0.0 19:0.0 20:0.0 21:6.425163203437094E-16 22:1.0 23:0.004830917874396135 24:0.006369426751592357 25:1.0 26:1.0 27:1.0 28:0.5555555555555556 29:0.005603480515595003 30:0.0 31:1.0 32:1.0 33:0.0 34:0.9999999999999998 35:0.3333333333333333 36:0.008292682926829269 37:0.0 38:0.0 39:0.0 40:0.6000199990000512 41:0.05555555555555555 42:0.9444444444444444 43:0.06306580887669778 44:0.026168814876055484 45:0.002053908712878585 46:0.07915532182087275 47:0.05201638258682374 48:0.11574189833231045 49:0.10393725680480148 50:0.2891671626943682 51:0.06609228708113757 52:0.27713224075733833 
114.63070612628498 0.0 503.6942127122616 0.0 512.0 72.90047687473914 0.0 0:0.0 1:0.0 2:1.0 3:0.0 4:0.0 5:0.0 6:0.0 7:0.0 8:0.0 9:0.0 10:0.0 11:0.0 12:0.0 13:0.0 14:0.09722222222222221 15:0.0 16:0.0 17:0.0 18:0.0 19:1.0 20:0.0 21:0.011190233977619946 22:1.0 23:0.01932367149758454 24:0.025477707006369428 25:1.0 26:1.0 27:1.0 28:0.2777777777777778 29:0.023952677671294442 30:0.0 31:0.7777777777777778 32:1.0 33:0.0 34:0.9999999999999998 35:1.0 36:0.014634146341463414 37:0.0 38:0.0 39:5.039670975225537E-5 40:0.24603769811509663 41:0.11764705882352941 42:0.8823529411764706 43:0.03387629592280116 44:0.033480914006417256 45:0.0032972196404122017 46:0.16639754280207136 47:0.5699445752157727 48:0.02820398194662282 49:0.022491058004943672 50:0.15716094128391006 51:0.16558679964905235 52:0.10118487005387684 
0.0 0.0 0.0 0.0 100.28491089956397 0.0 0.0 0:1.0 1:0.0 2:1.0 3:0.0 4:1.0 5:0.0 6:0.0 7:0.0 8:0.0 9:0.0 10:0.0 11:0.0 12:0.0 13:0.0 14:0.125 15:0.0 16:0.0 17:0.0 18:0.0 19:1.0 20:0.0 21:6.425163203437094E-16 22:1.0 23:0.00966183574879227 24:0.012738853503184714 25:1.0 26:1.0 27:1.0 28:0.0 29:0.010359475347710279 30:0.0 31:0.2777777777777778 32:1.0 33:0.0 34:0.9999999999999998 35:1.0 36:0.006829268292682927 37:0.0 38:0.0 39:0.0 40:0.40002999850007687 41:0.125 42:0.875 43:0.013368762639350789 44:0.02236623160668043 45:7.621128808968909E-4 46:0.04791193848113979 47:0.019656043583023027 48:0.10745396363562891 49:0.11485983447286954 50:0.22455377891569714 51:0.06505615789781259 52:0.17199116012369522 
0.0 0.0 0.0 0.0 112.18495610624785 0.0 0.0 0:1.0 1:0.0 2:0.0 3:0.0 4:0.0 5:0.0 6:0.0 7:0.0 8:0.0 9:0.0 10:1.0 11:0.0 12:0.0 13:0.0 14:0.16666666666666666 15:0.0 16:0.0 17:0.0 18:0.0 19:0.0 20:0.0 21:6.425163203437094E-16 22:1.0 23:0.0 24:0.0 25:1.0 26:1.0 27:1.0 28:0.8333333333333333 29:0.03694931312174325 30:0.0 31:0.8333333333333333 32:1.0 33:0.0 34:0.9999999999999998 35:0.0 36:0.006341463414634147 37:0.0 38:0.0 39:0.0 40:0.3480325983700839 41:0.0 42:1.0 43:0.027366240067213114 44:0.02891035489752363 45:2.4427681769428617E-5 46:0.002584112420501735 47:0.026950023093660038 48:0.15277935631173648 49:0.20974180852088947 50:0.1384814213843658 51:0.09933523880924741 52:0.0804715029071398 
0.0 0.0 183.53568167642123 0.0 0.0 375.7504407600411 0.0 0:1.0 1:1.0 2:1.0 3:0.0 4:0.0 5:0.0 6:0.0 7:0.0 8:1.0 9:0.0 10:0.0 11:0.0 12:0.0 13:0.0 14:0.05555555555555556 15:0.0 16:0.0 17:0.0 18:0.0 19:0.0 20:0.034482758620689655 21:6.425163203437094E-16 22:1.0 23:0.01932367149758454 24:0.025477707006369428 25:1.0 26:1.0 27:1.0 28:0.5 29:0.027093531238486235 30:0.0 31:0.33333333333333337 32:0.625 33:0.26438188494492043 34:0.9999999999999998 35:0.5 36:0.0175609756097561 37:0.0 38:0.23 39:0.0 40:0.20103994800260166 41:0.09302325581395349 42:0.8372093023255814 43:0.025385788483401603 44:0.013663850266591037 45:0.0023411429154437356 46:0.11295148974009749 47:0.031255738635415045 48:0.2232476378817842 49:0.24874391982325916 50:0.4206199394982103 51:0.018157757757529706 52:0.24714326585008528 
0.0 0.0 0.0 0.0 11.499700643086793 0.0 0.0 0:1.0 1:0.0 2:1.0 3:0.0 4:1.0 5:0.0 6:0.0 7:0.0 8:0.0 9:0.0 10:0.0 11:0.0 12:0.0 13:0.0 14:0.13888888888888887 15:0.0 16:0.0 17:0.0 18:1.0 19:1.0 20:0.0 21:6.425163203437094E-16 22:1.0 23:0.05314009661835749 24:0.006369426751592357 25:1.0 26:1.0 27:1.0 28:0.0 29:0.23124901310595294 30:0.0 31:0.0 32:1.0 33:0.0 34:0.9999999999999998 35:1.0 36:0.0 37:0.0 38:0.0 39:0.0 40:0.30003499825008967 41:1.0 42:0.0 43:0.0783378626485428 44:0.016415883658733997 45:0.0 46:0.0 47:0.03707228037372772 48:0.13518059691314527 49:0.13953559829963566 50:0.17147405843070432 51:0.07281308888053037 52:0.1636467695481328 
0.0 0.0 0.0 0.0 0.0 14.058657673143324 0.0 0:0.0 1:0.0 2:0.0 3:0.0 4:0.0 5:0.0 6:0.0 7:0.0 8:0.0 9:0.0 10:0.0 11:0.0 12:0.0 13:0.0 14:0.08333333333333331 15:0.0 16:0.0 17:0.0 18:0.0 19:1.0 20:0.0 21:0.08680908782638239 22:1.0 23:0.47826086956521735 24:0.089171974522293 25:1.0 26:1.0 27:1.0 28:0.5555555555555556 29:0.03149072623255475 30:0.0 31:1.0 32:0.9285714285714286 33:0.0 34:0.9999999999999998 35:1.0 36:0.0 37:0.0 38:0.03392330383480826 39:0.06699694771231797 40:0.500024998750064 41:0.99 42:0.0 43:0.01714676695940674 44:0.06897300730563205 45:0.036952546957641434 46:0.23404168116993695 47:0.023793425819268434 48:0.2352558614122954 49:0.2219761683077497 50:0.870769155502646 51:0.03689272324217067 52:0.595667215033458 
0.0 0.0 21.829208795656907 0.0 4.53750576077926 0.0 0.0 0:0.0 1:0.0 2:0.0 3:0.25 4:0.0 5:0.0 6:0.0 7:0.0 8:0.0 9:0.0 10:0.0 11:0.0 12:0.0 13:0.0 14:0.08333333333333331 15:0.0 16:0.0 17:0.0 18:0.0 19:1.0 20:0.0 21:6.425163203437094E-16 22:1.0 23:0.06280193236714976 24:0.012738853503184714 25:1.0 26:1.0 27:1.0 28:0.0 29:0.023010421601136907 30:0.0 31:1.0 32:1.0 33:0.0 34:0.9999999999999998 35:1.0 36:0.0 37:0.0 38:0.0 39:0.0 40:0.30003499825009033 41:1.0 42:0.0 43:0.0434441918861501 44:0.012349671768493312 45:4.745081928794207E-4 46:0.03811908132732676 47:0.07806909177921342 48:0.13859780722690732 49:0.12191655988703481 50:0.20363907665462616 51:0.060310863383255225 52:0.09680141049630044 
0.6363906965569851 0.0 0.0 0.0 0.0 0.0 0.0 0:1.0 1:0.0 2:0.0 3:0.0 4:0.0 5:0.0 6:0.0 7:0.0 8:0.0 9:0.0 10:0.0 11:0.0 12:0.0 13:0.0 14:0.08333333333333331 15:0.0 16:0.0 17:0.0 18:0.0 19:1.0 20:0.0 21:0.2956962812252746 22:1.0 23:0.24637681159420288 24:0.0445859872611465 25:1.0 26:1.0 27:1.0 28:0.5555555555555556 29:0.048812199522259285 30:0.0 31:1.0 32:0.8571428571428571 33:0.0 34:1.0 35:1.0 36:0.0 37:0.0 38:0.0 39:0.22928311775958124 40:0.3149842507874622 41:1.0 42:0.0 43:0.015472099386371316 44:0.05130611330911304 45:0.051549337433942966 46:0.5560820381031051 47:0.019241470648792676 48:0.15535047242364317 49:0.14637950011469225 50:0.47390860315881317 51:0.04034733840290145 52:0.2352402368402326 
-0.0 53.39779611541161 0.0 0.0 0.0 0.0 0.0 0:0.0 1:0.0 2:0.0 3:0.0 4:0.0 5:0.2272727272727273 6:0.0 7:0.0 8:0.0 9:0.0 10:1.0 11:0.0 12:0.10869565217391304 13:0.0 14:0.05555555555555556 15:0.0 16:0.056451612903225805 17:0.0 18:0.0 19:0.2857142857142857 20:0.08620689655172414 21:0.7182095625635813 22:1.0 23:0.08212560386473429 24:0.10828025477707007 25:1.0 26:1.0 27:1.0 28:0.0 29:0.06643986047112527 30:0.2211538461538462 31:0.8333333333333333 32:0.38095238095238093 33:0.2732793522267207 34:0.9999999999999998 35:0.8095238095238095 36:0.03414634146341464 37:0.0673076923076923 38:0.30913978494623656 39:0.06021311234741292 40:0.28457423282682254 41:0.16346153846153846 42:0.6730769230769231 43:0.038197281196571654 44:0.07603432631200771 45:0.06203905182445388 46:0.5106929318027404 47:0.03824504877492301 48:0.21416917337859306 49:0.24183839915494948 50:0.48635312280015125 51:0.041581075365686795 52:0.3812977721342948 
-97.30514902191918 0.0 0.0 0.0 32.045370163920495 0.0 0.0 0:0.0 1:0.0 2:0.0 3:0.0 4:0.0 5:0.09090909090909091 6:0.0 7:0.0 8:0.0 9:0.0 10:1.0 11:0.0 12:0.0 13:0.0 14:0.05555555555555556 15:0.0 16:0.024193548387096774 17:0.0 18:0.0 19:0.3333333333333333 20:0.034482758620689655 21:0.4167514411664973 22:1.0 23:0.043478260869565216 24:0.05732484076433121 25:1.0 26:1.0 27:1.0 28:0.0 29:0.03971405193574781 30:0.0 31:0.8333333333333333 32:0.6363636363636364 33:0.18636755823986195 34:0.9999999999999998 35:0.8181818181818182 36:0.022926829268292682 37:0.04918032786885246 38:0.107981220657277 39:0.5952947002381793 40:0.29015024658603367 41:0.14754098360655737 42:0.7704918032786885 43:0.005704157808495947 44:0.026750879385966327 45:0.018543835642463154 46:0.3160852847316016 47:0.019739514643606345 48:0.2496293602265007 49:0.28622716018619193 50:0.42089920988902585 51:0.009646371260687063 52:0.31432873829298896 
-0.0 0.0 27.916651386674218 0.0 0.0 0.0 0.0 0:0.0 1:0.0 2:0.0 3:0.0 4:0.0 5:0.0 6:0.0 7:0.0 8:0.0 9:0.0 10:1.0 11:0.0 12:0.0 13:0.0 14:0.19444444444444442 15:0.0 16:0.0 17:0.0 18:0.0 19:1.0 20:0.0 21:6.425163203437094E-16 22:1.0 23:0.014492753623188404 24:0.006369426751592357 25:1.0 26:1.0 27:1.0 28:1.0 29:0.010359475347710279 30:0.0 31:0.8333333333333333 32:0.0 33:0.0 34:0.9999999999999998 35:1.0 36:0.004878048780487805 37:0.0 38:0.5111111111111111 39:0.0 40:0.24903754812259565 41:0.2 42:0.6666666666666666 43:0.03541378936016133 44:0.012010557153172547 45:1.895897484648445E-5 46:0.0022061011875107194 47:0.0502412313650857 48:0.21530698065601347 49:0.2045629868385981 50:0.14975619898728817 51:0.0757983357089763 52:0.1141989233344023 
-0.0 90.82975685856798 0.0 0.0 0.0 0.0 0.0 0:0.0 1:0.0 2:0.0 3:0.0 4:0.0 5:0.0 6:0.0 7:0.0 8:0.0 9:0.0 10:1.0 11:0.0 12:0.0 13:0.0 14:0.08333333333333331 15:0.0 16:0.0 17:0.0 18:0.0 19:0.3333333333333333 20:0.017241379310344827 21:6.425163203437094E-16 22:1.0 23:0.02898550724637681 24:0.038216560509554146 25:1.0 26:1.0 27:1.0 28:0.5555555555555556 29:0.003761476167918611 30:0.0 31:0.8333333333333333 32:0.8571428571428571 33:0.09318377911993098 34:0.9999999999999998 35:0.8571428571428571 36:0.026341463414634145 37:0.0 38:0.05721393034825871 39:0.0 40:0.19809009549522838 41:0.09836065573770492 42:0.8852459016393442 43:0.02361681369208948 44:0.010034213700377112 45:0.0021655596207314134 46:0.05945619044949229 47:0.027834816335842928 48:0.20395921573381623 49:0.19780576002334535 50:0.7578460710529106 51:0.0046445294852585604 52:0.6338725282384186 
-156.74529152276222 0.0 34.38028169785085 0.0 3.375746424004712 1.5117010203706185 0.0 0:1.0 1:0.0 2:0.0 3:0.0 4:1.0 5:0.0 6:0.0 7:0.0 8:0.0 9:0.0 10:0.0 11:0.0 12:0.0 13:0.0 14:0.09722222222222221 15:0.0 16:0.0 17:0.0 18:0.0 19:1.0 20:0.0 21:6.425163203437094E-16 22:1.0 23:0.014492753623188404 24:0.019108280254777073 25:1.0 26:1.0 27:1.0 28:1.0 29:0.0842570661613769 30:0.0 31:1.0 32:1.0 33:0.0 34:0.9999999999999998 35:1.0 36:0.00975609756097561 37:0.0 38:0.0 39:0.0 40:0.2550372481375937 41:0.13043478260869565 42:0.8695652173913043 43:0.040763580651496344 44:0.0341274562557332 45:0.0010380459854478308 46:0.05749737380865647 47:0.07529089664613281 48:0.4516059373082081 49:0.7915630851851676 50:0.3282955944586232 51:0.030453970301146265 52:0.1709242156862308 
-89.53861734542268 0.0 337.6736044235916 0.0 0.0 0.0 0.0 0:0.0 1:0.0 2:0.0 3:0.0 4:0.0 5:0.0 6:0.0 7:0.0 8:0.0 9:0.0 10:0.0 11:0.0 12:0.0 13:0.0 14:0.05555555555555556 15:0.0 16:0.0 17:0.0 18:0.0 19:1.0 20:0.0 21:6.425163203437094E-16 22:1.0 23:0.00966183574879227 24:0.012738853503184714 25:1.0 26:1.0 27:1.0 28:0.8333333333333333 29:0.030805449090621995 30:0.0 31:0.5 32:1.0 33:0.0 34:0.9999999999999998 35:1.0 36:0.0034146341463414634 37:0.0 38:0.0 39:0.0 40:0.25203739813009546 41:0.2222222222222222 42:0.7777777777777778 43:0.020701863308990393 44:0.009504115337446517 45:4.2898071346662137E-4 46:0.07404610448710815 47:0.03973222483764872 48:0.17054480889636484 49:0.14468359571091532 50:0.09518227998793234 51:0.11991690341426137 52:0.06596057966308091 
-0.0 105.15672785735859 0.0 0.0 0.0 0.0 0.0 0:0.0 1:0.0 2:1.0 3:0.0 4:0.0 5:0.045454545454545456 6:0.0 7:0.0 8:0.0 9:0.0 10:1.0 11:0.0 12:0.17391304347826086 13:0.0 14:0.08333333333333331 15:0.4 16:0.08064516129032258 17:0.0 18:0.0 19:0.1 20:0.15517241379310345 21:6.425163203437094E-16 22:1.0 23:0.34782608695652173 24:0.1656050955414013 25:1.0 26:1.0 27:1.0 28:0.5555555555555556 29:0.1451726477780481 30:0.16958525345622122 31:0.8333333333333333 32:0.2857142857142857 33:0.23575066699005578 34:0.9999999999999998 35:0.9285714285714286 36:0.055609756097560976 37:0.04608294930875576 38:0.29849726775956287 39:0.6472712372830475 40:0.21272139158019382 41:0.3317972350230415 42:0.5253456221198156 43:0.03347334689925513 44:0.12099465856360819 45:0.09569140210364259 46:0.5266959971518015 47:0.03719748696460267 48:0.22221843374072137 49:0.25056352540726146 50:0.5864892246475486 51:0.06887291629568824 52:0.30046827165466305 
-0.0 512.0 0.0 0.0 0.0 0.0 0.0 0:0.0 1:0.0 2:1.0 3:0.0 4:0.0 5:0.045454545454545456 6:0.0 7:0.0 8:0.0 9:0.0 10:1.0 11:0.0 12:0.0 13:0.0 14:0.09722222222222221 15:0.4 16:0.04032258064516129 17:0.0 18:0.0 19:0.2 20:0.06896551724137931 21:6.425163203437094E-16 22:1.0 23:0.2608695652173913 24:0.08280254777070065 25:1.0 26:1.0 27:1.0 28:0.5555555555555556 29:0.07272828600886114 30:0.0 31:0.8333333333333333 32:0.6 33:0.19106590004422822 34:0.9999999999999998 35:0.8666666666666667 36:0.026829268292682926 37:0.04201680672268908 38:0.14411027568922305 39:0.11340793507150855 40:0.21901383922400902 41:0.453781512605042 42:0.46218487394957986 43:0.03347334689925505 44:0.055233002498243366 45:0.027760779356550986 46:0.31643046794532814 47:0.04383204509663156 48:0.27889411699336003 49:0.3211331592096056 50:0.6967337595094627 51:0.02970605357004147 52:0.35235073176484094 
-42.21951939236836 0.0 0.0 0.0 245.25356657185867 0.0 0.0 0:1.0 1:0.0 2:1.0 3:0.0 4:0.0 5:0.0 6:0.0 7:0.0 8:0.0 9:0.0 10:1.0 11:0.0 12:0.0 13:0.0 14:0.05555555555555556 15:0.0 16:0.0 17:0.0 18:0.0 19:1.0 20:0.0 21:6.425163203437094E-16 22:1.0 23:0.07729468599033816 24:0.019108280254777073 25:1.0 26:1.0 27:1.0 28:0.5555555555555556 29:0.023952677671294442 30:0.0 31:0.8333333333333333 32:1.0 33:0.0 34:0.9999999999999998 35:1.0 36:0.0 37:0.0 38:0.0 39:0.0 40:0.12716864156792496 41:1.0 42:0.0 43:0.01324301968164844 44:0.016401347191497648 45:0.0035551545701225182 46:0.32283709375554454 47:0.01403148528405196 48:0.15090279514165134 49:0.17098845255727063 50:0.19635970026337038 51:0.05640708267259746 52:0.11152005982648279 
-0.0 0.0 79.63140271940857 0.0 0.0 0.0 2.2272130088053643 0:0.0 1:0.0 2:0.0 3:0.0 4:0.0 5:0.045454545454545456 6:0.0 7:0.0 8:0.0 9:0.0 10:1.0 11:0.0 12:0.0 13:0.0 14:0.027777777777777776 15:0.0 16:0.008064516129032258 17:0.0 18:0.0 19:1.0 20:0.0 21:6.425163203437094E-16 22:1.0 23:0.014492753623188404 24:0.012738853503184714 25:1.0 26:1.0 27:1.0 28:0.0 29:1.295996710849734E-4 30:0.0 31:0.8333333333333333 32:0.3333333333333333 33:0.0 34:0.9999999999999998 35:0.6666666666666666 36:0.0014634146341463415 37:0.125 38:0.0 39:0.0 40:0.18229088545572952 41:0.375 42:0.375 43:0.002852078904247994 44:0.017074069498296256 45:0.0028587423835889484 46:0.4297712933422876 47:0.017965754606211304 48:0.1366568418713078 49:0.13428440365324565 50:0.09398365962443234 51:0.14287234163709248 52:0.09104927409291165 
-512.0 0.0 0.0 0.0 153.48190309048718 0.0 0.0 0:1.0 1:0.0 2:0.0 3:0.0 4:0.0 5:0.18181818181818182 6:0.0 7:0.0 8:0.0 9:0.0 10:0.0 11:0.0 12:0.0 13:0.0 14:0.041666666666666664 15:0.0 16:0.03225806451612903 17:0.0 18:0.0 19:0.0 20:0.05172413793103448 21:6.425163203437094E-16 22:1.0 23:0.20289855072463767 24:0.11464968152866242 25:1.0 26:1.0 27:1.0 28:0.6666666666666666 29:0.02949536043692702 30:0.0 31:0.7777777777777778 32:0.5217391304347826 33:0.19600725952813067 34:0.9999999999999998 35:0.782608695652174 36:0.018048780487804877 37:0.04597701149425287 38:0.10550458715596331 39:0.14452242544025906 40:0.24831344639664793 41:0.4827586206896552 42:0.42528735632183906 43:0.03757428199704657 44:0.048577702893670374 45:0.040987983852673285 46:0.42767199497304276 47:0.043822306806230206 48:0.14194177356498636 49:0.12929564013950537 50:0.6516163028677197 51:0.037533907087627265 52:0.5510648197443073 
-0.0 233.98364823518693 0.0 0.0 0.0 0.0 0.0 0:0.0 1:0.0 2:0.0 3:0.0 4:0.0 5:0.0 6:0.0 7:0.0 8:0.0 9:0.0 10:1.0 11:0.0 12:0.043478260869565216 13:0.0 14:0.06944444444444445 15:0.0 16:0.0 17:0.0 18:0.0 19:0.0 20:0.08620689655172414 21:6.425163203437094E-16 22:1.0 23:0.06763285024154589 24:0.08280254777070065 25:1.0 26:1.0 27:1.0 28:1.0 29:0.006677983051739564 30:0.10109890109890111 31:0.8333333333333333 32:0.47058823529411764 33:0.3123192596876807 34:0.9999999999999998 35:0.7647058823529411 36:0.033658536585365856 37:0.0 38:0.2507788161993769 39:0.0 40:0.14180115170065943 41:0.15384615384615385 42:0.7582417582417582 43:0.03804010249944374 44:0.009538024315586686 45:0.013641371103349545 46:0.3072621018187076 47:0.04122218326906055 48:0.18061206707127647 49:0.1612889444368412 50:0.8749969422949911 51:0.003262752517057002 52:0.7945796123774332 
-502.5788627847335 0.0 0.0 0.0 0.0 0.0 0.0 0:1.0 1:0.0 2:1.0 3:0.0 4:0.0 5:0.13636363636363635 6:0.0 7:0.0 8:0.0 9:0.0 10:1.0 11:0.0 12:0.0 13:0.0 14:0.0 15:0.0 16:0.024193548387096774 17:0.0 18:0.0 19:0.3333333333333333 20:0.017241379310344827 21:6.425163203437094E-16 22:1.0 23:0.03864734299516908 24:0.050955414012738856 25:1.0 26:1.0 27:1.0 28:0.5555555555555556 29:0.02126051747084433 30:0.0 31:0.8333333333333333 32:0.1111111111111111 33:0.16240601503759397 34:0.9999999999999998 35:0.8888888888888888 36:0.01121951219512195 37:0.08571428571428572 38:0.08914728682170543 39:0.0 40:0.28280728820702056 41:0.22857142857142856 42:0.6571428571428571 43:0.03253313251098098 44:0.01999754858693846 45:0.012614903117807878 46:0.35657604070640475 47:0.052614591854337395 48:0.16820226450167577 49:0.15932129995107408 50:0.5025480875074405 51:0.02459582923823144 52:0.2398103225671856 
-0.0 41.93304669683689 65.80699635312483 512.0 0.0 0.0 0.0 0:0.0 1:0.0 2:0.0 3:0.0 4:0.0 5:0.0 6:0.3333333333333333 7:0.0 8:0.0 9:0.125 10:0.0 11:0.0 12:0.10869565217391304 13:0.31666666666666665 14:0.08333333333333331 15:0.0 16:0.0 17:0.0 18:0.0 19:0.0 20:0.0 21:6.425163203437094E-16 22:1.0 23:0.02898550724637681 24:0.038216560509554146 25:1.0 26:1.0 27:1.0 28:0.33333333333333337 29:0.01348316578065512 30:0.38333333333333336 31:0.33333333333333337 32:0.125 33:0.0 34:1.0 35:0.75 36:0.02195121951219512 37:0.0 38:0.4577114427860697 39:0.0 40:0.25003749812509607 41:0.1 42:0.75 43:0.03832588194876717 44:0.011187414014993591 45:0.002832116542616006 46:0.08024713774925835 47:0.06862990601158571 48:0.5811619020197657 49:0.5268879560823265 50:0.6608087833595617 51:0.00921931891200201 52:0.3930964025818353 
-0.0 361.8852294947642 0.0 0.0 0.0 0.0 0.0 0:0.0 1:0.0 2:1.0 3:0.0 4:0.0 5:0.045454545454545456 6:0.0 7:0.0 8:0.0 9:0.0 10:1.0 11:0.0 12:0.06521739130434782 13:0.0 14:0.06944444444444445 15:0.4 16:0.03225806451612903 17:0.0 18:0.0 19:0.125 20:0.12068965517241378 21:0.04159602125014198 22:1.0 23:0.4444444444444444 24:0.15286624203821658 25:1.0 26:1.0 27:1.0 28:0.5555555555555556 29:0.10230870876860554 30:0.09019607843137256 31:0.8333333333333333 32:0.56 33:0.26006191950464397 34:0.9999999999999998 35:0.96 36:0.02195121951219512 37:0.026143790849673203 38:0.23822975517890774 39:0.04554109632564161 40:0.14906215473540313 41:0.6013071895424836 42:0.29411764705882354 43:0.03675409497748827 44:0.07567081167246917 45:0.028106541613997525 46:0.31279050113514406 47:0.03662153664657791 48:0.20516142719675098 49:0.23878213663972192 50:0.5615543197897386 51:0.05614481684813841 52:0.3253471798095849 
-0.0 512.0 0.0 0.0 0.0 0.0 0.0 0:0.0 1:0.0 2:1.0 3:0.0 4:0.0 5:0.045454545454545456 6:0.0 7:0.0 8:0.0 9:0.0 10:1.0 11:0.0 12:0.13043478260869565 13:0.0 14:0.09722222222222221 15:0.4 16:0.03225806451612903 17:0.0 18:0.0 19:0.2 20:0.06896551724137931 21:0.1255792924155086 22:1.0 23:0.17391304347826086 24:0.09554140127388536 25:1.0 26:1.0 27:1.0 28:0.5555555555555556 29:0.10544509454978426 30:0.23000000000000004 31:0.8333333333333333 32:0.375 33:0.18947368421052632 34:0.9999999999999998 35:0.9375 36:0.033170731707317075 37:0.03333333333333333 38:0.3123456790123457 39:0.12469898921729519 40:0.1222180557638804 41:0.3 42:0.5666666666666667 43:0.0370341588378252 44:0.07572561666174989 45:0.03018903191926999 46:0.4800337671509496 47:0.04029565449658597 48:0.19986134157706906 49:0.24753932560382275 50:0.34349170886299596 51:0.07495177259629111 52:0.2141282131074552 
-0.0 512.0 0.0 0.0 0.0 0.0 0.0 0:0.0 1:0.0 2:1.0 3:0.0 4:0.0 5:0.09090909090909091 6:0.0 7:0.0 8:0.0 9:0.0 10:1.0 11:0.0 12:0.13043478260869565 13:0.0 14:0.06944444444444445 15:0.4 16:0.08870967741935484 17:0.0 18:0.0 19:0.08333333333333333 20:0.15517241379310345 21:0.1425073471233193 22:1.0 23:0.32367149758454106 24:0.1910828025477707 25:1.0 26:1.0 27:1.0 28:0.5555555555555556 29:0.13702340609019908 30:0.12000000000000001 31:0.8333333333333333 32:0.4594594594594595 33:0.22242562929061785 34:0.9999999999999998 35:0.8108108108108109 36:0.06536585365853659 37:0.04782608695652174 38:0.2449874686716792 39:0.16422534779207634 40:0.14743393265119614 41:0.29130434782608694 42:0.5826086956521739 43:0.02965533345629387 44:0.10482070187909945 45:0.06169537136625762 46:0.46591860852050354 47:0.03815183942393829 48:0.18648547622475292 49:0.21598704811589917 50:0.5368652204401466 51:0.07045201865091205 52:0.30598187771743207 
-0.0 405.46244701772423 0.0 0.0 0.0 0.0 0.0 0:1.0 1:0.0 2:1.0 3:0.0 4:0.0 5:0.13636363636363635 6:0.0 7:0.0 8:0.0 9:0.0 10:1.0 11:0.0 12:0.15217391304347827 13:0.0 14:0.08333333333333331 15:0.4 16:0.08870967741935484 17:0.0 18:0.0 19:0.1111111111111111 20:0.12068965517241378 21:0.11009381711314618 22:1.0 23:0.24637681159420288 24:0.15923566878980894 25:1.0 26:1.0 27:1.0 28:1.0 29:0.0965063950734249 30:0.17500000000000004 31:0.8333333333333333 32:0.4 33:0.21624713958810068 34:0.9999999999999998 35:0.8333333333333334 36:0.050731707317073174 37:0.059782608695652176 38:0.28794992175273865 39:0.0875478494847485 40:0.15866706664667007 41:0.27717391304347827 42:0.5652173913043478 43:0.023513933090333037 44:0.07804631763087141 45:0.04251581631169886 46:0.40884548383595415 47:0.025917764311113253 48:0.22481480639596704 49:0.2590938284181735 50:0.5846270822971111 51:0.0508927038454039 52:0.3054556070199257 
-0.0 512.0 0.0 0.0 0.0 0.0 0.0 0:0.0 1:0.0 2:1.0 3:0.0 4:0.0 5:0.0 6:0.0 7:0.0 8:0.0 9:0.0 10:1.0 11:0.0 12:0.10869565217391304 13:0.0 14:0.06944444444444445 15:0.0 16:0.0 17:0.0 18:0.0 19:0.16666666666666666 20:0.06896551724137931 21:0.18328246863343559 22:1.0 23:0.08212560386473429 24:0.10828025477707007 25:1.0 26:1.0 27:1.0 28:0.0 29:0.03292654500612814 30:0.25 31:0.8333333333333333 32:0.5 33:0.24713958810068648 34:0.9999999999999998 35:0.9444444444444444 36:0.03219512195121951 37:0.0 38:0.31651376146788995 39:0.14228305859822646 40:0.2645177523732522 41:0.18478260869565216 42:0.717391304347826 43:0.039694765511026506 44:0.047973948582009616 45:0.03604819899375466 46:0.4189147768769526 47:0.05114271881938525 48:0.15967186698894015 49:0.16463131641161266 50:0.598999315074078 51:0.030938953310003632 52:0.47804585516313064 
-0.0 57.578385211924434 0.0 0.0 0.0 0.0 0.0 0:0.0 1:0.0 2:0.0 3:0.0 4:0.0 5:0.0 6:0.0 7:0.0 8:0.0 9:0.0 10:1.0 11:0.0 12:0.0 13:0.0 14:0.06944444444444445 15:0.0 16:0.04032258064516129 17:0.0 18:0.0 19:0.0 20:0.05172413793103448 21:0.07324516785351029 22:1.0 23:0.07729468599033816 24:0.0445859872611465 25:1.0 26:1.0 27:1.0 28:1.0 29:0.04505921364282331 30:0.0 31:0.8333333333333333 32:0.38461538461538464 33:0.19160260201064458 34:0.9999999999999998 35:0.5384615384615384 36:0.03073170731707317 37:0.056179775280898875 38:0.1897689768976898 39:0.05683215047142825 40:0.23791450876894643 41:0.1797752808988764 42:0.7078651685393258 43:0.03194728463986796 44:0.047588596763331686 45:0.02423599943983704 46:0.3674086061643992 47:0.045847871209718206 48:0.21004730550567388 49:0.2030159827591106 50:0.4768338076173549 51:0.049958572908317386 52:0.29927622335572424 
-0.0 512.0 0.0 0.0 0.0 0.0 0.0 0:1.0 1:0.0 2:0.0 3:0.0 4:0.0 5:0.13636363636363635 6:0.0 7:0.0 8:0.0 9:0.0 10:0.0 11:0.0 12:0.021739130434782608 13:0.0 14:0.08333333333333331 15:0.0 16:0.024193548387096774 17:0.0 18:0.0 19:0.3333333333333333 20:0.017241379310344827 21:6.425163203437094E-16 22:1.0 23:0.033816425120772944 24:0.0445859872611465 25:1.0 26:1.0 27:1.0 28:0.8333333333333333 29:0.025989988093256693 30:0.09387755102040816 31:0.5 32:0.5 33:0.11600429645542426 34:0.9999999999999998 35:0.875 36:0.018048780487804877 37:0.061224489795918366 38:0.1369047619047619 39:0.0 40:0.12456213923998083 41:0.14285714285714285 42:0.7551020408163265 43:0.01292008890391295 44:0.010917625335719995 45:0.010485118936832336 46:0.39663318630837363 47:0.03516079308637022 48:0.14069157466970755 49:0.1280742823905137 50:0.4925106611981312 51:0.01632392021346848 52:0.25066721181177154 
-0.0 154.81242102042503 0.0 0.0 0.0 0.0 0.0 0:0.0 1:0.0 2:1.0 3:0.0 4:0.0 5:0.0 6:0.0 7:0.0 8:0.0 9:0.0 10:1.0 11:0.0 12:0.17391304347826086 13:0.0 14:0.08333333333333331 15:0.0 16:0.0 17:0.0 18:0.0 19:0.2 20:0.05172413793103448 21:6.425163203437094E-16 22:1.0 23:0.06280193236714976 24:0.07006369426751592 25:1.0 26:1.0 27:1.0 28:0.5555555555555556 29:0.02211412924171876 30:0.5041095890410959 31:0.8333333333333333 32:0.3333333333333333 33:0.2335976928622927 34:0.9999999999999998 35:0.9166666666666666 36:0.023414634146341463 37:0.0 38:0.501984126984127 39:0.0 40:0.1799910004499804 41:0.1780821917808219 42:0.6575342465753424 43:0.023256731585941968 44:0.007770238046086139 45:0.005007627588710821 46:0.1303462925437952 47:0.026453370283189427 48:0.112871492181837 49:0.10333541173269319 50:0.8310026826265279 51:0.002593984414725385 52:0.45412157017276533 
-0.0 156.18472870804865 0.0 0.0 0.0 0.0 0.0 0:0.0 1:0.0 2:0.0 3:0.0 4:0.0 5:0.0 6:0.0 7:0.0 8:0.0 9:0.0 10:0.0 11:0.0 12:0.0 13:0.0 14:0.05555555555555556 15:0.0 16:0.016129032258064516 17:0.0 18:0.0 19:0.5 20:0.017241379310344827 21:6.425163203437094E-16 22:1.0 23:0.024154589371980676 24:0.03184713375796178 25:1.0 26:1.0 27:1.0 28:0.8333333333333333 29:0.006398318008085499 30:0.0 31:1.0 32:0.2 33:0.2583732057416268 34:0.9999999999999997 35:1.0 36:0.006829268292682927 37:0.09090909090909091 38:0.14743589743589744 39:0.0 40:0.14549727059101852 41:0.22727272727272727 42:0.6363636363636364 43:0.032090174364529635 44:0.012597174965113573 45:0.0031561271204275164 46:0.28714719858854754 47:0.06168789613974161 48:0.10262617537638563 49:0.11021558679988933 50:0.21181945678851288 51:0.04725289825917752 52:0.16893231749195112 
-0.0 512.0 0.0 0.0 0.0 0.0 0.0 0:0.0 1:0.0 2:1.0 3:0.0 4:0.0 5:0.045454545454545456 6:0.0 7:0.0 8:0.0 9:0.0 10:1.0 11:0.0 12:0.0 13:0.0 14:0.06944444444444445 15:0.4 16:0.04032258064516129 17:0.0 18:0.0 19:0.2 20:0.06896551724137931 21:6.425163203437094E-16 22:1.0 23:0.25120772946859904 24:0.089171974522293 25:1.0 26:1.0 27:1.0 28:0.5555555555555556 29:0.07025783311903633 30:0.0 31:0.8333333333333333 32:0.5882352941176471 33:0.19433198380566805 34:0.9999999999999998 35:0.8235294117647058 36:0.026829268292682926 37:0.042735042735042736 38:0.14411027568922305 39:0.08955057090707497 40:0.21844933394356308 41:0.4444444444444444 42:0.4700854700854701 43:0.03355908073405209 44:0.05359273246545668 45:0.026548473796079563 46:0.309893693230252 47:0.03736303790142613 48:0.2978744093125926 49:0.3345303291265859 50:0.6907732732120582 51:0.030614839254730047 52:0.35099702464237204 
-0.0 512.0 0.0 23.078342884046663 77.8418624309199 0.0 0.0 0:0.0 1:0.0 2:1.0 3:0.0 4:0.0 5:0.2272727272727273 6:0.0 7:0.0 8:0.0 9:0.0 10:0.0 11:0.0 12:0.10869565217391304 13:0.0 14:0.08333333333333331 15:0.4 16:0.10483870967741934 17:0.0 18:0.0 19:0.14285714285714285 20:0.10344827586206896 21:6.425163203437094E-16 22:1.0 23:0.27053140096618356 24:0.12738853503184713 25:1.0 26:1.0 27:1.0 28:0.8333333333333333 29:0.10230870876860554 30:0.1263736263736264 31:0.5555555555555556 32:0.25 33:0.18739155581260844 34:0.9999999999999998 35:0.8333333333333334 36:0.04780487804878049 37:0.07142857142857142 38:0.24308943089430896 39:0.351208096779212 40:0.20618254801545993 41:0.3076923076923077 42:0.5384615384615384 43:0.040417787517814864 44:0.08564025409855498 45:0.05841651560151407 46:0.4381933227296848 47:0.07559278364857566 48:0.24555547978592554 49:0.2765002359933566 50:0.6441266243208498 51:0.047824397945475904 52:0.36947457214805596 
-0.0 512.0 0.0 0.0 0.0 0.0 0.0 0:0.0 1:0.0 2:1.0 3:0.0 4:0.0 5:0.045454545454545456 6:0.0 7:0.0 8:0.0 9:0.0 10:1.0 11:0.0 12:0.08695652173913043 13:0.0 14:0.06944444444444445 15:0.4 16:0.03225806451612903 17:0.0 18:0.0 19:0.2 20:0.06896551724137931 21:6.425163203437094E-16 22:1.0 23:0.20289855072463767 24:0.09554140127388536 25:1.0 26:1.0 27:1.0 28:0.5555555555555556 29:0.0781324017053529 30:0.15862068965517243 31:0.8333333333333333 32:0.35294117647058826 33:0.19600725952813067 34:0.9999999999999998 35:0.8823529411764706 36:0.029268292682926828 37:0.034482758620689655 38:0.26136363636363635 39:0.08929858735831395 40:0.21536681786600648 41:0.3620689655172414 42:0.5172413793103449 43:0.040417787517814864 44:0.055180375768062354 45:0.026412267207872434 46:0.32576614756679306 47:0.05326566612688713 48:0.24555547978592554 49:0.28364473519616773 50:0.6507795109302763 51:0.0330569918899443 52:0.3218605466545693 
-0.0 512.0 0.0 0.0 0.0 0.0 0.0 0:0.0 1:0.0 2:1.0 3:0.0 4:0.0 5:0.0 6:0.0 7:0.0 8:0.0 9:0.0 10:1.0 11:0.0 12:0.10869565217391304 13:0.0 14:0.05555555555555556 15:0.4 16:0.03225806451612903 17:0.0 18:0.0 19:0.2 20:0.06896551724137931 21:6.425163203437094E-16 22:1.0 23:0.16425120772946858 24:0.10191082802547771 25:1.0 26:1.0 27:1.0 28:0.5555555555555556 29:0.07272828600886114 30:0.21698113207547173 31:0.8333333333333333 32:0.4 33:0.2144985104270109 34:0.9999999999999998 35:0.8 36:0.02829268292682927 37:0.03773584905660377 38:0.27599999999999997 39:0.1885560027959218 40:0.2134355546373659 41:0.32075471698113206 42:0.5471698113207547 43:0.04031204912156517 44:0.05583768209452568 45:0.03471327446626392 46:0.43440850466847025 47:0.051543379910185046 48:0.24418278665545276 49:0.281889886790981 50:0.5873616898100963 51:0.034670401702167813 52:0.28991815472229643 
-0.0 512.0 0.0 0.0 0.0 0.0 0.0 0:0.0 1:0.0 2:0.0 3:0.0 4:0.0 5:0.0 6:0.0 7:0.0 8:0.0 9:0.0 10:1.0 11:0.0 12:0.021739130434782608 13:0.0 14:0.09722222222222221 15:0.4 16:0.03225806451612903 17:0.0 18:0.0 19:0.0 20:0.05172413793103448 21:6.425163203437094E-16 22:1.0 23:0.0966183574879227 24:0.05732484076433121 25:1.0 26:1.0 27:1.0 28:0.5555555555555556 29:0.07272828600886114 30:0.05476190476190477 31:0.8333333333333333 32:0.4166666666666667 33:0.20300751879699247 34:0.9999999999999998 35:0.75 36:0.026829268292682926 37:0.047619047619047616 38:0.16140350877192983 39:0.46474969268962857 40:0.20403979801010325 41:0.23809523809523808 42:0.6547619047619048 43:0.03527089963549958 44:0.046985300868978515 45:0.03713366357147561 46:0.5528795409644562 47:0.04600924859351256 48:0.24168996582789684 49:0.27596060496778724 50:0.4259036537536388 51:0.031221650643377626 52:0.21384828374811543 
-16.032474878467468 58.19778553454229 16.97019003901955 0.0 45.66011744431437 4.184898513158315 7.709175338527483 0:1.0 1:0.0 2:1.0 3:0.0 4:0.0 5:0.0 6:0.0 7:0.0 8:0.0 9:0.0 10:0.0 11:0.2 12:0.32608695652173914 13:0.0 14:0.05555555555555556 15:0.0 16:0.6290322580645161 17:0.15 18:0.0 19:0.06060606060606061 20:0.3620689655172414 21:0.007731434384537659 22:1.0 23:0.27053140096618356 24:0.33757961783439494 25:1.0 26:1.0 27:1.0 28:0.7777777777777778 29:0.8509209463036754 30:0.05291411042944786 31:1.0 32:0.6455696202531646 33:0.09154020019373588 34:0.9999999999999998 35:0.22362869198312235 36:0.5424390243902439 37:0.0598159509202454 38:0.0945887445887446 39:0.07374572449652592 40:0.30003499825008967 41:0.04294478527607362 42:0.852760736196319 43:0.022473695894795767 44:0.7602314294329677 45:0.3584663232898125 46:0.3424832155486184 47:0.03157988458734689 48:0.4555926826742638 49:0.5147885456583203 50:0.7847742598315408 51:0.4394738617845239 52:0.39680745299174663 
-0.0 512.0 0.0 0.0 0.0 0.0 0.0 0:0.0 1:0.0 2:0.0 3:0.0 4:0.0 5:0.0 6:0.0 7:0.0 8:0.0 9:0.0 10:1.0 11:0.0 12:0.021739130434782608 13:0.0 14:0.08333333333333331 15:0.4 16:0.03225806451612903 17:0.0 18:0.0 19:0.0 20:0.05172413793103448 21:6.425163203437094E-16 22:1.0 23:0.0966183574879227 24:0.05732484076433121 25:1.0 26:1.0 27:1.0 28:0.5555555555555556 29:0.06792462761197957 30:0.05476190476190477 31:0.8333333333333333 32:0.46153846153846156 33:0.20300751879699247 34:0.9999999999999998 35:0.6923076923076923 36:0.026829268292682926 37:0.047619047619047616 38:0.1597222222222222 39:0.4589650268745933 40:0.20403979801010325 41:0.23809523809523808 42:0.6547619047619048 43:0.03527089963549958 44:0.044972708890289474 45:0.03713366357147561 46:0.5528795409644562 47:0.04600924859351256 48:0.24168996582789684 49:0.2663761393617871 50:0.42859443416149584 51:0.031221650643377626 52:0.2269655488444361 
-0.0 0.0 0.0 0.0 153.456595736731 0.0 0.0 0:1.0 1:0.0 2:1.0 3:0.0 4:0.0 5:0.045454545454545456 6:0.0 7:0.0 8:0.0 9:0.0 10:0.0 11:0.0 12:0.0 13:0.0 14:0.05555555555555556 15:0.0 16:0.008064516129032258 17:0.0 18:0.0 19:1.0 20:0.0 21:6.425163203437094E-16 22:1.0 23:0.0966183574879227 24:0.025477707006369428 25:1.0 26:1.0 27:1.0 28:0.8333333333333333 29:0.018927311963787573 30:0.0 31:0.5 32:0.75 33:0.0 34:0.9999999999999998 35:1.0 36:0.0 37:0.047619047619047616 38:0.0 39:0.0 40:0.11818694779546968 41:0.9523809523809523 42:0.0 43:0.022210778801418158 44:0.021505648988492596 45:0.008650200130987587 46:0.5190880077885714 47:0.03814488350222305 48:0.1688286267764821 49:0.18899423080475927 50:0.2569532211903035 51:0.050597030446903085 52:0.13441239713271785 
-0.0 512.0 0.0 0.0 0.0 0.0 0.0 0:0.0 1:0.0 2:0.0 3:0.0 4:0.0 5:0.0 6:0.0 7:0.0 8:0.0 9:0.0 10:1.0 11:0.0 12:0.043478260869565216 13:0.0 14:0.08333333333333331 15:0.0 16:0.0 17:0.0 18:0.0 19:0.2 20:0.034482758620689655 21:6.425163203437094E-16 22:1.0 23:0.05314009661835749 24:0.07006369426751592 25:1.0 26:1.0 27:1.0 28:0.5555555555555556 29:0.006126211479124793 30:0.13529411764705884 31:0.8333333333333333 32:0.6666666666666666 33:0.16718266253869968 34:0.9999999999999998 35:0.9166666666666666 36:0.025365853658536587 37:0.0 38:0.19409282700421943 39:0.0 40:0.10204489775511588 41:0.16176470588235295 42:0.7647058823529411 43:0.03432782745273217 44:0.005119076785543594 45:0.0022645476447796515 46:0.09570526168876749 47:0.03768440148467185 48:0.20254484930683414 49:0.19344681134808403 50:0.6068647515920451 51:0.004693304837598878 52:0.47865343464821597 
-0.0 288.1376514768334 0.0 0.0 0.0 0.0 0.0 0:1.0 1:0.0 2:0.0 3:0.0 4:0.0 5:0.0 6:0.0 7:0.0 8:0.0 9:0.0 10:1.0 11:0.0 12:0.21739130434782608 13:0.0 14:0.013888888888888888 15:0.0 16:0.0 17:0.0 18:0.0 19:0.0 20:0.06896551724137931 21:6.425163203437094E-16 22:1.0 23:0.07246376811594203 24:0.089171974522293 25:1.0 26:1.0 27:1.0 28:0.5555555555555556 29:0.024944526166197113 30:0.9200000000000002 31:0.8333333333333333 32:0.06666666666666667 33:0.45473684210526316 34:0.9999999999999998 35:0.9333333333333333 36:0.00975609756097561 37:0.0 38:0.8385416666666667 39:0.0 40:0.2450777461126969 41:0.3 42:0.4 43:0.045207451088475764 44:0.015786537173268757 45:0.013801266129104059 46:0.35413095304616216 47:0.0448907363816964 48:0.14932678683729986 49:0.13859998322122458 50:0.6227974331585685 51:0.014424324017704479 52:0.2778706289223823 
-0.0 0.0 57.13558558253148 0.0 0.0 0.0 0.0 0:0.0 1:0.0 2:0.0 3:0.0 4:0.0 5:0.045454545454545456 6:0.0 7:0.0 8:0.0 9:0.0 10:0.0 11:0.0 12:0.0 13:0.0 14:0.06944444444444445 15:0.0 16:0.008064516129032258 17:0.0 18:0.0 19:1.0 20:0.0 21:6.425163203437094E-16 22:1.0 23:0.014492753623188404 24:0.019108280254777073 25:1.0 26:1.0 27:1.0 28:0.8333333333333333 29:0.016885757145112902 30:0.0 31:0.5 32:0.3333333333333333 33:0.0 34:0.9999999999999998 35:1.0 36:0.004878048780487805 37:0.07142857142857142 38:0.0 39:0.0 40:0.23932374809831175 41:0.21428571428571427 42:0.7142857142857143 43:0.012714327700400062 44:0.0110726147205813 45:9.541568911817031E-4 46:0.1164380207667792 47:0.014290245571860148 48:0.1752261092042421 49:0.16014080078610604 50:0.14177355044397885 51:0.08043904140781565 52:0.06760542304401067 
