svm_type c_svc
kernel_type rbf
gamma 0.125
nr_class 8
total_sv 861
rho -2.2464706137841564 0.02891566007405208 0.9084845600939695 0.49152453188258854 0.1008537963838151 -0.5491589850487584 1.7481717915953379 -0.040485777607209054 1.0800273026492424 1.1426902903705831 3.533922258684376 -0.8533230619016621 -1.7625769156125861 1.6637882966953854 -1.8693784714375434 1.7064932695603605 -0.7389012803518593 -1.899802125104843 -1.8814751238802878 1.5392834597527751 -2.200135499871273 -2.50111959751657 4.240012853084427 -1.0774070348555573 -3.963378659292796 -4.513673520500217 -3.7862702984469845 0.022926331547055034
label 14 8 5 4 10 9 11 13
nr_sv 99 142 202 94 110 110 20 84
SV
0.0 0.0 19.851409712930092 0.0 11.048381942354633 0.0 9.346898136641988 0:0.0 1:0.0 2:0.0 3:0.0 4:0.0 5:0.015602836879432624 6:0.016804995720404205 7:0.0 8:0.0 9:0.0 10:0.0 11:0.0 12:0.0 13:0.026794681168566172 14:0.0 15:0.0 16:0.0 17:0.10108158928355725 18:0.19804009799510341 19:0.0038988726888819084 20:0.6666666666666666 21:0.008627806324153747 22:0.010804299608619403 23:0.6781171198837364 24:0.0 25:1.0 26:1.0 27:0.0 28:0.0 29:0.0 30:0.0 31:0.012988243400370353 32:0.19804009799510086 33:0.3518541923174143 34:6.425163203437094E-16 35:0.0 36:0.016778523489932886 37:1.0 38:0.016097560975609757 39:0.9428571428571428 40:0.0 41:0.023572772443556413 42:0.0 43:0.00966183574879227 44:0.05714285714285714 45:0.012738853503184714 46:0.3333333333333333 47:0.011980879562388969 48:0.3518541923174143 49:0.01201923076923077 50:0.0162417252544841 51:0.07164419797216817 52:0.06712962962962962 53:0.06944444444444445 54:0.01201923076923077 55:0.0017825657660915921 56:0.37938311669443986 57:0.0833741358036781 58:0.07566059566503669 59:0.07866655553787597 60:0.08118399536113144 61:0.0 
20.415594303625554 87.3538019705998 76.78991535975769 20.576544444478106 0.0 0.0 148.48518902963204 0:0.0 1:0.0 2:0.0 3:0.3333333333333333 4:0.0 5:0.023167848699763592 6:0.02413670913825028 7:0.034482758620689655 8:0.22291021671826625 9:0.0 10:0.0 11:0.0 12:0.0 13:0.02697472222163999 14:0.021739130434782608 15:0.09019607843137256 16:0.0 17:0.06889314842312497 18:0.20003999800010247 19:0.003700794024385126 20:0.2 21:0.00878681411553554 22:0.013641799007259642 23:0.9999999999999998 24:0.0 25:0.0 26:0.0 27:0.0 28:0.0 29:0.5 30:0.0 31:0.025989988093256693 32:0.20168991550422571 33:0.4589635603101737 34:6.425163203437094E-16 35:0.0 36:0.022531160115052733 37:0.9215686274509803 38:0.020975609756097562 39:0.8431372549019608 40:0.2777777777777778 41:0.015639764262641367 42:0.2787878787878788 43:0.01932367149758454 44:0.0784313725490196 45:0.025477707006369428 46:0.8 47:0.025980367606550748 48:0.4589635603101737 49:0.009615384615384616 50:0.013228737777658985 51:0.12312583344076873 52:0.12777777777777774 53:0.13888888888888887 54:0.009615384615384616 55:0.0025108261661367162 56:0.612286765837724 57:0.15075696742983608 58:0.18717152773425294 59:0.5717727820335052 60:0.6287778136695441 61:0.0 
0.0 0.0 154.78274522562418 0.0 0.0 0.0 0.0 0:0.0 1:0.0 2:0.0 3:0.0 4:0.0 5:0.020330969267139478 6:0.018530371321676214 7:0.0 8:0.0 9:0.0 10:0.0 11:0.0 12:0.0 13:0.032050165241624406 14:0.021739130434782608 15:0.10222222222222224 16:0.0 17:0.1017316716433145 18:0.24903754812259632 19:0.005850758635701403 20:0.5 21:0.010875697292728977 22:0.016461666248595706 23:0.9999999999999998 24:0.0 25:1.0 26:1.0 27:0.0 28:0.0 29:0.0 30:0.0 31:0.02126051747084433 32:0.24963751812409346 33:0.6853376929411862 34:6.425163203437094E-16 35:0.0 36:0.020613614573346116 37:0.9555555555555556 38:0.0 39:0.0 40:0.5555555555555556 41:0.008375891202211671 42:0.1419753086419753 43:0.2077294685990338 44:0.9555555555555556 45:0.05732484076433121 46:0.9 47:0.031225132579867847 48:0.6853376929411862 49:0.021634615384615384 50:0.022787814082153204 51:0.08400706761690503 52:0.04861111111111111 53:0.027777777777777776 54:0.021634615384615384 55:0.0013957332099375447 56:0.8604440772074635 57:0.1991225836777062 58:0.22680849198074787 59:0.13174823267337987 60:0.150155923689524 61:0.0 
0.0 0.0 0.0 0.0 0.0 0.0 2.0471601410085625 0:0.0 1:0.0 2:0.0 3:0.0 4:0.0 5:0.010874704491725768 6:0.01021711463168158 7:0.0 8:0.0 9:0.0 10:0.0 11:0.0 12:0.0 13:0.019844524961020026 14:0.0 15:0.0 16:0.0 17:0.03792846745853205 18:0.3990300484975779 19:0.003037112969095468 20:0.5 21:0.017384125794766732 22:0.01870238314514453 23:0.9999999999999998 24:0.0 25:1.0 26:1.0 27:0.0 28:0.0 29:0.5555555555555556 30:0.0 31:0.007261284428503755 32:0.39903004849757623 33:0.3376888642460516 34:6.425163203437094E-16 35:0.0 36:0.011505273250239693 37:0.96 38:0.011707317073170732 39:0.96 40:0.5555555555555556 41:0.04016193294069539 42:0.14743589743589744 43:0.0 44:0.0 45:0.0 46:0.0 47:0.13631380666989415 48:0.3376888642460516 49:0.002403846153846154 50:0.0037821595682657376 51:0.24878395530269162 52:0.1597222222222222 53:0.27777777777777773 54:0.002403846153846154 55:0.0033674477198845252 56:0.36304607937882566 57:0.08337609432225467 58:0.07527778674530014 59:0.19075256922187114 60:0.17906947078370422 61:0.0 
0.0 0.0 0.0 0.0 0.0 0.0 4.882059918635809 0:0.0 1:0.0 2:0.0 3:0.0 4:0.0 5:0.02411347517730496 6:0.022212317070175725 7:0.0 8:0.0 9:0.0 10:0.0 11:0.0 12:0.0 13:0.019844524961020026 14:0.021739130434782608 15:0.08679245283018869 16:0.0 17:0.10895723047374846 18:0.39903004849757734 19:0.008279815643806998 20:0.5 21:0.01738412579476667 22:0.018702383145144462 23:0.9999999999999998 24:1.0 25:0.0 26:0.0 27:0.0 28:0.0 29:0.33333333333333337 30:0.0 31:0.007261284428503755 32:0.3990300484975748 33:0.8370610154842183 34:6.425163203437094E-16 35:0.0 36:0.023969319271332692 37:0.9433962264150944 38:0.022926829268292682 39:0.8867924528301887 40:0.8333333333333333 41:0.009327730888091228 42:0.06388888888888888 43:0.014492753623188404 44:0.05660377358490566 45:0.012738853503184714 46:0.25 47:0.7966797994468651 48:0.8370610154842183 49:0.01682692307692308 50:0.01931768053326926 51:0.13514524940231296 52:0.078125 53:0.08333333333333331 54:0.01682692307692308 55:0.0018753372363686583 56:0.9006769656392581 57:0.08077518165259796 58:0.07279186686087785 59:0.16362704167582218 60:0.1539707180956115 61:0.0 
0.0 0.0 31.42288061823607 0.0 0.0 0.0 0.0 0:0.0 1:0.0 2:0.0 3:0.3333333333333333 4:0.0 5:0.04160756501182033 6:0.04493579034632702 7:0.034482758620689655 8:0.12631578947368421 9:0.0 10:0.0 11:0.03225806451612903 12:0.044444444444444446 13:0.02715190548022056 14:0.0 15:0.0 16:0.0 17:0.21736724221275644 18:0.25203739813009435 19:0.01985131627146114 20:0.75 21:0.03842543079131423 22:0.05292425894851996 23:0.9999999999999998 24:0.0 25:1.0 26:1.0 27:0.0 28:0.0 29:0.0 30:0.029411764705882353 31:0.06362661746740132 32:0.25203739813009324 33:0.6790877439029362 34:0.04916920990166212 35:0.037981589862811395 36:0.039309683604985615 37:0.9111111111111111 38:0.0 39:0.0 40:0.5555555555555556 41:0.030607077690955796 42:0.07301587301587302 43:0.3961352657004831 44:0.9111111111111111 45:0.089171974522293 46:0.875 47:0.041255571693293906 48:0.7144898524963105 49:0.03605769230769231 50:0.039849607141962555 51:0.11003024780155811 52:0.0642361111111111 53:0.06944444444444445 54:0.03605769230769231 55:0.0016030123810108737 56:0.9968627770417858 57:0.2028045986016178 58:0.26321794150652567 59:0.1650325683126356 60:0.19091584604145137 61:0.125 
0.0 0.0 0.0 0.0 4.210342426739524 0.0 0.0 0:0.0 1:0.0 2:0.0 3:0.5 4:0.0 5:0.01607565011820331 6:0.010458564488013203 7:0.0 8:0.0 9:0.0 10:0.0 11:0.0 12:0.0 13:0.002852078904247994 14:0.0 15:0.0 16:0.0 17:0.11866843758748387 18:0.45002749862507047 19:0.008071447630009054 20:0.8571428571428571 21:0.0196058784962655 22:0.022378030058588336 23:0.9999999999999998 24:0.0 25:1.0 26:1.0 27:1.0 28:0.0 29:0.0 30:0.0 31:1.295996710849734E-4 32:0.4500274986250689 33:0.6891883627824301 34:6.425163203437094E-16 35:0.0 36:0.01725790987535954 37:1.0 38:0.015609756097560976 39:0.8888888888888888 40:0.0 41:0.015833032197410998 42:0.0 43:0.01932367149758454 44:0.1111111111111111 45:0.025477707006369428 46:0.5714285714285714 47:3.255371362747869E-4 48:0.6891883627824301 49:0.014423076923076926 50:0.010023016738490842 51:0.12550181384365514 52:0.057539682539682536 53:0.041666666666666664 54:0.014423076923076924 55:0.0016030123810108737 56:0.797028144731321 57:0.19724240584421948 58:0.20233349991552935 59:0.11575200094964604 60:0.11423166108337315 61:0.0 
7.964533598815095 0.0 0.0 1.3332630295706496 8.165777840996599 0.5133885647253893 0.0 0:0.0 1:0.0 2:0.0 3:1.0 4:0.0 5:0.0014184397163120566 6:0.0027027642920008825 7:0.0 8:0.0 9:0.0 10:0.0 11:0.0 12:0.0 13:0.004966846829241431 14:0.0 15:0.0 16:0.0 17:0.448803242617628 18:0.34803259837008255 19:0.0059285658907940395 20:0.5 21:0.047835206938838595 22:0.06414880473456716 23:0.11442249938169095 24:1.0 25:0.0 26:0.0 27:0.0 28:0.0 29:0.5555555555555556 30:0.029411764705882353 31:0.06362661746740132 32:0.34803259837008066 33:0.030390530083740475 34:0.011094156211145458 35:0.02913587172065316 36:0.002396931927133269 37:1.0 38:0.0 39:0.0 40:0.8333333333333333 41:0.5711679038244395 42:0.0 43:0.024154589371980676 44:1.0 45:0.012738853503184714 46:1.0 47:0.04880831149173912 48:0.04794481453999894 49:0.002403846153846154 50:0.005606230686544759 51:0.055100843638968514 52:0.020833333333333336 53:0.027777777777777776 54:0.002403846153846154 55:0.0013957332099375447 56:0.06279170182083989 57:0.6479837051254431 58:0.7306011030038864 59:0.1903585671457833 60:0.2162903355997756 61:0.0 
0.0 0.0 0.0 0.0 6.939023437896312 0.0 0.0 0:0.0 1:0.0 2:0.09090909090909091 3:0.5 4:0.0 5:0.022695035460992906 6:0.027542864245717537 7:0.017241379310344827 8:0.11368421052631579 9:0.0 10:0.0 11:0.016129032258064516 12:0.04 13:0.015743589863228585 14:0.0 15:0.0 16:0.0 17:0.4039463135494685 18:0.4788260586970667 19:0.035808556890922556 20:0.5 21:0.054803233303637344 22:0.05409869661538544 23:0.9999999999999998 24:0.0 25:0.0 26:0.0 27:0.0 28:0.0 29:0.5555555555555556 30:0.029411764705882353 31:0.05159218906258225 32:0.47107644617769123 33:0.3991925620306424 34:0.21065615462868822 35:0.16333792746817893 36:0.022531160115052733 37:0.94 38:0.018048780487804877 39:0.74 40:1.0 41:0.06068695499317249 42:0.06497175141242938 43:0.04830917874396135 44:0.2 45:0.050955414012738856 46:0.8 47:0.029906289822651765 48:0.5511513278593619 49:0.021634615384615384 50:0.029069414472340738 51:0.10270357115286874 52:0.05555555555555556 53:0.05555555555555556 54:0.021634615384615384 55:0.0015148067996046861 56:0.5814711659172924 57:0.26495035155408453 58:0.2429699168856284 59:0.11567749414679608 60:0.10141505151971937 61:0.0 
0.8746131749091278 2.212636245002701 216.31812173575238 0.0 0.0 0.0 512.0 0:1.0 1:0.0 2:0.0 3:0.0 4:0.0 5:0.03687943262411347 6:0.0276394818098229 7:0.06896551724137931 8:0.28421052631578947 9:0.0 10:0.0 11:0.0 12:0.0 13:0.01929868621281216 14:0.0 15:0.0 16:0.0 17:0.12224812357690676 18:0.10004499775011527 19:0.005679718986013322 20:0.4 21:0.0044696436700740645 22:0.005283624164817655 23:0.9999999999999998 24:0.0 25:0.0 26:0.0 27:0.0 28:1.0 29:0.5 30:0.0 31:0.006677983051739564 32:0.10259487025648678 33:0.7439640903123752 34:6.425163203437094E-16 35:0.0 36:0.035953978906999036 37:0.9375 38:0.033658536585365856 39:0.8625 40:0.2777777777777778 41:0.001609888290926861 42:0.2153558052434457 43:0.02898550724637681 44:0.075 45:0.03184713375796178 46:0.5 47:0.03854137103999371 48:0.7439640903123752 49:0.021634615384615384 50:0.019002467064414115 51:0.09062420035729943 52:0.09722222222222221 53:0.05555555555555556 54:0.021634615384615384 55:0.002067592195490877 56:0.7627989847978215 57:0.16657004641689027 58:0.1446827733942065 59:0.36234678749397 60:0.3464020988774511 61:0.0 
0.0 0.0 0.0 0.0 45.28721118958237 0.0 0.0 0:0.0 1:0.0 2:0.0 3:0.0 4:0.25 5:0.00851063829787234 6:0.04434307611457279 7:0.0 8:0.0 9:0.0 10:0.0 11:0.0 12:0.0 13:0.08114421684089898 14:0.0 15:0.0 16:0.0 17:0.10706850376366692 18:0.40002999850007664 19:0.004086282346781541 20:0.75 21:0.017427689573227437 22:0.01799571572697834 23:0.9999999999999998 24:0.0 25:1.0 26:1.0 27:0.0 28:0.0 29:0.0 30:0.0 31:0.05625860007669576 32:0.40002999850007476 33:0.25762795476227374 34:6.425163203437094E-16 35:0.0 36:0.009587727708533077 37:1.0 38:0.009268292682926829 39:0.95 40:0.0 41:0.05567650183150824 42:0.0 43:0.004830917874396135 44:0.05 45:0.006369426751592357 46:0.25 47:0.038438423398607646 48:0.25762795476227374 49:0.007211538461538462 50:0.05191873589164786 51:0.08089709673614505 52:0.05555555555555556 53:0.05555555555555556 54:0.007211538461538462 55:0.0017253378537151166 56:0.2597439934154126 57:0.059983548443956994 58:0.04607423806529812 59:0.06215509033002725 60:0.05836447273750292 61:0.0 
0.0 0.0 2.757424349571284 0.0 0.0 0.0 0.0 0:0.0 1:0.0 2:0.0 3:0.5 4:0.0 5:0.021749408983451533 6:0.023766776480971186 7:0.017241379310344827 8:0.11842105263157894 9:0.0 10:0.0 11:0.0 12:0.0 13:0.018847154682881232 14:0.0 15:0.0 16:0.0 17:0.06260922345116064 18:0.24903754812259643 19:0.00461401177543965 20:0.7142857142857143 21:0.010849559025652517 22:0.01606733980964191 23:0.9999999999999998 24:0.0 25:1.0 26:1.0 27:0.0 28:0.0 29:0.5555555555555556 30:0.0 31:0.006126211479124793 32:0.24903754812259354 33:0.743248587340286 34:6.425163203437094E-16 35:0.0 36:0.022531160115052733 37:0.9791666666666666 38:0.0 39:0.0 40:1.0 41:0.006762080506834581 42:0.07098765432098765 43:0.22705314009661834 44:0.9791666666666666 45:0.0445859872611465 46:1.0 47:0.03730043460598873 48:0.743248587340286 49:0.014423076923076926 50:0.018246051694774203 51:0.1433290562566116 52:0.08134920634920634 53:0.05555555555555556 54:0.014423076923076924 55:0.0019409430760373798 56:0.939001711135852 57:0.1712724495191837 58:0.197505963265238 59:0.13176338659938325 60:0.1482191141871841 61:0.0 
30.12937530874221 0.0 33.53915729292524 0.0 0.0 0.0 0.0 0:0.0 1:0.0 2:0.0 3:0.0 4:0.0 5:0.017021276595744678 6:0.025034603228478787 7:0.0 8:0.0 9:0.0 10:0.0 11:0.0 12:0.0 13:0.027366240067213114 14:0.0 15:0.0 16:0.0 17:0.08635866214268739 18:0.34803259837008277 19:0.005030175673458108 20:0.8333333333333334 21:0.015162373093267865 22:0.028910354897523582 23:0.9999999999999997 24:1.0 25:0.0 26:0.0 27:0.0 28:0.0 29:0.0 30:0.0 31:0.03694931312174325 32:0.3480325983700813 33:0.529256121525428 34:6.425163203437094E-16 35:0.0 36:0.018216682646212845 37:1.0 38:0.016097560975609757 39:0.868421052631579 40:0.8333333333333333 41:0.01916219778558552 42:0.0 43:0.024154589371980676 44:0.13157894736842105 45:0.03184713375796178 46:0.8333333333333334 47:0.026950023093660038 48:0.529256121525428 49:0.01201923076923077 50:0.01954886388096276 51:0.11511942049407746 52:0.07407407407407407 53:0.08333333333333331 54:0.01201923076923077 55:0.0018798119592351975 56:0.7535965609091705 57:0.13300299653342212 58:0.18162735653140094 59:0.12307766134511298 60:0.17084745522037711 61:0.0 
0.0 50.62834493210142 0.0 0.0 0.0 0.0 4.965100648299039 0:0.0 1:0.0 2:0.0 3:0.25 4:0.0 5:0.05815602836879432 6:0.03393211945268403 7:0.034482758620689655 8:0.09094736842105264 9:0.0 10:0.0 11:0.0 12:0.0 13:0.029901103782712067 14:0.0 15:0.0 16:0.0 17:0.19490974911644404 18:0.30003499825008967 19:0.02052396230787562 20:0.75 21:0.044437232218899295 22:0.04875980707065197 23:0.9999999999999998 24:0.0 25:1.0 26:0.0 27:0.0 28:0.0 29:0.5555555555555556 30:0.029411764705882353 31:0.024442161344103555 32:0.30003499825008767 33:0.7391247625182443 34:6.425163203437094E-16 35:0.00447873368406518 36:0.05896452540747842 37:0.984 38:0.054634146341463415 39:0.896 40:0.5555555555555556 41:0.03394110284193098 42:0.05476190476190476 43:0.05314009661835749 44:0.088 45:0.07006369426751592 46:0.6875 47:0.04532617708107261 48:0.7412080788643276 49:0.03605769230769231 50:0.023199864016004955 51:0.12095554682139455 52:0.09461805555555555 53:0.09722222222222221 54:0.03605769230769231 55:0.0019898449371649213 56:0.9415293633452956 57:0.07505434889049924 58:0.09069127304782115 59:0.1533350002651937 60:0.1469930970885098 61:0.0 
9.778415491733908 11.636601288398984 0.0 2.427104844953537 0.0 0.0 0.0 0:0.0 1:0.0 2:0.2272727272727273 3:0.0 4:0.0 5:0.08557919621749409 6:0.09664231767183704 7:0.06896551724137931 8:0.12424503882657463 9:0.0 10:0.0 11:0.04838709677419355 12:0.03278688524590164 13:0.04127798366027836 14:0.08695652173913043 15:0.10054644808743171 16:0.0 17:0.5091608824478706 18:0.2795442195103382 19:0.0999796998758937 20:0.5294117647058824 21:0.08134010895300997 22:0.08361372023800911 23:0.9999999999999998 24:0.0 25:1.0 26:0.0 27:1.0 28:0.0 29:0.5555555555555556 30:0.0588235294117647 31:0.05855355631314504 32:0.3117177474459611 33:0.7664810299981246 34:0.05180663878527616 35:0.4338017305791895 36:0.07957813998082454 37:0.907103825136612 38:0.06975609756097562 39:0.7814207650273224 40:0.5555555555555556 41:0.048906210200381946 42:0.1419753086419753 43:0.1111111111111111 44:0.12568306010928962 45:0.12101910828025478 46:0.5588235294117647 47:0.11630579344807816 48:0.9241546464885315 49:0.07932692307692307 50:0.09805423192447997 51:0.0810667036829948 52:0.060866013071895424 53:0.06944444444444445 54:0.07932692307692309 55:0.0015127333173426507 56:0.9343444046761346 57:0.05334025343230381 58:0.039950673900692124 59:0.16098520724256635 60:0.14529093044372818 61:0.0 
0.0 0.0 0.0 5.340748658590153 0.0 0.9222614931844171 0.0 0:0.0 1:0.0 2:0.0 3:0.0 4:0.0 5:0.0028368794326241132 6:0.002869809728963526 7:0.0 8:0.0 9:0.0 10:0.0 11:0.0 12:0.0 13:0.02580016868492063 14:0.0 15:0.0 16:0.0 17:0.10062352493134041 18:0.5010249487525644 19:0.003151998955668655 20:0.5 21:0.02182763119776434 22:0.0256286181495715 23:0.3603002594725243 24:0.0 25:1.0 26:1.0 27:0.0 28:0.0 29:0.0 30:0.0 31:0.009970813404440641 32:0.5010249487525631 33:0.11555067228740806 34:6.425163203437094E-16 35:0.0 36:0.003835091083413231 37:1.0 38:0.0034146341463414634 39:0.875 40:0.0 41:0.14986522558505205 42:0.0 43:0.004830917874396135 44:0.125 45:0.006369426751592357 46:0.5 47:0.04199150821076994 48:0.11555067228740806 49:0.002403846153846154 50:0.0034206210926941297 51:0.07751689805444602 52:0.041666666666666664 53:0.06944444444444445 54:0.002403846153846154 55:0.0019409430760373798 56:0.12813913671948576 57:0.10934409212871386 58:0.10505427293015376 59:0.10808664004626999 60:0.10930206134862565 61:0.0 
0.0 0.0 3.689805694887056 0.0 0.0 0.0 0.0 0:0.0 1:0.0 2:0.0 3:0.0 4:0.0 5:0.03215130023640662 6:0.028930713606407185 7:0.0 8:0.0 9:0.0 10:0.0 11:0.0 12:0.0 13:0.02580016868492063 14:0.0 15:0.0 16:0.0 17:0.3548152523917948 18:0.5010178062525457 19:0.044737902800099885 20:0.6363636363636364 21:0.06230055957673436 22:0.07161202319050758 23:0.6609907051965592 24:1.0 25:0.0 26:0.0 27:0.0 28:0.0 29:0.0 30:0.029411764705882353 31:0.03367919194388839 32:0.502074896255188 33:0.6159430777635538 34:0.03931276138804169 35:0.19253076938246505 36:0.032598274209012464 37:0.9714285714285714 38:0.029268292682926828 39:0.8571428571428571 40:0.8333333333333333 41:0.05015004142458229 42:0.0 43:0.03864734299516908 44:0.11428571428571428 45:0.0445859872611465 46:0.6363636363636364 47:0.01614191193246628 48:0.719679797131465 49:0.024038461538461543 50:0.025096979400127173 51:0.1483569365267114 52:0.07449494949494948 53:0.08333333333333331 54:0.02403846153846154 55:0.0017825657660915921 56:0.7980922142246425 57:0.2543665171664154 58:0.24782896847376196 59:0.10808664004626999 60:0.10930206134862565 61:0.0 
13.249030933202356 1.0621740222970937 0.0 0.0 0.0 0.0 0.0 0:0.0 1:0.0 2:0.0 3:1.0 4:0.0 5:0.017494089834515364 6:0.015300170334871232 7:0.0 8:0.0 9:0.0 10:0.0 11:0.0 12:0.0 13:0.022262219102296383 14:0.0 15:0.0 16:0.0 17:0.08536462830838208 18:0.40002999850007687 19:0.005450160344861152 20:0.7142857142857143 21:0.017427689573227455 22:0.017956688256495212 23:1.0 24:0.0 25:1.0 26:1.0 27:0.0 28:0.0 29:1.0 30:0.0 31:0.01348316578065512 32:0.4000299985000752 33:0.5691571334219389 34:6.425163203437094E-16 35:0.0 36:0.018216682646212845 37:0.9743589743589743 38:0.015121951219512195 39:0.7948717948717948 40:0.2777777777777778 41:0.019370176438907837 42:0.0851851851851852 43:0.033816425120772944 44:0.1794871794871795 45:0.0445859872611465 46:1.0 47:0.03520391980100493 48:0.5691571334219389 49:0.014423076923076926 50:0.014272589278412835 51:0.10390956459859065 52:0.06349206349206349 53:0.05555555555555556 54:0.014423076923076924 55:0.0016957838512879394 56:0.5696528443143852 57:0.2409996278814705 58:0.20626399687630564 59:0.10893273424812532 60:0.10051121986710952 61:0.0 
0.0 14.830216869801335 0.0 0.0 0.0 0.0 0.0 0:0.0 1:0.0 2:0.0 3:0.0 4:0.0 5:0.02553191489361702 6:0.02234055671043766 7:0.05172413793103448 8:0.3045112781954887 9:0.0 10:0.0 11:0.0 12:0.0 13:0.021227697495745445 14:0.0 15:0.0 16:0.0 17:0.10523963014738237 18:0.20003999800010247 19:0.004950677071810643 20:0.5 21:0.008749784903843903 22:0.00787872757162241 23:0.9999999999999998 24:0.0 25:0.0 26:0.0 27:0.0 28:0.0 29:0.5 30:0.0 31:0.011605873993368073 32:0.20083995800210103 33:0.5469439257670763 34:6.425163203437094E-16 35:0.0 36:0.024928092042186 37:0.9285714285714286 38:0.02146341463414634 39:0.7857142857142857 40:0.2777777777777778 41:0.011200205633023212 42:0.24338624338624337 43:0.03864734299516908 44:0.14285714285714285 45:0.025477707006369428 46:0.5 47:0.049106024941152834 48:0.5469439257670763 49:0.01682692307692308 50:0.01637534701717011 51:0.08335289376120969 52:0.08333333333333331 53:0.08333333333333331 54:0.01682692307692308 55:0.0019409430760373798 56:0.574313773517741 57:0.1456706946865391 58:0.13019742778149154 59:0.41184329830250765 60:0.35737727428875754 61:0.0 
0.0 0.0 25.453255220201513 0.0 0.0 0.0 0.0 0:0.0 1:0.0 2:0.0 3:0.5 4:0.0 5:0.01276595744680851 6:0.011311243739938309 7:0.017241379310344827 8:0.19600725952813067 9:0.0 10:0.0 11:0.0 12:0.0 13:0.03733994284860133 14:0.0 15:0.0 16:0.0 17:0.049076083032282725 18:0.30003499825008967 19:0.0035643686481586735 20:0.5 21:0.013071311727151352 22:0.0142276214117772 23:0.9999999999999998 24:0.0 25:1.0 26:1.0 27:0.0 28:0.0 29:0.5555555555555556 30:0.0 31:0.020446608573033834 32:0.30003499825008767 33:0.49231496807755976 34:6.425163203437094E-16 35:0.0 36:0.013422818791946308 37:0.9655172413793104 38:0.0 39:0.0 40:0.5555555555555556 41:0.01894800739079862 42:0.11979166666666667 43:0.13526570048309178 44:0.9655172413793104 45:0.025477707006369428 46:1.0 47:0.03928287229484199 48:0.49231496807755976 49:0.007211538461538462 50:0.007803117935678413 51:0.17231842208281525 52:0.08680555555555555 53:0.125 54:0.007211538461538462 55:0.0021693983222456402 56:0.5441698908594762 57:0.27562231927769837 58:0.2676987551151818 59:0.10417566431023116 60:0.0996052965693696 61:0.0 
0.0 0.0 11.956627118565903 0.0 0.0 0.0 0.0 0:0.0 1:0.0 2:0.0 3:0.3333333333333333 4:0.0 5:0.034042553191489355 6:0.03685958094332748 7:0.034482758620689655 8:0.15362731152204837 9:0.0 10:0.0 11:0.0 12:0.0 13:0.02965533345629387 14:0.0 15:0.0 16:0.0 17:0.31192124481212063 18:0.2490375481225971 19:0.025202621766269584 20:0.6363636363636364 21:0.038425430791314295 22:0.05323193664943361 23:1.0 24:0.0 25:1.0 26:1.0 27:0.0 28:0.0 29:0.0 30:0.029411764705882353 31:0.06362661746740132 32:0.249037548122595 33:0.5612723314389152 34:0.11868429976263194 35:0.09223912581429007 36:0.03451581975071908 37:0.972972972972973 38:0.0 39:0.0 40:0.5555555555555556 41:0.03499733706273739 42:0.09126984126984126 43:0.34782608695652173 44:0.972972972972973 45:0.07006369426751592 46:1.0 47:0.039090888855500376 48:0.6469859182491988 49:0.024038461538461543 50:0.027794263804898252 51:0.13826087021573868 52:0.07954545454545456 53:0.09722222222222221 54:0.02403846153846154 55:0.0018481716057603137 56:0.9009276211002716 57:0.217571828668795 58:0.2806104388823268 59:0.16555664158691913 60:0.1924495985260998 61:0.0 
0.0 2.1885514213001773 0.0 0.0 0.0 0.10537406529691414 0.0 0:0.0 1:0.0 2:0.0 3:0.0 4:0.0 5:0.008037825059101654 6:0.008019496773877548 7:0.0 8:0.0 9:0.0 10:0.0 11:0.0 12:0.0 13:0.02661749790998552 14:0.0 15:0.0 16:0.0 17:0.2520324366779609 18:0.45002749862507047 19:0.008054875600870787 20:0.5 21:0.0196058784962655 22:0.019489411123075694 23:0.21418486978549245 24:0.0 25:1.0 26:1.0 27:0.0 28:0.0 29:0.5 30:0.0 31:0.006677983051739564 32:0.4500274986250689 33:0.3151821169103318 34:6.425163203437094E-16 35:0.0 36:0.00862895493767977 37:0.9473684210526315 38:0.007317073170731707 39:0.7894736842105263 40:0.33333333333333337 41:0.047846177802872904 42:0.17424242424242425 43:0.014492753623188404 44:0.15789473684210525 45:0.019108280254777073 46:0.75 47:0.2004654902811861 48:0.3151821169103318 49:0.007211538461538462 50:0.009029713316444705 51:0.08813007926185797 52:0.052083333333333336 53:0.08333333333333331 54:0.007211538461538462 55:0.0016655656586864861 56:0.3353727272170616 57:0.676609412640279 58:0.6354525299972074 59:0.11827386680204173 60:0.10623772518706144 61:0.0 
0.0 0.0 0.0 0.0 10.924142879963295 0.0 0.0 0:0.0 1:0.0 2:0.0 3:0.0 4:0.0 5:0.013238770685579196 6:0.015061244394364237 7:0.0 8:0.0 9:0.0 10:0.0 11:0.0 12:0.0 13:0.07229648508984511 14:0.0 15:0.0 16:0.0 17:0.09186450673189421 18:0.35003249837508327 19:0.0046411822748320215 20:0.8333333333333334 21:0.015249500650189401 22:0.031679423106531 23:0.9999999999999998 24:0.0 25:1.0 26:1.0 27:0.0 28:0.0 29:0.0 30:0.0 31:0.03875955877377005 32:0.3500324983750814 33:0.42593830774374 34:6.425163203437094E-16 35:0.0 36:0.014381591562799615 37:1.0 38:0.01121951219512195 39:0.7666666666666667 40:0.0 41:0.026687812368478427 42:0.0 43:0.033816425120772944 44:0.23333333333333334 45:0.019108280254777073 46:0.5 47:0.03413131667250958 48:0.42593830774374 49:0.01201923076923077 50:0.015201744554333577 51:0.08933858062220579 52:0.05555555555555556 53:0.05555555555555556 54:0.01201923076923077 55:0.0016030123810108737 56:0.4535572551093141 57:0.07773360230321784 58:0.06860980737113279 59:0.07299646155827821 60:0.1126024012190843 61:0.0 
0.0 0.0 46.18885213318916 8.596317127836839 129.06722021327957 0.3207578978268219 35.946843767672526 0:0.0 1:0.0 2:0.0 3:0.0 4:0.0 5:0.01654846335697399 6:0.01367133279831087 7:0.0 8:0.0 9:0.0 10:0.0 11:0.0 12:0.0 13:0.11539488384231386 14:0.0 15:0.0 16:0.0 17:0.42809873546628446 18:0.2023371804382778 19:0.012738698035485689 20:0.625 21:0.01600968858432969 22:0.018427141740957755 23:0.9999999999999998 24:0.0 25:0.0 26:0.0 27:0.0 28:0.0 29:0.0 30:0.0 31:0.011605873993368073 32:0.3674816259187044 33:0.37693756574065773 34:6.425163203437094E-16 35:0.0 36:0.01725790987535954 37:0.972972972972973 38:0.014146341463414635 39:0.7837837837837838 40:0.0 41:0.03276009788970557 42:0.0 43:0.033816425120772944 44:0.1891891891891892 45:0.025477707006369428 46:0.5 47:0.05511176775012098 48:0.37693756574065773 49:0.01682692307692308 50:0.016823952896168372 51:0.05263446634907583 52:0.05034722222222222 53:0.05555555555555556 54:0.01682692307692308 55:0.0014582864876131567 56:0.4140381606644557 57:0.09112986936681096 58:0.08573765688735721 59:0.04280352682371184 60:0.044356453913078166 61:0.0 
0.0 0.0 71.60741176973302 0.0 0.0 0.0 0.0 0:0.0 1:0.0 2:0.0 3:1.0 4:0.0 5:0.021749408983451533 6:0.01829551627393274 7:0.0 8:0.0 9:0.0 10:0.0 11:0.0 12:0.0 13:0.01660378600569216 14:0.0 15:0.0 16:0.0 17:0.07222397987559757 18:0.24903754812259687 19:0.005030211184949083 20:0.625 21:0.010849559025652548 22:0.01616008310734924 23:0.9999999999999998 24:0.0 25:1.0 26:1.0 27:0.0 28:0.0 29:0.0 30:0.0 31:0.018927311963787573 32:0.2490375481225942 33:0.7534837452401725 34:6.425163203437094E-16 35:0.0 36:0.023010546500479387 37:1.0 38:0.0 39:0.0 40:0.5555555555555556 41:0.006505791978207699 42:0.0 43:0.23188405797101447 44:1.0 45:0.050955414012738856 46:1.0 47:0.01780298603807387 48:0.7534837452401725 49:0.01682692307692308 50:0.017675714902821736 51:0.12425110338446994 52:0.06944444444444445 53:0.08333333333333331 54:0.01682692307692308 55:0.0017583371289635519 56:0.9518114669025964 57:0.1664544938208739 58:0.19209262907153346 59:0.12918721917880874 60:0.14592174556447868 61:0.0 
0.0 7.147095163398992 0.0 0.0 0.0 0.0 0.0 0:0.0 1:0.25 2:0.0 3:0.0 4:0.0 5:0.03877068557919621 6:0.023646037682101655 7:0.0 8:0.0 9:0.0 10:0.0 11:0.0 12:0.0 13:0.03432782745273217 14:0.0 15:0.0 16:0.0 17:0.619499618254492 18:0.30003499825008967 19:0.06405341137055622 20:0.7692307692307693 21:0.044437232218899295 22:0.04881774601083251 23:0.9999999999999998 24:0.0 25:1.0 26:0.0 27:0.0 28:0.0 29:0.5555555555555556 30:0.029411764705882353 31:0.025989988093256693 32:0.30003499825008767 33:0.5064497190988332 34:6.425163203437094E-16 35:0.6025342971521477 36:0.040268456375838924 37:1.0 38:0.03609756097560975 39:0.8809523809523809 40:0.5555555555555556 41:0.03130726112267205 42:0.0 43:0.04830917874396135 44:0.11904761904761904 45:0.06369426751592357 46:0.7692307692307693 47:0.04748112162846467 48:0.7867230371572314 49:0.028846153846153848 50:0.019293087894925745 51:0.09795423194466503 52:0.07585470085470086 53:0.09722222222222221 54:0.028846153846153848 55:0.0017825657660915921 56:0.9990884660721319 57:0.07505434889049924 58:0.09067548035175002 59:0.1533350002651937 60:0.14714218859245484 61:0.0 
0.0 0.0 29.04436200144158 0.9497787834427935 0.9618679944885825 0.0 218.0477852301748 0:1.0 1:0.0 2:0.0 3:0.0 4:0.0 5:0.022695035460992906 6:0.016711610137988366 7:0.017241379310344827 8:0.11368421052631579 9:0.0 10:0.0 11:0.0 12:0.0 13:0.003556646469536982 14:0.0 15:0.0 16:0.0 17:0.18830603171906626 18:0.15922203889805753 19:0.006459244877590661 20:0.7142857142857143 21:0.008758497659535971 22:0.01324369869309345 23:0.9999999999999998 24:0.0 25:1.0 26:0.0 27:0.0 28:1.0 29:0.2777777777777778 30:0.0 31:0.003158060950576346 32:0.2010399480025991 33:0.46809386746683423 34:6.425163203437094E-16 35:0.0 36:0.023010546500479387 37:0.96 38:0.02146341463414634 39:0.88 40:0.5555555555555556 41:0.015073054891010827 42:0.1369047619047619 43:0.01932367149758454 44:0.08 45:0.025477707006369428 46:0.5714285714285714 47:0.011094695135863017 48:0.46809386746683423 49:0.014423076923076926 50:0.012686882133969585 51:0.08342348484029985 52:0.08531746031746032 53:0.08333333333333331 54:0.014423076923076924 55:0.0019898449371649213 56:0.6036919566594926 57:0.07773360230321784 58:0.0958173988831571 59:0.28133516190707103 60:0.3079502671549044 61:0.0 
14.162540039726482 38.495541878255885 0.0 28.82129429306618 0.0 0.0 0.0 0:0.0 1:0.0 2:0.0 3:0.0 4:0.0 5:0.009929078014184398 6:0.009654111013688255 7:0.0 8:0.0 9:0.0 10:0.0 11:0.0 12:0.0 13:0.02226221910229634 14:0.0 15:0.0 16:0.0 17:0.1282324102012154 18:0.40002999850007687 19:0.005233619164121104 20:0.6666666666666666 21:0.017427689573227455 22:0.01795668825649522 23:0.9999999999999998 24:0.0 25:1.0 26:0.0 27:0.0 28:0.0 29:1.0 30:0.0 31:0.01348316578065512 32:0.4000299985000752 33:0.3480116763561942 34:6.425163203437094E-16 35:0.0 36:0.01102588686481304 37:1.0 38:0.00878048780487805 39:0.782608695652174 40:0.2777777777777778 41:0.038741069967545 42:0.0 43:0.024154589371980676 44:0.21739130434782608 45:0.03184713375796178 46:0.8333333333333334 47:0.03520531098534797 48:0.3480116763561942 49:0.01201923076923077 50:0.01265074039858711 51:0.06850303490324869 52:0.03935185185185185 53:0.041666666666666664 54:0.01201923076923077 55:0.0013029617396604785 56:0.34765021164032905 57:0.3332928572827514 58:0.2884953133429002 59:0.0911129800953182 60:0.08442172532850524 61:0.0 
0.0 34.96014755624049 20.37478910951426 7.0944000895265695 28.11303828927877 0.0 3.372570033644594 0:0.0 1:0.5 2:0.045454545454545456 3:0.0 4:0.0 5:0.07943262411347517 6:0.10699846122935325 7:0.06896551724137931 8:0.13374613003095975 9:0.0 10:0.0 11:0.03225806451612903 12:0.023529411764705882 13:0.046630632746106536 14:0.0 15:0.0 16:0.0 17:0.8155745536310016 18:0.19979706897008176 19:0.18851435182149126 20:0.6551724137931034 21:0.11040804013095272 22:0.11661625685081115 23:0.9999999999999998 24:0.0 25:0.0 26:0.0 27:0.0 28:0.0 29:0.0 30:0.08823529411764705 31:0.1644344917675093 32:0.22642617869106546 33:0.5097923002910936 34:6.425163203437094E-16 35:0.6587485401387881 36:0.07670182166826461 37:0.9411764705882353 38:0.06731707317073171 39:0.8117647058823529 40:0.5555555555555556 41:0.07582346547634392 42:0.07744107744107745 43:0.10628019323671498 44:0.12941176470588237 45:0.14012738853503184 46:0.7586206896551724 47:0.08601136319371401 48:0.838911946249623 49:0.0673076923076923 50:0.09983884053491697 51:0.08724901209986378 52:0.0675287356321839 53:0.05555555555555556 54:0.06730769230769232 55:0.0016166637975589444 56:0.9879570428591541 57:0.12003760355666974 58:0.12655674433174713 59:0.08053301409062553 60:0.0756769169164174 61:0.0 
42.44030743089541 38.92525183111949 245.17164956604606 0.0 73.55436766056428 5.46003717403993 135.36217841618293 0:0.0 1:0.0 2:0.0 3:0.0 4:0.0 5:0.025059101654846334 6:0.029288365535191863 7:0.034482758620689655 8:0.2066985645933014 9:0.0 10:0.0 11:0.0 12:0.0 13:0.0377428918721474 14:0.0 15:0.0 16:0.0 17:0.09438086938455137 18:0.15004249787510887 19:0.004095447757392183 20:0.625 21:0.006593377870036211 22:0.011106229826704209 23:0.9999999999999998 24:0.0 25:0.0 26:0.0 27:0.0 28:0.0 29:0.5 30:0.0 31:0.027093531238486235 32:0.1513424328783568 33:0.4676433655955187 34:6.425163203437094E-16 35:0.0 36:0.024928092042186 37:0.9454545454545454 38:0.023414634146341463 39:0.8727272727272727 40:0.33333333333333337 41:0.012360692048688685 42:0.18548387096774194 43:0.01932367149758454 44:0.07272727272727272 45:0.025477707006369428 46:0.5 47:0.06444800587636258 48:0.4676433655955187 49:0.01682692307692308 50:0.02272564400117063 51:0.07068792490049648 52:0.08159722222222221 53:0.08333333333333331 54:0.01682692307692308 55:0.0019194281693571292 56:0.591686529343933 57:0.30370747566540673 58:0.34565741969391645 59:0.24469549448523378 60:0.27507564290124925 61:0.0 
0.0 0.0 0.0 28.287232325448432 150.32196373693748 0.0 0.0 0:0.0 1:0.0 2:0.0 3:0.0 4:0.0 5:0.010401891252955082 6:0.009072118035279866 7:0.0 8:0.0 9:0.0 10:0.0 11:0.0 12:0.0 13:0.04324700406611696 14:0.0 15:0.0 16:0.0 17:0.1076729448464828 18:0.35003249837508327 19:0.00433580975694922 20:0.8 21:0.015249500650189401 22:0.015634352263249322 23:0.9999999999999998 24:0.0 25:0.0 26:0.0 27:0.0 28:0.0 29:0.0 30:0.0 31:0.005107556268143668 32:0.3500324983750814 33:0.3148131538392545 34:6.425163203437094E-16 35:0.0 36:0.011505273250239693 37:1.0 38:0.00975609756097561 39:0.8333333333333334 40:1.0 41:0.039858089047285016 42:0.0 43:0.01932367149758454 44:0.16666666666666666 45:0.025477707006369428 46:0.8 47:0.053056988475428855 48:0.3148131538392545 49:0.009615384615384616 50:0.00948428182722034 51:0.07768179344109788 52:0.05277777777777778 53:0.041666666666666664 54:0.009615384615384616 55:0.0016030123810108737 56:0.31432156995496696 57:0.033114632092285406 58:0.021002464485440367 59:0.11738609930367709 60:0.10798466098809159 61:0.0 
512.0 22.7809667607931 457.3173642307282 3.4379375138940187 46.20724808005566 1.8097042958452665 0.0 0:0.0 1:0.0 2:0.09090909090909091 3:0.5 4:0.0 5:0.00851063829787234 6:0.006921264916885724 7:0.0 8:0.0 9:0.0 10:0.0 11:0.016129032258064516 12:0.1 13:0.04789377791211619 14:0.0 15:0.0 16:0.0 17:0.3707075892061403 18:0.2799360031998424 19:0.009504610519910918 20:0.16666666666666666 21:0.018353419865518618 22:0.01795104025580104 23:0.9999999999999998 24:1.0 25:0.0 26:0.0 27:0.0 28:0.0 29:0.5555555555555556 30:0.0 31:0.01753731719362609 32:0.4212789360531974 33:0.2756663758449459 34:6.425163203437094E-16 35:0.0 36:0.00862895493767977 37:0.9 38:0.006341463414634147 39:0.65 40:0.8333333333333333 41:0.05339946668817758 42:0.0 43:0.024154589371980676 44:0.25 45:0.03184713375796178 46:0.8333333333333334 47:0.04971397249906787 48:0.2756663758449459 49:0.01201923076923077 50:0.010491475210246426 51:0.05086351288565229 52:0.032407407407407406 53:0.027777777777777776 54:0.01201923076923077 55:0.0011505739851881043 56:0.32661178124723733 57:0.3797371668070272 58:0.39946829335489054 59:0.14096813381926923 60:0.12516922265695465 61:0.0 
127.61289108602696 91.21891710384989 56.55075502354092 7.15686921351538 28.418109043509162 3.359437100495133 16.73234334260634 0:0.0 1:0.0 2:0.0 3:0.5 4:0.0 5:0.008037825059101654 6:0.0057891569717494285 7:0.017241379310344827 8:0.29916897506925205 9:0.0 10:0.0 11:0.0 12:0.0 13:0.01790408250011391 14:0.0 15:0.0 16:0.0 17:0.14161473652973125 18:0.17504124793760567 19:0.0034283191676407416 20:0.5 21:0.00771950154324675 22:0.008690593028864475 23:0.9999999999999998 24:0.0 25:0.0 26:0.0 27:0.0 28:0.0 29:0.5 30:0.0 31:0.0046364282330649004 32:0.17719114044297551 33:0.18424303454798974 34:6.425163203437094E-16 35:0.0 36:0.008149568552253116 37:0.8947368421052632 38:0.005365853658536585 39:0.5789473684210527 40:0.2777777777777778 41:0.051015232939276664 42:0.3484848484848485 43:0.02898550724637681 44:0.3157894736842105 45:0.025477707006369428 46:1.0 47:0.03750493870441786 48:0.18424303454798974 49:0.007211538461538462 50:0.006158769055665632 51:0.052581173163275804 52:0.052083333333333336 53:0.05555555555555556 54:0.007211538461538462 55:0.0016655656586864861 56:0.19583505313682076 57:0.18349360543684756 58:0.16876913041139782 59:0.34482632337972957 60:0.3272413926658978 61:0.0 
0.0 0.0 512.0 0.0 21.719551241307645 0.0 0.0 0:0.0 1:0.0 2:0.0 3:1.0 4:0.25 5:0.005200945626477541 6:0.004791351028682873 7:0.0 8:0.0 9:0.0 10:0.0 11:0.0 12:0.0 13:0.0255658295364754 14:0.0 15:0.0 16:0.0 17:0.08703139570653112 18:0.22503874806259933 19:0.003008594085237006 20:1.0 21:0.009804028342594275 22:0.013433757438125941 23:0.9999999999999998 24:0.0 25:0.0 26:0.0 27:0.0 28:0.0 29:0.0 30:0.0 31:0.007878897650959957 32:0.2250387480625971 33:0.1826672972333886 34:6.425163203437094E-16 35:0.0 36:0.0062320230105465 37:1.0 38:0.0 39:0.0 40:0.0 41:0.05793966192013143 42:0.0 43:0.06280193236714976 44:1.0 45:0.012738853503184714 46:1.0 47:0.011382670294875368 48:0.1826672972333886 49:0.002403846153846154 50:0.0035319375919386506 51:0.12692124873771557 52:0.0763888888888889 53:0.08333333333333331 54:0.002403846153846154 55:0.002535054803264757 56:0.21138197110793386 57:0.37092970876828774 58:0.37969885097956774 59:0.04297905979991766 60:0.048994876407162824 61:0.0 
0.0 0.0 0.0 0.0 0.0 0.15299100523613574 0.0 0:0.0 1:0.0 2:0.0 3:0.0 4:0.0 5:0.03073286052009456 6:0.030680796621914155 7:0.0 8:0.0 9:0.0 10:0.0 11:0.0 12:0.0 13:0.035010840336615216 14:0.021739130434782608 15:0.06865671641791045 16:0.0 17:0.784995660752667 18:0.37503124843758 19:0.11078723114398986 20:0.5833333333333334 21:0.05397769970180598 22:0.05459390071254669 23:0.9999999999999998 24:0.0 25:0.0 26:1.0 27:1.0 28:0.0 29:0.5555555555555556 30:0.029411764705882353 31:0.030140627982776787 32:0.3750312484375787 33:0.5062214104581665 34:6.425163203437094E-16 35:0.9272381069242887 36:0.0311601150527325 37:0.9701492537313433 38:0.03121951219512195 39:0.9552238805970149 40:1.0 41:0.030495988069499498 42:0.049145299145299144 43:0.004830917874396135 44:0.014925373134328358 45:0.006369426751592357 46:0.08333333333333333 47:0.04511193469224212 48:0.9375331251375968 49:0.026442307692307696 50:0.031566608070079216 51:0.10283899854266647 52:0.06365740740740741 53:0.05555555555555556 54:0.026442307692307696 55:0.0016203629827818663 56:0.9936841398541371 57:0.07773360230321784 58:0.06789380637127126 59:0.12055705831988421 60:0.10799648460115066 61:0.0 
0.0 0.0 23.09695307440416 0.0 25.522661010678416 0.0 1.9311913650853973 0:0.0 1:0.0 2:0.0 3:0.5 4:0.0 5:0.040661938534278956 6:0.034924627168900914 7:0.0 8:0.0 9:0.0 10:0.0 11:0.0 12:0.0 13:0.03434211642519837 14:0.0 15:0.0 16:0.0 17:0.32870000240213565 18:0.35003249837508327 19:0.032336726492929235 20:0.7857142857142857 21:0.05010705798556733 22:0.052142784734878364 23:1.0 24:0.0 25:0.0 26:0.0 27:0.0 28:0.0 29:0.0 30:0.029411764705882353 31:0.04750907942523291 32:0.3500324983750814 33:0.590705799854861 34:0.0901859387362954 35:0.06941818094171713 36:0.04218600191754554 37:1.0 38:0.03804878048780488 39:0.8863636363636364 40:1.0 41:0.045031945009697275 42:0.0 43:0.04830917874396135 44:0.11363636363636363 45:0.06369426751592357 46:0.7142857142857143 47:0.04633061217675824 48:0.6555250691041333 49:0.03125000000000001 50:0.030243432271662866 51:0.10871916265656899 52:0.0734126984126984 53:0.08333333333333331 54:0.03125 55:0.001743207259291844 56:0.6563194251582536 57:0.21368416929434575 58:0.18191095530411847 59:0.10554204330486919 60:0.09731750818914292 61:0.0 
0.0 0.0 0.0 0.0 0.0 0.08398650903218244 0.0 0:0.0 1:0.0 2:0.0 3:0.0 4:0.0 5:0.02742316784869976 6:0.036496782474052115 7:0.0 8:0.0 9:0.0 10:0.0 11:0.06451612903225806 12:0.13333333333333333 13:0.02485995429664647 14:0.0 15:0.0 16:0.0 17:0.5695484984001795 18:0.34803259837008343 19:0.062485167109143605 20:0.5454545454545454 21:0.047573824268074084 22:0.06460817096297693 23:0.9999999999999998 24:0.0 25:1.0 26:1.0 27:0.0 28:0.0 29:0.0 30:0.029411764705882353 31:0.07272828600886114 32:0.3480325983700813 33:0.49810014595445257 34:6.425163203437094E-16 35:0.6296477269988322 36:0.023489932885906038 37:0.8166666666666667 38:0.0 39:0.0 40:0.5555555555555556 41:0.033452803099317086 42:0.0 43:0.23671497584541062 44:0.8166666666666667 45:0.050955414012738856 46:0.7272727272727273 47:0.028982543418863266 48:0.7909854779396777 49:0.024038461538461543 50:0.03677599033565734 51:0.12040394809884931 52:0.06186868686868686 53:0.041666666666666664 54:0.02403846153846154 55:0.0016030123810108737 56:0.9758767423804053 57:0.14833819698779843 58:0.1664279991030103 59:0.19024491270075797 60:0.21852086657543054 61:0.25 
0.0 0.0 2.5618820239085376 0.0 0.0 0.0 0.0 0:0.0 1:0.0 2:0.0 3:1.0 4:0.25 5:0.014184397163120567 6:0.015687130438251245 7:0.0 8:0.0 9:0.0 10:0.0 11:0.0 12:0.0 13:0.023256731585941968 14:0.0 15:0.0 16:0.0 17:0.03855303769231074 18:0.22173891305434917 19:0.003096259882635169 20:1.0 21:0.009660267873673758 22:0.009665466209592676 23:0.9999999999999998 24:0.0 25:1.0 26:1.0 27:0.0 28:0.0 29:0.0 30:0.0 31:0.02211412924171876 32:0.2217389130543474 33:0.4813459609755303 34:6.425163203437094E-16 35:0.0 36:0.015340364333652923 37:1.0 38:0.0 39:0.0 40:0.5555555555555556 41:0.01544705048994938 42:0.0 43:0.15458937198067632 44:1.0 45:0.019108280254777073 46:1.0 47:0.02295454166040626 48:0.4813459609755303 49:0.004807692307692308 50:0.0077671825241325265 51:0.23201906851087215 52:0.13425925925925924 53:0.16666666666666666 54:0.004807692307692308 55:0.002796127266761648 56:0.5593868003347999 57:0.33978338784543377 58:0.3503433650076098 59:0.08871613413245036 60:0.08166010318652243 61:0.0 
13.465819385197143 0.0 0.0 3.7393490240276455 0.0 0.0 0.0 0:0.0 1:0.0 2:0.0 3:0.0 4:0.0 5:0.03073286052009456 6:0.035246568300338815 7:0.0 8:0.0 9:0.0 10:0.0 11:0.0 12:0.0 13:0.01973021318129067 14:0.043478260869565216 15:0.1373134328358209 16:0.0 17:0.2955814827430014 18:0.24902486218972936 19:0.0211375425679311 20:0.6666666666666666 21:0.041193908912495594 22:0.05586982671968005 23:0.9999999999999998 24:0.0 25:0.0 26:0.0 27:0.0 28:0.0 29:0.5555555555555556 30:0.029411764705882353 31:0.06571754132152048 32:0.2493125343732812 33:0.5019080079255714 34:0.04001356391997356 35:0.03123719540119049 36:0.02972195589645254 37:0.9253731343283582 38:0.0 39:0.0 40:1.0 41:0.04818161914111993 42:0.14743589743589744 43:0.2995169082125604 44:0.9253731343283582 45:0.06369426751592357 46:0.8333333333333334 47:0.03480743226323428 48:0.5308705897701421 49:0.026442307692307696 50:0.034327464748188055 51:0.10871744592929536 52:0.06365740740740741 53:0.06944444444444445 54:0.026442307692307696 55:0.0016203629827818663 56:0.6713923275117569 57:0.2733896081004329 58:0.3117576999882234 59:0.12917332807997234 60:0.14923996699615955 61:0.0 
17.507653184173577 0.0 0.0 0.0 0.0 0.0 0.0 0:0.0 1:0.0 2:0.0 3:0.0 4:0.0 5:0.024586288416075647 6:0.02957209354281986 7:0.0 8:0.0 9:0.0 10:0.0 11:0.0 12:0.0 13:0.01061670654236603 14:0.043478260869565216 15:0.1703703703703704 16:0.0 17:0.6258518879916758 18:0.24902088228922142 19:0.04870677314903829 20:0.5555555555555556 21:0.03844939086946767 22:0.04873395545883105 23:0.9999999999999998 24:0.0 25:1.0 26:0.0 27:0.0 28:0.0 29:0.5555555555555556 30:0.029411764705882353 31:0.03367919194388839 32:0.2493125343732812 33:0.39475175512267524 34:0.35537187747258997 35:0.27546184202165297 36:0.023969319271332692 37:0.9259259259259259 38:0.0 39:0.0 40:1.0 41:0.03472893457316223 42:0.12365591397849462 43:0.24154589371980675 44:0.9259259259259259 45:0.050955414012738856 46:0.8888888888888888 47:0.014523964541493425 48:0.6510628582611035 49:0.019230769230769232 50:0.026383617042352002 51:0.11748574244004158 52:0.06944444444444445 53:0.041666666666666664 54:0.019230769230769232 55:0.0017398747842764103 56:0.8227382402957912 57:0.21557413972071526 58:0.24703205015311724 59:0.12917332807997234 60:0.14035104189934308 61:0.0 
0.0 0.0 18.557816577840615 0.0 0.0 0.0 0.0 0:0.0 1:0.0 2:0.0 3:0.0 4:0.0 5:0.030260047281323876 6:0.03412039693889853 7:0.0 8:0.0 9:0.0 10:0.0 11:0.0 12:0.0 13:0.04242110145757218 14:0.0 15:0.0 16:0.0 17:0.10675546072768288 18:0.22263886805659944 19:0.006557017639902589 20:0.7272727272727273 21:0.009699475274288445 22:0.009668970744063426 23:0.9999999999999998 24:0.0 25:1.0 26:1.0 27:0.0 28:0.0 29:0.0 30:0.0 31:0.025989988093256693 32:0.22263886805659733 33:0.821081449107558 34:6.425163203437094E-16 35:0.0 36:0.031639501438159155 37:1.0 38:0.02975609756097561 39:0.9242424242424242 40:0.5555555555555556 41:0.004130336989574247 42:0.0 43:0.024154589371980676 44:0.07575757575757576 45:0.03184713375796178 46:0.45454545454545453 47:0.05331018402586483 48:0.821081449107558 49:0.024038461538461543 50:0.033009653010425695 51:0.09206878768083834 52:0.06944444444444445 53:0.06944444444444445 54:0.02403846153846154 55:0.0017135940849145393 56:0.9647844031762006 57:0.12003760355666974 58:0.12612953652548864 59:0.07642377448937583 60:0.07049570407425787 61:0.0 
0.0 32.91285205471328 68.91742252070313 0.0 0.0 0.0 83.50184558607985 0:0.0 1:0.0 2:0.0 3:0.0 4:0.0 5:0.02647754137115839 6:0.02840140014653079 7:0.06896551724137931 8:0.39201451905626133 9:0.0 10:0.0 11:0.0 12:0.0 13:0.03579101823326837 14:0.0 15:0.0 16:0.0 17:0.11432979115228836 18:0.15004249787510887 19:0.0045650035504123075 20:0.4444444444444444 21:0.006536744958037199 22:0.0114934256077212 23:0.9999999999999998 24:0.0 25:0.0 26:0.0 27:0.0 28:0.0 29:0.2777777777777778 30:0.0 31:0.024944526166197113 32:0.15004249787510643 33:0.48119919113510173 34:6.425163203437094E-16 35:0.0 36:0.025407478427612654 37:0.9137931034482759 38:0.022926829268292682 39:0.8103448275862069 40:0.2777777777777778 41:0.011612957952998177 42:0.29040404040404044 43:0.02898550724637681 44:0.10344827586206896 45:0.038216560509554146 46:0.6666666666666666 47:0.03467526975064406 48:0.48119919113510173 49:0.019230769230769232 50:0.022167015293591705 51:0.06175535127371801 52:0.07561728395061729 53:0.06944444444444445 54:0.019230769230769232 55:0.001823942968632273 56:0.6713945277145639 57:0.18349360543684756 58:0.23877581462637198 59:0.4014199228665166 60:0.45601440943393484 61:0.0 
0.0 0.0 0.0 0.0 17.102152135652926 0.0 0.0 0:0.0 1:0.0 2:0.0 3:1.0 4:0.0 5:4.728132387706855E-4 6:0.0013575597300572487 7:0.0 8:0.0 9:0.0 10:0.0 11:0.0 12:0.0 13:0.024859954296646555 14:0.0 15:0.0 16:0.0 17:0.0 18:0.34803259837008255 19:0.0021530630809738116 20:1.0 21:0.015162373093267834 22:0.02211558749538165 23:0.15691822311963663 24:1.0 25:0.0 26:0.0 27:0.0 28:0.0 29:0.5555555555555556 30:0.0 31:0.024944526166197113 32:0.34803259837008066 33:0.04136871030079671 34:6.425163203437094E-16 35:0.0 36:0.0014381591562799617 37:1.0 38:0.0 39:0.0 40:0.8333333333333333 41:0.2891305739155556 42:0.0 43:0.014492753623188404 44:1.0 45:0.006369426751592357 46:1.0 47:0.0538165751267369 48:0.04136871030079671 49:0.0 50:0.0023873036536659594 51:0.07198381141108992 52:0.027777777777777776 53:0.027777777777777776 54:0.0 55:1.0 56:0.05451469220568876 57:0.6251885074129928 58:0.7051879993781089 59:0.1903585671457833 60:0.21566083474333544 61:0.0 
0.0 0.0 0.0 0.0 9.096192227610507 0.0 0.0 0:0.0 1:0.0 2:0.0 3:1.0 4:0.0 5:0.0028368794326241132 6:0.004441638522728219 7:0.0 8:0.0 9:0.0 10:0.0 11:0.0 12:0.0 13:0.04811382808809519 14:0.0 15:0.0 16:0.0 17:0.0014760770503290453 18:0.34803259837008255 19:0.0021661881280513216 20:1.0 21:0.015162373093267834 22:0.02211558749538165 23:0.04190560323069172 24:1.0 25:0.0 26:0.0 27:0.0 28:0.0 29:0.8333333333333333 30:0.0 31:0.024944526166197113 32:0.34803259837008066 33:0.12963242308852685 34:6.425163203437094E-16 35:0.0 36:0.003835091083413231 37:1.0 38:0.0 39:0.0 40:0.8333333333333333 41:0.10613752876484038 42:0.0 43:0.03864734299516908 44:1.0 45:0.006369426751592357 46:1.0 47:0.0538165751267369 48:0.12963242308852685 49:0.0 50:0.0023873036536659594 51:0.2077215556437681 52:0.09722222222222221 53:0.09722222222222221 54:0.0 55:1.0 56:0.16572212098640066 57:0.7142305959772028 58:0.8047854936844336 59:0.1903585671457833 60:0.21566083474333544 61:0.0 
4.23559411833814 0.0 0.0 0.0 0.0 0.0 0.0 0:0.0 1:0.0 2:0.18181818181818182 3:0.0 4:0.0 5:0.053427895981087464 6:0.044745392837345535 7:0.05172413793103448 8:0.1482837528604119 9:0.0 10:0.0 11:0.03225806451612903 12:0.034782608695652174 13:0.06724104663131336 14:0.0 15:0.0 16:0.0 17:0.36846840901016825 18:0.46437460735659036 19:0.06946182707652346 20:0.6190476190476191 21:0.0897239581177834 22:0.08914557063988993 23:0.9999999999999998 24:0.0 25:1.0 26:0.0 27:0.0 28:0.0 29:1.0 30:0.0588235294117647 31:0.06792462761197957 32:0.49114210956118903 33:0.6101528037116463 34:0.2700614144154332 35:0.22208953523277794 36:0.05177372962607862 37:0.9391304347826087 38:0.04292682926829268 39:0.7652173913043478 40:0.5555555555555556 41:0.06406786711159153 42:0.0851851851851852 43:0.0966183574879227 44:0.17391304347826086 45:0.10828025477707007 46:0.8095238095238095 47:0.14033850297435205 48:0.8049714206505166 49:0.04807692307692308 50:0.04709099212720108 51:0.11137075989122737 52:0.06216931216931217 53:0.05555555555555556 54:0.04807692307692308 55:0.001554110519883332 56:0.8523629485235599 57:0.1415558471572103 58:0.1278355437190408 59:0.12493654293486083 60:0.10941702920137711 61:0.0 
0.0 0.0 8.486063669674586 0.0 5.8303490806546305 0.2561717273230032 0.0 0:0.0 1:0.0 2:0.0 3:1.0 4:0.0 5:0.002364066193853428 6:0.0037802873303648416 7:0.0 8:0.0 9:0.0 10:0.0 11:0.0 12:0.0 13:0.04554752863317075 14:0.0 15:0.0 16:0.0 17:0.0025943020943357585 18:0.34803259837008255 19:0.002170790417286291 20:1.0 21:0.015162373093267834 22:0.022984883741571004 23:0.0 24:0.0 25:0.0 26:0.0 27:0.0 28:0.0 29:0.33333333333333337 30:0.0 31:0.027093531238486235 32:0.34803259837008066 33:0.09594874471017038 34:6.425163203437094E-16 35:0.0 36:0.003355704697986577 37:1.0 38:0.0 39:0.0 40:0.5555555555555556 41:0.14188064238717188 42:0.0 43:0.033816425120772944 44:1.0 45:0.006369426751592357 46:1.0 47:0.11749664724573325 48:0.09594874471017038 49:0.0 50:0.0021687949290429814 51:0.15592057904613812 52:0.08333333333333331 53:0.08333333333333331 54:0.0 55:1.0 56:0.12325694228318465 57:0.8163105427054977 58:0.9187876451413624 59:0.1903585671457833 60:0.221199308768579 61:0.0 
0.0 72.84866628607686 0.0 0.0 0.0 0.0 0.0 0:0.0 1:0.0 2:0.0 3:0.0 4:0.0 5:0.03215130023640662 6:0.01705409696184524 7:0.0 8:0.0 9:0.0 10:0.0 11:0.0 12:0.0 13:0.023028108026483217 14:0.0 15:0.0 16:0.0 17:0.08108474316027366 18:0.2645367731613429 19:0.0055093970630159155 20:0.5555555555555556 21:0.011524797591794318 22:0.014521858054255233 23:0.9999999999999998 24:0.0 25:1.0 26:0.0 27:0.0 28:0.0 29:1.0 30:0.0 31:0.002966065199603808 32:0.26453677316134167 33:0.761592778923851 34:6.425163203437094E-16 35:0.0 36:0.03307766059443912 37:0.9857142857142858 38:0.03024390243902439 39:0.8857142857142857 40:0.5555555555555556 41:0.006838590160005122 42:0.049145299145299144 43:0.033816425120772944 44:0.1 45:0.038216560509554146 46:0.6666666666666666 47:0.024832640523530448 48:0.761592778923851 49:0.019230769230769232 50:0.01105222156073299 51:0.10891633749198694 52:0.0941358024691358 53:0.05555555555555556 54:0.019230769230769232 55:0.0020485727414765956 56:0.8960842939989455 57:0.12015511467126265 58:0.1264877897019856 59:0.1807118304174654 60:0.18453461601263776 61:0.0 
0.0 0.0 0.0 0.0 12.17667354897242 0.0 0.0 0:0.0 1:0.0 2:0.0 3:0.3333333333333333 4:0.0 5:0.03451536643026004 6:0.029651495492496734 7:0.0 8:0.0 9:0.0 10:0.0 11:0.0 12:0.0 13:0.014943407405122934 14:0.0 15:0.0 16:0.0 17:0.6201048483807579 18:0.40002999850007687 19:0.07086657501286384 20:0.8888888888888888 21:0.05445690126487432 22:0.0670279796900768 23:0.9999999999999998 24:0.0 25:1.0 26:1.0 27:0.0 28:0.0 29:0.0 30:0.029411764705882353 31:0.03694931312174325 32:0.4000299985000752 33:0.4706786474343817 34:0.37644399231377906 35:0.291647950497284 36:0.03547459252157239 37:0.9866666666666667 38:0.03414634146341464 39:0.9333333333333333 40:0.2777777777777778 41:0.04196793324125016 42:0.0461847389558233 43:0.01932367149758454 44:0.05333333333333334 45:0.025477707006369428 46:0.4444444444444444 47:0.016648303033338262 48:0.7421192749569883 49:0.019230769230769232 50:0.02041436848017894 51:0.14078740420778438 52:0.10185185185185186 53:0.09722222222222221 54:0.019230769230769232 55:0.002132118426124899 56:0.8597322244807314 57:0.10451242680036822 58:0.10752090099344058 59:0.07202661029406193 60:0.07901762228151897 61:0.0 
0.0 0.41024917545277667 42.29222011045086 0.0 0.0 0.0 0.0 0:0.0 1:0.0 2:0.0 3:0.0 4:0.0 5:0.032624113475177303 6:0.0373973425196149 7:0.0 8:0.0 9:0.0 10:0.0 11:0.0 12:0.0 13:0.015646424850458557 14:0.0 15:0.0 16:0.0 17:0.13112305664803556 18:0.30003499825008967 19:0.009068176268251479 20:0.7333333333333333 21:0.013071311727151352 22:0.01637364012583304 23:0.9999999999999998 24:0.0 25:0.0 26:1.0 27:0.0 28:0.0 29:0.5555555555555556 30:0.0 31:0.028260133992014616 32:0.30003499825008767 33:0.9160639590349067 34:6.425163203437094E-16 35:0.0 36:0.034036433365292426 37:1.0 38:0.02975609756097561 39:0.8591549295774648 40:0.5555555555555556 41:0.0046474268147269765 42:0.0 43:0.04830917874396135 44:0.14084507042253522 45:0.06369426751592357 46:0.6666666666666666 47:0.03266639955927272 48:0.9160639590349067 49:0.03365384615384616 50:0.03980734694261621 51:0.07139194355938135 52:0.05185185185185185 53:0.041666666666666664 54:0.03365384615384616 55:0.0014116464486849964 56:0.9737574149784742 57:0.0779294541608727 58:0.06846105465502442 59:0.14751336702556217 60:0.15166967647764998 61:0.0 
8.624271288834004 1.4627690239642714 6.8267007133306095 0.0 0.0 0.0 0.0 0:0.0 1:0.0 2:0.0 3:1.0 4:0.0 5:9.456264775413711E-4 6:0.0016417733031960883 7:0.0 8:0.0 9:0.0 10:0.0 11:0.0 12:0.0 13:0.015646424850458557 14:0.0 15:0.0 16:0.0 17:0.0 18:0.30003499825008967 19:0.002137911511475962 20:1.0 21:0.013071311727151352 22:0.01637364012583304 23:1.0 24:1.0 25:0.0 26:1.0 27:0.0 28:0.0 29:0.5555555555555556 30:0.0 31:0.028260133992014616 32:0.30003499825008767 33:0.03013266362798746 34:6.425163203437094E-16 35:0.0 36:0.0019175455417066154 37:1.0 38:0.0014634146341463415 39:0.75 40:0.8333333333333333 41:0.33502518197658987 42:0.0 43:0.004830917874396135 44:0.25 45:0.006369426751592357 46:1.0 47:0.0368649939066125 48:0.03013266362798746 49:0.0 50:0.0013505655374435634 51:0.054704279638750575 52:0.041666666666666664 53:0.041666666666666664 54:0.0 55:1.0 56:0.03133592217850645 57:0.0779294541608727 58:0.06846105465502442 59:0.17028340367280653 60:0.17446775694457703 61:0.0 
0.0 1.9877486137928304 1.4275716711004542 2.1175568507815274 10.330277145283972 1.0445115011353971 5.233512382873038 0:0.0 1:0.0 2:0.0 3:0.0 4:0.0 5:9.456264775413711E-4 6:0.0016417733031960883 7:0.0 8:0.0 9:0.0 10:0.0 11:0.0 12:0.0 13:0.015557833221168351 14:0.0 15:0.0 16:0.0 17:0.0 18:0.30003499825008967 19:0.0019295774308805674 20:1.0 21:0.013071311727151352 22:0.01637364012583304 23:0.9999999999999998 24:0.0 25:0.0 26:1.0 27:0.0 28:0.0 29:0.2777777777777778 30:0.0 31:0.028260133992014616 32:0.30003499825008767 33:0.017926305232344893 34:6.425163203437094E-16 35:0.0 36:0.0019175455417066154 37:1.0 38:0.001951219512195122 39:1.0 40:0.7777777777777778 41:0.46059806668605163 42:0.0 43:0.0 44:0.0 45:0.0 46:0.0 47:0.06083649132179203 48:0.017926305232344893 49:0.0 50:0.0013505655374435634 51:0.035932538664010374 52:0.041666666666666664 53:0.041666666666666664 54:0.0 55:1.0 56:0.018351242033993482 57:0.0779294541608727 58:0.06846105465502442 59:0.5817112318373883 60:0.5864023040048825 61:0.0 
0.0 0.0 0.0 0.0 0.0 0.9961401276358172 0.0 0:0.0 1:0.25 2:0.0 3:0.0 4:0.0 5:0.05531914893617021 6:0.0493326035880334 7:0.034482758620689655 8:0.09553295002211411 9:0.0 10:0.0 11:0.0967741935483871 12:0.10084033613445378 13:0.0099679871924018 14:0.0 15:0.0 16:0.0 17:0.25251478445578746 18:0.6000199990000512 19:0.05380452675586016 20:0.48 21:0.10455524649474948 22:0.10401925102163015 23:0.9999999999999998 24:0.0 25:1.0 26:0.0 27:0.0 28:0.0 29:1.0 30:0.0588235294117647 31:0.062292752250118426 32:0.6000199990000501 33:0.705909252751255 34:0.11293470479635348 35:0.12526430883103737 36:0.04889741131351869 37:0.8571428571428571 38:0.04878048780487805 39:0.8403361344537815 40:0.5555555555555556 41:0.07703504035130224 42:0.13403263403263405 43:0.00966183574879227 44:0.01680672268907563 45:0.012738853503184714 46:0.08 47:0.10046159496502557 48:0.787377386029142 49:0.057692307692307696 50:0.05543174525714857 51:0.10476413650736054 52:0.05222222222222222 53:0.041666666666666664 54:0.057692307692307696 55:0.0013863627679716534 56:0.838558381933988 57:0.15114475410799272 58:0.1380053348744855 59:0.10898451016197021 60:0.09562000468312132 61:0.16666666666666666 
0.0 0.0 0.0 0.0 0.35596102039403255 0.0 0.0 0:0.0 1:0.0 2:0.0 3:0.3333333333333333 4:0.0 5:0.02222222222222222 6:0.0325554330189725 7:0.0 8:0.0 9:0.0 10:0.0 11:0.0 12:0.0 13:0.04844533224931043 14:0.043478260869565216 15:0.18775510204081633 16:0.0 17:0.5108017099272192 18:0.49802509874506434 19:0.049838934880381464 20:0.7272727272727273 21:0.06168848848936062 22:0.08540811558617767 23:0.9999999999999998 24:0.0 25:1.0 26:1.0 27:0.0 28:0.0 29:0.0 30:0.029411764705882353 31:0.07272828600886114 32:0.4980250987450629 33:0.410199280827782 34:0.20930824008138396 35:0.16178658527232836 36:0.02205177372962608 37:0.9387755102040817 38:0.018048780487804877 39:0.7551020408163265 40:0.0 41:0.0667423116934736 42:0.19491525423728814 43:0.043478260869565216 44:0.1836734693877551 45:0.050955414012738856 46:0.7272727272727273 47:0.022520492145373144 48:0.5609502531779748 49:0.024038461538461543 50:0.03770138034185676 51:0.09281631723353077 52:0.04797979797979797 53:0.041666666666666664 54:0.02403846153846154 55:0.0013731334682000787 56:0.8591963822064489 57:0.24604868877181302 58:0.35253524920563417 59:0.12048002586270036 60:0.14462778079314992 61:0.0 
0.0 0.0 0.0 0.0 5.874209838767029 0.0 0.46574451609726625 0:0.0 1:0.0 2:0.0 3:0.0 4:0.0 5:0.008983451536643025 6:0.006958269005164944 7:0.0 8:0.0 9:0.0 10:0.0 11:0.0 12:0.0 13:0.0200159926306141 14:0.0 15:0.0 16:0.0 17:0.045502188895513135 18:0.39903004849757656 19:0.0030181742963674317 20:1.0 21:0.01738412579476667 22:0.01956438198278751 23:0.9999999999999998 24:1.0 25:0.0 26:0.0 27:0.0 28:0.0 29:0.5555555555555556 30:0.0 31:0.006126211479124793 32:0.3990300484975748 33:0.2725291705057853 34:6.425163203437094E-16 35:0.0 36:0.010067114093959731 37:1.0 38:0.01024390243902439 39:1.0 40:0.8333333333333333 41:0.05206125068238919 42:0.0 43:0.0 44:0.0 45:0.0 46:0.0 47:0.023675175150108755 48:0.2725291705057853 49:0.002403846153846154 50:0.002955904278846874 51:0.19877300276928633 52:0.13194444444444442 53:0.16666666666666666 54:0.002403846153846154 55:0.003142817947040203 56:0.29376922987337456 57:0.0833741358036781 58:0.07567093136834582 59:0.17105246541747804 60:0.1654619840373609 61:0.0 
0.0 0.0 31.359740239478306 0.0 0.0 0.0 0.0 0:0.0 1:0.0 2:0.0 3:0.5 4:0.0 5:0.0359338061465721 6:0.035656766475173234 7:0.017241379310344827 8:0.0728744939271255 9:0.0 10:0.0 11:0.0 12:0.0 13:0.013874592264653264 14:0.0 15:0.0 16:0.0 17:0.21524504295599342 18:0.24903754812259687 19:0.017638214109921925 20:0.7692307692307693 21:0.03842543079131426 22:0.05172244559027317 23:0.9999999999999998 24:0.0 25:1.0 26:1.0 27:0.0 28:0.0 29:0.0 30:0.029411764705882353 31:0.05975840833728092 32:0.24903754812259388 33:0.6013751518660155 34:0.038826720922347194 35:0.030277466754605485 36:0.03643336529242569 37:0.9743589743589743 38:0.0 39:0.0 40:0.5555555555555556 41:0.0362871176843489 42:0.0851851851851852 43:0.36714975845410625 44:0.9743589743589743 45:0.08280254777070065 46:1.0 47:0.03391290073064996 48:0.6294632300780327 49:0.028846153846153848 50:0.03431352102759155 51:0.12263355873718419 52:0.06944444444444445 53:0.05555555555555556 54:0.028846153846153848 55:0.0016957838512879394 56:0.7957154899631141 57:0.22591511780489243 58:0.2586762452956618 59:0.12918721917880874 60:0.14781880381177495 61:0.0 
6.563898107049833 0.0 3.9999709394017557 0.0 0.0 0.0 0.0 0:0.0 1:0.0 2:0.0 3:1.0 4:0.0 5:0.017494089834515364 6:0.012953983466530873 7:0.0 8:0.0 9:0.0 10:0.0 11:0.0 12:0.0 13:0.015386365551574278 14:0.0 15:0.0 16:0.0 17:0.09383024488693538 18:0.30003499825008967 19:0.005934168814931242 20:0.6666666666666666 21:0.013071311727151352 22:0.013087555015661745 23:0.9999999999999998 24:1.0 25:0.0 26:0.0 27:0.0 28:0.0 29:0.5555555555555556 30:0.0 31:0.018217205939900727 32:0.30003499825008767 33:0.6962333151230014 34:6.425163203437094E-16 35:0.0 36:0.0186960690316395 37:1.0 38:0.0 39:0.0 40:0.8333333333333333 41:0.009941725197418837 42:0.0 43:0.18840579710144928 44:1.0 45:0.05732484076433121 46:1.0 47:0.025841249172245243 48:0.6962333151230014 49:0.019230769230769232 50:0.014430318990305882 51:0.0973311652063071 52:0.04629629629629629 53:0.041666666666666664 54:0.019230769230769232 55:0.001367423680510334 56:0.7696601467058962 57:0.17761804970720146 58:0.17153995509371717 59:0.10743375840095772 60:0.0979070097007572 61:0.0 
0.0 0.0 0.0 1.1153342572589768 0.0 0.0 0.0 0:0.0 1:0.0 2:0.0 3:0.0 4:0.0 5:0.03309692671394799 6:0.02132031944835089 7:0.017241379310344827 8:0.07894736842105263 9:0.0 10:0.0 11:0.0 12:0.0 13:0.02704330928947762 14:0.0 15:0.0 16:0.0 17:0.6870293574422388 18:0.30003499825008967 19:0.0686493874515698 20:0.6 21:0.044437232218899295 22:0.04878207862904162 23:0.9999999999999998 24:0.0 25:1.0 26:0.0 27:0.0 28:0.0 29:0.5555555555555556 30:0.029411764705882353 31:0.024944526166197113 32:0.30003499825008767 33:0.43342356960559686 34:6.425163203437094E-16 35:0.7054487607887304 36:0.034036433365292426 37:0.9861111111111112 38:0.03121951219512195 39:0.8888888888888888 40:0.5555555555555556 41:0.03272478217105315 42:0.047325102880658436 43:0.033816425120772944 44:0.09722222222222222 45:0.0445859872611465 46:0.7 47:0.04393499273801768 48:0.7615683172837795 49:0.021634615384615384 50:0.01637534701717011 51:0.11475504139822508 52:0.08611111111111111 53:0.125 54:0.021634615384615384 55:0.0019409430760373798 56:0.9673334838943299 57:0.07505434889049924 58:0.0906928524937822 59:0.1533350002651937 60:0.14705040742461822 61:0.0 
0.0 0.0 20.508299716186578 0.0 0.0 0.0 0.0 0:0.0 1:0.0 2:0.0 3:0.0 4:0.0 5:0.01891252955082742 6:0.02844431647444243 7:0.0 8:0.0 9:0.0 10:0.0 11:0.0 12:0.0 13:0.027366240067213114 14:0.0 15:0.0 16:0.0 17:0.08005819158051342 18:0.348032598370083 19:0.005024550653281964 20:0.5 21:0.015162373093267865 22:0.028910354897523582 23:0.9999999999999998 24:1.0 25:0.0 26:0.0 27:0.0 28:0.0 29:0.0 30:0.0 31:0.035259750513184904 32:0.3480325983700813 33:0.5710060257173377 34:6.425163203437094E-16 35:0.0 36:0.019654841802492808 37:0.9761904761904762 38:0.01902439024390244 39:0.9285714285714286 40:0.8333333333333333 41:0.016909561813578885 42:0.08156028368794327 43:0.00966183574879227 44:0.047619047619047616 45:0.012738853503184714 46:0.3333333333333333 47:0.026950023093660038 48:0.5710060257173377 49:0.01201923076923077 50:0.02237929784056162 51:0.1258820316146151 52:0.08333333333333331 53:0.1111111111111111 54:0.01201923076923077 55:0.001999415461413822 56:0.8124940335347937 57:0.11279891889774575 58:0.15620754719415061 59:0.12307766134511298 60:0.17084745522037711 61:0.0 
0.0 0.0 13.115522082927303 0.0 0.0 0.0 0.0 0:0.0 1:0.0 2:0.0 3:0.5 4:0.0 5:0.020803782505910164 6:0.01939345075571378 7:0.0 8:0.0 9:0.0 10:0.0 11:0.0 12:0.0 13:0.03598534825880819 14:0.0 15:0.0 16:0.0 17:0.07023763811850536 18:0.30003499825008967 19:0.0044930335952975235 20:0.8333333333333334 21:0.013071311727151352 22:0.01276798858485209 23:0.9999999999999998 24:0.0 25:0.0 26:0.0 27:0.0 28:0.0 29:0.5555555555555556 30:0.0 31:0.020446608573033834 32:0.30003499825008767 33:0.5728508410727245 34:6.425163203437094E-16 35:0.0 36:0.021572387344199424 37:0.9782608695652174 38:0.01902439024390244 39:0.8478260869565217 40:1.0 41:0.014645574493404746 42:0.07516339869281045 43:0.02898550724637681 44:0.13043478260869565 45:0.03184713375796178 46:0.8333333333333334 47:0.03849128840364373 48:0.5728508410727245 49:0.01201923076923077 50:0.013357512112733318 51:0.12706702127534514 52:0.09259259259259259 53:0.09722222222222221 54:0.01201923076923077 55:0.0021092440692572056 56:0.633281468048993 57:0.23664779960437926 58:0.2294876267760737 59:0.17375491555474737 60:0.15510571445895255 61:0.0 
0.0 0.0 0.7823674516105936 0.0 0.0 0.0 0.0 0:0.0 1:0.25 2:0.0 3:0.5 4:0.0 5:0.037825059101654845 6:0.04023765971900511 7:0.017241379310344827 8:0.0693196405648267 9:0.0 10:0.0 11:0.0 12:0.0 13:0.0246884866270524 14:0.0 15:0.0 16:0.0 17:0.17655955265896864 18:0.216539173041351 19:0.013528006290644067 20:0.7692307692307693 21:0.03531062063136987 22:0.052613926685246504 23:0.9999999999999998 24:0.0 25:1.0 26:1.0 27:0.0 28:0.0 29:0.0 30:0.029411764705882353 31:0.06362661746740132 32:0.216539173041348 33:0.5770021852398465 34:0.030857917938284827 35:0.0238989962290115 36:0.03883029721955896 37:0.9878048780487805 38:0.0 39:0.0 40:0.5555555555555556 41:0.035587402737333684 42:0.040780141843971635 43:0.3913043478260869 44:0.9878048780487805 45:0.08280254777070065 46:1.0 47:0.04747555689109246 48:0.5992490276498073 49:0.028846153846153848 50:0.036440163317278514 51:0.11805468537984944 52:0.0737179487179487 53:0.06944444444444445 54:0.028846153846153848 55:0.0017542562366643815 56:0.8887037803556798 57:0.25200258524452107 58:0.34750595348573093 59:0.18725201231509053 60:0.22948425725058866 61:0.0 
0.0 0.0 6.398619757504585 0.0 0.0 0.0 0.0 0:0.0 1:0.0 2:0.0 3:1.0 4:0.0 5:0.021749408983451533 6:0.025871907419699067 7:0.017241379310344827 8:0.11842105263157894 9:0.0 10:0.0 11:0.0 12:0.0 13:0.0032121610103955484 14:0.0 15:0.0 16:0.0 17:0.07345427550978743 18:0.24903754812259687 19:0.0050196690069844035 20:0.7142857142857143 21:0.010849559025652548 22:0.017008975868311675 23:0.9999999999999998 24:0.0 25:1.0 26:0.0 27:0.0 28:0.0 29:0.0 30:0.0 31:0.024944526166197113 32:0.2490375481225942 33:0.7378262571244528 34:6.425163203437094E-16 35:0.0 36:0.022531160115052733 37:0.9791666666666666 38:0.0 39:0.0 40:0.5555555555555556 41:0.006900676434628977 42:0.07098765432098765 43:0.22705314009661834 44:0.9791666666666666 45:0.0445859872611465 46:1.0 47:0.028722391946712018 48:0.7378262571244528 49:0.014423076923076926 50:0.023186056262579018 51:0.14210241729941592 52:0.08134920634920634 53:0.06944444444444445 54:0.014423076923076924 55:0.0019409430760373798 56:0.9322454797345576 57:0.1739752051548209 58:0.20055105322947558 59:0.12918721917880874 60:0.1504358094571354 61:0.0 
0.0 0.0 16.142497029832953 0.0 0.5275831109587742 0.0 4.3692476693079385 0:0.0 1:0.0 2:0.0 3:0.0 4:0.0 5:0.02836879432624113 6:0.03691154941616789 7:0.0 8:0.0 9:0.0 10:0.0 11:0.0 12:0.0 13:0.057384513424147784 14:0.0 15:0.0 16:0.0 17:0.10248353511804704 18:0.33183340832958436 19:0.007936107971586838 20:0.8181818181818182 21:0.014456639882203543 22:0.013532463253647787 23:0.9999999999999998 24:0.0 25:1.0 26:0.0 27:1.0 28:0.0 29:0.0 30:0.0 31:0.012988243400370353 32:0.33183340832958347 33:0.931105829208829 34:6.425163203437094E-16 35:0.0 36:0.02972195589645254 37:1.0 38:0.026341463414634145 39:0.8709677419354839 40:0.0 41:0.005269507701468376 42:0.0 43:0.03864734299516908 44:0.12903225806451613 45:0.050955414012738856 46:0.7272727272727273 47:0.06559573295938292 48:0.931105829208829 49:0.024038461538461543 50:0.034845928314300396 51:0.10636789091255354 52:0.06439393939393939 53:0.05555555555555556 54:0.02403846153846154 55:0.0016408924346869847 56:0.9613642530676362 57:0.07773360230321784 58:0.06452240521151487 59:0.12017315886113196 60:0.10498055377682948 61:0.0 
26.540887370871697 0.0 0.0 0.0 15.152852130931457 0.0 0.0 0:0.0 1:0.0 2:0.18181818181818182 3:0.25 4:0.0 5:0.06808510638297872 6:0.11150694287024164 7:0.05172413793103448 8:0.11679884643114635 9:0.0 10:0.0 11:0.03225806451612903 12:0.0273972602739726 13:0.027857780720049408 14:0.15217391304347827 15:0.22054794520547946 16:0.0 17:0.6220973021477663 18:0.175116929085055 19:0.09440679740306487 20:0.5454545454545454 21:0.06717534638649351 22:0.06958247215017843 23:0.9999999999999998 24:0.0 25:0.0 26:0.0 27:0.0 28:0.0 29:0.0 30:0.0588235294117647 31:0.11989147754188019 32:0.18809059547022694 33:0.6194251242787213 34:0.3024716476395016 35:0.3203280606688738 36:0.06279961649089165 37:0.8972602739726028 38:0.0224390243902439 39:0.3150684931506849 40:0.5555555555555556 41:0.04497585835933403 42:0.22954091816367267 43:0.4106280193236715 44:0.5821917808219178 45:0.14012738853503184 46:1.0 47:0.03669805178544592 48:0.83775001834623 49:0.05048076923076924 50:0.09823492795781096 51:0.10936741380317018 52:0.07828282828282829 53:0.05555555555555556 54:0.05048076923076923 55:0.0017745379632592036 56:0.9862660626033816 57:0.12544311482794418 58:0.13213847475631688 59:0.06968280307220592 60:0.06456643263720495 61:0.0 
2.514312031836161 0.0 0.0 0.0 0.42233539416855603 1.1552256043404983 0.0 0:0.0 1:0.0 2:0.0 3:1.0 4:0.0 5:0.00756501182033097 6:0.01006511539364601 7:0.017241379310344827 8:0.3157894736842105 9:0.0 10:0.0 11:0.0 12:0.0 13:0.017243931972176607 14:0.0 15:0.0 16:0.0 17:0.246173995917489 18:0.34803259837008255 19:0.008009610286995978 20:0.3333333333333333 21:0.047835206938838595 22:0.06395374628226734 23:0.0 24:0.0 25:1.0 26:0.0 27:0.0 28:0.0 29:0.8333333333333333 30:0.029411764705882353 31:0.06362661746740132 32:0.34803259837008066 33:0.15700295985844878 34:0.020673674691986697 35:2.4102774229316782E-4 36:0.008149568552253116 37:0.9444444444444444 38:0.0 39:0.0 40:0.5 41:0.19388692717859923 42:0.19166666666666668 43:0.08212560386473429 44:0.9444444444444444 45:0.019108280254777073 46:1.0 47:0.11098451333589307 48:0.1645717989905498 49:0.004807692307692308 50:0.009107519739851522 51:0.1480530418718553 52:0.06944444444444445 53:0.08333333333333331 54:0.004807692307692308 55:0.002082616407441987 56:0.20975758634663755 57:0.750145909633953 58:0.8450134705142271 59:0.1903585671457833 60:0.21571429256802613 61:0.0 
0.0 0.0 512.0 0.0 0.0 2.847454614118552 512.0 0:0.0 1:0.0 2:0.0 3:0.0 4:0.0 5:0.03498817966903073 6:0.024762271771597004 7:0.05172413793103448 8:0.22437673130193905 9:0.0 10:0.0 11:0.0 12:0.0 13:0.020701863308990393 14:0.021739130434782608 15:0.060526315789473685 16:0.0 17:0.079860041792014 18:0.15004249787510887 19:0.004328389170568482 20:0.5454545454545454 21:0.006623872514958766 22:0.007394922502318992 23:0.9999999999999998 24:0.0 25:0.0 26:0.0 27:0.0 28:0.0 29:0.2777777777777778 30:0.0 31:0.007878897650959957 32:0.1520423978801072 33:0.6230930113094316 34:6.425163203437094E-16 35:0.0 36:0.034036433365292426 37:0.9342105263157895 38:0.033170731707317075 39:0.8947368421052632 40:0.2777777777777778 41:0.0063409884305901144 42:0.22286821705426357 43:0.014492753623188404 44:0.039473684210526314 45:0.019108280254777073 46:0.2727272727272727 47:0.04438017172779525 48:0.6230930113094316 49:0.024038461538461543 50:0.018890209437534097 51:0.06785715189031748 52:0.08207070707070707 53:0.08333333333333331 54:0.02403846153846154 55:0.0018798119592351975 56:0.6638830588284313 57:0.18349360543684756 58:0.1687631396116594 59:0.5229114732899425 60:0.49243127234671985 61:0.0 
24.88781821447539 0.0 6.095135980242088 0.0 0.0 0.0 1.4333498912458302 0:0.0 1:0.0 2:0.0 3:0.3333333333333333 4:0.0 5:0.04397163120567375 6:0.022502735534122614 7:0.0 8:0.0 9:0.0 10:0.0 11:0.0 12:0.0 13:0.023028108026483217 14:0.0 15:0.0 16:0.0 17:0.6325098414258922 18:0.2645367731613428 19:0.06477306199476082 20:0.8666666666666667 21:0.039754126034367475 22:0.047212631144092 23:1.0 24:0.0 25:1.0 26:0.0 27:0.0 28:0.0 29:1.0 30:0.029411764705882353 31:0.020446608573033834 32:0.26453677316134167 33:0.549316704854005 34:6.425163203437094E-16 35:0.6461033483135725 36:0.04554170661553212 37:1.0 38:0.041463414634146344 39:0.8947368421052632 40:0.5555555555555556 41:0.0248047597294878 42:0.0 43:0.04830917874396135 44:0.10526315789473684 45:0.06369426751592357 46:0.6666666666666666 47:0.024832640523530448 48:0.8498564917115811 49:0.03365384615384616 50:0.019955567013021626 51:0.08649857630127789 52:0.07407407407407407 53:0.06944444444444445 54:0.03365384615384616 55:0.0017460571077209778 56:0.9998418832478354 57:0.12015511467126265 58:0.12649319656617317 59:0.1807118304174654 60:0.1843090830018467 61:0.0 
0.0 1.603152533929686 0.0 0.0 0.0 0.0 0.0 0:0.0 1:0.0 2:0.0 3:0.0 4:0.0 5:0.0425531914893617 6:0.03936713754145865 7:0.0 8:0.0 9:0.0 10:0.0 11:0.03225806451612903 12:0.043478260869565216 13:0.049845651550995296 14:0.0 15:0.0 16:0.0 17:0.3770394990557559 18:0.30003499825008967 19:0.04686334339931516 20:0.7777777777777778 21:0.049142120292661476 22:0.05190525142449498 23:0.9999999999999998 24:0.0 25:1.0 26:1.0 27:0.0 28:0.0 29:0.5555555555555556 30:0.029411764705882353 31:0.05975840833728092 32:0.30003499825008767 33:0.7917835389470079 34:0.10088165479823721 35:0.07829238418069191 36:0.04074784276126558 37:0.9239130434782609 38:0.0 39:0.0 40:0.5555555555555556 41:0.030700209878071184 42:0.03516819571865444 43:0.4106280193236715 44:0.9239130434782609 45:0.10828025477707007 46:0.9444444444444444 47:0.0497000606556373 48:0.8645885144445985 49:0.040865384615384616 50:0.042588596312097445 51:0.11365856022450012 52:0.05709876543209876 53:0.05555555555555556 54:0.040865384615384616 55:0.0014849846442240861 56:0.92135070818073 57:0.11298693668109443 58:0.10198647864706795 59:0.0912203204045088 60:0.08557571379225168 61:0.0 
0.0 0.0 0.0 0.0 0.0 0.0 265.6394859012844 0:0.0 1:0.0 2:0.0 3:0.0 4:0.0 5:0.026950354609929075 6:0.025069519847207226 7:0.034482758620689655 8:0.1926851025869759 9:0.0 10:0.0 11:0.0 12:0.0 13:0.030029704534907664 14:0.021739130434782608 15:0.07796610169491526 16:0.0 17:0.1363201213626444 18:0.2490375481225971 19:0.0067588475936333145 20:0.5454545454545454 21:0.010927973826881952 22:0.011410189894362535 23:0.9999999999999998 24:0.0 25:0.0 26:0.0 27:0.0 28:0.0 29:0.2777777777777778 30:0.0 31:0.023010421601136907 32:0.25083745812709485 33:0.6345125202827767 34:6.425163203437094E-16 35:0.0 36:0.026366251198465963 37:0.9322033898305084 38:0.025853658536585365 39:0.8983050847457628 40:0.2777777777777778 41:0.010056625989683248 42:0.22222222222222224 43:0.00966183574879227 44:0.03389830508474576 45:0.012738853503184714 46:0.18181818181818182 47:0.0388738640979838 48:0.6345125202827767 49:0.024038461538461543 50:0.02548334041625503 51:0.06625009159766311 52:0.0606060606060606 53:0.05555555555555556 54:0.02403846153846154 55:0.0015836645223105087 56:0.6759898740016324 57:0.07773360230321784 58:0.06861037778698187 59:0.4339326711067669 60:0.3983132305588571 61:0.0 
0.0 57.11685186831394 0.0 87.38735976284197 0.0 0.6000663380127415 0.0 0:0.0 1:0.0 2:0.0 3:0.0 4:0.0 5:0.026950354609929075 6:0.025633748068745722 7:0.034482758620689655 8:0.1926851025869759 9:0.0 10:0.0 11:0.0 12:0.0 13:0.021267706618650756 14:0.021739130434782608 15:0.07796610169491526 16:0.0 17:0.08089257413397558 18:0.20003999800010247 19:0.004413451502188985 20:0.375 21:0.008719290258921347 22:0.00784601386396746 23:0.9999999999999998 24:0.0 25:0.0 26:0.0 27:0.0 28:0.0 29:0.5 30:0.0 31:0.01626079138429412 32:0.20013999300035062 33:0.5765608564835577 34:6.425163203437094E-16 35:0.0 36:0.02588686481303931 37:0.9152542372881356 38:0.024390243902439025 39:0.847457627118644 40:0.2777777777777778 41:0.009983767265055513 42:0.23232323232323235 43:0.01932367149758454 44:0.06779661016949153 45:0.025477707006369428 46:0.5 47:0.033713961369593065 48:0.5765608564835577 49:0.01682692307692308 50:0.02099853244356399 51:0.0910055601250979 52:0.08854166666666666 53:0.08333333333333331 54:0.01682692307692308 55:0.0020034963537129916 56:0.6113452000489292 57:0.14501654948197185 58:0.13142307509440357 59:0.5155896013759764 60:0.4469957690752793 61:0.0 
0.0 0.0 6.378201765807549 0.0 0.0 0.0 0.0 0:0.0 1:0.0 2:0.0 3:0.3333333333333333 4:0.0 5:0.02742316784869976 6:0.023078359197775976 7:0.0 8:0.0 9:0.0 10:0.0 11:0.0 12:0.0 13:0.025562971741982174 14:0.0 15:0.0 16:0.0 17:0.1465255099632954 18:0.40002999850007687 19:0.010100271721059713 20:0.75 21:0.017427689573227455 22:0.022485192320274197 23:0.9999999999999998 24:0.0 25:1.0 26:1.0 27:0.0 28:0.0 29:0.0 30:0.0 31:0.015084385246282311 32:0.4000299985000752 33:0.8056543081025106 34:6.425163203437094E-16 35:0.0 36:0.02876318312559923 37:1.0 38:0.025853658536585365 39:0.8833333333333333 40:0.0 41:0.010194723120745458 42:0.0 43:0.033816425120772944 44:0.11666666666666667 45:0.0445859872611465 46:0.5833333333333334 47:0.015156953417583394 48:0.8056543081025106 49:0.026442307692307696 50:0.02438237418120081 51:0.07798634832347862 52:0.05555555555555556 53:0.041666666666666664 54:0.026442307692307696 55:0.0014939266753855494 56:0.9302861733216892 57:0.15221018821363524 58:0.15583773676801385 59:0.12485572199617616 60:0.13322037882300428 61:0.0 
0.0 0.0 0.0 4.989590719872531 0.0 0.0 0.0 0:0.0 1:0.0 2:0.0 3:0.0 4:0.0 5:0.04018912529550827 6:0.022816130411575382 7:0.0 8:0.0 9:0.0 10:0.0 11:0.0 12:0.0 13:0.03379341988249738 14:0.0 15:0.0 16:0.0 17:0.6827513590257747 18:0.2645367731613428 19:0.06969743479766406 20:0.7857142857142857 21:0.039754126034367475 22:0.04694842194596737 23:0.9999999999999998 24:0.0 25:1.0 26:0.0 27:0.0 28:0.0 29:1.0 30:0.029411764705882353 31:0.02126051747084433 32:0.26453677316134167 33:0.48413764564868206 34:6.425163203437094E-16 35:0.784858637229145 36:0.041706615532118886 37:1.0 38:0.037560975609756096 39:0.8850574712643678 40:0.5555555555555556 41:0.024832187747853736 42:0.0 43:0.04830917874396135 44:0.11494252873563218 45:0.06369426751592357 46:0.7142857142857143 47:0.045765791333477975 48:0.8492204890697239 49:0.03125000000000001 50:0.02041115013638372 51:0.08621286809874934 52:0.07242063492063491 53:0.06944444444444445 54:0.03125 55:0.0017298275172533317 56:0.9992476342097131 57:0.12015511467126265 58:0.12652203833561393 59:0.19495652086064197 60:0.19760898374520405 61:0.0 
27.761196126778433 5.299401942273706 2.3268542708366384 0.0 0.0 0.0 0.0 0:0.0 1:0.0 2:0.0 3:0.0 4:0.0 5:0.021749408983451533 6:0.04368762034722425 7:0.0 8:0.0 9:0.0 10:0.0 11:0.0 12:0.0 13:0.045564675400130074 14:0.021739130434782608 15:0.09583333333333334 16:0.0 17:0.100160772981924 18:0.25503724813759626 19:0.006143307822656242 20:0.5555555555555556 21:0.011110941696417125 22:0.011361240777746863 23:0.9999999999999998 24:1.0 25:1.0 26:0.0 27:0.0 28:0.0 29:0.5555555555555556 30:0.0 31:0.04279779907444522 32:0.2550372481375937 33:0.7452034800759941 34:6.425163203437094E-16 35:0.0 36:0.02205177372962608 37:0.9583333333333334 38:0.00878048780487805 39:0.375 40:0.8333333333333333 41:0.006922594951279094 42:0.1369047619047619 43:0.13526570048309178 44:0.5833333333333334 45:0.050955414012738856 46:0.8888888888888888 47:0.044072719987980104 48:0.7452034800759941 49:0.019230769230769232 50:0.050862991667653464 51:0.10464138801928252 52:0.06018518518518518 53:0.05555555555555556 54:0.019230769230769232 55:0.0016030123810108737 56:0.8616222481564803 57:0.17033236060244034 58:0.17469645521791258 59:0.12579652823555262 60:0.11587973819036504 61:0.0 
71.17305097902103 0.0 0.0 0.0 13.103863294439984 0.0 0.0 0:0.0 1:0.0 2:0.0 3:1.0 4:0.0 5:0.00851063829787234 6:0.01791565740977533 7:0.0 8:0.0 9:0.0 10:0.0 11:0.0 12:0.0 13:0.03734565843758778 14:0.0 15:0.0 16:0.0 17:0.05967091346102401 18:0.25503724813759515 19:0.003136463072923641 20:0.3333333333333333 21:0.011110941696417093 22:0.011361240777746832 23:0.9999999999999998 24:1.0 25:0.0 26:0.0 27:0.0 28:0.0 29:0.8333333333333333 30:0.0 31:0.04279779907444522 32:0.25503724813759304 33:0.2989803573030227 34:6.425163203437094E-16 35:0.0 36:0.009108341323106423 37:0.95 38:0.0 39:0.0 40:0.8333333333333333 41:0.03445373981443181 42:0.17424242424242425 43:0.09178743961352656 44:0.95 45:0.019108280254777073 46:1.0 47:0.040071673817354124 48:0.2989803573030227 49:0.004807692307692308 50:0.01602343227583864 51:0.13831397340800647 52:0.07870370370370369 53:0.09722222222222221 54:0.004807692307692308 55:0.002210775524786321 56:0.34612679613390923 57:0.3879629448285318 58:0.3978964404159011 59:0.1606505580433251 60:0.14738385575017496 61:0.0 
0.0 0.0 0.0 0.0 7.475331598641812 0.0 0.0 0:0.0 1:0.0 2:0.0 3:0.0 4:0.0 5:0.020803782505910164 6:0.028331249176978462 7:0.0 8:0.0 9:0.0 10:0.0 11:0.0 12:0.0 13:0.02858937611031745 14:0.0 15:0.0 16:0.0 17:0.09756647174922596 18:0.34803259837008477 19:0.00614836150239915 20:0.875 21:0.015162373093267897 22:0.02891035489752363 23:0.9999999999999997 24:0.0 25:1.0 26:1.0 27:0.0 28:0.0 29:0.0 30:0.0 31:0.03367919194388839 32:0.3480325983700821 33:0.6541572557301392 34:6.425163203437094E-16 35:0.0 36:0.02205177372962608 37:1.0 38:0.02 39:0.8913043478260869 40:0.0 41:0.013259446891074621 42:0.0 43:0.024154589371980676 44:0.10869565217391304 45:0.019108280254777073 46:0.375 47:0.012854543329827484 48:0.6541572557301392 49:0.01682692307692308 50:0.02438237418120081 51:0.1037606571676788 52:0.06597222222222221 53:0.05555555555555556 54:0.01682692307692308 55:0.0017085294725976599 56:0.9302458759637943 57:0.07308016216533812 58:0.10635802533340685 59:0.0933759663784895 60:0.1319531019198647 61:0.0 
0.0 0.0 0.0 0.0 15.131569424975678 0.0 0.0 0:0.0 1:0.0 2:0.0 3:0.0 4:0.0 5:0.017021276595744678 6:0.023318355833930847 7:0.0 8:0.0 9:0.0 10:0.0 11:0.0 12:0.0 13:0.027366240067213114 14:0.0 15:0.0 16:0.0 17:0.08606322859175063 18:0.34803259837008277 19:0.005040062072555415 20:0.8333333333333334 21:0.015162373093267865 22:0.028910354897523582 23:0.9999999999999998 24:1.0 25:0.0 26:0.0 27:0.0 28:0.0 29:0.0 30:0.0 31:0.03367919194388839 32:0.3480325983700813 33:0.5330069063363803 34:6.425163203437094E-16 35:0.0 36:0.017737296260786194 37:0.9736842105263158 38:0.0175609756097561 39:0.9473684210526315 40:0.8333333333333333 41:0.01894581144228613 42:0.08914728682170543 43:0.004830917874396135 44:0.02631578947368421 45:0.006369426751592357 46:0.16666666666666666 47:0.026950023093660038 48:0.5330069063363803 49:0.01201923076923077 50:0.017937693780883418 51:0.1161638624393153 52:0.07407407407407407 53:0.05555555555555556 54:0.01201923076923077 55:0.0018798119592351975 56:0.7588610688316356 57:0.13113065277424157 58:0.1792626385594186 59:0.12307766134511298 60:0.17084745522037711 61:0.0 
0.0 0.0 16.225243294022075 0.0 0.0 0.0 4.270120699074391 0:0.0 1:0.0 2:0.0 3:1.0 4:0.0 5:0.02222222222222222 6:0.022522907133315305 7:0.0 8:0.0 9:0.0 10:0.0 11:0.0 12:0.0 13:0.024491298807019255 14:0.0 15:0.0 16:0.0 17:0.0789200096264386 18:0.22173891305434884 19:0.005258078479546469 20:0.75 21:0.009660267873673758 22:0.009625116790426573 23:0.9999999999999998 24:0.0 25:0.0 26:0.0 27:0.0 28:0.0 29:0.0 30:0.0 31:0.02126051747084433 32:0.2217389130543474 33:0.7837305631884933 34:6.425163203437094E-16 35:0.0 36:0.023489932885906038 37:1.0 38:0.0 39:0.0 40:0.5555555555555556 41:0.004877306479900326 42:0.0 43:0.23671497584541062 44:1.0 45:0.050955414012738856 46:1.0 47:0.0264631085735908 48:0.7837305631884933 49:0.01682692307692308 50:0.019929685904617883 51:0.12885626161624908 52:0.07118055555555555 53:0.09722222222222221 54:0.01682692307692308 55:0.0017825657660915921 56:0.8632999832773447 57:0.1809083609158033 58:0.1739309603939582 59:0.07022834440832758 60:0.06493481876734822 61:0.0 
0.0 0.0 0.0 1.0024145613143591 0.0 0.0 0.0 0:0.0 1:0.0 2:0.0 3:0.0 4:0.0 5:0.005200945626477541 6:0.0039023431680086625 7:0.0 8:0.0 9:0.0 10:0.0 11:0.0 12:0.0 13:0.02001599263061406 14:0.0 15:0.0 16:0.0 17:0.11803264595419792 18:0.3990300484975779 19:0.0038227920813966084 20:0.6666666666666666 21:0.017384125794766732 22:0.019627662236074886 23:0.9999999999999998 24:0.0 25:1.0 26:1.0 27:0.0 28:0.0 29:0.8333333333333333 30:0.0 31:0.0033545217190133637 32:0.39903004849757623 33:0.19871821006025725 34:6.425163203437094E-16 35:0.0 36:0.0062320230105465 37:1.0 38:0.006341463414634147 39:1.0 40:0.5555555555555556 41:0.07427037907633577 42:0.0 43:0.0 44:0.0 45:0.0 46:0.0 47:0.08756114255187718 48:0.19871821006025725 49:0.004807692307692308 50:0.004517594594340135 51:0.08464355544966583 52:0.04629629629629629 53:0.041666666666666664 54:0.004807692307692308 55:0.0016957838512879394 56:0.2140498380087566 57:0.0833741358036781 58:0.07565299685283886 59:0.15264044532337215 60:0.14828311275200717 61:0.0 
0.0 0.0 0.0 0.0 31.764068158392412 0.0 0.0 0:0.0 1:0.0 2:0.0 3:1.0 4:0.25 5:0.005200945626477541 6:0.004698645088784132 7:0.0 8:0.0 9:0.0 10:0.0 11:0.0 12:0.0 13:0.07340992315219456 14:0.0 15:0.0 16:0.0 17:0.04270057027290026 18:0.40002999850007687 19:0.0026557479648346666 20:1.0 21:0.017427689573227455 22:0.01795668825649522 23:1.0 24:0.0 25:1.0 26:1.0 27:0.0 28:0.0 29:0.0 30:0.0 31:0.012988243400370353 32:0.4000299985000752 33:0.16245382865436528 34:6.425163203437094E-16 35:0.0 36:0.0062320230105465 37:1.0 38:0.005365853658536585 39:0.8461538461538461 40:0.0 41:0.09206751256366234 42:0.0 43:0.00966183574879227 44:0.15384615384615385 45:0.012738853503184714 46:1.0 47:0.07643445017612387 48:0.16245382865436528 49:0.002403846153846154 50:0.003203385257804822 51:0.11680965045548043 52:0.0763888888888889 53:0.08333333333333331 54:0.002403846153846154 55:0.002535054803264757 56:0.16140680270079452 57:0.036826024794845175 58:0.02431702068891392 59:0.0665509916981742 60:0.062244652918622606 61:0.0 
64.9686752906633 35.196637400898766 0.0 0.0 0.0 0.0 0.0 0:0.0 1:0.0 2:0.2272727272727273 3:0.0 4:0.0 5:0.04539007092198581 6:0.03346484230851134 7:0.06896551724137931 8:0.23200859291084852 9:0.0 10:0.0 11:0.04032258064516129 12:0.05102040816326531 13:0.03696557176998761 14:0.0 15:0.0 16:0.0 17:0.3404754713769949 18:0.33574749833937073 19:0.0362284211915235 20:0.6111111111111112 21:0.04945795768650199 22:0.04861913319313452 23:0.9999999999999998 24:0.0 25:0.0 26:0.0 27:0.0 28:0.0 29:0.5555555555555556 30:0.029411764705882353 31:0.027668617102901638 32:0.38613069346532697 33:0.6284378796650387 34:0.12904939527523518 35:0.10423792505790144 36:0.042665388302972194 37:0.9081632653061225 38:0.033658536585365856 39:0.7040816326530612 40:1.0 41:0.039207566979078734 42:0.13333333333333333 43:0.0966183574879227 44:0.20408163265306123 45:0.09554140127388536 46:0.8333333333333334 47:0.053367222583930084 48:0.7234713513425364 49:0.040865384615384616 50:0.0316439858998683 51:0.0857186496847756 52:0.0617283950617284 53:0.05555555555555556 54:0.040865384615384616 55:0.0015570368604952906 56:0.7690453269782115 57:0.1821676883605241 58:0.16694894747360278 59:0.07202534746689497 60:0.06354529724210356 61:0.0 
0.0 0.0 0.0 0.0 6.905082409567743 0.0 0.0 0:0.0 1:0.0 2:0.0 3:1.0 4:0.0 5:0.011347517730496453 6:0.011971837224120555 7:0.0 8:0.0 9:0.0 10:0.0 11:0.0 12:0.0 13:0.014091784646139065 14:0.0 15:0.0 16:0.0 17:0.07930013399931445 18:0.6000199990000514 19:0.005285176588106839 20:0.75 21:0.02614044526537969 22:0.025260111725359607 23:0.9999999999999998 24:0.0 25:1.0 26:0.0 27:0.0 28:0.0 29:0.0 30:0.0 31:0.008876580548773822 32:0.6000199990000508 33:0.4494418669123704 34:6.425163203437094E-16 35:0.0 36:0.012464046021093 37:1.0 38:0.01073170731707317 39:0.8461538461538461 40:0.0 41:0.03901989531803254 42:0.0 43:0.01932367149758454 44:0.15384615384615385 45:0.025477707006369428 46:1.0 47:0.005797065157509815 48:0.4494418669123704 49:0.007211538461538462 50:0.00831737376301832 51:0.1522919400718126 52:0.0763888888888889 53:0.09722222222222221 54:0.007211538461538462 55:0.0020370305849382563 56:0.4754339698980001 57:0.31036056326994266 58:0.2865756582765648 59:0.13695865756420844 60:0.11956101426766205 61:0.0 
0.0 0.0 45.00292889394901 0.0 0.0 0.0 0.0 0:0.0 1:0.0 2:0.0 3:0.5 4:0.0 5:0.02222222222222222 6:0.024582686423641354 7:0.017241379310344827 8:0.11600429645542426 9:0.0 10:0.0 11:0.0 12:0.0 13:0.013880307853639761 14:0.0 15:0.0 16:0.0 17:0.2482627811916988 18:0.24903754812259643 19:0.01386053641856329 20:0.7142857142857143 21:0.03842543079131423 22:0.0526663405727608 23:0.9999999999999998 24:0.0 25:1.0 26:1.0 27:0.0 28:0.0 29:0.0 30:0.029411764705882353 31:0.06164292047759599 32:0.24903754812259354 33:0.37158148580001804 34:0.04916920990166212 35:0.03833436683107681 36:0.023010546500479387 37:0.9795918367346939 38:0.0 39:0.0 40:0.5555555555555556 41:0.06192906669821126 42:0.0696969696969697 43:0.23188405797101447 44:0.9795918367346939 45:0.0445859872611465 46:1.0 47:0.03892394673433382 48:0.40714769122887134 49:0.014423076923076926 50:0.018483853136842518 51:0.14801169113665458 52:0.08333333333333331 53:0.09722222222222221 54:0.014423076923076924 55:0.0019656163000368806 56:0.5686425620345698 57:0.33285023208445136 58:0.42247905185398354 59:0.200107592874624 60:0.2292392988039143 61:0.0 
0.0 0.0 0.0 1.0105260262133304 0.0 0.0 0.0 0:0.0 1:0.0 2:0.0 3:0.0 4:0.0 5:0.03073286052009456 6:0.035852599403133366 7:0.0 8:0.0 9:0.0 10:0.0 11:0.0 12:0.0 13:0.020561831378821886 14:0.08695652173913043 15:0.2746268656716418 16:0.0 17:0.6166190746284446 18:0.24903754812259687 19:0.057157685563424154 20:0.5 21:0.03845156905839072 22:0.05303209844111911 23:0.9999999999999998 24:0.0 25:1.0 26:0.0 27:0.0 28:0.0 29:0.5555555555555556 30:0.029411764705882353 31:0.07272828600886114 32:0.2493375331233439 33:0.48891072316761947 34:0.40895218718209597 35:0.3170522745349807 36:0.027804410354745925 37:0.8656716417910447 38:0.0 39:0.0 40:1.0 41:0.02688595482933634 42:0.24572649572649571 43:0.2801932367149758 44:0.8656716417910447 45:0.05732484076433121 46:0.75 47:0.03372091729130837 48:0.7838936407889694 49:0.026442307692307696 50:0.03506785463768561 51:0.10539106291561008 52:0.06365740740740741 53:0.06944444444444445 54:0.026442307692307696 55:0.0016203629827818663 56:0.9901265255764616 57:0.1517656044967587 58:0.17566065008695148 59:0.12917206525280536 60:0.15095244153441983 61:0.0 
0.0 1.5303071033616498 7.100373984568058 0.0 9.324412061552243 0.0 0.0 0:0.0 1:0.0 2:0.0 3:0.5 4:0.0 5:0.011347517730496453 6:0.016661742028760734 7:0.017241379310344827 8:0.21862348178137653 9:0.0 10:0.0 11:0.0 12:0.0 13:0.04211245965230282 14:0.0 15:0.0 16:0.0 17:0.07774823899211089 18:0.3480325983700843 19:0.0038717624275001945 20:0.75 21:0.015162373093267897 22:0.028920960667691516 23:0.9999999999999998 24:0.0 25:1.0 26:1.0 27:0.0 28:0.0 29:0.0 30:0.0 31:0.035259750513184904 32:0.3480325983700821 33:0.3458407057998549 34:6.425163203437094E-16 35:0.0 36:0.011984659635666346 37:0.9615384615384616 38:0.01024390243902439 39:0.8076923076923077 40:0.0 41:0.035219152436042934 42:0.13218390804597702 43:0.01932367149758454 44:0.15384615384615385 45:0.025477707006369428 46:1.0 47:0.01943762764116339 48:0.3458407057998549 49:0.007211538461538462 50:0.011457700063304007 51:0.11542324390135895 52:0.0763888888888889 53:0.09722222222222221 54:0.007211538461538462 55:0.0020370305849382563 56:0.493952413238973 57:0.2211363324781136 58:0.2922051106350426 59:0.09352750563852329 60:0.1321877864363698 61:0.0 
0.0 0.0 0.0 0.0 8.545320616345325 0.0 0.40346470416157454 0:0.0 1:0.0 2:0.0 3:0.3333333333333333 4:0.0 5:0.04302600472813239 6:0.021245117584455065 7:0.0 8:0.0 9:0.0 10:0.0 11:0.0 12:0.0 13:0.023028108026483217 14:0.0 15:0.0 16:0.0 17:0.6363306456834087 18:0.2645367731613428 19:0.06515474265671953 20:0.8 21:0.039754126034367475 22:0.04706312288789326 23:0.9999999999999998 24:0.0 25:1.0 26:0.0 27:1.0 28:0.0 29:1.0 30:0.029411764705882353 31:0.022556742752542533 32:0.26453677316134167 33:0.5358036871845469 34:6.425163203437094E-16 35:0.675254558163281 36:0.04410354745925216 37:0.989247311827957 38:0.037560975609756096 39:0.8279569892473119 40:0.5555555555555556 41:0.02480273938708702 42:0.03582554517133956 43:0.07246376811594203 44:0.16129032258064516 45:0.07006369426751592 46:0.7333333333333333 47:0.024832640523530448 48:0.849903376521718 49:0.03365384615384616 50:0.01846141498722975 51:0.08589040700450104 52:0.07222222222222222 53:0.08333333333333331 54:0.03365384615384616 55:0.0017211554149450402 56:0.9999976040547206 57:0.12015511467126265 58:0.12651212299693013 59:0.1807118304174654 60:0.1838235223337512 61:0.0 
0.0 0.0 18.476366800169657 0.0 0.0 0.0 0.0 0:0.0 1:0.0 2:0.0 3:0.3333333333333333 4:0.0 5:0.03829787234042553 6:0.04932687085813156 7:0.034482758620689655 8:0.13696892834495877 9:0.0 10:0.0 11:0.0 12:0.0 13:0.024859954296646555 14:0.021739130434782608 15:0.05542168674698796 16:0.0 17:0.22901071544774712 18:0.348032598370084 19:0.026518881222336865 20:0.7333333333333333 21:0.047835206938838595 22:0.06579818412880392 23:0.9999999999999998 24:0.0 25:1.0 26:1.0 27:0.0 28:0.0 29:0.0 30:0.029411764705882353 31:0.07272828600886114 32:0.34803259837008066 33:0.7799624513824904 34:6.425163203437094E-16 35:0.023855173003139933 36:0.037392138063279 37:0.9397590361445783 38:0.0 39:0.0 40:0.5555555555555556 41:0.03364668752705777 42:0.11855670103092784 43:0.37681159420289856 44:0.9397590361445783 45:0.089171974522293 46:0.9333333333333333 47:0.02960996755758111 48:0.791058862859892 49:0.03365384615384616 50:0.04802493767225282 51:0.1356175471994105 52:0.06296296296296297 53:0.06944444444444445 54:0.03365384615384616 55:0.00158922094749173 56:0.9993911142122632 57:0.14827944143050198 58:0.17181591703678248 59:0.1903585671457833 60:0.22116125247396953 61:0.0 
0.0 0.0 0.0 0.0 4.003361363926094 0.0 0.0 0:0.0 1:0.0 2:0.0 3:1.0 4:0.0 5:0.025059101654846334 6:0.02726908227726555 7:0.0 8:0.0 9:0.0 10:0.0 11:0.008064516129032258 12:0.01818181818181818 13:0.013874592264653264 14:0.043478260869565216 15:0.1672727272727273 16:0.0 17:0.5509121633941556 18:0.24903754812259687 19:0.042774196787735634 20:0.625 21:0.03842543079131426 22:0.0513159980643432 23:0.9999999999999998 24:0.0 25:1.0 26:0.0 27:0.0 28:0.0 29:0.0 30:0.029411764705882353 31:0.06164292047759599 32:0.24903754812259388 33:0.4268739654764721 34:0.3031536113936931 35:0.2350239603487452 36:0.024928092042186 37:0.9454545454545454 38:0.0 39:0.0 40:0.5555555555555556 41:0.035101132505033834 42:0.12365591397849462 43:0.25120772946859904 44:0.9454545454545454 45:0.0445859872611465 46:0.875 47:0.03391290073064996 48:0.6455406430149787 49:0.01682692307692308 50:0.023039732431134684 51:0.1477024563064452 52:0.08159722222222221 53:0.08333333333333331 54:0.01682692307692308 55:0.0019194281693571292 56:0.8159527239299338 57:0.21827689535635247 58:0.2501205545350509 59:0.12918721917880874 60:0.1468149413283721 61:0.0 
0.0 0.0 0.0 0.0 6.569436271333974 0.0 0.0 0:0.0 1:0.0 2:0.0 3:1.0 4:0.0 5:0.023167848699763592 6:0.01878757922928157 7:0.0 8:0.0 9:0.0 10:0.0 11:0.0 12:0.0 13:0.015472099386371316 14:0.0 15:0.0 16:0.0 17:0.5560820381031051 18:0.3149842507874622 19:0.05359141153963909 20:0.8571428571428571 21:0.04770233741453332 22:0.05130611330911304 23:1.0 24:0.0 25:0.0 26:0.0 27:0.0 28:0.0 29:0.5555555555555556 30:0.029411764705882353 31:0.048812199522259285 32:0.3149842507874611 33:0.47390860315881317 34:0.2956962812252746 35:0.22928311775958124 36:0.024448705656759346 37:1.0 38:0.0 39:0.0 40:1.0 41:0.04034733840290145 42:0.0 43:0.24637681159420288 44:1.0 45:0.0445859872611465 46:1.0 47:0.019241470648792676 48:0.6872151238166682 49:0.014423076923076926 50:0.01389326678850546 51:0.1914456375636796 52:0.0873015873015873 53:0.08333333333333331 54:0.014423076923076924 55:0.002013644726264934 56:0.7523308934166988 57:0.1823184942909184 58:0.17387105851900103 59:0.15535047242364317 60:0.14637950011469225 61:0.0 
0.0 0.0 10.504639264979492 0.0 0.0 0.0 0.0 0:0.0 1:0.0 2:0.0 3:1.0 4:0.0 5:0.015602836879432624 6:0.015416647946754644 7:0.0 8:0.0 9:0.0 10:0.0 11:0.0 12:0.0 13:0.0238197171011092 14:0.0 15:0.0 16:0.0 17:0.08226691797484409 18:0.2490375481225961 19:0.004593505073097393 20:0.8571428571428571 21:0.010849559025652517 22:0.01688849951291478 23:0.9999999999999998 24:0.0 25:1.0 26:1.0 27:0.0 28:0.0 29:0.0 30:0.0 31:0.023010421601136907 32:0.24903754812259354 33:0.557046583116576 34:6.425163203437094E-16 35:0.0 36:0.016778523489932886 37:1.0 38:0.0 39:0.0 40:0.5555555555555556 41:0.013023265158964657 42:0.0 43:0.16908212560386474 44:1.0 45:0.0445859872611465 46:1.0 47:0.029155050277402113 48:0.557046583116576 49:0.014423076923076926 50:0.016768526097639992 51:0.10238287157008388 52:0.05555555555555556 53:0.041666666666666664 54:0.014423076923076924 55:0.0015706095364577276 56:0.7043516310579676 57:0.2608159188389902 58:0.2976770474477875 59:0.13350608808977185 60:0.15460111739734672 61:0.0 
0.0 0.0 0.0 1.5770884860647782 1.664525831824806 0.0 0.0 0:0.0 1:0.0 2:0.0 3:0.0 4:0.0 5:0.005200945626477541 6:0.009371024459680653 7:0.0 8:0.0 9:0.0 10:0.0 11:0.0 12:0.0 13:0.027366240067213114 14:0.0 15:0.0 16:0.0 17:0.002584112420501735 18:0.3480325983700839 19:0.0021774381684034685 20:1.0 21:0.015162373093267897 22:0.02891035489752363 23:0.9999999999999998 24:1.0 25:1.0 26:0.0 27:0.0 28:0.0 29:0.8333333333333333 30:0.0 31:0.03694931312174325 32:0.3480325983700821 33:0.1384814213843658 34:6.425163203437094E-16 35:0.0 36:0.0062320230105465 37:1.0 38:0.006341463414634147 39:1.0 40:0.8333333333333333 41:0.09933523880924741 42:0.0 43:0.0 44:0.0 45:0.0 46:0.0 47:0.026950023093660038 48:0.1384814213843658 49:0.0 50:0.0029802638965646857 51:0.22133012738246988 52:0.16666666666666666 53:0.16666666666666666 54:0.0 55:1.0 56:0.2029617116281956 57:0.32084451321020785 58:0.42241379928673556 59:0.15277935631173648 60:0.20974180852088947 61:0.0 
0.0 0.0 0.0 0.0 1.9388467894251946 0.0 0.0 0:0.0 1:0.0 2:0.0 3:0.5 4:0.0 5:0.033569739952718676 6:0.03267711981175971 7:0.0 8:0.0 9:0.0 10:0.0 11:0.0 12:0.0 13:0.04838531856495246 14:0.021739130434782608 15:0.06301369863013699 16:0.0 17:0.7005942529365684 18:0.37503124843758 19:0.09629773314967875 20:0.5833333333333334 21:0.05397769970180598 22:0.054355231902995044 23:0.9999999999999998 24:0.0 25:0.0 26:1.0 27:1.0 28:0.0 29:0.5555555555555556 30:0.029411764705882353 31:0.026534201151178105 32:0.3750312484375787 33:0.5382631012467283 34:6.425163203437094E-16 35:0.7989653336371743 36:0.034036433365292426 37:0.9726027397260274 38:0.033170731707317075 39:0.9315068493150684 40:1.0 41:0.03177908024239961 42:0.09126984126984126 43:0.014492753623188404 44:0.0410958904109589 45:0.019108280254777073 46:0.25 47:0.051622677417739196 48:0.9099077796169307 49:0.026442307692307696 50:0.03268399639177915 51:0.11624928828125942 52:0.07060185185185183 53:0.08333333333333331 54:0.026442307692307696 55:0.0017200124884159801 56:0.9696300914647121 57:0.07773360230321784 58:0.06860353311848541 59:0.12055705831988421 60:0.1075702053111232 61:0.0 
0.0 0.0 113.26318256388798 0.0 0.0 0.0 0.0 0:0.0 1:0.0 2:0.0 3:1.0 4:0.0 5:0.01796690307328605 6:0.016207915849546284 7:0.0 8:0.0 9:0.0 10:0.0 11:0.0 12:0.0 13:0.023819717101109122 14:0.0 15:0.0 16:0.0 17:0.07244046286741365 18:0.24903754812259687 19:0.00462079920508815 20:0.7142857142857143 21:0.010849559025652548 22:0.017990285800492507 23:0.9999999999999998 24:0.0 25:1.0 26:1.0 27:0.0 28:0.0 29:0.0 30:0.0 31:0.020446608573033834 32:0.2490375481225942 33:0.6420365130747467 34:6.425163203437094E-16 35:0.0 36:0.019175455417066153 37:1.0 38:0.0 39:0.0 40:0.5555555555555556 41:0.00972575325095253 42:0.0 43:0.1932367149758454 44:1.0 45:0.0445859872611465 46:1.0 47:0.02439719982415421 48:0.6420365130747467 49:0.014423076923076926 50:0.014734345762650996 51:0.12101846860799036 52:0.06547619047619047 53:0.05555555555555556 54:0.014423076923076924 55:0.0017253378537151166 56:0.8110763226882758 57:0.22003956207524633 58:0.25191672011762234 59:0.12918721917880874 60:0.15565401361208736 61:0.0 
