svm_type c_svc
kernel_type rbf
gamma 0.125
nr_class 8
total_sv 817
rho -3.012141632030607 -1.0130117031781787 0.23118397673538668 -0.2668378799651999 0.29445937405135664 -3.2043690381124166 -0.8301587355883722 2.781064965754772 3.971527488243653 6.36354103935376 2.88378663550133 -3.023533425889853 -0.9628559211659571 3.4353191664270883 -1.7989585388951632 2.9005864834494197 -1.6077706753217247 -0.8520488144603383 -1.7665678219637293 1.7564738962705015 -2.331479234950759 -3.209551707459299 2.9600845565965215 -3.21983052695762 -1.6436678052964333 -4.3450191627408055 -4.738842385611044 -0.04131076352554324
label 14 8 5 4 10 9 13 11
nr_sv 94 135 192 88 99 108 73 28
SV
0.0 0.0 0.0 0.0 0.0 0.0 0.5849788576877061 0:0.0 1:0.0 2:0.0 3:1.0 4:0.0 5:0.0 6:0.0 7:0.0 8:0.0 9:0.0 10:0.0 11:0.0 12:0.0 13:0.06944444444444445 14:0.0 15:0.0 16:0.0 17:1.0 18:0.0 19:0.0 20:6.425163203437094E-16 21:1.0 22:0.004830917874396135 23:0.006369426751592357 24:1.0 25:1.0 26:1.0 27:0.0 28:0.009970813404440641 29:0.0 30:0.0 31:0.5 32:0.0 33:0.3603002594725243 34:0.5 35:0.0034146341463414634 36:0.0 37:0.0 38:0.0 39:0.5010249487525644 40:0.125 41:0.875 42:0.02580016868492063 43:0.0256286181495715 44:0.0010010912873863998 45:0.10062352493134041 46:0.04199150821076994 47:0.10808664004626999 48:0.10930206134862565 49:0.11555067228740806 50:0.14986522558505205 
3.2366667224993653 0.0 0.0 0.0 0.0 0.0 0.0 0:0.0 1:1.0 2:0.0 3:0.0 4:0.0 5:0.0 6:0.0 7:0.0 8:0.0 9:1.0 10:0.0 11:0.0 12:0.0 13:0.08333333333333331 14:0.0 15:0.0 16:0.0 17:1.0 18:0.0 19:0.0 20:0.03931276138804169 21:1.0 22:0.03864734299516908 23:0.0445859872611465 24:1.0 25:1.0 26:1.0 27:0.0 28:0.03367919194388839 29:0.0 30:0.8333333333333333 31:0.6363636363636364 32:0.0 33:0.6609907051965592 34:0.6363636363636364 35:0.029268292682926828 36:0.0 37:0.0 38:0.19253076938246505 39:0.5010178062525457 40:0.11428571428571428 41:0.8571428571428571 42:0.02580016868492063 43:0.07161202319050758 44:0.04267672540100383 45:0.3548152523917948 46:0.01614191193246628 47:0.10808664004626999 48:0.10930206134862565 49:0.6159430777635538 50:0.05015004142458229 
0.0 0.0 1.8313438015971988 0.0 26.05425576781142 0.0 0.0 0:0.0 1:0.0 2:0.0 3:1.0 4:0.0 5:0.0 6:0.0 7:0.0 8:0.0 9:0.0 10:0.0 11:0.0 12:0.0 13:0.06944444444444445 14:0.0 15:0.0 16:0.0 17:1.0 18:0.0 19:0.0 20:6.425163203437094E-16 21:1.0 22:0.00966183574879227 23:0.012738853503184714 24:1.0 25:1.0 26:1.0 27:0.0 28:0.012988243400370353 29:0.0 30:0.0 31:0.6666666666666666 32:0.0 33:0.6781171198837364 34:0.3333333333333333 35:0.016097560975609757 36:0.0 37:0.0 38:0.0 39:0.19804009799510341 40:0.05714285714285714 41:0.9428571428571428 42:0.026794681168566172 43:0.010804299608619403 44:0.0017495765565994487 45:0.10108158928355725 46:0.011980879562388969 47:0.07866655553787597 48:0.08118399536113144 49:0.3518541923174143 50:0.023572772443556413 
0.0 0.0 0.0 0.0 0.0 11.397601709213253 0.0 0:0.0 1:0.0 2:0.0 3:1.0 4:0.0 5:0.0 6:0.0 7:0.0 8:0.0 9:0.0 10:0.0 11:0.0 12:0.0 13:0.27777777777777773 14:0.0 15:0.0 16:0.0 17:0.0 18:0.0 19:0.0 20:6.425163203437094E-16 21:1.0 22:0.0 23:0.0 24:1.0 25:1.0 26:1.0 27:0.5555555555555556 28:0.007261284428503755 29:0.0 30:0.5555555555555556 31:0.5 32:0.0 33:0.9999999999999998 34:0.0 35:0.011707317073170732 36:0.0 37:0.14743589743589744 38:0.0 39:0.3990300484975779 40:0.0 41:0.96 42:0.019844524961020026 43:0.01870238314514453 44:8.859574103131169E-4 45:0.03792846745853205 46:0.13631380666989415 47:0.19075256922187114 48:0.17906947078370422 49:0.3376888642460516 50:0.04016193294069539 
0.0 0.0 0.0 0.0 0.0 6.7905234253444045 0.0 0:0.0 1:0.0 2:0.0 3:0.0 4:0.0 5:0.0 6:0.0 7:0.0 8:0.0 9:1.0 10:0.0 11:0.021739130434782608 12:0.0 13:0.08333333333333331 14:0.0 15:0.0 16:0.0 17:0.0 18:0.0 19:0.0 20:6.425163203437094E-16 21:1.0 22:0.014492753623188404 23:0.012738853503184714 24:1.0 25:1.0 26:1.0 27:0.33333333333333337 28:0.007261284428503755 29:0.08679245283018869 30:0.8333333333333333 31:0.5 32:0.0 33:0.9999999999999998 34:0.25 35:0.022926829268292682 36:0.0 37:0.06388888888888888 38:0.0 39:0.39903004849757734 40:0.05660377358490566 41:0.8867924528301887 42:0.019844524961020026 43:0.018702383145144462 44:0.006139972310533198 45:0.10895723047374846 46:0.7966797994468651 47:0.16362704167582218 48:0.1539707180956115 49:0.8370610154842183 50:0.009327730888091228 
63.09557683742654 151.87300335093914 71.71825204697195 41.68870483657848 0.0 220.25359632776602 4.690388876468644 0:0.0 1:0.0 2:0.0 3:0.0 4:0.0 5:0.0 6:0.0 7:0.0 8:0.0 9:0.0 10:0.0 11:0.021739130434782608 12:0.0 13:0.13888888888888887 14:0.0 15:0.0 16:0.0 17:0.0 18:0.3333333333333333 19:0.034482758620689655 20:6.425163203437094E-16 21:1.0 22:0.01932367149758454 23:0.025477707006369428 24:1.0 25:1.0 26:1.0 27:0.5 28:0.025989988093256693 29:0.09019607843137256 30:0.2777777777777778 31:0.2 32:0.22291021671826625 33:0.9999999999999998 34:0.8 35:0.020975609756097562 36:0.0 37:0.2787878787878788 38:0.0 39:0.20003999800010247 40:0.0784313725490196 41:0.8431372549019608 42:0.02697472222163999 43:0.013641799007259642 44:0.0015510704960323097 45:0.06889314842312497 46:0.025980367606550748 47:0.5717727820335052 48:0.6287778136695441 49:0.4589635603101737 50:0.015639764262641367 
0.0 0.0 0.0 0.0 14.327284955792939 0.0 0.0 0:0.0 1:0.0 2:0.0 3:0.0 4:0.09090909090909091 5:0.0 6:0.0 7:0.0 8:0.0 9:0.0 10:0.0 11:0.0 12:0.0 13:0.05555555555555556 14:0.0 15:0.016129032258064516 16:0.0 17:0.0 18:0.5 19:0.017241379310344827 20:0.21065615462868822 21:1.0 22:0.04830917874396135 23:0.050955414012738856 24:1.0 25:1.0 26:1.0 27:0.5555555555555556 28:0.05159218906258225 29:0.0 30:1.0 31:0.5 32:0.11368421052631579 33:0.9999999999999998 34:0.8 35:0.018048780487804877 36:0.04 37:0.06497175141242938 38:0.16333792746817893 39:0.4788260586970667 40:0.2 41:0.74 42:0.015743589863228585 43:0.05409869661538544 44:0.03372811256390101 45:0.4039463135494685 46:0.029906289822651765 47:0.11567749414679608 48:0.10141505151971937 49:0.3991925620306424 50:0.06068695499317249 
0.0 0.0 0.0 0.0 9.653027812457578 0.0 0.0 0:0.0 1:0.0 2:0.0 3:1.0 4:0.0 5:0.0 6:0.0 7:0.0 8:0.0 9:0.0 10:0.0 11:0.0 12:0.0 13:0.08333333333333331 14:0.0 15:0.0 16:0.0 17:0.0 18:0.0 19:0.0 20:6.425163203437094E-16 21:1.0 22:0.00966183574879227 23:0.006369426751592357 24:1.0 25:1.0 26:1.0 27:0.0 28:0.005107556268143668 29:0.0 30:1.0 31:0.75 32:0.0 33:0.9999999999999998 34:0.25 35:0.01073170731707317 36:0.0 37:0.1369047619047619 38:0.0 39:0.40002999850007687 40:0.08 41:0.88 42:0.025562971741982132 43:0.022485192320274197 44:0.002286338642690676 45:0.09631168543552072 46:0.031156964547058127 47:0.07330585421418052 48:0.08008368131414466 49:0.34293180910136095 50:0.03946659482837757 
0.0 0.0 0.5766874516087792 0.2302888132726905 35.09687326845613 0.0 0.0 0:0.0 1:1.0 2:0.0 3:0.0 4:0.0 5:0.0 6:0.0 7:0.0 8:0.0 9:1.0 10:0.0 11:0.0 12:0.0 13:0.027777777777777776 14:0.0 15:0.0 16:0.0 17:0.0 18:1.0 19:0.0 20:0.011094156211145458 21:1.0 22:0.024154589371980676 23:0.012738853503184714 24:1.0 25:1.0 26:1.0 27:0.5555555555555556 28:0.06362661746740132 29:0.0 30:0.8333333333333333 31:0.5 32:0.0 33:0.11442249938169095 34:1.0 35:0.0 36:0.0 37:0.0 38:0.02913587172065316 39:0.34803259837008255 40:1.0 41:0.0 42:0.004966846829241431 43:0.06414880473456716 44:0.0037836492453216844 45:0.448803242617628 46:0.04880831149173912 47:0.1903585671457833 48:0.2162903355997756 49:0.030390530083740475 50:0.5711679038244395 
100.32283165303973 0.0 9.679818931492234 0.0 0.0 0.0 0.0 0:0.0 1:0.0 2:0.0 3:0.0 4:0.0 5:0.0 6:0.0 7:0.0 8:0.0 9:1.0 10:0.0 11:0.0 12:0.0 13:0.08333333333333331 14:0.0 15:0.0 16:0.0 17:0.0 18:0.0 19:0.0 20:6.425163203437094E-16 21:1.0 22:0.024154589371980676 23:0.03184713375796178 24:1.0 25:1.0 26:1.0 27:0.0 28:0.03694931312174325 29:0.0 30:0.8333333333333333 31:0.8333333333333334 32:0.0 33:0.9999999999999997 34:0.8333333333333334 35:0.016097560975609757 36:0.0 37:0.0 38:0.0 39:0.34803259837008277 40:0.13157894736842105 41:0.868421052631579 42:0.027366240067213114 43:0.028910354897523582 44:0.002883320563540268 45:0.08635866214268739 46:0.026950023093660038 47:0.12307766134511298 48:0.17084745522037711 49:0.529256121525428 50:0.01916219778558552 
0.0 0.0 11.318806331995587 0.0 0.0 0.0 0.0 0:0.0 1:1.0 2:0.0 3:1.0 4:0.0 5:0.0 6:0.0 7:0.0 8:0.0 9:0.0 10:0.0 11:0.0 12:0.0 13:0.05555555555555556 14:0.0 15:0.0 16:0.0 17:0.0 18:0.5 19:0.017241379310344827 20:6.425163203437094E-16 21:1.0 22:0.22705314009661834 23:0.0445859872611465 24:1.0 25:1.0 26:1.0 27:0.5555555555555556 28:0.006126211479124793 29:0.0 30:1.0 31:0.7142857142857143 32:0.11842105263157894 33:0.9999999999999998 34:1.0 35:0.0 36:0.0 37:0.07098765432098765 38:0.0 39:0.24903754812259643 40:0.9791666666666666 41:0.0 42:0.018847154682881232 43:0.01606733980964191 44:0.0024662587050317732 45:0.06260922345116064 46:0.03730043460598873 47:0.13176338659938325 48:0.1482191141871841 49:0.743248587340286 50:0.006762080506834581 
0.0 0.0 146.141810678132 0.0 0.0 0.0 0.0 0:0.0 1:1.0 2:0.0 3:1.0 4:0.0 5:0.0 6:0.0 7:0.0 8:0.0 9:0.0 10:0.0 11:0.021739130434782608 12:0.0 13:0.027777777777777776 14:0.0 15:0.0 16:0.0 17:0.0 18:0.0 19:0.0 20:6.425163203437094E-16 21:1.0 22:0.2077294685990338 23:0.05732484076433121 24:1.0 25:1.0 26:1.0 27:0.0 28:0.02126051747084433 29:0.10222222222222224 30:0.5555555555555556 31:0.5 32:0.0 33:0.9999999999999998 34:0.9 35:0.0 36:0.0 37:0.1419753086419753 38:0.0 39:0.24903754812259632 40:0.9555555555555556 41:0.0 42:0.032050165241624406 43:0.016461666248595706 44:0.003705674104832828 45:0.1017316716433145 46:0.031225132579867847 47:0.13174823267337987 48:0.150155923689524 49:0.6853376929411862 50:0.008375891202211671 
0.0 1.125880309900625 46.00976061192415 0.0 0.0 512.0 0.0 0:1.0 1:0.0 2:0.0 3:0.0 4:0.0 5:0.0 6:0.0 7:1.0 8:0.0 9:0.0 10:0.0 11:0.0 12:0.0 13:0.05555555555555556 14:0.0 15:0.0 16:0.0 17:0.0 18:0.0 19:0.06896551724137931 20:6.425163203437094E-16 21:1.0 22:0.02898550724637681 23:0.03184713375796178 24:1.0 25:1.0 26:1.0 27:0.5 28:0.006677983051739564 29:0.0 30:0.2777777777777778 31:0.4 32:0.28421052631578947 33:0.9999999999999998 34:0.5 35:0.033658536585365856 36:0.0 37:0.2153558052434457 38:0.0 39:0.10004499775011527 40:0.075 41:0.8625 42:0.01929868621281216 43:0.005283624164817655 44:0.003534265401393613 45:0.12224812357690676 46:0.03854137103999371 47:0.36234678749397 48:0.3464020988774511 49:0.7439640903123752 50:0.001609888290926861 
0.0 0.0 0.0 2.7067051286949813 0.0 0.0 0.13225540729924043 0:0.0 1:0.0 2:0.0 3:0.0 4:0.0 5:0.0 6:0.0 7:0.0 8:0.0 9:0.0 10:0.0 11:0.0 12:0.0 13:0.05555555555555556 14:0.0 15:0.0 16:0.0 17:0.0 18:0.0 19:0.0 20:6.425163203437094E-16 21:1.0 22:0.043478260869565216 23:0.05732484076433121 24:1.0 25:1.0 26:1.0 27:0.5555555555555556 28:0.02211412924171876 29:0.0 30:0.5555555555555556 31:0.6153846153846154 32:0.0 33:0.9999999999999998 34:0.6923076923076923 35:0.03219512195121951 36:0.0 37:0.0 38:0.7328689532165152 39:0.30003499825008967 40:0.12 41:0.88 42:0.029901103782712067 43:0.04874867721433264 44:0.07031104232689628 45:0.7018487393615819 46:0.04532617708107261 47:0.1533350002651937 48:0.14696445716150783 49:0.44617827643284064 50:0.03128790840285117 
0.0 100.76877392681799 0.0 0.0 0.0 23.328523447773748 0.0 0:0.0 1:0.0 2:0.0 3:0.0 4:0.0 5:0.0 6:0.0 7:0.0 8:0.0 9:0.0 10:0.0 11:0.0 12:0.0 13:0.09722222222222221 14:0.0 15:0.0 16:0.0 17:0.0 18:0.25 19:0.034482758620689655 20:6.425163203437094E-16 21:1.0 22:0.05314009661835749 23:0.07006369426751592 24:1.0 25:1.0 26:1.0 27:0.5555555555555556 28:0.024442161344103555 29:0.0 30:0.5555555555555556 31:0.75 32:0.09094736842105264 33:0.9999999999999998 34:0.6875 35:0.054634146341463415 36:0.0 37:0.05476190476190476 38:0.00447873368406518 39:0.30003499825008967 40:0.088 41:0.896 42:0.029901103782712067 43:0.04875980707065197 44:0.018410538277167234 45:0.19490974911644404 46:0.04532617708107261 47:0.1533350002651937 48:0.1469930970885098 49:0.7391247625182443 50:0.03394110284193098 
89.25685658680982 0.0 0.0 0.0 0.0 0.0 0.0 0:0.0 1:0.0 2:0.0 3:0.0 4:0.2272727272727273 5:0.0 6:0.0 7:0.0 8:0.0 9:0.0 10:0.0 11:0.08695652173913043 12:0.0 13:0.06944444444444445 14:0.0 15:0.04838709677419355 16:0.0 17:0.0 18:0.0 19:0.06896551724137931 20:0.05180663878527616 21:1.0 22:0.1111111111111111 23:0.12101910828025478 24:1.0 25:1.0 26:1.0 27:0.5555555555555556 28:0.05855355631314504 29:0.10054644808743171 30:0.5555555555555556 31:0.5294117647058824 32:0.12424503882657463 33:0.9999999999999998 34:0.5588235294117647 35:0.06975609756097562 36:0.03278688524590164 37:0.1419753086419753 38:0.4338017305791895 39:0.2795442195103382 40:0.12568306010928962 41:0.7814207650273224 42:0.04127798366027836 43:0.08361372023800911 44:0.09803771818649014 45:0.5091608824478706 46:0.11630579344807816 47:0.16098520724256635 48:0.14529093044372818 49:0.7664810299981246 50:0.048906210200381946 
0.0 0.0 0.0 0.0 0.0 0.0 0.5678173110967911 0:0.0 1:1.0 2:0.0 3:1.0 4:0.0 5:0.0 6:0.0 7:0.0 8:0.0 9:0.0 10:0.0 11:0.0 12:0.0 13:0.08333333333333331 14:0.0 15:0.0 16:0.0 17:0.0 18:0.0 19:0.0 20:6.425163203437094E-16 21:1.0 22:0.014492753623188404 23:0.019108280254777073 24:1.0 25:1.0 26:1.0 27:0.5 28:0.006677983051739564 29:0.0 30:0.33333333333333337 31:0.5 32:0.0 33:0.21418486978549245 34:0.75 35:0.007317073170731707 36:0.0 37:0.17424242424242425 38:0.0 39:0.45002749862507047 40:0.15789473684210525 41:0.7894736842105263 42:0.02661749790998552 43:0.019489411123075694 44:0.005914546912494957 45:0.2520324366779609 46:0.2004654902811861 47:0.11827386680204173 48:0.10623772518706144 49:0.3151821169103318 50:0.047846177802872904 
0.0 0.0 0.0 0.0 35.082498397798936 0.0 0.0 0:0.0 1:0.0 2:0.0 3:1.0 4:0.0 5:0.0 6:0.0 7:0.0 8:0.0 9:0.0 10:0.0 11:0.0 12:0.0 13:0.05555555555555556 14:0.0 15:0.0 16:0.0 17:1.0 18:0.0 19:0.0 20:6.425163203437094E-16 21:1.0 22:0.033816425120772944 23:0.019108280254777073 24:1.0 25:1.0 26:1.0 27:0.0 28:0.03875955877377005 29:0.0 30:0.0 31:0.8333333333333334 32:0.0 33:0.9999999999999998 34:0.5 35:0.01121951219512195 36:0.0 37:0.0 38:0.0 39:0.35003249837508327 40:0.23333333333333334 41:0.7666666666666667 42:0.07229648508984511 43:0.031679423106531 44:0.002493487830448807 45:0.09186450673189421 46:0.03413131667250958 47:0.07299646155827821 48:0.1126024012190843 49:0.42593830774374 50:0.026687812368478427 
0.0 0.0 18.080288575318598 0.0 0.0 0.0 0.0 0:0.0 1:0.0 2:0.0 3:1.0 4:0.0 5:0.0 6:0.0 7:0.0 8:0.0 9:0.0 10:0.0 11:0.0 12:0.0 13:0.125 14:0.0 15:0.0 16:0.0 17:0.0 18:0.5 19:0.017241379310344827 20:6.425163203437094E-16 21:1.0 22:0.13526570048309178 23:0.025477707006369428 24:1.0 25:1.0 26:1.0 27:0.5555555555555556 28:0.020446608573033834 29:0.0 30:0.5555555555555556 31:0.5 32:0.19600725952813067 33:0.9999999999999998 34:1.0 35:0.0 36:0.0 37:0.11979166666666667 38:0.0 39:0.30003499825008967 40:0.9655172413793104 41:0.0 42:0.03733994284860133 43:0.0142276214117772 44:0.0014143507535759338 45:0.049076083032282725 46:0.03928287229484199 47:0.10417566431023116 48:0.0996052965693696 49:0.49231496807755976 50:0.01894800739079862 
14.690919489565138 0.0 0.0 0.0 0.0 0.0 0.0 0:0.0 1:0.0 2:0.0 3:1.0 4:0.0 5:0.0 6:0.0 7:0.0 8:0.0 9:0.0 10:0.0 11:0.0 12:0.0 13:0.05555555555555556 14:0.0 15:0.0 16:0.0 17:0.0 18:1.0 19:0.0 20:6.425163203437094E-16 21:1.0 22:0.033816425120772944 23:0.0445859872611465 24:1.0 25:1.0 26:1.0 27:1.0 28:0.01348316578065512 29:0.0 30:0.2777777777777778 31:0.7142857142857143 32:0.0 33:1.0 34:1.0 35:0.015121951219512195 36:0.0 37:0.0851851851851852 38:0.0 39:0.40002999850007687 40:0.1794871794871795 41:0.7948717948717948 42:0.022262219102296383 43:0.017956688256495212 44:0.0033042114395495656 45:0.08536462830838208 46:0.03520391980100493 47:0.10893273424812532 48:0.10051121986710952 49:0.5691571334219389 50:0.019370176438907837 
0.0 0.0 63.1274671322064 0.0 0.0 0.0 0.0 0:0.0 1:1.0 2:0.0 3:1.0 4:0.0 5:0.0 6:0.0 7:0.0 8:0.0 9:0.0 10:0.0 11:0.0 12:0.0 13:0.06944444444444445 14:0.0 15:0.03225806451612903 16:0.125 17:0.0 18:0.3333333333333333 19:0.034482758620689655 20:0.04916920990166212 21:1.0 22:0.3961352657004831 23:0.089171974522293 24:1.0 25:1.0 26:1.0 27:0.0 28:0.06362661746740132 29:0.0 30:0.5555555555555556 31:0.75 32:0.12631578947368421 33:0.9999999999999998 34:0.875 35:0.0 36:0.044444444444444446 37:0.07301587301587302 38:0.037981589862811395 39:0.25203739813009435 40:0.9111111111111111 41:0.0 42:0.02715190548022056 43:0.05292425894851996 44:0.017736440866504874 45:0.21736724221275644 46:0.041255571693293906 47:0.1650325683126356 48:0.19091584604145137 49:0.6790877439029362 50:0.030607077690955796 
0.0 0.0 40.30166954888401 6.214977197091196 123.42790446173987 2.8813824028785016 0.07425759575501266 0:0.0 1:0.0 2:0.0 3:0.0 4:0.0 5:0.0 6:0.0 7:0.0 8:0.0 9:0.0 10:0.0 11:0.0 12:0.0 13:0.05555555555555556 14:0.0 15:0.0 16:0.0 17:1.0 18:0.0 19:0.0 20:6.425163203437094E-16 21:1.0 22:0.033816425120772944 23:0.025477707006369428 24:1.0 25:1.0 26:1.0 27:0.0 28:0.011605873993368073 29:0.0 30:0.0 31:0.625 32:0.0 33:0.9999999999999998 34:0.5 35:0.014146341463414635 36:0.0 37:0.0 38:0.0 39:0.2023371804382778 40:0.1891891891891892 41:0.7837837837837838 42:0.11539488384231386 43:0.018427141740957755 44:0.010608475671826297 45:0.42809873546628446 46:0.05511176775012098 47:0.04280352682371184 48:0.044356453913078166 49:0.37693756574065773 50:0.03276009788970557 
0.0 0.0 0.0 0.0 11.240665284227184 0.0 0.0 0:0.0 1:0.0 2:0.0 3:0.0 4:0.0 5:0.0 6:0.0 7:0.0 8:0.0 9:0.0 10:0.0 11:0.021739130434782608 12:0.0 13:0.05555555555555556 14:0.0 15:0.0 16:0.0 17:0.0 18:0.0 19:0.0 20:6.425163203437094E-16 21:1.0 22:0.014492753623188404 23:0.019108280254777073 24:1.0 25:1.0 26:1.0 27:0.0 28:0.006126211479124793 29:0.09387755102040816 30:0.5555555555555556 31:0.6666666666666666 32:0.0 33:0.9999999999999998 34:0.3333333333333333 35:0.02195121951219512 36:0.0 37:0.06725146198830409 38:0.0 39:0.39903004849757767 40:0.061224489795918366 41:0.9183673469387755 42:0.02001599263061406 43:0.01959147291999931 44:0.0069501958407217805 45:0.1345633436170863 46:0.022826552700845187 47:0.12543914814730625 48:0.12225518643121197 49:0.7658919121664045 50:0.011315093735393737 
0.0 24.197300920086334 1.8069520900593914 3.1099188415510626 61.99733888647977 0.0 0.0 0:0.0 1:1.0 2:0.0 3:0.0 4:0.045454545454545456 5:0.0 6:0.0 7:0.0 8:0.0 9:0.0 10:0.0 11:0.0 12:0.0 13:0.05555555555555556 14:0.4 15:0.03225806451612903 16:0.0 17:0.0 18:0.0 19:0.06896551724137931 20:6.425163203437094E-16 21:1.0 22:0.10628019323671498 23:0.14012738853503184 24:1.0 25:1.0 26:1.0 27:0.0 28:0.1644344917675093 29:0.0 30:0.5555555555555556 31:0.6551724137931034 32:0.13374613003095975 33:0.9999999999999998 34:0.7586206896551724 35:0.06731707317073171 36:0.023529411764705882 37:0.07744107744107745 38:0.6587485401387881 39:0.19979706897008176 40:0.12941176470588237 41:0.8117647058823529 42:0.046630632746106536 43:0.11661625685081115 44:0.1867634021265131 45:0.8155745536310016 46:0.08601136319371401 47:0.08053301409062553 48:0.0756769169164174 49:0.5097923002910936 50:0.07582346547634392 
0.0 0.0 50.360392664950545 0.0 0.0 0.0 0.0 0:0.0 1:1.0 2:0.0 3:1.0 4:0.0 5:0.0 6:0.0 7:0.0 8:0.0 9:0.0 10:0.0 11:0.0 12:0.0 13:0.06944444444444445 14:0.0 15:0.0 16:0.0 17:0.0 18:0.0 19:0.0 20:6.425163203437094E-16 21:1.0 22:0.024154589371980676 23:0.03184713375796178 24:1.0 25:1.0 26:1.0 27:0.0 28:0.025989988093256693 29:0.0 30:0.5555555555555556 31:0.7272727272727273 32:0.0 33:0.9999999999999998 34:0.45454545454545453 35:0.02975609756097561 36:0.0 37:0.0 38:0.0 39:0.22263886805659944 40:0.07575757575757576 41:0.9242424242424242 42:0.04242110145757218 43:0.009668970744063426 44:0.00441345701027707 45:0.10675546072768288 46:0.05331018402586483 47:0.07642377448937583 48:0.07049570407425787 49:0.821081449107558 50:0.004130336989574247 
0.0 0.0 2.559981215787574 0.0 0.0 0.0 0.0 0:0.0 1:1.0 2:0.25 3:1.0 4:0.0 5:0.0 6:0.0 7:0.0 8:0.0 9:0.0 10:0.0 11:0.0 12:0.0 13:0.16666666666666666 14:0.0 15:0.0 16:0.0 17:0.0 18:1.0 19:0.0 20:6.425163203437094E-16 21:1.0 22:0.15458937198067632 23:0.019108280254777073 24:1.0 25:1.0 26:1.0 27:0.0 28:0.02211412924171876 29:0.0 30:0.5555555555555556 31:1.0 32:0.0 33:0.9999999999999998 34:1.0 35:0.0 36:0.0 37:0.0 38:0.0 39:0.22173891305434917 40:1.0 41:0.0 42:0.023256731585941968 43:0.009665466209592676 44:9.452319456665291E-4 45:0.03855303769231074 46:0.02295454166040626 47:0.08871613413245036 48:0.08166010318652243 49:0.4813459609755303 50:0.01544705048994938 
0.0 0.0 512.0 0.0 7.829957829744184 0.0 0.0 0:0.0 1:0.0 2:0.25 3:0.0 4:0.0 5:0.0 6:0.0 7:0.0 8:0.0 9:0.0 10:0.0 11:0.0 12:0.0 13:0.08333333333333331 14:0.0 15:0.0 16:0.0 17:1.0 18:1.0 19:0.0 20:6.425163203437094E-16 21:1.0 22:0.06280193236714976 23:0.012738853503184714 24:1.0 25:1.0 26:1.0 27:0.0 28:0.007878897650959957 29:0.0 30:0.0 31:1.0 32:0.0 33:0.9999999999999998 34:1.0 35:0.0 36:0.0 37:0.0 38:0.0 39:0.22503874806259933 40:1.0 41:0.0 42:0.0255658295364754 43:0.013433757438125941 44:8.573769910090125E-4 45:0.08703139570653112 46:0.011382670294875368 47:0.04297905979991766 48:0.048994876407162824 49:0.1826672972333886 50:0.05793966192013143 
0.0 0.0 17.433567112350026 2.2194083788048475 0.0 0.0 0.0 0:0.0 1:1.0 2:0.0 3:0.0 4:0.0 5:0.0 6:0.0 7:0.0 8:0.0 9:0.0 10:0.0 11:0.0 12:0.0 13:0.08333333333333331 14:0.0 15:0.0 16:0.0 17:0.0 18:1.0 19:0.0 20:6.425163203437094E-16 21:1.0 22:0.033816425120772944 23:0.006369426751592357 24:1.0 25:1.0 26:1.0 27:0.33333333333333337 28:0.027093531238486235 29:0.0 30:0.5555555555555556 31:1.0 32:0.0 33:0.0 34:1.0 35:0.0 36:0.0 37:0.0 38:0.0 39:0.34803259837008255 40:1.0 41:0.0 42:0.04554752863317075 43:0.022984883741571004 44:1.7765586741404266E-5 45:0.0025943020943357585 46:0.11749664724573325 47:0.1903585671457833 48:0.221199308768579 49:0.09594874471017038 50:0.14188064238717188 
0.0 0.0 0.0 0.0 35.70028795996497 0.0 0.0 0:0.0 1:1.0 2:0.0 3:0.0 4:0.0 5:0.0 6:0.0 7:0.0 8:0.0 9:1.0 10:0.0 11:0.0 12:0.0 13:0.027777777777777776 14:0.0 15:0.0 16:0.0 17:0.0 18:1.0 19:0.0 20:6.425163203437094E-16 21:1.0 22:0.014492753623188404 23:0.006369426751592357 24:1.0 25:1.0 26:1.0 27:0.5555555555555556 28:0.024944526166197113 29:0.0 30:0.8333333333333333 31:1.0 32:0.0 33:0.15691822311963663 34:1.0 35:0.0 36:0.0 37:0.0 38:0.0 39:0.34803259837008255 40:1.0 41:0.0 42:0.024859954296646555 43:0.02211558749538165 44:0.0 45:0.0 46:0.0538165751267369 47:0.1903585671457833 48:0.21566083474333544 49:0.04136871030079671 50:0.2891305739155556 
0.0 0.0 0.0 0.0 0.0 0.0 1.3141056883496187 0:0.0 1:1.0 2:0.0 3:1.0 4:0.0 5:0.0 6:0.0 7:0.0 8:0.0 9:0.0 10:0.0 11:0.0 12:0.0 13:0.041666666666666664 14:0.0 15:0.06451612903225806 16:0.25 17:0.0 18:0.0 19:0.0 20:6.425163203437094E-16 21:1.0 22:0.23671497584541062 23:0.050955414012738856 24:1.0 25:1.0 26:1.0 27:0.0 28:0.07272828600886114 29:0.0 30:0.5555555555555556 31:0.5454545454545454 32:0.0 33:0.9999999999999998 34:0.7272727272727273 35:0.0 36:0.13333333333333333 37:0.0 38:0.6296477269988322 39:0.34803259837008343 40:0.8166666666666667 41:0.0 42:0.02485995429664647 43:0.06460817096297693 44:0.06046228313778514 45:0.5695484984001795 46:0.028982543418863266 47:0.19024491270075797 48:0.21852086657543054 49:0.49810014595445257 50:0.033452803099317086 
0.0 0.0 149.6904875861726 0.0 0.0 0.0 0.0 0:0.0 1:1.0 2:0.0 3:1.0 4:0.0 5:0.0 6:0.0 7:0.0 8:0.0 9:0.0 10:0.0 11:0.0 12:0.0 13:0.08333333333333331 14:0.0 15:0.0 16:0.0 17:0.0 18:1.0 19:0.0 20:6.425163203437094E-16 21:1.0 22:0.23188405797101447 23:0.050955414012738856 24:1.0 25:1.0 26:1.0 27:0.0 28:0.018927311963787573 29:0.0 30:0.5555555555555556 31:0.625 32:0.0 33:0.9999999999999998 34:1.0 35:0.0 36:0.0 37:0.0 38:0.0 39:0.24903754812259687 40:1.0 41:0.0 42:0.01660378600569216 43:0.01616008310734924 44:0.002883356151654698 45:0.07222397987559757 46:0.01780298603807387 47:0.12918721917880874 48:0.14592174556447868 49:0.7534837452401725 50:0.006505791978207699 
12.025140153579823 0.0 0.0 0.0 0.0 0.0 0.0 0:0.0 1:1.0 2:0.0 3:0.0 4:0.0 5:0.0 6:0.0 7:0.0 8:0.0 9:0.0 10:0.0 11:0.021739130434782608 12:0.0 13:0.041666666666666664 14:0.0 15:0.016129032258064516 16:0.0 17:0.0 18:1.0 19:0.0 20:6.425163203437094E-16 21:1.0 22:0.178743961352657 23:0.050955414012738856 24:1.0 25:1.0 26:1.0 27:0.5555555555555556 28:0.02211412924171876 29:0.11500000000000002 30:1.0 31:0.625 32:0.0 33:0.9999999999999998 34:1.0 35:0.0 36:0.05 37:0.08156028368794327 38:0.0 39:0.24903754812259687 40:0.925 41:0.0 42:0.01976164892071624 43:0.015464031837401573 44:0.0028588976268527485 45:0.08810358357138892 46:0.03373761150342503 47:0.12918721917880874 48:0.14222043009849888 49:0.6094699162596521 50:0.010883372078115267 
0.0 35.99406191115848 198.98957503085435 0.08843221042960668 18.452415723358293 4.161907666609586 8.792154337454539 0:0.0 1:1.0 2:0.0 3:0.0 4:0.0 5:0.0 6:0.0 7:0.0 8:0.0 9:0.0 10:0.0 11:0.0 12:0.0 13:0.08333333333333331 14:0.0 15:0.0 16:0.0 17:0.0 18:0.0 19:0.034482758620689655 20:6.425163203437094E-16 21:1.0 22:0.01932367149758454 23:0.025477707006369428 24:1.0 25:1.0 26:1.0 27:0.5 28:0.027093531238486235 29:0.0 30:0.33333333333333337 31:0.625 32:0.2066985645933014 33:0.9999999999999998 34:0.5 35:0.023414634146341463 36:0.0 37:0.18548387096774194 38:0.0 39:0.15004249787510887 40:0.07272727272727272 41:0.8727272727272727 42:0.0377428918721474 43:0.011106229826704209 44:0.0019465757768578425 45:0.09438086938455137 46:0.06444800587636258 47:0.24469549448523378 48:0.27507564290124925 49:0.4676433655955187 50:0.012360692048688685 
5.601029317136422 0.0 0.0 0.0 0.0 0.0 0.0 0:0.0 1:1.0 2:0.0 3:0.0 4:0.0 5:0.0 6:0.0 7:0.0 8:0.0 9:0.0 10:0.0 11:0.0 12:0.0 13:0.1111111111111111 14:0.0 15:0.0 16:0.0 17:0.0 18:1.0 19:0.0 20:0.14259070871481921 21:1.0 22:0.37681159420289856 23:0.06369426751592357 24:1.0 25:1.0 26:1.0 27:1.0 28:0.05796582361844462 29:0.0 30:1.0 31:0.7 32:0.0 33:0.9999999999999998 34:1.0 35:0.0 36:0.0 37:0.043560606060606064 38:0.11042138222836721 39:0.24903754812259687 40:0.9873417721518988 41:0.0 42:0.014046059934247339 43:0.04986709289893017 44:0.025704951060320617 45:0.3212215967121442 46:0.041640929756320104 47:0.13782495700073497 48:0.15246466898684494 49:0.5976060208250097 50:0.03145510694607171 
0.0 96.67952302238672 0.0 6.988462464008462 0.0 0.0 0.0 0:0.0 1:0.0 2:0.0 3:0.0 4:0.0 5:0.0 6:0.0 7:0.0 8:0.0 9:0.0 10:0.0 11:0.0 12:0.0 13:0.09722222222222221 14:0.2 15:0.0 16:0.0 17:0.0 18:0.0 19:0.0 20:6.425163203437094E-16 21:1.0 22:0.04830917874396135 23:0.06369426751592357 24:1.0 25:1.0 26:1.0 27:0.5555555555555556 28:0.025989988093256693 29:0.0 30:0.5555555555555556 31:0.7692307692307693 32:0.0 33:0.9999999999999998 34:0.7692307692307693 35:0.03609756097560975 36:0.0 37:0.0 38:0.6025342971521477 39:0.30003499825008967 40:0.11904761904761904 41:0.8809523809523809 42:0.03432782745273217 43:0.04881774601083251 44:0.062033911213584786 45:0.619499618254492 46:0.04748112162846467 47:0.1533350002651937 48:0.14714218859245484 49:0.5064497190988332 50:0.03130726112267205 
0.0 0.0 18.2471599288598 0.0 0.0 0.0 0.0 0:0.0 1:0.0 2:0.0 3:0.0 4:0.0 5:0.0 6:0.0 7:0.0 8:0.0 9:0.0 10:0.0 11:0.0 12:0.0 13:0.08333333333333331 14:0.0 15:0.0 16:0.0 17:0.0 18:0.0 19:0.0 20:6.425163203437094E-16 21:1.0 22:0.024154589371980676 23:0.03184713375796178 24:1.0 25:1.0 26:1.0 27:0.5555555555555556 28:0.005861361124269699 29:0.0 30:0.5555555555555556 31:0.7 32:0.0 33:0.9999999999999998 34:0.5 35:0.026829268292682926 36:0.0 37:0.0 38:0.0 39:0.30003499825008967 40:0.08333333333333333 41:0.9166666666666666 42:0.036934136030562004 43:0.014639901237016249 44:0.0037973308982163895 45:0.09677170701458347 46:0.049165845867904207 47:0.15371258558811124 48:0.14803999862218406 49:0.676058577474091 50:0.01059614184207289 
15.726373678121163 38.81896126704578 0.0 0.0 0.0 0.0 0.0 0:0.0 1:0.0 2:0.0 3:0.0 4:0.0 5:0.0 6:0.0 7:0.0 8:0.0 9:0.0 10:0.0 11:0.0 12:0.0 13:0.05555555555555556 14:0.0 15:0.0 16:0.0 17:0.0 18:0.0 19:0.0 20:6.425163203437094E-16 21:1.0 22:0.033816425120772944 23:0.038216560509554146 24:1.0 25:1.0 26:1.0 27:1.0 28:0.002966065199603808 29:0.0 30:0.5555555555555556 31:0.5555555555555556 32:0.0 33:0.9999999999999998 34:0.6666666666666666 35:0.03024390243902439 36:0.0 37:0.049145299145299144 38:0.0 39:0.2645367731613429 40:0.1 41:0.8857142857142857 42:0.023028108026483217 43:0.014521858054255233 44:0.003363575973290246 45:0.08108474316027366 46:0.024832640523530448 47:0.1807118304174654 48:0.18453461601263776 49:0.761592778923851 50:0.006838590160005122 
0.0 0.0 59.47835850780677 0.6066856509851118 2.3872755875008136 512.0 0.02722763175077866 0:1.0 1:0.0 2:0.0 3:0.0 4:0.0 5:0.0 6:0.0 7:1.0 8:0.0 9:0.0 10:0.0 11:0.0 12:0.0 13:0.08333333333333331 14:0.0 15:0.0 16:0.0 17:0.0 18:0.0 19:0.017241379310344827 20:6.425163203437094E-16 21:1.0 22:0.01932367149758454 23:0.025477707006369428 24:1.0 25:1.0 26:1.0 27:0.2777777777777778 28:0.003158060950576346 29:0.0 30:0.5555555555555556 31:0.7142857142857143 32:0.11368421052631579 33:0.9999999999999998 34:0.5714285714285714 35:0.02146341463414634 36:0.0 37:0.1369047619047619 38:0.0 39:0.15922203889805753 40:0.08 41:0.88 42:0.003556646469536982 43:0.01324369869309345 44:0.004315473282819016 45:0.18830603171906626 46:0.011094695135863017 47:0.28133516190707103 48:0.3079502671549044 49:0.46809386746683423 50:0.015073054891010827 
211.70100276952476 126.52236695416583 117.12737964971049 6.582268400732347 36.78139104957577 62.91178138550832 1.2847253615776548 0:0.0 1:0.0 2:0.0 3:0.0 4:0.0 5:0.0 6:0.0 7:0.0 8:0.0 9:0.0 10:0.0 11:0.0 12:0.0 13:0.05555555555555556 14:0.0 15:0.0 16:0.0 17:0.0 18:0.5 19:0.017241379310344827 20:6.425163203437094E-16 21:1.0 22:0.02898550724637681 23:0.025477707006369428 24:1.0 25:1.0 26:1.0 27:0.5 28:0.0046364282330649004 29:0.0 30:0.2777777777777778 31:0.5 32:0.29916897506925205 33:0.9999999999999998 34:1.0 35:0.005365853658536585 36:0.0 37:0.3484848484848485 38:0.0 39:0.17504124793760567 40:0.3157894736842105 41:0.5789473684210527 42:0.01790408250011391 43:0.008690593028864475 44:0.0012780077179015436 45:0.14161473652973125 46:0.03750493870441786 47:0.34482632337972957 48:0.3272413926658978 49:0.18424303454798974 50:0.051015232939276664 
311.12681868253964 19.85131413718821 13.271042492831246 0.0 35.59701178075286 0.0 2.055582213329891 0:0.0 1:1.0 2:0.0 3:0.0 4:0.09090909090909091 5:0.0 6:0.0 7:0.0 8:0.0 9:1.0 10:0.0 11:0.0 12:0.0 13:0.027777777777777776 14:0.0 15:0.016129032258064516 16:0.0 17:0.0 18:0.5 19:0.0 20:6.425163203437094E-16 21:1.0 22:0.024154589371980676 23:0.03184713375796178 24:1.0 25:1.0 26:1.0 27:0.5555555555555556 28:0.01753731719362609 29:0.0 30:0.8333333333333333 31:0.16666666666666666 32:0.0 33:0.9999999999999998 34:0.8333333333333334 35:0.006341463414634147 36:0.1 37:0.0 38:0.0 39:0.2799360031998424 40:0.25 41:0.65 42:0.04789377791211619 43:0.01795104025580104 44:0.0073674099372754535 45:0.3707075892061403 46:0.04971397249906787 47:0.14096813381926923 48:0.12516922265695465 49:0.2756663758449459 50:0.05339946668817758 
0.0 0.0 0.0 0.0 15.151283721698277 13.25466739156316 0.0 0:0.0 1:0.0 2:0.0 3:0.0 4:0.0 5:0.0 6:0.0 7:0.0 8:0.0 9:0.0 10:0.0 11:0.0 12:0.0 13:0.08333333333333331 14:0.0 15:0.0 16:0.0 17:0.0 18:0.5 19:0.0 20:0.0901859387362954 21:1.0 22:0.04830917874396135 23:0.06369426751592357 24:1.0 25:1.0 26:1.0 27:0.0 28:0.04750907942523291 29:0.0 30:1.0 31:0.7857142857142857 32:0.0 33:1.0 34:0.7142857142857143 35:0.03804878048780488 36:0.0 37:0.0 38:0.06941818094171713 39:0.35003249837508327 40:0.11363636363636363 41:0.8863636363636364 42:0.03434211642519837 43:0.052142784734878364 44:0.030248790967030627 45:0.32870000240213565 46:0.04633061217675824 47:0.10554204330486919 48:0.09731750818914292 49:0.590705799854861 50:0.045031945009697275 
0.0 0.0 0.0 23.8949550320017 156.98906918636916 0.0 0.0 0:0.0 1:0.0 2:0.0 3:0.0 4:0.0 5:0.0 6:0.0 7:0.0 8:0.0 9:0.0 10:0.0 11:0.0 12:0.0 13:0.041666666666666664 14:0.0 15:0.0 16:0.0 17:0.0 18:0.0 19:0.0 20:6.425163203437094E-16 21:1.0 22:0.01932367149758454 23:0.025477707006369428 24:1.0 25:1.0 26:1.0 27:0.0 28:0.005107556268143668 29:0.0 30:1.0 31:0.8 32:0.0 33:0.9999999999999998 34:0.8 35:0.00975609756097561 36:0.0 37:0.0 38:0.0 39:0.35003249837508327 40:0.16666666666666666 41:0.8333333333333334 42:0.04324700406611696 43:0.015634352263249322 44:0.0021874564076078684 45:0.1076729448464828 46:0.053056988475428855 47:0.11738609930367709 48:0.10798466098809159 49:0.3148131538392545 50:0.039858089047285016 
19.807278482642324 84.04036273642073 0.0 68.09180584332789 0.611969135498596 0.0 0.0 0:0.0 1:0.0 2:0.0 3:0.0 4:0.0 5:0.0 6:0.0 7:0.0 8:0.0 9:0.0 10:0.0 11:0.0 12:0.0 13:0.041666666666666664 14:0.0 15:0.0 16:0.0 17:0.0 18:0.0 19:0.0 20:6.425163203437094E-16 21:1.0 22:0.024154589371980676 23:0.03184713375796178 24:1.0 25:1.0 26:1.0 27:1.0 28:0.01348316578065512 29:0.0 30:0.2777777777777778 31:0.6666666666666666 32:0.0 33:0.9999999999999998 34:0.8333333333333334 35:0.00878048780487805 36:0.0 37:0.0 38:0.0 39:0.40002999850007687 40:0.21739130434782608 41:0.782608695652174 42:0.02226221910229634 43:0.01795668825649522 44:0.0030872030260060564 45:0.1282324102012154 46:0.03520531098534797 47:0.0911129800953182 48:0.08442172532850524 49:0.3480116763561942 50:0.038741069967545 
0.0 187.16187231821837 0.0 0.0 4.313830317664526 149.0054692114289 0.0 0:0.0 1:0.0 2:0.0 3:0.0 4:0.0 5:0.0 6:0.0 7:0.0 8:0.0 9:0.0 10:0.0 11:0.0 12:0.0 13:0.06944444444444445 14:0.0 15:0.0 16:0.0 17:0.0 18:0.0 19:0.06896551724137931 20:6.425163203437094E-16 21:1.0 22:0.02898550724637681 23:0.038216560509554146 24:1.0 25:1.0 26:1.0 27:0.2777777777777778 28:0.024944526166197113 29:0.0 30:0.2777777777777778 31:0.4444444444444444 32:0.39201451905626133 33:0.9999999999999998 34:0.6666666666666666 35:0.022926829268292682 36:0.0 37:0.29040404040404044 38:0.0 39:0.15004249787510887 40:0.10344827586206896 41:0.8103448275862069 42:0.03579101823326837 43:0.0114934256077212 44:0.0024171447345277784 45:0.11432979115228836 46:0.03467526975064406 47:0.4014199228665166 48:0.45601440943393484 49:0.48119919113510173 50:0.011612957952998177 
0.0 3.707208437748252 0.0 0.0 0.0 0.0 0.0 0:0.0 1:1.0 2:0.0 3:1.0 4:0.0 5:0.0 6:0.0 7:0.0 8:0.0 9:0.0 10:0.0 11:0.0 12:0.0 13:0.08333333333333331 14:0.2 15:0.0 16:0.0 17:0.0 18:0.5 19:0.0 20:0.18165291435891695 21:1.0 22:0.06763285024154589 23:0.089171974522293 24:1.0 25:1.0 26:1.0 27:0.0 28:0.11989147754188019 29:0.0 30:0.5555555555555556 31:0.7222222222222222 32:0.0 33:0.9999999999999998 34:0.7777777777777778 35:0.04682926829268293 36:0.0 37:0.029947916666666668 38:0.11119924448758602 39:0.40002999850007687 40:0.12612612612612611 41:0.8648648648648649 42:0.04114080952460314 43:0.11720562982131266 44:0.07065007843070847 45:0.462498550987937 46:0.17278787777610835 47:0.31599471633113346 48:0.3500106133379883 49:0.532120851373793 50:0.08085755610221664 
13.967750009071748 0.0 0.0 0.0 6.925293874495982 0.0 0.0 0:0.0 1:1.0 2:0.0 3:0.0 4:0.18181818181818182 5:0.0 6:0.0 7:0.0 8:0.0 9:0.0 10:0.0 11:0.15217391304347827 12:0.0 13:0.05555555555555556 14:0.0 15:0.03225806451612903 16:0.0 17:0.0 18:0.25 19:0.05172413793103448 20:0.3024716476395016 21:1.0 22:0.4106280193236715 23:0.14012738853503184 24:1.0 25:1.0 26:1.0 27:0.0 28:0.11989147754188019 29:0.22054794520547946 30:0.5555555555555556 31:0.5454545454545454 32:0.11679884643114635 33:0.9999999999999998 34:1.0 35:0.0224390243902439 36:0.0273972602739726 37:0.22954091816367267 38:0.3203280606688738 39:0.175116929085055 40:0.5821917808219178 41:0.3150684931506849 42:0.027857780720049408 43:0.06958247215017843 44:0.09245279101315448 45:0.6220973021477663 46:0.03669805178544592 47:0.06968280307220592 48:0.06456643263720495 49:0.6194251242787213 50:0.04497585835933403 
0.0 0.0 0.0 0.0 9.971423148955584 0.0 6.964143278276715 0:0.0 1:0.0 2:0.0 3:0.0 4:0.0 5:0.0 6:0.0 7:0.0 8:0.0 9:0.0 10:0.0 11:0.0 12:0.0 13:0.041666666666666664 14:0.2 15:0.0967741935483871 16:0.16666666666666666 17:0.0 18:0.0 19:0.034482758620689655 20:0.11293470479635348 21:1.0 22:0.00966183574879227 23:0.012738853503184714 24:1.0 25:1.0 26:1.0 27:1.0 28:0.062292752250118426 29:0.0 30:0.5555555555555556 31:0.48 32:0.09553295002211411 33:0.9999999999999998 34:0.08 35:0.04878048780487805 36:0.10084033613445378 37:0.13403263403263405 38:0.12526430883103737 39:0.6000199990000512 40:0.01680672268907563 41:0.8403361344537815 42:0.0099679871924018 43:0.10401925102163015 44:0.05176291249073382 45:0.25251478445578746 46:0.10046159496502557 47:0.10898451016197021 48:0.09562000468312132 49:0.705909252751255 50:0.07703504035130224 
0.0 0.0 0.0 0.0 11.725658219396864 0.0 0.0 0:0.0 1:0.0 2:0.0 3:0.0 4:0.0 5:0.0 6:0.0 7:0.0 8:0.0 9:0.0 10:0.0 11:0.0 12:0.0 13:0.06944444444444445 14:0.0 15:0.0 16:0.0 17:0.0 18:0.0 19:0.0 20:0.4808635695716064 21:1.0 22:0.05314009661835749 23:0.06369426751592357 24:1.0 25:1.0 26:1.0 27:1.0 28:0.048371708221856005 29:0.0 30:0.5555555555555556 31:0.7692307692307693 32:0.0 33:0.9999999999999998 34:0.7692307692307693 35:0.033170731707317075 36:0.0 37:0.041666666666666664 38:0.36467935641210486 39:0.4700264986750679 40:0.1375 41:0.85 42:0.027592005832178617 43:0.08789391968987294 44:0.11379314721484023 45:0.6586669460621178 46:0.0780704829635565 47:0.06696772466326713 48:0.0591821471281397 49:0.4182641476613314 50:0.06696831125033996 
0.0 0.0 0.0 0.0 22.835010724633502 0.0 0.0 0:0.0 1:0.0 2:0.0 3:1.0 4:0.0 5:0.0 6:0.0 7:0.0 8:0.0 9:0.0 10:0.0 11:0.0 12:0.0 13:0.09722222222222221 14:0.0 15:0.0 16:0.0 17:0.0 18:0.3333333333333333 19:0.0 20:0.37644399231377906 21:1.0 22:0.01932367149758454 23:0.025477707006369428 24:1.0 25:1.0 26:1.0 27:0.0 28:0.03694931312174325 29:0.0 30:0.2777777777777778 31:0.8888888888888888 32:0.0 33:0.9999999999999998 34:0.4444444444444444 35:0.03414634146341464 36:0.0 37:0.0461847389558233 38:0.291647950497284 39:0.40002999850007687 40:0.05333333333333334 41:0.9333333333333333 42:0.014943407405122934 43:0.0670279796900768 44:0.06886177567879434 45:0.6201048483807579 46:0.016648303033338262 47:0.07202661029406193 48:0.07901762228151897 49:0.4706786474343817 50:0.04196793324125016 
11.546871430216326 0.0 0.0 0.0 26.077223816565173 0.0 2.9432619251153977 0:0.0 1:1.0 2:0.0 3:0.0 4:0.0 5:0.0 6:0.0 7:0.0 8:0.0 9:0.0 10:0.0 11:0.0 12:0.0 13:0.08333333333333331 14:0.0 15:0.0 16:0.0 17:0.0 18:1.0 19:0.017241379310344827 20:0.020673674691986697 21:1.0 22:0.08212560386473429 23:0.019108280254777073 24:1.0 25:1.0 26:1.0 27:0.8333333333333333 28:0.06362661746740132 29:0.0 30:0.5 31:0.3333333333333333 32:0.3157894736842105 33:0.0 34:1.0 35:0.0 36:0.0 37:0.19166666666666668 38:2.4102774229316782E-4 39:0.34803259837008255 40:0.9444444444444444 41:0.0 42:0.017243931972176607 43:0.06395374628226734 44:0.0058691839292556915 45:0.246173995917489 46:0.11098451333589307 47:0.1903585671457833 48:0.21571429256802613 49:0.15700295985844878 50:0.19388692717859923 
0.0 0.0 11.418287192096003 0.0 0.0 0.0 0.0 0:0.0 1:0.0 2:0.0 3:0.0 4:0.0 5:0.0 6:0.0 7:0.0 8:0.0 9:1.0 10:0.0 11:0.0 12:0.0 13:0.1111111111111111 14:0.0 15:0.0 16:0.0 17:0.0 18:0.0 19:0.0 20:6.425163203437094E-16 21:1.0 22:0.00966183574879227 23:0.012738853503184714 24:1.0 25:1.0 26:1.0 27:0.0 28:0.035259750513184904 29:0.0 30:0.8333333333333333 31:0.5 32:0.0 33:0.9999999999999998 34:0.3333333333333333 35:0.01902439024390244 36:0.0 37:0.08156028368794327 38:0.0 39:0.348032598370083 40:0.047619047619047616 41:0.9285714285714286 42:0.027366240067213114 43:0.028910354897523582 44:0.0028776834062087912 45:0.08005819158051342 46:0.026950023093660038 47:0.12307766134511298 48:0.17084745522037711 49:0.5710060257173377 50:0.016909561813578885 
0.0 0.0 6.1496293646537215 0.0 0.0 0.0 0.0 0:0.0 1:1.0 2:0.0 3:0.0 4:0.0 5:0.0 6:0.0 7:0.0 8:0.0 9:0.0 10:0.0 11:0.0 12:0.0 13:0.06944444444444445 14:0.0 15:0.0 16:0.0 17:0.0 18:1.0 19:0.017241379310344827 20:6.425163203437094E-16 21:1.0 22:0.22705314009661834 23:0.0445859872611465 24:1.0 25:1.0 26:1.0 27:0.0 28:0.024944526166197113 29:0.0 30:0.5555555555555556 31:0.7142857142857143 32:0.11842105263157894 33:0.9999999999999998 34:1.0 35:0.0 36:0.0 37:0.07098765432098765 38:0.0 39:0.24903754812259687 40:0.9791666666666666 41:0.0 42:0.0032121610103955484 43:0.017008975868311675 44:0.0028727912267402325 45:0.07345427550978743 46:0.028722391946712018 47:0.12918721917880874 48:0.1504358094571354 49:0.7378262571244528 50:0.006900676434628977 
0.0 0.0 0.0 4.661133718239036 0.0 0.0 0.0 0:0.0 1:1.0 2:0.0 3:0.0 4:0.0 5:0.0 6:0.0 7:0.0 8:0.0 9:0.0 10:0.0 11:0.0 12:0.0 13:0.06944444444444445 14:0.0 15:0.0 16:0.0 17:0.0 18:0.0 19:0.0 20:0.13987792472024468 21:1.0 22:0.24154589371980675 23:0.038216560509554146 24:1.0 25:1.0 26:1.0 27:0.0 28:0.06792462761197957 29:0.0 30:0.5555555555555556 31:0.7142857142857143 32:0.0 33:0.9999999999999998 34:0.8571428571428571 35:0.0 36:0.0 37:0.06725146198830409 38:0.10855013048365507 39:0.24903754812259687 40:0.9803921568627451 41:0.0 42:0.020561831378821886 43:0.05127551749987164 44:0.022359430255577278 45:0.3918433887810413 46:0.0371682720933985 47:0.12918721917880874 48:0.1467149605992805 49:0.3939445210003181 50:0.04914237420116522 
0.0 0.0 16.840956352134743 0.0 0.0 0.0 0.0 0:0.0 1:1.0 2:0.0 3:1.0 4:0.0 5:0.0 6:0.0 7:0.0 8:0.0 9:0.0 10:0.0 11:0.0 12:0.0 13:0.05555555555555556 14:0.0 15:0.0 16:0.0 17:0.0 18:1.0 19:0.0 20:6.425163203437094E-16 21:1.0 22:0.2077294685990338 23:0.0445859872611465 24:1.0 25:1.0 26:1.0 27:0.0 28:0.024944526166197113 29:0.0 30:0.5555555555555556 31:0.8571428571428571 32:0.0 33:0.9999999999999998 34:1.0 35:0.0 36:0.0 37:0.0 38:0.0 39:0.24903754812259687 40:1.0 41:0.0 42:0.020561831378821886 43:0.01719642377811581 44:0.0024695873800047916 45:0.06761522116082688 46:0.022597007284241154 47:0.12918721917880874 48:0.1514325806399188 49:0.6879958578289479 50:0.008274336474647016 
0.0 0.0 84.93200733419813 0.0 30.994973557469173 37.504973326315394 0.0 0:0.0 1:0.0 2:0.0 3:0.0 4:0.0 5:0.0 6:0.0 7:0.0 8:0.0 9:0.0 10:0.0 11:0.0 12:0.0 13:0.05555555555555556 14:0.0 15:0.0 16:0.0 17:0.0 18:0.3333333333333333 19:0.0 20:6.425163203437094E-16 21:1.0 22:0.043478260869565216 23:0.05732484076433121 24:1.0 25:1.0 26:1.0 27:0.5555555555555556 28:0.025460287383546505 29:0.0 30:0.5555555555555556 31:0.8125 32:0.0 33:0.9999999999999998 34:0.5625 35:0.04292682926829268 36:0.0 37:0.0 38:0.4452395925316458 39:0.30003499825008967 40:0.09278350515463918 41:0.9072164948453608 42:0.030929909800276427 43:0.04949409183672873 44:0.05329328049746875 45:0.5321386111816374 46:0.04582700344457236 47:0.1533350002651937 48:0.14888259696125847 49:0.5797266004028017 50:0.031301253275863854 
0.0 11.478097895293471 79.10190099205258 0.0 8.824937447906192 24.231970383631943 0.0 0:0.0 1:0.0 2:0.0 3:0.0 4:0.0 5:0.0 6:0.0 7:0.0 8:0.0 9:0.0 10:0.0 11:0.0 12:0.0 13:0.05555555555555556 14:0.2 15:0.0 16:0.0 17:0.0 18:0.0 19:0.0 20:6.425163203437094E-16 21:1.0 22:0.03864734299516908 23:0.050955414012738856 24:1.0 25:1.0 26:1.0 27:0.0 28:0.012988243400370353 29:0.0 30:0.0 31:0.8181818181818182 32:0.0 33:0.9999999999999998 34:0.7272727272727273 35:0.026341463414634145 36:0.0 37:0.0 38:0.0 39:0.33183340832958436 40:0.12903225806451613 41:0.8709677419354839 42:0.057384513424147784 43:0.013532463253647787 44:0.005795523017256415 45:0.10248353511804704 46:0.06559573295938292 47:0.12017315886113196 48:0.10498055377682948 49:0.931105829208829 50:0.005269507701468376 
31.29523116961648 0.0 4.859580262564574 0.0 0.0 0.0 0.0 0:0.0 1:0.0 2:0.0 3:0.0 4:0.0 5:0.0 6:0.0 7:0.0 8:0.0 9:1.0 10:0.0 11:0.0 12:0.0 13:0.041666666666666664 14:0.0 15:0.0 16:0.0 17:0.0 18:1.0 19:0.0 20:6.425163203437094E-16 21:1.0 22:0.18840579710144928 23:0.05732484076433121 24:1.0 25:1.0 26:1.0 27:0.5555555555555556 28:0.018217205939900727 29:0.0 30:0.8333333333333333 31:0.6666666666666666 32:0.0 33:0.9999999999999998 34:1.0 35:0.0 36:0.0 37:0.0 38:0.0 39:0.30003499825008967 40:1.0 41:0.0 42:0.015386365551574278 43:0.013087555015661745 44:0.0037892642589374024 45:0.09383024488693538 46:0.025841249172245243 47:0.10743375840095772 48:0.0979070097007572 49:0.6962333151230014 50:0.009941725197418837 
21.833441899767255 0.7420378469137225 11.227329660159192 0.0 0.0 0.0 0.0 0:0.0 1:0.0 2:0.0 3:1.0 4:0.0 5:0.0 6:0.0 7:0.0 8:0.0 9:1.0 10:0.0 11:0.0 12:0.0 13:0.041666666666666664 14:0.0 15:0.0 16:0.0 17:0.0 18:1.0 19:0.0 20:6.425163203437094E-16 21:1.0 22:0.004830917874396135 23:0.006369426751592357 24:1.0 25:1.0 26:1.0 27:0.5555555555555556 28:0.028260133992014616 29:0.0 30:0.8333333333333333 31:1.0 32:0.0 33:1.0 34:1.0 35:0.0014634146341463415 36:0.0 37:0.0 38:0.0 39:0.30003499825008967 40:0.25 41:0.75 42:0.015646424850458557 43:0.01637364012583304 44:0.0 45:0.0 46:0.0368649939066125 47:0.17028340367280653 48:0.17446775694457703 49:0.03013266362798746 50:0.33502518197658987 
0.0 0.0 10.831140191233864 10.18906780566373 3.7467498656149147 3.7899335452998493 1.2007223183557019 0:0.0 1:0.0 2:0.0 3:1.0 4:0.0 5:0.0 6:0.0 7:0.0 8:0.0 9:0.0 10:0.0 11:0.0 12:0.0 13:0.041666666666666664 14:0.0 15:0.0 16:0.0 17:0.0 18:0.0 19:0.0 20:6.425163203437094E-16 21:1.0 22:0.0 23:0.0 24:1.0 25:1.0 26:1.0 27:0.2777777777777778 28:0.028260133992014616 29:0.0 30:0.7777777777777778 31:1.0 32:0.0 33:0.9999999999999998 34:0.0 35:0.001951219512195122 36:0.0 37:0.0 38:0.0 39:0.30003499825008967 40:0.0 41:1.0 42:0.015557833221168351 43:0.01637364012583304 44:0.0 45:0.0 46:0.06083649132179203 47:0.5817112318373883 48:0.5864023040048825 49:0.017926305232344893 50:0.46059806668605163 
0.0 0.0 0.0 0.0 31.80496862966907 0.0 0.0 0:0.0 1:0.0 2:0.25 3:1.0 4:0.0 5:0.0 6:0.0 7:0.0 8:0.0 9:0.0 10:0.0 11:0.0 12:0.0 13:0.05555555555555556 14:0.0 15:0.0 16:0.0 17:1.0 18:0.0 19:0.0 20:6.425163203437094E-16 21:1.0 22:0.004830917874396135 23:0.006369426751592357 24:1.0 25:1.0 26:1.0 27:0.0 28:0.04750907942523291 29:0.0 30:0.0 31:0.75 32:0.0 33:0.9999999999999998 34:0.25 35:0.009268292682926829 36:0.0 37:0.0 38:0.0 39:0.4000299985000771 40:0.05 41:0.95 42:0.08113850125191248 43:0.017915221034583338 44:0.0019372060589965118 45:0.10705830579207354 46:0.03843564102992152 47:0.04919469511563708 48:0.046494346308536466 49:0.25762795476227374 50:0.05567650183150831 
55.65052897649954 0.0 0.0 0.0 0.0 0.0 0.0 0:0.0 1:1.0 2:0.0 3:0.0 4:0.0 5:0.0 6:0.0 7:0.0 8:0.0 9:1.0 10:0.0 11:0.021739130434782608 12:0.0 13:0.05555555555555556 14:0.0 15:0.0 16:0.0 17:0.0 18:0.0 19:0.0 20:6.425163203437094E-16 21:1.0 22:0.13526570048309178 23:0.050955414012738856 24:1.0 25:1.0 26:1.0 27:0.5555555555555556 28:0.04279779907444522 29:0.09583333333333334 30:0.8333333333333333 31:0.5555555555555556 32:0.0 33:0.9999999999999998 34:0.8888888888888888 35:0.00878048780487805 36:0.0 37:0.1369047619047619 38:0.0 39:0.25503724813759626 40:0.5833333333333334 41:0.375 42:0.045564675400130074 43:0.011361240777746863 44:0.003998854527732276 45:0.100160772981924 46:0.044072719987980104 47:0.12579652823555262 48:0.11587973819036504 49:0.7452034800759941 50:0.006922594951279094 
0.0 0.0 0.0 0.0 54.492342529448834 0.0 0.0 0:0.0 1:1.0 2:0.0 3:0.0 4:0.0 5:0.0 6:0.0 7:0.0 8:0.0 9:1.0 10:0.0 11:0.0 12:0.0 13:0.09722222222222221 14:0.0 15:0.0 16:0.0 17:0.0 18:1.0 19:0.0 20:6.425163203437094E-16 21:1.0 22:0.09178743961352656 23:0.019108280254777073 24:1.0 25:1.0 26:1.0 27:0.8333333333333333 28:0.04279779907444522 29:0.0 30:0.8333333333333333 31:0.3333333333333333 32:0.0 33:0.9999999999999998 34:1.0 35:0.0 36:0.0 37:0.17424242424242425 38:0.0 39:0.25503724813759515 40:0.95 41:0.0 42:0.03734565843758778 43:0.011361240777746832 44:9.855218827310296E-4 45:0.05967091346102401 46:0.040071673817354124 47:0.1606505580433251 48:0.14738385575017496 49:0.2989803573030227 50:0.03445373981443181 
0.0 0.0 0.9606065287187441 0.0 0.0 0.0 0.0 0:0.0 1:0.0 2:0.0 3:1.0 4:0.0 5:0.0 6:0.0 7:0.0 8:0.0 9:0.0 10:0.0 11:0.0 12:0.0 13:0.1111111111111111 14:0.0 15:0.0 16:0.0 17:0.0 18:1.0 19:0.0 20:6.425163203437094E-16 21:1.0 22:0.004830917874396135 23:0.006369426751592357 24:1.0 25:1.0 26:1.0 27:0.0 28:0.0781324017053529 29:0.0 30:0.5555555555555556 31:1.0 32:0.0 33:1.0 34:1.0 35:0.003902439024390244 36:0.0 37:0.0 38:0.0 39:0.31038448077596376 40:0.1111111111111111 41:0.8888888888888888 42:0.03858308345315832 43:0.013684625749995788 44:6.43591278942762E-6 45:0.001037632298359391 46:0.0329112480036504 47:0.07046070460704605 48:0.06526433844346 49:0.0916577653476408 50:0.1387143272423913 
133.98676009636515 31.129759370089264 0.0 0.0 0.0 0.0 0.0 0:0.0 1:0.0 2:0.0 3:0.0 4:0.2272727272727273 5:0.0 6:0.0 7:0.0 8:0.0 9:0.0 10:0.0 11:0.0 12:0.0 13:0.05555555555555556 14:0.0 15:0.04032258064516129 16:0.0 17:0.0 18:0.0 19:0.06896551724137931 20:0.12904939527523518 21:1.0 22:0.0966183574879227 23:0.09554140127388536 24:1.0 25:1.0 26:1.0 27:0.5555555555555556 28:0.027668617102901638 29:0.0 30:1.0 31:0.6111111111111112 32:0.23200859291084852 33:0.9999999999999998 34:0.8333333333333334 35:0.033658536585365856 36:0.05102040816326531 37:0.13333333333333333 38:0.10423792505790144 39:0.33574749833937073 40:0.20408163265306123 41:0.7040816326530612 42:0.03696557176998761 43:0.04861913319313452 44:0.03414888280938307 45:0.3404754713769949 46:0.053367222583930084 47:0.07202534746689497 48:0.06354529724210356 49:0.6284378796650387 50:0.039207566979078734 
0.0 0.0 0.0 0.0 0.0 13.816179439650087 0.0 0:0.0 1:0.0 2:0.0 3:0.0 4:0.0 5:0.0 6:0.0 7:0.0 8:0.0 9:0.0 10:0.0 11:0.0 12:0.0 13:0.09722222222222221 14:0.0 15:0.0 16:0.0 17:0.0 18:1.0 19:0.0 20:6.425163203437094E-16 21:1.0 22:0.01932367149758454 23:0.025477707006369428 24:1.0 25:1.0 26:1.0 27:0.0 28:0.008876580548773822 29:0.0 30:0.0 31:0.75 32:0.0 33:0.9999999999999998 34:1.0 35:0.01073170731707317 36:0.0 37:0.0 38:0.0 39:0.6000199990000514 40:0.15384615384615385 41:0.8461538461538461 42:0.014091784646139065 43:0.025260111725359607 44:0.003138871695897378 45:0.07930013399931445 46:0.005797065157509815 47:0.13695865756420844 48:0.11956101426766205 49:0.4494418669123704 50:0.03901989531803254 
0.0 62.09131731520766 92.46719653236204 117.89797091094461 0.0 0.0 0.0 0:0.0 1:0.0 2:0.0 3:0.0 4:0.0 5:0.0 6:0.0 7:0.0 8:0.0 9:0.0 10:0.0 11:0.021739130434782608 12:0.0 13:0.08333333333333331 14:0.0 15:0.0 16:0.0 17:0.0 18:0.0 19:0.034482758620689655 20:6.425163203437094E-16 21:1.0 22:0.01932367149758454 23:0.025477707006369428 24:1.0 25:1.0 26:1.0 27:0.5 28:0.01626079138429412 29:0.07796610169491526 30:0.2777777777777778 31:0.375 32:0.1926851025869759 33:0.9999999999999998 34:0.5 35:0.024390243902439025 36:0.0 37:0.23232323232323235 38:0.0 39:0.20003999800010247 40:0.06779661016949153 41:0.847457627118644 42:0.021267706618650756 43:0.00784601386396746 44:0.002265265681121794 45:0.08089257413397558 46:0.033713961369593065 47:0.5155896013759764 48:0.4469957690752793 49:0.5765608564835577 50:0.009983767265055513 
0.0 0.0 14.03581481915057 0.0 0.0 0.0 0.0 0:0.0 1:1.0 2:0.0 3:1.0 4:0.0 5:0.0 6:0.0 7:0.0 8:0.0 9:0.0 10:0.0 11:0.0 12:0.0 13:0.041666666666666664 14:0.0 15:0.0 16:0.0 17:0.0 18:0.3333333333333333 19:0.0 20:6.425163203437094E-16 21:1.0 22:0.033816425120772944 23:0.0445859872611465 24:1.0 25:1.0 26:1.0 27:0.0 28:0.015084385246282311 29:0.0 30:0.0 31:0.75 32:0.0 33:0.9999999999999998 34:0.5833333333333334 35:0.025853658536585365 36:0.0 37:0.0 38:0.0 39:0.40002999850007687 40:0.11666666666666667 41:0.8833333333333333 42:0.025562971741982174 43:0.022485192320274197 44:0.007964356401818374 45:0.1465255099632954 46:0.015156953417583394 47:0.12485572199617616 48:0.13322037882300428 49:0.8056543081025106 50:0.010194723120745458 
0.0 0.0 4.730887703592579 0.0 0.0 0.0 0.0 0:0.0 1:1.0 2:0.0 3:1.0 4:0.0 5:0.0 6:0.0 7:0.0 8:0.0 9:0.0 10:0.0 11:0.021739130434782608 12:0.0 13:0.06944444444444445 14:0.0 15:0.0 16:0.0 17:0.0 18:0.3333333333333333 19:0.034482758620689655 20:6.425163203437094E-16 21:1.0 22:0.37681159420289856 23:0.089171974522293 24:1.0 25:1.0 26:1.0 27:0.0 28:0.07272828600886114 29:0.05542168674698796 30:0.5555555555555556 31:0.7333333333333333 32:0.13696892834495877 33:0.9999999999999998 34:0.9333333333333333 35:0.0 36:0.0 37:0.11855670103092784 38:0.023855173003139933 39:0.348032598370084 40:0.9397590361445783 41:0.0 42:0.024859954296646555 43:0.06579818412880392 44:0.02441839248071 45:0.22901071544774712 46:0.02960996755758111 47:0.1903585671457833 48:0.22116125247396953 49:0.7799624513824904 50:0.03364668752705777 
0.0 0.0 0.0 0.0 13.082736341183656 0.0 0.0 0:0.0 1:0.0 2:0.0 3:1.0 4:0.0 5:0.0 6:0.0 7:0.0 8:0.0 9:0.0 10:0.0 11:0.0 12:0.0 13:0.09722222222222221 14:0.0 15:0.0 16:0.0 17:1.0 18:0.5 19:0.017241379310344827 20:6.425163203437094E-16 21:1.0 22:0.01932367149758454 23:0.025477707006369428 24:1.0 25:1.0 26:1.0 27:0.0 28:0.035259750513184904 29:0.0 30:0.0 31:0.75 32:0.21862348178137653 33:0.9999999999999998 34:1.0 35:0.01024390243902439 36:0.0 37:0.13218390804597702 38:0.0 39:0.3480325983700843 40:0.15384615384615385 41:0.8076923076923077 42:0.04211245965230282 43:0.028920960667691516 44:0.0017224077991691553 45:0.07774823899211089 46:0.01943762764116339 47:0.09352750563852329 48:0.1321877864363698 49:0.3458407057998549 50:0.035219152436042934 
0.0 0.0 0.0 0.0 7.575402589745484 0.0 0.0 0:0.0 1:0.0 2:0.0 3:1.0 4:0.0 5:0.0 6:0.0 7:0.0 8:0.0 9:0.0 10:0.2 11:0.0 12:0.0 13:0.05555555555555556 14:0.0 15:0.0 16:0.0 17:1.0 18:0.0 19:0.0 20:6.425163203437094E-16 21:1.0 22:0.024154589371980676 23:0.019108280254777073 24:1.0 25:1.0 26:1.0 27:0.0 28:0.03367919194388839 29:0.0 30:0.0 31:0.875 32:0.0 33:0.9999999999999997 34:0.375 35:0.02 36:0.0 37:0.0 38:0.0 39:0.34803259837008477 40:0.10869565217391304 41:0.8913043478260869 42:0.02858937611031745 43:0.02891035489752363 44:0.004003919111844255 45:0.09756647174922596 46:0.012854543329827484 47:0.0933759663784895 48:0.1319531019198647 49:0.6541572557301392 50:0.013259446891074621 
0.0 0.0 0.0 0.0 1.9953764894533128 0.0 0.0 0:0.0 1:0.0 2:0.0 3:0.0 4:0.0 5:0.0 6:0.0 7:0.0 8:0.0 9:1.0 10:0.0 11:0.0 12:0.0 13:0.05555555555555556 14:0.0 15:0.0 16:0.0 17:0.0 18:0.0 19:0.0 20:6.425163203437094E-16 21:1.0 22:0.004830917874396135 23:0.006369426751592357 24:1.0 25:1.0 26:1.0 27:0.0 28:0.03367919194388839 29:0.0 30:0.8333333333333333 31:0.8333333333333334 32:0.0 33:0.9999999999999998 34:0.16666666666666666 35:0.0175609756097561 36:0.0 37:0.08914728682170543 38:0.0 39:0.34803259837008277 40:0.02631578947368421 41:0.9473684210526315 42:0.027366240067213114 43:0.028910354897523582 44:0.002893228294607552 45:0.08606322859175063 46:0.026950023093660038 47:0.12307766134511298 48:0.17084745522037711 49:0.5330069063363803 50:0.01894581144228613 
11.257498201447275 0.0 0.0 0.0 6.894893263754246 0.0 0.17394278260975943 0:0.0 1:1.0 2:0.0 3:0.0 4:0.0 5:0.0 6:0.0 7:0.0 8:0.0 9:0.0 10:0.0 11:0.08695652173913043 12:0.0 13:0.06944444444444445 14:0.0 15:0.0 16:0.0 17:0.0 18:0.0 19:0.0 20:0.40895218718209597 21:1.0 22:0.2801932367149758 23:0.05732484076433121 24:1.0 25:1.0 26:1.0 27:0.5555555555555556 28:0.07272828600886114 29:0.2746268656716418 30:1.0 31:0.5 32:0.0 33:0.9999999999999998 34:0.75 35:0.0 36:0.0 37:0.24572649572649571 38:0.3170522745349807 39:0.24903754812259687 40:0.8656716417910447 41:0.0 42:0.020561831378821886 43:0.05303209844111911 44:0.05512330643844416 45:0.6166190746284446 46:0.03372091729130837 47:0.12917206525280536 48:0.15095244153441983 49:0.48891072316761947 50:0.02688595482933634 
10.152702907319199 0.0 0.0 0.0 0.0 0.0 0.0 0:0.0 1:1.0 2:0.0 3:0.0 4:0.0 5:0.0 6:0.0 7:0.0 8:0.0 9:0.0 10:0.0 11:0.0 12:0.0 13:0.08333333333333331 14:0.0 15:0.0 16:0.0 17:0.0 18:0.3333333333333333 19:0.0 20:6.425163203437094E-16 21:1.0 22:0.07246376811594203 23:0.07006369426751592 24:1.0 25:1.0 26:1.0 27:1.0 28:0.022556742752542533 29:0.0 30:0.5555555555555556 31:0.8 32:0.0 33:0.9999999999999998 34:0.7333333333333333 35:0.037560975609756096 36:0.0 37:0.03582554517133956 38:0.675254558163281 39:0.2645367731613428 40:0.16129032258064516 41:0.8279569892473119 42:0.023028108026483217 43:0.04706312288789326 44:0.06313761885191638 45:0.6363306456834087 46:0.024832640523530448 47:0.1807118304174654 48:0.1838235223337512 49:0.5358036871845469 50:0.02480273938708702 
0.0 0.0 1.647787216739715 0.0 0.0 0.0 0.0 0:0.0 1:1.0 2:0.0 3:0.0 4:0.0 5:0.0 6:0.0 7:0.0 8:0.0 9:0.0 10:0.0 11:0.0 12:0.0 13:0.06944444444444445 14:0.0 15:0.0 16:0.0 17:0.0 18:0.3333333333333333 19:0.0 20:6.425163203437094E-16 21:1.0 22:0.04830917874396135 23:0.06369426751592357 24:1.0 25:1.0 26:1.0 27:1.0 28:0.020446608573033834 29:0.0 30:0.5555555555555556 31:0.8666666666666667 32:0.0 33:1.0 34:0.6666666666666666 35:0.041463414634146344 36:0.0 37:0.0 38:0.6461033483135725 39:0.2645367731613428 40:0.10526315789473684 41:0.8947368421052632 42:0.023028108026483217 43:0.047212631144092 44:0.0627551146342483 45:0.6325098414258922 46:0.024832640523530448 47:0.1807118304174654 48:0.1843090830018467 49:0.549316704854005 50:0.0248047597294878 
0.0 0.0 0.0 0.0 0.7897315306301862 0.0 0.0 0:0.0 1:0.0 2:0.0 3:0.0 4:0.2272727272727273 5:0.0 6:0.0 7:0.0 8:0.0 9:0.0 10:0.0 11:0.08695652173913043 12:0.0 13:0.06944444444444445 14:0.0 15:0.04032258064516129 16:0.0 17:0.0 18:0.0 19:0.06896551724137931 20:0.008484985494141783 21:1.0 22:0.08212560386473429 23:0.10828025477707007 24:1.0 25:1.0 26:1.0 27:0.5555555555555556 28:0.052079724541668725 29:0.11084337349397592 30:0.5555555555555556 31:0.5862068965517241 32:0.13696892834495877 33:0.9999999999999998 34:0.5862068965517241 35:0.06536585365853659 36:0.030120481927710843 37:0.17783505154639176 38:0.6998810199417589 39:0.2732291096288581 40:0.10240963855421686 41:0.8072289156626506 42:0.034227804645469054 43:0.08384622266091074 44:0.11505309015540402 45:0.5879659130031512 46:0.08647045402692217 47:0.14021675165493502 48:0.1281032913232717 49:0.7112670314168997 50:0.04710349669365058 
0.0 0.0 512.0 0.0 32.63703874565991 512.0 0.0 0:0.0 1:0.0 2:0.0 3:0.0 4:0.0 5:0.0 6:0.0 7:0.0 8:0.0 9:0.0 10:0.0 11:0.021739130434782608 12:0.0 13:0.08333333333333331 14:0.0 15:0.0 16:0.0 17:0.0 18:0.0 19:0.05172413793103448 20:6.425163203437094E-16 21:1.0 22:0.014492753623188404 23:0.019108280254777073 24:1.0 25:1.0 26:1.0 27:0.2777777777777778 28:0.007878897650959957 29:0.060526315789473685 30:0.2777777777777778 31:0.5454545454545454 32:0.22437673130193905 33:0.9999999999999998 34:0.2727272727272727 35:0.033170731707317075 36:0.0 37:0.22286821705426357 38:0.0 39:0.15004249787510887 40:0.039473684210526314 41:0.8947368421052632 42:0.020701863308990393 43:0.007394922502318992 44:0.0021800198097628627 45:0.079860041792014 46:0.04438017172779525 47:0.5229114732899425 48:0.49243127234671985 49:0.6230930113094316 50:0.0063409884305901144 
0.0 0.0 32.8156741034589 0.0 0.0 338.65007905960596 0.0 0:0.0 1:0.0 2:0.0 3:0.0 4:0.0 5:0.0 6:0.0 7:0.0 8:0.0 9:0.0 10:0.0 11:0.021739130434782608 12:0.0 13:0.05555555555555556 14:0.0 15:0.0 16:0.0 17:0.0 18:0.0 19:0.034482758620689655 20:6.425163203437094E-16 21:1.0 22:0.00966183574879227 23:0.012738853503184714 24:1.0 25:1.0 26:1.0 27:0.2777777777777778 28:0.023010421601136907 29:0.07796610169491526 30:0.2777777777777778 31:0.5454545454545454 32:0.1926851025869759 33:0.9999999999999998 34:0.18181818181818182 35:0.025853658536585365 36:0.0 37:0.22222222222222224 38:0.0 39:0.2490375481225971 40:0.03389830508474576 41:0.8983050847457628 42:0.030029704534907664 43:0.011410189894362535 44:0.004615722454267809 45:0.1363201213626444 46:0.0388738640979838 47:0.4339326711067669 48:0.3983132305588571 49:0.6345125202827767 50:0.010056625989683248 
0.0 0.0 0.0 0.0 107.2033984850196 0.0 0.0 0:0.0 1:0.0 2:0.25 3:1.0 4:0.0 5:0.0 6:0.0 7:0.0 8:0.0 9:0.0 10:0.0 11:0.0 12:0.0 13:0.08333333333333331 14:0.0 15:0.0 16:0.0 17:1.0 18:1.0 19:0.0 20:6.425163203437094E-16 21:1.0 22:0.00966183574879227 23:0.012738853503184714 24:1.0 25:1.0 26:1.0 27:0.0 28:0.012988243400370353 29:0.0 30:0.0 31:1.0 32:0.0 33:1.0 34:1.0 35:0.005365853658536585 36:0.0 37:0.0 38:0.0 39:0.40002999850007687 40:0.15384615384615385 41:0.8461538461538461 42:0.07340992315219456 43:0.01795668825649522 44:5.037695314403187E-4 45:0.04270057027290026 46:0.07643445017612387 47:0.0665509916981742 48:0.062244652918622606 49:0.16245382865436528 50:0.09206751256366234 
0.0 0.0 106.49485817451331 0.0 0.0 0.0 0.0 0:0.0 1:1.0 2:0.0 3:1.0 4:0.0 5:0.0 6:0.0 7:0.0 8:0.0 9:0.0 10:0.0 11:0.0 12:0.0 13:0.09722222222222221 14:0.0 15:0.0 16:0.0 17:0.0 18:0.5 19:0.017241379310344827 20:0.04916920990166212 21:1.0 22:0.23188405797101447 23:0.0445859872611465 24:1.0 25:1.0 26:1.0 27:0.0 28:0.06164292047759599 29:0.0 30:0.5555555555555556 31:0.7142857142857143 32:0.11600429645542426 33:0.9999999999999998 34:1.0 35:0.0 36:0.0 37:0.0696969696969697 38:0.03833436683107681 39:0.24903754812259643 40:0.9795918367346939 41:0.0 42:0.013880307853639761 43:0.0526663405727608 44:0.011732734655414915 45:0.2482627811916988 46:0.03892394673433382 47:0.200107592874624 48:0.2292392988039143 49:0.37158148580001804 50:0.06192906669821126 
0.0 0.0 0.0 0.0 20.735511732331283 0.0 0.0 0:0.0 1:0.0 2:0.0 3:0.0 4:0.0 5:0.0 6:0.0 7:0.0 8:0.0 9:0.0 10:0.0 11:0.0 12:0.0 13:0.05555555555555556 14:0.0 15:0.0 16:0.0 17:1.0 18:0.5 19:0.0 20:6.425163203437094E-16 21:1.0 22:0.01932367149758454 23:0.025477707006369428 24:1.0 25:1.0 26:1.0 27:0.0 28:0.008876580548773822 29:0.0 30:0.0 31:0.8333333333333334 32:0.0 33:0.9999999999999998 34:0.6666666666666666 35:0.015121951219512195 36:0.0 37:0.0 38:0.0 39:0.600019999000051 40:0.11428571428571428 41:0.8857142857142857 42:0.006641514402276937 43:0.036128204944375145 44:0.006383084210613966 45:0.10607913441166565 46:0.0021702475751656535 47:0.14310231173141183 48:0.16343567513236157 49:0.6914897954191502 50:0.02138944424704941 
0.0 5.610106861017466 0.0 0.0 0.0 0.0 0.0 0:0.0 1:0.0 2:0.0 3:1.0 4:0.0 5:0.0 6:0.0 7:0.0 8:0.0 9:1.0 10:0.0 11:0.0 12:0.0 13:0.1111111111111111 14:0.2 15:0.0 16:0.0 17:0.0 18:0.0 19:0.0 20:6.425163203437094E-16 21:1.0 22:0.0 23:0.0 24:1.0 25:1.0 26:1.0 27:1.0 28:0.01251099681938147 29:0.0 30:0.8333333333333333 31:0.6666666666666666 32:0.0 33:0.9999999999999998 34:0.0 35:0.02048780487804878 36:0.0 37:0.0 38:0.0 39:0.3990800459977017 40:0.0 41:1.0 42:0.021730669326554753 43:0.019547093932931553 44:0.003289223162441879 45:0.08686384664268205 46:0.04796803614853393 47:0.1654429871418938 48:0.16003247953736716 49:0.5572300454171117 50:0.01998935043712622 
0.0 0.0 4.5895119798247235 0.0 0.0 0.0 0.0 0:0.0 1:1.0 2:0.0 3:1.0 4:0.0 5:0.0 6:0.0 7:0.0 8:0.0 9:0.0 10:0.0 11:0.0 12:0.0 13:0.09722222222222221 14:0.0 15:0.0 16:0.0 17:1.0 18:1.0 19:0.0 20:6.425163203437094E-16 21:1.0 22:0.00966183574879227 23:0.012738853503184714 24:1.0 25:1.0 26:1.0 27:0.0 28:0.03694931312174325 29:0.0 30:0.0 31:0.5 32:0.0 33:0.9999999999999998 34:1.0 35:0.004390243902439025 36:0.0 37:0.0 38:0.0 39:0.40002999850007687 40:0.16666666666666666 41:0.75 42:0.04167521709483794 43:0.028381752201505246 44:6.613589746088302E-4 45:0.060860388731903914 46:0.019224776436675976 47:0.2311983977248906 48:0.2844143626223426 49:0.14838430867328226 50:0.10102543760092403 
0.0 0.0 0.0 0.0 1.5231688002324375 0.0 0.0 0:0.0 1:0.0 2:0.0 3:1.0 4:0.0 5:0.0 6:0.0 7:0.0 8:0.0 9:0.0 10:0.0 11:0.0 12:0.0 13:0.08333333333333331 14:0.0 15:0.0 16:0.0 17:0.0 18:0.0 19:0.0 20:6.425163203437094E-16 21:1.0 22:0.014492753623188404 23:0.019108280254777073 24:1.0 25:1.0 26:1.0 27:0.0 28:0.032197418285172905 29:0.0 30:0.5555555555555556 31:0.75 32:0.0 33:0.9999999999999998 34:0.75 35:0.011707317073170732 36:0.0 37:0.0 38:0.0 39:0.25503724813759626 40:0.1111111111111111 41:0.8888888888888888 42:0.030415506791494247 43:0.011328075673624248 44:0.001519687618160222 45:0.08039909076779174 46:0.03389481533419023 47:0.07563703316436705 48:0.07043000711983616 49:0.34446066160582517 50:0.028526802793083263 
148.29219650395933 19.330558964916335 20.401223095289446 6.082775076523674 0.0 28.058869304268388 0.0 0:0.0 1:0.0 2:0.0 3:0.0 4:0.0 5:0.0 6:0.0 7:0.0 8:0.0 9:0.0 10:0.0 11:0.0 12:0.0 13:0.08333333333333331 14:0.0 15:0.0 16:0.0 17:0.0 18:0.5 19:0.0 20:6.425163203437094E-16 21:1.0 22:0.01932367149758454 23:0.025477707006369428 24:1.0 25:1.0 26:1.0 27:1.0 28:0.02126051747084433 29:0.0 30:1.0 31:1.0 32:0.0 33:0.9999999999999998 34:0.8 35:0.013658536585365854 36:0.0 37:0.0 38:0.0 39:0.252037398130094 40:0.125 41:0.875 42:0.037219915479885436 43:0.009495896916984435 44:0.0016977333731394274 45:0.08182342053522551 46:0.0698096303344963 47:0.4694181144980136 48:0.3962796780359731 49:0.38181766293490765 50:0.024471635629630638 
28.80856122990522 2.811015955909481 480.5616883853311 0.0 512.0 12.477189293324269 0.0 0:0.0 1:1.0 2:0.0 3:0.0 4:0.0 5:0.0 6:0.0 7:0.0 8:0.0 9:0.0 10:0.0 11:0.0 12:0.0 13:0.09722222222222221 14:0.0 15:0.0 16:0.0 17:0.0 18:1.0 19:0.0 20:0.011190233977619946 21:1.0 22:0.01932367149758454 23:0.025477707006369428 24:1.0 25:1.0 26:1.0 27:0.2777777777777778 28:0.023952677671294442 29:0.0 30:0.7777777777777778 31:1.0 32:0.0 33:0.9999999999999998 34:1.0 35:0.014634146341463414 36:0.0 37:0.0 38:5.039670975225537E-5 39:0.24603769811509663 40:0.11764705882352941 41:0.8823529411764706 42:0.03387629592280116 43:0.033480914006417256 44:0.0032972196404122017 45:0.16639754280207136 46:0.5699445752157727 47:0.02820398194662282 48:0.022491058004943672 49:0.15716094128391006 50:0.16558679964905235 
0.0 0.0 0.0 0.0 15.953135118326662 0.0 0.0 0:0.0 1:1.0 2:0.0 3:1.0 4:0.0 5:0.0 6:0.0 7:0.0 8:0.0 9:0.0 10:0.0 11:0.0 12:0.0 13:0.125 14:0.0 15:0.0 16:0.0 17:0.0 18:1.0 19:0.0 20:6.425163203437094E-16 21:1.0 22:0.00966183574879227 23:0.012738853503184714 24:1.0 25:1.0 26:1.0 27:0.0 28:0.010359475347710279 29:0.0 30:0.2777777777777778 31:1.0 32:0.0 33:0.9999999999999998 34:1.0 35:0.006829268292682927 36:0.0 37:0.0 38:0.0 39:0.40002999850007687 40:0.125 41:0.875 42:0.013368762639350789 43:0.02236623160668043 44:7.621128808968909E-4 45:0.04791193848113979 46:0.019656043583023027 47:0.10745396363562891 48:0.11485983447286954 49:0.22455377891569714 50:0.06505615789781259 
0.0 0.0 6.676267173225018 3.815076809618341 20.903265443675757 0.0 0.0 0:0.0 1:0.0 2:0.0 3:0.0 4:0.0 5:0.0 6:0.0 7:0.0 8:0.0 9:1.0 10:0.0 11:0.0 12:0.0 13:0.16666666666666666 14:0.0 15:0.0 16:0.0 17:0.0 18:0.0 19:0.0 20:6.425163203437094E-16 21:1.0 22:0.0 23:0.0 24:1.0 25:1.0 26:1.0 27:0.8333333333333333 28:0.03694931312174325 29:0.0 30:0.8333333333333333 31:1.0 32:0.0 33:0.9999999999999998 34:0.0 35:0.006341463414634147 36:0.0 37:0.0 38:0.0 39:0.3480325983700839 40:0.0 41:1.0 42:0.027366240067213114 43:0.02891035489752363 44:2.4427681769428617E-5 45:0.002584112420501735 46:0.026950023093660038 47:0.15277935631173648 48:0.20974180852088947 49:0.1384814213843658 50:0.09933523880924741 
0.0 0.0 0.0 0.0 29.50951185743612 0.0 0.0 0:0.0 1:1.0 2:0.0 3:0.0 4:0.0 5:0.0 6:0.0 7:0.0 8:0.0 9:0.0 10:0.0 11:0.043478260869565216 12:0.0 13:0.08333333333333331 14:0.0 15:0.008064516129032258 16:0.0 17:0.0 18:1.0 19:0.0 20:0.3031536113936931 21:1.0 22:0.25120772946859904 23:0.0445859872611465 24:1.0 25:1.0 26:1.0 27:0.0 28:0.06164292047759599 29:0.1672727272727273 30:0.5555555555555556 31:0.625 32:0.0 33:0.9999999999999998 34:0.875 35:0.0 36:0.01818181818181818 37:0.12365591397849462 38:0.2350239603487452 39:0.24903754812259687 40:0.9454545454545454 41:0.0 42:0.013874592264653264 43:0.0513159980643432 44:0.04070878228296668 45:0.5509121633941556 46:0.03391290073064996 47:0.12918721917880874 48:0.1468149413283721 49:0.4268739654764721 50:0.035101132505033834 
0.0 0.0 0.9480821274344544 0.0 0.0 0.0 0.0 0:0.0 1:1.0 2:0.0 3:0.0 4:0.0 5:0.0 6:0.0 7:0.0 8:0.0 9:0.0 10:0.0 11:0.0 12:0.0 13:0.06944444444444445 14:0.0 15:0.0 16:0.0 17:0.0 18:0.0 19:0.0 20:6.425163203437094E-16 21:1.0 22:0.2077294685990338 23:0.0445859872611465 24:1.0 25:1.0 26:1.0 27:0.0 28:0.023952677671294442 29:0.0 30:0.5555555555555556 31:0.75 32:0.0 33:0.9999999999999998 34:0.875 35:0.0 36:0.0 37:0.0 38:0.0 39:0.24903754812259687 40:0.9555555555555556 41:0.0 42:0.014046059934247339 43:0.016309251244296788 44:0.0028648313518046913 45:0.07570349818664789 46:0.03399637179123326 47:0.12918721917880874 48:0.1467149605992805 49:0.7134074249231497 50:0.0075503670593952445 
0.0 0.0 512.0 0.0 0.0 512.0 0.0 0:1.0 1:1.0 2:0.0 3:0.0 4:0.0 5:0.0 6:0.0 7:1.0 8:0.0 9:0.0 10:0.0 11:0.0 12:0.0 13:0.05555555555555556 14:0.0 15:0.0 16:0.0 17:0.0 18:0.0 19:0.034482758620689655 20:6.425163203437094E-16 21:1.0 22:0.01932367149758454 23:0.025477707006369428 24:1.0 25:1.0 26:1.0 27:0.5 28:0.027093531238486235 29:0.0 30:0.33333333333333337 31:0.625 32:0.26438188494492043 33:0.9999999999999998 34:0.5 35:0.0175609756097561 36:0.0 37:0.23 38:0.0 39:0.20103994800260166 40:0.09302325581395349 41:0.8372093023255814 42:0.025385788483401603 43:0.013663850266591037 44:0.0023411429154437356 45:0.11295148974009749 46:0.031255738635415045 47:0.2232476378817842 48:0.24874391982325916 49:0.4206199394982103 50:0.018157757757529706 
0.0 0.0 10.384920399925626 0.0 0.0 0.0 0.0 0:0.0 1:1.0 2:0.0 3:1.0 4:0.0 5:0.0 6:0.0 7:0.0 8:0.0 9:0.0 10:0.0 11:0.0 12:0.0 13:0.13888888888888887 14:0.0 15:0.0 16:0.0 17:1.0 18:1.0 19:0.0 20:6.425163203437094E-16 21:1.0 22:0.05314009661835749 23:0.006369426751592357 24:1.0 25:1.0 26:1.0 27:0.0 28:0.23124901310595294 29:0.0 30:0.0 31:1.0 32:0.0 33:0.9999999999999998 34:1.0 35:0.0 36:0.0 37:0.0 38:0.0 39:0.30003499825008967 40:1.0 41:0.0 42:0.0783378626485428 43:0.016415883658733997 44:0.0 45:0.0 46:0.03707228037372772 47:0.13518059691314527 48:0.13953559829963566 49:0.17147405843070432 50:0.07281308888053037 
0.0 0.0 30.763701186192552 0.0 0.0 0.0 0.0 0:0.0 1:0.0 2:0.25 3:0.0 4:0.0 5:0.0 6:0.0 7:0.0 8:0.0 9:0.0 10:0.0 11:0.0 12:0.0 13:0.08333333333333331 14:0.0 15:0.0 16:0.0 17:0.0 18:1.0 19:0.0 20:6.425163203437094E-16 21:1.0 22:0.06280193236714976 23:0.012738853503184714 24:1.0 25:1.0 26:1.0 27:0.0 28:0.023010421601136907 29:0.0 30:1.0 31:1.0 32:0.0 33:0.9999999999999998 34:1.0 35:0.0 36:0.0 37:0.0 38:0.0 39:0.30003499825009033 40:1.0 41:0.0 42:0.0434441918861501 43:0.012349671768493312 44:4.745081928794207E-4 45:0.03811908132732676 46:0.07806909177921342 47:0.13859780722690732 48:0.12191655988703481 49:0.20363907665462616 50:0.060310863383255225 
0.0 0.0 0.0 0.0 1.8402077862759452 0.0 0.0 0:0.0 1:0.0 2:0.0 3:1.0 4:0.0 5:0.0 6:0.0 7:0.0 8:0.0 9:1.0 10:0.0 11:0.0 12:0.0 13:0.06944444444444445 14:0.0 15:0.0 16:0.0 17:0.0 18:1.0 19:0.0 20:6.425163203437094E-16 21:1.0 22:0.0966183574879227 23:0.019108280254777073 24:1.0 25:1.0 26:1.0 27:0.5555555555555556 28:0.014530116969719056 29:0.0 30:0.8333333333333333 31:1.0 32:0.0 33:0.9999999999999998 34:1.0 35:0.0 36:0.0 37:0.0 38:0.0 39:0.3960301984900782 40:1.0 41:0.0 42:0.02012458882135696 43:0.015128067949389758 44:0.0014202915961507578 45:0.05476868753083381 46:0.020127655075318628 47:0.13471461368854135 48:0.11227613703417669 49:0.378337994634747 50:0.03452850099734688 
12.211241221397204 0.0 0.0 0.0 0.0 0.0 0.0 0:0.0 1:0.0 2:0.0 3:0.0 4:0.0 5:0.0 6:0.0 7:0.0 8:0.0 9:0.0 10:0.0 11:0.0 12:0.0 13:0.08333333333333331 14:0.0 15:0.0 16:0.0 17:0.0 18:1.0 19:0.0 20:0.2956962812252746 21:1.0 22:0.24637681159420288 23:0.0445859872611465 24:1.0 25:1.0 26:1.0 27:0.5555555555555556 28:0.048812199522259285 29:0.0 30:1.0 31:0.8571428571428571 32:0.0 33:1.0 34:1.0 35:0.0 36:0.0 37:0.0 38:0.22928311775958124 39:0.3149842507874622 40:1.0 41:0.0 42:0.015472099386371316 43:0.05130611330911304 44:0.051549337433942966 45:0.5560820381031051 46:0.019241470648792676 47:0.15535047242364317 48:0.14637950011469225 49:0.47390860315881317 50:0.04034733840290145 
-0.0 31.29925134414297 0.0 0.0 0.0 0.0 0.0 0:0.0 1:0.0 2:0.0 3:0.0 4:0.0 5:0.0 6:0.0 7:0.0 8:0.0 9:1.0 10:0.0 11:0.10869565217391304 12:0.0 13:0.05555555555555556 14:0.0 15:0.0 16:0.0 17:0.0 18:0.5 19:0.0 20:6.425163203437094E-16 21:1.0 22:0.033816425120772944 23:0.025477707006369428 24:1.0 25:1.0 26:1.0 27:1.0 28:0.006965525983947266 29:1.0 30:0.8333333333333333 31:0.6 32:0.0 33:0.9999999999999998 34:0.8 35:0.005365853658536585 36:0.0 37:0.7098765432098765 38:0.0 39:0.30003499825008967 40:0.30434782608695654 41:0.4782608695652174 42:0.03747425918978338 43:0.016670563795270592 44:0.002272736074494788 45:0.11854839321925584 46:0.03845094405769514 47:0.17669856568090378 48:0.18280029986668053 49:0.322190376790796 50:0.034775606936165986 
-0.0 19.82339853157881 0.0 0.0 0.0 0.0 0.0 0:0.0 1:0.0 2:0.0 3:0.0 4:0.0 5:0.0 6:0.0 7:0.0 8:0.0 9:1.0 10:0.0 11:0.2608695652173913 12:0.0 13:0.013888888888888888 14:0.0 15:0.0 16:0.0 17:0.0 18:0.16666666666666666 19:0.06896551724137931 20:0.20227195659545652 21:1.0 22:0.08695652173913043 23:0.11464968152866242 24:1.0 25:1.0 26:1.0 27:0.0 28:0.04279779907444522 29:0.8363636363636365 30:0.8333333333333333 31:0.15789473684210525 32:0.3444976076555024 33:0.9999999999999998 34:0.9473684210526315 35:0.015609756097560976 36:0.0 37:0.7301587301587301 38:0.1569769862329335 39:0.30003499825008967 40:0.2727272727272727 41:0.48484848484848486 42:0.037474259189783296 43:0.0575966051342095 44:0.04011917421943448 45:0.5238987922335817 46:0.03858171538594225 47:0.23799619636457311 48:0.2656193618393125 49:0.46330244371784324 50:0.04271997965404814 
-0.0 24.420075504340502 0.0 0.0 0.0 0.0 0.0 0:0.0 1:0.0 2:0.0 3:0.0 4:0.2272727272727273 5:0.0 6:0.0 7:0.0 8:0.0 9:1.0 10:0.0 11:0.10869565217391304 12:0.0 13:0.05555555555555556 14:0.0 15:0.056451612903225805 16:0.0 17:0.0 18:0.2857142857142857 19:0.08620689655172414 20:0.7182095625635813 21:1.0 22:0.08212560386473429 23:0.10828025477707007 24:1.0 25:1.0 26:1.0 27:0.0 28:0.06643986047112527 29:0.2211538461538462 30:0.8333333333333333 31:0.38095238095238093 32:0.2732793522267207 33:0.9999999999999998 34:0.8095238095238095 35:0.03414634146341464 36:0.0673076923076923 37:0.30913978494623656 38:0.06021311234741292 39:0.28457423282682254 40:0.16346153846153846 41:0.6730769230769231 42:0.038197281196571654 43:0.07603432631200771 44:0.06203905182445388 45:0.5106929318027404 46:0.03824504877492301 47:0.21416917337859306 48:0.24183839915494948 49:0.48635312280015125 50:0.041581075365686795 
-11.740300603823126 0.0 0.0 0.0 0.0 0.0 0.0 0:0.0 1:0.0 2:0.0 3:0.0 4:0.09090909090909091 5:0.0 6:0.0 7:0.0 8:0.0 9:1.0 10:0.0 11:0.0 12:0.0 13:0.05555555555555556 14:0.0 15:0.024193548387096774 16:0.0 17:0.0 18:0.3333333333333333 19:0.034482758620689655 20:0.4167514411664973 21:1.0 22:0.043478260869565216 23:0.05732484076433121 24:1.0 25:1.0 26:1.0 27:0.0 28:0.03971405193574781 29:0.0 30:0.8333333333333333 31:0.6363636363636364 32:0.18636755823986195 33:0.9999999999999998 34:0.8181818181818182 35:0.022926829268292682 36:0.04918032786885246 37:0.107981220657277 38:0.5952947002381793 39:0.29015024658603367 40:0.14754098360655737 41:0.7704918032786885 42:0.005704157808495947 43:0.026750879385966327 44:0.018543835642463154 45:0.3160852847316016 46:0.019739514643606345 47:0.2496293602265007 48:0.28622716018619193 49:0.42089920988902585 50:0.009646371260687063 
-0.0 42.90629095344219 0.0 0.0 0.0 0.0 0.0 0:0.0 1:0.0 2:0.0 3:0.0 4:0.18181818181818182 5:0.0 6:0.0 7:0.0 8:0.0 9:1.0 10:0.0 11:0.06521739130434782 12:0.0 13:0.05555555555555556 14:0.0 15:0.04032258064516129 16:0.0 17:0.0 18:0.2 19:0.05172413793103448 20:0.6859952526280095 21:1.0 22:0.07729468599033816 23:0.10191082802547771 24:1.0 25:1.0 26:1.0 27:1.0 28:0.04750907942523291 29:0.14526315789473687 30:0.8333333333333333 31:0.5263157894736842 32:0.17950138504155125 33:0.9999999999999998 34:0.8421052631578947 35:0.033170731707317075 36:0.05263157894736842 37:0.20353982300884957 38:0.056461844212814284 39:0.28945657980259115 40:0.16842105263157894 41:0.7157894736842105 42:0.02552867820806336 43:0.059522799351374917 44:0.037593689141630686 45:0.3969874343717606 46:0.02789463726259434 47:0.18969558288313546 48:0.19942934212926128 49:0.4245467122196765 50:0.04068589616021332 
-3.836482449328936 0.0 0.0 0.0 0.0 0.0 0.0 0:0.0 1:0.0 2:0.0 3:0.0 4:0.0 5:0.0 6:0.0 7:0.0 8:0.0 9:1.0 10:0.0 11:0.0 12:0.0 13:0.06944444444444445 14:0.0 15:0.0 16:0.0 17:0.0 18:0.5 19:0.0 20:6.425163203437094E-16 21:1.0 22:0.01932367149758454 23:0.025477707006369428 24:1.0 25:1.0 26:1.0 27:1.0 28:0.006677983051739564 29:0.0 30:0.8333333333333333 31:1.0 32:0.0 33:0.9999999999999998 34:0.8 35:0.01121951219512195 36:0.0 37:0.0 38:0.0 39:0.24903754812259588 40:0.14814814814814814 41:0.8518518518518519 42:0.03850020741285449 43:0.012017805465005969 44:0.0016356819367565514 45:0.10119802419658652 46:0.03747015909584139 47:0.2103819547049152 48:0.2000072564167862 49:0.2956229972032193 50:0.034446764863652606 
-0.0 109.5993093065778 0.0 0.0 0.0 0.0 0.0 0:0.0 1:0.0 2:0.0 3:0.0 4:0.0 5:0.0 6:0.0 7:0.0 8:0.0 9:1.0 10:0.0 11:0.0 12:0.0 13:0.08333333333333331 14:0.0 15:0.0 16:0.0 17:0.0 18:0.3333333333333333 19:0.017241379310344827 20:6.425163203437094E-16 21:1.0 22:0.02898550724637681 23:0.038216560509554146 24:1.0 25:1.0 26:1.0 27:0.5555555555555556 28:0.003761476167918611 29:0.0 30:0.8333333333333333 31:0.8571428571428571 32:0.09318377911993098 33:0.9999999999999998 34:0.8571428571428571 35:0.026341463414634145 36:0.0 37:0.05721393034825871 38:0.0 39:0.19809009549522838 40:0.09836065573770492 41:0.8852459016393442 42:0.02361681369208948 43:0.010034213700377112 44:0.0021655596207314134 45:0.05945619044949229 46:0.027834816335842928 47:0.20395921573381623 48:0.19780576002334535 49:0.7578460710529106 50:0.0046445294852585604 
-0.0 72.14739392515374 0.0 0.0 0.0 0.0 0.0 0:0.0 1:0.0 2:0.0 3:0.0 4:0.0 5:0.0 6:0.0 7:0.0 8:0.0 9:1.0 10:0.0 11:0.0 12:0.0 13:0.125 14:0.0 15:0.0 16:0.0 17:0.0 18:0.16666666666666666 19:0.06896551724137931 20:1.4129083305704821E-5 21:1.0 22:0.05797101449275362 23:0.07643312101910829 24:1.0 25:1.0 26:1.0 27:0.5555555555555556 28:0.022556742752542533 29:0.0 30:0.8333333333333333 31:0.6923076923076923 32:0.1709537000395726 33:0.9999999999999998 34:0.9230769230769231 35:0.05707317073170732 36:0.0 37:0.10574712643678161 38:0.06289509377074745 39:0.1980400979951042 40:0.09022556390977443 41:0.8796992481203008 42:0.03350192484418745 43:0.03784977855799002 44:0.017092289667895187 45:0.1839571031045395 46:0.038498244325359 47:0.21509230003763224 48:0.20844415889036635 49:0.8701606722058692 50:0.018753780582252418 
-11.010426075117858 0.0 0.0 0.0 0.0 0.0 0.0 0:0.0 1:1.0 2:0.0 3:0.0 4:0.045454545454545456 5:0.0 6:0.0 7:0.0 8:0.0 9:1.0 10:0.0 11:0.0 12:0.0 13:0.06944444444444445 14:0.0 15:0.008064516129032258 16:0.0 17:0.0 18:1.0 19:0.0 20:6.425163203437094E-16 21:1.0 22:0.00966183574879227 23:0.012738853503184714 24:1.0 25:1.0 26:1.0 27:0.5555555555555556 28:0.030805449090621995 29:0.0 30:0.8333333333333333 31:0.5 32:0.0 33:0.9999999999999998 34:1.0 35:0.004390243902439025 36:0.08333333333333333 37:0.0 38:0.0 39:0.2750362481875928 40:0.16666666666666666 41:0.75 42:0.037105603700156 43:0.019064378803656502 44:7.58580431016566E-4 45:0.083106333164471 46:0.03780126096948843 47:0.37377158487335105 48:0.4129804221181513 49:0.14509421808367523 50:0.0867963820902445 
-31.9352092361034 0.0 9.769555255866598 0.0 0.0 0.0 0.0 0:0.0 1:0.0 2:0.0 3:1.0 4:0.0 5:0.0 6:0.0 7:0.0 8:0.0 9:0.0 10:0.0 11:0.0 12:0.0 13:0.09722222222222221 14:0.0 15:0.0 16:0.0 17:0.0 18:1.0 19:0.0 20:6.425163203437094E-16 21:1.0 22:0.014492753623188404 23:0.019108280254777073 24:1.0 25:1.0 26:1.0 27:1.0 28:0.0842570661613769 29:0.0 30:1.0 31:1.0 32:0.0 33:0.9999999999999998 34:1.0 35:0.00975609756097561 36:0.0 37:0.0 38:0.0 39:0.2550372481375937 40:0.13043478260869565 41:0.8695652173913043 42:0.040763580651496344 43:0.0341274562557332 44:0.0010380459854478308 45:0.05749737380865647 46:0.07529089664613281 47:0.4516059373082081 48:0.7915630851851676 49:0.3282955944586232 50:0.030453970301146265 
-23.57694471920242 0.0 357.26806720015156 0.0 0.0 0.0 0.0 0:0.0 1:0.0 2:0.0 3:0.0 4:0.0 5:0.0 6:0.0 7:0.0 8:0.0 9:0.0 10:0.0 11:0.0 12:0.0 13:0.05555555555555556 14:0.0 15:0.0 16:0.0 17:0.0 18:1.0 19:0.0 20:6.425163203437094E-16 21:1.0 22:0.00966183574879227 23:0.012738853503184714 24:1.0 25:1.0 26:1.0 27:0.8333333333333333 28:0.030805449090621995 29:0.0 30:0.5 31:1.0 32:0.0 33:0.9999999999999998 34:1.0 35:0.0034146341463414634 36:0.0 37:0.0 38:0.0 39:0.25203739813009546 40:0.2222222222222222 41:0.7777777777777778 42:0.020701863308990393 43:0.009504115337446517 44:4.2898071346662137E-4 45:0.07404610448710815 46:0.03973222483764872 47:0.17054480889636484 48:0.14468359571091532 49:0.09518227998793234 50:0.11991690341426137 
-0.0 0.0 0.0 0.0 47.0066791625483 0.0 0.0 0:0.0 1:0.0 2:0.0 3:0.0 4:0.2272727272727273 5:0.0 6:0.0 7:0.0 8:0.0 9:1.0 10:0.0 11:0.0 12:0.0 13:0.06944444444444445 14:0.0 15:0.04032258064516129 16:0.0 17:0.0 18:0.2 19:0.06896551724137931 20:6.425163203437094E-16 21:1.0 22:0.06763285024154589 23:0.06369426751592357 24:1.0 25:1.0 26:1.0 27:1.0 28:0.014530116969719056 29:0.0 30:0.8333333333333333 31:0.0 32:0.5052631578947369 33:0.9999999999999998 34:1.0 35:0.01073170731707317 36:0.1111111111111111 37:0.2839506172839506 38:0.0 39:0.14448722008344295 40:0.3111111111111111 41:0.4888888888888889 42:0.014943407405122934 43:0.015402434471880751 44:0.010835388850760923 45:0.4122095508702873 46:0.017189473742786624 47:0.13306914989000776 48:0.14264068112126405 49:0.4800861865118518 50:0.017615400737776298 
-0.0 512.0 0.0 0.0 0.0 0.0 0.0 0:0.0 1:1.0 2:0.0 3:0.0 4:0.045454545454545456 5:0.0 6:0.0 7:0.0 8:0.0 9:1.0 10:0.0 11:0.0 12:0.0 13:0.09722222222222221 14:0.4 15:0.04032258064516129 16:0.0 17:0.0 18:0.2 19:0.06896551724137931 20:6.425163203437094E-16 21:1.0 22:0.2608695652173913 23:0.08280254777070065 24:1.0 25:1.0 26:1.0 27:0.5555555555555556 28:0.07272828600886114 29:0.0 30:0.8333333333333333 31:0.6 32:0.19106590004422822 33:0.9999999999999998 34:0.8666666666666667 35:0.026829268292682926 36:0.04201680672268908 37:0.14411027568922305 38:0.11340793507150855 39:0.21901383922400902 40:0.453781512605042 41:0.46218487394957986 42:0.03347334689925505 43:0.055233002498243366 44:0.027760779356550986 45:0.31643046794532814 46:0.04383204509663156 47:0.27889411699336003 48:0.3211331592096056 49:0.6967337595094627 50:0.02970605357004147 
-0.0 340.15989073169794 0.0 0.0 0.0 0.0 0.0 0:0.0 1:1.0 2:0.0 3:0.0 4:0.2272727272727273 5:0.0 6:0.0 7:0.0 8:0.0 9:1.0 10:0.0 11:0.021739130434782608 12:0.0 13:0.1111111111111111 14:0.4 15:0.04032258064516129 16:0.0 17:0.0 18:0.16666666666666666 19:0.08620689655172414 20:6.425163203437094E-16 21:1.0 22:0.2995169082125604 23:0.11464968152866242 24:1.0 25:1.0 26:1.0 27:0.5555555555555556 28:0.11596121158079527 29:0.027058823529411767 30:0.8333333333333333 31:0.4166666666666667 32:0.16718266253869968 33:0.9999999999999998 34:0.75 35:0.04682926829268293 36:0.029411764705882353 37:0.11917098445595856 38:0.2886110009443905 39:0.19768717446480744 40:0.36470588235294116 41:0.5647058823529412 42:0.030518387393250655 43:0.08459031090340398 44:0.06282210596453461 45:0.4822407617923062 46:0.044029593273345394 47:0.2395898842492619 48:0.27672228558757683 49:0.6098076227906383 50:0.04515050151718656 
-0.0 0.0 0.0 0.0 12.388394989875922 0.0 0.0 0:0.0 1:1.0 2:0.0 3:0.0 4:0.0 5:0.0 6:0.0 7:0.0 8:0.0 9:1.0 10:0.0 11:0.0 12:0.0 13:0.05555555555555556 14:0.0 15:0.0 16:0.0 17:0.0 18:1.0 19:0.0 20:6.425163203437094E-16 21:1.0 22:0.07729468599033816 23:0.019108280254777073 24:1.0 25:1.0 26:1.0 27:0.5555555555555556 28:0.023952677671294442 29:0.0 30:0.8333333333333333 31:1.0 32:0.0 33:0.9999999999999998 34:1.0 35:0.0 36:0.0 37:0.0 38:0.0 39:0.12716864156792496 40:1.0 41:0.0 42:0.01324301968164844 43:0.016401347191497648 44:0.0035551545701225182 45:0.32283709375554454 46:0.01403148528405196 47:0.15090279514165134 48:0.17098845255727063 49:0.19635970026337038 50:0.05640708267259746 
-0.0 0.0 24.83414812787202 0.0 0.0 0.0 0.007846464622550325 0:0.0 1:0.0 2:0.0 3:0.0 4:0.045454545454545456 5:0.0 6:0.0 7:0.0 8:0.0 9:1.0 10:0.0 11:0.0 12:0.0 13:0.027777777777777776 14:0.0 15:0.008064516129032258 16:0.0 17:0.0 18:1.0 19:0.0 20:6.425163203437094E-16 21:1.0 22:0.014492753623188404 23:0.012738853503184714 24:1.0 25:1.0 26:1.0 27:0.0 28:1.295996710849734E-4 29:0.0 30:0.8333333333333333 31:0.3333333333333333 32:0.0 33:0.9999999999999998 34:0.6666666666666666 35:0.0014634146341463415 36:0.125 37:0.0 38:0.0 39:0.18229088545572952 40:0.375 41:0.375 42:0.002852078904247994 43:0.017074069498296256 44:0.0028587423835889484 45:0.4297712933422876 46:0.017965754606211304 47:0.1366568418713078 48:0.13428440365324565 49:0.09398365962443234 50:0.14287234163709248 
-0.0 42.13441072603956 0.0 0.0 0.0 0.0 0.0 0:0.0 1:1.0 2:0.0 3:0.0 4:0.09090909090909091 5:0.0 6:0.0 7:0.0 8:0.0 9:1.0 10:0.0 11:0.08695652173913043 12:0.0 13:0.041666666666666664 14:0.0 15:0.016129032258064516 16:0.0 17:0.0 18:0.5 19:0.0 20:6.425163203437094E-16 21:1.0 22:0.02898550724637681 23:0.025477707006369428 24:1.0 25:1.0 26:1.0 27:1.0 28:0.006965525983947266 29:0.8 30:0.8333333333333333 31:0.2 32:0.0 33:0.9999999999999998 34:0.8 35:0.005365853658536585 36:0.08695652173913043 37:0.5679012345679012 38:0.0 39:0.15907900257161373 40:0.2608695652173913 41:0.4782608695652174 42:0.016981014878799123 43:0.008115125184497264 44:0.0014051471399437164 45:0.10431701465466872 46:0.018200864760187542 47:0.1333760168915762 48:0.1257038064985292 49:0.28495364519206473 50:0.029448573276149567 
-109.88512605150305 0.0 0.0 0.0 14.268270209747064 0.0 0.0 0:0.0 1:0.0 2:0.0 3:0.0 4:0.18181818181818182 5:0.0 6:0.0 7:0.0 8:0.0 9:0.0 10:0.0 11:0.0 12:0.0 13:0.041666666666666664 14:0.0 15:0.03225806451612903 16:0.0 17:0.0 18:0.0 19:0.05172413793103448 20:6.425163203437094E-16 21:1.0 22:0.20289855072463767 23:0.11464968152866242 24:1.0 25:1.0 26:1.0 27:0.6666666666666666 28:0.02949536043692702 29:0.0 30:0.7777777777777778 31:0.5217391304347826 32:0.19600725952813067 33:0.9999999999999998 34:0.782608695652174 35:0.018048780487804877 36:0.04597701149425287 37:0.10550458715596331 38:0.14452242544025906 39:0.24831344639664793 40:0.4827586206896552 41:0.42528735632183906 42:0.03757428199704657 43:0.048577702893670374 44:0.040987983852673285 45:0.42767199497304276 46:0.043822306806230206 47:0.14194177356498636 48:0.12929564013950537 49:0.6516163028677197 50:0.037533907087627265 
-0.0 44.670082339290936 0.0 0.0 0.0 0.0 0.0 0:0.0 1:0.0 2:0.0 3:0.0 4:0.0 5:0.0 6:0.0 7:0.0 8:0.0 9:1.0 10:0.0 11:0.043478260869565216 12:0.0 13:0.06944444444444445 14:0.0 15:0.0 16:0.0 17:0.0 18:0.0 19:0.08620689655172414 20:6.425163203437094E-16 21:1.0 22:0.06763285024154589 23:0.08280254777070065 24:1.0 25:1.0 26:1.0 27:1.0 28:0.006677983051739564 29:0.10109890109890111 30:0.8333333333333333 31:0.47058823529411764 32:0.3123192596876807 33:0.9999999999999998 34:0.7647058823529411 35:0.033658536585365856 36:0.0 37:0.2507788161993769 38:0.0 39:0.14180115170065943 40:0.15384615384615385 41:0.7582417582417582 42:0.03804010249944374 43:0.009538024315586686 44:0.013641371103349545 45:0.3072621018187076 46:0.04122218326906055 47:0.18061206707127647 48:0.1612889444368412 49:0.8749969422949911 50:0.003262752517057002 
-0.0 82.21152638784028 0.0 0.0 0.0 0.0 0.0 0:0.0 1:0.0 2:0.0 3:0.0 4:0.0 5:0.0 6:0.0 7:0.0 8:0.0 9:1.0 10:0.0 11:0.043478260869565216 12:0.0 13:0.05555555555555556 14:0.0 15:0.0 16:0.0 17:0.0 18:0.5 19:0.0 20:6.425163203437094E-16 21:1.0 22:0.024154589371980676 23:0.03184713375796178 24:1.0 25:1.0 26:1.0 27:1.0 28:0.0156608242539081 29:0.3538461538461539 30:0.8333333333333333 31:0.5 32:0.0 33:0.9999999999999998 34:0.8333333333333334 35:0.00878048780487805 36:0.0 37:0.24731182795698925 38:0.0 39:0.21898905054747603 40:0.19230769230769232 41:0.6923076923076923 42:0.03699414971491989 43:0.011069950420940855 44:0.0017222173500336328 45:0.1212088090405292 46:0.035799346699832396 47:0.21174707087238626 48:0.20547192879537035 49:0.27381340660953524 50:0.035218346684790076 
-254.42981839424147 0.0 0.0 0.0 0.0 0.0 0.0 0:0.0 1:1.0 2:0.0 3:0.0 4:0.13636363636363635 5:0.0 6:0.0 7:0.0 8:0.0 9:1.0 10:0.0 11:0.0 12:0.0 13:0.0 14:0.0 15:0.024193548387096774 16:0.0 17:0.0 18:0.3333333333333333 19:0.017241379310344827 20:6.425163203437094E-16 21:1.0 22:0.03864734299516908 23:0.050955414012738856 24:1.0 25:1.0 26:1.0 27:0.5555555555555556 28:0.02126051747084433 29:0.0 30:0.8333333333333333 31:0.1111111111111111 32:0.16240601503759397 33:0.9999999999999998 34:0.8888888888888888 35:0.01121951219512195 36:0.08571428571428572 37:0.08914728682170543 38:0.0 39:0.28280728820702056 40:0.22857142857142856 41:0.6571428571428571 42:0.03253313251098098 43:0.01999754858693846 44:0.012614903117807878 45:0.35657604070640475 46:0.052614591854337395 47:0.16820226450167577 48:0.15932129995107408 49:0.5025480875074405 50:0.02459582923823144 
-0.0 0.0 28.934660174757706 369.0862199906372 0.0 0.0 0.0 0:0.0 1:0.0 2:0.0 3:0.0 4:0.0 5:0.3333333333333333 6:0.0 7:0.0 8:0.125 9:0.0 10:0.0 11:0.10869565217391304 12:0.31666666666666665 13:0.08333333333333331 14:0.0 15:0.0 16:0.0 17:0.0 18:0.0 19:0.0 20:6.425163203437094E-16 21:1.0 22:0.02898550724637681 23:0.038216560509554146 24:1.0 25:1.0 26:1.0 27:0.33333333333333337 28:0.01348316578065512 29:0.38333333333333336 30:0.33333333333333337 31:0.125 32:0.0 33:1.0 34:0.75 35:0.02195121951219512 36:0.0 37:0.4577114427860697 38:0.0 39:0.25003749812509607 40:0.1 41:0.75 42:0.03832588194876717 43:0.011187414014993591 44:0.002832116542616006 45:0.08024713774925835 46:0.06862990601158571 47:0.5811619020197657 48:0.5268879560823265 49:0.6608087833595617 50:0.00921931891200201 
-0.0 512.0 0.0 0.0 0.0 0.0 0.0 0:0.0 1:1.0 2:0.0 3:0.0 4:0.045454545454545456 5:0.0 6:0.0 7:0.0 8:0.0 9:1.0 10:0.0 11:0.06521739130434782 12:0.0 13:0.06944444444444445 14:0.4 15:0.03225806451612903 16:0.0 17:0.0 18:0.125 19:0.12068965517241378 20:0.04159602125014198 21:1.0 22:0.4444444444444444 23:0.15286624203821658 24:1.0 25:1.0 26:1.0 27:0.5555555555555556 28:0.10230870876860554 29:0.09019607843137256 30:0.8333333333333333 31:0.56 32:0.26006191950464397 33:0.9999999999999998 34:0.96 35:0.02195121951219512 36:0.026143790849673203 37:0.23822975517890774 38:0.04554109632564161 39:0.14906215473540313 40:0.6013071895424836 41:0.29411764705882354 42:0.03675409497748827 43:0.07567081167246917 44:0.028106541613997525 45:0.31279050113514406 46:0.03662153664657791 47:0.20516142719675098 48:0.23878213663972192 49:0.5615543197897386 50:0.05614481684813841 
-0.0 512.0 0.0 0.0 0.0 0.0 0.0 0:0.0 1:1.0 2:0.0 3:0.0 4:0.045454545454545456 5:0.0 6:0.0 7:0.0 8:0.0 9:1.0 10:0.0 11:0.13043478260869565 12:0.0 13:0.09722222222222221 14:0.4 15:0.03225806451612903 16:0.0 17:0.0 18:0.2 19:0.06896551724137931 20:0.1255792924155086 21:1.0 22:0.17391304347826086 23:0.09554140127388536 24:1.0 25:1.0 26:1.0 27:0.5555555555555556 28:0.10544509454978426 29:0.23000000000000004 30:0.8333333333333333 31:0.375 32:0.18947368421052632 33:0.9999999999999998 34:0.9375 35:0.033170731707317075 36:0.03333333333333333 37:0.3123456790123457 38:0.12469898921729519 39:0.1222180557638804 40:0.3 41:0.5666666666666667 42:0.0370341588378252 43:0.07572561666174989 44:0.03018903191926999 45:0.4800337671509496 46:0.04029565449658597 47:0.19986134157706906 48:0.24753932560382275 49:0.34349170886299596 50:0.07495177259629111 
-0.0 512.0 0.0 0.0 0.0 0.0 0.0 0:0.0 1:1.0 2:0.0 3:0.0 4:0.09090909090909091 5:0.0 6:0.0 7:0.0 8:0.0 9:1.0 10:0.0 11:0.13043478260869565 12:0.0 13:0.06944444444444445 14:0.4 15:0.08870967741935484 16:0.0 17:0.0 18:0.08333333333333333 19:0.15517241379310345 20:0.1425073471233193 21:1.0 22:0.32367149758454106 23:0.1910828025477707 24:1.0 25:1.0 26:1.0 27:0.5555555555555556 28:0.13702340609019908 29:0.12000000000000001 30:0.8333333333333333 31:0.4594594594594595 32:0.22242562929061785 33:0.9999999999999998 34:0.8108108108108109 35:0.06536585365853659 36:0.04782608695652174 37:0.2449874686716792 38:0.16422534779207634 39:0.14743393265119614 40:0.29130434782608694 41:0.5826086956521739 42:0.02965533345629387 43:0.10482070187909945 44:0.06169537136625762 45:0.46591860852050354 46:0.03815183942393829 47:0.18648547622475292 48:0.21598704811589917 49:0.5368652204401466 50:0.07045201865091205 
-0.0 70.991856297633 0.0 0.0 0.0 0.0 0.0 0:0.0 1:1.0 2:0.0 3:0.0 4:0.13636363636363635 5:0.0 6:0.0 7:0.0 8:0.0 9:1.0 10:0.0 11:0.15217391304347827 12:0.0 13:0.08333333333333331 14:0.4 15:0.08870967741935484 16:0.0 17:0.0 18:0.1111111111111111 19:0.12068965517241378 20:0.11009381711314618 21:1.0 22:0.24637681159420288 23:0.15923566878980894 24:1.0 25:1.0 26:1.0 27:1.0 28:0.0965063950734249 29:0.17500000000000004 30:0.8333333333333333 31:0.4 32:0.21624713958810068 33:0.9999999999999998 34:0.8333333333333334 35:0.050731707317073174 36:0.059782608695652176 37:0.28794992175273865 38:0.0875478494847485 39:0.15866706664667007 40:0.27717391304347827 41:0.5652173913043478 42:0.023513933090333037 43:0.07804631763087141 44:0.04251581631169886 45:0.40884548383595415 46:0.025917764311113253 47:0.22481480639596704 48:0.2590938284181735 49:0.5846270822971111 50:0.0508927038454039 
-0.0 54.30319209279097 0.0 0.0 1.0387953124159783 0.0 0.0 0:0.0 1:0.0 2:0.0 3:0.0 4:0.2727272727272727 5:0.0 6:0.0 7:0.0 8:0.0 9:1.0 10:0.0 11:0.2608695652173913 12:0.0 13:0.041666666666666664 14:0.0 15:0.04838709677419355 16:0.0 17:0.0 18:0.16666666666666666 19:0.06896551724137931 20:0.20379789759240452 21:1.0 22:0.08695652173913043 23:0.08280254777070065 24:1.0 25:1.0 26:1.0 27:1.0 28:0.03292654500612814 29:0.7666666666666667 30:0.8333333333333333 31:0.07142857142857142 32:0.3157894736842105 33:0.9999999999999998 34:0.9285714285714286 35:0.015609756097560976 36:0.08333333333333333 37:0.7215686274509804 38:0.15795643533116097 39:0.2832858357082168 40:0.25 41:0.4444444444444444 42:0.04113223614112339 43:0.06352037771230071 44:0.05695194681549635 45:0.6255834576182194 46:0.04108306483475506 47:0.170222787968793 48:0.17658153867233498 49:0.47358142872285786 50:0.0508398698167339 
-36.259282493177864 0.0 14.084779820958333 0.0 0.0 0.0 0.0 0:0.0 1:0.0 2:0.0 3:0.0 4:0.0 5:0.0 6:0.0 7:0.0 8:0.0 9:1.0 10:0.0 11:0.0 12:0.0 13:0.06944444444444445 14:0.0 15:0.0 16:0.0 17:0.0 18:0.5 19:0.0 20:6.425163203437094E-16 21:1.0 22:0.01932367149758454 23:0.025477707006369428 24:1.0 25:1.0 26:1.0 27:0.0 28:0.01251099681938147 29:0.0 30:0.8333333333333333 31:0.8 32:0.0 33:0.9999999999999998 34:0.8 35:0.011707317073170732 36:0.0 37:0.0 38:0.0 39:0.30003499825008967 40:0.13793103448275862 41:0.8275862068965517 42:0.03568813763151177 43:0.019329851551065008 44:0.0022858641344978016 45:0.0956964176182849 46:0.03549328614436035 47:0.23504118079391415 48:0.26399853112370014 49:0.4053334529235738 50:0.02544292322386879 
-0.0 75.49610830204348 0.0 0.0 0.0 0.0 0.0 0:0.0 1:0.0 2:0.0 3:0.0 4:0.0 5:0.0 6:0.0 7:0.0 8:0.0 9:1.0 10:0.0 11:0.0 12:0.0 13:0.06944444444444445 14:0.0 15:0.04032258064516129 16:0.0 17:0.0 18:0.0 19:0.05172413793103448 20:0.07324516785351029 21:1.0 22:0.07729468599033816 23:0.0445859872611465 24:1.0 25:1.0 26:1.0 27:1.0 28:0.04505921364282331 29:0.0 30:0.8333333333333333 31:0.38461538461538464 32:0.19160260201064458 33:0.9999999999999998 34:0.5384615384615384 35:0.03073170731707317 36:0.056179775280898875 37:0.1897689768976898 38:0.05683215047142825 39:0.23791450876894643 40:0.1797752808988764 41:0.7078651685393258 42:0.03194728463986796 43:0.047588596763331686 44:0.02423599943983704 45:0.3674086061643992 46:0.045847871209718206 47:0.21004730550567388 48:0.2030159827591106 49:0.4768338076173549 50:0.049958572908317386 
-0.0 104.01858975904564 0.0 0.0 0.0 0.0 0.0 0:0.0 1:0.0 2:0.0 3:0.0 4:0.09090909090909091 5:0.0 6:0.0 7:0.0 8:0.0 9:1.0 10:0.0 11:0.043478260869565216 12:0.0 13:0.08333333333333331 14:0.0 15:0.016129032258064516 16:0.0 17:0.0 18:0.5 19:0.0 20:6.425163203437094E-16 21:1.0 22:0.024154589371980676 23:0.025477707006369428 24:1.0 25:1.0 26:1.0 27:0.5555555555555556 28:0.0156608242539081 29:0.29677419354838713 30:0.8333333333333333 31:0.4 32:0.0 33:0.9999999999999998 34:0.8 35:0.01073170731707317 36:0.06451612903225806 37:0.21904761904761905 38:0.0 39:0.18962116410308683 40:0.16129032258064516 41:0.7096774193548387 42:0.015663571617418045 43:0.01012328067880072 44:0.0016188875101166 45:0.08659979496490537 46:0.02972821822674075 47:0.19746070713270042 48:0.1911475190709769 49:0.37890672776640777 50:0.02130302809481805 
-0.0 156.33217461253375 0.0 0.0 0.0 0.0 0.0 0:0.0 1:0.0 2:0.0 3:0.0 4:0.13636363636363635 5:0.0 6:0.0 7:0.0 8:0.0 9:0.0 10:0.0 11:0.021739130434782608 12:0.0 13:0.08333333333333331 14:0.0 15:0.024193548387096774 16:0.0 17:0.0 18:0.3333333333333333 19:0.017241379310344827 20:6.425163203437094E-16 21:1.0 22:0.033816425120772944 23:0.0445859872611465 24:1.0 25:1.0 26:1.0 27:0.8333333333333333 28:0.025989988093256693 29:0.09387755102040816 30:0.5 31:0.5 32:0.11600429645542426 33:0.9999999999999998 34:0.875 35:0.018048780487804877 36:0.061224489795918366 37:0.1369047619047619 38:0.0 39:0.12456213923998083 40:0.14285714285714285 41:0.7551020408163265 42:0.01292008890391295 43:0.010917625335719995 44:0.010485118936832336 45:0.39663318630837363 46:0.03516079308637022 47:0.14069157466970755 48:0.1280742823905137 49:0.4925106611981312 50:0.01632392021346848 
-0.0 84.89284895500944 0.0 0.0 0.0 0.0 0.0 0:0.0 1:1.0 2:0.0 3:0.0 4:0.0 5:0.0 6:0.0 7:0.0 8:0.0 9:1.0 10:0.0 11:0.17391304347826086 12:0.0 13:0.08333333333333331 14:0.0 15:0.0 16:0.0 17:0.0 18:0.2 19:0.05172413793103448 20:6.425163203437094E-16 21:1.0 22:0.06280193236714976 23:0.07006369426751592 24:1.0 25:1.0 26:1.0 27:0.5555555555555556 28:0.02211412924171876 29:0.5041095890410959 30:0.8333333333333333 31:0.3333333333333333 32:0.2335976928622927 33:0.9999999999999998 34:0.9166666666666666 35:0.023414634146341463 36:0.0 37:0.501984126984127 38:0.0 39:0.1799910004499804 40:0.1780821917808219 41:0.6575342465753424 42:0.023256731585941968 43:0.007770238046086139 44:0.005007627588710821 45:0.1303462925437952 46:0.026453370283189427 47:0.112871492181837 48:0.10333541173269319 49:0.8310026826265279 50:0.002593984414725385 
-0.0 0.0 0.0 0.0 46.53695424339979 0.0 0.0 0:0.0 1:0.0 2:0.0 3:0.0 4:0.0 5:0.0 6:0.0 7:0.0 8:0.0 9:1.0 10:0.0 11:0.0 12:0.0 13:0.08333333333333331 14:0.0 15:0.04838709677419355 16:0.0 17:0.0 18:0.16666666666666666 19:0.08620689655172414 20:6.425163203437094E-16 21:1.0 22:0.06280193236714976 23:0.07643312101910829 24:1.0 25:1.0 26:1.0 27:1.0 28:0.018927311963787573 29:0.0 30:0.8333333333333333 31:0.0 32:0.4986149584487534 33:0.9999999999999998 34:1.0 35:0.016097560975609757 36:0.10526315789473684 37:0.2818627450980392 38:0.0 39:0.1895142085001038 40:0.22807017543859648 41:0.5789473684210527 42:0.028637958616702423 43:0.01324813842447285 44:0.006709400529180947 45:0.21047672056723468 46:0.03205566963267162 47:0.12226818913109912 48:0.13094593045521077 49:0.630900351432229 50:0.008973833172227524 
-0.0 512.0 0.0 0.0 0.0 0.0 0.0 0:0.0 1:1.0 2:0.0 3:0.0 4:0.045454545454545456 5:0.0 6:0.0 7:0.0 8:0.0 9:1.0 10:0.0 11:0.0 12:0.0 13:0.06944444444444445 14:0.4 15:0.04032258064516129 16:0.0 17:0.0 18:0.2 19:0.06896551724137931 20:6.425163203437094E-16 21:1.0 22:0.25120772946859904 23:0.089171974522293 24:1.0 25:1.0 26:1.0 27:0.5555555555555556 28:0.07025783311903633 29:0.0 30:0.8333333333333333 31:0.5882352941176471 32:0.19433198380566805 33:0.9999999999999998 34:0.8235294117647058 35:0.026829268292682926 36:0.042735042735042736 37:0.14411027568922305 38:0.08955057090707497 39:0.21844933394356308 40:0.4444444444444444 41:0.4700854700854701 42:0.03355908073405209 43:0.05359273246545668 44:0.026548473796079563 45:0.309893693230252 46:0.03736303790142613 47:0.2978744093125926 48:0.3345303291265859 49:0.6907732732120582 50:0.030614839254730047 
-0.0 464.8190933255243 0.0 0.0 0.0 0.0 0.0 0:0.0 1:0.0 2:0.0 3:0.0 4:0.045454545454545456 5:0.0 6:0.0 7:0.0 8:0.0 9:1.0 10:0.0 11:0.06521739130434782 12:0.0 13:0.09722222222222221 14:0.4 15:0.03225806451612903 16:0.0 17:0.0 18:0.0 19:0.05172413793103448 20:6.425163203437094E-16 21:1.0 22:0.20289855072463767 23:0.07643312101910829 24:1.0 25:1.0 26:1.0 27:0.5555555555555556 28:0.07272828600886114 29:0.12897196261682245 30:0.8333333333333333 31:0.5714285714285714 32:0.15937038858829317 33:0.9999999999999998 34:0.8571428571428571 35:0.025853658536585365 36:0.037383177570093455 37:0.22361111111111112 38:0.020292344739788692 39:0.21631955785388596 40:0.3925233644859813 41:0.4953271028037383 42:0.040332053683017746 43:0.05514735012438765 44:0.019616202106920576 45:0.2686211998977733 46:0.05005063911008709 47:0.2629824946898117 48:0.30317303261306405 49:0.6125490252036433 50:0.03808039211385075 
