svm_type c_svc
kernel_type polynomial
degree 4
gamma 0.0625
coef0 0.5
nr_class 4
total_sv 3431
rho 0.24788390081041212 1.0733936506521493 3.6117990201726924 0.5902411704898112 2.0434300428677656 2.3469667093003443
label 2 3 0 1
nr_sv 256 1383 857 935
SV
0.0 0.0 0.007685562252382639 0:0.011989222267044597 1:1.0 2:0.0 3:0.0018639825278662916 4:0.0 5:0.0 6:0.033166458072590735 7:0.2510319677219116 8:0.0 9:0.8324022346368715 10:0.0111731843575419 11:0.0 12:0.0 13:0.07783298578518713 14:0.3340925696496077 15:0.012658227848101264 16:0.0 17:0.007231703789412785 18:0.03571428571428571 19:0.0670391061452514 20:0.007231703789412785 21:0.0 22:0.4363895136059221 23:0.0 24:0.3654789990809434 25:0.03489914177591567 26:0.015625 27:0.03626075677903767 28:0.25 29:0.061129473758772174 30:0.0 31:0.022721848377366096 32:0.0 33:0.22701360078581986 34:0.25885386678149575 35:0.017513134851138354 36:0.38461538461538464 37:0.0 38:0.39825849177171585 39:3.566333808844508E-4 40:1.0 41:0.036666216053079556 42:0.0 43:0.0 44:0.0 45:0.0 46:0.0022527596305474207 47:0.520573412179008 48:0.015151515151515152 49:0.03170212765957447 50:0.6538461538461539 51:8.06067150886482E-16 52:0.1111111111111111 53:1.0 54:0.05704576335444807 55:0.535517225554328 56:0.0 57:0.04234169562344026 58:0.0028056914352126553 59:0.0 60:0.0 61:0.0 62:0.031105374776713945 63:0.055865921787709494 64:0.08440525761300356 65:0.0 66:0.05027932960893855 67:1.0 68:0.15384615384615385 69:0.0 70:0.03502747252747253 71:0.0 72:0.022078888613247333 73:0.0 74:0.888268156424581 75:0.0 76:0.0392156862745098 77:0.0906716641935173 
0.0 0.0 0.0020443869853352236 0:0.023425456623491412 1:1.0 2:0.0 3:0.0014007400815652408 4:0.0 5:0.0 6:0.04422194409678765 7:0.3850110066039634 8:0.0 9:0.6692015209125475 10:0.03802281368821293 11:0.0 12:1.0 13:0.4393762681760186 14:0.40486673655452843 15:0.025316455696202528 16:0.0 17:0.015909748336708128 18:0.017857142857142856 19:0.11026615969581749 20:0.015909748336708128 21:0.0 22:0.4727676724961375 23:0.0 24:0.38452573832466386 25:0.07111321349731946 26:0.037760416666666664 27:0.22881110789702053 28:0.0 29:0.04807879324440252 30:0.0 31:0.1708356813736865 32:0.0 33:0.22968116797172383 34:0.21895370093315203 35:0.04903677758318739 36:0.5 37:0.0 38:0.47354110212795153 39:0.001783166904422254 40:0.25 41:0.0713305253444134 42:0.0 43:0.0 44:0.0 45:0.0 46:0.008109934669970714 47:0.4512995303643356 48:0.030303030303030304 49:0.0374468085106383 50:0.5 51:0.029779014893644328 52:0.13333333333333333 53:1.0 54:0.08790814674603367 55:0.5217547860529318 56:0.0 57:0.1948847202045469 58:0.004717698509662822 59:0.0 60:0.0 61:1.0 62:0.14842471177788252 63:0.13688212927756654 64:0.08578738774895903 65:0.0 66:0.06844106463878327 67:1.0 68:0.3076923076923077 69:0.0 70:0.02200255102040816 71:0.0 72:0.03249813941949888 73:0.028506967917443816 74:0.8060836501901141 75:0.0 76:0.05660377358490566 77:0.08670880483341556 
0.0 0.0 0.002051840825836803 0:0.03628489424091863 1:0.0 2:0.0 3:0.0015127380855873619 4:0.0 5:1.0 6:0.19712140175219023 7:0.31984697568663356 8:0.2 9:0.5684830633284241 10:0.06111929307805596 11:0.0 12:1.0 13:0.2939062912771973 14:0.3150433622414943 15:0.18143459915611812 16:0.0 17:0.07434191495516343 18:0.023809523809523808 19:0.13991163475699558 20:0.07434191495516343 21:0.16666666666666666 22:0.4562329641513991 23:0.0 24:0.264157736657097 25:0.6972169662567014 26:0.24739583333333331 27:0.47420073086650405 28:0.020833333333333332 29:0.06499500737409163 30:1.0 31:0.24816687108429747 32:0.0 33:0.307506445191848 34:0.46513113391493727 35:0.2609457092819615 36:0.5775193798449613 37:0.0 38:0.33675142899860844 39:0.014800285306704708 40:0.25 41:0.7173498233922377 42:0.0 43:0.3333333333333333 44:0.0 45:0.0 46:0.038972741608470376 47:0.5875770820789699 48:0.3560606060606061 49:0.16425531914893618 50:0.35658914728682173 51:0.0850828996961242 52:0.1111111111111111 53:1.0 54:0.0726725361759358 55:0.5431247815695925 56:0.035346097201767304 57:0.44765603916217633 58:0.059441476588267386 59:1.0 60:0.0 61:0.0 62:0.5167623004119078 63:0.12739322533136965 64:0.06436938744795065 65:0.0 66:0.09499263622974963 67:1.0 68:0.07692307692307693 69:0.0 70:0.02537836840162421 71:0.0 72:0.1683205160009923 73:0.07330363178771267 74:0.6958762886597938 75:0.0 76:0.10773993808049535 77:0.06752258217298507 
0.0 0.0 0.0043490120844194725 0:0.012044767927707214 1:0.0 2:0.0 3:1.0000000000000002 4:0.0 5:0.0 6:0.0020859407592824365 7:0.41465643274853936 8:0.0 9:0.9 10:0.0 11:0.0 12:0.0 13:0.03353605413882064 14:0.08639886908732812 15:0.0 16:0.0 17:0.0 18:0.05357142857142857 19:0.0 20:0.0 21:0.0 22:0.10908255942437625 23:0.0 24:0.09663419175122943 25:0.015972034509167947 26:0.0 27:8.871569014899348E-4 28:1.0 29:0.15364690728929523 30:1.0 31:0.0 32:0.0 33:0.2245510995605835 34:0.0 35:0.0017513134851138354 36:1.0 37:0.0 38:0.41642886220844294 39:0.0 40:1.0 41:0.016936502019302767 42:0.0 43:0.0 44:0.0 45:0.0 46:2.2527596305474206E-4 47:0.48439815623163734 48:0.0 49:0.0019148936170212765 50:1.0 51:8.06067150886482E-16 52:0.0 53:1.0 54:0.09418611408599224 55:0.5160570619653972 56:0.0 57:0.001915720954690025 58:0.0049652847343885234 59:0.0 60:0.0 61:0.0 62:0.006553818442140268 63:0.1 64:0.6698113680830784 65:0.0 66:0.0 67:0.0 68:0.07692307692307693 69:0.0 70:0.05357142857142857 71:0.0 72:0.001116348300669809 73:0.0 74:1.0 75:0.0 76:0.0 77:0.7151080326409701 
0.0 0.0 0.005911605484034557 0:0.017336417866842452 1:1.0 2:0.0 3:0.0015710356464360125 4:0.0 5:0.0 6:0.046725073007926575 7:0.2510496747486703 8:0.0 9:0.7265917602996255 10:0.02247191011235955 11:0.0 12:1.0 13:0.040375070961649724 14:0.364833698656247 15:0.025316455696202528 16:0.0 17:0.013884871275672547 18:0.017857142857142856 19:0.09363295880149813 20:0.013884871275672547 21:0.0 22:0.47656809227111174 23:0.0 24:0.27893755388798874 25:0.07281248592152101 26:0.03255208333333333 27:0.066897316137641 28:0.14285714285714285 29:0.04750977012295996 30:0.0 31:0.32258096595617736 32:0.0 33:0.235854005197021 34:0.5235405104196635 35:0.043782837127845885 36:0.5102040816326531 37:0.0 38:0.6625357127296039 39:0.0010699001426533524 40:0.25 41:0.07669473928073059 42:0.0 43:0.0 44:0.0 45:0.0 46:0.006758278891642262 47:0.07473299684361624 48:0.03787878787878788 49:0.04127659574468085 50:0.6326530612244898 51:0.02653109336843868 52:0.1111111111111111 53:1.0 54:0.05705821634441106 55:0.07130274542752349 56:0.0 57:0.06503412137198332 58:0.005360470234729341 59:0.0 60:0.0 61:0.0 62:0.06147380089139321 63:0.11235955056179775 64:0.7984284854261778 65:0.0 66:0.06741573033707865 67:0.0 68:0.2692307692307693 69:0.0 70:0.026482021379980562 71:1.0 72:0.03299429421979658 73:0.030475984915741553 74:0.8389513108614233 75:0.0 76:0.05714285714285714 77:0.8461974146854659 
0.0 0.0 0.016654141161091145 0:0.012044767927707355 1:0.0 2:0.0 3:1.0000000000000002 4:0.0 5:1.0 6:0.0020859407592824365 7:0.4146564327485373 8:0.0 9:0.9 10:0.0 11:0.0 12:0.0 13:0.07392939245586329 14:0.08639886908732812 15:0.0 16:0.0 17:0.0 18:0.05357142857142857 19:0.0 20:0.0 21:0.0 22:0.10908234067300372 23:0.0 24:0.09663419175122943 25:0.015972034509167864 26:0.0 27:7.931445322384046E-4 28:1.0 29:0.15364690728929523 30:0.0 31:0.0 32:0.0 33:0.2245510995605835 34:0.0 35:0.0017513134851138354 36:1.0 37:0.0 38:0.4164841775959571 39:0.0 40:0.5 41:0.016855728807395352 42:0.0 43:0.0 44:0.0 45:0.0 46:2.2527596305474206E-4 47:0.48439714195898537 48:0.0 49:0.0019148936170212765 50:1.0 51:8.06067150886482E-16 52:0.0 53:1.0 54:0.09418611408599177 55:0.5160570619653972 56:0.0 57:0.001759358757662975 58:0.004965284734388499 59:0.0 60:0.0 61:0.0 62:0.005994531477754351 63:0.1 64:0.49925249586113485 65:0.0 66:0.0 67:0.0 68:0.2692307692307693 69:0.0 70:0.05357142857142857 71:0.0 72:0.001116348300669809 73:0.0 74:1.0 75:0.0 76:0.0 77:0.5308215234631923 
0.0 0.0 0.001714435105532904 0:0.01403577127546214 1:0.0 2:0.0 3:0.00169856073973014 4:0.0 5:0.0 6:0.07342511472674176 7:0.3787541254125429 8:0.0 9:0.7970297029702971 10:0.019801980198019802 11:0.0 12:1.0 13:0.03258755683957894 14:0.820140411067696 15:0.03797468354430379 16:0.0 17:0.01880242985247324 18:0.023809523809523808 19:0.06435643564356436 20:0.01880242985247324 21:0.0 22:0.9345812661655389 23:0.0 24:0.6522235013217362 25:0.06541424516826591 26:0.033854166666666664 27:0.07505553091907542 28:0.0 29:0.05663648398362797 30:0.0 31:0.770006961249047 32:0.0 33:0.24313132064503956 34:0.42632080566955977 35:0.04903677758318739 36:0.42424242424242425 37:0.0 38:0.9999999999999998 39:0.0014265335235378032 40:0.5 41:0.061934624221080294 42:0.0 43:0.0 44:0.0 45:0.0 46:0.006758278891642262 47:0.03186332416481927 48:0.022727272727272728 49:0.06851063829787234 50:0.48484848484848486 51:0.03531649361553362 52:0.16666666666666666 53:1.0 54:0.08637393838260561 55:0.0347794161774414 56:0.0 57:0.07887566910498356 58:0.0021422793370730955 59:0.0 60:0.0 61:1.0 62:0.07481245580178984 63:0.07425742574257425 64:0.6419956855465812 65:0.0 66:0.06683168316831684 67:0.0 68:0.2692307692307693 69:0.0 70:0.03048340548340548 71:0.0 72:0.04998759612999256 73:0.04072423988206259 74:0.8712871287128713 75:0.0 76:0.046908315565031986 77:0.6091127442051127 
0.0 0.0 0.005484377277528988 0:0.016892052581540737 1:0.0 2:1.0 3:0.0015398408809358588 4:0.0 5:0.0 6:0.2357113057989153 7:0.2510665599080238 8:0.0 9:0.7080561714708056 10:0.019955654101995565 11:0.0 12:1.0 13:0.025464693417569118 14:0.3709123542679246 15:0.1940928270042194 16:0.0 17:0.07231703789412786 18:0.023809523809523808 19:0.082039911308204 20:0.07231703789412786 21:0.16666666666666666 22:0.4800196514539198 23:0.0 24:0.29382288049289923 25:0.36309101455151604 26:0.14453125 27:0.27708763421707355 28:0.0196078431372549 29:0.04724776218407712 30:1.0 31:0.328917360029171 32:0.0 33:0.28154010450877476 34:0.5211278126886589 35:0.22767075306479861 36:0.5179282868525896 37:0.0 38:0.4017509527666203 39:0.004814550641940086 40:0.25 41:0.380819939202526 42:0.0 43:0.0 44:0.0 45:0.0 46:0.03874746564541563 47:0.4904379297053795 48:0.21212121212121213 49:0.20382978723404255 50:0.5059760956175299 51:0.034769811535876854 52:0.10344827586206896 53:1.0 54:0.05771059079560861 55:0.5090955304284591 56:0.0 57:0.26336941841613765 58:0.026292760092177535 59:0.0 60:0.0 61:0.0 62:0.25651340553772256 63:0.1271249076127125 64:0.5547546781718758 65:0.0 66:0.10199556541019955 67:1.0 68:0.3076923076923077 69:0.0 70:0.02613356099411876 71:1.0 72:0.16770032250062017 73:0.030484129763717845 74:0.8351810790835181 75:0.0 76:0.06674984404242046 77:0.5858367683244056 
0.0 0.0 0.0014861274637087095 0:0.012736002815954496 1:1.0 2:0.0 3:0.0018014987579504115 4:0.0 5:0.0 6:0.02190237797246558 7:0.4123538011695906 8:0.0 9:0.6201550387596899 10:0.007751937984496124 11:0.0 12:1.0 13:0.044445880851877034 14:0.6308824930906318 15:0.02953586497890295 16:1.0 17:0.005496094879953717 18:0.03571428571428571 19:0.06976744186046512 20:0.005496094879953717 21:0.0 22:0.9928980681545477 23:0.0 24:0.5639114507830932 25:0.031088097490651882 26:0.01171875 27:0.11107897020538038 28:0.0 29:0.08013818194143929 30:1.0 31:0.20574800278449976 32:0.0 33:0.22888791302711528 34:0.2715993732137363 35:0.02626970227670753 36:0.75 37:0.0 38:0.9999999999999997 39:1.783166904422254E-4 40:0.25 41:0.03242400486943966 42:0.0 43:0.5 44:0.0 45:0.0 46:0.005631899076368551 47:0.19480917666474779 48:0.007575757575757576 49:0.01702127659574468 50:0.45 51:0.06274686596548193 52:0.16666666666666666 53:1.0 54:0.0936630885075506 55:0.15805359532038227 56:0.023255813953488372 57:0.11306963670622273 58:0.001323541750251367 59:0.0 60:0.0 61:0.0 62:0.0951380251890609 63:0.1937984496124031 64:0.07209025234535696 65:0.0 66:0.16279069767441862 67:1.0 68:0.2692307692307693 69:0.0 70:0.03244047619047619 71:0.0 72:0.015876953609526172 73:0.07207986837925669 74:0.813953488372093 75:0.0 76:0.07432432432432433 77:0.07691163240393548 
0.0 0.0 0.007000884475487467 0:0.012055877059839846 1:0.0 2:0.0 3:1.0000000000000002 4:0.0 5:0.0 6:0.0020859407592824365 7:0.41465643274853836 8:0.0 9:0.9 10:0.0 11:0.0 12:0.0 13:0.03723027547171931 14:0.08639886908732805 15:0.0 16:0.0 17:0.0 18:0.05357142857142857 19:0.0 20:0.0 21:0.0 22:0.10908824726803079 23:0.0 24:0.09663419175122938 25:0.015972034509167905 26:0.0 27:6.68967168894437E-4 28:1.0 29:0.15364690728929514 30:1.0 31:0.0 32:0.0 33:0.2245510995605835 34:0.0 35:0.0017513134851138354 36:1.0 37:0.0 38:0.627643978637595 39:0.0 40:0.25 41:0.016936477814064484 42:0.0 43:0.0 44:0.0 45:1.0 46:2.2527596305474206E-4 47:0.061756444927556886 48:0.0 49:0.0019148936170212765 50:1.0 51:8.06067150886482E-16 52:0.0 53:1.0 54:0.094186114085992 55:0.06078454907138395 56:0.0 57:0.001639384783923828 58:0.004965284734388515 59:0.0 60:0.0 61:0.0 62:0.0053025003632160925 63:0.1 64:0.06323809762705063 65:0.0 66:0.0 67:0.0 68:0.23076923076923078 69:0.0 70:0.05357142857142857 71:0.0 72:0.001116348300669809 73:0.0 74:1.0 75:0.0 76:0.0 77:0.06923028557598307 
0.0 0.0 0.0024960132169150593 0:0.012018846619397996 1:0.0 2:0.0 3:1.0000000000000002 4:0.0 5:1.0 6:0.0020859407592824365 7:0.41465643274853936 8:0.0 9:0.9 10:0.0 11:0.0 12:0.0 13:0.04927829894386577 14:0.08675466183805076 15:0.0 16:0.0 17:0.0 18:0.05357142857142857 19:0.0 20:0.0 21:0.0 22:0.10950958376774401 23:0.0 24:0.09703213382223362 25:0.015972034509167947 26:0.0 27:0.0010762824549801807 28:1.0 29:0.15427962917977775 30:1.0 31:0.0 32:0.0 33:0.2245556512005362 34:0.0 35:0.0017513134851138354 36:1.0 37:0.0 38:0.6188106504130241 39:0.0 40:0.5 41:0.01693669566369948 42:0.0 43:0.0 44:0.0 45:1.0 46:2.2527596305474206E-4 47:0.06177950928759969 48:0.0 49:0.0019148936170212765 50:1.0 51:8.06067150886482E-16 52:0.0 53:1.0 54:0.09418611408599224 55:0.060832206614867046 56:0.0 57:0.0025062409992246963 58:0.004944921421612698 59:0.0 60:0.0 61:0.0 62:0.004711495688756414 63:0.1 64:0.7616226859980937 65:0.0 66:0.0 67:0.0 68:0.19230769230769232 69:0.0 70:0.05357142857142857 71:0.0 72:0.001116348300669809 73:0.0 74:1.0 75:0.0 76:0.0 77:0.8128780896184149 
0.0 0.0 8.413146827180532E-4 0:0.018600390233923084 1:0.0 2:1.0 3:0.0015076418602339653 4:0.0 5:0.0 6:0.4476428869420108 7:0.31136128896458165 8:0.0 9:0.7295386904761905 10:0.046130952380952384 11:0.0 12:1.0 13:0.018763384350778182 14:0.381555957940214 15:0.45147679324894513 16:1.0 17:0.14781602545559733 18:0.017857142857142856 19:0.08035714285714286 20:0.14781602545559733 21:0.16666666666666666 22:0.48173683556133107 23:0.0 24:0.3518906644524514 25:0.8909945600756859 26:0.28125 27:0.47312848309275685 28:0.07751937984496124 29:0.05727904032825269 30:0.0 31:0.3342012795438724 32:0.0 33:0.3388180613135052 34:0.41397521771180296 35:0.28371278458844135 36:0.31640625 37:0.0 38:0.618994332743746 39:0.02211126961483595 40:1.0 41:0.9453658663365204 42:0.0 43:0.2542372881355932 44:0.0 45:0.0 46:0.041676053165127284 47:0.06175294381200226 48:0.4393939393939394 49:0.41723404255319146 50:0.341796875 51:0.05199412395222598 52:0.0790960451977401 53:1.0 54:0.07104142314739262 55:0.06078454907138395 56:0.016741071428571428 57:0.4688184999940878 58:0.06272039564579628 59:0.0 60:0.0 61:0.0 62:0.4787061565806688 63:0.06882440476190477 64:0.11002608739276579 65:0.0 66:0.11941964285714285 67:0.0 68:0.19230769230769232 69:0.0 70:0.025297619047619048 71:1.0 72:0.33329198709997515 73:0.03914413937463856 74:0.7983630952380952 75:0.0 76:0.087527352297593 77:0.11913842888437168 
0.013071920750282226 0.0 0.0 0:0.012055877059839846 1:0.0 2:0.0 3:1.0000000000000002 4:0.0 5:0.0 6:0.0020859407592824365 7:0.41465643274853836 8:0.0 9:0.9 10:0.0 11:0.0 12:0.0 13:0.03723027547171931 14:0.08639886908732812 15:0.0 16:0.0 17:0.0 18:0.05357142857142857 19:0.0 20:0.0 21:0.0 22:0.10441340760675533 23:0.0 24:0.09663419175122943 25:0.015972034509167905 26:0.0 27:8.158191088563575E-4 28:1.0 29:0.15364690728929523 30:1.0 31:0.0 32:0.0 33:0.2245510995605835 34:0.0 35:0.0017513134851138354 36:1.0 37:0.0 38:0.4415020020807818 39:0.0 40:0.25 41:0.016871399000875816 42:0.0 43:0.0 44:0.0 45:0.0 46:2.2527596305474206E-4 47:0.46274895265519506 48:0.0 49:0.0019148936170212765 50:1.0 51:8.06067150886482E-16 52:0.0 53:1.0 54:0.094186114085992 55:0.5160570619653972 56:0.0 57:0.0018296639770679951 58:0.004965284734388511 59:0.0 60:0.0 61:0.0 62:0.006070296953225349 63:0.1 64:0.06323809762705063 65:0.0 66:0.0 67:0.0 68:0.5 69:0.0 70:0.05357142857142857 71:0.0 72:0.001116348300669809 73:0.0 74:1.0 75:0.0 76:0.0 77:0.0688582929774407 
0.015785633121256998 0.0 0.0 0:0.012039830535648423 1:0.0 2:0.0 3:1.0000000000000002 4:0.0 5:1.0 6:0.0020859407592824365 7:0.4426535087719299 8:0.0 9:0.9 10:0.0 11:0.0 12:0.0 13:0.07879694007745353 14:0.1008513612249436 15:0.0 16:0.0 17:0.0 18:0.05357142857142857 19:0.0 20:0.0 21:0.0 22:0.1549700037586828 23:0.0 24:0.11279881185867373 25:0.017050446006217045 26:0.0 27:0.0020471284573106963 28:1.0 29:0.17934840943885474 30:0.0 31:0.0 32:0.0 33:0.22456339516715254 34:0.0 35:0.0017513134851138354 36:1.0 37:0.0 38:1.0 39:0.0 40:1.0 41:0.020275042674879763 42:0.0 43:0.0 44:0.0 45:0.0 46:2.2527596305474206E-4 47:0.17139061362572144 48:0.0 49:0.0019148936170212765 50:1.0 51:8.06067150886482E-16 52:0.0 53:1.0 54:0.10054544096037447 55:0.1418500305361297 56:0.0 57:0.0043674230482243165 58:0.004540942007203272 59:0.0 60:0.0 61:0.0 62:0.02228595664244521 63:0.1 64:0.5250012542015753 65:0.0 66:0.0 67:0.0 68:0.19230769230769232 69:0.0 70:0.05357142857142857 71:0.0 72:0.001116348300669809 73:0.0 74:1.0 75:0.0 76:0.0 77:0.6323607959237798 
0.0 0.0 0.0035514515149953816 0:0.03464074268530212 1:0.0 2:0.0 3:0.0017707762016547289 4:0.0 5:1.0 6:0.6097204839382562 7:0.3843896976483712 8:0.0 9:0.7659574468085106 10:0.02950354609929078 11:0.0 12:1.0 13:0.07186096575292432 14:0.4055465548460878 15:0.11392405063291139 16:0.0 17:0.1541799247902806 18:0.02976190476190476 19:0.0899290780141844 20:0.1541799247902806 21:0.0 22:0.47312624964560557 23:0.0 24:0.366355149947501 25:0.9299004369959905 26:0.41276041666666663 27:0.4962188520186784 28:0.05128205128205128 29:0.06434764064705789 30:0.0 31:0.3502502734776411 32:0.0 33:0.29788622521769 34:0.23949460815018014 35:0.276707530647986 36:0.2958801498127341 37:0.0 38:0.5779343392883944 39:0.018544935805991442 40:0.25 41:0.932742080224287 42:0.0 43:0.0 44:0.0 45:1.0 46:0.05023653976120748 47:0.02176752163761295 48:0.49242424242424243 49:0.5744680851063829 50:0.4868913857677903 51:0.03525090888035119 52:0.10101010101010101 53:1.0 54:0.08757646953457754 55:0.021534149277546943 56:0.0 57:0.5054542490062696 58:0.06158681028003756 59:1.0 60:0.0 61:1.0 62:0.5036764541148954 63:0.06326241134751773 64:0.08578738774895903 65:0.0 66:0.022978723404255316 67:0.0 68:0.5384615384615385 69:0.0 70:0.03334002140181915 71:0.0 72:0.4371123790622674 73:0.02851511276542023 74:0.8292198581560284 75:0.0 76:0.04879250862493839 77:0.08670880483341556 
0.0023400493446184426 0.0 0.0 0:0.013563015985821603 1:1.0 2:0.0 3:0.0014923487599697114 4:0.0 5:0.0 6:0.082186065915728 7:0.37807017543859867 8:0.0 9:0.6855983772819473 10:0.018255578093306288 11:1.0 12:0.0 13:0.904554473253781 14:0.8191111534673909 15:0.012658227848101264 16:0.0 17:0.027480474399768584 18:0.017857142857142856 19:0.13184584178498987 20:0.027480474399768584 21:0.0 22:0.93340838788967 23:0.0 24:0.587675165572326 25:0.09903365319637797 26:0.08463541666666666 27:0.2040040608089559 28:0.0 29:0.051377111662231946 30:0.0 31:0.7617462790466404 32:0.0 33:0.25756110691637196 34:0.501062469542274 35:0.07180385288966726 36:0.4270833333333333 37:0.0 38:0.9999999999999998 39:0.0016048502139800287 40:0.5 41:0.09376569400412536 42:0.0 43:0.0 44:0.0 45:0.0 46:0.012615453931065555 47:0.03186332416481927 48:0.03787878787878788 49:0.07191489361702127 50:0.5208333333333334 51:0.011727259674783231 52:0.3888888888888889 53:1.0 54:0.08587581878409047 55:0.0347794161774414 56:0.018255578093306288 57:0.1935110446788954 58:0.0032473712123698025 59:0.0 60:0.0 61:1.0 62:0.1962294201474531 63:0.11359026369168357 64:0.897923042191341 65:0.0 66:0.018255578093306288 67:0.0 68:0.38461538461538464 69:0.0 70:0.024615575396825396 71:0.0 72:0.06102704043661623 73:0.040414735658958915 74:0.7991886409736308 75:0.0 76:0.03231292517006803 77:0.8524347374170824 
0.004710435492189196 0.0 0.0 0:0.012560725397863232 1:1.0 2:0.0 3:0.0018373563276009247 4:0.0 5:0.0 6:0.054025865665415104 7:0.39526349016480283 8:0.0 9:0.7662337662337663 10:0.032467532467532464 11:0.0 12:1.0 13:0.353492999387341 14:0.40485879475205694 15:0.02109704641350211 16:0.0 17:0.012727798669366502 18:0.02976190476190476 19:0.08441558441558442 20:0.012727798669366502 21:0.0 22:0.4729487512524585 23:0.0 24:0.3134877490690999 25:0.10783692616119293 26:0.033854166666666664 27:0.06526906983471353 28:0.16666666666666666 29:0.07031241271042868 30:0.0 31:0.35616899260781654 32:0.0 33:0.23730261402656455 34:0.35942262392015084 35:0.040280210157618214 36:0.5111111111111111 37:0.0 38:0.594637621998738 39:0.001783166904422254 40:1.0 41:0.10816646044120272 42:0.0 43:0.0 44:0.0 45:1.0 46:0.0051813471502590676 47:0.02183066765483826 48:0.045454545454545456 49:0.05021276595744681 50:0.5555555555555556 51:0.032412533217571864 52:0.09523809523809523 53:1.0 54:0.09812125891426522 55:0.021541209654359256 56:0.0 57:0.07950768795375128 58:0.007154114691465256 59:0.0 60:0.0 61:0.0 62:0.07900145486455903 63:0.07467532467532467 64:0.5557229217879898 65:0.0 66:0.0487012987012987 67:0.0 68:0.07692307692307693 69:0.0 70:0.034788359788359785 71:1.0 72:0.038079880922847927 73:0.028506967917443816 74:0.8409090909090909 75:0.0 76:0.05397727272727273 77:0.5600419155836194 
0.00218737941486597 0.0 0.0 0:0.01733641786684252 1:0.0 2:1.0 3:0.0016436474302418728 4:0.0 5:1.0 6:0.2720066750104297 7:0.25104313103606085 8:0.2 9:0.7765472312703583 10:0.026058631921824105 11:0.0 12:1.0 13:0.017324478818298843 14:0.3705295593887988 15:0.10548523206751054 16:0.0 17:0.07492045125831645 18:0.023809523809523808 19:0.08013029315960912 20:0.07492045125831645 21:0.16666666666666666 22:0.48397925311203316 23:0.0 24:0.3178740537032301 25:0.37578557913231525 26:0.16015625 27:0.26892734109974487 28:0.08108108108108109 29:0.05156230376821522 30:1.0 31:0.32852288924984246 32:0.0 33:0.2784294621661297 34:0.47652532525508445 35:0.1628721541155867 36:0.3576923076923077 37:0.0 38:0.3969999999999998 39:0.007132667617689016 40:0.25 41:0.3941326796270313 42:0.0 43:0.0 44:0.0 45:0.0 46:0.02523090786213111 47:0.49519802870896595 48:0.21969696969696972 49:0.25361702127659574 50:0.5384615384615384 51:0.033606918185111766 52:0.13333333333333333 53:1.0 54:0.057052404949094894 55:0.5091008257110684 56:0.0 57:0.28658697732713184 58:0.02724013315005522 59:0.0 60:0.0 61:0.0 62:0.2586351515161004 63:0.07296416938110749 64:0.5547509155671501 65:0.0 66:0.048859934853420196 67:1.0 68:0.23076923076923078 69:0.0 70:0.02918956043956044 71:1.0 72:0.1902753659141652 73:0.030480057339729735 74:0.8495114006514658 75:0.0 76:0.055741360089186176 77:0.5858302042291971 
0.0027246078560264836 0.0 0.0 0:0.017336417866842452 1:1.0 2:0.0 3:0.0015710356464360125 4:0.0 5:0.0 6:0.046725073007926575 7:0.2510496747486703 8:0.0 9:0.7265917602996255 10:0.02247191011235955 11:0.0 12:1.0 13:0.040375070961649724 14:0.364833698656247 15:0.025316455696202528 16:0.0 17:0.013884871275672547 18:0.017857142857142856 19:0.09363295880149813 20:0.013884871275672547 21:0.0 22:0.47656809227111174 23:0.0 24:0.27893755388798874 25:0.07281248592152101 26:0.03255208333333333 27:0.066897316137641 28:0.14285714285714285 29:0.04750977012295996 30:0.0 31:0.32258096595617736 32:0.0 33:0.235854005197021 34:0.5235405104196635 35:0.043782837127845885 36:0.5102040816326531 37:0.0 38:0.6625357127296039 39:0.0010699001426533524 40:0.25 41:0.07669473928073059 42:0.0 43:0.0 44:0.0 45:0.0 46:0.006758278891642262 47:0.07473299684361624 48:0.03787878787878788 49:0.04127659574468085 50:0.6326530612244898 51:0.02653109336843868 52:0.1111111111111111 53:1.0 54:0.05705821634441106 55:0.07130274542752349 56:0.0 57:0.06503412137198332 58:0.005360470234729341 59:0.0 60:0.0 61:0.0 62:0.06147380089139321 63:0.11235955056179775 64:0.7984284854261778 65:0.0 66:0.06741573033707865 67:0.0 68:0.2692307692307693 69:0.0 70:0.026482021379980562 71:1.0 72:0.03299429421979658 73:0.030475984915741553 74:0.8389513108614233 75:0.0 76:0.05714285714285714 77:0.8461974146854659 
0.012686917704011896 0.0 6.376564230347774E-4 0:0.02369207579467243 1:1.0 2:0.0 3:1.0000000000000002 4:0.0 5:0.0 6:0.0020859407592824365 7:0.4855263157894738 8:0.0 9:0.9 10:0.0 11:0.0 12:0.0 13:0.05258469026996337 14:0.08782998189269035 15:0.0 16:0.0 17:0.0 18:0.05357142857142857 19:0.0 20:0.0 21:0.0 22:0.11121301346720085 23:0.0 24:0.0982348426707598 25:0.01870185160156777 26:0.0 27:0.004483656349435927 28:1.0 29:0.15619191810770958 30:0.0 31:0.0 32:0.0 33:0.22454718941222693 34:0.0 35:0.0017513134851138354 36:1.0 37:0.0 38:0.9999999999999998 39:0.0 40:0.5 41:0.018684686810012906 42:0.0 43:0.0 44:0.0 45:1.0 46:2.2527596305474206E-4 47:0.060303670320025954 48:0.0 49:0.0019148936170212765 50:1.0 51:8.06067150886482E-16 52:0.0 53:1.0 54:0.11028367911135453 55:0.05896826713641709 56:0.0 57:0.007843633286028677 58:0.005719180318392733 59:0.0 60:0.0 61:0.0 62:0.05132621174903404 63:0.1 64:0.30816736065820505 65:0.0 66:0.0 67:0.0 68:0.038461538461538464 69:0.0 70:0.05357142857142857 71:0.0 72:0.001116348300669809 73:0.0 74:1.0 75:0.0 76:0.0 77:0.3093564569578119 
0.024965642574399538 0.0 0.0 0:0.012044767927707214 1:0.0 2:0.0 3:1.0000000000000002 4:0.0 5:0.0 6:0.0020859407592824365 7:0.41465643274853936 8:0.0 9:0.9 10:0.0 11:0.0 12:0.0 13:0.03353605413882064 14:0.08639886908732812 15:0.0 16:0.0 17:0.0 18:0.05357142857142857 19:0.0 20:0.0 21:0.0 22:0.10908255942437625 23:0.0 24:0.09663419175122943 25:0.015972034509167947 26:0.0 27:8.871569014899348E-4 28:1.0 29:0.15364690728929523 30:1.0 31:0.0 32:0.0 33:0.2245510995605835 34:0.0 35:0.0017513134851138354 36:1.0 37:0.0 38:0.41642886220844294 39:0.0 40:1.0 41:0.016936502019302767 42:0.0 43:0.0 44:0.0 45:0.0 46:2.2527596305474206E-4 47:0.48439815623163734 48:0.0 49:0.0019148936170212765 50:1.0 51:8.06067150886482E-16 52:0.0 53:1.0 54:0.09418611408599224 55:0.5160570619653972 56:0.0 57:0.001915720954690025 58:0.0049652847343885234 59:0.0 60:0.0 61:0.0 62:0.006553818442140268 63:0.1 64:0.6698113680830784 65:0.0 66:0.0 67:0.0 68:0.07692307692307693 69:0.0 70:0.05357142857142857 71:0.0 72:0.001116348300669809 73:0.0 74:1.0 75:0.0 76:0.0 77:0.7151080326409701 
0.03855976520675458 0.0 0.0 0:0.012018846619397996 1:0.0 2:0.0 3:1.0000000000000002 4:0.0 5:1.0 6:0.0020859407592824365 7:0.41465643274853936 8:0.0 9:0.9 10:0.0 11:0.0 12:0.0 13:0.04927829894386577 14:0.08675466183805076 15:0.0 16:0.0 17:0.0 18:0.05357142857142857 19:0.0 20:0.0 21:0.0 22:0.10950958376774401 23:0.0 24:0.09703213382223362 25:0.015972034509167947 26:0.0 27:0.0010762824549801807 28:1.0 29:0.15427962917977775 30:1.0 31:0.0 32:0.0 33:0.2245556512005362 34:0.0 35:0.0017513134851138354 36:1.0 37:0.0 38:0.6188106504130241 39:0.0 40:0.5 41:0.01693669566369948 42:0.0 43:0.0 44:0.0 45:1.0 46:2.2527596305474206E-4 47:0.06177950928759969 48:0.0 49:0.0019148936170212765 50:1.0 51:8.06067150886482E-16 52:0.0 53:1.0 54:0.09418611408599224 55:0.060832206614867046 56:0.0 57:0.0025062409992246963 58:0.004944921421612698 59:0.0 60:0.0 61:0.0 62:0.004711495688756414 63:0.1 64:0.7616226859980937 65:0.0 66:0.0 67:0.0 68:0.19230769230769232 69:0.0 70:0.05357142857142857 71:0.0 72:0.001116348300669809 73:0.0 74:1.0 75:0.0 76:0.0 77:0.8128780896184149 
0.003950327009696036 0.0 0.0 0:0.012055877059839846 1:0.0 2:0.0 3:1.0000000000000002 4:0.0 5:1.0 6:0.0020859407592824365 7:0.41465643274853836 8:0.0 9:0.9 10:0.0 11:0.0 12:0.0 13:0.03723027547171931 14:0.08639886908732805 15:0.0 16:0.0 17:0.0 18:0.05357142857142857 19:0.0 20:0.0 21:0.0 22:0.10908321568375794 23:0.0 24:0.09663419175122938 25:0.015972034509167905 26:0.0 27:6.644084851624155E-4 28:1.0 29:0.15364690728929514 30:1.0 31:0.0 32:0.0 33:0.2245510995605835 34:0.0 35:0.0017513134851138354 36:1.0 37:0.0 38:0.6189898447025604 39:0.0 40:1.0 41:0.016970311527435812 42:0.0 43:0.0 44:0.0 45:1.0 46:2.2527596305474206E-4 47:0.06175261038780519 48:0.0 49:0.0019148936170212765 50:1.0 51:8.06067150886482E-16 52:0.0 53:1.0 54:0.094186114085992 55:0.06078454907138395 56:0.0 57:0.001707189880281586 58:0.004965284734388515 59:0.0 60:0.0 61:0.0 62:0.005432048587857655 63:0.1 64:0.06323809762705063 65:0.0 66:0.0 67:0.0 68:0.11538461538461539 69:0.0 70:0.05357142857142857 71:0.0 72:0.001116348300669809 73:0.0 74:1.0 75:0.0 76:0.0 77:0.06942368017460385 
0.0034386901657089686 0.0 0.0 0:0.012055877059839917 1:0.0 2:0.0 3:1.0000000000000002 4:0.0 5:0.0 6:0.0020859407592824365 7:0.4146564327485373 8:0.0 9:0.9 10:0.0 11:0.0 12:0.0 13:0.03589394816567654 14:0.08639886908732805 15:0.0 16:0.0 17:0.0 18:0.05357142857142857 19:0.0 20:0.0 21:0.0 22:0.1065628367127045 23:0.0 24:0.09663419175122938 25:0.015972034509167864 26:0.0 27:8.77570201406739E-4 28:1.0 29:0.15364690728929514 30:1.0 31:0.0 32:0.0 33:0.2245510995605835 34:0.0 35:0.0017513134851138354 36:1.0 37:0.0 38:0.6131158781467332 39:0.0 40:1.0 41:0.016934662618358288 42:0.0 43:0.0 44:0.0 45:1.0 46:2.2527596305474206E-4 47:0.059831844913204535 48:0.0 49:0.0019148936170212765 50:1.0 51:8.06067150886482E-16 52:0.0 53:1.0 54:0.09418611408599177 55:0.06078454907138395 56:0.0 57:0.0016926235100186335 58:0.004965284734388503 59:0.0 60:0.0 61:0.0 62:0.00570399279495647 63:0.1 64:0.4730083278984599 65:0.0 66:0.0 67:0.0 68:0.8846153846153847 69:0.0 70:0.05357142857142857 71:0.0 72:0.001116348300669809 73:0.0 74:1.0 75:0.0 76:0.0 77:0.5054947765457825 
0.014767601776466525 0.0 0.0 0:0.012587881054187287 1:0.0 2:0.0 3:0.0016421476206333486 4:0.0 5:1.0 6:0.03650396328744263 7:0.4123022310342071 8:0.0 9:0.6027397260273972 10:0.0410958904109589 11:0.0 12:1.0 13:0.04149640554653118 14:0.6219241399027924 15:0.03797468354430379 16:0.0 17:0.010702921608330921 18:0.023809523809523808 19:0.0593607305936073 20:0.010702921608330921 21:0.0 22:0.978799196064315 23:0.0 24:0.6256697507177171 25:0.046461796639185496 26:0.016927083333333332 27:0.11618760499239676 28:0.0 29:0.07077000291682414 30:0.0 31:0.0822355554082277 32:0.0 33:0.22860088391529199 34:0.1721121780884242 35:0.04903677758318739 36:0.7368421052631579 37:0.0 38:0.9999999999999997 39:0.0016048502139800287 40:0.75 41:0.04845833750118867 42:0.0 43:0.3333333333333333 44:0.0 45:0.0 46:0.009686866411353908 47:0.19480917666474779 48:0.015151515151515152 49:0.028085106382978724 50:0.3157894736842105 51:0.07799265805478109 52:0.1111111111111111 53:1.0 54:0.09366308850755065 55:0.15805359532038227 56:0.0136986301369863 57:0.12103788664559739 58:0.0020065526585341504 59:0.0 60:0.0 61:0.0 62:0.09360783317553056 63:0.1963470319634703 64:0.5621318918376562 65:0.0 66:0.1232876712328767 67:1.0 68:0.23076923076923078 69:0.0 70:0.028352130325814538 71:0.0 72:0.027040436616224264 73:0.06719499580540328 74:0.7990867579908676 75:0.0 76:0.09375 77:0.5901380189361468 
0.016832973712150822 0.0 0.0 0:0.02221826426508829 1:0.0 2:0.0 3:0.0021373904996505873 4:0.0 5:0.0 6:0.0037546933667083854 7:0.394736842105266 8:0.0 9:0.8888888888888888 10:0.0 11:0.0 12:0.0 13:0.11157700673924895 14:0.17456876012579814 15:0.0 16:0.0 17:5.785363031530228E-4 18:0.023809523809523808 19:0.0 20:5.785363031530228E-4 21:0.0 22:0.2212271813235587 23:0.0 24:0.19524921122196642 25:0.015204757399648699 26:0.0 27:0.007026893492311168 28:0.5 29:0.09776965533604876 30:1.0 31:0.0 32:0.0 33:0.2246809347296514 34:0.054547108866748295 35:0.0035026269702276708 36:0.6666666666666666 37:0.0 38:0.9999999999999998 39:0.0 40:1.0 41:0.015207102131725249 42:0.0 43:0.0 44:0.0 45:1.0 46:4.505519261094841E-4 47:0.060136048198855985 48:0.0 49:0.003404255319148936 50:1.0 51:8.06067150886482E-16 52:0.0 53:1.0 54:0.0896615277328092 55:0.058715858665376985 56:0.0 57:0.0070639834129440394 58:0.002339402469063983 59:0.0 60:0.0 61:0.0 62:0.024265974036076263 63:0.1111111111111111 64:0.8120879947825215 65:0.0 66:0.0 67:0.0 68:0.7307692307692308 69:0.0 70:0.02976190476190476 71:0.0 72:0.0021086579012651947 73:0.0 74:1.0 75:0.0 76:0.0 77:0.8158136259409986 
0.006480384077469401 0.0 0.0 0:0.025492989548159355 1:1.0 2:0.0 3:0.0016286872004556427 4:0.0 5:0.0 6:0.02002503128911139 7:0.31100146198830486 8:0.0 9:0.7777777777777778 10:0.02564102564102564 11:0.0 12:1.0 13:0.026609916082579673 14:0.35107532005463954 15:0.016877637130801686 16:0.0 17:0.005785363031530228 18:0.023809523809523808 19:0.10256410256410256 20:0.005785363031530228 21:0.0 22:0.4431590344053251 23:0.0 24:0.2732802033294487 25:0.041375242149840064 26:0.015625 27:0.036702993798273846 28:0.0 29:0.05674347835093089 30:0.0 31:0.3341366393741505 32:0.0 33:0.22982477816899619 34:0.4461621844826058 35:0.008756567425569177 36:0.23809523809523808 37:0.0 38:0.4160798780976822 39:5.349500713266762E-4 40:1.0 41:0.04387417795156128 42:0.0 43:0.0 44:0.0 45:0.0 46:0.0011263798152737104 47:0.5157128271158884 48:0.015151515151515152 49:0.019361702127659575 50:0.42857142857142855 51:8.06067150886482E-16 52:0.1111111111111111 53:1.0 54:0.07064166106282117 55:0.5499062734978167 56:0.0 57:0.03841716028735461 58:0.0031654264301078576 59:0.0 60:0.0 61:0.0 62:0.041913955153222646 63:0.042735042735042736 64:0.06594466462649878 65:0.0 66:0.10256410256410257 67:1.0 68:0.23076923076923078 69:0.0 70:0.027210884353741492 71:0.0 72:0.014388489208633093 73:0.0 74:0.8205128205128205 75:0.0 76:0.051094890510948905 77:0.07211350912095593 
0.001894443152020457 0.0 0.0 0:0.023425456623491412 1:1.0 2:0.0 3:0.0017181781101053123 4:0.0 5:0.0 6:0.06153525239883187 7:0.3843691148775917 8:0.0 9:0.7740112994350282 10:0.02824858757062147 11:0.0 12:1.0 13:0.42532305115421576 14:0.40485402967057393 15:0.008438818565400843 16:0.0 17:0.01619901648828464 18:0.023809523809523808 19:0.0903954802259887 20:0.01619901648828464 21:0.0 22:0.47231832307056565 23:0.0 24:0.3926344001970761 25:0.08519169257106816 26:0.041666666666666664 27:0.2502892681515765 28:0.0 29:0.0601599188720503 30:0.0 31:0.2187920575463254 32:0.0 33:0.2293444581276753 34:0.17075067891827858 35:0.024518388791593695 36:0.24561403508771928 37:0.0 38:0.577938045373601 39:0.001783166904422254 40:0.25 41:0.08545202624408346 42:0.0 43:0.0 44:0.0 45:1.0 46:0.004730795224149583 47:0.021773578146039783 48:0.03787878787878788 49:0.05829787234042553 50:0.5087719298245614 51:0.033088385179741366 52:0.1111111111111111 53:1.0 54:0.08762477204110036 55:0.021541209654359256 56:0.0 57:0.27034345015584554 58:0.005651851684846806 59:1.0 60:0.0 61:1.0 62:0.18416737870355404 63:0.059322033898305086 64:0.08578738774895903 65:0.0 66:0.01694915254237288 67:0.0 68:0.576923076923077 69:0.0 70:0.03101503759398496 71:0.0 72:0.0437856611262714 73:0.028506967917443816 74:0.8333333333333334 75:0.0 76:0.04390243902439024 77:0.08670880483341556 
0.003190756234723976 0.0 0.0 0:0.011999097051162408 1:1.0 2:0.0 3:0.001684976937449137 4:0.0 5:0.0 6:0.20004171881518565 7:0.2508480316772847 8:0.0 9:0.7629695885509838 10:0.01520572450805009 11:0.0 12:1.0 13:0.06391045061350206 14:0.3713364465199021 15:0.14767932489451477 16:1.0 17:0.05264680358692508 18:0.023809523809523808 19:0.0778175313059034 20:0.05264680358692508 21:0.0 22:0.4850221260510652 23:0.0 24:0.32467733192023296 25:0.26211312339505344 26:0.11328125 27:0.6010992189759907 28:0.022727272727272728 29:0.05295332110923036 30:1.0 31:0.30358172837869196 32:0.0 33:0.2608507747476989 34:0.4592328581782516 35:0.1576182136602452 36:0.4918032786885246 37:0.0 38:0.9999999999999998 39:0.003031383737517832 40:0.25 41:0.2753852826400812 42:0.0 43:0.0 44:0.0 45:0.0 46:0.02387925208380266 47:0.07472163053014914 48:0.15151515151515152 49:0.18148936170212765 50:0.5737704918032787 51:0.040428726654219566 52:0.09523809523809523 53:1.0 54:0.05705011201760971 55:0.07129921523911732 56:0.0 57:0.6037776841593414 58:0.018958901255582295 59:1.0 60:0.0 61:0.0 62:0.5238903630289796 63:0.09481216457960644 64:0.08441152862087996 65:0.0 66:0.09391771019677995 67:0.0 68:0.3076923076923077 69:0.0 70:0.030412438199323447 71:0.0 72:0.13855122798313071 73:0.03048209355172385 74:0.8577817531305904 75:0.0 76:0.054615384615384614 77:0.09067844759988172 
0.008404649460305546 0.0 0.0 0:0.012736002815954479 1:1.0 2:0.0 3:0.0018090483520385938 4:0.0 5:0.0 6:0.02190237797246558 7:0.41235380116959347 8:0.0 9:0.6422764227642277 10:0.016260162601626018 11:0.0 12:1.0 13:0.02675464974453801 14:0.6005241589631182 15:0.016877637130801686 16:0.0 17:0.005206826728377205 18:0.02976190476190476 19:0.04878048780487805 20:0.005206826728377205 21:0.0 22:0.945119390448764 23:0.0 24:0.5260421107984423 25:0.031088097490651962 26:0.0078125 27:0.10551055828753254 28:0.5 29:0.07887556281177084 30:1.0 31:0.2092717207544668 32:0.0 33:0.2288973459537003 34:0.2859519325916906 35:0.014010507880910683 36:0.42105263157894735 37:0.0 38:0.9999999999999998 39:3.566333808844508E-4 40:0.75 41:0.03242400486943974 42:0.0 43:0.5 44:0.0 45:0.0 46:0.005857175039423294 47:0.19480713407006658 48:0.007575757575757576 49:0.01680851063829787 50:0.47368421052631576 51:0.06679007626145816 52:0.0 53:1.0 54:0.09366308850755097 55:0.1580518302261792 56:0.024390243902439025 57:0.10780482248395445 58:0.0013904508363990823 59:0.0 60:0.0 61:0.0 62:0.0951380251890609 63:0.21138211382113822 64:0.3052212411578789 65:0.0 66:0.0975609756097561 67:1.0 68:0.2692307692307693 69:0.0 70:0.03258145363408521 71:0.0 72:0.015132721409079631 73:0.07672446793780593 74:0.8536585365853658 75:0.0 76:0.06382978723404255 77:0.32107246555454827 
1.777723198485773 0.0 0.0 0:0.012018846619397996 1:0.0 2:0.0 3:1.0000000000000002 4:0.0 5:1.0 6:0.0020859407592824365 7:0.41465643274853936 8:0.0 9:0.9 10:0.0 11:0.0 12:0.0 13:0.04927829894386577 14:0.08675466183805076 15:0.0 16:0.0 17:0.0 18:0.05357142857142857 19:0.0 20:0.0 21:0.0 22:0.10950958376774401 23:0.0 24:0.09703213382223362 25:0.015972034509167947 26:0.0 27:0.0010762824549801807 28:1.0 29:0.15427962917977775 30:1.0 31:0.0 32:0.0 33:0.2245556512005362 34:0.0 35:0.0017513134851138354 36:1.0 37:0.0 38:0.6188106504130241 39:0.0 40:0.5 41:0.01693669566369948 42:0.0 43:0.0 44:0.0 45:1.0 46:2.2527596305474206E-4 47:0.06177950928759969 48:0.0 49:0.0019148936170212765 50:1.0 51:8.06067150886482E-16 52:0.0 53:1.0 54:0.09418611408599224 55:0.060832206614867046 56:0.0 57:0.0025062409992246963 58:0.004944921421612698 59:0.0 60:0.0 61:0.0 62:0.004711495688756414 63:0.1 64:0.7616226859980937 65:0.0 66:0.0 67:0.0 68:0.19230769230769232 69:0.0 70:0.05357142857142857 71:0.0 72:0.001116348300669809 73:0.0 74:1.0 75:0.0 76:0.0 77:0.8128780896184149 
0.007351732668233902 0.0 0.011735470653833877 0:0.0073098089432139385 1:0.0 2:0.0 3:0.0017139620491522204 4:0.0 5:0.0 6:0.07133917396745933 7:0.3568761952274072 8:0.0 9:0.7417061611374408 10:0.04739336492890995 11:0.0 12:1.0 13:0.03687757499451967 14:0.3592728485657104 15:0.03797468354430379 16:0.0 17:0.019380966155626265 18:0.02976190476190476 19:0.07819905213270142 20:0.019380966155626265 21:0.0 22:0.3103783280892585 23:0.0 24:0.30033096699923256 25:0.1379127810064424 26:0.04296875 27:0.06078363675385146 28:0.0625 29:0.06493208707502704 30:0.0 31:0.302328703550237 32:0.0 33:0.23731904910762838 34:0.3171082232852557 35:0.04553415061295972 36:0.38235294117647056 37:0.0 38:0.6137817851992222 39:0.003566333808844508 40:0.75 41:0.1322494815478372 42:0.0 43:0.0 44:0.0 45:0.0 46:0.00653300292858752 47:0.335382603015927 48:0.06818181818181818 49:0.06659574468085107 50:0.4852941176470588 51:0.03226059946811437 52:0.09999999999999999 53:1.0 54:0.08152557429038723 55:0.5328695842497115 56:0.0 57:0.0636044135081904 58:0.010310318818718802 59:0.0 60:0.0 61:0.0 62:0.07013403654243731 63:0.06872037914691943 64:0.8221404204083681 65:0.0 66:0.06398104265402844 67:0.0 68:0.3076923076923077 69:0.0 70:0.030987394957983194 71:0.0 72:0.05222029273133218 73:0.026470755923340687 74:0.8104265402843602 75:0.0 76:0.06339468302658487 77:0.7907352872242185 
0.004057697688058274 0.0 0.0 0:0.0351641062435464 1:1.0 2:0.0 3:0.0018109542051920266 4:0.0 5:0.0 6:0.057363370880267 7:0.3845143160932644 8:0.0 9:0.8181818181818182 10:0.016233766233766232 11:0.0 12:1.0 13:0.9232995902491667 14:0.4048667365545283 15:0.02953586497890295 16:0.0 17:0.013017066820943012 18:0.03571428571428571 19:0.045454545454545456 20:0.013017066820943012 21:0.0 22:0.4717972258109894 23:0.0 24:0.42192376566896916 25:0.07111321349731946 26:0.018229166666666664 27:0.19023325531858942 28:0.0 29:0.06656745181329102 30:0.0 31:0.05127457155169543 32:0.0 33:0.22723029042454834 34:0.11409779388532257 35:0.0297723292469352 36:0.3695652173913043 37:0.0 38:0.4754509815535309 39:8.91583452211127E-4 40:0.75 41:0.0713305253444134 42:0.0 43:0.0 44:0.0 45:0.0 46:0.0051813471502590676 47:0.45031716729634264 48:0.030303030303030304 49:0.05361702127659575 50:0.5434782608695652 51:0.0397053531915253 52:0.06666666666666667 53:1.0 54:0.0874830846886337 55:0.5217406652993072 56:0.0 57:0.2115370273735483 58:0.0047176985096628226 59:0.0 60:0.0 61:1.0 62:0.13250692488790736 63:0.07467532467532467 64:0.08578738774895903 65:0.0 66:0.06818181818181818 67:1.0 68:0.34615384615384615 69:0.0 70:0.03390269151138717 71:0.0 72:0.038079880922847927 73:0.028506967917443816 74:0.8928571428571429 75:0.0 76:0.042492917847025496 77:0.08670880483341556 
2.82842712475 0.0 0.0 0:0.012018846619397996 1:0.0 2:0.0 3:1.0000000000000002 4:0.0 5:1.0 6:0.0020859407592824365 7:0.41465643274853936 8:0.0 9:0.9 10:0.0 11:0.0 12:0.0 13:0.04927829894386577 14:0.08675466183805076 15:0.0 16:0.0 17:0.0 18:0.05357142857142857 19:0.0 20:0.0 21:0.0 22:0.10950958376774401 23:0.0 24:0.09703213382223362 25:0.015972034509167947 26:0.0 27:0.0010762824549801807 28:1.0 29:0.15427962917977775 30:1.0 31:0.0 32:0.0 33:0.2245556512005362 34:0.0 35:0.0017513134851138354 36:1.0 37:0.0 38:0.6188106504130241 39:0.0 40:0.5 41:0.01693669566369948 42:0.0 43:0.0 44:0.0 45:1.0 46:2.2527596305474206E-4 47:0.06177950928759969 48:0.0 49:0.0019148936170212765 50:1.0 51:8.06067150886482E-16 52:0.0 53:1.0 54:0.09418611408599224 55:0.060832206614867046 56:0.0 57:0.0025062409992246963 58:0.004944921421612698 59:0.0 60:0.0 61:0.0 62:0.004711495688756414 63:0.1 64:0.7616226859980937 65:0.0 66:0.0 67:0.0 68:0.19230769230769232 69:0.0 70:0.05357142857142857 71:0.0 72:0.001116348300669809 73:0.0 74:1.0 75:0.0 76:0.0 77:0.8128780896184149 
0.005354636555038455 0.0 0.0 0:0.012044767927707214 1:0.0 2:1.0 3:0.0015485739297863284 4:0.0 5:0.0 6:0.10450563204005006 7:0.3110069247335101 8:0.0 9:0.6902927580893683 10:0.05701078582434515 11:0.0 12:1.0 13:0.011300467082225464 14:0.3746990056863306 15:0.12236286919831223 16:0.0 17:0.03442291003760486 18:0.017857142857142856 19:0.08782742681047766 20:0.03442291003760486 21:0.16666666666666666 22:0.47307478657760116 23:0.0 24:0.32123407343452437 25:0.23290027931702492 26:0.07421875 27:0.14088173821639702 28:0.030303030303030304 29:0.05868342532281054 30:0.0 31:0.33417476049988404 32:0.0 33:0.2566120639652707 34:0.45236722772079135 35:0.08231173380035026 36:0.39166666666666666 37:0.0 38:0.41642886220844294 39:0.006597717546362339 40:0.75 41:0.2469639073647643 42:0.0 43:0.25 44:0.0 45:0.0 46:0.01193962604190133 47:0.4914474185916676 48:0.11363636363636365 49:0.09531914893617022 50:0.3 51:0.039675219664549496 52:0.08333333333333333 53:1.0 54:0.07064269881198477 55:0.5236504972270372 56:0.01848998459167951 57:0.13224552369503728 58:0.016694731737669766 59:0.0 60:0.0 61:0.0 62:0.14677505022746692 63:0.08166409861325115 64:0.6962787839261526 65:0.0 66:0.13405238828967642 67:1.0 68:0.07692307692307693 69:0.0 70:0.026240079365079362 71:0.0 72:0.08037707764822624 73:0.03038435537600684 74:0.7719568567026194 75:0.0 76:0.10026041666666667 77:0.743290466793613 
2.82842712475 0.0 0.0 0:0.012018846619397996 1:0.0 2:0.0 3:1.0000000000000002 4:0.0 5:1.0 6:0.0020859407592824365 7:0.41465643274853936 8:0.0 9:0.9 10:0.0 11:0.0 12:0.0 13:0.04927829894386577 14:0.08675466183805076 15:0.0 16:0.0 17:0.0 18:0.05357142857142857 19:0.0 20:0.0 21:0.0 22:0.10950958376774401 23:0.0 24:0.09703213382223362 25:0.015972034509167947 26:0.0 27:0.0010762824549801807 28:1.0 29:0.15427962917977775 30:1.0 31:0.0 32:0.0 33:0.2245556512005362 34:0.0 35:0.0017513134851138354 36:1.0 37:0.0 38:0.6188106504130241 39:0.0 40:0.5 41:0.01693669566369948 42:0.0 43:0.0 44:0.0 45:1.0 46:2.2527596305474206E-4 47:0.06177950928759969 48:0.0 49:0.0019148936170212765 50:1.0 51:8.06067150886482E-16 52:0.0 53:1.0 54:0.09418611408599224 55:0.060832206614867046 56:0.0 57:0.0025062409992246963 58:0.004944921421612698 59:0.0 60:0.0 61:0.0 62:0.004711495688756414 63:0.1 64:0.7616226859980937 65:0.0 66:0.0 67:0.0 68:0.19230769230769232 69:0.0 70:0.05357142857142857 71:0.0 72:0.001116348300669809 73:0.0 74:1.0 75:0.0 76:0.0 77:0.8128780896184149 
2.82842712475 0.0 0.0 0:0.012018846619397996 1:0.0 2:0.0 3:1.0000000000000002 4:0.0 5:1.0 6:0.0020859407592824365 7:0.41465643274853936 8:0.0 9:0.9 10:0.0 11:0.0 12:0.0 13:0.04927829894386577 14:0.08675466183805076 15:0.0 16:0.0 17:0.0 18:0.05357142857142857 19:0.0 20:0.0 21:0.0 22:0.10950958376774401 23:0.0 24:0.09703213382223362 25:0.015972034509167947 26:0.0 27:0.0010762824549801807 28:1.0 29:0.15427962917977775 30:1.0 31:0.0 32:0.0 33:0.2245556512005362 34:0.0 35:0.0017513134851138354 36:1.0 37:0.0 38:0.6188106504130241 39:0.0 40:0.5 41:0.01693669566369948 42:0.0 43:0.0 44:0.0 45:1.0 46:2.2527596305474206E-4 47:0.06177950928759969 48:0.0 49:0.0019148936170212765 50:1.0 51:8.06067150886482E-16 52:0.0 53:1.0 54:0.09418611408599224 55:0.060832206614867046 56:0.0 57:0.0025062409992246963 58:0.004944921421612698 59:0.0 60:0.0 61:0.0 62:0.004711495688756414 63:0.1 64:0.7616226859980937 65:0.0 66:0.0 67:0.0 68:0.19230769230769232 69:0.0 70:0.05357142857142857 71:0.0 72:0.001116348300669809 73:0.0 74:1.0 75:0.0 76:0.0 77:0.8128780896184149 
2.82842712475 0.0 0.0 0:0.012018846619397996 1:0.0 2:0.0 3:1.0000000000000002 4:0.0 5:1.0 6:0.0020859407592824365 7:0.41465643274853936 8:0.0 9:0.9 10:0.0 11:0.0 12:0.0 13:0.04927829894386577 14:0.08675466183805076 15:0.0 16:0.0 17:0.0 18:0.05357142857142857 19:0.0 20:0.0 21:0.0 22:0.10950958376774401 23:0.0 24:0.09703213382223362 25:0.015972034509167947 26:0.0 27:0.0010762824549801807 28:1.0 29:0.15427962917977775 30:1.0 31:0.0 32:0.0 33:0.2245556512005362 34:0.0 35:0.0017513134851138354 36:1.0 37:0.0 38:0.6188106504130241 39:0.0 40:0.5 41:0.01693669566369948 42:0.0 43:0.0 44:0.0 45:1.0 46:2.2527596305474206E-4 47:0.06177950928759969 48:0.0 49:0.0019148936170212765 50:1.0 51:8.06067150886482E-16 52:0.0 53:1.0 54:0.09418611408599224 55:0.060832206614867046 56:0.0 57:0.0025062409992246963 58:0.004944921421612698 59:0.0 60:0.0 61:0.0 62:0.004711495688756414 63:0.1 64:0.7616226859980937 65:0.0 66:0.0 67:0.0 68:0.19230769230769232 69:0.0 70:0.05357142857142857 71:0.0 72:0.001116348300669809 73:0.0 74:1.0 75:0.0 76:0.0 77:0.8128780896184149 
2.82842712475 0.0 0.0 0:0.012018846619397996 1:0.0 2:0.0 3:1.0000000000000002 4:0.0 5:1.0 6:0.0020859407592824365 7:0.41465643274853936 8:0.0 9:0.9 10:0.0 11:0.0 12:0.0 13:0.04927829894386577 14:0.08675466183805076 15:0.0 16:0.0 17:0.0 18:0.05357142857142857 19:0.0 20:0.0 21:0.0 22:0.10950958376774401 23:0.0 24:0.09703213382223362 25:0.015972034509167947 26:0.0 27:0.0010762824549801807 28:1.0 29:0.15427962917977775 30:1.0 31:0.0 32:0.0 33:0.2245556512005362 34:0.0 35:0.0017513134851138354 36:1.0 37:0.0 38:0.6188106504130241 39:0.0 40:0.5 41:0.01693669566369948 42:0.0 43:0.0 44:0.0 45:1.0 46:2.2527596305474206E-4 47:0.06177950928759969 48:0.0 49:0.0019148936170212765 50:1.0 51:8.06067150886482E-16 52:0.0 53:1.0 54:0.09418611408599224 55:0.060832206614867046 56:0.0 57:0.0025062409992246963 58:0.004944921421612698 59:0.0 60:0.0 61:0.0 62:0.004711495688756414 63:0.1 64:0.7616226859980937 65:0.0 66:0.0 67:0.0 68:0.19230769230769232 69:0.0 70:0.05357142857142857 71:0.0 72:0.001116348300669809 73:0.0 74:1.0 75:0.0 76:0.0 77:0.8128780896184149 
2.82842712475 0.0 0.0 0:0.012018846619397996 1:0.0 2:0.0 3:1.0000000000000002 4:0.0 5:1.0 6:0.0020859407592824365 7:0.41465643274853936 8:0.0 9:0.9 10:0.0 11:0.0 12:0.0 13:0.04927829894386577 14:0.08675466183805076 15:0.0 16:0.0 17:0.0 18:0.05357142857142857 19:0.0 20:0.0 21:0.0 22:0.10950958376774401 23:0.0 24:0.09703213382223362 25:0.015972034509167947 26:0.0 27:0.0010762824549801807 28:1.0 29:0.15427962917977775 30:1.0 31:0.0 32:0.0 33:0.2245556512005362 34:0.0 35:0.0017513134851138354 36:1.0 37:0.0 38:0.6188106504130241 39:0.0 40:0.5 41:0.01693669566369948 42:0.0 43:0.0 44:0.0 45:1.0 46:2.2527596305474206E-4 47:0.06177950928759969 48:0.0 49:0.0019148936170212765 50:1.0 51:8.06067150886482E-16 52:0.0 53:1.0 54:0.09418611408599224 55:0.060832206614867046 56:0.0 57:0.0025062409992246963 58:0.004944921421612698 59:0.0 60:0.0 61:0.0 62:0.004711495688756414 63:0.1 64:0.7616226859980937 65:0.0 66:0.0 67:0.0 68:0.19230769230769232 69:0.0 70:0.05357142857142857 71:0.0 72:0.001116348300669809 73:0.0 74:1.0 75:0.0 76:0.0 77:0.8128780896184149 
0.0 0.0 0.34350815966313075 0:0.012055877059839846 1:0.0 2:0.0 3:1.0000000000000002 4:0.0 5:0.0 6:0.0020859407592824365 7:0.41465643274853836 8:0.0 9:0.9 10:0.0 11:0.0 12:0.0 13:0.03723027547171931 14:0.08639886908732805 15:0.0 16:0.0 17:0.0 18:0.05357142857142857 19:0.0 20:0.0 21:0.0 22:0.10908824726803079 23:0.0 24:0.09663419175122938 25:0.015972034509167905 26:0.0 27:6.68967168894437E-4 28:1.0 29:0.15364690728929514 30:1.0 31:0.0 32:0.0 33:0.2245510995605835 34:0.0 35:0.0017513134851138354 36:1.0 37:0.0 38:0.627643978637595 39:0.0 40:0.25 41:0.016936477814064484 42:0.0 43:0.0 44:0.0 45:1.0 46:2.2527596305474206E-4 47:0.061756444927556886 48:0.0 49:0.0019148936170212765 50:1.0 51:8.06067150886482E-16 52:0.0 53:1.0 54:0.094186114085992 55:0.06078454907138395 56:0.0 57:0.001639384783923828 58:0.004965284734388515 59:0.0 60:0.0 61:0.0 62:0.0053025003632160925 63:0.1 64:0.06323809762705063 65:0.0 66:0.0 67:0.0 68:0.23076923076923078 69:0.0 70:0.05357142857142857 71:0.0 72:0.001116348300669809 73:0.0 74:1.0 75:0.0 76:0.0 77:0.06923028557598307 
0.0 0.0 2.82842712475 0:0.012055877059839846 1:0.0 2:0.0 3:1.0000000000000002 4:0.0 5:0.0 6:0.0020859407592824365 7:0.41465643274853836 8:0.0 9:0.9 10:0.0 11:0.0 12:0.0 13:0.03723027547171931 14:0.08639886908732805 15:0.0 16:0.0 17:0.0 18:0.05357142857142857 19:0.0 20:0.0 21:0.0 22:0.10908824726803079 23:0.0 24:0.09663419175122938 25:0.015972034509167905 26:0.0 27:6.68967168894437E-4 28:1.0 29:0.15364690728929514 30:1.0 31:0.0 32:0.0 33:0.2245510995605835 34:0.0 35:0.0017513134851138354 36:1.0 37:0.0 38:0.627643978637595 39:0.0 40:0.25 41:0.016936477814064484 42:0.0 43:0.0 44:0.0 45:1.0 46:2.2527596305474206E-4 47:0.061756444927556886 48:0.0 49:0.0019148936170212765 50:1.0 51:8.06067150886482E-16 52:0.0 53:1.0 54:0.094186114085992 55:0.06078454907138395 56:0.0 57:0.001639384783923828 58:0.004965284734388515 59:0.0 60:0.0 61:0.0 62:0.0053025003632160925 63:0.1 64:0.06323809762705063 65:0.0 66:0.0 67:0.0 68:0.23076923076923078 69:0.0 70:0.05357142857142857 71:0.0 72:0.001116348300669809 73:0.0 74:1.0 75:0.0 76:0.0 77:0.06923028557598307 
0.0 0.0 2.82842712475 0:0.012055877059839846 1:0.0 2:0.0 3:1.0000000000000002 4:0.0 5:0.0 6:0.0020859407592824365 7:0.41465643274853836 8:0.0 9:0.9 10:0.0 11:0.0 12:0.0 13:0.03723027547171931 14:0.08639886908732805 15:0.0 16:0.0 17:0.0 18:0.05357142857142857 19:0.0 20:0.0 21:0.0 22:0.10908824726803079 23:0.0 24:0.09663419175122938 25:0.015972034509167905 26:0.0 27:6.68967168894437E-4 28:1.0 29:0.15364690728929514 30:1.0 31:0.0 32:0.0 33:0.2245510995605835 34:0.0 35:0.0017513134851138354 36:1.0 37:0.0 38:0.627643978637595 39:0.0 40:0.25 41:0.016936477814064484 42:0.0 43:0.0 44:0.0 45:1.0 46:2.2527596305474206E-4 47:0.061756444927556886 48:0.0 49:0.0019148936170212765 50:1.0 51:8.06067150886482E-16 52:0.0 53:1.0 54:0.094186114085992 55:0.06078454907138395 56:0.0 57:0.001639384783923828 58:0.004965284734388515 59:0.0 60:0.0 61:0.0 62:0.0053025003632160925 63:0.1 64:0.06323809762705063 65:0.0 66:0.0 67:0.0 68:0.23076923076923078 69:0.0 70:0.05357142857142857 71:0.0 72:0.001116348300669809 73:0.0 74:1.0 75:0.0 76:0.0 77:0.06923028557598307 
0.0 0.0 2.82842712475 0:0.012055877059839846 1:0.0 2:0.0 3:1.0000000000000002 4:0.0 5:0.0 6:0.0020859407592824365 7:0.41465643274853836 8:0.0 9:0.9 10:0.0 11:0.0 12:0.0 13:0.03723027547171931 14:0.08639886908732805 15:0.0 16:0.0 17:0.0 18:0.05357142857142857 19:0.0 20:0.0 21:0.0 22:0.10908824726803079 23:0.0 24:0.09663419175122938 25:0.015972034509167905 26:0.0 27:6.68967168894437E-4 28:1.0 29:0.15364690728929514 30:1.0 31:0.0 32:0.0 33:0.2245510995605835 34:0.0 35:0.0017513134851138354 36:1.0 37:0.0 38:0.627643978637595 39:0.0 40:0.25 41:0.016936477814064484 42:0.0 43:0.0 44:0.0 45:1.0 46:2.2527596305474206E-4 47:0.061756444927556886 48:0.0 49:0.0019148936170212765 50:1.0 51:8.06067150886482E-16 52:0.0 53:1.0 54:0.094186114085992 55:0.06078454907138395 56:0.0 57:0.001639384783923828 58:0.004965284734388515 59:0.0 60:0.0 61:0.0 62:0.0053025003632160925 63:0.1 64:0.06323809762705063 65:0.0 66:0.0 67:0.0 68:0.23076923076923078 69:0.0 70:0.05357142857142857 71:0.0 72:0.001116348300669809 73:0.0 74:1.0 75:0.0 76:0.0 77:0.06923028557598307 
0.0 0.0 2.82842712475 0:0.012055877059839846 1:0.0 2:0.0 3:1.0000000000000002 4:0.0 5:0.0 6:0.0020859407592824365 7:0.41465643274853836 8:0.0 9:0.9 10:0.0 11:0.0 12:0.0 13:0.03723027547171931 14:0.08639886908732805 15:0.0 16:0.0 17:0.0 18:0.05357142857142857 19:0.0 20:0.0 21:0.0 22:0.10908824726803079 23:0.0 24:0.09663419175122938 25:0.015972034509167905 26:0.0 27:6.68967168894437E-4 28:1.0 29:0.15364690728929514 30:1.0 31:0.0 32:0.0 33:0.2245510995605835 34:0.0 35:0.0017513134851138354 36:1.0 37:0.0 38:0.627643978637595 39:0.0 40:0.25 41:0.016936477814064484 42:0.0 43:0.0 44:0.0 45:1.0 46:2.2527596305474206E-4 47:0.061756444927556886 48:0.0 49:0.0019148936170212765 50:1.0 51:8.06067150886482E-16 52:0.0 53:1.0 54:0.094186114085992 55:0.06078454907138395 56:0.0 57:0.001639384783923828 58:0.004965284734388515 59:0.0 60:0.0 61:0.0 62:0.0053025003632160925 63:0.1 64:0.06323809762705063 65:0.0 66:0.0 67:0.0 68:0.23076923076923078 69:0.0 70:0.05357142857142857 71:0.0 72:0.001116348300669809 73:0.0 74:1.0 75:0.0 76:0.0 77:0.06923028557598307 
2.82842712475 0.0 0.0 0:0.012018846619397996 1:0.0 2:0.0 3:1.0000000000000002 4:0.0 5:1.0 6:0.0020859407592824365 7:0.41465643274853936 8:0.0 9:0.9 10:0.0 11:0.0 12:0.0 13:0.04927829894386577 14:0.08675466183805076 15:0.0 16:0.0 17:0.0 18:0.05357142857142857 19:0.0 20:0.0 21:0.0 22:0.10950958376774401 23:0.0 24:0.09703213382223362 25:0.015972034509167947 26:0.0 27:0.0010762824549801807 28:1.0 29:0.15427962917977775 30:1.0 31:0.0 32:0.0 33:0.2245556512005362 34:0.0 35:0.0017513134851138354 36:1.0 37:0.0 38:0.6188106504130241 39:0.0 40:0.5 41:0.01693669566369948 42:0.0 43:0.0 44:0.0 45:1.0 46:2.2527596305474206E-4 47:0.06177950928759969 48:0.0 49:0.0019148936170212765 50:1.0 51:8.06067150886482E-16 52:0.0 53:1.0 54:0.09418611408599224 55:0.060832206614867046 56:0.0 57:0.0025062409992246963 58:0.004944921421612698 59:0.0 60:0.0 61:0.0 62:0.004711495688756414 63:0.1 64:0.7616226859980937 65:0.0 66:0.0 67:0.0 68:0.19230769230769232 69:0.0 70:0.05357142857142857 71:0.0 72:0.001116348300669809 73:0.0 74:1.0 75:0.0 76:0.0 77:0.8128780896184149 
0.0 0.0 2.82842712475 0:0.012055877059839846 1:0.0 2:0.0 3:1.0000000000000002 4:0.0 5:0.0 6:0.0020859407592824365 7:0.41465643274853836 8:0.0 9:0.9 10:0.0 11:0.0 12:0.0 13:0.03723027547171931 14:0.08639886908732805 15:0.0 16:0.0 17:0.0 18:0.05357142857142857 19:0.0 20:0.0 21:0.0 22:0.10908824726803079 23:0.0 24:0.09663419175122938 25:0.015972034509167905 26:0.0 27:6.68967168894437E-4 28:1.0 29:0.15364690728929514 30:1.0 31:0.0 32:0.0 33:0.2245510995605835 34:0.0 35:0.0017513134851138354 36:1.0 37:0.0 38:0.627643978637595 39:0.0 40:0.25 41:0.016936477814064484 42:0.0 43:0.0 44:0.0 45:1.0 46:2.2527596305474206E-4 47:0.061756444927556886 48:0.0 49:0.0019148936170212765 50:1.0 51:8.06067150886482E-16 52:0.0 53:1.0 54:0.094186114085992 55:0.06078454907138395 56:0.0 57:0.001639384783923828 58:0.004965284734388515 59:0.0 60:0.0 61:0.0 62:0.0053025003632160925 63:0.1 64:0.06323809762705063 65:0.0 66:0.0 67:0.0 68:0.23076923076923078 69:0.0 70:0.05357142857142857 71:0.0 72:0.001116348300669809 73:0.0 74:1.0 75:0.0 76:0.0 77:0.06923028557598307 
0.0 0.0 2.82842712475 0:0.012055877059839846 1:0.0 2:0.0 3:1.0000000000000002 4:0.0 5:0.0 6:0.0020859407592824365 7:0.41465643274853836 8:0.0 9:0.9 10:0.0 11:0.0 12:0.0 13:0.03723027547171931 14:0.08639886908732805 15:0.0 16:0.0 17:0.0 18:0.05357142857142857 19:0.0 20:0.0 21:0.0 22:0.10908824726803079 23:0.0 24:0.09663419175122938 25:0.015972034509167905 26:0.0 27:6.68967168894437E-4 28:1.0 29:0.15364690728929514 30:1.0 31:0.0 32:0.0 33:0.2245510995605835 34:0.0 35:0.0017513134851138354 36:1.0 37:0.0 38:0.627643978637595 39:0.0 40:0.25 41:0.016936477814064484 42:0.0 43:0.0 44:0.0 45:1.0 46:2.2527596305474206E-4 47:0.061756444927556886 48:0.0 49:0.0019148936170212765 50:1.0 51:8.06067150886482E-16 52:0.0 53:1.0 54:0.094186114085992 55:0.06078454907138395 56:0.0 57:0.001639384783923828 58:0.004965284734388515 59:0.0 60:0.0 61:0.0 62:0.0053025003632160925 63:0.1 64:0.06323809762705063 65:0.0 66:0.0 67:0.0 68:0.23076923076923078 69:0.0 70:0.05357142857142857 71:0.0 72:0.001116348300669809 73:0.0 74:1.0 75:0.0 76:0.0 77:0.06923028557598307 
2.82842712475 0.0 0.0 0:0.012018846619397996 1:0.0 2:0.0 3:1.0000000000000002 4:0.0 5:1.0 6:0.0020859407592824365 7:0.41465643274853936 8:0.0 9:0.9 10:0.0 11:0.0 12:0.0 13:0.04927829894386577 14:0.08675466183805076 15:0.0 16:0.0 17:0.0 18:0.05357142857142857 19:0.0 20:0.0 21:0.0 22:0.10950958376774401 23:0.0 24:0.09703213382223362 25:0.015972034509167947 26:0.0 27:0.0010762824549801807 28:1.0 29:0.15427962917977775 30:1.0 31:0.0 32:0.0 33:0.2245556512005362 34:0.0 35:0.0017513134851138354 36:1.0 37:0.0 38:0.6188106504130241 39:0.0 40:0.5 41:0.01693669566369948 42:0.0 43:0.0 44:0.0 45:1.0 46:2.2527596305474206E-4 47:0.06177950928759969 48:0.0 49:0.0019148936170212765 50:1.0 51:8.06067150886482E-16 52:0.0 53:1.0 54:0.09418611408599224 55:0.060832206614867046 56:0.0 57:0.0025062409992246963 58:0.004944921421612698 59:0.0 60:0.0 61:0.0 62:0.004711495688756414 63:0.1 64:0.7616226859980937 65:0.0 66:0.0 67:0.0 68:0.19230769230769232 69:0.0 70:0.05357142857142857 71:0.0 72:0.001116348300669809 73:0.0 74:1.0 75:0.0 76:0.0 77:0.8128780896184149 
2.604953630602603 0.0 0.0 0:0.011989222267044597 1:1.0 2:0.0 3:0.0018639825278662916 4:0.0 5:0.0 6:0.033166458072590735 7:0.2510319677219116 8:0.0 9:0.8324022346368715 10:0.0111731843575419 11:0.0 12:0.0 13:0.07783298578518713 14:0.3340925696496077 15:0.012658227848101264 16:0.0 17:0.007231703789412785 18:0.03571428571428571 19:0.0670391061452514 20:0.007231703789412785 21:0.0 22:0.4363895136059221 23:0.0 24:0.3654789990809434 25:0.03489914177591567 26:0.015625 27:0.03626075677903767 28:0.25 29:0.061129473758772174 30:0.0 31:0.022721848377366096 32:0.0 33:0.22701360078581986 34:0.25885386678149575 35:0.017513134851138354 36:0.38461538461538464 37:0.0 38:0.39825849177171585 39:3.566333808844508E-4 40:1.0 41:0.036666216053079556 42:0.0 43:0.0 44:0.0 45:0.0 46:0.0022527596305474207 47:0.520573412179008 48:0.015151515151515152 49:0.03170212765957447 50:0.6538461538461539 51:8.06067150886482E-16 52:0.1111111111111111 53:1.0 54:0.05704576335444807 55:0.535517225554328 56:0.0 57:0.04234169562344026 58:0.0028056914352126553 59:0.0 60:0.0 61:0.0 62:0.031105374776713945 63:0.055865921787709494 64:0.08440525761300356 65:0.0 66:0.05027932960893855 67:1.0 68:0.15384615384615385 69:0.0 70:0.03502747252747253 71:0.0 72:0.022078888613247333 73:0.0 74:0.888268156424581 75:0.0 76:0.0392156862745098 77:0.0906716641935173 
0.0 0.0 2.82842712475 0:0.012055877059839846 1:0.0 2:0.0 3:1.0000000000000002 4:0.0 5:0.0 6:0.0020859407592824365 7:0.41465643274853836 8:0.0 9:0.9 10:0.0 11:0.0 12:0.0 13:0.03723027547171931 14:0.08639886908732805 15:0.0 16:0.0 17:0.0 18:0.05357142857142857 19:0.0 20:0.0 21:0.0 22:0.10908824726803079 23:0.0 24:0.09663419175122938 25:0.015972034509167905 26:0.0 27:6.68967168894437E-4 28:1.0 29:0.15364690728929514 30:1.0 31:0.0 32:0.0 33:0.2245510995605835 34:0.0 35:0.0017513134851138354 36:1.0 37:0.0 38:0.627643978637595 39:0.0 40:0.25 41:0.016936477814064484 42:0.0 43:0.0 44:0.0 45:1.0 46:2.2527596305474206E-4 47:0.061756444927556886 48:0.0 49:0.0019148936170212765 50:1.0 51:8.06067150886482E-16 52:0.0 53:1.0 54:0.094186114085992 55:0.06078454907138395 56:0.0 57:0.001639384783923828 58:0.004965284734388515 59:0.0 60:0.0 61:0.0 62:0.0053025003632160925 63:0.1 64:0.06323809762705063 65:0.0 66:0.0 67:0.0 68:0.23076923076923078 69:0.0 70:0.05357142857142857 71:0.0 72:0.001116348300669809 73:0.0 74:1.0 75:0.0 76:0.0 77:0.06923028557598307 
2.82842712475 0.0 0.0 0:0.011989222267044597 1:1.0 2:0.0 3:0.0018639825278662916 4:0.0 5:0.0 6:0.033166458072590735 7:0.2510319677219116 8:0.0 9:0.8324022346368715 10:0.0111731843575419 11:0.0 12:0.0 13:0.07783298578518713 14:0.3340925696496077 15:0.012658227848101264 16:0.0 17:0.007231703789412785 18:0.03571428571428571 19:0.0670391061452514 20:0.007231703789412785 21:0.0 22:0.4363895136059221 23:0.0 24:0.3654789990809434 25:0.03489914177591567 26:0.015625 27:0.03626075677903767 28:0.25 29:0.061129473758772174 30:0.0 31:0.022721848377366096 32:0.0 33:0.22701360078581986 34:0.25885386678149575 35:0.017513134851138354 36:0.38461538461538464 37:0.0 38:0.39825849177171585 39:3.566333808844508E-4 40:1.0 41:0.036666216053079556 42:0.0 43:0.0 44:0.0 45:0.0 46:0.0022527596305474207 47:0.520573412179008 48:0.015151515151515152 49:0.03170212765957447 50:0.6538461538461539 51:8.06067150886482E-16 52:0.1111111111111111 53:1.0 54:0.05704576335444807 55:0.535517225554328 56:0.0 57:0.04234169562344026 58:0.0028056914352126553 59:0.0 60:0.0 61:0.0 62:0.031105374776713945 63:0.055865921787709494 64:0.08440525761300356 65:0.0 66:0.05027932960893855 67:1.0 68:0.15384615384615385 69:0.0 70:0.03502747252747253 71:0.0 72:0.022078888613247333 73:0.0 74:0.888268156424581 75:0.0 76:0.0392156862745098 77:0.0906716641935173 
2.82842712475 0.0 0.0 0:0.011989222267044597 1:1.0 2:0.0 3:0.0018639825278662916 4:0.0 5:0.0 6:0.033166458072590735 7:0.2510319677219116 8:0.0 9:0.8324022346368715 10:0.0111731843575419 11:0.0 12:0.0 13:0.07783298578518713 14:0.3340925696496077 15:0.012658227848101264 16:0.0 17:0.007231703789412785 18:0.03571428571428571 19:0.0670391061452514 20:0.007231703789412785 21:0.0 22:0.4363895136059221 23:0.0 24:0.3654789990809434 25:0.03489914177591567 26:0.015625 27:0.03626075677903767 28:0.25 29:0.061129473758772174 30:0.0 31:0.022721848377366096 32:0.0 33:0.22701360078581986 34:0.25885386678149575 35:0.017513134851138354 36:0.38461538461538464 37:0.0 38:0.39825849177171585 39:3.566333808844508E-4 40:1.0 41:0.036666216053079556 42:0.0 43:0.0 44:0.0 45:0.0 46:0.0022527596305474207 47:0.520573412179008 48:0.015151515151515152 49:0.03170212765957447 50:0.6538461538461539 51:8.06067150886482E-16 52:0.1111111111111111 53:1.0 54:0.05704576335444807 55:0.535517225554328 56:0.0 57:0.04234169562344026 58:0.0028056914352126553 59:0.0 60:0.0 61:0.0 62:0.031105374776713945 63:0.055865921787709494 64:0.08440525761300356 65:0.0 66:0.05027932960893855 67:1.0 68:0.15384615384615385 69:0.0 70:0.03502747252747253 71:0.0 72:0.022078888613247333 73:0.0 74:0.888268156424581 75:0.0 76:0.0392156862745098 77:0.0906716641935173 
2.82842712475 0.0 0.0 0:0.012018846619397996 1:0.0 2:0.0 3:1.0000000000000002 4:0.0 5:1.0 6:0.0020859407592824365 7:0.41465643274853936 8:0.0 9:0.9 10:0.0 11:0.0 12:0.0 13:0.04927829894386577 14:0.08675466183805076 15:0.0 16:0.0 17:0.0 18:0.05357142857142857 19:0.0 20:0.0 21:0.0 22:0.10950958376774401 23:0.0 24:0.09703213382223362 25:0.015972034509167947 26:0.0 27:0.0010762824549801807 28:1.0 29:0.15427962917977775 30:1.0 31:0.0 32:0.0 33:0.2245556512005362 34:0.0 35:0.0017513134851138354 36:1.0 37:0.0 38:0.6188106504130241 39:0.0 40:0.5 41:0.01693669566369948 42:0.0 43:0.0 44:0.0 45:1.0 46:2.2527596305474206E-4 47:0.06177950928759969 48:0.0 49:0.0019148936170212765 50:1.0 51:8.06067150886482E-16 52:0.0 53:1.0 54:0.09418611408599224 55:0.060832206614867046 56:0.0 57:0.0025062409992246963 58:0.004944921421612698 59:0.0 60:0.0 61:0.0 62:0.004711495688756414 63:0.1 64:0.7616226859980937 65:0.0 66:0.0 67:0.0 68:0.19230769230769232 69:0.0 70:0.05357142857142857 71:0.0 72:0.001116348300669809 73:0.0 74:1.0 75:0.0 76:0.0 77:0.8128780896184149 
2.82842712475 0.0 0.0 0:0.012018846619397996 1:0.0 2:0.0 3:1.0000000000000002 4:0.0 5:1.0 6:0.0020859407592824365 7:0.41465643274853936 8:0.0 9:0.9 10:0.0 11:0.0 12:0.0 13:0.04927829894386577 14:0.08675466183805076 15:0.0 16:0.0 17:0.0 18:0.05357142857142857 19:0.0 20:0.0 21:0.0 22:0.10950958376774401 23:0.0 24:0.09703213382223362 25:0.015972034509167947 26:0.0 27:0.0010762824549801807 28:1.0 29:0.15427962917977775 30:1.0 31:0.0 32:0.0 33:0.2245556512005362 34:0.0 35:0.0017513134851138354 36:1.0 37:0.0 38:0.6188106504130241 39:0.0 40:0.5 41:0.01693669566369948 42:0.0 43:0.0 44:0.0 45:1.0 46:2.2527596305474206E-4 47:0.06177950928759969 48:0.0 49:0.0019148936170212765 50:1.0 51:8.06067150886482E-16 52:0.0 53:1.0 54:0.09418611408599224 55:0.060832206614867046 56:0.0 57:0.0025062409992246963 58:0.004944921421612698 59:0.0 60:0.0 61:0.0 62:0.004711495688756414 63:0.1 64:0.7616226859980937 65:0.0 66:0.0 67:0.0 68:0.19230769230769232 69:0.0 70:0.05357142857142857 71:0.0 72:0.001116348300669809 73:0.0 74:1.0 75:0.0 76:0.0 77:0.8128780896184149 
2.82842712475 0.0 0.0 0:0.012018846619397996 1:0.0 2:0.0 3:1.0000000000000002 4:0.0 5:1.0 6:0.0020859407592824365 7:0.41465643274853936 8:0.0 9:0.9 10:0.0 11:0.0 12:0.0 13:0.04927829894386577 14:0.08675466183805076 15:0.0 16:0.0 17:0.0 18:0.05357142857142857 19:0.0 20:0.0 21:0.0 22:0.10950958376774401 23:0.0 24:0.09703213382223362 25:0.015972034509167947 26:0.0 27:0.0010762824549801807 28:1.0 29:0.15427962917977775 30:1.0 31:0.0 32:0.0 33:0.2245556512005362 34:0.0 35:0.0017513134851138354 36:1.0 37:0.0 38:0.6188106504130241 39:0.0 40:0.5 41:0.01693669566369948 42:0.0 43:0.0 44:0.0 45:1.0 46:2.2527596305474206E-4 47:0.06177950928759969 48:0.0 49:0.0019148936170212765 50:1.0 51:8.06067150886482E-16 52:0.0 53:1.0 54:0.09418611408599224 55:0.060832206614867046 56:0.0 57:0.0025062409992246963 58:0.004944921421612698 59:0.0 60:0.0 61:0.0 62:0.004711495688756414 63:0.1 64:0.7616226859980937 65:0.0 66:0.0 67:0.0 68:0.19230769230769232 69:0.0 70:0.05357142857142857 71:0.0 72:0.001116348300669809 73:0.0 74:1.0 75:0.0 76:0.0 77:0.8128780896184149 
0.0 0.0 2.82842712475 0:0.012055877059839846 1:0.0 2:0.0 3:1.0000000000000002 4:0.0 5:0.0 6:0.0020859407592824365 7:0.41465643274853836 8:0.0 9:0.9 10:0.0 11:0.0 12:0.0 13:0.03723027547171931 14:0.08639886908732805 15:0.0 16:0.0 17:0.0 18:0.05357142857142857 19:0.0 20:0.0 21:0.0 22:0.10908824726803079 23:0.0 24:0.09663419175122938 25:0.015972034509167905 26:0.0 27:6.68967168894437E-4 28:1.0 29:0.15364690728929514 30:1.0 31:0.0 32:0.0 33:0.2245510995605835 34:0.0 35:0.0017513134851138354 36:1.0 37:0.0 38:0.627643978637595 39:0.0 40:0.25 41:0.016936477814064484 42:0.0 43:0.0 44:0.0 45:1.0 46:2.2527596305474206E-4 47:0.061756444927556886 48:0.0 49:0.0019148936170212765 50:1.0 51:8.06067150886482E-16 52:0.0 53:1.0 54:0.094186114085992 55:0.06078454907138395 56:0.0 57:0.001639384783923828 58:0.004965284734388515 59:0.0 60:0.0 61:0.0 62:0.0053025003632160925 63:0.1 64:0.06323809762705063 65:0.0 66:0.0 67:0.0 68:0.23076923076923078 69:0.0 70:0.05357142857142857 71:0.0 72:0.001116348300669809 73:0.0 74:1.0 75:0.0 76:0.0 77:0.06923028557598307 
2.82842712475 0.0 0.0 0:0.011989222267044597 1:1.0 2:0.0 3:0.0018639825278662916 4:0.0 5:0.0 6:0.033166458072590735 7:0.2510319677219116 8:0.0 9:0.8324022346368715 10:0.0111731843575419 11:0.0 12:0.0 13:0.07783298578518713 14:0.3340925696496077 15:0.012658227848101264 16:0.0 17:0.007231703789412785 18:0.03571428571428571 19:0.0670391061452514 20:0.007231703789412785 21:0.0 22:0.4363895136059221 23:0.0 24:0.3654789990809434 25:0.03489914177591567 26:0.015625 27:0.03626075677903767 28:0.25 29:0.061129473758772174 30:0.0 31:0.022721848377366096 32:0.0 33:0.22701360078581986 34:0.25885386678149575 35:0.017513134851138354 36:0.38461538461538464 37:0.0 38:0.39825849177171585 39:3.566333808844508E-4 40:1.0 41:0.036666216053079556 42:0.0 43:0.0 44:0.0 45:0.0 46:0.0022527596305474207 47:0.520573412179008 48:0.015151515151515152 49:0.03170212765957447 50:0.6538461538461539 51:8.06067150886482E-16 52:0.1111111111111111 53:1.0 54:0.05704576335444807 55:0.535517225554328 56:0.0 57:0.04234169562344026 58:0.0028056914352126553 59:0.0 60:0.0 61:0.0 62:0.031105374776713945 63:0.055865921787709494 64:0.08440525761300356 65:0.0 66:0.05027932960893855 67:1.0 68:0.15384615384615385 69:0.0 70:0.03502747252747253 71:0.0 72:0.022078888613247333 73:0.0 74:0.888268156424581 75:0.0 76:0.0392156862745098 77:0.0906716641935173 
2.82842712475 0.0 0.0 0:0.012018846619397996 1:0.0 2:0.0 3:1.0000000000000002 4:0.0 5:1.0 6:0.0020859407592824365 7:0.41465643274853936 8:0.0 9:0.9 10:0.0 11:0.0 12:0.0 13:0.04927829894386577 14:0.08675466183805076 15:0.0 16:0.0 17:0.0 18:0.05357142857142857 19:0.0 20:0.0 21:0.0 22:0.10950958376774401 23:0.0 24:0.09703213382223362 25:0.015972034509167947 26:0.0 27:0.0010762824549801807 28:1.0 29:0.15427962917977775 30:1.0 31:0.0 32:0.0 33:0.2245556512005362 34:0.0 35:0.0017513134851138354 36:1.0 37:0.0 38:0.6188106504130241 39:0.0 40:0.5 41:0.01693669566369948 42:0.0 43:0.0 44:0.0 45:1.0 46:2.2527596305474206E-4 47:0.06177950928759969 48:0.0 49:0.0019148936170212765 50:1.0 51:8.06067150886482E-16 52:0.0 53:1.0 54:0.09418611408599224 55:0.060832206614867046 56:0.0 57:0.0025062409992246963 58:0.004944921421612698 59:0.0 60:0.0 61:0.0 62:0.004711495688756414 63:0.1 64:0.7616226859980937 65:0.0 66:0.0 67:0.0 68:0.19230769230769232 69:0.0 70:0.05357142857142857 71:0.0 72:0.001116348300669809 73:0.0 74:1.0 75:0.0 76:0.0 77:0.8128780896184149 
2.82842712475 0.0 0.0 0:0.011989222267044597 1:1.0 2:0.0 3:0.0018639825278662916 4:0.0 5:0.0 6:0.033166458072590735 7:0.2510319677219116 8:0.0 9:0.8324022346368715 10:0.0111731843575419 11:0.0 12:0.0 13:0.07783298578518713 14:0.3340925696496077 15:0.012658227848101264 16:0.0 17:0.007231703789412785 18:0.03571428571428571 19:0.0670391061452514 20:0.007231703789412785 21:0.0 22:0.4363895136059221 23:0.0 24:0.3654789990809434 25:0.03489914177591567 26:0.015625 27:0.03626075677903767 28:0.25 29:0.061129473758772174 30:0.0 31:0.022721848377366096 32:0.0 33:0.22701360078581986 34:0.25885386678149575 35:0.017513134851138354 36:0.38461538461538464 37:0.0 38:0.39825849177171585 39:3.566333808844508E-4 40:1.0 41:0.036666216053079556 42:0.0 43:0.0 44:0.0 45:0.0 46:0.0022527596305474207 47:0.520573412179008 48:0.015151515151515152 49:0.03170212765957447 50:0.6538461538461539 51:8.06067150886482E-16 52:0.1111111111111111 53:1.0 54:0.05704576335444807 55:0.535517225554328 56:0.0 57:0.04234169562344026 58:0.0028056914352126553 59:0.0 60:0.0 61:0.0 62:0.031105374776713945 63:0.055865921787709494 64:0.08440525761300356 65:0.0 66:0.05027932960893855 67:1.0 68:0.15384615384615385 69:0.0 70:0.03502747252747253 71:0.0 72:0.022078888613247333 73:0.0 74:0.888268156424581 75:0.0 76:0.0392156862745098 77:0.0906716641935173 
0.0 0.0 2.82842712475 0:0.012055877059839846 1:0.0 2:0.0 3:1.0000000000000002 4:0.0 5:0.0 6:0.0020859407592824365 7:0.41465643274853836 8:0.0 9:0.9 10:0.0 11:0.0 12:0.0 13:0.03723027547171931 14:0.08639886908732805 15:0.0 16:0.0 17:0.0 18:0.05357142857142857 19:0.0 20:0.0 21:0.0 22:0.10908824726803079 23:0.0 24:0.09663419175122938 25:0.015972034509167905 26:0.0 27:6.68967168894437E-4 28:1.0 29:0.15364690728929514 30:1.0 31:0.0 32:0.0 33:0.2245510995605835 34:0.0 35:0.0017513134851138354 36:1.0 37:0.0 38:0.627643978637595 39:0.0 40:0.25 41:0.016936477814064484 42:0.0 43:0.0 44:0.0 45:1.0 46:2.2527596305474206E-4 47:0.061756444927556886 48:0.0 49:0.0019148936170212765 50:1.0 51:8.06067150886482E-16 52:0.0 53:1.0 54:0.094186114085992 55:0.06078454907138395 56:0.0 57:0.001639384783923828 58:0.004965284734388515 59:0.0 60:0.0 61:0.0 62:0.0053025003632160925 63:0.1 64:0.06323809762705063 65:0.0 66:0.0 67:0.0 68:0.23076923076923078 69:0.0 70:0.05357142857142857 71:0.0 72:0.001116348300669809 73:0.0 74:1.0 75:0.0 76:0.0 77:0.06923028557598307 
2.82842712475 0.0 0.922975566257901 0:0.011989222267044597 1:1.0 2:0.0 3:0.0018639825278662916 4:0.0 5:0.0 6:0.033166458072590735 7:0.2510319677219116 8:0.0 9:0.8324022346368715 10:0.0111731843575419 11:0.0 12:0.0 13:0.07783298578518713 14:0.3340925696496077 15:0.012658227848101264 16:0.0 17:0.007231703789412785 18:0.03571428571428571 19:0.0670391061452514 20:0.007231703789412785 21:0.0 22:0.4363895136059221 23:0.0 24:0.3654789990809434 25:0.03489914177591567 26:0.015625 27:0.03626075677903767 28:0.25 29:0.061129473758772174 30:0.0 31:0.022721848377366096 32:0.0 33:0.22701360078581986 34:0.25885386678149575 35:0.017513134851138354 36:0.38461538461538464 37:0.0 38:0.39825849177171585 39:3.566333808844508E-4 40:1.0 41:0.036666216053079556 42:0.0 43:0.0 44:0.0 45:0.0 46:0.0022527596305474207 47:0.520573412179008 48:0.015151515151515152 49:0.03170212765957447 50:0.6538461538461539 51:8.06067150886482E-16 52:0.1111111111111111 53:1.0 54:0.05704576335444807 55:0.535517225554328 56:0.0 57:0.04234169562344026 58:0.0028056914352126553 59:0.0 60:0.0 61:0.0 62:0.031105374776713945 63:0.055865921787709494 64:0.08440525761300356 65:0.0 66:0.05027932960893855 67:1.0 68:0.15384615384615385 69:0.0 70:0.03502747252747253 71:0.0 72:0.022078888613247333 73:0.0 74:0.888268156424581 75:0.0 76:0.0392156862745098 77:0.0906716641935173 
2.82842712475 0.0 0.0 0:0.012018846619397996 1:0.0 2:0.0 3:1.0000000000000002 4:0.0 5:1.0 6:0.0020859407592824365 7:0.41465643274853936 8:0.0 9:0.9 10:0.0 11:0.0 12:0.0 13:0.04927829894386577 14:0.08675466183805076 15:0.0 16:0.0 17:0.0 18:0.05357142857142857 19:0.0 20:0.0 21:0.0 22:0.10950958376774401 23:0.0 24:0.09703213382223362 25:0.015972034509167947 26:0.0 27:0.0010762824549801807 28:1.0 29:0.15427962917977775 30:1.0 31:0.0 32:0.0 33:0.2245556512005362 34:0.0 35:0.0017513134851138354 36:1.0 37:0.0 38:0.6188106504130241 39:0.0 40:0.5 41:0.01693669566369948 42:0.0 43:0.0 44:0.0 45:1.0 46:2.2527596305474206E-4 47:0.06177950928759969 48:0.0 49:0.0019148936170212765 50:1.0 51:8.06067150886482E-16 52:0.0 53:1.0 54:0.09418611408599224 55:0.060832206614867046 56:0.0 57:0.0025062409992246963 58:0.004944921421612698 59:0.0 60:0.0 61:0.0 62:0.004711495688756414 63:0.1 64:0.7616226859980937 65:0.0 66:0.0 67:0.0 68:0.19230769230769232 69:0.0 70:0.05357142857142857 71:0.0 72:0.001116348300669809 73:0.0 74:1.0 75:0.0 76:0.0 77:0.8128780896184149 
0.0 0.0 2.82842712475 0:0.012055877059839846 1:0.0 2:0.0 3:1.0000000000000002 4:0.0 5:0.0 6:0.0020859407592824365 7:0.41465643274853836 8:0.0 9:0.9 10:0.0 11:0.0 12:0.0 13:0.03723027547171931 14:0.08639886908732805 15:0.0 16:0.0 17:0.0 18:0.05357142857142857 19:0.0 20:0.0 21:0.0 22:0.10908824726803079 23:0.0 24:0.09663419175122938 25:0.015972034509167905 26:0.0 27:6.68967168894437E-4 28:1.0 29:0.15364690728929514 30:1.0 31:0.0 32:0.0 33:0.2245510995605835 34:0.0 35:0.0017513134851138354 36:1.0 37:0.0 38:0.627643978637595 39:0.0 40:0.25 41:0.016936477814064484 42:0.0 43:0.0 44:0.0 45:1.0 46:2.2527596305474206E-4 47:0.061756444927556886 48:0.0 49:0.0019148936170212765 50:1.0 51:8.06067150886482E-16 52:0.0 53:1.0 54:0.094186114085992 55:0.06078454907138395 56:0.0 57:0.001639384783923828 58:0.004965284734388515 59:0.0 60:0.0 61:0.0 62:0.0053025003632160925 63:0.1 64:0.06323809762705063 65:0.0 66:0.0 67:0.0 68:0.23076923076923078 69:0.0 70:0.05357142857142857 71:0.0 72:0.001116348300669809 73:0.0 74:1.0 75:0.0 76:0.0 77:0.06923028557598307 
2.82842712475 0.0 2.82842712475 0:0.011989222267044597 1:1.0 2:0.0 3:0.0018639825278662916 4:0.0 5:0.0 6:0.033166458072590735 7:0.2510319677219116 8:0.0 9:0.8324022346368715 10:0.0111731843575419 11:0.0 12:0.0 13:0.07783298578518713 14:0.3340925696496077 15:0.012658227848101264 16:0.0 17:0.007231703789412785 18:0.03571428571428571 19:0.0670391061452514 20:0.007231703789412785 21:0.0 22:0.4363895136059221 23:0.0 24:0.3654789990809434 25:0.03489914177591567 26:0.015625 27:0.03626075677903767 28:0.25 29:0.061129473758772174 30:0.0 31:0.022721848377366096 32:0.0 33:0.22701360078581986 34:0.25885386678149575 35:0.017513134851138354 36:0.38461538461538464 37:0.0 38:0.39825849177171585 39:3.566333808844508E-4 40:1.0 41:0.036666216053079556 42:0.0 43:0.0 44:0.0 45:0.0 46:0.0022527596305474207 47:0.520573412179008 48:0.015151515151515152 49:0.03170212765957447 50:0.6538461538461539 51:8.06067150886482E-16 52:0.1111111111111111 53:1.0 54:0.05704576335444807 55:0.535517225554328 56:0.0 57:0.04234169562344026 58:0.0028056914352126553 59:0.0 60:0.0 61:0.0 62:0.031105374776713945 63:0.055865921787709494 64:0.08440525761300356 65:0.0 66:0.05027932960893855 67:1.0 68:0.15384615384615385 69:0.0 70:0.03502747252747253 71:0.0 72:0.022078888613247333 73:0.0 74:0.888268156424581 75:0.0 76:0.0392156862745098 77:0.0906716641935173 
2.82842712475 0.0 0.0 0:0.012018846619397996 1:0.0 2:0.0 3:1.0000000000000002 4:0.0 5:1.0 6:0.0020859407592824365 7:0.41465643274853936 8:0.0 9:0.9 10:0.0 11:0.0 12:0.0 13:0.04927829894386577 14:0.08675466183805076 15:0.0 16:0.0 17:0.0 18:0.05357142857142857 19:0.0 20:0.0 21:0.0 22:0.10950958376774401 23:0.0 24:0.09703213382223362 25:0.015972034509167947 26:0.0 27:0.0010762824549801807 28:1.0 29:0.15427962917977775 30:1.0 31:0.0 32:0.0 33:0.2245556512005362 34:0.0 35:0.0017513134851138354 36:1.0 37:0.0 38:0.6188106504130241 39:0.0 40:0.5 41:0.01693669566369948 42:0.0 43:0.0 44:0.0 45:1.0 46:2.2527596305474206E-4 47:0.06177950928759969 48:0.0 49:0.0019148936170212765 50:1.0 51:8.06067150886482E-16 52:0.0 53:1.0 54:0.09418611408599224 55:0.060832206614867046 56:0.0 57:0.0025062409992246963 58:0.004944921421612698 59:0.0 60:0.0 61:0.0 62:0.004711495688756414 63:0.1 64:0.7616226859980937 65:0.0 66:0.0 67:0.0 68:0.19230769230769232 69:0.0 70:0.05357142857142857 71:0.0 72:0.001116348300669809 73:0.0 74:1.0 75:0.0 76:0.0 77:0.8128780896184149 
2.82842712475 0.0 0.0 0:0.012018846619397996 1:0.0 2:0.0 3:1.0000000000000002 4:0.0 5:1.0 6:0.0020859407592824365 7:0.41465643274853936 8:0.0 9:0.9 10:0.0 11:0.0 12:0.0 13:0.04927829894386577 14:0.08675466183805076 15:0.0 16:0.0 17:0.0 18:0.05357142857142857 19:0.0 20:0.0 21:0.0 22:0.10950958376774401 23:0.0 24:0.09703213382223362 25:0.015972034509167947 26:0.0 27:0.0010762824549801807 28:1.0 29:0.15427962917977775 30:1.0 31:0.0 32:0.0 33:0.2245556512005362 34:0.0 35:0.0017513134851138354 36:1.0 37:0.0 38:0.6188106504130241 39:0.0 40:0.5 41:0.01693669566369948 42:0.0 43:0.0 44:0.0 45:1.0 46:2.2527596305474206E-4 47:0.06177950928759969 48:0.0 49:0.0019148936170212765 50:1.0 51:8.06067150886482E-16 52:0.0 53:1.0 54:0.09418611408599224 55:0.060832206614867046 56:0.0 57:0.0025062409992246963 58:0.004944921421612698 59:0.0 60:0.0 61:0.0 62:0.004711495688756414 63:0.1 64:0.7616226859980937 65:0.0 66:0.0 67:0.0 68:0.19230769230769232 69:0.0 70:0.05357142857142857 71:0.0 72:0.001116348300669809 73:0.0 74:1.0 75:0.0 76:0.0 77:0.8128780896184149 
0.0 0.0 0.17350700611234549 0:0.012044767927707214 1:0.0 2:0.0 3:1.0000000000000002 4:0.0 5:0.0 6:0.0020859407592824365 7:0.41465643274853936 8:0.0 9:0.9 10:0.0 11:0.0 12:0.0 13:0.03353605413882064 14:0.08639886908732812 15:0.0 16:0.0 17:0.0 18:0.05357142857142857 19:0.0 20:0.0 21:0.0 22:0.10908255942437625 23:0.0 24:0.09663419175122943 25:0.015972034509167947 26:0.0 27:8.871569014899348E-4 28:1.0 29:0.15364690728929523 30:1.0 31:0.0 32:0.0 33:0.2245510995605835 34:0.0 35:0.0017513134851138354 36:1.0 37:0.0 38:0.41642886220844294 39:0.0 40:1.0 41:0.016936502019302767 42:0.0 43:0.0 44:0.0 45:0.0 46:2.2527596305474206E-4 47:0.48439815623163734 48:0.0 49:0.0019148936170212765 50:1.0 51:8.06067150886482E-16 52:0.0 53:1.0 54:0.09418611408599224 55:0.5160570619653972 56:0.0 57:0.001915720954690025 58:0.0049652847343885234 59:0.0 60:0.0 61:0.0 62:0.006553818442140268 63:0.1 64:0.6698113680830784 65:0.0 66:0.0 67:0.0 68:0.07692307692307693 69:0.0 70:0.05357142857142857 71:0.0 72:0.001116348300669809 73:0.0 74:1.0 75:0.0 76:0.0 77:0.7151080326409701 
0.0 0.0 2.82842712475 0:0.012055877059839846 1:0.0 2:0.0 3:1.0000000000000002 4:0.0 5:0.0 6:0.0020859407592824365 7:0.41465643274853836 8:0.0 9:0.9 10:0.0 11:0.0 12:0.0 13:0.03723027547171931 14:0.08639886908732805 15:0.0 16:0.0 17:0.0 18:0.05357142857142857 19:0.0 20:0.0 21:0.0 22:0.10908824726803079 23:0.0 24:0.09663419175122938 25:0.015972034509167905 26:0.0 27:6.68967168894437E-4 28:1.0 29:0.15364690728929514 30:1.0 31:0.0 32:0.0 33:0.2245510995605835 34:0.0 35:0.0017513134851138354 36:1.0 37:0.0 38:0.627643978637595 39:0.0 40:0.25 41:0.016936477814064484 42:0.0 43:0.0 44:0.0 45:1.0 46:2.2527596305474206E-4 47:0.061756444927556886 48:0.0 49:0.0019148936170212765 50:1.0 51:8.06067150886482E-16 52:0.0 53:1.0 54:0.094186114085992 55:0.06078454907138395 56:0.0 57:0.001639384783923828 58:0.004965284734388515 59:0.0 60:0.0 61:0.0 62:0.0053025003632160925 63:0.1 64:0.06323809762705063 65:0.0 66:0.0 67:0.0 68:0.23076923076923078 69:0.0 70:0.05357142857142857 71:0.0 72:0.001116348300669809 73:0.0 74:1.0 75:0.0 76:0.0 77:0.06923028557598307 
0.0 0.0 2.82842712475 0:0.012055877059839846 1:0.0 2:0.0 3:1.0000000000000002 4:0.0 5:0.0 6:0.0020859407592824365 7:0.41465643274853836 8:0.0 9:0.9 10:0.0 11:0.0 12:0.0 13:0.03723027547171931 14:0.08639886908732805 15:0.0 16:0.0 17:0.0 18:0.05357142857142857 19:0.0 20:0.0 21:0.0 22:0.10908824726803079 23:0.0 24:0.09663419175122938 25:0.015972034509167905 26:0.0 27:6.68967168894437E-4 28:1.0 29:0.15364690728929514 30:1.0 31:0.0 32:0.0 33:0.2245510995605835 34:0.0 35:0.0017513134851138354 36:1.0 37:0.0 38:0.627643978637595 39:0.0 40:0.25 41:0.016936477814064484 42:0.0 43:0.0 44:0.0 45:1.0 46:2.2527596305474206E-4 47:0.061756444927556886 48:0.0 49:0.0019148936170212765 50:1.0 51:8.06067150886482E-16 52:0.0 53:1.0 54:0.094186114085992 55:0.06078454907138395 56:0.0 57:0.001639384783923828 58:0.004965284734388515 59:0.0 60:0.0 61:0.0 62:0.0053025003632160925 63:0.1 64:0.06323809762705063 65:0.0 66:0.0 67:0.0 68:0.23076923076923078 69:0.0 70:0.05357142857142857 71:0.0 72:0.001116348300669809 73:0.0 74:1.0 75:0.0 76:0.0 77:0.06923028557598307 
2.82842712475 0.0 0.0 0:0.012018846619397996 1:0.0 2:0.0 3:1.0000000000000002 4:0.0 5:1.0 6:0.0020859407592824365 7:0.41465643274853936 8:0.0 9:0.9 10:0.0 11:0.0 12:0.0 13:0.04927829894386577 14:0.08675466183805076 15:0.0 16:0.0 17:0.0 18:0.05357142857142857 19:0.0 20:0.0 21:0.0 22:0.10950958376774401 23:0.0 24:0.09703213382223362 25:0.015972034509167947 26:0.0 27:0.0010762824549801807 28:1.0 29:0.15427962917977775 30:1.0 31:0.0 32:0.0 33:0.2245556512005362 34:0.0 35:0.0017513134851138354 36:1.0 37:0.0 38:0.6188106504130241 39:0.0 40:0.5 41:0.01693669566369948 42:0.0 43:0.0 44:0.0 45:1.0 46:2.2527596305474206E-4 47:0.06177950928759969 48:0.0 49:0.0019148936170212765 50:1.0 51:8.06067150886482E-16 52:0.0 53:1.0 54:0.09418611408599224 55:0.060832206614867046 56:0.0 57:0.0025062409992246963 58:0.004944921421612698 59:0.0 60:0.0 61:0.0 62:0.004711495688756414 63:0.1 64:0.7616226859980937 65:0.0 66:0.0 67:0.0 68:0.19230769230769232 69:0.0 70:0.05357142857142857 71:0.0 72:0.001116348300669809 73:0.0 74:1.0 75:0.0 76:0.0 77:0.8128780896184149 
2.82842712475 0.0 0.0 0:0.012018846619397996 1:0.0 2:0.0 3:1.0000000000000002 4:0.0 5:1.0 6:0.0020859407592824365 7:0.41465643274853936 8:0.0 9:0.9 10:0.0 11:0.0 12:0.0 13:0.04927829894386577 14:0.08675466183805076 15:0.0 16:0.0 17:0.0 18:0.05357142857142857 19:0.0 20:0.0 21:0.0 22:0.10950958376774401 23:0.0 24:0.09703213382223362 25:0.015972034509167947 26:0.0 27:0.0010762824549801807 28:1.0 29:0.15427962917977775 30:1.0 31:0.0 32:0.0 33:0.2245556512005362 34:0.0 35:0.0017513134851138354 36:1.0 37:0.0 38:0.6188106504130241 39:0.0 40:0.5 41:0.01693669566369948 42:0.0 43:0.0 44:0.0 45:1.0 46:2.2527596305474206E-4 47:0.06177950928759969 48:0.0 49:0.0019148936170212765 50:1.0 51:8.06067150886482E-16 52:0.0 53:1.0 54:0.09418611408599224 55:0.060832206614867046 56:0.0 57:0.0025062409992246963 58:0.004944921421612698 59:0.0 60:0.0 61:0.0 62:0.004711495688756414 63:0.1 64:0.7616226859980937 65:0.0 66:0.0 67:0.0 68:0.19230769230769232 69:0.0 70:0.05357142857142857 71:0.0 72:0.001116348300669809 73:0.0 74:1.0 75:0.0 76:0.0 77:0.8128780896184149 
0.5192383952006356 0.0 0.0 0:0.012039830535648423 1:0.0 2:0.0 3:1.0000000000000002 4:0.0 5:1.0 6:0.0020859407592824365 7:0.4426535087719299 8:0.0 9:0.9 10:0.0 11:0.0 12:0.0 13:0.07879694007745353 14:0.1008513612249436 15:0.0 16:0.0 17:0.0 18:0.05357142857142857 19:0.0 20:0.0 21:0.0 22:0.1549700037586828 23:0.0 24:0.11279881185867373 25:0.017050446006217045 26:0.0 27:0.0020471284573106963 28:1.0 29:0.17934840943885474 30:0.0 31:0.0 32:0.0 33:0.22456339516715254 34:0.0 35:0.0017513134851138354 36:1.0 37:0.0 38:1.0 39:0.0 40:1.0 41:0.020275042674879763 42:0.0 43:0.0 44:0.0 45:0.0 46:2.2527596305474206E-4 47:0.17139061362572144 48:0.0 49:0.0019148936170212765 50:1.0 51:8.06067150886482E-16 52:0.0 53:1.0 54:0.10054544096037447 55:0.1418500305361297 56:0.0 57:0.0043674230482243165 58:0.004540942007203272 59:0.0 60:0.0 61:0.0 62:0.02228595664244521 63:0.1 64:0.5250012542015753 65:0.0 66:0.0 67:0.0 68:0.19230769230769232 69:0.0 70:0.05357142857142857 71:0.0 72:0.001116348300669809 73:0.0 74:1.0 75:0.0 76:0.0 77:0.6323607959237798 
2.82842712475 0.0 0.0 0:0.012039830535648423 1:0.0 2:0.0 3:1.0000000000000002 4:0.0 5:1.0 6:0.0020859407592824365 7:0.4426535087719299 8:0.0 9:0.9 10:0.0 11:0.0 12:0.0 13:0.07879694007745353 14:0.1008513612249436 15:0.0 16:0.0 17:0.0 18:0.05357142857142857 19:0.0 20:0.0 21:0.0 22:0.1549700037586828 23:0.0 24:0.11279881185867373 25:0.017050446006217045 26:0.0 27:0.0020471284573106963 28:1.0 29:0.17934840943885474 30:0.0 31:0.0 32:0.0 33:0.22456339516715254 34:0.0 35:0.0017513134851138354 36:1.0 37:0.0 38:1.0 39:0.0 40:1.0 41:0.020275042674879763 42:0.0 43:0.0 44:0.0 45:0.0 46:2.2527596305474206E-4 47:0.17139061362572144 48:0.0 49:0.0019148936170212765 50:1.0 51:8.06067150886482E-16 52:0.0 53:1.0 54:0.10054544096037447 55:0.1418500305361297 56:0.0 57:0.0043674230482243165 58:0.004540942007203272 59:0.0 60:0.0 61:0.0 62:0.02228595664244521 63:0.1 64:0.5250012542015753 65:0.0 66:0.0 67:0.0 68:0.19230769230769232 69:0.0 70:0.05357142857142857 71:0.0 72:0.001116348300669809 73:0.0 74:1.0 75:0.0 76:0.0 77:0.6323607959237798 
2.82842712475 0.0 0.0 0:0.012039830535648423 1:0.0 2:0.0 3:1.0000000000000002 4:0.0 5:1.0 6:0.0020859407592824365 7:0.4426535087719299 8:0.0 9:0.9 10:0.0 11:0.0 12:0.0 13:0.07879694007745353 14:0.1008513612249436 15:0.0 16:0.0 17:0.0 18:0.05357142857142857 19:0.0 20:0.0 21:0.0 22:0.1549700037586828 23:0.0 24:0.11279881185867373 25:0.017050446006217045 26:0.0 27:0.0020471284573106963 28:1.0 29:0.17934840943885474 30:0.0 31:0.0 32:0.0 33:0.22456339516715254 34:0.0 35:0.0017513134851138354 36:1.0 37:0.0 38:1.0 39:0.0 40:1.0 41:0.020275042674879763 42:0.0 43:0.0 44:0.0 45:0.0 46:2.2527596305474206E-4 47:0.17139061362572144 48:0.0 49:0.0019148936170212765 50:1.0 51:8.06067150886482E-16 52:0.0 53:1.0 54:0.10054544096037447 55:0.1418500305361297 56:0.0 57:0.0043674230482243165 58:0.004540942007203272 59:0.0 60:0.0 61:0.0 62:0.02228595664244521 63:0.1 64:0.5250012542015753 65:0.0 66:0.0 67:0.0 68:0.19230769230769232 69:0.0 70:0.05357142857142857 71:0.0 72:0.001116348300669809 73:0.0 74:1.0 75:0.0 76:0.0 77:0.6323607959237798 
2.82842712475 0.0 0.0 0:0.012039830535648423 1:0.0 2:0.0 3:1.0000000000000002 4:0.0 5:1.0 6:0.0020859407592824365 7:0.4426535087719299 8:0.0 9:0.9 10:0.0 11:0.0 12:0.0 13:0.07879694007745353 14:0.1008513612249436 15:0.0 16:0.0 17:0.0 18:0.05357142857142857 19:0.0 20:0.0 21:0.0 22:0.1549700037586828 23:0.0 24:0.11279881185867373 25:0.017050446006217045 26:0.0 27:0.0020471284573106963 28:1.0 29:0.17934840943885474 30:0.0 31:0.0 32:0.0 33:0.22456339516715254 34:0.0 35:0.0017513134851138354 36:1.0 37:0.0 38:1.0 39:0.0 40:1.0 41:0.020275042674879763 42:0.0 43:0.0 44:0.0 45:0.0 46:2.2527596305474206E-4 47:0.17139061362572144 48:0.0 49:0.0019148936170212765 50:1.0 51:8.06067150886482E-16 52:0.0 53:1.0 54:0.10054544096037447 55:0.1418500305361297 56:0.0 57:0.0043674230482243165 58:0.004540942007203272 59:0.0 60:0.0 61:0.0 62:0.02228595664244521 63:0.1 64:0.5250012542015753 65:0.0 66:0.0 67:0.0 68:0.19230769230769232 69:0.0 70:0.05357142857142857 71:0.0 72:0.001116348300669809 73:0.0 74:1.0 75:0.0 76:0.0 77:0.6323607959237798 
0.0 0.0 2.82842712475 0:0.012055877059839846 1:0.0 2:0.0 3:1.0000000000000002 4:0.0 5:0.0 6:0.0020859407592824365 7:0.41465643274853836 8:0.0 9:0.9 10:0.0 11:0.0 12:0.0 13:0.03723027547171931 14:0.08639886908732805 15:0.0 16:0.0 17:0.0 18:0.05357142857142857 19:0.0 20:0.0 21:0.0 22:0.10908824726803079 23:0.0 24:0.09663419175122938 25:0.015972034509167905 26:0.0 27:6.68967168894437E-4 28:1.0 29:0.15364690728929514 30:1.0 31:0.0 32:0.0 33:0.2245510995605835 34:0.0 35:0.0017513134851138354 36:1.0 37:0.0 38:0.627643978637595 39:0.0 40:0.25 41:0.016936477814064484 42:0.0 43:0.0 44:0.0 45:1.0 46:2.2527596305474206E-4 47:0.061756444927556886 48:0.0 49:0.0019148936170212765 50:1.0 51:8.06067150886482E-16 52:0.0 53:1.0 54:0.094186114085992 55:0.06078454907138395 56:0.0 57:0.001639384783923828 58:0.004965284734388515 59:0.0 60:0.0 61:0.0 62:0.0053025003632160925 63:0.1 64:0.06323809762705063 65:0.0 66:0.0 67:0.0 68:0.23076923076923078 69:0.0 70:0.05357142857142857 71:0.0 72:0.001116348300669809 73:0.0 74:1.0 75:0.0 76:0.0 77:0.06923028557598307 
0.0 0.0 1.8480726886967422 0:0.0073098089432139385 1:0.0 2:0.0 3:1.0000000000000002 4:0.0 5:0.0 6:0.0020859407592824365 7:0.43530701754386303 8:0.0 9:0.0 10:0.0 11:0.0 12:0.0 13:0.028966404928251175 14:0.10686489405635506 15:0.0 16:0.0 17:0.0 18:0.05357142857142857 19:0.0 20:0.0 21:0.0 22:0.09232132982234185 23:0.0 24:0.11952474346948644 25:0.016767468576834824 26:0.0 27:6.088628029150765E-4 28:1.0 29:0.19004253924852985 30:1.0 31:0.0 32:0.0 33:0.22458890836493228 34:0.01753864447086905 35:0.0017513134851138354 36:1.0 37:0.0 38:0.6138147178971374 39:0.0 40:0.5 41:0.01607892328741069 42:0.0 43:0.0 44:0.0 45:0.0 46:0.0022527596305474207 47:0.4243899747920701 48:0.0 49:0.0 50:1.0 51:8.06067150886482E-16 52:0.0 53:1.0 54:0.09887674030534796 55:0.6729898224668251 56:0.0 57:0.0013862798037752983 58:0.004214290001152043 59:0.0 60:0.0 61:0.0 62:0.004498566345050373 63:1.0 64:0.7997754979180254 65:0.0 66:0.0 67:0.0 68:0.3076923076923077 69:0.0 70:0.05357142857142857 71:0.0 72:0.001116348300669809 73:0.0 74:1.0 75:0.0 76:0.0 77:0.7691995203561165 
0.0 0.0 2.82842712475 0:0.012044767927707214 1:0.0 2:0.0 3:1.0000000000000002 4:0.0 5:0.0 6:0.0020859407592824365 7:0.41465643274853936 8:0.0 9:0.9 10:0.0 11:0.0 12:0.0 13:0.03353605413882064 14:0.08639886908732812 15:0.0 16:0.0 17:0.0 18:0.05357142857142857 19:0.0 20:0.0 21:0.0 22:0.10908255942437625 23:0.0 24:0.09663419175122943 25:0.015972034509167947 26:0.0 27:8.871569014899348E-4 28:1.0 29:0.15364690728929523 30:1.0 31:0.0 32:0.0 33:0.2245510995605835 34:0.0 35:0.0017513134851138354 36:1.0 37:0.0 38:0.41642886220844294 39:0.0 40:1.0 41:0.016936502019302767 42:0.0 43:0.0 44:0.0 45:0.0 46:2.2527596305474206E-4 47:0.48439815623163734 48:0.0 49:0.0019148936170212765 50:1.0 51:8.06067150886482E-16 52:0.0 53:1.0 54:0.09418611408599224 55:0.5160570619653972 56:0.0 57:0.001915720954690025 58:0.0049652847343885234 59:0.0 60:0.0 61:0.0 62:0.006553818442140268 63:0.1 64:0.6698113680830784 65:0.0 66:0.0 67:0.0 68:0.07692307692307693 69:0.0 70:0.05357142857142857 71:0.0 72:0.001116348300669809 73:0.0 74:1.0 75:0.0 76:0.0 77:0.7151080326409701 
2.82842712475 1.0366006183915482 2.82842712475 0:0.011989222267044597 1:1.0 2:0.0 3:0.0018639825278662916 4:0.0 5:0.0 6:0.033166458072590735 7:0.2510319677219116 8:0.0 9:0.8324022346368715 10:0.0111731843575419 11:0.0 12:0.0 13:0.07783298578518713 14:0.3340925696496077 15:0.012658227848101264 16:0.0 17:0.007231703789412785 18:0.03571428571428571 19:0.0670391061452514 20:0.007231703789412785 21:0.0 22:0.4363895136059221 23:0.0 24:0.3654789990809434 25:0.03489914177591567 26:0.015625 27:0.03626075677903767 28:0.25 29:0.061129473758772174 30:0.0 31:0.022721848377366096 32:0.0 33:0.22701360078581986 34:0.25885386678149575 35:0.017513134851138354 36:0.38461538461538464 37:0.0 38:0.39825849177171585 39:3.566333808844508E-4 40:1.0 41:0.036666216053079556 42:0.0 43:0.0 44:0.0 45:0.0 46:0.0022527596305474207 47:0.520573412179008 48:0.015151515151515152 49:0.03170212765957447 50:0.6538461538461539 51:8.06067150886482E-16 52:0.1111111111111111 53:1.0 54:0.05704576335444807 55:0.535517225554328 56:0.0 57:0.04234169562344026 58:0.0028056914352126553 59:0.0 60:0.0 61:0.0 62:0.031105374776713945 63:0.055865921787709494 64:0.08440525761300356 65:0.0 66:0.05027932960893855 67:1.0 68:0.15384615384615385 69:0.0 70:0.03502747252747253 71:0.0 72:0.022078888613247333 73:0.0 74:0.888268156424581 75:0.0 76:0.0392156862745098 77:0.0906716641935173 
2.82842712475 0.0 0.0 0:0.012039830535648423 1:0.0 2:0.0 3:1.0000000000000002 4:0.0 5:1.0 6:0.0020859407592824365 7:0.4426535087719299 8:0.0 9:0.9 10:0.0 11:0.0 12:0.0 13:0.07879694007745353 14:0.1008513612249436 15:0.0 16:0.0 17:0.0 18:0.05357142857142857 19:0.0 20:0.0 21:0.0 22:0.1549700037586828 23:0.0 24:0.11279881185867373 25:0.017050446006217045 26:0.0 27:0.0020471284573106963 28:1.0 29:0.17934840943885474 30:0.0 31:0.0 32:0.0 33:0.22456339516715254 34:0.0 35:0.0017513134851138354 36:1.0 37:0.0 38:1.0 39:0.0 40:1.0 41:0.020275042674879763 42:0.0 43:0.0 44:0.0 45:0.0 46:2.2527596305474206E-4 47:0.17139061362572144 48:0.0 49:0.0019148936170212765 50:1.0 51:8.06067150886482E-16 52:0.0 53:1.0 54:0.10054544096037447 55:0.1418500305361297 56:0.0 57:0.0043674230482243165 58:0.004540942007203272 59:0.0 60:0.0 61:0.0 62:0.02228595664244521 63:0.1 64:0.5250012542015753 65:0.0 66:0.0 67:0.0 68:0.19230769230769232 69:0.0 70:0.05357142857142857 71:0.0 72:0.001116348300669809 73:0.0 74:1.0 75:0.0 76:0.0 77:0.6323607959237798 
0.0 0.0 2.82842712475 0:0.012044767927707214 1:0.0 2:0.0 3:1.0000000000000002 4:0.0 5:0.0 6:0.0020859407592824365 7:0.41465643274853936 8:0.0 9:0.9 10:0.0 11:0.0 12:0.0 13:0.03353605413882064 14:0.08639886908732812 15:0.0 16:0.0 17:0.0 18:0.05357142857142857 19:0.0 20:0.0 21:0.0 22:0.10908255942437625 23:0.0 24:0.09663419175122943 25:0.015972034509167947 26:0.0 27:8.871569014899348E-4 28:1.0 29:0.15364690728929523 30:1.0 31:0.0 32:0.0 33:0.2245510995605835 34:0.0 35:0.0017513134851138354 36:1.0 37:0.0 38:0.41642886220844294 39:0.0 40:1.0 41:0.016936502019302767 42:0.0 43:0.0 44:0.0 45:0.0 46:2.2527596305474206E-4 47:0.48439815623163734 48:0.0 49:0.0019148936170212765 50:1.0 51:8.06067150886482E-16 52:0.0 53:1.0 54:0.09418611408599224 55:0.5160570619653972 56:0.0 57:0.001915720954690025 58:0.0049652847343885234 59:0.0 60:0.0 61:0.0 62:0.006553818442140268 63:0.1 64:0.6698113680830784 65:0.0 66:0.0 67:0.0 68:0.07692307692307693 69:0.0 70:0.05357142857142857 71:0.0 72:0.001116348300669809 73:0.0 74:1.0 75:0.0 76:0.0 77:0.7151080326409701 
2.82842712475 0.0 0.0 0:0.012039830535648423 1:0.0 2:0.0 3:1.0000000000000002 4:0.0 5:1.0 6:0.0020859407592824365 7:0.4426535087719299 8:0.0 9:0.9 10:0.0 11:0.0 12:0.0 13:0.07879694007745353 14:0.1008513612249436 15:0.0 16:0.0 17:0.0 18:0.05357142857142857 19:0.0 20:0.0 21:0.0 22:0.1549700037586828 23:0.0 24:0.11279881185867373 25:0.017050446006217045 26:0.0 27:0.0020471284573106963 28:1.0 29:0.17934840943885474 30:0.0 31:0.0 32:0.0 33:0.22456339516715254 34:0.0 35:0.0017513134851138354 36:1.0 37:0.0 38:1.0 39:0.0 40:1.0 41:0.020275042674879763 42:0.0 43:0.0 44:0.0 45:0.0 46:2.2527596305474206E-4 47:0.17139061362572144 48:0.0 49:0.0019148936170212765 50:1.0 51:8.06067150886482E-16 52:0.0 53:1.0 54:0.10054544096037447 55:0.1418500305361297 56:0.0 57:0.0043674230482243165 58:0.004540942007203272 59:0.0 60:0.0 61:0.0 62:0.02228595664244521 63:0.1 64:0.5250012542015753 65:0.0 66:0.0 67:0.0 68:0.19230769230769232 69:0.0 70:0.05357142857142857 71:0.0 72:0.001116348300669809 73:0.0 74:1.0 75:0.0 76:0.0 77:0.6323607959237798 
2.82842712475 2.82842712475 2.82842712475 0:0.011989222267044597 1:1.0 2:0.0 3:0.0018639825278662916 4:0.0 5:0.0 6:0.033166458072590735 7:0.2510319677219116 8:0.0 9:0.8324022346368715 10:0.0111731843575419 11:0.0 12:0.0 13:0.07783298578518713 14:0.3340925696496077 15:0.012658227848101264 16:0.0 17:0.007231703789412785 18:0.03571428571428571 19:0.0670391061452514 20:0.007231703789412785 21:0.0 22:0.4363895136059221 23:0.0 24:0.3654789990809434 25:0.03489914177591567 26:0.015625 27:0.03626075677903767 28:0.25 29:0.061129473758772174 30:0.0 31:0.022721848377366096 32:0.0 33:0.22701360078581986 34:0.25885386678149575 35:0.017513134851138354 36:0.38461538461538464 37:0.0 38:0.39825849177171585 39:3.566333808844508E-4 40:1.0 41:0.036666216053079556 42:0.0 43:0.0 44:0.0 45:0.0 46:0.0022527596305474207 47:0.520573412179008 48:0.015151515151515152 49:0.03170212765957447 50:0.6538461538461539 51:8.06067150886482E-16 52:0.1111111111111111 53:1.0 54:0.05704576335444807 55:0.535517225554328 56:0.0 57:0.04234169562344026 58:0.0028056914352126553 59:0.0 60:0.0 61:0.0 62:0.031105374776713945 63:0.055865921787709494 64:0.08440525761300356 65:0.0 66:0.05027932960893855 67:1.0 68:0.15384615384615385 69:0.0 70:0.03502747252747253 71:0.0 72:0.022078888613247333 73:0.0 74:0.888268156424581 75:0.0 76:0.0392156862745098 77:0.0906716641935173 
0.0 0.0 2.82842712475 0:0.0073098089432139385 1:0.0 2:0.0 3:1.0000000000000002 4:0.0 5:0.0 6:0.0020859407592824365 7:0.43530701754386303 8:0.0 9:0.0 10:0.0 11:0.0 12:0.0 13:0.028966404928251175 14:0.10686489405635506 15:0.0 16:0.0 17:0.0 18:0.05357142857142857 19:0.0 20:0.0 21:0.0 22:0.09232132982234185 23:0.0 24:0.11952474346948644 25:0.016767468576834824 26:0.0 27:6.088628029150765E-4 28:1.0 29:0.19004253924852985 30:1.0 31:0.0 32:0.0 33:0.22458890836493228 34:0.01753864447086905 35:0.0017513134851138354 36:1.0 37:0.0 38:0.6138147178971374 39:0.0 40:0.5 41:0.01607892328741069 42:0.0 43:0.0 44:0.0 45:0.0 46:0.0022527596305474207 47:0.4243899747920701 48:0.0 49:0.0 50:1.0 51:8.06067150886482E-16 52:0.0 53:1.0 54:0.09887674030534796 55:0.6729898224668251 56:0.0 57:0.0013862798037752983 58:0.004214290001152043 59:0.0 60:0.0 61:0.0 62:0.004498566345050373 63:1.0 64:0.7997754979180254 65:0.0 66:0.0 67:0.0 68:0.3076923076923077 69:0.0 70:0.05357142857142857 71:0.0 72:0.001116348300669809 73:0.0 74:1.0 75:0.0 76:0.0 77:0.7691995203561165 
2.6894583038071675 0.0 2.82842712475 0:0.012055877059839846 1:0.0 2:0.0 3:1.0000000000000002 4:0.0 5:0.0 6:0.0020859407592824365 7:0.41465643274853836 8:0.0 9:0.9 10:0.0 11:0.0 12:0.0 13:0.03723027547171931 14:0.08639886908732805 15:0.0 16:0.0 17:0.0 18:0.05357142857142857 19:0.0 20:0.0 21:0.0 22:0.10908824726803079 23:0.0 24:0.09663419175122938 25:0.015972034509167905 26:0.0 27:6.68967168894437E-4 28:1.0 29:0.15364690728929514 30:1.0 31:0.0 32:0.0 33:0.2245510995605835 34:0.0 35:0.0017513134851138354 36:1.0 37:0.0 38:0.627643978637595 39:0.0 40:0.25 41:0.016936477814064484 42:0.0 43:0.0 44:0.0 45:1.0 46:2.2527596305474206E-4 47:0.061756444927556886 48:0.0 49:0.0019148936170212765 50:1.0 51:8.06067150886482E-16 52:0.0 53:1.0 54:0.094186114085992 55:0.06078454907138395 56:0.0 57:0.001639384783923828 58:0.004965284734388515 59:0.0 60:0.0 61:0.0 62:0.0053025003632160925 63:0.1 64:0.06323809762705063 65:0.0 66:0.0 67:0.0 68:0.23076923076923078 69:0.0 70:0.05357142857142857 71:0.0 72:0.001116348300669809 73:0.0 74:1.0 75:0.0 76:0.0 77:0.06923028557598307 
