svm_type c_svc
kernel_type rbf
gamma 0.25
nr_class 10
total_sv 377
rho 0.06838485008517896 0.059638975805030754 0.24778753348573854 0.39563033185161117 -0.004142881652176974 -0.28727585762481395 0.6799538099489465 0.1135777049110267 0.2181936941817191 0.16759859393750412 0.7739622151595364 0.5279800838769454 0.33790279898204334 -0.38721761586823616 1.4513929600210451 0.45754768360453973 0.9705682460869041 0.014442314761320732 0.33607935518934123 -0.10263494013528249 -0.5520073698529672 1.548462729952204 0.3140914939559978 0.2656881870138185 0.05823252245382543 0.3395753928304579 -0.7498070026666565 1.1813628112005492 -0.03268825092524137 0.44038552075189913 -0.29431202362108644 -0.8367440742440982 0.7478832130495624 -0.3750596568217259 -0.3398255950177037 -0.787756335016246 1.5019902697872414 0.14905313003109324 0.4514364635984463 3.1976193727112077 1.3246023800978155 2.251971209453492 -3.5948361743096218 -1.9989653950348902 -0.8516478948238805
label 11 12 9 5 4 8 10 7 13 6
nr_sv 10 24 18 39 44 18 12 153 29 30
SV
0.0 0.0 0.0 0.0 0.1323231386560123 0.3344270551796719 0.0 0.0 0.0 0:1.0 1:0.0 2:0.0 3:0.0 4:0.0 5:0.03242677824267782 6:0.013973115019203557 7:0.0 8:0.007611619380170503 9:0.0 10:0.0 11:0.0 12:0.51281 13:0.40078837719298244 14:0.09452841985646482 15:0.625 16:0.09483964452931964 17:0.08587987355110642 18:0.59708 19:0.0 20:1.0 21:0.0 22:0.0 23:1.0 24:0.047619047619047616 25:0.034268095154460124 26:0.12194883121263389 27:0.25679509454778804 28:9.44705148076234E-5 29:0.44860143234947786 30:0.03252032520325203 31:0.95238 32:0.031908831908831904 33:0.88889 34:0.17857142857142855 35:0.011627147632745085 36:0.07145 37:0.027972027972027972 38:0.06349 39:0.034782608695652174 40:0.5 41:0.060598359838651465 42:0.46927320433537 43:0.021538461538461538 44:0.0086071201312837 45:0.1837058455318636 46:0.15988372093023256 47:0.16279069767441862 48:0.021538461538461538 49:0.002137396845230008 50:0.4830596716059271 51:0.035292122224251765 52:0.05361258354459553 53:0.5108546228100103 54:0.5090148411532813 55:0.0 
0.29992009693643834 0.07739915422021168 0.36440665970198793 0.538489183329594 0.3677514985607631 0.0 0.3931874329251561 0.07219199519742371 0.30904940677360726 0:1.0 1:0.0 2:0.0 3:0.0 4:0.0 5:0.057531380753138066 6:0.07269557307459065 7:0.0 8:0.013088874519615285 9:0.0 10:0.0 11:0.0 12:0.06569 13:0.48082638888888884 14:0.047832866075877126 15:0.58333 16:0.052847367054468096 17:0.05019903992506732 18:1.0 19:0.0 20:0.0 21:0.0 22:0.0 23:1.0 24:0.0 25:0.06605780301699743 26:0.1372951154099324 27:0.9634624116722144 28:0.0 29:0.0 30:0.05745257452574526 31:0.95495 32:0.059829059829059825 33:0.94595 34:0.17857142857142855 35:0.0013449428593640673 36:0.20490000000000003 37:0.006993006993006993 38:0.00901 39:0.008695652173913044 40:0.08333 41:0.17906568929037253 42:0.9521588770316253 43:0.033846153846153845 44:0.04151735378501178 45:0.22923093267789563 46:0.19186046511627908 47:0.18604651162790697 48:0.033846153846153845 49:0.0022766145733666403 50:0.9548458149779735 51:0.009170173823254218 52:0.026609433817315814 53:0.6609353990648017 54:0.6904904537373424 55:0.0 
0.6624610792956688 0.5231549201585807 0.9531929913424183 0.9736700745544071 0.5266977077198957 0.3306508540277537 0.6212271380356943 0.43774563729176913 0.7299244728919806 0:1.0 1:0.0 2:0.0 3:0.33333 4:0.0 5:0.06380753138075314 6:0.06469830200121286 7:0.0 8:0.014813401323718138 9:0.02631578947368421 10:0.036585365853658534 11:0.0 12:0.5911 13:0.5218077485380117 14:0.2663686077805368 15:0.53333 16:0.1676089487482306 17:0.15873434024118954 18:1.0 19:0.0 20:0.0 21:0.0 22:0.0 23:1.0 24:0.09523809523809523 25:0.15459672540639696 26:0.15000299200861697 27:0.4054071803031383 28:0.0 29:0.9191900083006777 30:0.06341463414634146 31:0.95122 32:0.055270655270655264 33:0.78862 34:0.25 35:0.009448806654746171 36:0.219 37:0.13986013986013987 38:0.1626 39:0.13043478260869565 40:1.0 41:0.14894130828209873 42:0.9665353199143312 43:0.04307692307692308 44:0.03938511001708028 45:0.22872247075511246 46:0.16744186046511628 47:0.16279069767441862 48:0.043076923076923075 49:0.0021082598144330144 50:0.945374449339207 51:0.023382079392830116 52:0.03863217331182299 53:0.37474663348652393 54:0.39120352477390424 55:0.0 
0.0 0.0 0.0 0.0 0.1444889438480279 0.0 0.09352923627223954 0.0 0.07095116555544878 0:1.0 1:0.0 2:0.0 3:0.0 4:0.0 5:0.02824267782426778 6:0.024446634323832626 7:0.0 8:0.01177295070202499 9:0.02631578947368421 10:0.0818108181081811 11:0.0 12:0.0497 13:0.4813994883040935 14:0.04259230867835569 15:0.0 16:0.052847367054468096 17:0.05019903992506732 18:1.0 19:0.0 20:1.0 21:0.0 22:0.0 23:1.0 24:0.0 25:0.04640633842671194 26:0.1372951154099324 27:0.45092671467545287 28:0.0 29:0.0 30:0.02710027100271003 31:0.90909 32:0.027920227920227917 33:0.89091 34:0.17857142857142855 35:0.005914638886729379 36:0.42375 37:0.006993006993006993 38:0.01818 39:0.008695652173913044 40:0.2 41:0.025486944837956493 42:0.44563635183622763 43:0.012307692307692308 44:0.010984962657825111 45:0.2616218637478249 46:0.23255813953488375 47:0.20930232558139533 48:0.012307692307692308 49:0.0026599675429342957 50:0.44655586704044853 51:0.009170173823254218 52:0.02658062533609895 53:0.6223409058981718 54:0.650189379299683 55:0.0 
0.4874464301987235 0.8251814119935936 0.8324533475812774 0.5321685639512218 0.6992211291569934 1.0012317302051292 0.9751536482325732 0.8891686388952911 0.9872399008495885 0:1.0 1:0.0 2:0.0 3:0.33333 4:0.0 5:0.016736401673640166 6:0.029171720234485547 7:0.0 8:0.01185442440930544 9:0.0 10:0.0 11:0.0 12:0.04966 13:0.48215716374269 14:0.04180549126788661 15:0.0 16:0.052847367054468096 17:0.05019903992506732 18:1.0 19:0.0 20:0.0 21:0.0 22:0.0 23:1.0 24:0.0 25:0.08122084967702904 26:0.1372951154099324 27:0.3277087500328356 28:0.0 29:0.0 30:0.015718157181571817 31:0.87879 32:0.010826210826210825 33:0.57576 34:0.17857142857142855 35:0.009137837207494365 36:0.55555 37:0.06993006993006994 38:0.30303 39:0.034782608695652174 40:1.0 41:0.22097951974525687 42:0.3238640051178876 43:0.00923076923076923 44:0.018710159974100495 45:0.23750524024739708 46:0.16860465116279072 47:0.18604651162790697 48:0.00923076923076923 49:0.0023825405210448694 50:0.32449939927913496 51:0.009170173823254218 52:0.02657102250902666 53:0.622236799855506 54:0.6500830949988405 55:0.0 
0.41472631802371684 0.6323358565188778 0.6770121492149888 1.346342302339711 0.4890530872688188 0.19483330457006717 0.661027111290505 0.2113293869454703 0.22651869571582536 0:1.0 1:0.0 2:0.0 3:0.0 4:0.0 5:0.07479079497907949 6:0.11081210834849403 7:0.0 8:0.02551484932999418 9:0.0 10:0.0 11:0.0 12:0.26381 13:0.4855263157894737 14:0.10381532014160356 15:0.52941 16:0.12376561047315125 17:0.12612691722280764 18:1.0 19:0.0 20:1.0 21:0.0 22:0.0 23:1.0 24:0.047619047619047616 25:0.11833811447417207 26:0.13679463396854583 27:0.7421954450444501 28:0.0 29:0.18885006659845954 30:0.07371273712737128 31:0.94444 32:0.07692307692307691 33:0.9375 34:0.17857142857142855 35:0.00788463033506958 36:0.03125 37:0.006993006993006993 38:0.00694 39:0.008695652173913044 40:0.05882 41:0.041321339366820774 42:0.8241912903195898 43:0.04923076923076923 44:0.07211672639181933 45:0.24854835097310674 46:0.1737346511627907 47:0.16279069767441862 48:0.04923076923076923 49:0.002137396845230008 50:0.8970264317180616 51:0.09606316236799238 52:0.12117807482522855 53:0.8636511870597445 54:0.9699408672798948 55:0.0 
1.2100147633788019 0.5361299763792645 0.6409385441710087 1.3576816814127248 0.6783392315313667 0.18830882335937296 0.8623618808192609 0.6330688883413638 0.579436172139577 0:1.0 1:0.0 2:0.0 3:0.0 4:0.0 5:0.04864016736401673 6:0.039329391550434606 7:0.0 8:0.02544078232337559 9:0.0 10:0.0 11:0.0 12:0.57935 13:0.4855270467836257 14:0.19965491709480307 15:0.36364 16:0.1407183121005771 17:0.1341470553799321 18:1.0 19:0.0 20:1.0 21:0.0 22:0.0 23:1.0 24:0.047619047619047616 25:0.09394453876627051 26:0.13681639403121482 27:0.47740347269390837 28:0.0 29:0.7373047892979172 30:0.04715447154471545 31:0.92553 32:0.04672364672364672 33:0.87234 34:0.14285714285714285 35:0.00927466376428516 36:0.09615 37:0.03496503496503497 38:0.05319 39:0.026086956521739132 40:0.27273 41:0.09194984324258296 42:0.8259250674504205 43:0.030769230769230767 44:0.02419147772307624 45:0.24844176577673382 46:0.17547558139534886 47:0.18604651162790697 48:0.03076923076923077 49:0.002190131240608787 50:0.8982579094913896 51:0.10143106899623876 52:0.1266420834293616 53:0.07277137811314696 54:0.0769208471824998 55:0.0 
0.0 0.0 0.0 0.04342938371535632 0.0 0.0 0.0 0.0 0.0 0:1.0 1:0.0 2:0.0 3:0.0 4:0.0 5:0.06171548117154811 6:0.06068071558520315 7:0.0 8:0.042602107756903054 9:0.0 10:0.0 11:0.0 12:0.71869 13:0.3176816520467836 14:0.23484395869516095 15:0.5 16:0.15474784531497351 17:0.1525875190258752 18:1.0 19:0.0 20:0.0 21:0.0 22:0.0 23:1.0 24:0.09523809523809523 25:0.14647854341080735 26:0.08715993102060134 27:0.3335403540241445 28:0.0 29:0.6633341698357238 30:0.06070460704607046 31:0.94118 32:0.05242165242165242 33:0.77311 34:0.17857142857142855 35:0.011966104330249555 36:0.18939999999999999 37:0.13986013986013987 38:0.16807 39:0.08695652173913043 40:0.71429 41:0.11480287035256026 42:0.7399074700761193 43:0.04 44:0.03616999899527781 45:0.19859492456915115 46:0.17441860465116277 47:0.18604651162790697 48:0.04 49:0.0021579151234931435 50:0.9991890268321986 51:0.153320833069287 52:0.22988207728355228 53:0.4171579301210139 54:0.4541914663368632 55:0.0 
0.4918781482786649 0.9532228141235125 0.9665833594744357 1.119287260037638 0.908999466688504 0.430234773775456 1.2602684069001269 1.0369172278696035 0.8220286076456378 0:1.0 1:0.0 2:0.0 3:0.0 4:0.0 5:0.03242677824267782 6:0.01446583788154437 7:0.0 8:0.011591486535809443 9:0.0 10:0.0 11:0.0 12:0.18943 13:0.35549342105263154 14:0.04922348613282012 15:0.375 16:0.15843740315434163 17:0.14319166373960895 18:0.31809 19:0.0 20:0.0 21:0.0 22:0.0 23:1.0 24:0.14285714285714285 25:0.06088636496692231 26:0.09781692171273453 27:0.11327909516322113 28:0.0 29:0.06164893925062255 30:0.03143631436314363 31:0.92063 32:0.032478632478632474 33:0.90476 34:0.3214285714285714 35:0.08029853066936174 36:0.07145 37:0.006993006993006993 38:0.01587 39:0.008695652173913044 40:0.125 41:0.024981502203589485 42:0.13273315593795487 43:0.021538461538461538 44:0.00912064480837715 45:0.1657870708022029 46:0.15988372093023256 47:0.16279069767441862 48:0.021538461538461538 49:0.002137396845230008 50:0.13107729275130156 51:0.05907679461420036 52:0.07289506030575402 53:0.5165353007284915 54:0.5135850660895107 55:0.0 
0.11268737698262933 0.0 0.0 0.0 0.0936998030472245 0.12397454697373478 0.0 0.09956499481711434 0.0338573878447977 0:1.0 1:0.0 2:0.0 3:0.0 4:0.0 5:0.03974895397489539 6:0.022121993127147764 7:0.0 8:0.0018492062652441473 9:0.0 10:0.0 11:0.0 12:0.0715 13:0.3199926900584795 14:0.04386054597942522 15:0.46154 16:0.03372532267926393 17:0.03369043437536589 18:1.0 19:0.0 20:0.0 21:0.0 22:0.0 23:1.0 24:0.0 25:0.016490057178541455 26:0.08761689233664992 27:0.687401258635765 28:0.0 29:0.0 30:0.037940379403794036 31:0.90909 32:0.031339031339031334 33:0.71429 34:0.17857142857142855 35:0.0010261991759309644 36:0.33709999999999996 37:0.1048951048951049 38:0.19481 39:0.06956521739130435 40:0.61538 41:0.017310006219752413 42:0.6793365289225549 43:0.036923076923076927 44:0.018352925416122445 45:0.1452426593465914 46:0.11449023255813952 47:0.09302325581395349 48:0.03692307692307692 49:0.0017355559119586765 50:0.8487985582699239 51:0.12379548275746381 52:0.17571252976876392 53:0.3154325292500352 54:0.34648682074669546 55:0.0 
-0.0 0.0 0.0 0.1402246039476435 0.0 0.0 0.0 0.0 0.0 0:0.0 1:0.0 2:0.0 3:0.4 4:0.0 5:0.07374476987447699 6:0.04980291085506368 7:0.0 8:0.010780452813335875 9:0.0 10:0.0 11:0.0 12:0.33051 13:0.8031432748538011 14:0.3207987745328257 15:0.61111 16:0.41456223668450726 17:0.414734808570425 18:1.0 19:0.0 20:1.0 21:1.0 22:1.0 23:0.0 24:0.14285714285714285 25:0.11115664578576584 26:0.23134210626526605 27:0.7229078088704927 28:0.0 29:0.4808196436499817 30:0.07371273712737128 31:0.95775 32:0.07692307692307691 33:0.9507 34:0.14285714285714285 35:0.030095623105029935 36:0.15725 37:0.006993006993006993 38:0.00704 39:0.008695652173913044 40:0.05556 41:0.036317457286587376 42:0.8756891068729893 43:0.05230769230769231 44:0.034138227446777636 45:0.45463203413482794 46:0.16020674418604652 47:0.13953488372093026 48:0.052307692307692305 49:0.002047444498191756 50:0.981127352823388 51:0.061717879229556294 52:0.08873972497503264 53:0.1272338899034699 54:0.1421794078998222 55:0.0 
-0.21405375162895415 1.4147792372839605 4.666143848297351 2.067929716979194 5.031102071595967 1.266362938140408 4.915665411356648 0.49649095910725993 0.3516876178351134 0:0.0 1:0.0 2:0.0 3:0.0 4:0.0 5:0.02928870292887029 6:0.04160349706893066 7:0.0 8:0.03346964584083082 9:0.0 10:0.0 11:0.0 12:0.48741 13:0.33775584795321634 14:0.09908585665319951 15:0.6 16:0.1030647201212822 17:0.12577567029621822 18:1.0 19:0.0 20:1.0 21:0.0 22:0.0 23:0.0 24:0.047619047619047616 25:0.10787814921062389 26:0.09280666728320178 27:0.37684676841327086 28:0.18670522743146636 29:0.12590390517923672 30:0.03035230352303523 31:0.98246 32:0.027920227920227917 33:0.85965 34:0.2857142857142857 35:0.012074943636787686 36:0.0 37:0.04895104895104895 38:0.12281 39:0.06086956521739131 40:0.7 41:0.1682534289368716 42:0.4933643620720028 43:0.027692307692307693 44:0.03723053908927515 45:0.21167096414809367 46:0.10930232558139534 47:0.09302325581395349 48:0.027692307692307693 49:0.0017203621672422004 50:0.7522226672006408 51:0.156675774711941 52:0.2674387339632788 53:0.18881324128519542 54:0.26054147020174684 55:0.0 
-0.0 0.0 0.0 0.2913519755213679 0.0 0.0 0.0 0.0 0.0 0:0.0 1:0.0 2:0.0 3:0.0 4:0.0 5:0.036610878661087864 6:0.020378512229634122 7:0.0 8:0.019767249616391543 9:0.0 10:0.0 11:0.0 12:0.55649 13:0.42105263157894735 14:0.14855428507378032 15:0.83333 16:0.10255798175741891 17:0.10194942044257112 18:1.0 19:0.0 20:1.0 21:1.0 22:0.0 23:0.0 24:0.047619047619047616 25:0.03660987842241867 26:0.11760225869450502 27:0.42201636901969763 28:0.5860607209520201 29:0.39518946779144065 30:0.03848238482384824 31:1.0 32:0.039886039886039885 33:0.98592 34:0.2857142857142857 35:0.006419964238513567 36:0.0 37:0.006993006993006993 38:0.01408 39:0.008695652173913044 40:0.08333 41:0.0629964043372594 42:0.7966789359985907 43:0.033846153846153845 44:0.016868169284526165 45:0.1964705139175228 46:0.11434116279069766 47:0.11627906976744186 48:0.033846153846153845 49:0.0017423998199769832 50:0.995374449339207 51:0.12513745941452542 52:0.17731620188983638 53:0.06501861365871281 54:0.07280474607714306 55:0.0 
-0.33217418546644517 0.18164321941489317 0.7555050508632548 0.0 0.15468043956961783 0.0 0.0 0.0 0.579229588313341 0:0.0 1:0.0 2:0.0 3:0.0 4:0.0 5:0.025627615062761504 6:0.01607034566403881 7:0.0 8:0.008417715302202833 9:0.0 10:0.0 11:0.0 12:0.06143 13:0.6220029239766082 14:0.048202642353441134 15:0.66667 16:0.06829241735139166 17:0.06855169183936308 18:1.0 19:0.0 20:1.0 21:1.0 22:0.0 23:0.0 24:0.23809523809523808 25:0.15044006010577055 26:0.1774206709715324 27:0.13398960143200778 28:1.0 29:0.8466169912939405 30:0.026558265582655827 31:0.98 32:0.02279202279202279 33:0.8 34:0.49999999999999994 35:0.0031905465288035455 36:0.0862 37:0.06293706293706294 38:0.18 39:0.06956521739130435 40:0.88889 41:0.05302374035973475 42:0.8336501107948487 43:0.024615384615384615 44:0.014925706375520504 45:0.26532592903125773 46:0.10594325581395349 47:0.09302325581395349 48:0.024615384615384615 49:0.0017049936272325258 50:0.8952843412094513 51:0.05060929467943533 52:0.07267419528309134 53:0.1726680246442835 54:0.19218134034165568 55:0.0 
-0.6295822852401137 2.604841648395915 1.0649158203172795 2.907401223355972 1.7916294233210963 5.1567161393323255 11.506622351625223 7.855770070668915 9.057265453957237 0:0.0 1:0.0 2:0.0 3:0.5 4:0.0 5:0.024058577405857737 6:0.025356276531231046 7:0.0 8:0.006656154994790683 9:0.0 10:0.0 11:0.0 12:0.21033 13:0.5994152046783625 14:0.07212081852914413 15:0.83333 16:0.1407853188263772 17:0.16450064395269873 18:1.0 19:0.0 20:0.0 21:0.0 22:0.0 23:0.0 24:0.047619047619047616 25:0.09644244091875963 26:0.1706968116068174 27:0.4021799091110369 28:0.0 29:0.13067969036542285 30:0.024932249322493223 31:0.97872 32:0.02336182336182336 33:0.87234 34:0.49999999999999994 35:0.018763896447174067 36:0.09615 37:0.03496503496503497 38:0.10638 39:0.043478260869565216 40:0.83333 41:0.0561785448025755 42:0.46022604003449014 43:0.015384615384615382 44:0.01407727430032263 45:0.3895374799722051 46:0.1589146511627907 47:0.18604651162790697 48:0.015384615384615385 49:0.002190131240608787 50:0.6116740088105727 51:0.1362106306917517 52:0.2041272950756703 53:0.1832667723614763 54:0.24190306871763156 55:0.0 
-0.06459595475448723 0.26658718818890914 0.0 0.19983894474361039 0.0 0.0 6.3176664226313655 0.13348309239737202 0.4997568750125439 0:0.0 1:0.0 2:0.0 3:0.0 4:0.0 5:0.03556485355648535 6:0.01586820295128361 7:0.0 8:0.016234253400684767 9:0.0 10:0.0 11:0.0 12:0.48593 13:0.4967061403508772 14:0.16948531586203844 15:0.71429 16:0.1477707699910379 17:0.13356164383561644 18:1.0 19:0.0 20:1.0 21:0.0 22:1.0 23:0.0 24:0.047619047619047616 25:0.02862830045079328 26:0.1706968116068174 27:0.5643803076415027 28:0.31454387316629157 29:0.21209775495627667 30:0.03739837398373984 31:1.0 32:0.035897435897435895 33:0.91304 34:0.49999999999999994 35:0.010921246987483481 36:0.0 37:0.04195804195804196 38:0.08696 39:0.026086956521739132 40:0.21429 41:0.042492281469771014 42:0.7614990218530092 43:0.04 44:0.01661140694597944 45:0.22370504154870127 46:0.0913620930232558 47:0.09302325581395349 48:0.04 49:0.0015177878682170415 50:0.7522026431718061 51:0.1314577966979919 52:0.14112314665437506 53:0.06948890204499389 54:0.06828283218675117 55:0.0 
-0.0 0.009268742922366839 0.3960157085202768 0.0 0.9052178855636838 0.0 0.49164974465086425 0.0 0.0 0:0.0 1:0.0 2:0.0 3:0.0 4:0.0 5:0.04968619246861924 6:0.03375783303011926 7:0.0 8:0.010780452813335875 9:0.02631578947368421 10:0.04689046890468905 11:0.0 12:0.39409 13:0.7947755847953215 14:0.29236301895960065 15:0.5 16:0.3060574080123293 17:0.30625804940873436 18:1.0 19:0.0 20:1.0 21:1.0 22:1.0 23:0.0 24:0.09523809523809523 25:0.07882052182737154 26:0.24947182887886712 27:0.6580724935173129 28:0.0 29:0.6956527614230837 30:0.044986449864498644 31:0.86458 32:0.04387464387464387 33:0.80208 34:0.14285714285714285 35:0.0211350384824691 36:0.28035 37:0.04195804195804196 38:0.0625 39:0.026086956521739132 40:0.25 41:0.036317457286587376 42:0.8919142939262171 43:0.033846153846153845 44:0.020295388325128106 45:0.467897641457966 46:0.16279069767441862 47:0.13953488372093026 48:0.033846153846153845 49:0.002100205785154103 50:0.9993392070484581 51:0.061717879229556294 52:0.08873972497503264 53:0.1272338899034699 54:0.1421794078998222 55:0.0 
-0.22763962261728 0.30072377001432077 0.5317185802293436 1.0429584872099893 0.11017316095815684 2.514847914539075 11.914439798040869 0.0 1.742378090379727 0:0.0 1:0.0 2:0.0 3:1.0 4:0.16666666666666666 5:0.023012552301255228 6:0.023612795633717404 7:0.0 8:0.01503807124379453 9:0.0 10:0.0 11:0.0 12:0.05641 13:0.6505847953216374 14:0.04629670776985996 15:0.66667 16:0.07156737107487166 17:0.06814190375834211 18:1.0 19:0.0 20:1.0 21:0.0 22:0.0 23:0.0 24:0.0 25:0.05058251858790469 26:0.18592885547510377 27:0.6809204477651147 28:0.0 29:0.0 30:0.023848238482384824 31:0.97778 32:0.02165242165242165 33:0.84444 34:0.49999999999999994 35:0.00492575604446863 36:0.1 37:0.04195804195804196 38:0.13333 39:0.052173913043478265 40:1.0 41:0.033812708231835305 42:0.6729317522274864 43:0.015384615384615382 44:0.01613137300869643 45:0.3250025555179087 46:0.1511627906976744 47:0.13953488372093026 48:0.015384615384615385 49:0.002137396845230008 50:0.7308370044052864 51:0.04869138637371814 52:0.07178113236536837 53:0.22957640129242016 54:0.24095617221921617 55:0.0 
-0.8030886768491546 0.17847598723232852 0.2453136385740104 12.3120542380137 3.022488801097195 0.0 1.540024860896245 0.0 0.0 0:0.0 1:0.0 2:0.0 3:0.0 4:0.0 5:0.06328451882845189 6:0.04925965231453406 7:0.0 8:0.002793560599631179 9:0.0 10:0.0 11:0.0 12:0.42093 13:0.5319978070175438 14:0.22879049391214099 15:0.80952 16:0.20874270254876837 17:0.19681536119892284 18:1.0 19:0.0 20:1.0 21:0.0 22:0.0 23:0.0 24:0.09523809523809523 25:0.11584021232168294 26:0.1506267442050233 27:0.6697013085458892 28:0.0 29:0.7326023589367411 30:0.06504065040650406 31:0.98361 32:0.06495726495726495 33:0.93443 34:0.14285714285714285 35:0.013272176008707146 36:0.0 37:0.04195804195804196 38:0.04918 39:0.034782608695652174 40:0.19048 41:0.013324029444841467 42:0.912196704896298 43:0.06153846153846154 44:0.0465856190763254 45:0.26771708981066195 46:0.11184930232558139 47:0.13953488372093026 48:0.06153846153846154 49:0.0016768784766111528 50:0.9364937925510612 51:0.058823310134533166 52:0.07645770914957364 53:0.10376111300648219 54:0.10799451186519284 55:0.0 
-0.0 0.0 0.0 0.0 0.0 0.0 0.006729226097891847 0.0 0.0 0:0.0 1:0.0 2:0.0 3:0.0 4:0.0 5:0.02824267782426778 6:0.01801596927430766 7:0.0 8:0.008417715302202833 9:0.0 10:0.0 11:0.0 12:0.05456 13:0.6220029239766082 14:0.0477851536886073 15:0.5 16:0.06829241735139166 17:0.06852242126214729 18:1.0 19:0.0 20:1.0 21:1.0 22:1.0 23:0.0 24:0.0 25:0.025505922760181876 26:0.1774206709715324 27:0.9031068114185358 28:0.0 29:0.0 30:0.028184281842818428 31:0.94545 32:0.0245014245014245 33:0.78182 34:0.49999999999999994 35:0.0028033895669750454 36:0.08065 37:0.06293706293706294 38:0.16364 39:0.06086956521739131 40:0.875 41:0.0535965753453507 42:0.892511380809776 43:0.021538461538461538 44:0.012782299027652188 45:0.32430314759408035 46:0.1366279069767442 47:0.16279069767441862 48:0.021538461538461538 49:0.001974205270341628 50:0.9664297156587907 51:0.05060929467943533 52:0.0734808327571637 53:0.1726680246442835 54:0.1921716781324882 55:0.0 
-0.0 0.0 0.386326791162722 0.0 0.0 0.0 0.0 0.0 0.0 0:0.0 1:0.0 2:0.0 3:0.0 4:0.0 5:0.020920502092050205 6:0.014478471801091571 7:0.0 8:0.008417715302202833 9:0.0 10:0.0 11:0.0 12:0.07698 13:0.6220029239766082 14:0.04859158205281715 15:0.66667 16:0.06829241735139166 17:0.06852242126214729 18:1.0 19:0.0 20:1.0 21:1.0 22:0.0 23:0.0 24:0.0 25:0.025505922760181876 26:0.1774206709715324 27:0.7037646493719956 28:0.0 29:0.0 30:0.01951219512195122 31:0.87805 32:0.015954415954415952 33:0.68293 34:0.0 35:0.004356681955997824 36:0.10205 37:0.055944055944055944 38:0.19512 39:0.043478260869565216 40:0.55556 41:0.07514527965719757 42:0.6955079410701207 43:0.024615384615384615 44:0.015416903892740325 45:0.21776647734777438 46:0.08268744186046512 47:0.046511627906976744 48:0.024615384615384615 49:0.0014782706861624195 50:0.7531838205847017 51:0.05060929467943533 52:0.0734808327571637 53:0.1726680246442835 54:0.19216201592332066 55:0.0 
-0.0 0.0 0.022987034188891586 0.0 0.0 0.0 0.0 0.0 0.0 0:0.0 1:0.0 2:0.0 3:0.0 4:0.0 5:0.042364016736401666 6:0.02805993531433192 7:0.0 8:0.010850816469623535 9:0.0 10:0.0 11:0.0 12:0.1763 13:0.8031432748538011 14:0.11140062159825485 15:0.58333 16:0.1975525793401513 17:0.19743004332045427 18:1.0 19:0.0 20:1.0 21:1.0 22:1.0 23:0.0 24:0.047619047619047616 25:0.05832991823273423 26:0.23134210626526605 27:0.8632884767655238 28:0.0 29:0.03875258189680134 30:0.042818428184281845 31:0.96341 32:0.042165242165242166 33:0.90244 34:0.14285714285714285 35:0.013127575215735054 36:0.1613 37:0.03496503496503497 38:0.06098 39:0.017391304347826087 40:0.16667 41:0.036397485703695484 42:0.8717728102951131 43:0.033846153846153845 44:0.019424629090056603 45:0.40072915530083325 46:0.13565883720930233 47:0.06976744186046512 48:0.033846153846153845 49:0.00191165544696017 50:0.9767521025230276 51:0.061717879229556294 52:0.08873972497503264 53:0.1272338899034699 54:0.14188954162479706 55:0.0 
-0.10867405560267125 0.08430468480437626 0.0 0.0 0.0 0.0 0.0 0.0 0.0 0:0.0 1:0.0 2:0.0 3:0.0 4:0.0 5:0.04864016736401673 6:0.033366181524156054 7:0.0 8:0.010780452813335875 9:0.0 10:0.0 11:0.0 12:0.41197 13:0.8031432748538011 14:0.303901596504893 15:0.66667 16:0.3060574080123293 17:0.3057311790188503 18:1.0 19:0.0 20:1.0 21:1.0 22:1.0 23:0.0 24:0.09523809523809523 25:0.08122084967702904 26:0.23134210626526605 27:0.651076951654727 28:0.0 29:0.7648804123313322 30:0.05040650406504065 31:0.98936 32:0.05242165242165242 33:0.97872 34:0.14285714285714285 35:0.021128819093524064 36:0.046299999999999994 37:0.006993006993006993 38:0.01064 39:0.008695652173913044 40:0.06667 41:0.036317457286587376 42:0.8921794598403442 43:0.04307692307692308 44:0.029739776951672865 45:0.36057915501369636 46:0.12248069767441862 47:0.11627906976744186 48:0.043076923076923075 49:0.001788451656838869 50:0.9903384060873047 51:0.061717879229556294 52:0.08769301682415304 53:0.1272338899034699 54:0.14188954162479706 55:0.0 
-0.0 0.0 0.1425660217536116 0.6228965856748581 0.0 0.0 0.0 0.0 0.0 0:0.0 1:0.0 2:0.0 3:0.0 4:0.0 5:0.03190376569037656 6:0.018192844147968467 7:0.0 8:0.016225612249912598 9:0.02631578947368421 10:0.07258572585725857 11:0.0 12:0.1345 13:0.3919353070175438 14:0.05074564107279073 15:0.66667 16:0.04526723119833154 17:0.044227842173047656 18:1.0 19:0.0 20:1.0 21:1.0 22:0.0 23:0.0 24:0.0 25:0.016490057178541455 26:0.11760225869450502 27:0.7394897909403744 28:0.0 29:0.0 30:0.03252032520325203 31:0.96774 32:0.033048433048433044 33:0.93548 34:0.2857142857142857 35:0.001850268211148255 36:0.14285 37:0.013986013986013986 38:0.03226 39:0.017391304347826087 40:0.22222 41:0.05896830734281787 42:0.7308139480979445 43:0.024615384615384615 44:0.012614845328599977 45:0.231269604268002 46:0.1369509302325581 47:0.11627906976744186 48:0.024615384615384615 49:0.0019578417417399005 50:0.9130556668001601 51:0.1582395502887114 52:0.21675501267573175 53:0.06501861365871281 54:0.07087230424364224 55:0.0 
-0.0 0.0 0.0 0.1997528830963443 0.0 0.0 0.0 0.0 0.0 0:0.0 1:0.0 2:0.0 3:0.5 4:0.0 5:0.06171548117154811 6:0.044496664645239534 7:0.0 8:0.016036741383035194 9:0.0 10:0.0 11:0.0 12:0.28473 13:0.7841293859649122 14:0.22169627351601048 15:0.7 16:0.307849837927482 17:0.30696054326191313 18:1.0 19:0.0 20:1.0 21:1.0 22:1.0 23:0.0 24:0.09523809523809523 25:0.09394453876627051 26:0.23380099334686083 27:0.7455947185331678 28:0.0 29:0.3268999864872691 30:0.06287262872628727 31:0.97479 32:0.06438746438746439 33:0.94958 34:0.14285714285714285 35:0.021486433957863642 36:0.036250000000000004 37:0.02097902097902098 38:0.02521 39:0.017391304347826087 40:0.1 41:0.03784922927018295 42:0.8840613033924549 43:0.05846153846153847 44:0.03621465331502507 45:0.31620112213078505 46:0.11511627906976744 47:0.11627906976744186 48:0.05846153846153846 49:0.0017074273155455188 50:0.9903684421305567 51:0.061619094836744825 52:0.08861488822309287 53:0.11967052318930746 54:0.13329017546571847 55:0.0 
-0.07414493649801826 0.5651246786018059 0.3570898025063915 0.0 0.9537876539330851 0.0 0.0 0.0 0.12926226162551174 0:0.0 1:0.0 2:0.0 3:0.0 4:0.0 5:0.019351464435146442 6:0.014693248433393978 7:0.0 8:0.008417715302202833 9:0.0 10:0.0 11:0.0 12:0.04986 13:0.6220029239766082 14:0.04478506775580278 15:0.14286 16:0.06829241735139166 17:0.06852242126214729 18:1.0 19:0.0 20:1.0 21:1.0 22:0.0 23:0.0 24:0.0 25:0.026384091485666332 26:0.1774206709715324 27:0.6205967449592651 28:0.0 29:0.0 30:0.018970189701897018 31:0.92105 32:0.016524216524216522 33:0.76316 34:0.49999999999999994 35:0.005297364533934541 36:0.11365 37:0.04195804195804196 38:0.15789 39:0.052173913043478265 40:0.85714 41:0.0535965753453507 42:0.6133157792261977 43:0.01846153846153846 44:0.013306987284682452 45:0.25056054854622617 46:0.10298999999999998 47:0.09302325581395349 48:0.01846153846153846 49:0.0017203621672422004 50:0.6641870244293152 51:0.05060929467943533 52:0.0734808327571637 53:0.1726680246442835 54:0.1921716781324882 55:0.0 
-0.0 0.0 0.0 0.0 0.0 0.0 0.0 1.6790399679245442 0.0 0:0.0 1:0.0 2:0.0 3:1.0 4:0.0 5:0.019874476987447695 6:0.015236506973923591 7:0.0 8:0.008417715302202833 9:0.0 10:0.0 11:0.0 12:0.03695 13:0.6220029239766082 14:0.04382453688580227 15:0.6 16:0.06829241735139166 17:0.06852242126214729 18:1.0 19:0.0 20:1.0 21:1.0 22:0.0 23:0.0 24:0.0 25:0.026384091485666332 26:0.1774206709715324 27:0.6790966642774853 28:0.0 29:0.0 30:0.02059620596205962 31:0.97436 32:0.018803418803418803 33:0.84615 34:0.49999999999999994 35:0.004611676902744307 36:0.1163 37:0.03496503496503497 38:0.12821 39:0.043478260869565216 40:1.0 41:0.05302374035973475 42:0.6711293657342593 43:0.012307692307692308 44:0.009031336168882638 45:0.39631316292718777 46:0.1581395348837209 47:0.13953488372093026 48:0.012307692307692308 49:0.0022346368114154556 50:0.7268021625951142 51:0.05060929467943533 52:0.073490435584236 53:0.1726680246442835 54:0.1921716781324882 55:0.0 
-0.48516745271770273 0.0 12.303611777417125 0.0 0.7769702622203659 0.0 0.0 0.0 0.0 0:0.0 1:0.0 2:0.0 3:0.0 4:0.0 5:0.04341004184100418 6:0.02837578330301193 7:0.0 8:0.008417715302202833 9:0.0 10:0.0 11:0.0 12:0.27877 13:0.619781067251462 14:0.12277057232362037 15:0.66667 16:0.15174091849469393 17:0.15229481325371735 18:1.0 19:0.0 20:0.0 21:0.0 22:0.0 23:0.0 24:0.047619047619047616 25:0.06484788166188553 26:0.1835950887538556 27:0.6888516543517501 28:0.0 29:0.3062872806594213 30:0.044444444444444446 31:0.97619 32:0.041025641025641026 33:0.85714 34:0.49999999999999994 35:0.01016092668895281 36:0.052649999999999995 37:0.06993006993006994 38:0.11905 39:0.0782608695652174 40:0.75 41:0.0535965753453507 42:0.8278776528180832 43:0.033846153846153845 44:0.02087589448184244 45:0.3311960972360207 46:0.13953488372093026 47:0.18604651162790697 48:0.033846153846153845 49:0.0019402680918775693 50:0.8964657589106928 51:0.05060929467943533 52:0.0734808327571637 53:0.1726680246442835 54:0.1927030996367009 55:0.0 
-0.09556006262012502 0.0 0.0 0.0 0.0 0.0 0.0 0.0 0.0 0:0.0 1:0.0 2:0.0 3:0.0 4:0.0 5:0.026150627615062757 6:0.026708105922781483 7:0.0 8:0.030581032582705784 9:0.0 10:0.0 11:0.0 12:0.05305 13:0.9999999999999999 14:0.05341296690378167 15:0.875 16:0.11160388974043271 17:0.10572532490340708 18:1.0 19:0.0 20:1.0 21:1.0 22:1.0 23:0.0 24:0.0 25:0.049118904045430595 26:0.28994195503283043 27:0.9805744542721941 28:0.0 29:0.0 30:0.027642276422764227 31:1.0 32:0.02507122507122507 33:0.86275 34:0.9999999999999999 35:0.005443520174142891 36:0.0 37:0.04895104895104895 38:0.13725 39:0.06086956521739131 40:0.875 41:0.09659851147144179 42:0.9690701577088182 43:0.021538461538461538 44:0.020596804983422087 45:0.352632757719674 46:0.12499999999999999 47:0.16279069767441862 48:0.021538461538461538 49:0.0018845352849308492 50:0.9478574289146976 51:0.023149097334312488 52:0.038411308289160326 53:0.15750742539485044 54:0.1646343820051016 55:0.0 
-0.31086993212855507 0.370648013575969 0.08224332842806985 0.0 0.1772007920520531 0.0 0.7767320132365427 0.9384683778054459 0.5946068554711745 0:0.0 1:0.0 2:0.0 3:0.0 4:0.0 5:0.02458158995815899 6:0.024358196887002224 7:0.0 8:0.013929535044736291 9:0.0 10:0.0 11:0.0 12:0.45101 13:0.527077119883041 14:0.14612259932416793 15:0.71429 16:0.15639369801743852 17:0.15422667134995902 18:1.0 19:0.0 20:1.0 21:1.0 22:0.0 23:0.0 24:0.047619047619047616 25:0.09644244091875963 26:0.1765176283707697 27:0.4843824466468277 28:0.2425315761970259 29:0.16429357373125109 30:0.023848238482384824 31:0.91667 32:0.0 33:0.0 34:0.2857142857142857 35:0.014528492575604447 36:0.18519999999999998 37:0.3076923076923077 38:0.91667 39:0.052173913043478265 40:0.85714 41:0.06873458224464266 42:0.6361571339829589 43:0.01846153846153846 44:0.017649619880103155 45:0.40544049663188475 46:0.13621255813953487 47:0.13953488372093026 48:0.01846153846153846 49:0.0019957185371968153 50:0.8591409691629956 51:0.20565792269468913 52:0.29730352615810096 53:0.07734200967308194 54:0.08545257787740587 55:0.0 
-0.3335832969711365 0.1884252585752538 0.3704681681738 0.0 0.0 0.0 0.0 0.0 0.41648697709875715 0:0.0 1:0.0 2:0.0 3:0.0 4:0.0 5:0.1155857740585774 6:0.09662421669698808 7:0.0 8:0.010849582019513226 9:0.0 10:0.0 11:0.0 12:0.2995 13:0.8031432748538011 14:0.42748314141857946 15:0.56667 16:0.6313331825682004 17:0.6314541622760801 18:1.0 19:0.0 20:1.0 21:1.0 22:1.0 23:0.0 24:0.23809523809523808 25:0.21319985168705968 26:0.23134210626526605 27:0.7717221619714875 28:0.0 29:0.2539235179429763 30:0.11707317073170731 31:0.97297 32:0.11794871794871795 33:0.93243 34:0.14285714285714285 35:0.04700769649381948 36:0.0797 37:0.06293706293706294 38:0.04054 39:0.026086956521739132 40:0.1 41:0.0363960816963778 42:0.8775730828782555 43:0.08923076923076924 44:0.07421547941994039 45:0.4343666622639017 46:0.14883720930232558 47:0.16279069767441862 48:0.08923076923076922 49:0.0019431992744865887 50:0.9831898277933521 51:0.061717879229556294 52:0.08873012214796036 53:0.1272338899034699 54:0.1421794078998222 55:0.0 
-0.0 0.17847250856594649 0.0 0.5473065099415946 0.0 0.0 0.0 0.0 0.0 0:0.0 1:0.0 2:0.0 3:0.5 4:0.0 5:0.048117154811715475 6:0.04132555083889226 7:0.0 8:0.010789093964108045 9:0.0 10:0.0 11:0.0 12:0.33443 13:0.8031432748538011 14:0.23575653798912194 15:0.72222 16:0.3060574080123293 17:0.30625804940873436 18:1.0 19:0.0 20:1.0 21:1.0 22:1.0 23:0.0 24:0.09523809523809523 25:0.11345939933259175 26:0.23134210626526605 27:0.6858739337808984 28:0.0 29:0.39711792753315445 30:0.04607046070460705 31:0.91398 32:0.04615384615384615 33:0.87097 34:0.14285714285714285 35:0.023366244266500816 36:0.0 37:0.027972027972027972 38:0.04301 39:0.017391304347826087 40:0.11111 41:0.036327285337811176 42:0.815446378074673 43:0.05230769230769231 44:0.04073590318943479 45:0.31038952984213214 46:0.09689930232558139 47:0.06976744186046512 48:0.052307692307692305 49:0.0015520746372674969 50:0.9129655586704045 51:0.061717879229556294 52:0.08865329953138204 53:0.1272338899034699 54:0.14218907010898968 55:0.11111 
-0.0 0.0 0.0 0.0 0.0 0.0 5.006036905048713 2.384877112357006 0.6384860267154399 0:0.0 1:0.0 2:0.0 3:0.0 4:0.0 5:0.010983263598326359 6:0.019228825550838893 7:0.0 8:0.018104445317804183 9:0.0 10:0.0 11:0.0 12:0.06554 13:0.9118421052631579 14:0.04646829919569131 15:1.0 16:0.10150262582606731 17:0.09603676384498303 18:1.0 19:0.0 20:1.0 21:1.0 22:0.0 23:0.0 24:0.0 25:0.07442967819994925 26:0.26369931945404 27:0.42857973799061094 28:0.0 29:0.0 30:0.011924119241192412 31:1.0 32:0.011965811965811965 33:0.95455 34:0.25 35:0.014248620073077822 36:0.0 37:0.006993006993006993 38:0.04545 39:0.008695652173913044 40:0.25 41:0.07178689415329231 42:0.42355155437291975 43:0.00923076923076923 44:0.018207798876943862 45:0.30364434081994796 46:0.10465116279069768 47:0.11627906976744186 48:0.00923076923076923 49:0.0018922397236233637 50:0.42436924309171004 51:0.009170173823254218 52:0.02657102250902666 53:0.20111782295450442 54:0.2097665610265131 55:0.0 
-0.0 0.0 0.0 0.0 0.0 0.6687756591192119 1.804178488243833 0.0 0.0 0:0.0 1:0.0 2:0.0 3:0.0 4:0.0 5:0.015690376569037653 6:0.009980796442288256 7:0.0 8:0.008417715302202833 9:0.0 10:0.0 11:0.0 12:0.04685 13:0.6220029239766082 14:0.043825457744527105 15:0.8 16:0.06829241735139166 17:0.06872731530265777 18:1.0 19:0.0 20:1.0 21:1.0 22:0.0 23:0.0 24:0.0 25:0.02835509240286478 26:0.1774206709715324 27:0.535432435576537 28:0.0 29:0.0 30:0.016260162601626015 31:0.96774 32:0.014245014245014244 33:0.80645 34:0.25 35:0.0065645650314856575 36:0.14285 37:0.03496503496503497 38:0.16129 39:0.034782608695652174 40:0.8 41:0.08481327404678433 42:0.5291506346366022 43:0.012307692307692308 44:0.007602397936970429 45:0.3083677418984339 46:0.12093023255813955 47:0.11627906976744186 48:0.012307692307692308 49:0.0019578417417399005 50:0.5730376451742091 51:0.05060929467943533 52:0.0734808327571637 53:0.1726680246442835 54:0.1927900595192084 55:0.0 
-0.18616093060153566 -0.7561542120077419 0.0 0.5395652355188939 0.0 1.0058187313774904 2.0773641038316986 1.3947941410513396 0.8767702127619632 0:0.0 1:0.0 2:0.0 3:1.0 4:0.0 5:0.019874476987447695 6:0.0156155245603396 7:0.0 8:0.03196608560647343 9:0.0 10:0.0 11:0.0 12:0.27574 13:0.2659919590643275 14:0.046601806574342056 15:0.25 16:0.06720355805714 17:0.0634293408266011 18:0.56187 19:0.0 20:1.0 21:0.0 22:0.0 23:0.0 24:0.047619047619047616 25:0.0760298967663876 26:0.07144372575793018 27:0.1408666348943069 28:0.0 29:0.02679381503001757 30:0.014634146341463414 31:0.69231 32:0.013105413105413105 33:0.58974 34:0.2857142857142857 35:0.028839306538132627 36:0.21739999999999998 37:0.027972027972027972 38:0.10256 39:0.034782608695652174 40:0.5 41:0.06402834971575871 42:0.1520828504408615 43:0.021538461538461538 44:0.01720307668263059 45:0.09545789712461165 46:0.09011627906976744 47:0.06976744186046512 48:0.021538461538461538 49:0.0015728618313663215 50:0.15613736483780538 51:0.533102090874186 52:0.5410712913881848 53:0.395362138513717 54:0.4108371338022725 55:0.3333333333333333 
-0.4493524966404813 -0.0 1.3603649834152027 0.6017562366120636 1.6913706957579067 3.9926278839793587 6.552229666970776 1.6927536128845222 3.6174299345839476 0:0.0 1:0.0 2:0.0 3:1.0 4:0.0 5:0.010983263598326359 6:0.008730038407115424 7:0.0 8:0.008636212971727675 9:0.0 10:0.0 11:0.0 12:0.08287 13:0.2659722222222222 14:0.04060977813030651 15:0.25 16:0.02749788510021694 17:0.026021543144830815 18:0.58867 19:0.0 20:0.0 21:0.0 22:0.0 23:0.0 24:0.0 25:0.03620006635052593 26:0.07143828574226294 27:0.15355994280975238 28:0.0 29:0.0 30:0.008672086720867209 31:0.72727 32:0.007977207977207976 33:0.63636 34:0.3214285714285714 35:0.011031641141257873 36:0.2 37:0.013986013986013986 38:0.09091 39:0.017391304347826087 40:0.5 41:0.05754323991536644 42:0.15175834669979696 43:0.00923076923076923 44:0.008171740513747949 45:0.10517248310199676 46:0.10465116279069768 47:0.13953488372093026 48:0.00923076923076923 49:0.0018922397236233637 50:0.15580696836203445 51:0.058823310134533166 52:0.07645770914957364 53:0.395362138513717 54:0.4108371338022725 55:0.3333333333333333 
-0.0 -0.0 0.0 0.0 0.0 0.480859153690192 0.0 0.0 0.0 0:0.0 1:0.0 2:0.0 3:0.0 4:0.0 5:0.020920502092050205 6:0.013985748938750759 7:1.0 8:0.011855658859415748 9:0.0 10:0.0 11:0.0 12:0.07482 13:0.3110014619883041 14:0.04175965631403659 15:0.5 16:0.032657402986824804 17:0.033075752253834446 18:1.0 19:0.0 20:1.0 21:0.0 22:0.0 23:0.0 24:0.0 25:0.027340319653416073 26:0.08484248434635493 27:0.3332889270824343 28:0.0 29:0.0 30:0.015176151761517615 31:0.68293 32:0.013675213675213675 33:0.58537 34:0.3214285714285714 35:0.004734509834408769 36:0.0 37:0.027972027972027972 38:0.09756 39:0.034782608695652174 40:0.5 41:0.025809866521024308 42:0.3293787144088933 43:0.021538461538461538 44:0.013173024325440683 45:0.1139315925183624 46:0.09593023255813954 47:0.09302325581395349 48:0.021538461538461538 49:0.0016300871212011202 50:0.3567080496595915 51:0.1176410286996619 52:0.14273642160251976 53:0.3774245419334123 54:0.4194848110071886 55:0.6666666666666666 
-0.6300758045593295 -0.868535921937696 0.3605246571416957 1.0516953919384537 0.8149268415718822 0.020651208040997834 0.0 0.34442716354466946 0.385867678369793 0:0.0 1:0.0 2:0.0 3:0.0 4:0.0 5:0.05125523012552301 6:0.07611936527188196 7:1.0 8:0.019367287780651155 9:0.0 10:0.0 11:0.0 12:0.49027 13:0.4855263157894737 14:0.16628480218673053 15:0.25 16:0.12376561047315125 17:0.12612691722280764 18:1.0 19:0.0 20:1.0 21:0.0 22:0.0 23:0.0 24:0.047619047619047616 25:0.11833811447417207 26:0.13679463396854583 27:0.5646683228321931 28:0.0 29:0.6614887168696794 30:0.037940379403794036 31:0.70707 32:0.035897435897435895 33:0.63636 34:0.3214285714285714 35:0.007262691440565966 36:0.16949999999999998 37:0.04895104895104895 38:0.07071 39:0.06086956521739131 40:0.35 41:0.06886796293982284 42:0.8757521533141105 43:0.05846153846153847 44:0.08499949763890285 45:0.15405236227481292 46:0.09186046511627907 47:0.09302325581395349 48:0.05846153846153846 49:0.0014969199993675097 50:0.9531337605126151 51:0.04853482243039428 52:0.07181954367365753 53:0.5906174115474925 54:0.6640932982917214 55:0.6666666666666666 
-0.0 -0.0 0.0 0.0 0.0 0.23050820761009316 0.0 0.0 0.14442826159376232 0:0.0 1:0.0 2:0.0 3:1.0 4:0.0 5:0.03399581589958159 6:0.01601980998585001 7:1.0 8:0.013625860317600068 9:0.0 10:0.0 11:0.0 12:0.39652 13:0.2509502923976608 14:0.058728012301998644 15:0.25 16:0.06328785251819653 17:0.06419037583421144 18:1.0 19:0.0 20:0.0 21:0.0 22:0.0 23:0.0 24:0.047619047619047616 25:0.05134359814999122 26:0.06696659286378745 27:0.24296004563211362 28:0.0 29:0.14631005926297708 30:0.025474254742547425 31:0.71212 32:0.02336182336182336 33:0.62121 34:0.07142857142857142 35:0.011955220399595741 36:0.1948 37:0.04195804195804196 38:0.09091 39:0.052173913043478265 40:0.5 41:0.03374812389522174 42:0.3103813382534282 43:0.033846153846153845 44:0.013552586043292363 45:0.10821085032704884 46:0.10465116279069768 47:0.13953488372093026 48:0.033846153846153845 49:0.0016578123438607429 50:0.347867440929115 51:0.17531061168041573 52:0.2101962817853576 53:0.1748667944369745 54:0.19678055190538762 55:0.5 
-0.01368530264467195 -0.0 0.8530233024928205 0.0 0.0 0.0 0.0 0.0 0.0 0:0.0 1:0.0 2:0.0 3:1.0 4:0.0 5:0.03347280334728033 6:0.012659187386294724 7:0.0 8:0.013555496661312406 9:0.0 10:0.0 11:0.0 12:0.40495 13:0.2509627192982456 14:0.05913366509117528 15:0.25 16:0.06329204043855903 17:0.0637805877531905 18:0.63231 19:0.0 20:0.0 21:0.0 22:0.0 23:0.0 24:0.047619047619047616 25:0.026618269812462188 26:0.06697203287945469 27:0.23987349847455147 28:0.0 29:0.15265718201648554 30:0.025474254742547425 31:0.72308 32:0.02336182336182336 33:0.63077 34:0.9999999999999999 35:0.011956775246832 36:0.19735 37:0.04195804195804196 38:0.09231 39:0.052173913043478265 40:0.5 41:0.03365826742688983 42:0.31037948394633635 43:0.033846153846153845 44:0.011688268193844402 45:0.1066483664784963 46:0.10271325581395348 47:0.13953488372093026 48:0.033846153846153845 49:0.0016402386939984115 50:0.347867440929115 51:0.061717879229556294 52:0.08874932780210494 53:0.7647178349956854 54:0.8476752724742984 55:0.5 
-0.4157954034907785 -0.12489865053578399 1.466482202500826 0.675049332228904 1.4277346241443907 0.12475930954585258 1.4298214237926055 0.3302837933994984 0.4132537857060343 0:0.0 1:0.0 2:0.0 3:0.28571 4:0.16666666666666666 5:0.23274058577405857 6:0.10118506165352739 7:1.0 8:0.011722338247502288 9:0.15789473684210525 10:0.060525605256052564 11:0.0 12:0.51595 13:0.09161038011695906 14:0.07884125686716166 15:0.23077 16:0.07499308993140187 17:0.0757815244116614 18:0.3971 19:0.0 20:0.0 21:0.0 22:0.0 23:0.0 24:0.09523809523809523 25:0.04865054739183889 26:0.04922126175723387 27:0.2772544928493427 28:0.0 29:0.290645329421076 30:0.20542005420054202 31:0.84978 32:0.20398860398860397 33:0.80269 34:0.21428571428571425 35:0.010132939438700148 36:0.21835 37:0.14685314685314685 38:0.04709 39:0.06086956521739131 40:0.53846 41:0.011852629775906393 42:0.41755843385223035 43:0.036923076923076927 44:0.014635453297163335 45:0.18604434541413747 46:0.7745974418604651 47:0.06976744186046512 48:0.03692307692307692 49:0.003938285859469533 50:0.46781137364837805 51:0.5240418845825522 52:0.5828435891526466 53:0.8707868409962072 54:0.9683272783489216 55:0.3333333333333333 
-0.7246664320599879 -1.9606666948326967 3.652146311575173 2.597205413482567 3.9013608591032773 0.8065179566877343 20.937416931421698 3.1005641459548796 2.4802528048123107 0:0.0 1:0.0 2:0.0 3:0.0 4:0.0 5:0.019351464435146442 6:0.013922579341014756 7:0.0 8:0.012055639777285946 9:0.0 10:0.0 11:0.0 12:0.07422 13:0.3110014619883041 14:0.04171637270706297 15:0.5 16:0.032657402986824804 17:0.03292939936775554 18:1.0 19:0.0 20:0.0 21:0.0 22:0.0 23:0.0 24:0.0 25:0.025935249692640945 26:0.08484248434635493 27:0.32885705815467636 28:0.0 29:0.0 30:0.014634146341463414 31:0.71053 32:0.013105413105413105 33:0.60526 34:0.3214285714285714 35:0.004834020057529349 36:0.0 37:0.027972027972027972 38:0.10526 39:0.034782608695652174 40:0.5 41:0.027477827214435438 42:0.32499884105806764 43:0.021538461538461538 44:0.014322873058932541 45:0.1122195678016229 46:0.0872093023255814 47:0.09302325581395349 48:0.021538461538461538 49:0.0015433079810240077 50:0.3519723668402083 51:0.1176410286996619 52:0.14273642160251976 53:0.3359727768969877 54:0.3720433639947437 55:0.6666666666666666 
-0.15987517273857546 -0.0 0.0 0.0 0.0 0.0 0.0 0.0 0.16113701676179654 0:0.0 1:0.0 2:0.0 3:1.0 4:0.0 5:0.032949790794979075 6:0.014705882352941176 7:1.0 8:0.011591486535809443 9:0.05263157894736842 10:0.14062640626406264 11:0.0 12:0.2347 13:0.3559192251461988 14:0.053170200945210994 15:0.07692 16:0.15843740315434163 17:0.14319166373960895 18:0.31809 19:0.0 20:0.0 21:0.0 22:0.0 23:0.0 24:0.14285714285714285 25:0.06088636496692231 26:0.09781964172056816 27:0.12418426967978716 28:0.0 29:0.11417099395787889 30:0.02168021680216802 31:0.625 32:0.018803418803418803 33:0.51563 34:0.42857142857142855 35:0.06997900956231051 36:0.39475000000000005 37:0.04895104895104895 38:0.10938 39:0.06086956521739131 40:0.53846 41:0.024981502203589485 42:0.15175092947142976 43:0.036923076923076927 44:0.015361085993056255 45:0.10647252387542855 46:0.09123441860465116 47:0.06976744186046512 48:0.03692307692307692 49:0.0015232468596815456 50:0.1498698438125751 51:0.05907679461420036 52:0.07289506030575402 53:0.5767412049208294 54:0.5735583983922083 55:0.25 
-0.0 -0.15497670770630512 0.0 0.8365399454892273 0.0 0.0 0.0 0.0 0.0 0:0.0 1:0.0 2:0.0 3:0.0 4:0.0 5:0.051778242677824264 6:0.06776834445118253 7:1.0 8:0.022285527841423628 9:0.0 10:0.0 11:0.0 12:0.53829 13:0.39473684210526316 14:0.16498374389333142 15:0.25 16:0.11361409151443579 17:0.10944268820981148 18:1.0 19:0.0 20:0.0 21:0.0 22:0.0 23:0.0 24:0.047619047619047616 25:0.11833811447417207 26:0.10976863613367208 27:0.5670803327841969 28:0.0 29:0.6198444105553733 30:0.037940379403794036 31:0.7 32:0.035897435897435895 33:0.63 34:0.3214285714285714 35:0.006654746171188681 36:0.16805 37:0.04895104895104895 38:0.07 39:0.06086956521739131 40:0.35 41:0.07575883085502641 42:0.8581343816349426 43:0.05846153846153847 44:0.08032195764537774 45:0.15473890646804453 46:0.09302325581395349 47:0.09302325581395349 48:0.05846153846153846 49:0.0015082548018418372 50:0.9329495394473368 51:0.048422991042305824 52:0.07159867865099485 53:0.4083139336530936 54:0.4336496096467496 55:0.6666666666666666 
-0.4347964100404209 -0.6840847240506511 2.721188057220649 1.7459753692786815 2.6445685891639514 0.0045607819269773715 4.433571194498501 0.0 0.0 0:0.0 1:0.0 2:0.0 3:0.25 4:0.0 5:0.037133891213389114 6:0.015994542146755608 7:0.0 8:0.0057500686138232575 9:0.0 10:0.0 11:0.0 12:0.42819 13:0.3454195906432748 14:0.07448354738307168 15:0.5 16:0.0713370354549338 17:0.0646001639152324 18:0.43521 19:0.0 20:1.0 21:0.0 22:0.0 23:0.0 24:0.047619047619047616 25:0.034268095154460124 26:0.09572795569651239 27:0.29449318708040784 28:2.0039200110707995E-5 29:0.3710325656815242 30:0.026558265582655827 31:0.68056 32:0.0245014245014245 33:0.59722 34:0.3214285714285714 35:0.008189380393376352 36:0.1807 37:0.04195804195804196 38:0.08333 39:0.052173913043478265 40:0.5 41:0.011693976949007857 42:0.46924909834317663 43:0.033846153846153845 44:0.01335164160442971 45:0.1266890824829297 46:0.11627906976744186 47:0.16279069767441862 48:0.033846153846153845 49:0.0017587095654115722 50:0.48302963556267525 51:0.5398753452794108 52:0.549224091572559 53:0.8380411005639288 54:0.8355878488057509 55:0.5 
-0.2617202376362477 -0.007983367465824807 1.11301280315286 0.46315495932956774 0.41398706390156415 0.0 1.4086247028744125 0.0881197077684392 0.14934794171457752 0:0.0 1:0.0 2:0.0 3:0.0 4:0.0 5:0.05125523012552301 6:0.06088285829795836 7:1.0 8:0.019367287780651155 9:0.0 10:0.0 11:0.0 12:0.4914 13:0.4855263157894737 14:0.16793635752955424 15:0.25 16:0.12376561047315125 17:0.12191195410373491 18:1.0 19:0.0 20:0.0 21:0.0 22:0.0 23:0.0 24:0.047619047619047616 25:0.10479480124114512 26:0.13679463396854583 27:0.5696133654059043 28:0.0 29:0.6708839256413722 30:0.03739837398373984 31:0.69697 32:0.035327635327635325 33:0.62626 34:0.3214285714285714 35:0.007158516675736609 36:0.16949999999999998 37:0.04895104895104895 38:0.07071 39:0.06086956521739131 40:0.35 41:0.0686994820617005 42:0.8851516359624317 43:0.05846153846153847 44:0.06637864630429686 45:0.15551963154600218 46:0.09186046511627907 47:0.09302325581395349 48:0.05846153846153846 49:0.0014969199993675097 50:0.9627853424108931 51:0.04853482243039428 52:0.07176192671122378 53:0.47110869172570197 54:0.5119328283218674 55:0.6666666666666666 
-0.0 -0.0 0.0 0.0 0.0 0.0 0.0 0.5200074149536533 0.0 0:0.0 1:0.0 2:0.0 3:1.0 4:0.0 5:0.03399581589958159 6:0.012734990903577926 7:1.0 8:0.013556731111422715 9:0.0 10:0.0 11:0.0 12:0.45399 13:0.2509868421052631 14:0.06346638890917088 15:0.25 16:0.0635307518992219 17:0.06430745814307458 18:0.39704 19:0.0 20:0.0 21:0.0 22:0.0 23:0.0 24:0.047619047619047616 25:0.027106141326620217 26:0.06697747289512195 27:0.24008739900705123 28:0.0 29:0.20868868598343726 30:0.024390243902439025 31:0.68182 32:0.02222222222222222 33:0.59091 34:0.9999999999999999 35:0.010832620695016715 36:0.1948 37:0.04195804195804196 38:0.09091 39:0.052173913043478265 40:0.5 41:0.03365826742688983 42:0.33750243377805805 43:0.033846153846153845 44:0.011319870055929536 45:0.10676706884967237 46:0.10465116279069768 47:0.06976744186046512 48:0.033846153846153845 49:0.0016578123438607429 50:0.37825390468562275 51:0.5240101990225938 52:0.5829876315587309 53:0.15175901583415286 54:0.17076022261729917 55:0.5 
-0.0 -0.0 0.0 0.0 0.0 0.0 0.0 0.00208042195526986 0.0 0:0.0 1:0.0 2:0.0 3:1.0 4:0.0 5:0.03556485355648535 6:0.014819587628865979 7:1.0 8:0.013556731111422715 9:0.0 10:0.0 11:0.0 12:0.39878 13:0.25097404970760234 14:0.05970232322304056 15:0.25 16:0.06329204043855903 17:0.06301955274558015 18:0.63231 19:0.0 20:0.0 21:0.0 22:0.0 23:0.0 24:0.047619047619047616 25:0.02890150849872178 26:0.06697203287945469 27:0.2519466824777938 28:0.0 29:0.15714147829276295 30:0.026016260162601626 31:0.69565 32:0.02393162393162393 33:0.6087 34:0.9999999999999999 35:0.01132395242167457 36:0.1875 37:0.04195804195804196 38:0.08696 39:0.052173913043478265 40:0.5 41:0.03365826742688983 42:0.32446480061563 43:0.033846153846153845 44:0.013228842225124755 45:0.11286246719461561 46:0.11046511627906976 47:0.13953488372093026 48:0.033846153846153845 49:0.0017092021600610718 50:0.36364637565078095 51:0.061717879229556294 52:0.08874932780210494 53:0.11862068273495358 54:0.13140604467805517 55:0.5 
-0.22170567767738206 -1.304254091032945 0.09945830400544553 0.47493460879753574 0.0 1.0884705218336481 1.7757174538732416 0.8027615166610861 3.3985394238805373 0:0.0 1:0.0 2:0.0 3:1.0 4:0.0 5:0.032949790794979075 6:0.018900343642611683 7:0.0 8:0.013555496661312406 9:0.0 10:0.0 11:0.0 12:0.42443 13:0.2509868421052631 14:0.06006780131809813 15:0.25 16:0.06329204043855903 17:0.06290247043671701 18:1.0 19:0.0 20:0.0 21:0.0 22:0.0 23:0.0 24:0.047619047619047616 25:0.03926389945943836 26:0.06697747289512195 27:0.23280070849860593 28:0.0 29:0.16721039322046988 30:0.024932249322493223 31:0.71875 32:0.02279202279202279 33:0.625 34:0.9999999999999999 35:0.011956775246832 36:0.2 37:0.04195804195804196 38:0.09375 39:0.052173913043478265 40:0.5 41:0.03365686341957214 42:0.31037948394633635 43:0.033846153846153845 44:0.017917545798586693 45:0.10302900656394824 46:0.10077511627906977 47:0.13953488372093026 48:0.033846153846153845 49:0.0016224230198839597 50:0.34788746495794953 51:0.061717879229556294 52:0.08875893062917724 53:0.20857081217764759 54:0.2291972636623637 55:0.5 
-0.0 -0.0 0.0 0.0 0.049843512650867686 0.0 0.7776367495570823 0.0 0.0 0:0.0 1:0.0 2:0.0 3:0.0 4:0.0 5:0.029811715481171543 6:0.042336264402668286 7:1.0 8:0.002887378808014727 9:0.05263157894736842 10:0.15516155161551615 11:0.0 12:0.10101 13:0.29802631578947364 14:0.043589001968113564 15:0.4 16:0.031170691258135038 17:0.038666432502048945 18:1.0 19:0.0 20:0.0 21:0.0 22:0.0 23:0.0 24:0.0 25:0.05212419257264407 26:0.08098007322261087 27:0.48838182370843486 28:0.0 29:0.0 30:0.022764227642276424 31:0.72414 32:0.02165242165242165 33:0.65517 34:0.3214285714285714 35:0.0021721215890538755 36:0.2985 37:0.027972027972027972 38:0.06897 39:0.034782608695652174 40:0.4 41:0.0197529789525263 42:0.48265203000268886 43:0.027692307692307693 44:0.03723053908927515 45:0.13074718749461617 46:0.11162790697674417 47:0.09302325581395349 48:0.027692307692307693 49:0.0017405846380860767 50:0.7359030837004406 51:0.07492703001927228 52:0.14859414611661675 53:0.733305404483333 54:0.9875260879647523 55:0.6666666666666666 
-0.04959026530462986 -0.0 0.0 0.0 0.0 0.0 0.0 0.0 0.0 0:0.0 1:0.0 2:0.0 3:1.0 4:0.0 5:0.032949790794979075 6:0.029904487568223167 7:0.0 8:0.013625860317600068 9:0.0 10:0.0 11:0.0 12:0.42444 13:0.2509868421052631 14:0.06006821060868513 15:0.25 16:0.06329204043855903 17:0.06389767006205362 18:0.3976 19:0.0 20:0.0 21:0.0 22:0.0 23:0.0 24:0.047619047619047616 25:0.07940596764436117 26:0.06697747289512195 27:0.23280164665883618 28:0.0 29:0.1672123236106017 30:0.024932249322493223 31:0.71875 32:0.02279202279202279 33:0.625 34:0.9999999999999999 35:0.011956775246832 36:0.2 37:0.04195804195804196 38:0.09375 39:0.052173913043478265 40:0.5 41:0.014017609059778419 42:0.3103813382534282 43:0.033846153846153845 44:0.02794244058184579 45:0.10302900656394824 46:0.10077511627906977 47:0.13953488372093026 48:0.033846153846153845 49:0.0016224230198839597 50:0.347867440929115 51:0.5240120628790619 52:0.5829876315587309 53:0.8279302715286281 54:0.9191852825229959 55:0.5 
-0.0 -0.48174056800640064 0.0 0.0 0.0846950663062621 0.0 1.5226058119920367 0.3222221064344865 0.2394410017578254 0:0.0 1:0.0 2:0.0 3:0.0 4:0.0 5:0.02353556485355648 6:0.02413078633515262 7:1.0 8:0.016063899285462008 9:0.0 10:0.0 11:0.0 12:0.08509 13:0.5833333333333334 14:0.04649417307106307 15:0.22222 16:0.06386159760785991 17:0.06082425945439645 18:1.0 19:0.0 20:1.0 21:0.0 22:0.0 23:0.0 24:0.0 25:0.05058251858790469 26:0.16590959781964174 27:0.5182490927990573 28:0.0 29:0.0 30:0.016802168021680216 31:0.67391 32:0.015384615384615384 33:0.58696 34:0.21428571428571425 35:0.0062769182927777355 36:0.18519999999999998 37:0.027972027972027972 38:0.08696 39:0.034782608695652174 40:0.44444 41:0.06878372250076167 42:0.512168890289921 43:0.024615384615384615 44:0.02462685734061199 45:0.1570734438618757 46:0.09560720930232558 47:0.06976744186046512 48:0.024615384615384615 49:0.0016089099991405452 50:0.556257509010813 51:0.04869138637371814 52:0.07178113236536837 53:0.38149722049408985 54:0.4000830949988404 55:0.6666666666666666 
-0.0 -4.963482958861566 -0.0 0.0 0.8111162767304231 0.0 1.7735504536530888 0.0 0.0 0:0.0 1:0.4 2:0.0 3:0.0 4:0.0 5:0.04864016736401673 6:0.04113604204568425 7:0.0 8:0.020751106354308487 9:0.05263157894736842 10:0.09576095760957609 11:0.0 12:0.33492 13:0.4659184941520467 14:0.09529708128801673 15:0.6 16:0.09619653072677173 17:0.09474885844748858 18:1.0 19:0.0 20:0.0 21:0.0 22:0.0 23:0.0 24:0.047619047619047616 25:0.0871338524286244 26:0.11958242439738226 27:0.4743844730729251 28:0.38647028784936843 29:0.2608188714939289 30:0.048238482384823846 31:0.94681 32:0.04672364672364672 33:0.87234 34:0.25 35:0.006790017880743217 36:0.19415000000000002 37:0.04895104895104895 38:0.07447 39:0.06086956521739131 40:0.7 41:0.16316390241025933 42:0.7192541976876791 43:0.027692307692307693 44:0.02015026178594952 45:0.27415079278482535 46:0.19534883720930235 47:0.23255813953488375 48:0.027692307692307693 49:0.0023187940221945924 50:0.971305566680016 51:0.16383298354960285 52:0.2434220634554813 53:0.16921371089124812 54:0.18470279044600757 55:0.0 
-0.0 -0.0 -0.0 13.064450440559623 0.0 0.0 0.0 0.0 0.0 0:0.0 1:0.0 2:0.0 3:0.0 4:0.0 5:0.17834728033472802 6:0.12242268041237113 7:0.0 8:0.012193898189640649 9:0.0 10:0.0 11:0.0 12:0.37116 13:0.3100921052631579 14:0.1545583674773513 15:0.4 16:0.16729904264140513 17:0.16792530148694532 18:1.0 19:0.0 20:0.0 21:0.0 22:0.0 23:0.0 24:0.14285714285714285 25:0.12228011630856896 26:0.09220282554413756 27:0.6297569414475438 28:0.005705446545805862 29:0.6185027894137406 30:0.16260162601626016 31:0.87719 32:0.14985754985754984 33:0.76901 34:0.25 35:0.012297286791572729 36:0.16625 37:0.2517482517482518 38:0.10526 39:0.22608695652173913 40:0.52 41:0.02637146944809876 42:0.7811324253409607 43:0.15076923076923077 44:0.090637105506994 45:0.13994624798286365 46:0.1358139534883721 47:0.11627906976744186 48:0.15076923076923077 49:0.001833925324654021 50:0.845905086103324 51:0.11837911586104578 52:0.143504647768303 53:0.3108418290553694 54:0.345366004483265 55:0.0 
-0.44525220106551255 -0.0 -0.0 0.0 0.0 0.0 0.0 0.0 0.0 0:0.0 1:0.2 2:0.0 3:0.0 4:0.0 5:0.07112970711297072 6:0.10223367697594501 7:0.0 8:0.004497101751858765 9:0.05263157894736842 10:0.06570065700657007 11:0.0 12:0.38451 13:0.4864766081871345 14:0.13417580357289494 15:0.375 16:0.10301865299729462 17:0.09747102212855638 18:1.0 19:0.0 20:0.0 21:0.0 22:0.0 23:0.0 24:0.047619047619047616 25:0.13096422926058193 26:0.13707751478324257 27:0.6354065423541817 28:2.862742872958285E-5 29:0.7675771673455205 30:0.06395663956639566 31:0.86131 32:0.061538461538461535 33:0.78832 34:0.14285714285714285 35:0.004627225375106896 36:0.26315 37:0.06993006993006994 38:0.07299 39:0.06956521739130435 40:0.5 41:0.2645950070691768 42:0.996623306785837 43:0.046153846153846156 44:0.06136619891266732 45:0.22609516863546825 46:0.1758720930232558 47:0.16279069767441862 48:0.046153846153846156 49:0.002155199073552676 50:0.9986183420104124 51:0.009151535258572804 52:0.02655181685488208 53:0.279468281522808 54:0.2913639174460848 55:0.0 
-0.0 -0.0 -0.0 0.0 0.0 0.0 0.0 0.0 0.6226412697716072 0:0.0 1:0.6000000000000001 2:0.15384615384615385 3:0.07143 4:0.0 5:0.16422594142259414 6:0.17031786941580754 7:0.0 8:0.018790799579136454 9:0.05263157894736842 10:0.02857528575285753 11:0.0 12:0.52113 13:0.3965358187134503 14:0.4090342276905257 15:0.4375 16:0.3392047976815673 17:0.3246107013230301 18:1.0 19:1.0 20:0.0 21:0.0 22:0.0 23:0.0 24:0.19047619047619047 25:0.26741213434030014 26:0.12271587342171544 27:0.7034145279740618 28:0.04946819684471916 29:0.35581143949192134 30:0.14092140921409213 31:0.8254 32:0.12136752136752137 33:0.67619 34:0.46428571428571425 35:0.023734743061494208 36:0.29005 37:0.32867132867132864 38:0.14921 39:0.2956521739130435 40:0.70833 41:0.08604599247171275 42:0.8904438284024219 43:0.1446153846153846 44:0.14014758252676468 45:0.20381449811351093 46:0.12936046511627908 47:0.11627906976744186 48:0.14461538461538462 49:0.0017863406675287035 50:0.9690128153784541 51:0.048644789962014615 52:0.07192517477145272 53:0.31397128178370026 54:0.33168431630207923 55:0.0 
-0.0 -0.0 -0.0 0.0 1.1428458152660728 0.0 0.0 0.0 0.0 0:0.0 1:0.4 2:0.07692307692307693 3:0.0 4:0.0 5:0.09518828451882845 6:0.057269557307459064 7:0.0 8:0.013546855510540239 9:0.05263157894736842 10:0.04918549185491855 11:0.0 12:0.47083 13:0.25032711988304096 14:0.10404043862287222 15:0.46154 16:0.13859084855642387 17:0.1400304414003044 18:0.39697 19:0.0 20:0.0 21:0.0 22:0.0 23:0.0 24:0.14285714285714285 25:0.06252561325449328 26:0.07530613688167423 27:0.2992843713763561 28:0.0 29:0.34304769994015794 30:0.08672086720867209 31:0.87432 32:0.08034188034188033 33:0.77049 34:0.9999999999999999 35:0.020771204229184485 36:0.21635000000000001 37:0.13286713286713286 38:0.10383 39:0.14782608695652175 40:0.65385 41:0.029429397386019174 42:0.4143078335203093 43:0.07692307692307693 44:0.04337050805452293 45:0.12557728862421252 46:0.14042930232558137 47:0.13953488372093026 48:0.07692307692307693 49:0.001890088396937845 50:0.4642871445734882 51:0.5240120628790619 52:0.582958823077514 53:0.7256705432579422 54:0.8086302852284145 55:0.0 
-0.0 -0.0 -0.0 0.0 3.2666102477519634 0.0 0.0 0.0 0.0 0:0.0 1:0.4 2:0.0 3:0.0 4:0.0 5:0.03399581589958159 6:0.06045330503335355 7:0.0 8:0.01233585995232628 9:0.0 10:0.0 11:0.0 12:0.06793 13:0.3265716374269006 14:0.042817736156881094 15:0.6 16:0.034441457061252526 17:0.039222573469148814 18:1.0 19:0.0 20:0.0 21:0.0 22:0.0 23:0.0 24:0.0 25:0.05735417520441816 26:0.08947737769484776 27:0.5309836797646345 28:0.0 29:0.0 30:0.030894308943089432 31:0.86364 32:0.027920227920227917 33:0.74242 34:0.25 35:0.0022109927699603513 36:0.2 37:0.055944055944055944 38:0.12121 39:0.06956521739130435 40:0.8 41:0.028952034898005886 42:0.5247540725219504 43:0.027692307692307693 44:0.04126059144646506 45:0.1479834379468567 46:0.13023255813953488 47:0.11627906976744186 48:0.027692307692307693 49:0.0018922397236233637 50:0.6918802563075691 51:0.19191943666802108 52:0.27238418990550817 53:0.2987065764916013 54:0.37444925407745216 55:0.0 
-0.34323430995609616 -0.0 -0.0 0.0 2.9140365296162885 0.0 0.0 0.0 0.0 0:0.0 1:0.4 2:0.0 3:0.0 4:0.0 5:0.05648535564853556 6:0.09678845765110167 7:0.0 8:0.004495867301748455 9:0.07894736842105263 10:0.12384123841238412 11:1.0 12:0.03531 13:0.4864766081871345 14:0.04423660935003436 15:0.2 16:0.05276360864721797 17:0.05011122819341998 18:1.0 19:0.0 20:0.0 21:0.0 22:0.0 23:0.0 24:0.0 25:0.08122084967702904 26:0.13707751478324257 27:1.0 28:0.0 29:0.0 30:0.05365853658536585 31:0.90826 32:0.04957264957264957 33:0.79817 34:0.25 35:0.0011910129829744228 36:0.36585 37:0.08391608391608392 38:0.11009 39:0.09565217391304348 40:0.73333 41:0.20716829976117832 42:0.9882677990301975 43:0.04307692307692308 44:0.07257443316922872 45:0.18781735799647395 46:0.14573651162790696 47:0.13953488372093026 48:0.043076923076923075 49:0.001963327624787973 50:0.9902482979575491 51:0.009170173823254218 52:0.02657102250902666 53:0.3045540749362821 54:0.3183794542784262 55:0.0 
-0.0 -0.6962128789946664 -0.0 0.0 0.0 0.0 0.0 0.5476510544930646 0.0 0:0.0 1:0.6000000000000001 2:0.07692307692307693 3:0.0 4:0.0 5:0.0794979079497908 6:0.05614513846775823 7:0.0 8:0.013546855510540239 9:0.05263157894736842 10:0.05881558815588156 11:0.0 12:0.5927 13:0.2501480263157895 14:0.12293065454865262 15:0.34783 16:0.138352137095761 17:0.1371911954103735 18:1.0 19:0.0 20:0.0 21:0.0 22:0.0 23:0.0 24:0.14285714285714285 25:0.09273461741115858 26:0.07530613688167423 27:0.23857977551702012 28:0.0 29:0.4027623882786711 30:0.07696476964769648 31:0.9281 32:0.06894586894586895 33:0.79085 34:0.9999999999999999 35:0.020062193889450363 36:0.25715 37:0.14685314685314685 38:0.13725 39:0.14782608695652175 40:0.73913 41:0.0295080217958096 42:0.4265147371056121 43:0.06769230769230769 44:0.04157317168469585 45:0.11200484686992125 46:0.13144581395348837 47:0.13953488372093026 48:0.06769230769230769 49:0.0018296899002419058 50:0.47802362835402484 51:0.061717879229556294 52:0.08875893062917724 53:0.11861064841758817 54:0.1310678673571925 55:0.0 
-0.0 -0.0 -0.0 0.0 0.0 0.0 0.0 0.0 1.1750335334108348 0:0.0 1:0.4 2:0.0 3:0.0 4:0.0 5:0.05491631799163179 6:0.034920153628461695 7:0.0 8:0.013166644876564805 9:0.0 10:0.0 11:0.0 12:0.06759 13:0.3110014619883041 14:0.04449282579864931 15:0.5 16:0.032657402986824804 17:0.03292939936775554 18:1.0 19:1.0 20:0.0 21:0.0 22:0.0 23:0.0 24:0.0 25:0.025935249692640945 26:0.08484248434635493 27:0.8634263863193723 28:0.0 29:0.0 30:0.051490514905149054 31:0.89623 32:0.04501424501424501 33:0.74528 34:0.46428571428571425 35:1.8502682111482547E-4 36:0.24795 37:0.11188811188811189 38:0.15094 39:0.10434782608695653 40:0.75 41:0.09021308619060521 42:0.853296494432443 43:0.046153846153846156 44:0.026826082588164372 45:0.15064668959932925 46:0.1308139534883721 47:0.13953488372093026 48:0.046153846153846156 49:0.0018485140087401953 50:0.9240388466159392 51:0.11837911586104578 52:0.143504647768303 53:0.287544652712276 54:0.31871763159928884 55:0.0 
-0.0 -0.0 -0.0 0.0 5.986140975140698 0.010773293186100642 0.0 0.15130630549267673 0.0 0:0.0 1:0.6000000000000001 2:0.0 3:0.0 4:0.0 5:0.057531380753138066 6:0.025646856680816656 7:0.0 8:0.011570500883934175 9:0.0 10:0.0 11:0.0 12:0.22861 13:0.35439766081871343 14:0.061823919492688006 15:0.61538 16:0.23884966203482677 17:0.21587050696639737 18:0.32881 19:0.0 20:0.0 21:0.0 22:0.0 23:0.0 24:0.23809523809523808 25:0.09314442948305134 26:0.09803452233942435 27:0.13867477362193645 28:0.0 29:0.08969557747620795 30:0.05799457994579946 31:0.96396 32:0.0547008547008547 33:0.86486 34:0.25 35:0.0940029542097489 36:0.12194999999999999 37:0.07692307692307693 38:0.0991 39:0.08695652173913043 40:0.76923 41:0.024956230071871133 42:0.17100790861974652 43:0.036923076923076927 44:0.015361085993056255 45:0.18774419552870505 46:0.17531302325581394 47:0.20930232558139533 48:0.03692307692307692 49:0.0021705945051459195 50:0.16889267120544657 51:0.05907679461420036 52:0.07289506030575402 53:0.17938098296172916 54:0.17774599984540462 55:0.0 
-0.0 -0.0 -0.0 0.0 0.0 0.0 0.0 0.0 0.6073067214014352 0:0.0 1:0.0 2:0.0 3:0.0 4:0.0 5:0.05805439330543932 6:0.09869617950272894 7:0.0 8:0.004495867301748455 9:0.07894736842105263 10:0.12055620556205562 11:0.0 12:0.15274 13:0.4864766081871345 14:0.06365241806496835 15:0.42857 16:0.10301865299729462 17:0.09747102212855638 18:1.0 19:1.0 20:0.0 21:0.0 22:0.0 23:0.0 24:0.047619047619047616 25:0.15248912046523427 26:0.13707751478324257 27:0.5473226783348781 28:0.0 29:0.1967646661390267 30:0.05582655826558266 31:0.91964 32:0.05242165242165242 33:0.82143 34:0.46428571428571425 35:0.008777112648682268 36:0.32 37:0.07692307692307693 38:0.09821 39:0.0782608695652174 40:0.64286 41:0.24533483468515835 42:0.635406139610781 43:0.04 44:0.06592093952688749 45:0.22271562541275922 46:0.16279069767441862 47:0.16279069767441862 48:0.04 49:0.0020846490040594464 50:0.6366539847817382 51:0.009170173823254218 52:0.02657102250902666 53:0.279468281522808 54:0.2913639174460848 55:0.0 
-0.24509158642597764 -0.0 -2.165384749435061 0.0 2.911588723360144 0.0 2.2352215788165926 0.0 1.2933752316360372 0:0.0 1:0.2 2:0.07692307692307693 3:0.0 4:0.0 5:0.0653765690376569 6:0.027668283808368707 7:0.0 8:0.013546855510540239 9:0.05263157894736842 10:0.07141571415714157 11:0.0 12:0.52477 13:0.24991301169590643 14:0.0936990999003891 15:0.23529 16:0.10092050489567893 17:0.10265191429574991 18:0.41991 19:0.0 20:0.0 21:0.0 22:0.0 23:0.0 24:0.09523809523809523 25:0.04246433659231504 26:0.07276205915473037 27:0.2687560182978771 28:7.614896042069038E-6 29:0.35428257050749956 30:0.05420054200542006 31:0.79365 32:0.04957264957264957 33:0.69048 34:0.9999999999999999 35:0.014093135349451918 36:0.3169 37:0.09090909090909091 38:0.10317 39:0.09565217391304348 40:0.64706 41:0.029509425803127282 42:0.4250980464874788 43:0.04923076923076923 44:0.019424629090056603 45:0.1302151803506515 46:0.1491106976744186 47:0.13953488372093026 48:0.04923076923076923 49:0.0019769213202820947 50:0.4763916700040048 51:0.5240101990225938 52:0.5829876315587309 53:0.6541810491882238 54:0.733458297905233 55:0.0 
-0.0 -0.0 -0.0 0.0 3.5325273103391415 0.0 0.0 0.0 0.0 0:0.0 1:0.0 2:0.0 3:0.0 4:0.0 5:0.10669456066945607 6:0.06762937133616333 7:0.0 8:0.013214788430866889 9:0.05263157894736842 10:0.043920439204392044 11:0.0 12:0.52096 13:0.2507595029239766 14:0.12938435429679426 15:0.45161 16:0.17609786332303107 17:0.17632595714787497 18:0.6323 19:0.0 20:0.0 21:0.0 22:0.0 23:0.0 24:0.19047619047619047 25:0.14883984153933222 26:0.07035463462134771 27:0.2734436859940183 28:0.0 29:0.30381059012026335 30:0.0981029810298103 31:0.88293 32:0.09116809116809116 33:0.78049 34:0.07142857142857142 35:0.027105651869703803 36:0.23404999999999998 37:0.14685314685314685 38:0.10244 39:0.16521739130434782 40:0.6129 41:0.04168076524014843 42:0.41263153990932444 43:0.09230769230769231 44:0.05671098607901583 45:0.11985723556132381 46:0.1305325581395349 47:0.11627906976744186 48:0.09230769230769231 49:0.0018090506098527106 50:0.462414897877453 51:0.061717879229556294 52:0.08874932780210494 53:0.7974924240903892 54:0.8807200278271623 55:0.0 
-0.7187795427247278 -0.0 -0.03171902333584038 0.0 14.577011129846188 0.0 0.0 0.0 0.5073040892398409 0:0.0 1:0.0 2:0.0 3:0.0 4:0.0 5:0.04968619246861924 6:0.035362340812613705 7:0.0 8:0.013214788430866889 9:0.07894736842105263 10:0.14062640626406264 11:0.0 12:0.26615 13:0.2503706140350877 14:0.05360040810308511 15:0.16667 16:0.06356006734175944 17:0.06383912890762206 18:0.63226 19:0.0 20:0.0 21:0.0 22:0.0 23:0.0 24:0.047619047619047616 25:0.05641746189723474 26:0.07561621777470719 27:0.3132817220118659 28:0.0 29:0.05587707275640407 30:0.044444444444444446 31:0.85417 32:0.039316239316239315 33:0.71875 34:0.07142857142857142 35:0.010880820959340747 36:0.37385 37:0.09090909090909091 38:0.13542 39:0.06956521739130435 40:0.66667 41:0.04001420855405498 42:0.3364436244286417 43:0.033846153846153845 44:0.022505777152617305 45:0.14470450747417204 46:0.16279069767441862 47:0.11627906976744186 48:0.033846153846153845 49:0.002100205785154103 50:0.37702242691229476 51:0.061717879229556294 52:0.08873972497503264 53:0.831197696120733 54:0.9178518976578804 55:0.0 
-0.0 -0.0 -0.0 0.0 0.8144327846156023 0.0 0.0 0.0 0.0 0:0.0 1:0.2 2:0.0 3:0.0 4:0.0 5:0.125 6:0.07098999393571861 7:0.0 8:0.014576386902538648 9:0.07894736842105263 10:0.05625056250562506 11:0.0 12:0.44406 13:0.24352339181286548 14:0.11877637547392866 15:0.41176 16:0.09996565905302747 17:0.09744175155134058 18:1.0 19:0.0 20:0.0 21:0.0 22:0.0 23:0.0 24:0.09523809523809523 25:0.05672969966629588 26:0.07815855469663752 27:0.5539460895605283 28:0.30276368624406824 29:0.3011408605679208 30:0.1035230352303523 31:0.79583 32:0.09287749287749288 33:0.67917 34:0.25 35:0.006831998756122211 36:0.29305000000000003 37:0.1958041958041958 38:0.11667 39:0.20869565217391306 40:0.70588 41:0.05046423501959292 42:0.7434195277079838 43:0.10153846153846154 44:0.050079819596548225 45:0.13598444866854645 46:0.14090279069767442 47:0.11627906976744186 48:0.10153846153846154 49:0.0018824242956206846 50:0.9287945534641571 51:0.15197699255575725 52:0.20929361604056235 53:0.11106233317947384 54:0.12022686867125297 55:0.0 
-0.0 -0.0 -0.0 0.0 0.0 0.0 0.0 0.0 0.4199747618539142 0:0.0 1:0.2 2:0.07692307692307693 3:0.0 4:0.0 5:0.25052301255230125 6:0.11178492015362845 7:0.0 8:0.012135879034456084 9:0.10526315789473684 10:0.03748537485374854 11:0.0 12:0.41423 13:0.250718932748538 14:0.1743423701441423 15:0.27027 16:0.32615104991163496 17:0.3299086757990867 18:0.39695 19:0.0 20:0.0 21:0.0 22:0.0 23:0.0 24:0.38095238095238093 25:0.14647854341080735 26:0.07269188295262291 27:0.35376251036667056 28:1.2596068641016453E-6 29:0.3530837982356234 30:0.23577235772357724 31:0.90625 32:0.21595441595441595 33:0.78958 34:0.9999999999999999 35:0.05061183238746793 36:0.1718 37:0.3916083916083916 38:0.11667 39:0.391304347826087 40:0.60811 41:0.027824617021903916 42:0.4239483760905644 43:0.2246153846153846 44:0.07750873550130055 45:0.11575950566520991 46:0.12759279069767443 47:0.13953488372093026 48:0.2246153846153846 49:0.0017640206531664468 50:0.47509010812975566 51:0.5240120628790619 52:0.5829684259045863 53:0.2748374440586807 54:0.3084370410450645 55:0.0 
-0.0 -0.0 -0.0 5.369018077113112 0.20607056824986397 0.0 2.611840561549373 0.0 0.0 0:0.0 1:0.2 2:0.07692307692307693 3:0.0 4:0.16666666666666666 5:0.08472803347280335 6:0.06102183141297756 7:0.0 8:0.010412586680463543 9:0.05263157894736842 10:0.055215552155521555 11:0.0 12:0.58261 13:0.2432737573099415 14:0.12337463165608165 15:0.60714 16:0.1408565134725398 17:0.14061585294462006 18:0.63219 19:0.0 20:0.0 21:0.0 22:0.0 23:0.0 24:0.14285714285714285 25:0.12647581133032804 26:0.06588674975383929 27:0.2503874601750982 28:0.0 29:0.4124896241530413 30:0.08346883468834689 31:0.94479 32:0.08091168091168091 33:0.87117 34:0.07142857142857142 35:0.020351395475394544 36:0.15789999999999998 37:0.08391608391608392 38:0.07362 39:0.10434782608695653 40:0.42857 41:0.03775516077989798 42:0.4286267928831694 43:0.08307692307692308 44:0.05105105105105106 45:0.0985375546277845 46:0.11212627906976745 47:0.11627906976744186 48:0.08307692307692308 49:0.0016649117219229546 50:0.480226271525831 51:0.061619094836744825 52:0.08861488822309287 53:0.8120346585321802 54:0.8935417793924402 55:0.0 
-0.00568918449464389 -1.6583296206633245 -0.0 0.0 0.0 0.0 0.0 0.0 0.0 0:0.0 1:0.6000000000000001 2:0.0 3:0.0 4:0.0 5:0.057008368200836816 6:0.03982211441277542 7:0.0 8:0.013166644876564805 9:0.0 10:0.0 11:0.0 12:0.05381 13:0.3110014619883041 14:0.043432066897277626 15:0.42857 16:0.032657402986824804 17:0.03292939936775554 18:1.0 19:0.0 20:1.0 21:0.0 22:0.0 23:0.0 24:0.0 25:0.025076595827722814 26:0.08484248434635493 27:0.8437869400590666 28:0.0 29:0.0 30:0.053116531165311655 31:0.89091 32:0.04957264957264957 33:0.79091 34:0.3928571428571428 35:2.503304050377052E-4 36:0.20325 37:0.07692307692307693 38:0.1 39:0.09565217391304348 40:0.78571 41:0.10805240316912532 42:0.8338874621025989 43:0.04 44:0.024671511660359247 45:0.1700686831330075 46:0.15946837209302328 47:0.16279069767441862 48:0.04 49:0.0020629609419110604 50:0.9030236283540248 51:0.11837911586104578 52:0.143504647768303 53:0.287544652712276 54:0.3187079693901213 55:0.0 
-0.0 -0.0 -1.6253724322238186 0.0 0.0 3.38704454314281 10.719941349133519 0.0 4.539027339942711 0:0.0 1:0.2 2:0.0 3:0.16667 4:0.0 5:0.03765690376569037 6:0.025179401657570245 7:0.0 8:0.013166644876564805 9:0.0 10:0.0 11:0.0 12:0.07131 13:0.3110014619883041 14:0.043126931655290655 15:0.41667 16:0.032657402986824804 17:0.0329879405221871 18:1.0 19:0.0 20:0.0 21:0.0 22:0.0 23:0.0 24:0.0 25:0.025935249692640945 26:0.08484248434635493 27:0.5841060646429925 28:0.0 29:0.0 30:0.03360433604336043 31:0.84932 32:0.028490028490028487 33:0.68493 34:0.25 35:0.0015548472362590378 36:0.29760000000000003 37:0.08391608391608392 38:0.16438 39:0.0782608695652174 40:0.75 41:0.029356389005499497 42:0.5772532149049205 43:0.033846153846153845 44:0.019246011811067578 45:0.13477675110404116 46:0.11821697674418606 47:0.13953488372093026 48:0.033846153846153845 49:0.0017748041781776088 50:0.625130156187425 51:0.11837911586104578 52:0.143504647768303 53:0.287544652712276 54:0.3194906083326891 55:0.0 
-0.24246307091930241 -0.0 -0.3016902306231842 0.0 7.445042316933175 0.0 5.225899912749615 3.4326217464073285 0.0 0:0.0 1:0.0 2:0.07692307692307693 3:0.0 4:0.0 5:0.06014644351464434 6:0.05159692743076612 7:0.0 8:0.026722141537877206 9:0.05263157894736842 10:0.07758077580775807 11:0.0 12:0.42496 13:0.25024524853801167 14:0.07461328329958358 15:0.375 16:0.17582564849946816 17:0.1760625219529329 18:0.38366 19:0.0 20:0.0 21:0.0 22:0.0 23:0.0 24:0.19047619047619047 25:0.1915188415978768 26:0.07040033075295257 27:0.15175980095992556 28:0.0 29:0.1725498523251549 30:0.04932249322493225 31:0.78448 32:0.0433048433048433 33:0.65517 34:0.14285714285714285 35:0.05956464277384747 36:0.458 37:0.1048951048951049 38:0.12931 39:0.08695652173913043 40:0.625 41:0.32254540910667223 42:0.1965621146518075 43:0.046153846153846156 44:0.036114181095593736 45:0.13355883146790096 46:0.1453488372093023 47:0.13953488372093026 48:0.046153846153846156 49:0.0019552870413008473 50:0.22015418502202644 51:0.061717879229556294 52:0.08865329953138204 53:0.2793278010796926 54:0.30977042591018 55:0.0 
-0.0 -0.0 -0.0 2.1469512613810084 0.0 0.0 0.0 0.0 0.0 0:0.0 1:0.4 2:0.0 3:0.0 4:0.0 5:0.10146443514644352 6:0.11504447139680614 7:0.0 8:0.004495867301748455 9:0.10526315789473684 10:0.0922959229592296 11:0.0 12:0.05459 13:0.48439619883040935 14:0.05291968588380776 15:0.2963 16:0.10301865299729462 17:0.09747102212855638 18:1.0 19:0.0 20:0.0 21:0.0 22:0.0 23:0.0 24:0.047619047619047616 25:0.11833811447417207 26:0.13707751478324257 27:0.9702743931041471 28:2.862742872958285E-6 29:0.046908480203849204 30:0.0910569105691057 31:0.86154 32:0.08603988603988603 33:0.77436 34:0.25 35:0.004739174376117546 36:0.31675000000000003 37:0.11888111888111888 38:0.08718 39:0.09565217391304348 40:0.40741 41:0.12692928155541544 42:0.9814216972472811 43:0.08 44:0.0910278308047825 45:0.2003936646126811 46:0.14470279069767444 47:0.11627906976744186 48:0.08 49:0.0019188758371484424 50:0.9834100921105327 51:0.009170173823254218 52:0.02657102250902666 53:0.3547256617632303 54:0.3697340960037102 55:0.0 
-0.0 -0.0 -0.0 1.1065449780185552 0.0 0.0 0.0 0.0 0.0 0:0.0 1:0.4 2:0.0 3:0.0 4:0.0 5:0.08002092050209204 6:0.10446988073579946 7:0.0 8:0.022137393828186445 9:0.2631578947368421 10:0.29223292232922327 11:0.0 12:0.32408 13:0.39473684210526316 14:0.11716473543348135 15:0.41176 16:0.11361409151443579 17:0.10944268820981148 18:1.0 19:0.0 20:0.0 21:0.0 22:0.0 23:0.0 24:0.047619047619047616 25:0.11833811447417207 26:0.10976863613367208 27:0.8192925146071548 28:0.0 29:0.14906665637125263 30:0.06558265582655827 31:0.78571 32:0.060398860398860395 33:0.68831 34:0.25 35:0.006409080307859754 36:0.5 37:0.1048951048951049 38:0.0974 39:0.08695652173913043 40:0.58824 41:0.04930733298981954 42:0.8812761341405752 43:0.04923076923076923 44:0.0681424919343135 45:0.2765201885914789 46:0.1874144186046512 47:0.13953488372093026 48:0.04923076923076923 49:0.0022189052350276 50:0.9581097316780136 51:0.048422991042305824 52:0.07159867865099485 53:0.3142422083525658 54:0.3339356110381077 55:0.0 
-0.7607496490854747 -1.1766935415103215 -1.2585988455500114 2.8897361663115375 4.428189534204403 0.0 1.4985107282098316 0.15067502586024492 0.05259745206146396 0:0.0 1:0.4 2:0.07692307692307693 3:0.5 4:0.0 5:0.08943514644351465 6:0.09054730139478472 7:0.0 8:0.014813401323718138 9:0.02631578947368421 10:0.026145261452614525 11:0.0 12:0.49037 13:0.5230021929824561 14:0.23515098634241377 15:0.63333 16:0.17433474885041586 17:0.1650860554970144 18:1.0 19:0.0 20:1.0 21:0.0 22:0.0 23:0.0 24:0.09523809523809523 25:0.15459672540639696 26:0.15000299200861697 27:0.5384701984021255 28:0.0 29:0.8410478157635658 30:0.0915989159891599 31:0.98256 32:0.08774928774928774 33:0.89535 34:0.17857142857142855 35:0.009927699603513954 36:0.0249 37:0.1048951048951049 38:0.08721 39:0.12173913043478261 40:0.46667 41:0.034704252878565996 42:0.9664945251583116 43:0.08923076923076924 44:0.07964097926923207 45:0.14684137986481596 46:0.1100774418604651 47:0.11627906976744186 48:0.08923076923076922 49:0.0016445010099940956 50:0.9453344012815379 51:0.023382079392830116 52:0.03863217331182299 53:0.7555489775030606 54:0.7883686326041585 55:0.0 
-0.0 -0.0 -0.0 4.825497150703332 1.1357352980415476 0.0 0.0 0.0 0.0 0:0.0 1:0.2 2:0.0 3:0.5 4:0.0 5:0.08158995815899582 6:0.08262583383869011 7:0.0 8:0.016918138761796424 9:0.13157894736842105 10:0.14332643326433267 11:0.0 12:0.30512 13:0.5198464912280701 14:0.12079067988700132 15:0.5 16:0.11523062877436324 17:0.10917925301486944 18:1.0 19:0.0 20:0.0 21:0.0 22:0.0 23:0.0 24:0.047619047619047616 25:0.10184805729563061 26:0.14701098339163218 27:0.7461966984265177 28:0.0 29:0.47707082601393747 30:0.08075880758807588 31:0.94904 32:0.07521367521367521 33:0.84076 34:0.21428571428571425 35:0.005721837829433259 36:0.1613 37:0.11888111888111888 38:0.10828 39:0.12173913043478261 40:0.46667 41:0.043202709172520205 42:0.9665761146703507 43:0.08923076923076924 44:0.07964097926923207 45:0.13391258405931097 46:0.09844953488372092 47:0.09302325581395349 48:0.08923076923076922 49:0.0015402154489135747 50:0.9454144973968762 51:0.023382079392830116 52:0.03863217331182299 53:0.8259284252142328 54:0.8617724356496868 55:0.0 
-0.0 -0.0 -0.9065144030530802 0.0 0.0 0.0 0.0 0.0 0.0 0:0.0 1:0.2 2:0.0 3:0.0 4:0.0 5:0.08838912133891214 6:0.058848797250859106 7:0.0 8:0.012193898189640649 9:0.02631578947368421 10:0.026460264602646028 11:0.0 12:0.27267 13:0.3097821637426901 14:0.07855799873918187 15:0.33333 16:0.07966680905595902 17:0.07990867579908675 18:1.0 19:0.0 20:0.0 21:0.0 22:0.0 23:0.0 24:0.047619047619047616 25:0.05550026345061765 26:0.09411771105900785 27:0.6876076538864226 28:0.0 29:0.1278574599926645 30:0.07696476964769648 31:0.83529 32:0.06324786324786325 33:0.65294 34:0.25 35:0.004980175697737697 36:0.27640000000000003 37:0.21678321678321677 38:0.18235 39:0.17391304347826086 40:0.66667 41:0.02637146944809876 42:0.7409495906617096 43:0.08923076923076924 44:0.053406566417718834 45:0.12626285655217562 46:0.10852720930232558 47:0.11627906976744186 48:0.08923076923076922 49:0.0016310552182096036 50:0.8024128954745695 51:0.11837911586104578 52:0.14351425059537526 53:0.30271403198940383 54:0.3354332534590708 55:0.16666666666666666 
-0.2237176991746472 -0.0 -0.0 1.1248550478896404 0.2856446878647671 0.0 0.0 0.0 0.4302884299218676 0:0.0 1:0.4 2:0.23076923076923078 3:0.0 4:0.0 5:0.19926778242677823 6:0.29426925409338994 7:0.0 8:0.016826789453633494 9:0.2894736842105263 10:0.12960129601296014 11:0.0 12:0.50045 13:0.48424853801169593 14:0.5506244267522531 15:0.32075 16:0.4879387893559817 17:0.4962533661163798 18:1.0 19:0.0 20:0.0 21:0.0 22:1.0 23:0.0 24:0.2857142857142857 25:0.4232578108229416 26:0.1458312615940334 27:0.613144262774928 28:0.046523636780451724 29:0.5904407080671004 30:0.17235772357723578 31:0.83246 32:0.15042735042735042 33:0.6911 34:0.25 35:0.03506336002487755 36:0.35714999999999997 37:0.3776223776223776 38:0.14136 39:0.30434782608695654 40:0.66038 41:0.046687455335017204 42:0.8941079392158137 43:0.15999999999999998 44:0.2266988177768847 45:0.2273963579562748 46:0.14436162790697676 47:0.11627906976744186 48:0.16 49:0.0018943103755581752 50:0.9731077292751301 51:0.04853482243039428 52:0.07181954367365753 53:0.3598557065162858 54:0.4056002164334853 55:0.0 
-0.0 -0.0 -2.7208537022875605 0.0 0.0 0.0 8.01358592892384 0.09813055360378853 0.0 0:0.0 1:0.0 2:0.0 3:0.0 4:0.0 5:0.057008368200836816 6:0.036928946836466546 7:0.0 8:0.013214788430866889 9:0.02631578947368421 10:0.04090540905409055 11:0.0 12:0.48127 13:0.25034210526315787 14:0.07959859669694952 15:0.33333 16:0.10107545794909166 17:0.1013347383210397 18:0.63229 19:0.0 20:0.0 21:0.0 22:0.0 23:0.0 24:0.09523809523809523 25:0.08506527720859433 26:0.07276205915473037 27:0.2353474945492891 28:0.0 29:0.22998861069822213 30:0.049864498644986446 31:0.83636 32:0.04729344729344729 33:0.75455 34:0.07142857142857142 35:0.018204151442120814 36:0.2016 37:0.06293706293706294 38:0.08182 39:0.06956521739130435 40:0.53333 41:0.03308824045590925 42:0.3417191281048055 43:0.04307692307692308 44:0.026178594951829157 45:0.12957337207766476 46:0.14728674418604654 47:0.11627906976744186 48:0.043076923076923075 49:0.001974205270341628 50:0.3829595514617541 51:0.061717879229556294 52:0.08874932780210494 53:0.8199617692508381 54:0.9054746077143078 55:0.0 
-0.11129723013082723 -0.2727754816359791 -0.0 0.0 0.4812965919452537 0.0 1.026788180230784 0.0 32.0 0:0.0 1:0.0 2:0.0 3:0.0 4:0.0 5:0.05805439330543932 6:0.09869617950272894 7:0.0 8:0.004495867301748455 9:0.07894736842105263 10:0.12055620556205562 11:0.0 12:0.15274 13:0.4864766081871345 14:0.06365241806496835 15:0.42857 16:0.10301865299729462 17:0.09747102212855638 18:1.0 19:1.0 20:0.0 21:0.0 22:0.0 23:0.0 24:0.047619047619047616 25:0.15248912046523427 26:0.13707751478324257 27:0.5473226783348781 28:0.0 29:0.1967646661390267 30:0.05582655826558266 31:0.91964 32:0.05242165242165242 33:0.82143 34:0.46428571428571425 35:0.008777112648682268 36:0.32 37:0.07692307692307693 38:0.09821 39:0.0782608695652174 40:0.64286 41:0.24533483468515835 42:0.635406139610781 43:0.04 44:0.06592093952688749 45:0.22271562541275922 46:0.16279069767441862 47:0.16279069767441862 48:0.04 49:0.0020846490040594464 50:0.6366539847817382 51:0.009170173823254218 52:0.02657102250902666 53:0.279468281522808 54:0.2913639174460848 55:0.0 
-0.0 -0.0 -0.0 1.6847782996698946 0.0 0.0 0.0 0.0 0.0 0:0.0 1:0.4 2:0.0 3:0.0 4:0.0 5:0.12761506276150628 6:0.16069082272084093 7:0.0 8:0.004495867301748455 9:0.15789473684210525 10:0.11020610206102062 11:0.0 12:0.20627 13:0.4839926900584795 14:0.11081188946772291 15:0.3871 16:0.15327369734737126 17:0.14532841587636108 18:1.0 19:0.0 20:0.0 21:0.0 22:0.0 23:0.0 24:0.09523809523809523 25:0.20545245204223014 26:0.13707751478324257 27:0.7632346263683067 28:3.836075449764101E-6 29:0.5982143891280427 30:0.12249322493224932 31:0.92245 32:0.12022792022792023 33:0.86122 34:0.25 35:0.008640286091891472 36:0.27275 37:0.1048951048951049 38:0.06122 39:0.11304347826086956 40:0.41935 41:0.16484169115489428 42:0.9485114549820597 43:0.09230769230769231 44:0.10864395994507521 45:0.20752786663067882 46:0.16054023255813954 47:0.16279069767441862 48:0.09230769230769231 49:0.0020203915651213584 50:0.9511914297156588 51:0.009168309966786081 52:0.026609433817315814 53:0.3045540749362821 54:0.3183794542784262 55:0.0 
-0.0 -0.0 -0.0 0.0 11.208229954908672 1.3806298779694912 2.215811682178014 0.4755352668991147 0.3009319188037011 0:0.0 1:0.0 2:0.0 3:0.0 4:0.0 5:0.09780334728033473 6:0.09244238932686476 7:0.0 8:0.01321355398075658 9:0.02631578947368421 10:0.023940239402394023 11:0.0 12:0.46212 13:0.250797149122807 14:0.1035961173433674 15:0.57143 16:0.13858666063606134 17:0.13883034773445732 18:1.0 19:0.0 20:0.0 21:0.0 22:0.0 23:0.0 24:0.14285714285714285 25:0.1915188415978768 26:0.07117716499023517 27:0.3090201291659005 28:0.0 29:0.295322664710538 30:0.0921409214092141 31:0.90426 32:0.08319088319088319 33:0.7766 34:0.17857142857142855 35:0.020495996268366637 36:0.1628 37:0.16783216783216784 38:0.12766 39:0.16521739130434782 40:0.67857 41:0.1251110920790119 42:0.4192198930064808 43:0.08307692307692308 44:0.07593467073020978 45:0.11956297772392366 46:0.13289046511627906 47:0.11627906976744186 48:0.08307692307692308 49:0.0018311151541710623 50:0.46986383660392467 51:0.061717879229556294 52:0.08875893062917724 53:0.8087270966706137 54:0.893097317770735 55:0.0 
-0.0 -0.0 -0.0 0.0 8.241481609580726 0.0 0.0 0.0 0.0 0:0.0 1:0.2 2:0.0 3:0.0 4:0.0 5:0.07845188284518828 6:0.05718111987062866 7:0.0 8:0.01321355398075658 9:0.07894736842105263 10:0.08941589415894159 11:0.0 12:0.35004 13:0.250687865497076 14:0.07202865437014025 15:0.42857 16:0.10107545794909166 17:0.10115911485774498 18:0.63227 19:0.0 20:0.0 21:0.0 22:0.0 23:0.0 24:0.09523809523809523 25:0.09730109478367777 26:0.07255533855937506 27:0.31965496343051425 28:0.0 29:0.14092813157539139 30:0.07100271002710028 31:0.86755 32:0.06894586894586895 33:0.80132 34:0.07142857142857142 35:0.016067791339500898 36:0.3049 37:0.06993006993006994 38:0.06623 39:0.06086956521739131 40:0.5 41:0.04566252999310632 42:0.3807967957573454 43:0.04 44:0.02640186655056544 45:0.1953736511746768 46:0.2275746511627907 47:0.16279069767441862 48:0.04 49:0.0024497829257591145 50:0.42672206647977573 51:0.061717879229556294 52:0.08873972497503264 53:0.8199617692508381 54:0.903851356574167 55:0.0 
-0.0 -4.190575307595324 -0.0 0.0 0.0 0.0 0.0 0.0 0.0 0:0.0 1:0.0 2:0.0 3:0.0 4:0.0 5:0.06694560669456066 6:0.050396705073782085 7:0.0 8:0.013718444075873306 9:0.0 10:0.0 11:0.0 12:0.47503 13:0.31109283625730993 14:0.10520933826645222 15:0.35294 16:0.07698235210359242 17:0.07721578269523476 18:1.0 19:0.0 20:0.0 21:0.0 22:0.0 23:0.0 24:0.047619047619047616 25:0.06365747516733991 26:0.0865996094068751 27:0.4535394909167327 28:5.72548574591657E-6 29:0.6099550219099281 30:0.06124661246612466 31:0.87597 32:0.056980056980056974 33:0.77519 34:0.25 35:0.004728290445463733 36:0.1724 37:0.09090909090909091 38:0.10078 39:0.10434782608695653 40:0.70588 41:0.03034340614983285 42:0.7411776704340006 43:0.04923076923076923 44:0.03467407928374471 45:0.1496465919728024 46:0.15321488372093023 47:0.13953488372093026 48:0.04923076923076923 49:0.002005036470903468 50:0.8026231477773328 51:0.11837911586104578 52:0.143504647768303 53:0.3473742700034117 54:0.3846332225400015 55:0.0 
-0.25783842550037017 -0.9428553755588107 -0.577084747607492 0.0 0.0 1.0573438794433931 1.1178860939782203 1.2044626741109326 12.095541340956673 0:0.0 1:0.4 2:0.0 3:0.5 4:0.0 5:0.035041841004184095 6:0.030258237315544775 7:0.0 8:0.004497101751858765 9:0.02631578947368421 10:0.06619566195661956 11:0.0 12:0.0739 13:0.4864766081871345 14:0.04607978556258523 15:0.81818 16:0.05276360864721797 17:0.05011122819341998 18:1.0 19:1.0 20:0.0 21:0.0 22:0.0 23:0.0 24:0.0 25:0.04640633842671194 26:0.13707751478324257 27:0.6721073705620331 28:0.0 29:0.0 30:0.036314363143631435 31:0.98529 32:0.033618233618233614 33:0.86765 34:0.46428571428571425 35:0.003080152375029153 36:0.0641 37:0.055944055944055944 38:0.11765 39:0.06956521739130435 40:0.72727 41:0.10873755874015614 42:0.6642220718173136 43:0.030769230769230767 44:0.02519619991738951 45:0.16946558090654842 46:0.12050744186046512 47:0.11627906976744186 48:0.03076923076923077 49:0.0018033092567607326 50:0.6655987184621546 51:0.009170173823254218 52:0.02658062533609895 53:0.3296398683497562 54:0.34457370333152965 55:0.0 
-0.0 -0.0 -0.0 0.0 1.4516547903559585 0.0 0.0 0.0 0.0 0:0.0 1:0.4 2:0.0 3:0.0 4:0.0 5:0.09884937238493724 6:0.054869112593491004 7:0.0 8:0.002244230300543298 9:0.2631578947368421 10:0.23683736837368374 11:0.0 12:0.3625 13:0.3200292397660819 14:0.11493886548711883 15:0.28571 16:0.12013049559849573 17:0.11939468446317761 18:1.0 19:0.0 20:0.0 21:0.0 22:0.0 23:0.0 24:0.09523809523809523 25:0.05672969966629588 26:0.08752985208597401 27:0.5443443385782746 28:0.2885644815941951 29:0.26802694824624057 30:0.08780487804878048 31:0.85263 32:0.07863247863247863 33:0.72632 34:0.25 35:0.008991681567286015 36:0.40474999999999994 37:0.16783216783216784 38:0.12632 39:0.12173913043478261 40:0.66667 41:0.017757884554094296 42:0.7245185755212922 43:0.06153846153846154 44:0.03017515656920862 45:0.22222037178478518 46:0.1871539534883721 47:0.16279069767441862 48:0.06153846153846154 49:0.0022029988633465456 50:0.9052362835402483 51:0.16137082915518847 52:0.22050011523392488 53:0.13360944429950436 54:0.14776416479863952 55:0.11111 
-0.09686803922465065 -4.905355223009562 -0.0 0.0 1.9319919145701019 0.0 0.809338117728976 0.0 1.3453523017933697 0:0.0 1:0.0 2:0.0 3:0.0 4:0.0 5:0.1098326359832636 6:0.15135435617545986 7:0.0 8:0.004495867301748455 9:0.10526315789473684 10:0.0853208532085321 11:0.0 12:0.03596 13:0.4845537280701754 14:0.04842746500546225 15:0.46154 16:0.10301865299729462 17:0.09747102212855638 18:1.0 19:0.0 20:0.0 21:0.0 22:0.0 23:0.0 24:0.047619047619047616 25:0.11464980582713735 26:0.13707751478324257 27:0.9765760153708174 28:8.588228618874855E-6 29:0.037567322355848115 30:0.10623306233062331 31:0.92891 32:0.10028490028490028 33:0.83412 34:0.25 35:0.004726735598227474 36:0.23304999999999998 37:0.13986013986013987 38:0.09479 39:0.1391304347826087 40:0.61538 41:0.11934483402527492 42:0.9831647459135708 43:0.07692307692307693 44:0.10824207106734988 45:0.2118224001194489 46:0.16547395348837207 47:0.18604651162790697 48:0.07692307692307693 49:0.00205990874717598 50:0.9850921105326392 51:0.0091645822538498 52:0.02656141968195437 53:0.3045540749362821 54:0.3174808688258483 55:0.0 
-0.0 -0.0 -0.0 0.0 0.0 0.0 0.0 0.0 10.369600780226442 0:0.0 1:0.2 2:0.0 3:0.0 4:0.0 5:0.05491631799163179 6:0.037750151607034564 7:0.0 8:0.013862874738779559 9:0.0 10:0.0 11:0.0 12:0.4391 13:0.3110014619883041 14:0.08620911751343657 15:0.57143 16:0.07649236542117917 17:0.07671818288256645 18:1.0 19:1.0 20:0.0 21:0.0 22:0.0 23:0.0 24:0.047619047619047616 25:0.05462209472513319 26:0.08484248434635493 27:0.38309773002750686 28:0.0 29:0.4036136903268151 30:0.051490514905149054 31:0.89623 32:0.04729344729344729 33:0.78302 34:0.46428571428571425 35:0.00685065692295732 36:0.2101 37:0.08391608391608392 38:0.11321 39:0.09565217391304348 40:0.78571 41:0.09126468767155213 42:0.5724561224584404 43:0.04 44:0.024459403641559775 45:0.15422487409049404 46:0.15282395348837208 47:0.16279069767441862 48:0.04 49:0.0020185091542715295 50:0.6199339207048458 51:0.11837911586104578 52:0.143504647768303 53:0.2625516767344318 54:0.2911706732627347 55:0.0 
-0.4601693389651564 -2.3006435713312583 -1.492781318694805 0.0 28.282038521664738 2.463795381439101 3.4293189472262973 1.9028736570932503 1.3489034151104475 0:0.0 1:0.4 2:0.0 3:0.0 4:0.0 5:0.04445606694560669 6:0.019822619769557306 7:0.0 8:0.011570500883934175 9:0.0 10:0.0 11:0.0 12:0.1302 13:0.3550047514619883 14:0.04832173418931933 15:0.58333 16:0.15850859780050425 17:0.14325020489404053 18:0.32881 19:0.0 20:1.0 21:0.0 22:0.0 23:0.0 24:0.14285714285714285 25:0.06088636496692231 26:0.09845612355363582 27:0.1626319522363864 28:0.0 29:0.04855317259618169 30:0.044986449864498644 31:0.96512 32:0.042165242165242166 33:0.86047 34:0.21428571428571425 35:0.060380937572883465 36:0.1031 37:0.06293706293706294 38:0.10465 39:0.06956521739130435 40:0.66667 41:0.024956230071871133 42:0.17510036437134355 43:0.033846153846153845 44:0.014110765040133071 45:0.1558310601666542 46:0.14341093023255813 47:0.13953488372093026 48:0.033846153846153845 49:0.001968289121956451 50:0.17293752503003607 51:0.05907679461420036 52:0.07289506030575402 53:0.26364918019627126 54:0.26168161088351233 55:0.0 
-0.5234367738187308 -0.21798161127131163 -0.5462011686938195 1.9238113548066886 1.2174224664757933 0.0 1.3158643183995076 0.522653966449886 1.0215467450478388 0:0.0 1:0.4 2:0.07692307692307693 3:0.0 4:0.0 5:0.6652719665271966 6:0.29233626440266824 7:0.0 8:0.013546855510540239 9:0.23684210526315788 10:0.03181531815318153 11:0.0 12:0.38665 13:0.25123209064327484 14:0.3579646869626528 15:0.73043 16:0.8142782956839294 17:0.8078386605783866 18:0.63231 19:0.0 20:0.0 21:0.0 22:0.0 23:0.0 24:0.9999999999999998 25:0.3866674472610893 26:0.0670541771160301 27:0.39080565447933985 28:0.0 29:0.320035519178426 30:0.6720867208672087 31:0.97408 32:0.6376068376068376 33:0.87903 34:0.9999999999999999 35:0.1270761097722149 36:0.05325 37:0.8461538461538461 38:0.09505 39:0.7217391304347827 40:0.36087 41:0.029509425803127282 42:0.43241143365752804 43:0.7046153846153846 44:0.2939147325764426 45:0.09805235078933919 46:0.10545999999999998 47:0.09302325581395349 48:0.7046153846153846 49:0.0015703071309272683 50:0.4845915098117741 51:0.061717879229556294 52:0.08874932780210494 53:0.16305264002889888 54:0.17997797016309808 55:0.0 
-0.0 -0.0 -0.0 0.0 0.0 0.0 0.0 3.8025596051637565 0.0 0:0.0 1:0.4 2:0.0 3:0.0 4:0.0 5:0.037133891213389114 6:0.015994542146755608 7:0.0 8:0.004911876988922873 9:0.0 10:0.0 11:0.0 12:0.07556 13:0.3384868421052631 14:0.04313884437439875 15:0.41667 16:0.035806719099429604 17:0.03243179955508723 18:1.0 19:0.0 20:0.0 21:0.0 22:0.0 23:0.0 24:0.0 25:0.015319165544562184 26:0.09302426790989157 27:0.5081019517485431 28:0.0 29:0.0 30:0.03414634146341464 31:0.875 32:0.029059829059829057 33:0.70833 34:0.25 35:0.0026183627458602186 36:0.24095 37:0.08391608391608392 38:0.16667 39:0.0782608695652174 40:0.75 41:0.038722521821783734 42:0.5021407975374802 43:0.033846153846153845 44:0.01335164160442971 45:0.1161300844756594 46:0.11627906976744186 47:0.11627906976744186 48:0.033846153846153845 49:0.0017587095654115722 50:0.5168902683219864 51:0.03529771379365618 52:0.05362218637166781 53:0.1812247887776195 54:0.17999729458143304 55:0.0 
-0.029479035364491073 -0.0 -0.0 -0.0 0.0 0.0 0.10829731871521239 0.0 0.0 0:1.0 1:0.0 2:0.0 3:0.0 4:0.0 5:0.5925732217573221 6:0.7725641803112998 7:0.0 8:0.013088874519615285 9:0.2894736842105263 10:0.043650436504365044 11:0.0 12:0.02302 13:0.4807616959064327 14:0.06691923158424382 15:0.70769 16:0.505142766205158 17:0.47866174920969445 18:1.0 19:0.0 20:0.0 21:0.0 22:1.0 23:0.0 24:0.42857142857142855 25:0.7191421267295044 26:0.1359568715557901 27:0.9982463908975943 28:0.0 29:0.12427851668822269 30:0.5962059620596206 31:0.97002 32:0.6153846153846153 33:0.95238 34:0.49999999999999994 35:0.032253751068957476 36:0.10540000000000001 37:0.13986013986013987 38:0.01764 39:0.17391304347826086 40:0.10256 41:0.3540555453375023 42:1.0000000000000002 43:0.5969230769230769 44:0.7446442725253135 45:0.1395018750035892 46:0.11198558139534885 47:0.09302325581395349 48:0.5969230769230769 49:0.0016277744450141874 50:1.0 51:0.009170173823254218 52:0.026474994238303753 53:0.48696165887334697 54:0.5088409213882662 55:0.0 
-0.0 -0.0 -0.0 -10.393129687952515 0.0 0.0 0.0 0.0 0.0 0:0.0 1:0.2 2:0.0 3:0.14286 4:0.0 5:0.26412133891213385 6:0.20490954113604207 7:0.0 8:0.009638586461299269 9:0.10526315789473684 10:0.03559535595355954 11:0.0 12:0.37883 13:0.32400073099415205 14:0.24882298304538528 15:0.66667 16:0.3294008761129399 17:0.3105022831050228 18:1.0 19:0.0 20:0.0 21:0.0 22:0.0 23:0.0 24:0.2857142857142857 25:0.2751595339851296 26:0.08871262029234644 27:0.6501541584890367 28:4.065094879600765E-6 29:0.5184641816111036 30:0.25040650406504067 31:0.91304 32:0.24444444444444444 33:0.84783 34:0.17857142857142855 35:0.029318199486900415 36:0.1528 37:0.23076923076923078 38:0.06522 39:0.17391304347826086 40:0.2381 41:0.020623463489491706 42:0.7137877003810602 43:0.2553846153846154 44:0.1889547540105161 45:0.14316826793313156 46:0.11683279069767442 47:0.09302325581395349 48:0.2553846153846154 49:0.001676206187021928 50:0.7327993592310773 51:0.16450397187813365 52:0.17998578781593302 53:0.6115928977101689 54:0.6353965370642343 55:0.09523666666666666 
-0.0 -0.03203094977964566 -0.0 -0.0 0.0 0.0 4.3107995080823445 0.0 0.0 0:0.0 1:0.0 2:0.0 3:0.0 4:0.0 5:0.0794979079497908 6:0.05273398019001414 7:0.0 8:0.007009207726339299 9:0.02631578947368421 10:0.029430294302943028 11:0.0 12:0.33489 13:0.33497807017543857 14:0.09350701093499279 15:0.8 16:0.0855005821209304 17:0.0857627912422433 18:1.0 19:0.0 20:0.0 21:0.0 22:0.0 23:0.0 24:0.047619047619047616 25:0.061413266202212984 26:0.0919797849017805 27:0.6629481122339848 28:0.0 29:0.2607628901801054 30:0.08184281842818428 31:0.98693 32:0.0849002849002849 33:0.97386 34:0.17857142857142855 35:0.005106118323874679 36:0.05815 37:0.013986013986013986 38:0.01307 39:0.017391304347826087 40:0.1 41:0.014638180294195693 42:0.7804129541893433 43:0.05846153846153847 44:0.03407124596715675 45:0.1822896866188488 46:0.15465116279069768 47:0.18604651162790697 48:0.05846153846153846 49:0.0020035708795989584 50:0.8744193031637966 51:0.07376398358315223 52:0.10161711607897364 53:0.351405557004957 54:0.3891937852670634 55:0.0 
-0.0036668701755461558 -0.0 -0.062203405960399825 -0.0 0.05029976763582178 0.022688580837138244 0.08296766354484357 0.052981178169679545 0.0 0:1.0 1:0.2 2:0.0 3:0.07692 4:0.0 5:0.8885983263598326 6:0.8271427127552052 7:0.0 8:0.013088874519615285 9:0.42105263157894735 10:0.042345423454234546 11:0.0 12:0.18502 13:0.48031944444444447 14:0.43054236722564243 15:0.67399 16:0.9071831210057711 17:0.8573059360730594 18:1.0 19:0.0 20:0.0 21:0.0 22:1.0 23:0.0 24:0.8095238095238095 25:0.9457486876256268 26:0.13543941726552172 27:0.8318145519909638 28:0.0 29:0.9355828813003109 30:0.8742547425474255 31:0.94882 32:0.8843304843304842 33:0.91294 34:0.21428571428571425 35:0.060026432403016396 36:0.10395 37:0.42657342657342656 38:0.03588 39:0.30434782608695654 40:0.12821 41:0.10581862752668665 42:0.997960262199023 43:0.8369230769230769 44:0.740647710907934 45:0.14896670935434408 46:0.12156069767441859 47:0.11627906976744186 48:0.8369230769230769 49:0.0017049936272325258 50:1.0 51:0.009170173823254218 52:0.02657102250902666 53:0.4364175480142086 54:0.45480984772358346 55:0.01852 
-0.0 -0.0 -0.0 -0.0 3.285584295487019 0.0 0.5480771395995893 0.0 0.0 0:0.0 1:0.0 2:0.0 3:0.05882 4:0.16666666666666666 5:0.25418410041841005 6:0.19328633515261773 7:0.0 8:0.007007973276228989 9:0.8684210526315789 10:0.3049230492304923 11:0.0 12:0.41931 13:0.3350051169590643 14:0.2843609364833217 15:0.3211 16:0.28588838354649854 17:0.28609062170706007 18:1.0 19:0.0 20:1.0 21:0.0 22:0.0 23:0.0 24:0.23809523809523808 25:0.20925784985266283 26:0.09198881532778815 27:0.7483294556043816 28:0.0 29:0.7202420709225336 30:0.16910569105691056 31:0.64066 32:0.16125356125356125 33:0.58111 34:0.17857142857142855 35:0.02018347197387857 36:0.42014999999999997 37:0.20279720279720279 38:0.05955 39:0.10434782608695653 40:0.11009 41:0.014556747869769897 42:0.8683794283171237 43:0.3323076923076923 44:0.21877267602174666 45:0.10446710273181993 46:0.08064860465116279 47:0.06976744186046512 48:0.3323076923076923 49:0.001335812522205725 50:0.972967561073288 51:0.07376584743962036 52:0.10161711607897364 53:0.49760556101868403 54:0.550282136507691 55:0.0 
