svm_type c_svc
kernel_type polynomial
degree 3
gamma 0.03125
coef0 0.5
nr_class 4
total_sv 798
rho 3.4674219273839944 1.7688078673284973 -1.846455076108456 -3.2599859417504504 -5.915891920372603 -1.1385199999222022
label 0 1 3 2
nr_sv 187 389 153 69
SV
256.0 0.0 0.0 0:0.0 1:0.0 2:0.125 3:0.16666666666666666 4:0.0 5:0.0 6:0.028280823616968494 7:0.040634876185142214 8:0.02109704641350211 9:0.06549065490654905 10:0.0 11:0.0 12:0.0 13:0.0 14:0.005208333333333333 15:0.01747 16:0.005832294392891419 17:3.566333808844508E-4 18:0.00873 19:0.0 20:0.19687 21:0.34114802631578944 22:0.22769586926285043 23:0.6 24:0.048634105960264906 25:0.04476 26:0.43521 27:0.0 28:1.0 29:1.0 30:0.0 31:0.0 32:0.0 33:0.0 34:0.0 35:0.0 36:0.0 37:0.0 38:0.0 39:0.0 40:0.0 41:1.0 42:1.0 43:0.25 44:0.017341040462427744 45:0.03703889233975194 46:0.030299055613850996 47:0.3654942476052415 48:3.722376905693014E-5 49:2.850696791744382E-5 50:0.3179666523021845 51:0.04484772632457238 52:0.93886 53:0.044042553191489364 54:0.90393 55:0.0 56:0.25 57:0.0032415157800111606 58:0.03358 59:0.0 60:0.0 61:0.0 62:0.0018022077044379365 63:0.03493 64:0.014010507880910683 65:0.2 66:0.0270743851700665 67:0.4029908828107627 68:0.011281457911483946 69:0.04218223284752578 70:0.053248010033161396 71:0.028124999999999997 72:0.023809523809523808 73:0.011281457911483946 74:0.0016329645206430014 75:0.48369 76:0.5205984224397768 77:0.5496110557344862 78:0.9048813525309788 79:0.8648916466012224 80:0.08333333333333333 
8.48234325013916 0.0 0.0 0:0.0 1:0.0 2:0.0 3:0.0 4:0.0 5:0.0 6:0.0 7:6.0007200864103694E-5 8:0.0 9:0.0 10:0.0 11:0.0 12:0.0 13:0.0 14:0.0 15:0.0 16:5.542222608271423E-4 17:0.0 18:0.0 19:0.0 20:0.0 21:0.025986842105263155 22:0.2245633951727931 23:0.0 24:0.001000979862143533 25:9.2E-4 26:0.0 27:0.0 28:1.0 29:0.0 30:0.0 31:0.0 32:0.0 33:0.0 34:0.0 35:0.0 36:0.0 37:0.0 38:1.0 39:1.0 40:0.0 41:1.0 42:1.0 43:0.25 44:0.0 45:0.00786462820846775 46:0.0022885431218174442 47:0.0015864387027088487 48:0.0 49:0.0 50:0.0 51:2.0859407592824363E-4 52:1.0 53:2.127659574468085E-4 54:1.0 55:0.0 56:0.25 57:0.018954630206280007 58:0.0 59:0.0 60:0.0 61:0.0 62:0.0 63:0.0 64:0.0 65:0.0 66:0.0036320664790122346 67:0.0014184059214079226 68:0.0 69:7.70223364775785E-4 70:0.0025224136080400873 71:0.0 72:0.0 73:0.0 74:1.0 75:0.0017 76:0.6662258267522796 77:0.7847257354377566 78:0.9718243616113982 79:0.9289405445452861 80:0.0 
19.110314314223597 0.0 0.0 0:0.0 1:0.0 2:1.0 3:0.0 4:0.0 5:0.0 6:0.0 7:6.0007200864103694E-5 8:0.0 9:0.0 10:0.0 11:0.0 12:0.0 13:0.0 14:0.0 15:0.0 16:0.008487376983179133 17:0.0 18:0.0 19:0.0 20:0.0 21:0.04857456140350877 22:0.2245633951727931 23:0.0 24:0.001871029868901203 25:0.00172 26:0.63148 27:0.0 28:1.0 29:1.0 30:0.0 31:0.0 32:0.0 33:0.0 34:0.0 35:0.0 36:0.0 37:0.0 38:1.0 39:0.0 40:0.0 41:1.0 42:1.0 43:0.25 44:0.0 45:0.00786462820846775 46:0.0042777409407811304 47:0.0016450640970978657 48:0.0 49:0.0 50:0.0 51:2.0859407592824363E-4 52:1.0 53:0.0 54:0.0 55:0.0 56:0.25 57:0.03416756655867963 58:0.0 59:0.0 60:0.0 61:0.0 62:2.2527596305474206E-4 63:1.0 64:0.0017513134851138354 65:1.0 66:0.027677159614672927 67:0.0014708218177197495 68:0.0 69:7.70223364775785E-4 70:0.0026156271008344017 71:0.0 72:0.0 73:0.0 74:1.0 75:0.00177 76:0.6603981044672304 77:0.7753189443156036 78:0.9694275824010437 79:0.9266438229301721 80:0.0 
8.395174340775684 0.0 0.0 0:0.0 1:0.0 2:1.0 3:0.0 4:0.0 5:0.0 6:0.0 7:6.0007200864103694E-5 8:0.0 9:0.0 10:0.0 11:0.0 12:0.0 13:0.0 14:0.0 15:0.0 16:5.653313930040784E-4 17:0.0 18:0.0 19:0.0 20:0.0 21:0.0435672514619883 22:0.2245633951727931 23:0.0 24:0.0016781547055908456 25:0.00154 26:0.63148 27:0.0 28:1.0 29:0.0 30:0.0 31:0.0 32:0.0 33:0.0 34:0.0 35:0.0 36:0.0 37:0.0 38:1.0 39:0.0 40:0.0 41:1.0 42:1.0 43:0.25 44:0.0 45:0.00786462820846775 46:0.0038367699032438728 47:0.0012400159176828402 48:0.0 49:0.0 50:0.0 51:2.0859407592824363E-4 52:1.0 53:0.0 54:0.0 55:0.0 56:0.25 57:0.040655597518773935 58:0.0 59:0.0 60:0.0 61:0.0 62:2.2527596305474206E-4 63:1.0 64:0.0017513134851138354 65:1.0 66:0.027869206356326604 67:0.0011086756250198544 68:0.0 69:7.70223364775785E-4 70:0.001971606605164592 71:0.0 72:0.0 73:0.0 74:1.0 75:0.00133 76:0.6601331273451658 77:0.7748881753930768 78:0.9701173932674461 79:0.9273106130764956 80:0.0 
106.16562548193234 79.79910431089309 0.0 0:0.0 1:0.0 2:0.0 3:0.0 4:0.0 5:0.0 6:0.0 7:8.000960115213824E-5 8:0.0 9:0.0 10:0.0 11:0.0 12:0.0 13:0.0 14:0.0 15:0.0 16:8.49231437525777E-4 17:0.0 18:0.0 19:0.0 20:0.0 21:0.056688596491228066 22:0.2245633951727931 23:0.0 24:0.002183572104338424 25:0.00201 26:0.63361 27:0.0 28:0.0 29:1.0 30:0.0 31:0.0 32:0.0 33:0.0 34:0.0 35:0.0 36:0.0 37:0.0 38:0.0 39:0.0 40:0.0 41:1.0 42:1.0 43:0.25 44:0.0 45:0.004207826557396758 46:0.004992307147593328 47:0.0015864387027088487 48:0.0 49:0.0 50:0.0 51:2.0859407592824363E-4 52:1.0 53:2.127659574468085E-4 54:1.0 55:0.038461538461538464 56:0.25 57:0.04134837152874988 58:0.0 59:0.0 60:0.0 61:0.0 62:0.0 63:0.0 64:0.0 65:0.0 66:0.054705285350618464 67:0.0014184059214079226 68:0.0 69:8.702523731882245E-4 70:0.0025224136080400873 71:0.0 72:0.0 73:0.0 74:1.0 75:0.00169 76:0.664573268540118 77:0.7789904980389997 78:0.967398284252245 79:0.9242637525467678 80:0.0 
34.851992633351166 0.0 0.0 0:0.0 1:0.0 2:1.0 3:0.16666666666666666 4:0.0 5:0.0 6:0.001116348300669809 7:0.0015901908228987476 8:0.0 9:0.0 10:0.0 11:0.0 12:0.0 13:0.0 14:0.0 15:0.0 16:6.517357543802476E-4 17:0.0 18:0.0 19:0.0 20:0.25387 21:0.06169956140350877 22:0.2245711964151206 23:1.0 24:0.0036674437987115377 25:0.00337 26:0.0 27:1.0 28:0.0 29:0.0 30:0.0 31:0.0 32:0.0 33:0.0 34:0.0 35:0.0 36:0.0 37:0.0 38:0.0 39:1.0 40:0.0 41:1.0 42:1.0 43:0.5 44:0.0 45:0.0036067084777686486 46:0.008384887246602591 47:0.011543873113328218 48:0.0 49:0.0 50:0.0 51:0.0020859407592824365 52:1.0 53:0.0019148936170212765 54:0.9 55:0.07692307692307693 56:0.5 57:0.00954385473743151 58:0.0 59:0.0 60:0.0 61:0.0 62:2.2527596305474206E-4 63:0.1 64:0.0017513134851138354 65:1.0 66:0.026356663040674654 67:0.010321166491947012 68:0.0 69:6.301827529983696E-4 70:0.018354584126589572 71:0.05357142857142857 72:0.05357142857142857 73:0.0 74:1.0 75:0.01232 76:0.6612580971803594 77:0.7736659937989312 78:0.9665052927306478 79:0.9234117429153547 80:0.0 
82.71481320406347 0.0 0.0 0:0.0 1:0.0 2:1.0 3:0.0 4:0.0 5:0.0 6:0.0 7:5.000600072008641E-5 8:0.0 9:0.0 10:0.0 11:0.0 12:0.0 13:0.0 14:0.0 15:0.0 16:5.653313930040784E-4 17:0.0 18:0.0 19:0.0 20:0.0 21:0.053508771929824554 22:0.2245633951727931 23:0.0 24:0.0020610893363968105 25:0.0019 26:0.0 27:0.0 28:0.0 29:0.0 30:0.0 31:0.0 32:0.0 33:0.0 34:0.0 35:0.0 36:0.0 37:0.0 38:0.0 39:1.0 40:0.0 41:1.0 42:1.0 43:0.5 44:0.0 45:0.0036067084777686486 46:0.004712274444923683 47:0.0016130866092493108 48:0.0 49:0.0 50:0.0 51:2.0859407592824363E-4 52:1.0 53:0.0 54:0.0 55:0.07692307692307693 56:0.25 57:0.038384203419399195 58:0.0 59:0.0 60:0.0 61:0.0 62:2.2527596305474206E-4 63:1.0 64:0.0017513134851138354 65:1.0 66:0.028678045552926395 67:0.0014422313288223894 68:0.0 69:6.301827529983696E-4 70:0.0025647833774920486 71:0.0 72:0.0 73:0.0 74:1.0 75:0.00172 76:0.6608168629547788 77:0.7729597331236259 78:0.9686600110369741 79:0.9254769401741062 80:0.0 
39.731566006837106 42.08502148006436 5.644349884867747 0:0.0 1:0.0 2:0.0 3:0.3333333333333333 4:0.0 5:0.0 6:0.002852890101711734 7:0.003990478857462895 8:0.0 9:0.0 10:0.0 11:0.0 12:0.0 13:0.0 14:0.01171875 15:0.375 16:8.27013173171905E-5 17:0.0 18:0.0 19:0.0 20:0.32454 21:0.33690314327485377 22:0.22526080284006048 23:0.4 24:0.017927535252511603 25:0.01649 26:0.63361 27:0.0 28:0.0 29:1.0 30:0.0 31:0.0 32:0.0 33:0.0 34:0.0 35:0.0 36:0.0 37:0.0 38:1.0 39:0.0 40:0.0 41:1.0 42:1.0 43:0.25 44:0.005780346820809248 45:0.009086901637044904 46:0.019331912784297568 47:0.07568627241977204 48:0.16190921491419583 49:0.18599167596536811 50:0.015521927934497961 51:0.0027117229870671673 52:0.54167 53:0.0019148936170212765 54:0.375 55:0.07692307692307693 56:0.25 57:0.0032612753136290313 58:0.0 59:1.0 60:0.0 61:0.0 62:9.011038522189682E-4 63:0.16667 64:0.005253940455341506 65:0.6 66:0.001571418959078624 67:0.14764922646843925 68:0.0011570726063060456 69:0.004321253163417391 70:0.045559930626564146 71:0.022619047619047615 72:0.023809523809523808 73:0.0011570726063060456 74:0.0016578123438607429 75:0.17619 76:0.6055839196740781 77:0.6843014781384773 78:0.9711784478001305 79:0.927884793480274 80:0.0 
142.6165547992473 0.0 0.0 0:0.0 1:0.0 2:1.0 3:0.0 4:0.0 5:0.0 6:1.2403870007442322E-4 7:3.6004320518462216E-4 8:0.0 9:0.0 10:0.0 11:0.0 12:0.0 13:0.0 14:0.0 15:0.0 16:8.27013173171905E-5 17:0.0 18:0.0 19:0.0 20:0.38261 21:0.03201754385964912 22:0.22456567910304645 23:0.0 24:0.0028663783394152365 25:0.00264 26:0.6336 27:0.0 28:0.0 29:0.0 30:0.0 31:0.0 32:0.0 33:0.0 34:0.0 35:0.0 36:0.0 37:0.0 38:0.0 39:0.0 40:0.0 41:1.0 42:1.0 43:0.25 44:0.0 45:0.003706894824373334 46:0.006553408995809165 47:0.0028690912708564287 48:0.0 49:0.0 50:0.0 51:4.1718815185648727E-4 52:1.0 53:0.0 54:0.0 55:0.11538461538461539 56:0.25 57:0.030012588965514616 58:0.0 59:0.0 60:0.0 61:0.0 62:4.505519261094841E-4 63:1.0 64:0.0017513134851138354 65:1.0 66:0.001571418959078624 67:0.002565202198290924 68:0.0 69:9.602784807594202E-4 70:0.0045618118443278175 71:0.005952380952380952 72:0.005952380952380952 73:0.0 74:1.0 75:0.00306 76:0.6596096792357302 77:0.7710262819132153 78:0.9711784478001305 79:0.927884793480274 80:0.0 
128.61929083461573 0.0 33.69347675086893 0:0.0 1:0.0 2:1.0 3:0.0 4:0.0 5:0.0 6:0.0013644257008186553 7:0.0026903228387406487 8:0.0 9:0.0 10:0.0 11:0.0 12:0.0 13:0.0 14:0.0 15:0.0 16:7.319683756581189E-4 17:0.0 18:0.0 19:0.0 20:0.53056 21:0.0588296783625731 22:0.22459342607171642 23:1.0 24:0.005732756678830473 25:0.00527 26:0.63366 27:0.0 28:0.0 29:1.0 30:0.0 31:0.0 32:0.0 33:0.0 34:0.0 35:0.0 36:0.0 37:0.0 38:0.0 39:0.0 40:0.0 41:1.0 42:1.0 43:0.25 44:0.0 45:0.0024946400304566487 46:0.01310681799161833 47:0.013602868025354596 48:0.0 49:0.0 50:0.0 51:0.0025031289111389237 52:1.0 53:0.001702127659574468 54:0.66667 55:0.15384615384615385 56:0.25 57:0.012660385515642886 58:0.0 59:0.0 60:0.0 61:0.0 62:9.011038522189682E-4 63:0.33333 64:0.0017513134851138354 65:1.0 66:0.02962145764878716 67:0.012162076304838145 68:0.0 69:8.902581748707125E-4 70:0.02162835497957777 71:0.06547619047619047 72:0.06547619047619047 73:0.0 74:1.0 75:0.01451 76:0.6601331273451658 77:0.7717876409390764 78:0.9665052927306478 79:0.9234117429153547 80:0.0 
0.0 24.19467441835053 0.0 0:0.0 1:0.0 2:1.0 3:0.0 4:0.0 5:0.0 6:0.0014884644008930786 7:0.002240268832259871 8:0.0 9:0.0 10:0.0 11:0.0 12:0.0 13:0.0 14:0.0 15:0.0 16:3.505548375833149E-4 17:0.0 18:0.0 19:0.0 20:0.58824 21:0.05713011695906432 22:0.2246045149398663 23:1.0 24:0.006660528449790513 25:0.00613 26:0.63362 27:0.0 28:0.0 29:1.0 30:0.0 31:0.0 32:0.0 33:0.0 34:0.0 35:0.0 36:0.0 37:0.0 38:0.0 39:0.0 40:0.0 41:1.0 42:1.0 43:0.25 44:0.0 45:0.00399743522952692 46:0.015227985245173459 47:0.01445915408885478 48:0.0 49:0.0 50:0.0 51:0.0027117229870671673 52:1.0 53:0.001702127659574468 54:0.61538 55:0.19230769230769232 56:0.25 57:0.013838339399272087 58:0.0 59:0.0 60:0.0 61:0.0 62:0.0011263798152737104 63:0.38462 64:0.0017513134851138354 65:1.0 66:0.023810992362987966 67:0.012927666063089677 68:0.0 69:6.601914555221013E-4 70:0.022989836904634117 71:0.07142857142857142 72:0.07142857142857142 73:0.0 74:1.0 75:0.01543 76:0.6598480403522302 77:0.7713919346032669 78:0.9665052927306478 79:0.9234117429153547 80:0.0 
0.0 6.9454589048221615 0.0 0:0.0 1:0.0 2:1.0 3:0.0 4:0.0 5:0.0 6:0.0 7:6.0007200864103694E-5 8:0.0 9:0.0 10:0.0 11:0.0 12:0.0 13:0.0 14:0.0 15:0.0 16:3.505548375833149E-4 17:0.0 18:0.0 19:0.0 20:0.0 21:0.027302631578947367 22:0.2245633951727931 23:0.0 24:0.0010516623868090283 25:9.7E-4 26:0.63362 27:0.0 28:0.0 29:0.0 30:0.0 31:0.0 32:0.0 33:0.0 34:0.0 35:0.0 36:0.0 37:0.0 38:0.0 39:1.0 40:0.0 41:1.0 42:1.0 43:0.25 44:0.0 45:0.00399743522952692 46:0.002404418722922125 47:0.0019310849606321596 48:0.0 49:0.0 50:0.0 51:2.0859407592824363E-4 52:1.0 53:0.0 54:0.0 55:0.19230769230769232 56:0.25 57:0.016360179635586586 58:0.0 59:0.0 60:0.0 61:0.0 62:2.2527596305474206E-4 63:1.0 64:0.0017513134851138354 65:1.0 66:0.003857756445481153 67:0.001726547857301693 68:0.0 69:6.601914555221013E-4 70:0.0030703959596187847 71:0.0 72:0.0 73:0.0 74:1.0 75:0.00206 76:0.6596096792357302 77:0.7710062461493769 78:0.9727951136306627 79:0.9294313761807741 80:0.0 
71.67128738029592 41.17673715825502 0.0 0:0.0 1:0.0 2:0.0 3:0.0 4:0.0 5:0.0 6:0.0 7:3.0003600432051833E-5 8:0.0 9:0.0 10:0.0 11:0.0 12:0.0 13:0.0 14:0.0 15:0.0 16:7.93685776641097E-4 17:0.0 18:0.0 19:0.0 20:0.0 21:0.06158625730994152 22:0.2245633951727931 23:0.0 24:0.002372223723926657 25:0.00218 26:0.0 27:0.0 28:0.0 29:0.0 30:0.0 31:0.0 32:0.0 33:0.0 34:1.0 35:0.0 36:0.0 37:0.0 38:0.0 39:1.0 40:0.0 41:1.0 42:1.0 43:0.75 44:0.0 45:0.005560342236560001 46:0.005423621885038529 47:0.001616639663454706 48:0.0 49:0.0 50:0.0 51:2.0859407592824363E-4 52:1.0 53:2.127659574468085E-4 54:1.0 55:0.23076923076923078 56:0.75 57:0.04408161496810859 58:0.0 59:0.0 60:0.0 61:0.0 62:0.0 63:0.0 64:0.0 65:0.0 66:0.2975981541083984 67:0.001445408049810985 68:0.0 69:5.201508437446859E-4 70:0.0025704326800856433 71:0.0 72:0.0 73:0.0 74:1.0 75:0.00172 76:0.6617342279465692 77:0.7742269951864079 78:0.9671349019214369 79:0.9240137062418966 80:0.0 
0.0 8.72430184303828 0.0 0:0.0 1:0.0 2:0.0 3:0.0 4:0.0 5:0.0 6:0.0014884644008930786 7:0.0018402208264991795 8:0.0 9:0.0 10:0.0 11:0.0 12:0.0 13:0.0 14:0.0 15:0.0 16:6.295174900263755E-4 17:0.0 18:0.0 19:0.0 20:0.6328 21:0.05332054093567251 22:0.22460802377156538 23:1.0 24:0.006971662837320359 25:0.00641 26:0.0 27:1.0 28:0.0 29:0.0 30:0.0 31:0.0 32:0.0 33:0.0 34:0.0 35:1.0 36:0.0 37:0.0 38:0.0 39:1.0 40:0.0 41:1.0 42:1.0 43:0.25 44:0.0 45:0.005780752199090307 46:0.015939332685288306 47:0.013936855120661722 48:0.0 49:0.0 50:0.0 51:0.0027117229870671673 52:1.0 53:0.002553191489361702 54:0.92308 55:0.2692307692307693 56:0.25 57:0.015027482416395746 58:0.0 59:0.0 60:0.0 61:0.0 62:2.2527596305474206E-4 63:0.07692 64:0.0 65:0.0 66:0.1336869610075024 67:0.012460688077766128 68:0.0 69:5.601624471096617E-4 70:0.02215938942337568 71:0.07142857142857142 72:0.07142857142857142 73:0.0 74:1.0 75:0.01487 76:0.6621139496259563 77:0.7750184078580267 78:0.9665052927306478 79:0.9234117429153547 80:0.0 
0.0 6.277209997337071 0.0 0:0.0 1:0.0 2:1.0 3:0.0 4:0.0 5:0.0 6:0.0 7:3.0003600432051833E-5 8:0.0 9:0.0 10:0.0 11:0.0 12:0.0 13:0.0 14:0.0 15:0.0 16:8.27013173171905E-5 17:0.0 18:0.0 19:0.0 20:0.0 21:0.04857456140350877 22:0.2245633951727931 23:0.0 24:0.001871029868901203 25:0.00172 26:0.63362 27:0.0 28:0.0 29:0.0 30:0.0 31:0.0 32:0.0 33:0.0 34:0.0 35:1.0 36:0.0 37:0.0 38:0.0 39:1.0 40:0.0 41:1.0 42:1.0 43:0.25 44:0.0 45:0.005780752199090307 46:0.0042777409407811304 47:0.0016450640970978657 48:0.0 49:0.0 50:0.0 51:2.0859407592824363E-4 52:1.0 53:0.0 54:0.0 55:0.2692307692307693 56:0.25 57:0.03416756655867963 58:0.0 59:0.0 60:0.0 61:0.0 62:2.2527596305474206E-4 63:1.0 64:0.0017513134851138354 65:1.0 66:0.1387656861535701 67:0.0014708218177197495 68:0.0 69:5.601624471096617E-4 70:0.0026156271008344017 71:0.0 72:0.0 73:0.0 74:1.0 75:0.00176 76:0.6603981044672304 77:0.7722684992711992 78:0.9694275824010437 79:0.9262085571402111 80:0.0 
3.6081091540023413 0.0 0.0 0:0.0 1:0.0 2:1.0 3:0.0 4:0.0 5:0.0 6:6.201935003721161E-4 7:0.0022202664319718366 8:0.0 9:0.0 10:0.0 11:0.0 12:0.0 13:0.0 14:0.0 15:0.0 16:0.03272626904523391 17:0.0 18:0.0 19:0.0 20:0.0 21:0.5949926900584795 22:0.2245633951727931 23:1.0 24:0.022918356084155517 25:0.02329 26:0.57663 27:0.0 28:1.0 29:1.0 30:0.0 31:0.0 32:0.0 33:0.0 34:0.0 35:0.0 36:0.0 37:0.0 38:0.0 39:0.0 40:0.0 41:1.0 42:1.0 43:0.25 44:0.0 45:0.023183120604324044 46:0.05239830306619715 47:0.11008072539154658 48:0.0 49:0.0 50:0.0 51:0.0012515644555694619 52:1.0 53:0.0 54:0.0 55:0.0 56:0.25 57:0.006254487556731287 58:0.0 59:0.0 60:0.0 61:0.0 62:0.0013516557783284523 63:1.0 64:0.0017513134851138354 65:1.0 66:0.03716595081360532 67:0.09842116966866798 68:0.0 69:0.002170629482549939 70:0.1750266929547547 71:0.02976190476190476 72:0.02976190476190476 73:0.0 74:1.0 75:0.12859 76:0.6049078731327393 77:0.7242778359371479 78:0.03579992976471179 79:0.03972031857751436 80:0.0 
256.0 124.3171284898879 0.0 0:0.2 1:0.0392156862745098 2:0.0 3:0.0 4:0.0 5:0.0 6:0.04527412552716448 7:0.048295795495459454 8:0.06751054852320675 9:0.13116131161311614 10:0.0 11:0.0 12:0.0 13:0.0 14:0.02734375 15:0.05738 16:0.013628436485061199 17:7.132667617689016E-4 18:0.01093 19:0.0 20:0.44114 21:0.2505562865497076 22:0.23592504943559992 23:0.52459 24:0.08542398747578503 25:0.08767 26:0.6323 27:0.0 28:0.0 29:0.0 30:0.0 31:0.0 32:0.0 33:0.0 34:1.0 35:0.0 36:0.0 37:0.0 38:0.0 39:0.0 40:0.0 41:0.0 42:1.0 43:0.25 44:0.034682080924855495 45:0.04859037810327208 46:0.024270884967715768 47:0.327312931696086 48:0.0 49:0.0 50:0.3107037491298439 51:0.0673758865248227 52:0.88251 53:0.05638297872340425 54:0.72404 55:0.5 56:0.5 57:0.006178068155630849 58:0.04695 59:0.0 60:0.0 61:0.0 62:0.01306600585717504 63:0.15847 64:0.08056042031523643 65:0.7541 66:0.03095597223312511 67:0.37138409733473104 68:0.017356089094590684 69:0.045213111802422705 70:0.053547564303186766 71:0.02976190476190476 72:0.02976190476190476 73:0.017356089094590684 74:0.0016768784766111528 75:0.48518 76:0.3688534771149669 77:0.30940729201624906 78:0.20797797622033817 79:0.22407853306167805 80:0.0 
133.82949097648435 0.0 9.346729883457161 0:0.0 1:0.0 2:1.0 3:0.0 4:0.0 5:0.0 6:0.007938476804763086 7:0.008481017722126654 8:0.0 9:0.0 10:0.0 11:0.0 12:0.0 13:0.0 14:0.01953125 15:0.23077 16:0.01370866910633907 17:0.0 18:0.0 19:0.0 20:0.40494 21:0.2509502923976608 22:0.2265177941693619 23:0.25 24:0.02227637743839258 25:0.02286 26:0.6323 27:0.0 28:0.0 29:0.0 30:0.0 31:0.0 32:0.0 33:0.0 34:1.0 35:0.0 36:1.0 37:0.0 38:0.0 39:0.0 40:0.0 41:0.0 42:1.0 43:0.5 44:0.005780346820809248 45:0.012553349229566994 46:0.022100052144020495 47:0.2282446491003667 48:0.0 49:0.0 50:0.13107368979348294 51:0.00980392156862745 52:0.72308 53:0.008723404255319148 54:0.63077 55:0.5 56:0.5 57:0.002241873832282983 58:0.03947 59:0.0 60:0.0 61:0.0 62:0.0013516557783284523 63:0.09231 64:0.010507880910683012 65:0.5 66:0.035258099606374264 67:0.2668747418914197 68:0.0031819496673416254 69:0.008662512128517269 70:0.05425095896911526 71:0.02628970238095238 72:0.03571428571428571 73:0.0031819496673416254 74:0.0016402386939984115 75:0.34865 76:0.3688534771149669 77:0.30940729201624906 78:0.5341406210806202 79:0.5720503796999443 80:0.5 
3.97958382171613 4.471572609879473 0.0 0:0.0 1:0.0 2:0.0 3:0.6666666666666666 4:0.0 5:0.0 6:0.03336641032001985 7:0.17812137456494778 8:0.0 9:0.0 10:0.0 11:0.0 12:0.0 13:0.0 14:0.03125 15:0.08889 16:0.011997862751090922 17:7.132667617689016E-4 18:0.01481 19:0.0 20:0.47351 21:0.2443154239766082 22:0.23384202164530424 23:0.66667 24:0.0690324142902194 25:0.06961 26:1.0 27:0.0 28:0.0 29:0.0 30:0.0 31:0.0 32:0.0 33:0.0 34:0.0 35:1.0 36:0.0 37:0.0 38:0.0 39:0.0 40:0.0 41:0.0 42:1.0 43:0.25 44:0.02890173410404624 45:0.16511711783918087 46:0.02152495509820457 47:0.28036498749324923 48:2.3752309779183995E-6 49:2.0362119941031303E-6 50:0.3427702456326449 51:0.04839382561535252 52:0.85926 53:0.04553191489361702 54:0.79259 55:0.5384615384615385 56:0.75 57:0.005302935076362265 58:0.0414 59:0.0 60:0.0 61:0.0 62:0.004054967334985357 63:0.06667 64:0.014010507880910683 65:0.17778 66:0.44721237846385026 67:0.3496505606912545 68:0.012727798669366502 69:0.1762311070210361 70:0.05344014281436956 71:0.02976190476190476 72:0.023809523809523808 73:0.012727798669366502 74:0.0016837492762130284 75:0.45679 76:0.3721059529949512 77:0.3151224936511674 78:0.2851025936888577 79:0.3005556584552695 80:0.05555666666666667 
1.48436740307787 0.0 0.0 0:0.0 1:0.0 2:1.0 3:0.0 4:0.0 5:0.0 6:0.0013644257008186553 7:0.003140376845221426 8:0.0 9:0.0 10:0.0 11:0.0 12:0.0 13:0.0 14:0.0 15:0.0 16:0.03974847492907714 17:0.0 18:0.0 19:0.0 20:0.03487 21:0.4091739766081871 22:0.2246328400392173 23:1.0 24:0.015760857323061678 25:0.01601 26:0.56918 27:0.0 28:1.0 29:0.0 30:0.0 31:0.0 32:0.0 33:0.0 34:0.0 35:0.0 36:0.0 37:0.0 38:0.0 39:0.0 40:0.0 41:1.0 42:1.0 43:0.25 44:0.0 45:0.013314765463762599 46:0.03603409317685836 47:0.17410853869986642 48:0.0 49:0.0 50:0.0 51:0.0025031289111389237 52:1.0 53:0.0 54:0.0 55:0.0 56:0.25 57:0.0027194355724932057 58:0.0 59:0.0 60:0.0 61:0.0 62:0.0027033115566569045 63:1.0 64:0.0035026269702276708 65:1.0 66:0.04514079689585178 67:0.15566727024365448 68:2.892681515765114E-4 69:0.0028408238389132845 70:0.1335890584307367 71:0.02976190476190476 72:0.03571428571428571 73:2.892681515765114E-4 74:0.0024901606384879447 75:0.20336 76:0.5959057485840284 77:0.7083844662722962 78:0.03504113781166909 79:0.038914613817373586 80:0.0 
74.09073175229916 11.36479640606475 8.225557400536406 0:0.4 1:0.0 2:0.0 3:0.0 4:0.0 5:0.0 6:0.021334656412800794 7:0.026953234388126572 8:0.025316455696202528 9:0.1040410404104041 10:0.0 11:0.0 12:0.0 13:0.0 14:0.01953125 15:0.08671 16:0.013628436485061199 17:3.566333808844508E-4 18:0.01156 19:0.0 20:0.4788 21:0.2502521929824561 22:0.23077896297596476 23:0.43478 24:0.047589482812992745 25:0.04852 26:0.63231 27:0.0 28:0.0 29:0.0 30:0.0 31:0.0 32:0.0 33:0.0 34:0.0 35:1.0 36:0.0 37:0.0 38:0.0 39:0.0 40:0.0 41:0.0 42:1.0 43:0.5 44:0.017341040462427744 45:0.02920432003526559 46:0.027489876978736824 47:0.2618498799067679 48:0.0023610504944681404 49:0.005424468752290739 50:0.2737942122186495 51:0.030663329161451813 52:0.84971 53:0.02723404255319149 54:0.73988 55:0.19230769230769232 56:0.5 57:0.003804067321445236 58:0.05641 59:0.0 60:1.0 61:0.0 62:0.004280243298040099 63:0.10983 64:0.028021015761821366 65:0.69565 66:0.03095597223312511 67:0.33601130912671934 68:0.006363899334683251 69:0.0212761700893259 70:0.06652237406292193 71:0.03881988095238095 72:0.03571428571428571 73:0.006363899334683251 74:0.00197520025893368 75:0.43897 76:0.3688534771149669 77:0.30940729201624906 78:0.6072317262830483 79:0.6456102982033709 80:0.0 
6.402698386769149 0.0 10.177435733631189 0:0.0 1:0.0 2:1.0 3:0.0 4:0.0 5:0.0 6:0.007938476804763086 7:0.010051206144737368 8:0.0 9:0.0 10:0.0 11:0.0 12:0.0 13:0.0 14:0.01953125 15:0.23077 16:0.013637076921198815 17:0.0 18:0.0 19:0.0 20:0.40495 21:0.2509627192982456 22:0.22651794769731423 23:0.25 24:0.022277785286299954 25:0.02271 26:0.63231 27:0.0 28:0.0 29:0.0 30:0.0 31:0.0 32:0.0 33:0.0 34:0.0 35:1.0 36:1.0 37:0.0 38:0.0 39:0.0 40:0.0 41:0.0 42:1.0 43:0.5 44:0.005780346820809248 45:0.013665417676878995 46:0.022101661527369174 47:0.22824376083681533 48:0.0 49:0.0 50:0.13107203235323367 51:0.00980392156862745 52:0.72308 53:0.008723404255319148 54:0.63077 55:0.19230769230769232 56:0.5 57:0.002242111898953078 58:0.03947 59:0.0 60:0.0 61:0.0 62:0.0013516557783284523 63:0.09231 64:0.010507880910683012 65:0.5 66:0.035176795146404094 67:0.26687315353092533 68:0.0031819496673416254 69:0.01096317932200338 70:0.054250252806291054 71:0.02628970238095238 72:0.03571428571428571 73:0.0031819496673416254 74:0.0016402386939984115 75:0.34865 76:0.3688534771149669 77:0.30940729201624906 78:0.7646641248181408 79:0.8124745323208 80:0.5 
1.643245246800652 7.723481465456019 0.0 0:0.0 1:0.0 2:1.0 3:0.0 4:0.0 5:0.0 6:0.007814438104688662 7:0.023312797535704283 8:0.0 9:0.0 10:0.0 11:0.0 12:0.0 13:1.0 14:0.0234375 15:0.28125 16:0.013638311269218474 17:0.0 18:0.0 19:0.0 20:0.42993 21:0.25096235380116955 22:0.22674705680519328 23:0.25 24:0.022277785286299954 25:0.0225 26:0.66267 27:0.0 28:0.0 29:1.0 30:0.0 31:0.0 32:0.0 33:0.0 34:0.0 35:1.0 36:0.0 37:0.0 38:0.0 39:0.0 40:0.0 41:0.0 42:1.0 43:0.5 44:0.005780346820809248 45:0.020648406035225518 46:0.022101661527369174 47:0.22990925499559423 48:0.0 49:0.0 50:0.15709881658766203 51:0.008969545264914476 52:0.67188 53:0.007872340425531916 54:0.57813 55:0.07692307692307693 56:0.25 57:0.002130696697348699 58:0.04 59:0.0 60:0.0 61:0.0 62:0.0013516557783284523 63:0.09375 64:0.010507880910683012 65:0.5 66:0.035176795146404094 67:0.28083325391530856 68:0.0031819496673416254 69:0.024407078052635263 70:0.05467725534282792 71:0.02579363095238095 72:0.023809523809523808 73:0.0031819496673416254 74:0.0016224230198839597 75:0.36692 76:0.3688534771149669 77:0.3094123009572087 78:0.7951700697336077 79:0.8367568068160769 80:0.5 
82.0058114668784 0.0 0.0 0:0.0 1:0.0 2:0.0 3:0.0 4:0.0 5:0.0 6:0.01810965021086579 7:0.0409149097891747 8:0.016877637130801686 9:0.08163081630816309 10:0.0 11:0.0 12:0.0 13:0.0 14:0.010416666666666666 15:0.05442 16:0.013296396867772778 17:1.783166904422254E-4 18:0.0068 19:0.0 20:0.40844 21:0.25067288011695904 22:0.2286300762144603 23:0.33333 24:0.03497938910663603 25:0.03554 26:0.6322 27:0.0 28:1.0 29:0.0 30:0.0 31:0.0 32:0.0 33:0.0 34:0.0 35:0.0 36:0.0 37:0.0 38:0.0 39:0.0 40:0.0 41:0.0 42:1.0 43:0.25 44:0.011560693641618495 45:0.04510389324142905 46:0.023753436033449423 47:0.3070786255365112 48:0.0 49:0.0 50:0.14544038187423344 51:0.027117229870671673 52:0.88435 53:0.024893617021276595 54:0.79592 55:0.0 56:0.5 57:0.0026796784385873696 58:0.04192 59:0.0 60:0.0 61:0.0 62:0.002928587519711647 63:0.08844 64:0.021015761821366025 65:0.57143 66:0.048514931984613825 67:0.3506146955112932 68:0.005785363031530228 69:0.032529433535725356 70:0.06363374441425206 71:0.03571428571428571 72:0.02976190476190476 73:0.005785363031530228 74:0.0018949288819802618 75:0.45796 76:0.3688534771149669 77:0.3093972741343298 78:0.819904178999649 79:0.8678736803111687 80:0.0 
256.0 0.0 9.76234572173395 0:0.2 1:0.0196078431372549 2:0.0 3:0.0 4:0.0 5:0.0 6:0.05941453733564872 7:0.08852062247469696 8:0.050632911392405056 9:0.07500075000750007 10:0.0 11:0.0 12:0.0 13:0.0 14:0.03125 15:0.05 16:0.012217576698590322 17:7.132667617689016E-4 18:0.00833 19:0.0 20:0.41423 21:0.250718932748538 22:0.23811263822116124 23:0.27027 24:0.11064276704059109 25:0.11363 26:0.39695 27:0.0 28:0.0 29:0.0 30:0.0 31:0.0 32:0.0 33:0.0 34:1.0 35:0.0 36:0.0 37:0.0 38:0.0 39:0.0 40:0.0 41:1.0 42:1.0 43:0.5 44:0.046242774566473986 45:0.07519987176147634 46:0.023793831555501195 47:0.3360755095079731 48:7.799265897642505E-7 49:2.0362119941031303E-6 50:0.3031590811151258 51:0.09073842302878599 52:0.90625 53:0.08063829787234042 54:0.78958 55:0.15384615384615385 56:0.5 57:0.008160687384180564 58:0.03436 59:0.0 60:0.0 61:0.0 62:0.012615453931065555 63:0.11667 64:0.0788091068301226 65:0.60811 66:0.02935231185026522 67:0.36415388036468754 68:0.02111657506508533 69:0.06994028268197777 70:0.05873170332122499 71:0.03265767857142857 72:0.03571428571428571 73:0.02111657506508533 74:0.0017640206531664468 75:0.47572 76:0.5155555765854858 77:0.567197447443687 78:0.27481814077158484 79:0.29562882015187997 80:0.0 
46.00747805413645 0.0 10.807093365955799 0:0.0 1:0.0 2:0.0 3:0.16666666666666666 4:0.0 5:0.0 6:0.029893326717935997 7:0.37395487458495014 8:0.008438818565400843 9:0.024780247802478023 10:0.0 11:0.0 12:0.0 13:0.0 14:0.0078125 15:0.02479 16:0.025521379654481053 17:7.132667617689016E-4 18:0.01653 19:0.0 20:0.31279 21:0.48551571637426894 22:0.23789205945453612 23:0.6129 24:0.0665954295625535 25:0.26259 26:1.0 27:0.0 28:0.0 29:0.0 30:0.0 31:0.0 32:0.0 33:1.0 34:0.0 35:1.0 36:0.0 37:0.0 38:1.0 39:0.0 40:0.0 41:0.0 42:1.0 43:1.0 44:0.011560693641618495 45:0.298695573767207 46:0.042757034614617065 47:0.8046986832381117 48:0.0 49:0.0 50:0.2149749726522359 51:0.045473508552357114 52:0.90083 53:0.04425531914893617 54:0.8595 55:0.9615384615384616 56:0.75 57:0.002269489566013983 58:0.02941 59:0.0 60:0.0 61:0.0 62:0.0022527596305474207 63:0.04132 64:0.017513134851138354 65:0.32258 66:0.028983638178331515 67:0.7881635375964928 68:0.008678044547295344 69:0.3067289513959048 70:0.11064232570489171 71:0.04051458333333333 72:0.03571428571428571 73:0.008678044547295342 74:0.00200564153153377 75:1.0 76:0.3646700325070148 77:0.3005715201634919 78:0.1926428535594241 79:0.8757640303759955 80:0.11111 
0.0 18.983435089165404 0.0 0:0.0 1:0.0 2:0.0 3:0.0 4:0.0 5:0.0 6:0.0016125031009675017 7:0.005840700884106093 8:0.0 9:0.0 10:0.0 11:0.0 12:0.0 13:0.0 14:0.0 15:0.0 16:0.02304280883100466 17:0.0 18:0.0 19:0.0 20:0.08201 21:0.4864766081871345 22:0.22469774093573253 23:0.0 24:0.01873845564715953 25:0.01801 26:1.0 27:1.0 28:0.0 29:1.0 30:0.0 31:1.0 32:0.0 33:0.0 34:0.0 35:0.0 36:1.0 37:0.0 38:0.0 39:0.0 40:0.0 41:0.0 42:1.0 43:0.5 44:0.0 45:0.005780752199090307 46:0.04284178474175835 47:0.12044853756288906 48:0.0 49:0.0 50:0.0 51:0.0027117229870671673 52:0.92857 53:0.002553191489361702 54:0.85714 55:0.2692307692307693 56:0.5 57:0.004673486800631544 58:0.0625 59:0.0 60:0.0 61:0.0 62:2.2527596305474206E-4 63:0.07143 64:0.0 65:0.0 66:0.026168821702122882 67:0.10769084151338987 68:5.785363031530228E-4 69:0.0057116563803503015 70:0.05860210831972793 71:0.021825416666666663 72:0.005952380952380952 73:5.785363031530228E-4 74:0.0018373540015590663 75:0.12581 76:0.35217825389540025 77:0.27696939036179585 78:0.04529172728640948 79:0.04556399333209854 80:0.0 
105.20300282109608 0.0 0.0 0:0.0 1:0.0 2:0.0 3:0.0 4:0.0 5:0.0 6:0.0016125031009675017 7:0.010531263751650196 8:0.0 9:0.0 10:0.0 11:0.0 12:0.0 13:0.0 14:0.0 15:0.0 16:0.023425456717099127 17:0.0 18:0.0 19:0.0 20:0.08201 21:0.4864766081871345 22:0.22469774093573253 23:0.0 24:0.01873845564715953 25:0.01805 26:1.0 27:1.0 28:0.0 29:1.0 30:0.0 31:1.0 32:0.0 33:0.0 34:0.0 35:1.0 36:1.0 37:0.0 38:0.0 39:0.0 40:0.0 41:0.0 42:1.0 43:0.25 44:0.0 45:0.028492996974372332 46:0.04284178474175835 47:0.12044853756288906 48:0.0 49:0.0 50:0.0 51:0.0027117229870671673 52:0.92857 53:0.002553191489361702 54:0.85714 55:0.576923076923077 56:0.75 57:0.004673486800631544 58:0.0625 59:0.0 60:0.0 61:0.0 62:2.2527596305474206E-4 63:0.07143 64:0.0 65:0.0 66:0.026603380022653104 67:0.10769084151338987 68:5.785363031530228E-4 69:0.012873733382680977 70:0.05860210831972793 71:0.021825416666666663 72:0.005952380952380952 73:5.785363031530228E-4 74:0.0018373540015590663 75:0.12596 76:0.35217825389540025 77:0.27700445294851317 78:0.04529172728640948 79:0.045749212817188356 80:0.0 
0.0 11.173115405453037 0.0 0:0.0 1:0.0 2:0.22222 3:0.6666666666666666 4:0.0 5:0.0 6:0.031133713718680227 7:0.037764531743809254 8:0.016877637130801686 9:0.04761047610476104 10:0.0 11:0.0 12:0.0 13:0.0 14:0.028645833333333332 15:0.0873 16:0.012002800143169559 17:5.349500713266762E-4 18:0.0119 19:0.0 20:0.37889 21:0.24433808479532163 22:0.23043582137635366 23:0.52941 24:0.05706007568590351 25:0.05911 26:0.41347 27:0.0 28:0.0 29:0.0 30:0.0 31:0.0 32:0.0 33:0.0 34:0.0 35:1.0 36:0.0 37:0.0 38:1.0 39:0.0 40:0.0 41:1.0 42:1.0 43:0.75 44:0.023121387283236993 45:0.036087122047007425 46:0.021523249151854974 47:0.3075452659105768 48:0.0 49:0.0 50:0.21483906255179502 51:0.044013350020859404 52:0.8373 53:0.043191489361702126 54:0.80556 55:0.34615384615384615 56:0.75 57:0.004580640799294561 58:0.05965 59:0.0 60:0.0 61:0.0 62:0.0018022077044379365 63:0.03175 64:0.014010507880910683 65:0.23529 66:0.013631113254309135 67:0.3345801963213571 68:0.009545849002024875 69:0.029258484960638584 70:0.06596334732477276 71:0.03816523809523809 72:0.03571428571428571 73:0.009545849002024875 74:0.0019402680918775693 75:0.4371 76:0.5188086439322604 77:0.5729226669605246 78:0.8249260021070587 79:0.8908131135395443 80:0.06666666666666667 
94.10175940646879 0.0 0.7931088914792864 0:0.0 1:0.0196078431372549 2:0.0 3:0.0 4:0.004394978025109874 5:0.0 6:0.1694368643016621 7:0.4755770692483098 8:0.012658227848101264 9:0.006570065700657006 10:0.0 11:0.0 12:0.0 13:0.0 14:0.022135416666666664 15:0.01244 16:0.02083209152779439 17:0.002674750356633381 18:0.01097 19:0.0 20:0.24224 21:0.408922514619883 22:0.2610229023472249 23:0.72862 24:0.2919200792899942 25:0.29148 26:1.0 27:0.0 28:1.0 29:0.0 30:0.0 31:0.0 32:0.0 33:0.0 34:0.0 35:0.0 36:0.0 37:1.0 38:0.0 39:0.0 40:0.0 41:1.0 42:1.0 43:0.25 44:0.09826589595375722 45:0.4175165808403631 46:0.0372257449835521 47:0.6475288330348768 48:2.9424503159287632E-6 49:2.0362119941031303E-6 50:0.5764892100639772 51:0.2765957446808511 52:0.97001 53:0.27489361702127657 54:0.94514 55:0.0 56:0.25 57:0.012346137511117712 58:0.01346 59:0.0 60:0.0 61:1.0 62:0.00765938274386123 63:0.02487 64:0.028021015761821366 65:0.05948 66:0.05394831279227551 67:0.6350789415165666 68:0.07752386462250506 69:0.5064468695921817 70:0.05912941422381407 71:0.024296309523809522 72:0.017857142857142856 73:0.07752386462250506 74:0.001472932706823976 75:0.99962 76:0.3979217039921642 77:0.38302369729968 78:0.22006973360758544 79:0.2298295980737173 80:0.0 
90.4844644712612 20.59387120563694 5.3001099526824085 0:0.0 1:0.0 2:0.0 3:0.0 4:0.0 5:0.0 6:0.0027288514016373107 7:0.007880945713485618 8:0.0 9:0.0 10:0.0 11:0.0 12:0.0 13:0.0 14:0.018229166666666664 15:0.6087 16:0.04441307609537062 17:5.349500713266762E-4 18:0.13043 19:0.0 20:0.00255 21:0.49682017543859647 22:0.2245704527022647 23:0.0 24:0.019136876604946618 25:0.01911 26:1.0 27:0.0 28:1.0 29:0.0 30:0.0 31:0.0 32:0.0 33:0.0 34:0.0 35:0.0 36:0.0 37:0.0 38:1.0 39:0.0 40:0.0 41:0.0 42:1.0 43:0.5 44:0.0 45:0.021439878173402527 46:0.04375269571710903 47:0.19888220914698276 48:0.0 49:0.0 50:0.0 51:0.0010429703796412183 52:0.21739 53:0.0010638297872340426 54:0.21739 55:0.0 56:0.5 57:0.002890605508291386 58:0.13043 59:1.0 60:1.0 61:0.0 62:0.0 63:0.0 64:0.0 65:0.0 66:0.05043820300321853 67:0.1778169573366371 68:0.0 69:0.0015904612337577896 70:0.3162197126764701 71:0.13095238095238093 72:0.13095238095238093 73:0.0 74:1.0 75:0.27989 76:0.3979222954589545 77:0.38302369729968 78:0.9065205939898661 79:0.9423411742915354 80:0.3333333333333333 
29.61197515100077 0.0 0.0 0:0.0 1:0.0 2:0.0 3:0.0 4:0.0 5:0.0 6:2.4807740014884643E-4 7:0.002460295235428251 8:0.0 9:0.0 10:0.0 11:0.0 12:0.0 13:0.0 14:0.0 15:0.0 16:0.023146481721175866 17:0.0 18:0.0 19:0.0 20:0.00105 21:0.34561403508771926 22:0.22456377282940798 23:0.0 24:0.013312609812136776 25:0.01329 26:1.0 27:0.0 28:0.0 29:0.0 30:0.0 31:1.0 32:0.0 33:0.0 34:0.0 35:0.0 36:0.0 37:0.0 38:0.0 39:1.0 40:0.0 41:1.0 42:1.0 43:0.5 44:0.0 45:0.017783076522331534 46:0.030436657890162803 47:0.03739411898467923 48:0.0 49:0.0 50:0.0 51:0.0 52:0.0 53:0.0 54:0.0 55:0.11538461538461539 56:1.0 57:0.010694907087339995 58:0.0 59:0.0 60:0.0 61:0.0 62:0.0 63:0.0 64:0.0 65:0.0 66:0.06974801224613382 67:0.03343340004447409 68:0.0 69:0.004191215452481219 70:0.05945608514628868 71:0.011904761904761904 72:0.011904761904761904 73:0.0 74:1.0 75:0.05263 76:0.5343376045121818 77:0.6718542598538393 78:0.03134876837405308 79:0.03394147064271161 80:0.0 
70.37027431069872 52.76435810269139 0.0 0:0.0 1:0.0 2:0.0 3:0.0 4:0.0 5:0.0 6:2.4807740014884643E-4 7:0.002380285634276113 8:0.0 9:0.0 10:0.0 11:0.0 12:0.0 13:0.0 14:0.0 15:0.0 16:0.028601077963531656 17:0.0 18:0.0 19:0.0 20:0.00105 21:0.34561403508771926 22:0.22456377282940798 23:0.0 24:0.013312609812136776 25:0.01329 26:1.0 27:0.0 28:0.0 29:0.0 30:0.0 31:1.0 32:0.0 33:0.0 34:0.0 35:0.0 36:0.0 37:0.0 38:0.0 39:1.0 40:0.0 41:1.0 42:1.0 43:0.5 44:0.0 45:0.04822970725549522 46:0.030436657890162803 47:0.03739411898467923 48:0.0 49:0.0 50:0.0 51:0.0 52:0.0 53:0.0 54:0.0 55:0.15384615384615385 56:1.0 57:0.010694907087339995 58:0.0 59:0.0 60:0.0 61:0.0 62:0.0 63:0.0 64:0.0 65:0.0 66:0.03248113175808278 67:0.03343340004447409 68:0.0 69:0.0032909543767692625 70:0.05945608514628868 71:0.011904761904761904 72:0.011904761904761904 73:0.0 74:1.0 75:0.05262 76:0.5343376045121818 77:0.6718542598538393 78:0.03134876837405308 79:0.03394147064271161 80:0.0 
76.70994985599012 0.0 0.0 0:0.0 1:0.0 2:1.0 3:0.0 4:0.0 5:0.0 6:0.001116348300669809 7:0.0033303996479577547 8:0.0 9:0.0 10:0.0 11:0.0 12:0.0 13:0.0 14:0.0 15:0.0 16:0.02245032178156807 17:0.0 18:0.0 19:0.0 20:0.0617 21:0.4354897660818713 22:0.22466133776447564 23:1.0 24:0.016774507816371582 25:0.01704 26:0.35754 27:0.0 28:1.0 29:0.0 30:0.0 31:0.0 32:0.0 33:0.0 34:0.0 35:0.0 36:0.0 37:0.0 38:0.0 39:0.0 40:0.0 41:1.0 42:1.0 43:0.25 44:0.0 45:0.01669104534434047 46:0.03835160519895196 47:0.13038465364827606 48:0.0 49:0.0 50:0.0 51:0.0020859407592824365 52:1.0 53:0.001702127659574468 54:0.8 55:0.0 56:0.25 57:0.0038650123889895117 58:0.0 59:0.0 60:0.0 61:0.0 62:4.505519261094841E-4 63:0.2 64:0.0035026269702276708 65:1.0 66:0.08368471812584807 67:0.11657454175799739 68:2.892681515765114E-4 69:0.004191215452481219 70:0.09742504787783947 71:0.023809523809523808 72:0.02976190476190476 73:2.892681515765114E-4 74:0.0022655486867280035 75:0.15227 76:0.6086098637733688 77:0.7306592267196947 78:0.08946972357397283 79:0.09640674198925726 80:0.0 
45.59720055001917 0.0 0.0 0:0.0 1:0.0 2:0.0 3:0.8333333333333333 4:0.0 5:0.0 6:0.03870007442322004 7:0.08012961555386647 8:0.0 9:0.0 10:0.0 11:0.0 12:0.0 13:0.0 14:0.028645833333333332 15:0.07029 16:0.012002800143169559 17:7.132667617689016E-4 18:0.01278 19:0.0 20:0.45441 21:0.24432638888888888 22:0.23474902550242213 23:0.51163 24:0.08092450556381493 25:0.08156 26:0.39691 27:0.0 28:0.0 29:0.0 30:0.0 31:0.0 32:0.0 33:0.0 34:0.0 35:1.0 36:0.0 37:0.0 38:0.0 39:0.0 40:0.0 41:1.0 42:1.0 43:0.25 44:0.034682080924855495 45:0.07874646843128219 46:0.021523892905194447 47:0.2785541201216566 48:0.0 49:0.0 50:0.34013988795703914 51:0.05673758865248227 52:0.86901 53:0.0548936170212766 54:0.82428 55:0.07692307692307693 56:0.75 57:0.006370664091737563 58:0.04507 59:0.0 60:0.0 61:0.0 62:0.0031538634827663887 63:0.04473 64:0.012259194395796848 65:0.16279 66:0.2472664879837615 67:0.34118618761714153 68:0.01214926236621348 69:0.06808974602634764 70:0.06628306960505725 71:0.03737541666666666 72:0.03571428571428571 73:0.012149262366213479 74:0.0019113193021655578 75:0.44574 76:0.5188086439322604 77:0.5729276759014843 78:0.4538328400140471 79:0.4771809594369327 80:0.047619999999999996 
2.0650511949707835 31.475116744447188 10.928262868839903 0:0.0 1:0.0 2:0.0 3:0.0 4:0.0 5:0.0 6:0.009923096005953857 7:0.02859343121174541 8:0.0 9:0.0 10:0.0 11:0.0 12:0.0 13:0.0 14:0.0 15:0.0 16:0.010936323454183699 17:5.349500713266762E-4 18:0.03704 19:0.0 20:0.25567 21:0.48895833333333333 22:0.22747926078317088 23:0.69231 24:0.06947729422894987 25:0.06689 26:0.79597 27:0.0 28:1.0 29:0.0 30:0.0 31:0.0 32:0.0 33:0.0 34:0.0 35:0.0 36:0.0 37:0.0 38:0.0 39:0.0 40:0.0 41:1.0 42:1.0 43:0.0 44:0.017341040462427744 45:0.1008876510309175 46:0.04328436516264428 47:0.16769616412267987 48:0.0339569401820767 49:0.0558818019661663 50:0.13664931879205755 51:0.01543596161869003 52:0.91358 53:0.015106382978723404 54:0.87654 55:0.0 56:0.25 57:0.009229130599566147 58:0.05376 59:1.0 60:0.0 61:1.0 62:6.758278891642261E-4 63:0.03704 64:0.0035026269702276708 65:0.15385 66:0.0720231353242646 67:0.20219829092410813 68:0.003471217818918137 69:0.027317922197437252 70:0.07660496686684028 71:0.031135535714285713 72:0.017857142857142856 73:0.003471217818918137 74:0.0017946636126433037 75:0.23627 76:0.5861394489422207 77:0.6447108087936968 78:0.1280953694877841 79:0.12857936654936097 80:0.0 
69.48072312912521 256.0 0.0 0:0.0 1:0.0 2:1.0 3:0.0 4:0.0 5:0.0 6:0.0 7:3.500420050406048E-4 8:0.0 9:0.0 10:0.0 11:1.0 12:0.0 13:0.0 14:0.0013020833333333333 15:1.0 16:0.07867521969450653 17:0.0 18:0.0 19:0.0 20:0.0 21:0.6078947368421053 22:0.2245633951727931 23:0.0 24:0.02341532639545885 25:0.0225 26:0.65924 27:0.0 28:0.0 29:1.0 30:0.0 31:0.0 32:0.0 33:0.0 34:0.0 35:0.0 36:0.0 37:0.0 38:1.0 39:0.0 40:1.0 41:1.0 42:1.0 43:0.5 44:0.0 45:0.01245316288296231 46:0.0535345277103625 47:0.011852988829197579 48:0.0 49:0.0 50:0.0 51:0.0 52:0.0 53:0.0 54:0.0 55:0.15384615384615385 56:0.5 57:0.0593454975879085 58:0.0 59:0.0 60:1.0 61:0.0 62:0.0 63:0.0 64:0.0 65:0.0 66:0.025976774960469205 67:0.010597541217954826 68:0.0 69:0.0023706874993748186 70:0.01884607345223232 71:0.0 72:0.0 73:0.0 74:1.0 75:0.01238 76:0.6666031825645053 77:0.7710212729722556 78:0.9515853107911505 79:0.9508242267086497 80:0.0 
38.1549396130658 256.0 0.0 0:0.0 1:0.0 2:1.0 3:0.0 4:0.0 5:0.0 6:0.0 7:3.6004320518462216E-4 8:0.0 9:0.0 10:0.0 11:1.0 12:0.0 13:0.0 14:0.0013020833333333333 15:1.0 16:0.021334471171795828 17:0.0 18:0.0 19:0.0 20:0.0 21:0.6078947368421053 22:0.2245633951727931 23:0.0 24:0.02341532639545885 25:0.0225 26:0.76463 27:0.0 28:0.0 29:0.0 30:0.0 31:0.0 32:0.0 33:0.0 34:0.0 35:0.0 36:1.0 37:0.0 38:1.0 39:0.0 40:1.0 41:0.0 42:1.0 43:0.5 44:0.0 45:0.011491373955557336 46:0.0535345277103625 47:0.011852988829197579 48:0.0 49:0.0 50:0.0 51:0.0 52:0.0 53:0.0 54:0.0 55:0.19230769230769232 56:0.5 57:0.0593454975879085 58:0.0 59:0.0 60:1.0 61:0.0 62:0.0 63:0.0 64:0.0 65:0.0 66:0.02422872907111056 67:0.010597541217954826 68:0.0 69:0.0021406207800262075 70:0.01884607345223232 71:0.0 72:0.0 73:0.0 74:1.0 75:0.01239 76:0.35217825389540025 77:0.27700445294851317 78:0.9515853107911505 79:0.9508242267086497 80:0.0 
0.0 256.0 0.0 0:0.0 1:0.0 2:1.0 3:0.0 4:0.0 5:0.0 6:0.0 7:3.90046805616674E-4 8:0.0 9:0.0 10:0.0 11:1.0 12:0.0 13:0.0 14:0.0013020833333333333 15:1.0 16:0.07588280354355148 17:0.0 18:0.0 19:0.0 20:0.0 21:0.6078947368421053 22:0.2245633951727931 23:0.0 24:0.02341532639545885 25:0.0225 26:0.65883 27:0.0 28:0.0 29:1.0 30:0.0 31:0.0 32:0.0 33:0.0 34:0.0 35:0.0 36:0.0 37:0.0 38:1.0 39:0.0 40:1.0 41:1.0 42:1.0 43:0.5 44:0.0 45:0.009267237060933336 46:0.0535345277103625 47:0.011852988829197579 48:0.0 49:0.0 50:0.0 51:0.0 52:0.0 53:0.0 54:0.0 55:0.23076923076923078 56:0.25 57:0.0593454975879085 58:0.0 59:0.0 60:1.0 61:0.0 62:0.0 63:0.0 64:0.0 65:0.0 66:0.025836594857072365 67:0.010597541217954826 68:0.0 69:0.002260655590121135 70:0.01884607345223232 71:0.0 72:0.0 73:0.0 74:1.0 75:0.01239 76:0.6666031825645053 77:0.7716373727102881 78:0.9515853107911505 79:0.9508242267086497 80:0.0 
0.0 256.0 0.0 0:0.0 1:0.0 2:1.0 3:0.0 4:0.0 5:0.0 6:0.0 7:1.9002280273632834E-4 8:0.0 9:0.0 10:0.0 11:1.0 12:0.0 13:0.0 14:0.0013020833333333333 15:1.0 16:0.020527207566938478 17:0.0 18:0.0 19:0.0 20:0.0 21:0.6078947368421053 22:0.2245633951727931 23:0.0 24:0.02341532639545885 25:0.0225 26:0.76371 27:0.0 28:0.0 29:1.0 30:0.0 31:0.0 32:0.0 33:0.0 34:0.0 35:0.0 36:1.0 37:0.0 38:1.0 39:0.0 40:1.0 41:0.0 42:1.0 43:0.5 44:0.0 45:0.008155168613621335 46:0.0535345277103625 47:0.011852988829197579 48:0.0 49:0.0 50:0.0 51:0.0 52:0.0 53:0.0 54:0.0 55:0.2692307692307693 56:0.5 57:0.0593454975879085 58:0.0 59:0.0 60:1.0 61:0.0 62:0.0 63:0.0 64:0.0 65:0.0 66:0.023311951194895198 67:0.010597541217954826 68:0.0 69:0.0013904032169329106 70:0.01884607345223232 71:0.0 72:0.0 73:0.0 74:1.0 75:0.01238 76:0.35217825389540025 77:0.27696939036179585 78:0.9515853107911505 79:0.9508242267086497 80:0.0 
0.0 256.0 0.0 0:0.0 1:0.0 2:1.0 3:0.0 4:0.0 5:0.0 6:0.0 7:1.3001560187222467E-4 8:0.0 9:0.0 10:0.0 11:1.0 12:0.0 13:0.0 14:0.0013020833333333333 15:1.0 16:0.021087601567863917 17:0.0 18:0.0 19:0.0 20:0.0 21:0.6078947368421053 22:0.2245633951727931 23:0.0 24:0.02341532639545885 25:0.0225 26:0.65923 27:0.0 28:0.0 29:1.0 30:0.0 31:0.0 32:0.0 33:0.0 34:1.0 35:0.0 36:0.0 37:0.0 38:1.0 39:0.0 40:1.0 41:1.0 42:1.0 43:0.5 44:0.0 45:0.008465746288095858 46:0.0535345277103625 47:0.011852988829197579 48:0.0 49:0.0 50:0.0 51:0.0 52:0.0 53:0.0 54:0.0 55:0.3076923076923077 56:0.75 57:0.0593454975879085 58:0.0 59:0.0 60:1.0 61:0.0 62:0.0 63:0.0 64:0.0 65:0.0 66:0.02394836886431687 67:0.010597541217954826 68:0.0 69:0.0011803422992667872 70:0.01884607345223232 71:0.0 72:0.0 73:0.0 74:1.0 75:0.01238 76:0.6666031825645053 77:0.7710312908541748 78:0.9515853107911505 79:0.9508242267086497 80:0.0 
189.33264825604616 256.0 0.0 0:0.0 1:0.0 2:1.0 3:0.0 4:0.0 5:0.0 6:1.2403870007442322E-4 7:2.700324038884666E-4 8:0.0 9:0.0 10:0.0 11:1.0 12:0.0 13:0.0 14:0.0026041666666666665 15:1.0 16:0.1355388186467376 17:0.0 18:0.0 19:0.0 20:0.0 21:0.6078947368421053 22:0.2245633951727931 23:0.0 24:0.02341532639545885 25:0.0225 26:0.76403 27:0.0 28:0.0 29:1.0 30:0.0 31:0.0 32:0.0 33:0.0 34:0.0 35:1.0 36:1.0 37:0.0 38:1.0 39:0.0 40:1.0 41:0.0 42:1.0 43:0.25 44:0.0 45:0.007083174704951209 46:0.0535345277103625 47:0.023705977658395157 48:0.0 49:0.0 50:0.0 51:0.0 52:0.0 53:0.0 54:0.0 55:0.34615384615384615 56:0.75 57:0.029672629760619202 58:0.0 59:0.0 60:1.0 61:0.0 62:0.0 63:0.0 64:0.0 65:0.0 66:0.15392616433593878 67:0.021195082435909653 68:0.0 69:8.902581748707125E-4 70:0.03769214690446464 71:0.005952380952380952 72:0.005952380952380952 73:0.0 74:1.0 75:0.02477 76:0.35217825389540025 77:0.2769794082437151 78:0.9515853107911505 79:0.9508242267086497 80:0.0 
107.29507120802415 0.0 0.0 0:0.0 1:0.0 2:0.0 3:0.0 4:0.0 5:0.0 6:0.0026048127015628874 7:0.012811537384486137 8:0.0 9:0.0 10:0.0 11:0.0 12:0.0 13:0.0 14:0.009114583333333332 15:0.31818 16:0.011578184424406671 17:0.0 18:0.0 19:0.0 20:0.0795 21:0.49521527777777774 22:0.2247819625544112 23:0.5 24:0.019174888498445737 25:0.0184 26:1.0 27:0.0 28:1.0 29:0.0 30:0.0 31:0.0 32:0.0 33:0.0 34:0.0 35:0.0 36:1.0 37:0.0 38:0.0 39:0.0 40:0.0 41:0.0 42:1.0 43:0.25 44:0.0 45:0.03268078626244814 46:0.04383960241793754 47:0.1975320485489327 48:0.0 49:0.0 50:0.0 51:0.0027117229870671673 52:0.59091 53:0.002340425531914894 54:0.5 55:0.0 56:1.0 57:0.0029160786419915323 58:0.04 59:0.0 60:0.0 61:0.0 62:4.505519261094841E-4 63:0.09091 64:0.0035026269702276708 65:0.5 66:0.16682834105258434 67:0.1766098033609708 68:8.678044547295342E-4 69:0.013703974152504227 70:0.07262178484066141 71:0.02678571428571428 72:0.02976190476190476 73:8.678044547295342E-4 74:0.0018922397236233637 75:0.20655 76:0.3521900832312067 77:0.277019479771392 78:0.7957984247228216 79:0.7940822374513797 80:0.3333333333333333 
58.73538177497928 0.0 0.0 0:0.0 1:0.0 2:0.0 3:0.16666666666666666 4:0.0 5:0.0 6:0.002480774001488464 7:0.012221466575989118 8:0.0 9:0.0 10:0.0 11:0.0 12:0.0 13:0.0 14:0.013020833333333332 15:0.47619 16:0.011578184424406671 17:3.566333808844508E-4 18:0.09524 19:0.0 20:0.0266 21:0.4978070175438596 22:0.2246321325616449 23:0.0 24:0.019174888498445737 25:0.0184 26:1.0 27:0.0 28:1.0 29:1.0 30:0.0 31:0.0 32:0.0 33:0.0 34:0.0 35:0.0 36:1.0 37:0.0 38:0.0 39:0.0 40:0.0 41:0.0 42:1.0 43:1.0 44:0.0 45:0.03268078626244814 46:0.04383960241793754 47:0.1856826127739405 48:0.0 49:0.0 50:0.0 51:0.0014601585314977055 52:0.33333 53:6.382978723404255E-4 54:0.14286 55:0.0 56:0.25 57:0.003102246778005687 58:0.13636 59:0.0 60:0.0 61:0.0 62:9.011038522189682E-4 63:0.19048 64:0.0 65:0.0 66:0.14129593701988313 67:0.16601543886400455 68:2.892681515765114E-4 69:0.006701943563633453 70:0.14369001146808424 71:0.05654761904761905 72:0.09523809523809523 73:2.892681515765114E-4 74:0.003197530298478291 75:0.19416 76:0.3521900832312067 77:0.277019479771392 78:0.8246450609541967 79:0.8228560844600851 80:0.0 
81.51287026143079 0.0 0.0 0:0.0 1:0.0 2:0.0 3:0.0 4:0.0 5:0.0 6:0.0053336641032001985 7:0.01291154938592631 8:0.0 9:0.0 10:0.0 11:0.0 12:0.0 13:0.0 14:0.0 15:0.0 16:0.023087245359712405 17:0.0 18:0.0 19:0.0 20:0.08797 21:0.4978070175438596 22:0.22504455689475572 23:0.75 24:0.019174888498445737 25:0.01842 26:1.0 27:0.0 28:0.0 29:0.0 30:0.0 31:1.0 32:0.0 33:0.0 34:1.0 35:0.0 36:0.0 37:0.0 38:0.0 39:0.0 40:0.0 41:1.0 42:1.0 43:0.5 44:0.0 45:0.007584106437974632 46:0.04383960241793754 47:0.3930033256587363 48:0.0 49:0.0 50:0.0 51:0.00917813934084272 52:1.0 53:0.009148936170212766 54:0.97727 55:0.07692307692307693 56:0.5 57:0.001465776487773848 58:0.0 59:0.0 60:0.0 61:0.0 62:2.2527596305474206E-4 63:0.02273 64:0.0017513134851138354 65:0.125 66:0.02621928653934575 67:0.35137710854855614 68:0.00202487706103558 69:0.011393304058176871 70:0.07123770570523068 71:0.02678571428571428 72:0.023809523809523808 73:0.00202487706103558 74:0.0017116089567904959 75:0.41045 76:0.5396968850992954 77:0.5716153333700658 78:0.04490167059649827 79:0.04513798851639192 80:0.0 
16.14751892997597 1.9583188448533568 0.0 0:0.0 1:0.0 2:0.0 3:0.0 4:0.0 5:0.0 6:0.005829818903497892 7:0.01931231747809737 8:0.0 9:0.0 10:0.0 11:0.0 12:0.0 13:0.0 14:0.0026041666666666665 15:0.04167 16:0.014011084371155664 17:0.0 18:0.0 19:0.0 20:0.45101 21:0.527077119883041 22:0.2352725793110202 23:0.71429 24:0.0535756521151507 25:0.05361 26:1.0 27:0.0 28:1.0 29:1.0 30:1.0 31:0.0 32:0.0 33:0.0 34:0.0 35:0.0 36:0.0 37:0.0 38:0.0 39:0.0 40:0.0 41:1.0 42:1.0 43:0.0 44:0.005780346820809248 45:0.04951209249203518 46:0.05450981401966022 47:0.45974833717063196 48:0.15017131973824385 49:0.17250788014041718 50:0.14106308217588756 51:0.00917813934084272 52:0.91667 53:0.0 54:0.0 55:0.0 56:0.25 57:0.0026358741712899213 58:0.03704 59:1.0 60:1.0 61:0.0 62:0.00991214237440865 63:0.91667 64:0.010507880910683012 65:0.85714 66:0.07019799037803769 67:0.5459274436926204 68:0.0017356089094590684 69:0.016304728371227654 70:0.20121564517860266 71:0.034863928571428573 72:0.03571428571428571 73:0.0017356089094590684 74:0.0019957185371968153 75:0.85931 76:0.41453068293121476 77:0.41819147177712224 78:0.0773365775347414 79:0.08190405630672346 80:0.0 
198.99374088338877 47.053280437880595 102.43298160075608 0:0.0 1:0.0196078431372549 2:1.0 3:0.0 4:0.0 5:0.0 6:6.201935003721161E-4 7:0.007840940912909548 8:0.0 9:0.0 10:0.0 11:0.0 12:0.0 13:0.0 14:0.0 15:0.0 16:0.029933877581239263 17:0.0 18:0.0 19:0.0 20:0.00131 21:0.3072733918128655 22:0.22456397513702306 23:1.0 24:0.011835777357300537 25:0.01184 26:1.0 27:0.0 28:0.0 29:0.0 30:0.0 31:0.0 32:0.0 33:0.0 34:0.0 35:1.0 36:0.0 37:0.0 38:0.0 39:0.0 40:0.0 41:0.0 42:1.0 43:1.0 44:0.0 45:0.0366682028573146 46:0.027060171624640302 47:0.05171292743242092 48:0.0 49:0.0 50:0.0 51:0.0012515644555694619 52:1.0 53:0.0010638297872340426 54:0.83333 55:0.5 56:0.25 57:0.00687560349900869 58:0.0 59:0.0 60:0.0 61:0.0 62:2.2527596305474206E-4 63:0.16667 64:0.0017513134851138354 65:1.0 66:0.1085288378508708 67:0.04623558562851424 68:0.0 69:0.007462164027567994 70:0.08222277459847581 71:0.02976190476190476 72:0.02976190476190476 73:0.0 74:1.0 75:0.07283 76:0.3979222954589545 77:0.38311385823695304 78:0.09603672302212413 79:0.10135210224115575 80:0.0 
9.998083999209754 8.107064393696382 0.0 0:0.2 1:0.0 2:0.1 3:0.16666666666666666 4:0.0 5:0.0 6:0.0854626643512776 7:0.9151098131775813 8:0.016877637130801686 9:0.017400174001740015 10:0.0 11:0.0 12:0.0 13:0.0 14:0.0 15:0.0 16:0.029933877581239263 17:0.0012482168330955777 18:0.01014 19:0.0 20:0.31259 21:0.323109283625731 22:0.24500698004196977 23:0.62069 24:0.34712883497769975 25:0.34732 26:1.0 27:0.0 28:0.0 29:0.0 30:0.0 31:0.0 32:0.0 33:0.0 34:0.0 35:1.0 36:0.0 37:1.0 38:0.0 39:0.0 40:0.0 41:0.0 42:1.0 43:0.25 44:0.12716763005780346 45:0.8844049932875147 46:0.02848595652089945 47:0.23449454250874052 48:1.3825971364002621E-6 49:2.0362119941031303E-6 50:0.06621473795869659 51:0.139549436795995 52:0.96957 53:0.13489361702127659 54:0.91884 55:0.5 56:0.25 57:0.040175178978522574 58:0.01739 59:0.0 60:0.0 61:0.0 62:0.007884658706915973 63:0.05072 64:0.05604203152364273 65:0.27586 66:0.5330530665799418 67:0.2320737634613552 68:0.03326583743129881 69:0.8991907653219433 70:0.06850324552434002 71:0.029454047619047616 72:0.02976190476190476 73:0.03326583743129881 74:0.0016578123438607429 75:0.36554 76:0.4179369401766829 77:0.4255195524010359 78:0.13641198013344707 79:0.14335062048527503 80:0.0 
0.3053931686978038 0.0 0.0 0:0.0 1:0.0 2:0.5 3:0.0 4:0.0 5:0.0 6:0.0016125031009675017 7:0.010981317758130976 8:0.004219409282700422 9:0.21429214292142917 10:0.0 11:0.0 12:0.0 13:0.0 14:0.006510416666666666 15:0.35714 16:0.02260338093600586 17:0.0 18:0.0 19:0.0 20:0.11868 21:0.5548870614035087 22:0.22485313656638697 23:0.33333 24:0.022469252601702936 25:0.04327 26:1.0 27:0.0 28:0.0 29:1.0 30:0.0 31:1.0 32:0.0 33:0.0 34:0.0 35:1.0 36:1.0 37:0.0 38:0.0 39:0.0 40:0.0 41:0.0 42:1.0 43:0.25 44:0.0 45:0.05086460817119843 46:0.051371516489741795 47:0.14969727978170036 48:0.0 49:0.0 50:0.0 51:0.001668752607425949 52:0.57143 53:0.0014893617021276596 54:0.5 55:0.038461538461538464 56:0.5 57:0.004508982731596018 58:0.0625 59:0.0 60:0.0 61:0.0 62:2.2527596305474206E-4 63:0.07143 64:0.0017513134851138354 65:0.33333 66:0.02566978053403012 67:0.1338416086915086 68:5.785363031530228E-4 69:0.014004061177741545 70:0.07345223232191986 71:0.021825416666666663 72:0.023809523809523808 73:5.785363031530228E-4 74:0.0018373540015590663 75:0.16957 76:0.36471971571740186 77:0.3005815380454111 78:0.027986253950734962 79:0.08410816817929247 80:0.3333333333333333 
106.89398921332815 0.0 17.764348131360432 0:0.0 1:0.0 2:0.0 3:0.16666666666666666 4:0.0 5:0.0 6:0.029893326717935997 7:0.19181301756210745 8:0.008438818565400843 9:0.024780247802478023 10:0.0 11:0.0 12:0.0 13:0.0 14:0.0078125 15:0.02479 16:0.016382266916921677 17:7.132667617689016E-4 18:0.01653 19:0.0 20:0.22644 21:0.5763157894736842 22:0.23473818715877762 23:0.6129 24:0.07020655944497005 25:0.13519 26:1.0 27:0.0 28:0.0 29:1.0 30:0.0 31:0.0 32:0.0 33:0.0 34:0.0 35:1.0 36:0.0 37:0.0 38:1.0 39:0.0 40:0.0 41:0.0 42:1.0 43:0.75 44:0.011560693641618495 45:0.15632075660728953 46:0.05075351328385016 47:0.7713538557744238 48:0.0 49:0.0 50:0.3089203434216196 51:0.045473508552357114 52:0.90083 53:0.04425531914893617 54:0.8595 55:0.038461538461538464 56:0.75 57:0.002391855834442724 58:0.02941 59:0.0 60:0.0 61:0.0 62:0.0022527596305474207 63:0.04132 64:0.017513134851138354 65:0.32258 66:0.01860470332282917 67:0.7883732011817401 68:0.008678044547295344 69:0.14737273809404727 70:0.10913359470773332 71:0.04051458333333333 72:0.03571428571428571 73:0.008678044547295342 74:0.00200564153153377 75:0.99884 76:0.36471971571740186 77:0.3005815380454111 78:0.4280665228515527 79:0.8849972217077235 80:0.11111 
174.79291908276758 0.0 0.0 0:0.0 1:0.0 2:0.0 3:0.16666666666666666 4:0.0 5:0.0 6:0.02493177871495907 7:0.17270072408689044 8:0.008438818565400843 9:0.02970029700297003 10:0.0 11:0.0 12:0.0 13:0.0 14:0.0078125 15:0.0297 16:0.018574468999837054 17:7.132667617689016E-4 18:0.0198 19:0.0 20:0.46921 21:0.39736842105263154 22:0.2425416584645163 23:0.62069 24:0.05990674415461549 25:0.14695 26:1.0 27:0.0 28:0.0 29:1.0 30:0.0 31:0.0 32:0.0 33:0.0 34:0.0 35:1.0 36:0.0 37:0.0 38:1.0 39:0.0 40:0.0 41:0.0 42:1.0 43:1.0 44:0.011560693641618495 45:0.17493537980643994 46:0.034994431533613576 47:0.7186217880389983 48:0.0 49:0.0 50:0.45494580170384863 51:0.03733833959115561 52:0.88614 53:0.03553191489361702 54:0.82673 55:0.038461538461538464 56:0.5 57:0.0020423739627435187 58:0.03043 59:0.0 60:0.0 61:0.0 62:0.0027033115566569045 63:0.05941 64:0.01576182136602452 65:0.31034 66:0.02109430195915712 67:0.7878347469741732 68:0.00809950824414232 69:0.15651538946294427 70:0.10038186460881403 71:0.035509047619047614 72:0.023809523809523808 73:0.00809950824414232 74:0.001872891229245479 75:0.99985 76:0.36470433758085347 77:0.3006416453369265 78:0.3425889228916872 79:0.916882756065938 80:0.11111 
0.0 0.0 11.020579915674197 0:0.0 1:0.0 2:1.0 3:0.0 4:0.0 5:0.0 6:8.682709005209625E-4 7:0.002590310837300476 8:0.0 9:0.0 10:0.0 11:0.0 12:0.0 13:0.0 14:0.0 15:0.0 16:0.010722781246782595 17:0.0 18:0.0 19:0.0 20:0.00245 21:0.3450657894736842 22:0.2245650062450561 23:1.0 24:0.013291492093526154 25:0.0135 26:1.0 27:0.0 28:1.0 29:1.0 30:0.0 31:0.0 32:0.0 33:0.0 34:0.0 35:0.0 36:1.0 37:0.0 38:0.0 39:0.0 40:0.0 41:0.0 42:1.0 43:0.25 44:0.0 45:0.022571983890035462 46:0.030388376389702522 47:0.06825417128563714 48:0.0 49:0.0 50:0.0 51:0.001668752607425949 52:1.0 53:0.0014893617021276596 54:0.875 55:0.0 56:0.25 57:0.005850012284240177 58:0.0 59:0.0 60:0.0 61:0.0 62:2.2527596305474206E-4 63:0.125 64:0.0017513134851138354 65:1.0 66:0.05254230635520516 67:0.06102481019092093 68:0.0 69:0.0018205279531064004 70:0.1085231028229565 71:0.041666666666666664 72:0.041666666666666664 73:0.0 74:1.0 75:0.07973 76:0.37267612698082225 77:0.3161292907840496 78:0.3499059348818543 79:0.37146693832191147 80:0.0 
38.257626329299136 0.0 0.0 0:0.0 1:0.0 2:0.0 3:0.0 4:0.0 5:0.0 6:0.06908955594145373 7:0.1889926791214946 8:0.008438818565400843 9:0.01074010740107401 10:0.0 11:0.0 12:0.0 13:0.0 14:0.013020833333333332 15:0.01792 16:0.007160452862045106 17:8.91583452211127E-4 18:0.00896 19:0.0 20:0.324 21:0.33500219298245615 22:0.24357298004247238 23:0.67 24:0.0970274699283687 25:0.09858 26:1.0 27:0.0 28:1.0 29:1.0 30:0.0 31:0.0 32:0.0 33:1.0 34:0.0 35:0.0 36:0.0 37:0.0 38:0.0 39:0.0 40:0.0 41:0.0 42:1.0 43:0.25 44:0.02890173410404624 45:0.14474923357444844 46:0.02950215335492053 47:0.7998306969671131 48:0.0 49:0.0 50:0.06276891968044553 51:0.11243220692532332 52:0.96595 53:0.10404255319148936 54:0.87634 55:0.0 56:0.25 57:0.003498865850383668 58:0.0137 59:0.0 60:0.0 61:0.0 62:0.011263798152737103 63:0.08961 64:0.0297723292469352 65:0.17 66:0.1223029348106447 67:0.7448457701960036 68:0.02863754700607463 69:0.21030098728631302 70:0.06742739233841581 71:0.027261904761904758 72:0.023809523809523808 73:0.02863754700607463 74:0.0015860790446904775 75:0.97317 76:0.37267612698082225 77:0.3161292907840496 78:0.6200822756233383 79:0.6568253380255602 80:0.0 
0.0 45.20324121663735 0.0 0:0.0 1:0.0 2:0.0 3:0.6666666666666666 4:0.0 5:0.0 6:0.02877697841726619 7:0.03379405528663439 8:0.004219409282700422 9:0.012870128701287014 10:0.0 11:0.0 12:0.0 13:0.0 14:0.03125 15:0.103 16:0.0120015657951499 17:7.132667617689016E-4 18:0.01717 19:0.0 20:0.40445 21:0.24327887426900582 22:0.23055517758644062 23:0.54839 24:0.0571389151687165 25:0.06046 26:0.39706 27:0.0 28:0.0 29:0.0 30:0.0 31:0.0 32:0.0 33:0.0 34:0.0 35:1.0 36:0.0 37:0.0 38:0.0 39:0.0 40:0.0 41:1.0 42:1.0 43:1.0 44:0.023121387283236993 45:0.036377662452161015 46:0.021522605398515506 47:0.281903939626503 48:0.0 49:0.0 50:0.19896741472469917 51:0.04025865665415102 52:0.82833 53:0.038085106382978726 54:0.76824 55:0.38461538461538464 56:0.75 57:0.004805375735864077 58:0.05323 59:0.0 60:0.0 61:0.0 62:0.0031538634827663887 63:0.06009 64:0.014010507880910683 65:0.25806 66:0.013629711453275167 67:0.31937005622796144 68:0.008678044547295344 69:0.026397655320042807 70:0.06647751860032879 71:0.038786488095238096 72:0.03571428571428571 73:0.008678044547295342 74:0.0019604098879707384 75:0.41723 76:0.5188086439322604 77:0.5729226669605246 78:0.7012052877138414 79:0.7744489720318576 80:0.06666666666666667 
25.44819304796625 0.0 0.0 0:0.0 1:0.0 2:0.1 3:0.0 4:0.0 5:0.0 6:0.12577524187546513 7:0.2709425131015722 8:0.025316455696202528 9:0.01773017730177302 10:0.0 11:0.0 12:0.0 13:0.0 14:0.0 15:0.0 16:0.012870546800990229 17:0.0014265335235378032 18:0.00788 19:0.0 20:0.29403 21:0.31100913742690056 22:0.24990664057714224 23:0.7069 24:0.1445198112357526 25:0.14684 26:1.0 27:0.0 28:1.0 29:0.0 30:0.0 31:0.0 32:0.0 33:1.0 34:0.0 35:0.0 36:0.0 37:0.0 38:0.0 39:0.0 40:0.0 41:0.0 42:1.0 43:0.25 44:0.05202312138728324 45:0.14766465626064476 46:0.0273891295811097 47:0.7771966757624855 48:0.0 49:0.0 50:0.41454569562767263 51:0.20755110554860243 52:0.9803 53:0.2074468085106383 54:0.96059 55:0.0 56:0.25 57:0.0052836516760845845 58:0.01515 59:0.0 60:0.0 61:0.0 62:0.004505519261094841 63:0.0197 64:0.017513134851138354 65:0.05747 66:0.052835282771304566 67:0.734654849264589 68:0.050043390222736475 69:0.26584709565774073 70:0.0638380514425494 71:0.02876982142857143 72:0.023809523809523808 73:0.050043390222736475 74:0.0016320233152180873 75:0.92757 76:0.3866903411107273 77:0.3377228352609408 78:0.4435333366778709 79:0.47039266530839047 80:0.0 
0.0 3.0638277469904365 0.0 0:0.0 1:0.0 2:0.0 3:0.0 4:0.0 5:0.0 6:0.008062515504837508 7:0.01861223346801616 8:0.004219409282700422 9:0.045450454504545046 10:0.0 11:0.0 12:0.0 13:0.0 14:0.0 15:0.0 16:0.011926270565950668 17:3.566333808844508E-4 18:0.0303 19:1.0 20:0.05769 21:0.3110014619883041 22:0.2248210235002069 23:0.44444 24:0.011979377843852775 25:0.01217 26:1.0 27:0.0 28:1.0 29:1.0 30:0.0 31:0.0 32:0.0 33:0.0 34:0.0 35:0.0 36:0.0 37:0.0 38:0.0 39:0.0 40:0.0 41:0.0 42:1.0 43:0.25 44:0.0 45:0.014837597932153807 46:0.02738848582777023 47:0.5135868792814304 48:0.0 49:0.0 50:0.0 51:0.012724238631622862 52:0.92424 53:0.012127659574468085 54:0.86364 55:0.0 56:0.25 57:7.006302100890751E-4 58:0.05405 59:0.0 60:0.0 61:0.0 62:9.011038522189682E-4 63:0.06061 64:0.005253940455341506 65:0.33333 66:0.027504738087494807 67:0.45918866545951265 68:0.0023141452126120912 69:0.015074371567754648 70:0.08519902493037233 71:0.037698392857142854 72:0.02976190476190476 73:0.0023141452126120912 74:0.0020325600066863235 75:0.57975 76:0.38654129147956595 77:0.3374673792720006 78:0.38136005618823066 79:0.4045656603074643 80:0.0 
125.57006511744453 33.4835906988011 0.0 0:0.0 1:0.0 2:0.0 3:0.0 4:0.0 5:0.0 6:0.0032250062019350038 7:0.0068308196983638035 8:0.0 9:0.0 10:0.0 11:0.0 12:0.0 13:0.0 14:0.0026041666666666665 15:0.07407 16:0.023424222369079466 17:0.0 18:0.0 19:0.0 20:0.12462 21:0.4864766081871345 22:0.22503360534308112 23:0.625 24:0.01873845564715953 25:0.01801 26:1.0 27:0.0 28:0.0 29:1.0 30:0.0 31:1.0 32:0.0 33:0.0 34:0.0 35:1.0 36:0.0 37:0.0 38:0.0 39:0.0 40:0.0 41:1.0 42:1.0 43:0.75 44:0.0 45:0.009517702927445047 46:0.04284178474175835 47:0.2774224723572383 48:0.0 49:0.0 50:0.0 51:0.005214851898206091 52:0.92593 53:0.004042553191489362 54:0.7037 55:0.07692307692307693 56:0.25 57:0.002029042229218208 58:0.0 59:0.0 60:0.0 61:0.0 62:0.0013516557783284523 63:0.22222 64:0.0035026269702276708 65:0.25 66:0.026601978221619135 67:0.24803837478954222 68:0.00202487706103558 69:0.01134328955397065 70:0.04826622903402574 71:0.01413690476190476 72:0.017857142857142856 73:0.00202487706103558 74:0.001166422437304693 75:0.28988 76:0.5781800803448487 77:0.632273608390978 78:0.04529047308483419 79:0.04555473235784405 80:0.0 
256.0 0.0 0.0 0:0.0 1:0.0 2:0.0 3:0.0 4:0.0 5:0.0 6:0.01352021830811213 7:0.029263511621394567 8:0.012658227848101264 9:0.08181081810818108 10:0.0 11:0.0 12:0.0 13:0.0 14:0.01171875 15:0.08182 16:0.013296396867772778 17:1.783166904422254E-4 18:0.00909 19:0.0 20:0.48127 21:0.25034210526315787 22:0.2285775537700633 23:0.33333 24:0.03497938910663603 25:0.03554 26:0.63229 27:0.0 28:1.0 29:0.0 30:0.0 31:0.0 32:0.0 33:0.0 34:0.0 35:0.0 36:0.0 37:0.0 38:0.0 39:0.0 40:0.0 41:0.0 42:1.0 43:0.25 44:0.011560693641618495 45:0.04367122848498206 46:0.023814592600699114 47:0.22395847545550157 48:0.0 49:0.0 50:0.19746908873935096 51:0.019190654985398414 52:0.83636 53:0.017659574468085106 54:0.75455 55:0.0 56:0.5 57:0.003198663779394092 58:0.04032 59:0.0 60:0.0 61:0.0 62:0.0020274836674926784 63:0.08182 64:0.014010507880910683 65:0.53333 66:0.03460766392661291 67:0.2937180342450523 68:0.00404975412207116 69:0.02394694461393804 70:0.06552626078310632 71:0.037698392857142854 72:0.02976190476190476 73:0.00404975412207116 74:0.001974205270341628 75:0.3837 76:0.3688534771149669 77:0.30940729201624906 78:0.819904178999649 79:0.8678736803111687 80:0.0 
94.68957911133143 28.77496799729812 15.681078777839831 0:0.2 1:0.0196078431372549 2:0.0 3:0.0 4:0.0 5:0.0 6:0.0155048375093029 7:0.0219326319158299 8:0.025316455696202528 9:0.14286142861428613 10:0.0 11:0.0 12:0.0 13:0.0 14:0.022135416666666664 15:0.13492 16:0.013628436485061199 17:3.566333808844508E-4 18:0.01587 19:0.0 20:0.52477 21:0.24991301169590643 22:0.2299966389928269 23:0.23529 24:0.03492729873406317 25:0.03599 26:0.41991 27:0.0 28:0.0 29:0.0 30:0.0 31:0.0 32:0.0 33:0.0 34:1.0 35:0.0 36:0.0 37:0.0 38:0.0 39:0.0 40:0.0 41:1.0 42:1.0 43:1.0 44:0.011560693641618495 45:0.02180054902117939 46:0.023814592600699114 47:0.2555901445382451 48:4.715010747211151E-6 49:6.10863598230939E-6 50:0.30418835150992807 51:0.020859407592824362 52:0.79365 53:0.01851063829787234 54:0.69048 55:0.34615384615384615 56:1.0 57:0.00256921550366337 58:0.06338 59:0.0 60:0.0 61:0.0 62:0.002928587519711647 63:0.10317 64:0.01926444833625219 65:0.64706 66:0.031034473091027345 67:0.3651386638711521 68:0.0046282904252241824 69:0.017895189604985446 70:0.0658419438120364 71:0.03816523809523809 72:0.03571428571428571 73:0.0046282904252241824 74:0.0019769213202820947 75:0.47702 76:0.5155549851186956 77:0.5672074653256063 78:0.6541351025936889 79:0.7030005556584552 80:0.0 
0.0 0.0 7.161017632177937 0:0.0 1:0.0 2:1.0 3:0.0 4:0.0 5:0.0 6:0.008062515504837508 7:0.011431371764611752 8:0.0 9:0.0 10:0.0 11:0.0 12:0.0 13:1.0 14:0.0234375 15:0.27273 16:0.013638311269218474 17:0.0 18:0.0 19:0.0 20:0.42897 21:0.2509751461988304 22:0.22672748541329288 23:0.25 24:0.022277785286299954 25:0.02296 26:0.41366 27:0.0 28:0.0 29:0.0 30:0.0 31:0.0 32:0.0 33:0.0 34:1.0 35:0.0 36:0.0 37:0.0 38:0.0 39:0.0 40:0.0 41:1.0 42:1.0 43:1.0 44:0.005780346820809248 45:0.013915883543390708 46:0.022101661527369174 47:0.22884866831528386 48:0.0 49:0.0 50:0.15512646269101998 51:0.009386733416770963 52:0.68182 53:0.008297872340425531 54:0.59091 55:0.34615384615384615 56:1.0 57:0.0021452187642244836 58:0.03896 59:0.0 60:0.0 61:0.0 62:0.0013516557783284523 63:0.09091 64:0.010507880910683012 65:0.5 66:0.062007266936560085 67:0.27893992820610564 68:0.0031819496673416254 69:0.012543637654919925 70:0.05441219006513645 71:0.02678571428571428 72:0.02976190476190476 73:0.0031819496673416254 74:0.0016578123438607429 75:0.36441 76:0.5155567595190664 77:0.5672124742665658 78:0.82282772287162 79:0.8837006853120947 80:0.5 
64.11507143660626 0.0 0.0 0:0.0 1:0.0 2:0.12 3:0.0 4:0.0 5:0.0 6:0.12255023567353014 7:0.2718426211145337 8:0.07594936708860758 9:0.054600546005460056 10:0.0 11:0.0 12:0.02013020130201302 13:0.0 14:0.0 15:0.0 16:0.012860672016832954 17:0.0012482168330955777 18:0.00708 19:0.0 20:0.24156 21:0.310922149122807 22:0.24326517989852603 23:0.6443 24:0.1298078006036852 25:0.13209 26:1.0 27:0.0 28:1.0 29:0.0 30:0.0 31:0.0 32:0.0 33:1.0 34:0.0 35:0.0 36:0.0 37:1.0 38:0.0 39:0.0 40:0.0 41:0.0 42:1.0 43:0.25 44:0.046242774566473986 45:0.13902859318332098 46:0.02738848582777023 47:0.821620103891305 48:0.0 49:0.0 50:1.6574402492790135E-4 51:0.19962453066332916 52:0.96764 53:0.20191489361702128 54:0.95956 55:0.0 56:0.25 57:0.004745621001670275 58:0.02551 59:0.0 60:0.0 61:0.0 62:0.0018022077044379365 63:0.00809 64:0.014010507880910683 65:0.05369 66:0.06398941359859146 67:0.7346802630324978 68:0.04281168643332369 69:0.26303628052135114 70:0.07190115980182246 71:0.03355702380952381 72:0.02976190476190476 73:0.042811686433323684 74:0.0017828985448318736 75:0.92757 76:0.3866903411107273 77:0.3377228352609408 78:0.4738988110169067 79:0.503241340989072 80:0.0 
0.0 0.7839593356562907 0.0 0:0.0 1:0.0 2:0.0 3:0.0 4:0.0 5:0.0 6:0.008682709005209625 7:0.016161939432731927 8:0.0 9:0.0 10:0.0 11:0.0 12:0.0 13:0.0 14:0.0 15:0.0 16:0.019848316156125718 17:0.0 18:0.0 19:0.0 20:0.55649 21:0.42105263157894735 22:0.2355173059894864 23:0.83333 24:0.03547776726584674 25:0.03575 26:1.0 27:0.0 28:1.0 29:1.0 30:1.0 31:0.0 32:0.0 33:0.0 34:0.0 35:0.0 36:0.0 37:0.0 38:0.0 39:0.0 40:0.0 41:1.0 42:1.0 43:0.0 44:0.005780346820809248 45:0.01879495862303885 46:0.03708019235349783 47:0.4006992410676218 48:0.3628785714921304 49:0.4168533194327928 50:0.3393111678323996 51:0.014810179390905297 52:1.0 53:0.014893617021276596 54:0.98592 55:0.0 56:0.25 57:0.0013943564867454 58:0.0 59:1.0 60:0.0 61:0.0 62:2.2527596305474206E-4 63:0.01408 64:0.0017513134851138354 65:0.08333 66:0.06446882955220867 67:0.6834270466024969 68:0.0031819496673416254 69:0.01560452531234058 70:0.09843062373949935 71:0.02926589285714285 72:0.02976190476190476 73:0.0031819496673416254 74:0.0017423998199769832 75:0.99538 76:0.38897872612248563 77:0.35560475448675893 78:0.0650140470576431 79:0.069781441007594 80:0.0 
97.82807771170532 0.0 0.0 0:0.0 1:0.0 2:0.0 3:0.0 4:0.0 5:0.0 6:0.10716943686430166 7:0.19829379525543064 8:0.025316455696202528 9:0.02082020820208202 10:0.0 11:0.0 12:0.0 13:0.0 14:0.005208333333333333 15:0.00462 16:0.0019317546507672109 17:8.91583452211127E-4 18:0.00578 19:0.0 20:0.27131 21:0.31999963450292396 22:0.24630498361250053 23:0.73684 24:0.1437637969094923 25:0.14488 26:1.0 27:0.0 28:1.0 29:0.0 30:0.0 31:0.0 32:0.0 33:1.0 34:0.0 35:0.0 36:0.0 37:0.0 38:0.0 39:0.0 40:0.0 41:1.0 42:1.0 43:0.25 44:0.057803468208092484 45:0.11174785100286533 46:0.028183521202016237 47:0.6671776669224867 48:0.04153591226931943 49:0.2624270018000114 50:0.5079722875990321 51:0.17563621193158113 52:0.97341 53:0.17425531914893616 54:0.94682 55:0.0 56:0.25 57:0.005623848947650091 58:0.0128 59:0.0 60:0.0 61:0.0 62:0.0051813471502590676 63:0.02659 64:0.0297723292469352 65:0.11184 66:0.018852822105841584 67:0.6866021792305982 68:0.04367949088805322 69:0.20108831561152735 70:0.06768192166677023 71:0.027921369047619042 72:0.023809523809523808 73:0.04367949088805322 74:0.0016046207915612922 75:1.0 76:0.38855287003345335 77:0.3547682613465036 78:0.18537350122911758 79:0.19586960548249674 80:0.0 
16.048847306683054 0.0 0.0 0:0.0 1:0.0 2:0.0 3:0.6666666666666666 4:0.0 5:0.0 6:0.008682709005209625 7:0.014251710205224626 8:0.016877637130801686 9:0.16902169021690217 10:0.0 11:0.0 12:0.0 13:0.0 14:0.018229166666666664 15:0.19718 16:0.04419829953994986 17:0.0 18:0.0 19:0.0 20:0.08527 21:0.24418859649122807 22:0.22483546513055058 23:0.41667 24:0.00940583186917151 25:0.00928 26:0.78165 27:1.0 28:0.0 29:0.0 30:0.0 31:0.0 32:0.0 33:1.0 34:0.0 35:0.0 36:0.0 37:0.0 38:1.0 39:0.0 40:0.0 41:1.0 42:1.0 43:0.5 44:0.0 45:0.0060913298735648285 46:0.021504580305010332 47:0.4673509849066258 48:0.0 49:0.0 50:0.0 51:0.010638297872340425 52:0.71831 53:0.008723404255319148 54:0.57746 55:0.038461538461538464 56:1.0 57:6.046893420408599E-4 58:0.06098 59:0.0 60:0.0 61:0.0 62:0.0022527596305474207 63:0.14085 64:0.012259194395796848 65:0.58333 66:0.05019428962330802 67:0.41784999523491845 68:0.0031819496673416254 69:0.013683968350821737 70:0.056782552693869934 71:0.02926589285714285 72:0.02976190476190476 73:0.0031819496673416254 74:0.0017423998199769832 75:0.60847 76:0.4385199844799114 77:0.45262293193350134 78:0.9119124065619827 79:0.9360251898499721 80:0.3333333333333333 
0.0 3.7818359682044522 0.0 0:0.0 1:0.0 2:0.0 3:0.0 4:0.0 5:0.0 6:0.008682709005209625 7:0.11241348961875423 8:0.0 9:0.0 10:0.0 11:0.0 12:0.0 13:0.0 14:0.0 15:0.0 16:0.037727847220894443 17:0.0 18:0.0 19:0.0 20:0.08856 21:0.21052631578947367 22:0.22475650904681815 23:0.83333 24:0.008109203946479255 25:0.008 26:1.0 27:1.0 28:0.0 29:0.0 30:0.0 31:1.0 32:0.0 33:0.0 34:1.0 35:0.0 36:0.0 37:0.0 38:0.0 39:0.0 40:0.0 41:1.0 42:1.0 43:0.25 44:0.0 45:0.04822970725549522 46:0.018540096176748917 47:0.3704698558881215 48:0.0 49:0.0 50:0.0 51:0.014810179390905297 52:1.0 53:0.014893617021276596 54:0.98592 55:0.11538461538461539 56:1.0 57:6.575401428019113E-4 58:0.0 59:0.0 60:0.0 61:0.0 62:2.2527596305474206E-4 63:0.01408 64:0.0017513134851138354 65:0.08333 66:0.042846048603245444 67:0.331230344038883 68:0.0031819496673416254 69:0.10500045013053785 70:0.04481026817239411 71:0.02926589285714285 72:0.02976190476190476 73:0.0031819496673416254 74:0.0017423998199769832 75:0.60002 76:0.45456056383346183 77:0.5410307398706693 78:0.01880926102443185 79:0.02033709946286349 80:0.0 
0.0 57.93351618064577 0.0 0:0.0 1:0.0 2:0.0 3:0.0 4:0.0 5:0.0 6:0.009923096005953857 7:0.031083730047605708 8:0.0 9:0.0 10:0.0 11:0.0 12:0.0 13:0.0 14:0.0 15:0.0 16:0.01093755780220336 17:5.349500713266762E-4 18:0.03704 19:0.0 20:0.15511 21:0.48895833333333333 22:0.2263324053455376 23:0.71429 24:0.06947729422894987 25:0.06672 26:0.77802 27:0.0 28:1.0 29:0.0 30:0.0 31:0.0 32:0.0 33:0.0 34:0.0 35:0.0 36:0.0 37:0.0 38:0.0 39:0.0 40:0.0 41:1.0 42:1.0 43:0.25 44:0.017341040462427744 45:0.1064479932674775 46:0.04328436516264428 47:0.18793880219436632 48:0.03394453225905772 49:0.055873657118189896 50:0.061109821990917225 51:0.01543596161869003 52:0.91358 53:0.015106382978723404 54:0.87654 55:0.0 56:0.25 57:0.009229130599566147 58:0.05319 59:1.0 60:0.0 61:0.0 62:6.758278891642261E-4 63:0.03704 64:0.005253940455341506 65:0.21429 66:0.07202453712529858 67:0.20219829092410813 68:0.0037604859704946482 69:0.033779796140880856 70:0.07984280815533322 71:0.028486369047619045 72:0.017857142857142856 73:0.0037604859704946482 74:0.0017014304924096357 75:0.23626 76:0.586141814809382 77:0.6446957819708181 78:0.1280953694877841 79:0.12817188368216334 80:0.0 
18.024614218698694 0.0 0.0 0:0.0 1:0.0 2:0.0 3:0.0 4:0.0 5:0.0 6:8.682709005209625E-4 7:0.012231467776133135 8:0.0 9:0.0 10:0.0 11:0.0 12:0.0 13:0.0 14:0.0 15:0.0 16:0.7222281354349853 17:0.0 18:0.0 19:0.0 20:0.11908 21:0.4864766081871345 22:0.22469774093573253 23:0.33333 24:0.01873845564715953 25:0.01801 26:1.0 27:1.0 28:0.0 29:1.0 30:0.0 31:1.0 32:0.0 33:0.0 34:0.0 35:0.0 36:1.0 37:0.0 38:0.0 39:0.0 40:0.0 41:0.0 42:1.0 43:0.5 44:0.0 45:0.06493077123449616 46:0.04284178474175835 47:0.0829460504249453 48:0.0 49:0.0 50:0.0 51:0.001668752607425949 52:1.0 53:0.0014893617021276596 54:0.875 55:0.2692307692307693 56:1.0 57:0.006786566564393225 58:0.0 59:0.0 60:0.0 61:0.0 62:2.2527596305474206E-4 63:0.125 64:0.0017513134851138354 65:0.33333 66:0.8202064011842415 67:0.0741605514787636 68:5.785363031530228E-4 69:0.026987826469676204 70:0.03872596927909249 71:0.009920654761904759 72:0.005952380952380952 73:5.785363031530228E-4 74:0.001205401787687936 75:0.08663 76:0.35217825389540025 77:0.27696939036179585 78:0.04529172728640948 79:0.04556399333209854 80:0.0 
72.20098523343604 0.0 0.0 0:0.0 1:0.0 2:0.0 3:0.0 4:0.0 5:0.0 6:8.682709005209625E-4 7:0.00482057846941633 8:0.0 9:0.0 10:0.0 11:0.0 12:0.0 13:0.0 14:0.0 15:0.0 16:0.023425456717099127 17:0.0 18:0.0 19:0.0 20:0.11908 21:0.4864766081871345 22:0.22469774093573253 23:0.33333 24:0.01873845564715953 25:0.01801 26:1.0 27:1.0 28:0.0 29:1.0 30:0.0 31:1.0 32:0.0 33:0.0 34:0.0 35:1.0 36:1.0 37:0.0 38:0.0 39:0.0 40:0.0 41:0.0 42:1.0 43:0.75 44:0.0 45:0.022571983890035462 46:0.04284178474175835 47:0.0829460504249453 48:0.0 49:0.0 50:0.0 51:0.001668752607425949 52:1.0 53:0.0014893617021276596 54:0.875 55:0.5 56:1.0 57:0.006786566564393225 58:0.0 59:0.0 60:0.0 61:0.0 62:2.2527596305474206E-4 63:0.125 64:0.0017513134851138354 65:0.33333 66:0.026603380022653104 67:0.0741605514787636 68:5.785363031530228E-4 69:0.010783127106860989 70:0.03872596927909249 71:0.009920654761904759 72:0.005952380952380952 73:5.785363031530228E-4 74:0.001205401787687936 75:0.08674 76:0.35217825389540025 77:0.27700445294851317 78:0.04529172728640948 79:0.04556399333209854 80:0.0 
0.0 0.0 3.2197305200073143 0:0.0 1:0.0 2:0.5 3:0.0 4:0.0 5:0.0 6:0.004837509302902506 7:0.02460295235428251 8:0.0 9:0.0 10:0.0 11:0.0 12:0.0 13:0.0 14:0.006510416666666666 15:0.125 16:0.04096677642448113 17:0.0 18:0.0 19:0.0 20:0.05094 21:0.3891812865497076 22:0.22472716169856158 23:0.6 24:0.014990764517727621 25:0.0144 26:0.92226 27:1.0 28:0.0 29:0.0 30:0.0 31:0.0 32:0.0 33:0.0 34:0.0 35:1.0 36:0.0 37:0.0 38:1.0 39:1.0 40:0.0 41:1.0 42:1.0 43:1.0 44:0.0 45:0.022571983890035462 46:0.034273427793406676 47:0.29545777550382313 48:0.0 49:0.0 50:0.0 51:0.00688360450563204 52:0.825 53:0.006382978723404255 54:0.75 55:0.5 56:1.0 57:0.0015241028219470805 58:0.04545 59:0.0 60:0.0 61:0.0 62:6.758278891642261E-4 63:0.075 64:0.005253940455341506 65:0.6 66:0.046524374516378635 67:0.26416341052765335 68:0.0011570726063060456 69:0.01816526792769903 70:0.08900137278053023 71:0.041666666666666664 72:0.041666666666666664 73:0.0011570726063060456 74:0.0022655486867280035 75:0.30896 76:0.5721820156241867 77:0.6231272821987248 78:0.9566924196056792 79:0.9559177625486199 80:0.3333333333333333 
0.0 46.90951033195716 0.0 0:0.0 1:0.0 2:0.0 3:0.0 4:0.0 5:0.0 6:0.011163483006698088 7:0.0269132295875505 8:0.004219409282700422 9:0.03297032970329703 10:0.0 11:0.0 12:0.0 13:0.0 14:0.01171875 15:0.0989 16:0.05123778629606832 17:5.349500713266762E-4 18:0.03297 19:0.0 20:0.26493 21:0.2635076754385965 22:0.22609861072140408 23:0.33333 24:0.02429100779384602 25:0.02468 26:1.0 27:1.0 28:1.0 29:0.0 30:0.0 31:1.0 32:0.0 33:0.0 34:0.0 35:0.0 36:0.0 37:0.0 38:0.0 39:1.0 40:0.0 41:0.0 42:1.0 43:0.0 44:0.005780346820809248 45:0.03098763700482898 46:0.024116609479911677 47:0.30499861430885994 48:1.7725604312823876E-6 49:2.0362119941031303E-6 50:0.04414426359929725 51:0.014392991239048811 52:0.75824 53:0.014042553191489362 54:0.72527 55:0.0 56:0.0 57:0.002220209765304354 58:0.06061 59:0.0 60:0.0 61:0.0 62:6.758278891642261E-4 63:0.03297 64:0.005253940455341506 65:0.33333 66:0.058188760920030044 67:0.29384669144509035 68:0.0023141452126120912 69:0.015364455692150723 70:0.10199909046228241 71:0.05423279761904762 72:0.023809523809523808 73:0.0023141452126120912 74:0.0024239132223657514 75:0.38385 76:0.3688528856481766 77:0.30940228307528944 78:0.015767822204384694 79:0.018558992406001108 80:0.16666666666666666 
137.91195861665284 0.0 0.0 0:0.0 1:0.0 2:0.0 3:0.0 4:0.0 5:0.0 6:0.10754155296452493 7:0.30673680841701 8:0.0 9:0.0 10:0.0 11:0.0 12:0.0 13:0.0 14:0.01953125 15:0.01728 16:0.007090095024924511 17:0.0012482168330955777 18:0.00806 19:0.0 20:0.44118 21:0.33498501461988306 22:0.2727165183357433 23:0.66443 24:0.1812322611163671 25:0.18413 26:1.0 27:0.0 28:1.0 29:0.0 30:0.0 31:0.0 32:0.0 33:1.0 34:0.0 35:0.0 36:0.0 37:1.0 38:0.0 39:0.0 40:0.0 41:0.0 42:1.0 43:0.25 44:0.057803468208092484 45:0.2544232272025968 46:0.029948564108176312 47:0.6677356563201728 48:0.0 49:0.0 50:0.7510856233632778 51:0.1735502711722987 52:0.95853 53:0.17340425531914894 54:0.93894 55:0.0 56:0.25 57:0.006561593561153613 58:0.00787 59:0.0 60:0.0 61:0.0 62:0.003829691371930615 63:0.01959 64:0.02626970227670753 65:0.10067 66:0.016183792937165667 67:0.7418405921407922 68:0.04281168643332369 69:0.32301367396544994 70:0.06959299599464445 71:0.028723214285714282 72:0.023809523809523808 73:0.042811686433323684 74:0.0016316064956727677 75:0.97556 76:0.37267612698082225 77:0.3165600597065763 78:0.5625595745748257 79:0.5960733469160955 80:0.0 
165.24007781387007 35.19719483799542 0.0 0:0.0 1:0.0 2:0.0 3:0.0 4:0.0 5:0.0 6:0.03435871992061523 7:0.09816177941352962 8:0.004219409282700422 9:0.01080010800108001 10:0.0 11:0.0 12:0.0 13:0.0 14:0.0 15:0.0 16:0.007160452862045106 17:3.566333808844508E-4 18:0.00719 19:0.0 20:0.28589 21:0.33501461988304093 22:0.23239219047584794 23:0.72727 24:0.0465054399243141 25:0.04725 26:1.0 27:0.0 28:1.0 29:1.0 30:0.0 31:0.0 32:0.0 33:0.0 34:0.0 35:0.0 36:0.0 37:0.0 38:0.0 39:0.0 40:0.0 41:0.0 42:1.0 43:0.25 44:0.011560693641618495 45:0.06803654797924139 46:0.029503215547930655 47:0.7785085166709305 48:0.0 49:0.0 50:0.0910829714588789 51:0.05715477680433875 52:0.98561 53:0.056595744680851066 54:0.95683 55:0.0 56:0.25 57:0.0017221742914659765 58:0.01246 59:0.0 60:0.0 61:0.0 62:0.0018022077044379365 63:0.02878 64:0.010507880910683012 65:0.13636 66:0.06087040629801168 67:0.7253232313605895 68:0.012438530517789991 69:0.09517760150443628 70:0.07555942218933072 71:0.031655833333333334 72:0.02976190476190476 73:0.012438530517789991 74:0.001744309122410381 75:0.95384 76:0.37267612698082225 77:0.3165600597065763 78:0.7312885666984398 79:0.7742822744952769 80:0.0 
4.531162585855862 0.0 0.0 0:0.0 1:0.0 2:0.0 3:0.0 4:0.0 5:0.0 6:0.0014884644008930786 7:0.007270872504700564 8:0.0 9:0.0 10:0.0 11:0.0 12:0.0 13:0.0 14:0.0 15:0.0 16:0.037666672933040116 17:0.0 18:0.0 19:0.0 20:0.11388 21:0.4864766081871345 22:0.22475155172962932 23:0.33333 24:0.01873845564715953 25:0.01804 26:1.0 27:1.0 28:0.0 29:1.0 30:0.0 31:1.0 32:0.0 33:0.0 34:0.0 35:0.0 36:1.0 37:0.0 38:0.0 39:0.0 40:0.0 41:0.0 42:1.0 43:0.5 44:0.0 45:0.0103592682389244 46:0.04284178474175835 47:0.12147181717404283 48:0.0 49:0.0 50:0.0 51:0.0027117229870671673 52:1.0 53:0.0027659574468085106 54:1.0 55:0.11538461538461539 56:1.0 57:0.004634205800065897 58:0.0 59:0.0 60:0.0 61:0.0 62:0.0 63:0.0 64:0.0 65:0.0 66:0.029328481232687754 67:0.1086057371581054 68:5.785363031530228E-4 69:0.007102059597283212 70:0.057047589725048434 71:0.01984125 72:0.005952380952380952 73:5.785363031530228E-4 74:0.0017505748613819542 75:0.12688 76:0.35217825389540025 77:0.27696939036179585 78:0.047117844780013046 79:0.04752731987405075 80:0.0 
45.44953000149688 0.0 0.0 0:0.0 1:0.0 2:0.0 3:0.0 4:0.0 5:0.0 6:0.005705780203423469 7:0.03457414889786774 8:0.0 9:0.0 10:0.0 11:0.0 12:0.0 13:0.0 14:0.0013020833333333333 15:0.02128 16:0.023425456717099127 17:0.0 18:0.0 19:0.0 20:0.08442 21:0.4864766081871345 22:0.22510077822455082 23:0.55556 24:0.01873845564715953 25:0.01801 26:1.0 27:1.0 28:0.0 29:1.0 30:0.0 31:1.0 32:0.0 33:1.0 34:0.0 35:1.0 36:0.0 37:0.0 38:0.0 39:0.0 40:0.0 41:1.0 42:1.0 43:0.25 44:0.0 45:0.027601338489590635 46:0.04284178474175835 47:0.46800829993462384 48:0.0 49:0.0 50:0.0 51:0.009386733416770963 52:0.95745 53:0.00851063829787234 54:0.85106 55:0.3076923076923077 56:0.75 57:0.0012027128173190647 58:0.01818 59:0.0 60:0.0 61:0.0 62:0.0011263798152737104 63:0.10638 64:0.0035026269702276708 65:0.22222 66:0.026603380022653104 67:0.41843768861780867 68:0.0023141452126120912 69:0.03645057066549299 70:0.0757006547541706 71:0.025132261904761904 72:0.023809523809523808 73:0.0023141452126120912 74:0.0016335830270650883 75:0.4894 76:0.5125266751522435 77:0.5292697464974981 78:0.04529172728640948 79:0.04556399333209854 80:0.0 
0.0 0.0 12.372468710174838 0:0.6000000000000001 1:0.0196078431372549 2:0.0 3:0.0 4:0.0 5:0.0 6:0.02195484991317291 7:0.030183622034644156 8:0.02953586497890295 9:0.11799117991179911 10:0.0 11:0.0 12:0.0 13:0.0 14:0.013020833333333332 15:0.05618 16:0.012217576698590322 17:3.566333808844508E-4 18:0.01124 19:0.0 20:0.47739 21:0.2503015350877193 22:0.2308704699924912 23:0.42857 24:0.047588074965085374 25:0.04881 26:0.39594 27:0.0 28:0.0 29:0.0 30:0.0 31:0.0 32:0.0 33:0.0 34:1.0 35:0.0 36:0.0 37:0.0 38:0.0 39:0.0 40:0.0 41:1.0 42:1.0 43:0.5 44:0.017341040462427744 45:0.031528643276494274 46:0.02465816697674119 47:0.27347724979392285 48:2.658840646923581E-6 49:2.0362119941031303E-6 50:0.2800112705936951 51:0.03254067584480601 52:0.8764 53:0.028085106382978724 54:0.74157 55:0.2692307692307693 56:1.0 57:0.0037376467204887796 58:0.05854 59:0.0 60:0.0 61:0.0 62:0.005406623113313809 63:0.13483 64:0.03502626970227671 65:0.71429 66:0.08078439178656736 67:0.34197083770132464 68:0.007810240092565808 69:0.026187594402376686 70:0.0559998135730144 71:0.031887738095238094 72:0.02976190476190476 73:0.007810240092565808 74:0.0017670728479015259 75:0.44679 76:0.5155549851186956 77:0.5672325100304043 78:0.08482917774544727 79:0.09261900351917021 80:0.0 
0.0 256.0 0.0 0:0.0 1:0.0 2:1.0 3:0.0 4:0.0 5:0.0 6:0.0 7:6.300756090730887E-4 8:0.0 9:0.0 10:0.0 11:1.0 12:0.0 13:0.0 14:0.0013020833333333333 15:1.0 16:0.03996572018053723 17:0.0 18:0.0 19:0.0 20:0.0 21:0.6078947368421053 22:0.2245633951727931 23:0.0 24:0.02341532639545885 25:0.0225 26:0.86351 27:0.0 28:0.0 29:1.0 30:0.0 31:0.0 32:0.0 33:0.0 34:0.0 35:0.0 36:1.0 37:0.0 38:1.0 39:0.0 40:1.0 41:0.0 42:1.0 43:0.5 44:0.0 45:0.027601338489590635 46:0.0535345277103625 47:0.011852988829197579 48:0.0 49:0.0 50:0.0 51:0.0 52:0.0 53:0.0 54:0.0 55:0.34615384615384615 56:0.5 57:0.0593454975879085 58:0.0 59:0.0 60:1.0 61:0.0 62:0.0 63:0.0 64:0.0 65:0.0 66:0.04538751387783023 67:0.010597541217954826 68:0.0 69:0.00404117193986256 70:0.01884607345223232 71:0.0 72:0.0 73:0.0 74:1.0 75:0.01238 76:0.35217825389540025 77:0.27696939036179585 78:0.9515853107911505 79:0.9508242267086497 80:0.0 
0.0 0.0 6.644987018966321 0:0.0 1:0.0 2:1.0 3:0.0 4:0.0 5:0.0 6:0.0016125031009675017 7:0.011061327359283113 8:0.0 9:0.0 10:0.0 11:0.0 12:0.0 13:0.0 14:0.0 15:0.0 16:0.025847765957839438 17:0.0 18:0.0 19:0.0 20:0.0 21:0.4864766081871345 22:0.2245633951727931 23:1.0 24:0.01873845564715953 25:0.01805 26:1.0 27:1.0 28:0.0 29:1.0 30:0.0 31:1.0 32:0.0 33:0.0 34:0.0 35:0.0 36:1.0 37:0.0 38:0.0 39:0.0 40:0.0 41:0.0 42:1.0 43:0.5 44:0.0 45:0.027601338489590635 46:0.04284178474175835 47:0.11650464739490067 48:0.0 49:0.0 50:0.0 51:0.002920317062995411 52:1.0 53:0.0027659574468085106 54:0.92857 55:0.42307692307692313 56:0.5 57:0.004831801136244603 58:0.0 59:0.0 60:0.0 61:0.0 62:2.2527596305474206E-4 63:0.07143 64:0.0017513134851138354 65:1.0 66:0.028823832860459114 67:0.10416468121604879 68:0.0 69:0.004361264766782367 70:0.18524063204397415 71:0.07738095238095238 72:0.07738095238095238 73:0.0 74:1.0 75:0.12167 76:0.35217825389540025 77:0.27696939036179585 78:0.04529172728640948 79:0.045749212817188356 80:0.0 
0.0 9.319280295720134 0.0 0:0.0 1:0.0 2:0.0 3:0.0 4:0.0 5:0.0 6:0.0075663607045398165 7:0.014431731807816936 8:0.0 9:0.0 10:0.0 11:0.0 12:0.0 13:0.0 14:0.0 15:0.0 16:0.016306971687722445 17:1.783166904422254E-4 18:0.01613 19:0.0 20:0.1345 21:0.3919353070175438 22:0.22567377066611635 23:0.66667 24:0.01621840789295851 25:0.01603 26:1.0 27:1.0 28:1.0 29:1.0 30:1.0 31:0.0 32:0.0 33:0.0 34:0.0 35:0.0 36:0.0 37:0.0 38:0.0 39:1.0 40:0.0 41:1.0 42:1.0 43:0.0 44:0.0 45:0.008465746288095858 46:0.03708019235349783 47:0.7012876268440352 48:0.0 49:0.0 50:0.0 51:0.012515644555694618 52:0.96774 53:0.012340425531914893 54:0.93548 55:0.0 56:0.25 57:6.946785433367044E-4 58:0.02857 59:0.0 60:0.0 61:0.0 62:4.505519261094841E-4 63:0.03226 64:0.0035026269702276708 65:0.22222 66:0.06044706238575321 67:0.6270084818450395 68:0.0023141452126120912 69:0.01179342009182663 70:0.1155470784631637 71:0.03505291666666666 72:0.02976190476190476 73:0.0023141452126120912 74:0.0019578417417399005 75:0.91316 76:0.399483176318616 77:0.3761764750078892 78:0.0650140470576431 79:0.06792924615669567 80:0.0 
0.0 0.0 1.486142543632573 0:0.2 1:0.0 2:0.0 3:0.0 4:0.0 5:0.0 6:0.02964524931778715 7:0.05622674720966516 8:0.04641350210970464 9:0.13749137491374913 10:0.0 11:0.0 12:0.0 13:0.0 14:0.0390625 15:0.125 16:0.014657882733457271 17:5.349500713266762E-4 18:0.0125 19:0.0 20:0.44406 21:0.24352339181286548 22:0.23252043482338278 23:0.41176 24:0.034606309411181695 25:0.03421 26:1.0 27:0.0 28:1.0 29:0.0 30:0.0 31:0.0 32:0.0 33:0.0 34:0.0 35:0.0 36:0.0 37:0.0 38:0.0 39:0.0 40:0.0 41:1.0 42:1.0 43:0.25 44:0.011560693641618495 45:0.029124170957981844 46:0.025411100882585826 47:0.5256121912395896 48:0.1874659912124253 49:0.31813776195867305 50:0.2585606788875261 51:0.03984146850229454 52:0.79583 53:0.03468085106382979 54:0.67917 55:0.0 56:0.25 57:0.001457444154320529 58:0.05861 59:1.0 60:1.0 61:0.0 62:0.0063077269655327775 63:0.11667 64:0.04203152364273205 65:0.70588 66:0.05195635352300635 67:0.6378061564852758 68:0.009545849002024875 69:0.04536315531504136 70:0.06867964499782502 71:0.036064404761904756 72:0.02976190476190476 73:0.009545849002024875 74:0.0018824242956206846 75:0.92888 76:0.3974958479031319 77:0.37228452788226996 78:0.11105453268449306 79:0.11523430264863861 80:0.0 
256.0 26.6154147954137 0.0 0:0.0 1:0.0 2:0.0 3:0.0 4:0.0 5:0.0 6:0.04180104192508063 7:0.1083329999599952 8:0.008438818565400843 9:0.017760177601776016 10:0.0 11:0.0 12:0.054540545405454055 13:0.0 14:0.005208333333333333 15:0.01183 16:0.009720490654819032 17:0.0010699001426533524 18:0.01775 19:0.0 20:0.45356 21:0.3248176169590643 22:0.24329390407615248 23:0.69091 24:0.08306443438302474 25:0.07954 26:1.0 27:0.0 28:1.0 29:1.0 30:0.0 31:0.0 32:0.0 33:0.0 34:0.0 35:0.0 36:0.0 37:0.0 38:0.0 39:0.0 40:0.0 41:0.0 42:1.0 43:0.25 44:0.023121387283236993 45:0.10036668202857314 46:0.029133057377735146 47:0.5557403143742362 48:2.83609669005182E-6 49:2.0362119941031303E-6 50:0.5662379421221865 51:0.06654151022110973 52:0.94379 53:0.06595744680851064 54:0.91716 55:0.0 56:0.25 57:0.0036431342524611333 58:0.02806 59:0.0 60:0.0 61:1.0 62:0.0020274836674926784 63:0.02663 64:0.01576182136602452 65:0.16364 66:0.06220351908131567 67:0.6123939769370056 68:0.015620480185131617 69:0.11108221384201418 70:0.07188435312660651 71:0.03062767857142857 72:0.03571428571428571 73:0.015620480185131616 74:0.001706714688580941 75:0.73308 76:0.4014705047341002 77:0.35699724007353134 78:0.527673957758491 79:0.5255139840711243 80:0.0 
0.0 17.46063353552372 19.111739268012766 0:0.0 1:0.0 2:0.0 3:0.6666666666666666 4:0.0 5:0.0 6:0.024683701314810222 7:0.03228387406488778 8:0.0 9:0.0 10:0.0 11:0.0 12:0.0 13:0.0 14:0.02734375 15:0.105 16:0.012006503187228538 17:7.132667617689016E-4 18:0.02 19:0.0 20:0.41293 21:0.24432967836257308 22:0.22981421091480733 23:0.65517 24:0.0451665765644006 25:0.04543 26:0.399 27:0.0 28:0.0 29:0.0 30:0.0 31:0.0 32:0.0 33:0.0 34:0.0 35:1.0 36:0.0 37:0.0 38:0.0 39:0.0 40:0.0 41:1.0 42:1.0 43:1.0 44:0.017341040462427744 45:0.030196164866651973 46:0.021524697596868782 47:0.30089306017452605 48:0.0 49:0.0 50:0.22678754930884742 51:0.034626616604088445 52:0.83 53:0.03404255319148936 54:0.8 55:0.19230769230769232 56:0.75 57:0.0034981516503733833 58:0.05263 59:0.0 60:0.0 61:0.0 62:0.0013516557783284523 63:0.03 64:0.008756567425569177 65:0.17241 66:0.15226503011068618 67:0.34678674672003557 68:0.00809950824414232 69:0.02820818037230797 70:0.060011665809855765 71:0.0350985119047619 72:0.03571428571428571 73:0.00809950824414232 74:0.0018611530530176178 75:0.45305 76:0.5188086439322604 77:0.5729276759014843 78:0.5662494356092912 79:0.5936840155584366 80:0.08333333333333333 
192.90850518550397 68.64458432035806 0.0 0:0.0 1:0.0 2:0.0 3:0.0 4:0.0 5:0.0 6:0.04973951872984371 7:0.1419470336440373 8:0.008438818565400843 9:0.014940149401494015 10:0.0 11:0.0 12:0.0 13:0.0 14:0.016927083333333332 15:0.03234 16:0.0071727963422417015 17:0.0010699001426533524 18:0.01493 19:0.0 20:0.32684 21:0.3346374269005848 22:0.23838785932334755 23:0.64935 24:0.09701339144929497 25:0.09857 26:1.0 27:0.0 28:1.0 29:1.0 30:0.0 31:0.0 32:0.0 33:0.0 34:0.0 35:0.0 36:0.0 37:0.0 38:0.0 39:0.0 40:0.0 41:1.0 42:1.0 43:0.25 44:0.02890173410404624 45:0.11836014987877451 46:0.02946996568794701 47:0.5784461072738126 48:2.9424503159287632E-6 49:2.0362119941031303E-6 50:0.07140418337918919 51:0.07822277847309136 52:0.93284 53:0.07787234042553191 54:0.91045 55:0.0 56:0.25 57:0.0048517987365325685 58:0.0272 59:0.0 60:0.0 61:0.0 62:0.0020274836674926784 63:0.02239 64:0.01576182136602452 65:0.11688 66:0.016293133417815207 67:0.5370485085294958 68:0.021984379519814867 69:0.15917616108671515 70:0.06292416376198358 71:0.025123690476190477 72:0.017857142857142856 73:0.021984379519814867 74:0.001513902034391324 75:0.70102 76:0.44476942258646057 77:0.4426551394238717 78:0.5076079867556315 79:0.5380348212631968 80:0.0 
163.15015361163168 16.95033410020646 0.0 0:0.0 1:0.0 2:0.0 3:0.0 4:0.0 5:0.0 6:0.08571074175142644 7:0.24442933151978236 8:0.012658227848101264 9:0.013020130201302013 10:0.0 11:0.0 12:0.026550265502655025 13:0.0 14:0.0 15:0.0 16:0.007174030690261362 17:0.0010699001426533524 18:0.00867 19:0.0 20:0.34574 21:0.3346315789473684 22:0.24999123188285188 23:0.69912 24:0.16437609812136778 25:0.16701 26:1.0 27:0.0 28:1.0 29:0.0 30:0.0 31:0.0 32:0.0 33:0.0 34:0.0 35:0.0 36:0.0 37:1.0 38:0.0 39:0.0 40:0.0 41:1.0 42:1.0 43:0.25 44:0.05202312138728324 45:0.19850922716252228 46:0.029469418497608455 47:0.576542380830562 48:1.41804834502591E-6 49:2.0362119941031303E-6 50:0.2088938243776312 51:0.14080100125156444 52:0.97543 53:0.14212765957446807 54:0.96532 55:0.0 56:0.25 57:0.008010705382020825 58:0.01741 59:0.0 60:0.0 61:0.0 62:0.0015769317413831944 63:0.01012 64:0.012259194395796848 65:0.06195 66:0.044610916105011715 67:0.5511388544744115 68:0.03239803297656928 69:0.23372778105650638 70:0.0724955794207205 71:0.030499345238095235 72:0.02976190476190476 73:0.03239803297656928 74:0.0016916822933658786 75:0.71941 76:0.44476942258646057 77:0.4426551394238717 78:0.6013231826619175 79:0.6370161140952028 80:0.0 
256.0 0.0 0.0 0:0.0 1:0.0 2:1.0 3:0.0 4:0.0 5:0.0 6:8.682709005209625E-4 7:0.002710325239028683 8:0.0 9:0.0 10:0.0 11:0.0 12:0.0 13:0.0 14:0.0 15:0.0 16:0.010735124726979189 17:0.0 18:0.0 19:0.0 20:0.00242 21:0.34466374269005845 22:0.22456498725602475 23:1.0 24:0.01327600576654503 25:0.01349 26:0.66136 27:0.0 28:1.0 29:1.0 30:0.0 31:0.0 32:0.0 33:0.0 34:0.0 35:0.0 36:0.0 37:0.0 38:0.0 39:0.0 40:0.0 41:0.0 42:1.0 43:0.25 44:0.0 45:0.018173803274089805 46:0.030352969956031647 47:0.06825239475853444 48:0.0 49:0.0 50:0.0 51:0.001668752607425949 52:1.0 53:0.0014893617021276596 54:0.875 55:0.0 56:0.25 57:0.005843346417477521 58:0.0 59:0.0 60:0.0 61:0.0 62:2.2527596305474206E-4 63:0.125 64:0.0017513134851138354 65:1.0 66:0.3702408854896771 67:0.061023221830426626 68:0.0 69:0.0017805163497414244 70:0.10852027817165968 71:0.041666666666666664 72:0.041666666666666664 73:0.0 74:1.0 75:0.07965 76:0.4447700140532509 77:0.4426551394238717 78:0.2824411779461195 79:0.3002222633821078 80:0.0 
0.0 22.460696721827773 0.0 0:0.0 1:0.0 2:0.0 3:0.0 4:0.0 5:0.0 6:0.01153559910692136 7:0.03053366403968476 8:0.004219409282700422 9:0.03192031920319203 10:0.0 11:0.0 12:0.0 13:0.0 14:0.01171875 15:0.09574 16:0.04600044764865281 17:5.349500713266762E-4 18:0.03191 19:0.0 20:0.364 21:0.2677266081871345 22:0.2270659163534292 23:0.54545 24:0.024279745010587016 25:0.02493 26:1.0 27:1.0 28:0.0 29:1.0 30:0.0 31:1.0 32:0.0 33:0.0 34:0.0 35:0.0 36:0.0 37:0.0 38:0.0 39:1.0 40:0.0 41:0.0 42:1.0 43:0.25 44:0.005780346820809248 45:0.039884184583324975 46:0.023577466058105175 47:0.3129165956055826 48:0.0 49:0.0 50:0.14404978950508834 51:0.015227367542761786 52:0.7766 53:0.01446808510638298 54:0.7234 55:0.038461538461538464 56:0.25 57:0.001869775626924769 58:0.05769 59:0.0 60:0.0 61:0.0 62:0.0011263798152737104 63:0.05319 64:0.008756567425569177 65:0.45455 66:0.05224091913290195 67:0.34879602274532223 68:0.002892681515765114 69:0.017895189604985446 70:0.08437233423533864 71:0.04491339285714286 72:0.03571428571428571 73:0.002892681515765114 74:0.002190131240608787 75:0.45567 76:0.3688534771149669 77:0.30940729201624906 78:0.015777855816986906 79:0.019059085015743656 80:0.16666666666666666 
0.0 2.6386420490824856 0.0 0:0.0 1:0.0 2:0.0 3:0.0 4:0.0 5:0.0 6:0.01153559910692136 7:0.01815217826139137 8:0.004219409282700422 9:0.03192031920319203 10:0.0 11:0.0 12:0.0 13:0.0 14:0.01171875 15:0.09574 16:0.04525860448883741 17:5.349500713266762E-4 18:0.03191 19:0.0 20:0.364 21:0.2677266081871345 22:0.2270659163534292 23:0.54545 24:0.024279745010587016 25:0.0249 26:1.0 27:1.0 28:0.0 29:1.0 30:0.0 31:1.0 32:0.0 33:0.0 34:1.0 35:0.0 36:0.0 37:0.0 38:0.0 39:1.0 40:0.0 41:0.0 42:1.0 43:0.5 44:0.005780346820809248 45:0.02635902779169255 46:0.023577466058105175 47:0.3129165956055826 48:0.0 49:0.0 50:0.14404978950508834 51:0.015227367542761786 52:0.7766 53:0.01446808510638298 54:0.7234 55:0.42307692307692313 56:0.25 57:0.001869775626924769 58:0.05769 59:0.0 60:0.0 61:0.0 62:0.0011263798152737104 63:0.05319 64:0.008756567425569177 65:0.45455 66:0.05139843671148691 67:0.34879602274532223 68:0.002892681515765114 69:0.011553350471636773 70:0.08437233423533864 71:0.04491339285714286 72:0.03571428571428571 73:0.002892681515765114 74:0.002190131240608787 75:0.45567 76:0.3688534771149669 77:0.30940729201624906 78:0.015777855816986906 79:0.019003519170216702 80:0.16666666666666666 
4.082554117698267 0.0 0.0 0:0.0 1:0.0 2:1.0 3:0.0 4:0.0 5:0.0 6:0.008062515504837508 7:0.012711525383045964 8:0.0 9:0.0 10:0.0 11:0.0 12:0.0 13:1.0 14:0.020833333333333332 15:0.24242 16:0.013707434758319412 17:0.0 18:0.0 19:0.0 20:0.39652 21:0.2509502923976608 22:0.22647712249622828 23:0.25 24:0.02227637743839258 25:0.02285 26:1.0 27:0.0 28:0.0 29:0.0 30:0.0 31:0.0 32:0.0 33:0.0 34:1.0 35:0.0 36:0.0 37:0.0 38:0.0 39:0.0 40:0.0 41:0.0 42:1.0 43:0.5 44:0.005780346820809248 45:0.02635902779169255 46:0.022100052144020495 47:0.2311661479207527 48:0.0 49:0.0 50:0.12562236881360428 51:0.00980392156862745 52:0.71212 53:0.008723404255319148 54:0.62121 55:0.42307692307692313 56:0.5 57:0.002241873832282983 58:0.03896 59:0.0 60:0.0 61:0.0 62:0.0013516557783284523 63:0.09091 64:0.010507880910683012 65:0.5 66:0.03526651041257808 67:0.2668747418914197 68:0.0031819496673416254 69:0.01263366376249112 70:0.055018783931123694 71:0.02678571428571428 72:0.03571428571428571 73:0.0031819496673416254 74:0.0016578123438607429 75:0.34865 76:0.40490042065118126 77:0.3727553683324735 78:0.1748545126172679 79:0.18860900166697533 80:0.5 
91.97689481487798 0.0 0.0 0:0.0 1:0.0 2:0.08333 3:0.0 4:0.0 5:0.0 6:0.1645993549987596 7:0.6483978077369285 8:0.04641350210970464 9:0.02484024840248402 10:0.0 11:0.0 12:0.0 13:0.0 14:0.005208333333333333 15:0.00301 16:0.042333199682244256 17:0.0016048502139800287 18:0.00678 19:0.0 20:0.32499 21:0.4855263157894737 22:0.30292519981396904 23:0.69333 24:0.42509122854439796 25:0.4247 26:1.0 27:0.0 28:1.0 29:0.0 30:0.0 31:0.0 32:0.0 33:0.0 34:0.0 35:0.0 36:0.0 37:1.0 38:1.0 39:0.0 40:0.0 41:0.0 42:1.0 43:0.25 44:0.09826589595375722 45:0.4990682669765764 46:0.04275809680762719 47:0.7519347446064638 48:0.0 49:0.0 50:0.49380780322869366 51:0.2690863579474343 52:0.97139 53:0.26893617021276595 54:0.95181 55:0.0 56:0.25 57:0.016341372368649097 58:0.01675 59:0.0 60:0.0 61:0.0 62:0.005857175039423294 63:0.01958 64:0.024518388791593695 65:0.06222 66:0.048076168260981704 67:0.6986896025922043 68:0.06479606595313855 69:0.6776165087875483 70:0.08315626535904141 71:0.02917988095238095 72:0.023809523809523808 73:0.06479606595313855 74:0.001644016961489854 75:0.88607 76:0.3814558600163718 77:0.32918259092480084 78:0.5520468569708524 79:0.5747638451565105 80:0.0 
256.0 40.69841694402142 20.995089192712555 0:0.0 1:0.0 2:0.0 3:0.0 4:0.0 5:0.0 6:0.01153559910692136 7:0.03116373964875785 8:0.0 9:0.0 10:0.0 11:0.0 12:0.0 13:0.0 14:0.0 15:0.0 16:0.025521379654481053 17:0.0 18:0.0 19:0.0 20:0.57935 21:0.4855270467836257 22:0.24066011193964743 23:0.36364 24:0.04830607739784656 25:0.04675 26:1.0 27:0.0 28:0.0 29:1.0 30:0.0 31:0.0 32:0.0 33:0.0 34:0.0 35:0.0 36:0.0 37:0.0 38:0.0 39:0.0 40:0.0 41:0.0 42:1.0 43:0.25 44:0.005780346820809248 45:0.04822970725549522 46:0.04276453434102189 47:0.45314054461214864 48:0.0 49:0.0 50:0.6330526734511221 51:0.018147684605757195 52:0.92553 53:0.017446808510638297 54:0.87234 55:0.038461538461538464 56:1.0 57:0.001831446893039502 58:0.01923 59:0.0 60:0.0 61:0.0 62:0.0011263798152737104 63:0.05319 64:0.005253940455341506 65:0.27273 66:0.09337677047470588 67:0.7084786683185614 68:0.002892681515765114 69:0.022166428264196614 70:0.1239934637568992 71:0.04491339285714286 72:0.047619047619047616 73:0.002892681515765114 74:0.002190131240608787 75:0.89838 76:0.3814558600163718 77:0.3291725730428816 78:0.07276626699443135 79:0.0737266160400074 80:0.0 
8.217248941439536 0.0 0.0 0:0.0 1:0.0 2:0.0 3:0.16666666666666666 4:0.0 5:0.0 6:0.029769288017861575 7:0.10889306716806016 8:0.008438818565400843 9:0.024900249002490025 10:0.0 11:0.0 12:0.0 13:0.0 14:0.0078125 15:0.0249 16:0.01937432651657645 17:7.132667617689016E-4 18:0.0166 19:0.0 20:0.31534 21:0.4855263157894737 22:0.23799170828148575 23:0.6129 24:0.06651236653601839 25:0.0784 26:1.0 27:0.0 28:0.0 29:1.0 30:0.0 31:0.0 32:0.0 33:0.0 34:0.0 35:1.0 36:0.0 37:0.0 38:1.0 39:0.0 40:0.0 41:0.0 42:1.0 43:1.0 44:0.011560693641618495 45:0.08400625162802812 46:0.04275809680762719 47:0.8053779028452859 48:0.0 49:0.0 50:0.2145307786654291 51:0.04526491447642887 52:0.90041 53:0.044042553191489364 54:0.85892 55:0.6923076923076923 56:0.75 57:0.002265204365952276 58:0.02952 59:0.0 60:0.0 61:0.0 62:0.0022527596305474207 63:0.04149 64:0.017513134851138354 65:0.32258 66:0.022002669029168673 67:0.7886257505003335 68:0.008678044547295344 69:0.08608496463974552 70:0.11033489065774829 71:0.040322559523809524 72:0.03571428571428571 73:0.008678044547295342 74:0.002000693480157077 75:0.99992 76:0.3646700325070148 77:0.3005364575767746 78:0.7267069683439524 79:0.8970550101870716 80:0.11111 
34.74910210933336 0.0 0.0 0:0.0 1:0.2549019607843137 2:0.07407 3:0.0 4:0.005354973225133874 5:0.0 6:0.20850905482510543 7:0.4526943233187982 8:0.02953586497890295 9:0.012480124801248011 10:0.0 11:0.0 12:0.01017010170101701 13:0.0 14:0.11067708333333333 15:0.05054 16:0.012860672016832954 17:0.006776034236804565 18:0.02259 19:0.0 20:0.29273 21:0.30611915204678364 22:0.26522490058783205 23:0.57966 24:0.23289042438167323 25:0.23711 26:1.0 27:0.0 28:1.0 29:0.0 30:0.0 31:0.0 32:0.0 33:1.0 34:0.0 35:0.0 36:0.0 37:1.0 38:0.0 39:0.0 40:0.0 41:0.0 42:1.0 43:0.25 44:0.08670520231213873 45:0.2793596088725029 46:0.030665995017349155 47:0.7855324251726785 48:1.559853179528501E-6 49:4.0724239882062605E-6 50:0.5383498524878177 51:0.3112223612849395 52:0.88704 53:0.30446808510638296 54:0.85077 55:0.0 56:0.25 57:0.008514216389271382 58:0.03593 59:0.0 60:0.0 61:0.0 62:0.013741833746339265 63:0.03627 64:0.05604203152364273 65:0.10847 66:0.07238479999102847 67:0.7346897931954636 68:0.08504483656349435 69:0.47874883716277716 70:0.06127595148378932 71:0.027986249999999997 72:0.023809523809523808 73:0.08504483656349435 74:0.0016031417544649983 75:0.92757 76:0.386689749643937 77:0.33771782631998126 78:0.4738988110169067 79:0.5035284311909611 80:0.0 
